svm_type c_svc
kernel_type rbf
gamma 0.1
nr_class 2
total_sv 9
rho 0.2
label 1 2
nr_sv 4 5
SV
1 1:6.4500427 2:3.5558243 3:4.6036377 4:17.148254 5:0.33181 6:8.3829346 7:8.3112221 8:4.05233 9:5.1120605 10:11.0618 11:-0.14435577 12:5.2692871 13:6.6460648 14:-1.223114 15:3.590332 16:9.2006836 17:1.4577789 18:4.5709229 19:8.1173897 20:0.15284729 21:3.3438721 22:8.2887478 23:0.09223938 24:3.5598145 25:10.040784 26:-0.59951019 27:5.3380127 28:6.3140955 29:0.92939758 30:2.5490723 31:8.8790455 32:1.1466904 33:5.5734863 34:7.5102272 35:-1.9197922 36:3.9228516 37:10.818336 38:-0.86984253 39:5.8919678 40:10.370701 41:-0.44220734 42:6.0975342 43:7.7772598 44:0.31424713 45:5.2293701 46:10.208397 47:0.70575714 48:6.7426758 49:8.173027 50:0.92084503 51:5.4936523 52:9.0354843 53:-0.41819763 54:6.2940674 55:9.8692627 56:-2.6723328 57:7.3353271 58:6.2996597 59:-0.96421051 60:4.4763184 61:7.3152847 62:-1.2257156 63:6.1768799 64:4.9958572 65:-0.24747467 66:4.7890625 67:9.1170502 68:1.0025635 69:7.8328857 70:4.7487946 71:-0.72745514 72:5.3804932 73:5.9862976 74:-1.3328781 75:6.5321045 76:6.7539368 77:-0.048858643 78:7.7064209 79:9.1230927 80:0.26026917 81:8.413208 82:4.6921997 83:-1.737381 84:5.4537354 85:9.1665344 86:0.49555969 87:9.7888184 88:10.181503 89:-0.99134064 90:8.9094238 91:7.6412354 92:-3.9425774 93:6.6538086 94:7.6793823 95:-3.2462463 96:4.4686279 97:7.4250488 98:-0.92684174 99:5.7030029 100:11.51825 101:2.7374802 102:7.7667236 103:6.7124481 104:0.84508514 105:4.1446533 106:8.5605774 107:-2.4687958 108:6.6268311 109:10.941925 110:1.2667503 111:8.7591553 112:4.0105896 113:0.18912125 114:-0.39672852 115:6.2421265 116:-2.6302567 117:4.2840576 118:6.9663086 119:-2.9664001 120:3.7121582 121:8.1234436 122:0.56801224 123:6.5332031 124:8.2363892 125:-0.84839249 126:7.5518799 127:5.6203918 128:-1.0641022 129:1.5212402 130:5.3563843 131:-1.2302818 132:3.3046875 133:5.7800293 134:0.55969238 135:2.3669434 136:6.8978882 137:-0.26052094 138:5.8879395 139:7.4732056 140:0.28490448 141:5.6241455 142:4.3967285 143:-4.9203911 144:0.86401367 145:4.6838074 146:-6.5732422 147:0.40185547 148:2.4952393 149:-1.6088409 150:-0.073242188 151:6.0194702 152:-0.88605881 153:3.9625244 154:4.3911743 155:0.084049225 156:0.72192383 157:2.3757629 158:1.2596474 159:1.3422852 160:1.4048462 161:-0.40364075 162:0.26062012 163:0.5534668 164:-0.83268738 165:-1.2495117 166:0.14981079 167:0.057697296 168:-1.4864502 169:-0.74206543 170:-0.16708374 171:-0.86804199 172:-0.81884766 173:-0.030948639 174:-1.286499 175:-1.9111938 176:-1.9061852 177:-3.0313721 178:-0.060577393 179:1.4481964 180:-0.55981445 181:0.28366089 182:0.41601181 183:0.3112793 184:-0.3572998 185:-1.6754036 186:-1.8560791 187:-0.06262207 188:0.77490616 189:-1.7110596 190:-0.14971924 191:1.5508614 192:-1.8187256 193:-0.26882935 194:-0.19819641 195:-0.88989258 196:-0.83761597 197:0.1709938 198:-1.4776611 199:-0.086975098 200:1.2963867 201:0.68859863 202:-2.4643555 203:4.7019424 204:-2.2530518 205:0.65011597 206:2.1903725 207:1.5687256 208:-0.24423218 209:0.98040009 210:-0.36816406 211:-1.769043 212:0.77281952 213:0.33752441 214:1.4912415 215:-0.8144722 216:0.27514648 217:-1.5272522 218:2.5358543 219:0.14746094 220:-0.14923096 221:-2.2827492 222:-0.36218262 223:-1.15271 224:-0.68213654 225:0.64538574 226:0.58572388 227:-0.20729065 228:0.171875 229:-0.43115234 230:0.61040878 231:-1.2475586 232:0.94088745 233:0.57007599 234:1.0581055 
1 1:6.4500427 2:3.5558243 3:4.6036377 4:17.148254 5:0.33181 6:8.3829346 7:8.3112221 8:4.05233 9:5.1120605 10:11.0618 11:-0.14435577 12:5.2692871 13:6.6460648 14:-1.223114 15:3.590332 16:9.2006836 17:1.4577789 18:4.5709229 19:8.1173897 20:0.15284729 21:3.3438721 22:8.2887478 23:0.09223938 24:3.5598145 25:10.040784 26:-0.59951019 27:5.3380127 28:6.3140955 29:0.92939758 30:2.5490723 31:8.8790455 32:1.1466904 33:5.5734863 34:7.5102272 35:-1.9197922 36:3.9228516 37:10.818336 38:-0.86984253 39:5.8919678 40:10.370701 41:-0.44220734 42:6.0975342 43:7.7772598 44:0.31424713 45:5.2293701 46:10.208397 47:0.70575714 48:6.7426758 49:8.173027 50:0.92084503 51:5.4936523 52:9.0354843 53:-0.41819763 54:6.2940674 55:9.8692627 56:-2.6723328 57:7.3353271 58:6.2996597 59:-0.96421051 60:4.4763184 61:7.3152847 62:-1.2257156 63:6.1768799 64:4.9958572 65:-0.24747467 66:4.7890625 67:9.1170502 68:1.0025635 69:7.8328857 70:4.7487946 71:-0.72745514 72:5.3804932 73:5.9862976 74:-1.3328781 75:6.5321045 76:6.7539368 77:-0.048858643 78:7.7064209 79:9.1230927 80:0.26026917 81:8.413208 82:4.6921997 83:-1.737381 84:5.4537354 85:9.1665344 86:0.49555969 87:9.7888184 88:10.181503 89:-0.99134064 90:8.9094238 91:7.6412354 92:-3.9425774 93:6.6538086 94:7.6793823 95:-3.2462463 96:4.4686279 97:7.4250488 98:-0.92684174 99:5.7030029 100:11.51825 101:2.7374802 102:7.7667236 103:6.7124481 104:0.84508514 105:4.1446533 106:8.5605774 107:-2.4687958 108:6.6268311 109:10.941925 110:1.2667503 111:8.7591553 112:4.0105896 113:0.18912125 114:-0.39672852 115:6.2421265 116:-2.6302567 117:4.2840576 118:6.9663086 119:-2.9664001 120:3.7121582 121:8.1234436 122:0.56801224 123:6.5332031 124:8.2363892 125:-0.84839249 126:7.5518799 127:5.6203918 128:-1.0641022 129:1.5212402 130:5.3563843 131:-1.2302818 132:3.3046875 133:5.7800293 134:0.55969238 135:2.3669434 136:6.8978882 137:-0.26052094 138:5.8879395 139:7.4732056 140:0.28490448 141:5.6241455 142:4.3967285 143:-4.9203911 144:0.86401367 145:4.6838074 146:-6.5732422 147:0.40185547 148:2.4952393 149:-1.6088409 150:-0.073242188 151:6.0194702 152:-0.88605881 153:3.9625244 154:4.3911743 155:0.084049225 156:0.72192383 157:2.3757629 158:1.2596474 159:1.3422852 160:1.4048462 161:-0.40364075 162:0.26062012 163:0.5534668 164:-0.83268738 165:-1.2495117 166:0.14981079 167:0.057697296 168:-1.4864502 169:-0.74206543 170:-0.16708374 171:-0.86804199 172:-0.81884766 173:-0.030948639 174:-1.286499 175:-1.9111938 176:-1.9061852 177:-3.0313721 178:-0.060577393 179:1.4481964 180:-0.55981445 181:0.28366089 182:0.41601181 183:0.3112793 184:-0.3572998 185:-1.6754036 186:-1.8560791 187:-0.06262207 188:0.77490616 189:-1.7110596 190:-0.14971924 191:1.5508614 192:-1.8187256 193:-0.26882935 194:-0.19819641 195:-0.88989258 196:-0.83761597 197:0.1709938 198:-1.4776611 199:-0.086975098 200:1.2963867 201:0.68859863 202:-2.4643555 203:4.7019424 204:-2.2530518 205:0.65011597 206:2.1903725 207:1.5687256 208:-0.24423218 209:0.98040009 210:-0.36816406 211:-1.769043 212:0.77281952 213:0.33752441 214:1.4912415 215:-0.8144722 216:0.27514648 217:-1.5272522 218:2.5358543 219:0.14746094 220:-0.14923096 221:-2.2827492 222:-0.36218262 223:-1.15271 224:-0.68213654 225:0.64538574 226:0.58572388 227:-0.20729065 228:0.171875 229:-0.43115234 230:0.61040878 231:-1.2475586 232:0.94088745 233:0.57007599 234:1.0581055 235:-427.29236 236:2.7124329 237:-281.40283 238:8.5711288 239:4.8130264 240:2.6749268 241:7.5031433 242:-0.9119873 243:2.5515137 244:10.686989 245:-1.1806908 246:4.0290527 247:9.6412659 248:-0.44151688 249:4.451416 250:7.7444038 251:4.4308586 252:3.7521973 253:8.6013603 254:4.2638092 255:4.78125 256:7.7294312 257:-1.7457161 258:3.8203125 259:7.6216431 260:2.608326 261:4.6955566 262:9.2081337 263:3.0166473 264:5.7072754 265:5.4467468 266:-0.23073578 267:3.6014404 268:7.9243422 269:1.9072952 270:5.7843018 271:10.138556 272:-2.5798302 273:7.2803955 274:6.9961891 275:0.076725006 276:7.9030762 277:6.4051723 278:3.7126999 279:6.8387451 280:4.8604307 281:-4.5083542 282:7.1341553 283:6.3437948 284:-6.7875481 285:9.4266357 286:4.2078228 287:-3.1263237 288:7.8848877 289:7.1437607 290:-1.3713875 291:9.3480225 292:6.0923576 293:2.2643967 294:7.9804688 295:7.9970436 296:2.1457024 297:8.7998047 298:7.3141251 299:2.975914 300:8.0169678 301:7.3640022 302:-0.16075516 303:7.2508545 304:8.6575661 305:-0.21313095 306:8.6466064 307:8.2096863 308:-1.7510109 309:8.6358643 310:11.071548 311:1.0849609 312:9.5496826 313:9.7398911 314:-3.066124 315:9.710083 316:5.1271896 317:0.47054672 318:4.2133789 319:11.255882 320:1.1566849 321:9.6599121 322:9.8504944 323:-3.2036819 324:8.7808838 325:11.119232 326:-2.2888412 327:10.013184 328:7.0508728 329:-2.8345032 330:5.0324707 331:8.548645 332:-1.053299 333:6.5115967 334:8.1609802 335:0.80992508 336:6.5860596 337:9.2840729 338:1.239212 339:5.9926758 340:7.6261444 341:-5.2669868 342:6.4733887 343:5.7876892 344:-3.8927841 345:1.6186523 346:7.3016968 347:-2.3627396 348:5.3012695 349:5.9602203 350:-0.18035126 351:3.1777344 352:9.4730682 353:-0.52757263 354:7.4672852 355:5.4367218 356:1.5117378 357:5.4677734 358:8.2954254 359:-3.7160301 360:6.3361816 361:4.7607422 362:-1.2101097 363:2.7773438 364:7.7092438 365:-0.82855606 366:6.7419434 367:5.3394012 368:-6.6019058 369:3.0078125 370:4.780014 371:-0.34331131 372:3.7498779 373:8.0057983 374:-4.41008 375:5.5585938 376:3.8659363 377:-0.39718819 378:2.4864502 379:4.0977173 380:3.7158585 381:3.0012207 382:2.8530579 383:-0.49704552 384:1.2805176 385:2.0993652 386:-1.119606 387:1.2374268 388:-0.66040039 389:-0.3495121 390:-0.13623047 391:-1.2689209 392:-0.59455109 393:-1.7640381 394:1.7769775 395:-1.6065712 396:0.17456055 397:-0.30230713 398:-2.2905273 399:-1.4139404 400:1.2189636 401:0.32233429 402:-2.5323486 403:-2.499176 404:0.12449265 405:-1.3580322 406:-0.45098877 407:0.48436165 408:-0.26672363 409:1.745575 410:3.7819347 411:0.25268555 
1 1:6.4500427 2:3.5558243 3:4.6036377 4:17.148254 5:0.33181 6:8.3829346 7:8.3112221 8:4.05233 9:5.1120605 10:11.0618 11:-0.14435577 12:5.2692871 13:6.6460648 14:-1.223114 15:3.590332 16:9.2006836 17:1.4577789 18:4.5709229 19:8.1173897 20:0.15284729 21:3.3438721 22:8.2887478 23:0.09223938 24:3.5598145 25:10.040784 26:-0.59951019 27:5.3380127 28:6.3140955 29:0.92939758 30:2.5490723 31:8.8790455 32:1.1466904 33:5.5734863 34:7.5102272 35:-1.9197922 36:3.9228516 37:10.818336 38:-0.86984253 39:5.8919678 40:10.370701 41:-0.44220734 42:6.0975342 43:7.7772598 44:0.31424713 45:5.2293701 46:10.208397 47:0.70575714 48:6.7426758 49:8.173027 50:0.92084503 51:5.4936523 52:9.0354843 53:-0.41819763 54:6.2940674 55:9.8692627 56:-2.6723328 57:7.3353271 58:6.2996597 59:-0.96421051 60:4.4763184 61:7.3152847 62:-1.2257156 63:6.1768799 64:4.9958572 65:-0.24747467 66:4.7890625 67:9.1170502 68:1.0025635 69:7.8328857 70:4.7487946 71:-0.72745514 72:5.3804932 73:5.9862976 74:-1.3328781 75:6.5321045 76:6.7539368 77:-0.048858643 78:7.7064209 79:9.1230927 80:0.26026917 81:8.413208 82:4.6921997 83:-1.737381 84:5.4537354 85:9.1665344 86:0.49555969 87:9.7888184 88:10.181503 89:-0.99134064 90:8.9094238 91:7.6412354 92:-3.9425774 93:6.6538086 94:7.6793823 95:-3.2462463 96:4.4686279 97:7.4250488 98:-0.92684174 99:5.7030029 100:11.51825 101:2.7374802 102:7.7667236 103:6.7124481 104:0.84508514 105:4.1446533 106:8.5605774 107:-2.4687958 108:6.6268311 109:10.941925 110:1.2667503 111:8.7591553 112:4.0105896 113:0.18912125 114:-0.39672852 115:6.2421265 116:-2.6302567 117:4.2840576 118:6.9663086 119:-2.9664001 120:3.7121582 121:8.1234436 122:0.56801224 123:6.5332031 124:8.2363892 125:-0.84839249 126:7.5518799 127:5.6203918 128:-1.0641022 129:1.5212402 130:5.3563843 131:-1.2302818 132:3.3046875 133:5.7800293 134:0.55969238 135:2.3669434 136:6.8978882 137:-0.26052094 138:5.8879395 139:7.4732056 140:0.28490448 141:5.6241455 142:4.3967285 143:-4.9203911 144:0.86401367 145:4.6838074 146:-6.5732422 147:0.40185547 148:2.4952393 149:-1.6088409 150:-0.073242188 151:6.0194702 152:-0.88605881 153:3.9625244 154:4.3911743 155:0.084049225 156:0.72192383 157:2.3757629 158:1.2596474 159:1.3422852 160:1.4048462 161:-0.40364075 162:0.26062012 163:0.5534668 164:-0.83268738 165:-1.2495117 166:0.14981079 167:0.057697296 168:-1.4864502 169:-0.74206543 170:-0.16708374 171:-0.86804199 172:-0.81884766 173:-0.030948639 174:-1.286499 175:-1.9111938 176:-1.9061852 177:-3.0313721 178:-0.060577393 179:1.4481964 180:-0.55981445 181:0.28366089 182:0.41601181 183:0.3112793 184:-0.3572998 185:-1.6754036 186:-1.8560791 187:-0.06262207 188:0.77490616 189:-1.7110596 190:-0.14971924 191:1.5508614 192:-1.8187256 193:-0.26882935 194:-0.19819641 195:-0.88989258 196:-0.83761597 197:0.1709938 198:-1.4776611 199:-0.086975098 200:1.2963867 201:0.68859863 202:-2.4643555 203:4.7019424 204:-2.2530518 205:0.65011597 206:2.1903725 207:1.5687256 208:-0.24423218 209:0.98040009 210:-0.36816406 211:-1.769043 212:0.77281952 213:0.33752441 214:1.4912415 215:-0.8144722 216:0.27514648 217:-1.5272522 218:2.5358543 219:0.14746094 220:-0.14923096 221:-2.2827492 222:-0.36218262 223:-1.15271 224:-0.68213654 225:0.64538574 226:0.58572388 227:-0.20729065 228:0.171875 229:-0.43115234 230:0.61040878 231:-1.2475586 232:0.94088745 233:0.57007599 234:1.0581055 235:-427.29236 236:2.7124329 237:-281.40283 238:8.5711288 239:4.8130264 240:2.6749268 241:7.5031433 242:-0.9119873 243:2.5515137 244:10.686989 245:-1.1806908 246:4.0290527 247:9.6412659 248:-0.44151688 249:4.451416 250:7.7444038 251:4.4308586 252:3.7521973 253:8.6013603 254:4.2638092 255:4.78125 256:7.7294312 257:-1.7457161 258:3.8203125 259:7.6216431 260:2.608326 261:4.6955566 262:9.2081337 263:3.0166473 264:5.7072754 265:5.4467468 266:-0.23073578 267:3.6014404 268:7.9243422 269:1.9072952 270:5.7843018 271:10.138556 272:-2.5798302 273:7.2803955 274:6.9961891 275:0.076725006 276:7.9030762 277:6.4051723 278:3.7126999 279:6.8387451 280:4.8604307 281:-4.5083542 282:7.1341553 283:6.3437948 284:-6.7875481 285:9.4266357 286:4.2078228 287:-3.1263237 288:7.8848877 289:7.1437607 290:-1.3713875 291:9.3480225 292:6.0923576 293:2.2643967 294:7.9804688 295:7.9970436 296:2.1457024 297:8.7998047 298:7.3141251 299:2.975914 300:8.0169678 301:7.3640022 302:-0.16075516 303:7.2508545 304:8.6575661 305:-0.21313095 306:8.6466064 307:8.2096863 308:-1.7510109 309:8.6358643 310:11.071548 311:1.0849609 312:9.5496826 313:9.7398911 314:-3.066124 315:9.710083 316:5.1271896 317:0.47054672 318:4.2133789 319:11.255882 320:1.1566849 321:9.6599121 322:9.8504944 323:-3.2036819 324:8.7808838 325:11.119232 326:-2.2888412 327:10.013184 328:7.0508728 329:-2.8345032 330:5.0324707 331:8.548645 332:-1.053299 333:6.5115967 334:8.1609802 335:0.80992508 336:6.5860596 337:9.2840729 338:1.239212 339:5.9926758 340:7.6261444 341:-5.2669868 342:6.4733887 343:5.7876892 344:-3.8927841 345:1.6186523 346:7.3016968 347:-2.3627396 348:5.3012695 349:5.9602203 350:-0.18035126 351:3.1777344 352:9.4730682 353:-0.52757263 354:7.4672852 355:5.4367218 356:1.5117378 357:5.4677734 358:8.2954254 359:-3.7160301 360:6.3361816 361:4.7607422 362:-1.2101097 363:2.7773438 364:7.7092438 365:-0.82855606 366:6.7419434 367:5.3394012 368:-6.6019058 369:3.0078125 370:4.780014 371:-0.34331131 372:3.7498779 373:8.0057983 374:-4.41008 375:5.5585938 376:3.8659363 377:-0.39718819 378:2.4864502 379:4.0977173 380:3.7158585 381:3.0012207 382:2.8530579 383:-0.49704552 384:1.2805176 385:2.0993652 386:-1.119606 387:1.2374268 388:-0.66040039 389:-0.3495121 390:-0.13623047 391:-1.2689209 392:-0.59455109 393:-1.7640381 394:1.7769775 395:-1.6065712 396:0.17456055 397:-0.30230713 398:-2.2905273 399:-1.4139404 400:1.2189636 401:0.32233429 402:-2.5323486 403:-2.499176 404:0.12449265 405:-1.3580322 406:-0.45098877 407:0.48436165 408:-0.26672363 409:1.745575 410:3.7819347 411:0.25268555 412:-340.77658 413:8.2654037 414:-239.91907 415:8.0770721 416:9.8236065 417:3.2307129 418:8.868679 419:1.6282616 420:4.0792236 421:11.48399 422:1.1061172 423:5.3768311 424:13.321823 425:-0.84351349 426:6.4259033 427:9.7929211 428:2.6359444 429:5.2424316 430:10.60984 431:-0.80471802 432:5.6315918 433:11.352392 434:0.29123688 435:6.0092773 436:7.4440322 437:-1.5421867 438:3.8723145 439:8.326498 440:1.5382919 441:4.736084 442:8.1564999 443:1.0655746 444:4.5187988 445:7.2281551 446:-0.46037292 447:5.5878906 448:8.7088852 449:-0.79840851 450:5.6967773 451:8.8616257 452:-1.1668777 453:5.9190674 454:10.121578 455:3.843895 456:5.6259766 457:10.022408 458:3.4292297 459:6.0474854 460:11.803013 461:-0.12893677 462:7.1973877 463:10.42141 464:-0.22755814 465:6.9256592 466:10.498314 467:1.7062263 468:5.8569336 469:11.029602 470:1.1111183 471:5.3603516 472:10.479515 473:-1.388176 474:5.7370605 475:10.297318 476:-0.87003326 477:5.7272949 478:10.861053 479:1.4392891 480:5.9223633 481:11.742508 482:-0.57526779 483:5.7332764 484:8.7528687 485:1.3556671 486:4.1519775 487:9.9268494 488:-1.7061119 489:4.7338867 490:10.42395 491:1.9113617 492:4.6300049 493:8.9853973 494:2.1906853 495:3.6506348 496:12.441422 497:3.6318817 498:6.6333008 499:9.4230194 500:2.7814331 501:4.1195068 502:12.541229 503:-0.22288513 504:7.4415283 505:9.9785461 506:2.984726 507:5.4622803 508:6.7961121 509:0.37815857 510:2.5177002 511:8.5032196 512:-1.3312988 513:3.0622559 514:10.041748 515:-0.65354156 516:4.581665 517:9.3985596 518:0.60003662 519:3.8222656 520:7.1112976 521:-1.08358 522:2.6356201 523:8.9938354 524:0.6584816 525:4.2120361 526:6.078125 527:-0.44949722 528:2.8769531 529:8.4452515 530:-2.5524597 531:5.2835693 532:5.056366 533:-0.10370255 534:0.27490234 535:2.9824219 536:-2.2137489 537:1.1445313 538:5.5410156 539:1.3702393 540:0.95996094 541:2.8535767 542:2.3109894 543:-0.021118164 544:2.1572571 545:-0.30353546 546:0.67089844 547:4.2809448 548:-1.1507721 549:0.075927734 550:3.1645203 551:-0.6631279 552:3.4971924 553:2.6317139 554:0.98531723 555:0.44714355 556:1.2858276 557:0.29405975 558:-1.7388916 559:1.764679 560:-0.93050385 561:0.25292969 562:0.35037231 563:-0.29372787 564:-0.70849609 565:0.71063232 566:1.3317833 567:-1.7357178 568:-1.4202271 569:-6.3434982 570:-3.4110107 571:-2.0996094 572:-0.45460892 573:-2.0001221 574:0.21759033 575:0.031852722 576:-1.3796387 577:0.83465576 578:1.7071457 579:-0.73510742 580:0.0023498535 581:1.4263115 582:-0.11743164 583:-1.1773987 584:3.5234451 585:-2.0059814 586:1.5830078 587:3.3244095 588:-1.053833 589:0.8873291 590:1.1135178 591:-0.37512207 592:-1.2808838 593:-0.64899445 594:0.68310547 595:-0.90979004 596:-0.3846817 597:-1.2644043 598:-0.62783813 599:-0.49237823 600:0.65808105 601:0.059844971 602:-0.051605225 603:0.1842041 
1 1:6.4500427 2:3.5558243 3:4.6036377 4:17.148254 5:0.33181 6:8.3829346 7:8.3112221 8:4.05233 9:5.1120605 10:11.0618 11:-0.14435577 12:5.2692871 13:6.6460648 14:-1.223114 15:3.590332 16:9.2006836 17:1.4577789 18:4.5709229 19:8.1173897 20:0.15284729 21:3.3438721 22:8.2887478 23:0.09223938 24:3.5598145 25:10.040784 26:-0.59951019 27:5.3380127 28:6.3140955 29:0.92939758 30:2.5490723 31:8.8790455 32:1.1466904 33:5.5734863 34:7.5102272 35:-1.9197922 36:3.9228516 37:10.818336 38:-0.86984253 39:5.8919678 40:10.370701 41:-0.44220734 42:6.0975342 43:7.7772598 44:0.31424713 45:5.2293701 46:10.208397 47:0.70575714 48:6.7426758 49:8.173027 50:0.92084503 51:5.4936523 52:9.0354843 53:-0.41819763 54:6.2940674 55:9.8692627 56:-2.6723328 57:7.3353271 58:6.2996597 59:-0.96421051 60:4.4763184 61:7.3152847 62:-1.2257156 63:6.1768799 64:4.9958572 65:-0.24747467 66:4.7890625 67:9.1170502 68:1.0025635 69:7.8328857 70:4.7487946 71:-0.72745514 72:5.3804932 73:5.9862976 74:-1.3328781 75:6.5321045 76:6.7539368 77:-0.048858643 78:7.7064209 79:9.1230927 80:0.26026917 81:8.413208 82:4.6921997 83:-1.737381 84:5.4537354 85:9.1665344 86:0.49555969 87:9.7888184 88:10.181503 89:-0.99134064 90:8.9094238 91:7.6412354 92:-3.9425774 93:6.6538086 94:7.6793823 95:-3.2462463 96:4.4686279 97:7.4250488 98:-0.92684174 99:5.7030029 100:11.51825 101:2.7374802 102:7.7667236 103:6.7124481 104:0.84508514 105:4.1446533 106:8.5605774 107:-2.4687958 108:6.6268311 109:10.941925 110:1.2667503 111:8.7591553 112:4.0105896 113:0.18912125 114:-0.39672852 115:6.2421265 116:-2.6302567 117:4.2840576 118:6.9663086 119:-2.9664001 120:3.7121582 121:8.1234436 122:0.56801224 123:6.5332031 124:8.2363892 125:-0.84839249 126:7.5518799 127:5.6203918 128:-1.0641022 129:1.5212402 130:5.3563843 131:-1.2302818 132:3.3046875 133:5.7800293 134:0.55969238 135:2.3669434 136:6.8978882 137:-0.26052094 138:5.8879395 139:7.4732056 140:0.28490448 141:5.6241455 142:4.3967285 143:-4.9203911 144:0.86401367 145:4.6838074 146:-6.5732422 147:0.40185547 148:2.4952393 149:-1.6088409 150:-0.073242188 151:6.0194702 152:-0.88605881 153:3.9625244 154:4.3911743 155:0.084049225 156:0.72192383 157:2.3757629 158:1.2596474 159:1.3422852 160:1.4048462 161:-0.40364075 162:0.26062012 163:0.5534668 164:-0.83268738 165:-1.2495117 166:0.14981079 167:0.057697296 168:-1.4864502 169:-0.74206543 170:-0.16708374 171:-0.86804199 172:-0.81884766 173:-0.030948639 174:-1.286499 175:-1.9111938 176:-1.9061852 177:-3.0313721 178:-0.060577393 179:1.4481964 180:-0.55981445 181:0.28366089 182:0.41601181 183:0.3112793 184:-0.3572998 185:-1.6754036 186:-1.8560791 187:-0.06262207 188:0.77490616 189:-1.7110596 190:-0.14971924 191:1.5508614 192:-1.8187256 193:-0.26882935 194:-0.19819641 195:-0.88989258 196:-0.83761597 197:0.1709938 198:-1.4776611 199:-0.086975098 200:1.2963867 201:0.68859863 202:-2.4643555 203:4.7019424 204:-2.2530518 205:0.65011597 206:2.1903725 207:1.5687256 208:-0.24423218 209:0.98040009 210:-0.36816406 211:-1.769043 212:0.77281952 213:0.33752441 214:1.4912415 215:-0.8144722 216:0.27514648 217:-1.5272522 218:2.5358543 219:0.14746094 220:-0.14923096 221:-2.2827492 222:-0.36218262 223:-1.15271 224:-0.68213654 225:0.64538574 226:0.58572388 227:-0.20729065 228:0.171875 229:-0.43115234 230:0.61040878 231:-1.2475586 232:0.94088745 233:0.57007599 234:1.0581055 235:-427.29236 236:2.7124329 237:-281.40283 238:8.5711288 239:4.8130264 240:2.6749268 241:7.5031433 242:-0.9119873 243:2.5515137 244:10.686989 245:-1.1806908 246:4.0290527 247:9.6412659 248:-0.44151688 249:4.451416 250:7.7444038 251:4.4308586 252:3.7521973 253:8.6013603 254:4.2638092 255:4.78125 256:7.7294312 257:-1.7457161 258:3.8203125 259:7.6216431 260:2.608326 261:4.6955566 262:9.2081337 263:3.0166473 264:5.7072754 265:5.4467468 266:-0.23073578 267:3.6014404 268:7.9243422 269:1.9072952 270:5.7843018 271:10.138556 272:-2.5798302 273:7.2803955 274:6.9961891 275:0.076725006 276:7.9030762 277:6.4051723 278:3.7126999 279:6.8387451 280:4.8604307 281:-4.5083542 282:7.1341553 283:6.3437948 284:-6.7875481 285:9.4266357 286:4.2078228 287:-3.1263237 288:7.8848877 289:7.1437607 290:-1.3713875 291:9.3480225 292:6.0923576 293:2.2643967 294:7.9804688 295:7.9970436 296:2.1457024 297:8.7998047 298:7.3141251 299:2.975914 300:8.0169678 301:7.3640022 302:-0.16075516 303:7.2508545 304:8.6575661 305:-0.21313095 306:8.6466064 307:8.2096863 308:-1.7510109 309:8.6358643 310:11.071548 311:1.0849609 312:9.5496826 313:9.7398911 314:-3.066124 315:9.710083 316:5.1271896 317:0.47054672 318:4.2133789 319:11.255882 320:1.1566849 321:9.6599121 322:9.8504944 323:-3.2036819 324:8.7808838 325:11.119232 326:-2.2888412 327:10.013184 328:7.0508728 329:-2.8345032 330:5.0324707 331:8.548645 332:-1.053299 333:6.5115967 334:8.1609802 335:0.80992508 336:6.5860596 337:9.2840729 338:1.239212 339:5.9926758 340:7.6261444 341:-5.2669868 342:6.4733887 343:5.7876892 344:-3.8927841 345:1.6186523 346:7.3016968 347:-2.3627396 348:5.3012695 349:5.9602203 350:-0.18035126 351:3.1777344 352:9.4730682 353:-0.52757263 354:7.4672852 355:5.4367218 356:1.5117378 357:5.4677734 358:8.2954254 359:-3.7160301 360:6.3361816 361:4.7607422 362:-1.2101097 363:2.7773438 364:7.7092438 365:-0.82855606 366:6.7419434 367:5.3394012 368:-6.6019058 369:3.0078125 370:4.780014 371:-0.34331131 372:3.7498779 373:8.0057983 374:-4.41008 375:5.5585938 376:3.8659363 377:-0.39718819 378:2.4864502 379:4.0977173 380:3.7158585 381:3.0012207 382:2.8530579 383:-0.49704552 384:1.2805176 385:2.0993652 386:-1.119606 387:1.2374268 388:-0.66040039 389:-0.3495121 390:-0.13623047 391:-1.2689209 392:-0.59455109 393:-1.7640381 394:1.7769775 395:-1.6065712 396:0.17456055 397:-0.30230713 398:-2.2905273 399:-1.4139404 400:1.2189636 401:0.32233429 402:-2.5323486 403:-2.499176 404:0.12449265 405:-1.3580322 406:-0.45098877 407:0.48436165 408:-0.26672363 409:1.745575 410:3.7819347 411:0.25268555 412:-340.77658 413:8.2654037 414:-239.91907 415:8.0770721 416:9.8236065 417:3.2307129 418:8.868679 419:1.6282616 420:4.0792236 421:11.48399 422:1.1061172 423:5.3768311 424:13.321823 425:-0.84351349 426:6.4259033 427:9.7929211 428:2.6359444 429:5.2424316 430:10.60984 431:-0.80471802 432:5.6315918 433:11.352392 434:0.29123688 435:6.0092773 436:7.4440322 437:-1.5421867 438:3.8723145 439:8.326498 440:1.5382919 441:4.736084 442:8.1564999 443:1.0655746 444:4.5187988 445:7.2281551 446:-0.46037292 447:5.5878906 448:8.7088852 449:-0.79840851 450:5.6967773 451:8.8616257 452:-1.1668777 453:5.9190674 454:10.121578 455:3.843895 456:5.6259766 457:10.022408 458:3.4292297 459:6.0474854 460:11.803013 461:-0.12893677 462:7.1973877 463:10.42141 464:-0.22755814 465:6.9256592 466:10.498314 467:1.7062263 468:5.8569336 469:11.029602 470:1.1111183 471:5.3603516 472:10.479515 473:-1.388176 474:5.7370605 475:10.297318 476:-0.87003326 477:5.7272949 478:10.861053 479:1.4392891 480:5.9223633 481:11.742508 482:-0.57526779 483:5.7332764 484:8.7528687 485:1.3556671 486:4.1519775 487:9.9268494 488:-1.7061119 489:4.7338867 490:10.42395 491:1.9113617 492:4.6300049 493:8.9853973 494:2.1906853 495:3.6506348 496:12.441422 497:3.6318817 498:6.6333008 499:9.4230194 500:2.7814331 501:4.1195068 502:12.541229 503:-0.22288513 504:7.4415283 505:9.9785461 506:2.984726 507:5.4622803 508:6.7961121 509:0.37815857 510:2.5177002 511:8.5032196 512:-1.3312988 513:3.0622559 514:10.041748 515:-0.65354156 516:4.581665 517:9.3985596 518:0.60003662 519:3.8222656 520:7.1112976 521:-1.08358 522:2.6356201 523:8.9938354 524:0.6584816 525:4.2120361 526:6.078125 527:-0.44949722 528:2.8769531 529:8.4452515 530:-2.5524597 531:5.2835693 532:5.056366 533:-0.10370255 534:0.27490234 535:2.9824219 536:-2.2137489 537:1.1445313 538:5.5410156 539:1.3702393 540:0.95996094 541:2.8535767 542:2.3109894 543:-0.021118164 544:2.1572571 545:-0.30353546 546:0.67089844 547:4.2809448 548:-1.1507721 549:0.075927734 550:3.1645203 551:-0.6631279 552:3.4971924 553:2.6317139 554:0.98531723 555:0.44714355 556:1.2858276 557:0.29405975 558:-1.7388916 559:1.764679 560:-0.93050385 561:0.25292969 562:0.35037231 563:-0.29372787 564:-0.70849609 565:0.71063232 566:1.3317833 567:-1.7357178 568:-1.4202271 569:-6.3434982 570:-3.4110107 571:-2.0996094 572:-0.45460892 573:-2.0001221 574:0.21759033 575:0.031852722 576:-1.3796387 577:0.83465576 578:1.7071457 579:-0.73510742 580:0.0023498535 581:1.4263115 582:-0.11743164 583:-1.1773987 584:3.5234451 585:-2.0059814 586:1.5830078 587:3.3244095 588:-1.053833 589:0.8873291 590:1.1135178 591:-0.37512207 592:-1.2808838 593:-0.64899445 594:0.68310547 595:-0.90979004 596:-0.3846817 597:-1.2644043 598:-0.62783813 599:-0.49237823 600:0.65808105 601:0.059844971 602:-0.051605225 603:0.1842041 604:-344.71222 605:-8.4035835 606:-198.25378 607:12.36907 608:6.0424423 609:7.317627 610:13.049824 611:0.58141327 612:8.2871094 613:15.793718 614:2.459507 615:10.566162 616:13.004974 617:-0.096244812 618:9.0841064 619:14.255775 620:0.98826599 621:9.7651367 622:15.018547 623:1.161438 624:10.103882 625:10.735062 626:1.4400253 627:8.5842285 628:11.991356 629:-0.12203217 630:9.7646484 631:11.267708 632:1.8366852 633:9.145874 634:13.066422 635:-0.2636795 636:9.8752441 637:13.010551 638:0.9223938 639:8.5057373 640:12.426598 641:3.6854477 642:7.5717773 643:11.793091 644:2.025116 645:6.8466797 646:13.678574 647:-2.2123489 648:7.5889893 649:12.658066 650:3.685051 651:7.1884766 652:10.752365 653:0.97083282 654:6.473877 655:13.259262 656:-1.5045547 657:9.6204834 658:9.4654694 659:-4.213768 660:4.8830566 661:10.231003 662:-4.7530594 663:5.9434814 664:7.8280182 665:2.2277145 666:3.4844971 667:12.217575 668:-0.37433624 669:7.1566162 670:8.569809 671:-4.9312973 672:5.1748047 673:7.6963654 674:-3.3305969 675:4.4284668 676:9.7086182 677:-0.75928497 678:5.9852295 679:4.9582825 680:0.36774445 681:4.5748291 682:2.8303223 683:-1.0375862 684:1.1289063 685:3.8301697 686:1.8441963 687:3.5230713 688:2.4341125 689:-1.9546127 690:0.46362305 691:1.4924622 692:-2.2052498 693:0.49304199 694:1.7903748 695:-1.1238556 696:-0.54553223 697:-0.018341064 698:-0.57628632 699:-1.2762451 700:-0.061981201 701:1.0411224 702:-0.66064453 703:-0.34164429 704:-1.3429222 705:-1.3736572 706:-2.4821472 707:-2.2457886 708:-1.4831543 709:1.7125549 710:1.3817482 711:0.5612793 712:-0.7565918 713:-0.57756805 714:-1.8148193 715:-1.1358948 716:1.3381195 717:-1.2894287 718:-1.0626221 719:0.017246246 720:-0.70874023 721:0.49493408 722:0.74058151 723:-0.18041992 
-0.7998046875 1:6.4500427 2:3.5558243 3:4.6036377 4:17.148254 5:0.33181 6:8.3829346 7:8.3112221 8:4.05233 9:5.1120605 10:11.0618 11:-0.14435577 12:5.2692871 13:6.6460648 14:-1.223114 15:3.590332 16:9.2006836 17:1.4577789 18:4.5709229 19:8.1173897 20:0.15284729 21:3.3438721 22:8.2887478 23:0.09223938 24:3.5598145 25:10.040784 26:-0.59951019 27:5.3380127 28:6.3140955 29:0.92939758 30:2.5490723 31:8.8790455 32:1.1466904 33:5.5734863 34:7.5102272 35:-1.9197922 36:3.9228516 37:10.818336 38:-0.86984253 39:5.8919678 40:10.370701 41:-0.44220734 42:6.0975342 43:7.7772598 44:0.31424713 45:5.2293701 46:10.208397 47:0.70575714 48:6.7426758 49:8.173027 50:0.92084503 51:5.4936523 52:9.0354843 53:-0.41819763 54:6.2940674 55:9.8692627 56:-2.6723328 57:7.3353271 58:6.2996597 59:-0.96421051 60:4.4763184 61:7.3152847 62:-1.2257156 63:6.1768799 64:4.9958572 65:-0.24747467 66:4.7890625 67:9.1170502 68:1.0025635 69:7.8328857 70:4.7487946 71:-0.72745514 72:5.3804932 73:5.9862976 74:-1.3328781 75:6.5321045 76:6.7539368 77:-0.048858643 78:7.7064209 79:9.1230927 80:0.26026917 81:8.413208 82:4.6921997 83:-1.737381 84:5.4537354 85:9.1665344 86:0.49555969 87:9.7888184 88:10.181503 89:-0.99134064 90:8.9094238 91:7.6412354 92:-3.9425774 93:6.6538086 94:7.6793823 95:-3.2462463 96:4.4686279 97:7.4250488 98:-0.92684174 99:5.7030029 100:11.51825 101:2.7374802 102:7.7667236 103:6.7124481 104:0.84508514 105:4.1446533 106:8.5605774 107:-2.4687958 108:6.6268311 109:10.941925 110:1.2667503 111:8.7591553 112:4.0105896 113:0.18912125 114:-0.39672852 115:6.2421265 116:-2.6302567 117:4.2840576 118:6.9663086 119:-2.9664001 120:3.7121582 121:8.1234436 122:0.56801224 123:6.5332031 124:8.2363892 125:-0.84839249 126:7.5518799 127:5.6203918 128:-1.0641022 129:1.5212402 130:5.3563843 131:-1.2302818 132:3.3046875 133:5.7800293 134:0.55969238 135:2.3669434 136:6.8978882 137:-0.26052094 138:5.8879395 139:7.4732056 140:0.28490448 141:5.6241455 142:4.3967285 143:-4.9203911 144:0.86401367 145:4.6838074 146:-6.5732422 147:0.40185547 148:2.4952393 149:-1.6088409 150:-0.073242188 151:6.0194702 152:-0.88605881 153:3.9625244 154:4.3911743 155:0.084049225 156:0.72192383 157:2.3757629 158:1.2596474 159:1.3422852 160:1.4048462 161:-0.40364075 162:0.26062012 163:0.5534668 164:-0.83268738 165:-1.2495117 166:0.14981079 167:0.057697296 168:-1.4864502 169:-0.74206543 170:-0.16708374 171:-0.86804199 172:-0.81884766 173:-0.030948639 174:-1.286499 175:-1.9111938 176:-1.9061852 177:-3.0313721 178:-0.060577393 179:1.4481964 180:-0.55981445 181:0.28366089 182:0.41601181 183:0.3112793 184:-0.3572998 185:-1.6754036 186:-1.8560791 187:-0.06262207 188:0.77490616 189:-1.7110596 190:-0.14971924 191:1.5508614 192:-1.8187256 193:-0.26882935 194:-0.19819641 195:-0.88989258 196:-0.83761597 197:0.1709938 198:-1.4776611 199:-0.086975098 200:1.2963867 201:0.68859863 202:-2.4643555 203:4.7019424 204:-2.2530518 205:0.65011597 206:2.1903725 207:1.5687256 208:-0.24423218 209:0.98040009 210:-0.36816406 211:-1.769043 212:0.77281952 213:0.33752441 214:1.4912415 215:-0.8144722 216:0.27514648 217:-1.5272522 218:2.5358543 219:0.14746094 220:-0.14923096 221:-2.2827492 222:-0.36218262 223:-1.15271 224:-0.68213654 225:0.64538574 226:0.58572388 227:-0.20729065 228:0.171875 229:-0.43115234 230:0.61040878 231:-1.2475586 232:0.94088745 233:0.57007599 234:1.0581055 235:-427.29236 236:2.7124329 237:-281.40283 238:8.5711288 239:4.8130264 240:2.6749268 241:7.5031433 242:-0.9119873 243:2.5515137 244:10.686989 245:-1.1806908 246:4.0290527 247:9.6412659 248:-0.44151688 249:4.451416 250:7.7444038 251:4.4308586 252:3.7521973 253:8.6013603 254:4.2638092 255:4.78125 256:7.7294312 257:-1.7457161 258:3.8203125 259:7.6216431 260:2.608326 261:4.6955566 262:9.2081337 263:3.0166473 264:5.7072754 265:5.4467468 266:-0.23073578 267:3.6014404 268:7.9243422 269:1.9072952 270:5.7843018 271:10.138556 272:-2.5798302 273:7.2803955 274:6.9961891 275:0.076725006 276:7.9030762 277:6.4051723 278:3.7126999 279:6.8387451 280:4.8604307 281:-4.5083542 282:7.1341553 283:6.3437948 284:-6.7875481 285:9.4266357 286:4.2078228 287:-3.1263237 288:7.8848877 289:7.1437607 290:-1.3713875 291:9.3480225 292:6.0923576 293:2.2643967 294:7.9804688 295:7.9970436 296:2.1457024 297:8.7998047 298:7.3141251 299:2.975914 300:8.0169678 301:7.3640022 302:-0.16075516 303:7.2508545 304:8.6575661 305:-0.21313095 306:8.6466064 307:8.2096863 308:-1.7510109 309:8.6358643 310:11.071548 311:1.0849609 312:9.5496826 313:9.7398911 314:-3.066124 315:9.710083 316:5.1271896 317:0.47054672 318:4.2133789 319:11.255882 320:1.1566849 321:9.6599121 322:9.8504944 323:-3.2036819 324:8.7808838 325:11.119232 326:-2.2888412 327:10.013184 328:7.0508728 329:-2.8345032 330:5.0324707 331:8.548645 332:-1.053299 333:6.5115967 334:8.1609802 335:0.80992508 336:6.5860596 337:9.2840729 338:1.239212 339:5.9926758 340:7.6261444 341:-5.2669868 342:6.4733887 343:5.7876892 344:-3.8927841 345:1.6186523 346:7.3016968 347:-2.3627396 348:5.3012695 349:5.9602203 350:-0.18035126 351:3.1777344 352:9.4730682 353:-0.52757263 354:7.4672852 355:5.4367218 356:1.5117378 357:5.4677734 358:8.2954254 359:-3.7160301 360:6.3361816 361:4.7607422 362:-1.2101097 363:2.7773438 364:7.7092438 365:-0.82855606 366:6.7419434 367:5.3394012 368:-6.6019058 369:3.0078125 370:4.780014 371:-0.34331131 372:3.7498779 373:8.0057983 374:-4.41008 375:5.5585938 376:3.8659363 377:-0.39718819 378:2.4864502 379:4.0977173 380:3.7158585 381:3.0012207 382:2.8530579 383:-0.49704552 384:1.2805176 385:2.0993652 386:-1.119606 387:1.2374268 388:-0.66040039 389:-0.3495121 390:-0.13623047 391:-1.2689209 392:-0.59455109 393:-1.7640381 394:1.7769775 395:-1.6065712 396:0.17456055 397:-0.30230713 398:-2.2905273 399:-1.4139404 400:1.2189636 401:0.32233429 402:-2.5323486 403:-2.499176 404:0.12449265 405:-1.3580322 406:-0.45098877 407:0.48436165 408:-0.26672363 409:1.745575 410:3.7819347 411:0.25268555 412:-340.77658 413:8.2654037 414:-239.91907 415:8.0770721 416:9.8236065 417:3.2307129 418:8.868679 419:1.6282616 420:4.0792236 421:11.48399 422:1.1061172 423:5.3768311 424:13.321823 425:-0.84351349 426:6.4259033 427:9.7929211 428:2.6359444 429:5.2424316 430:10.60984 431:-0.80471802 432:5.6315918 433:11.352392 434:0.29123688 435:6.0092773 436:7.4440322 437:-1.5421867 438:3.8723145 439:8.326498 440:1.5382919 441:4.736084 442:8.1564999 443:1.0655746 444:4.5187988 445:7.2281551 446:-0.46037292 447:5.5878906 448:8.7088852 449:-0.79840851 450:5.6967773 451:8.8616257 452:-1.1668777 453:5.9190674 454:10.121578 455:3.843895 456:5.6259766 457:10.022408 458:3.4292297 459:6.0474854 460:11.803013 461:-0.12893677 462:7.1973877 463:10.42141 464:-0.22755814 465:6.9256592 466:10.498314 467:1.7062263 468:5.8569336 469:11.029602 470:1.1111183 471:5.3603516 472:10.479515 473:-1.388176 474:5.7370605 475:10.297318 476:-0.87003326 477:5.7272949 478:10.861053 479:1.4392891 480:5.9223633 481:11.742508 482:-0.57526779 483:5.7332764 484:8.7528687 485:1.3556671 486:4.1519775 487:9.9268494 488:-1.7061119 489:4.7338867 490:10.42395 491:1.9113617 492:4.6300049 493:8.9853973 494:2.1906853 495:3.6506348 496:12.441422 497:3.6318817 498:6.6333008 499:9.4230194 500:2.7814331 501:4.1195068 502:12.541229 503:-0.22288513 504:7.4415283 505:9.9785461 506:2.984726 507:5.4622803 508:6.7961121 509:0.37815857 510:2.5177002 511:8.5032196 512:-1.3312988 513:3.0622559 514:10.041748 515:-0.65354156 516:4.581665 517:9.3985596 518:0.60003662 519:3.8222656 520:7.1112976 521:-1.08358 522:2.6356201 523:8.9938354 524:0.6584816 525:4.2120361 526:6.078125 527:-0.44949722 528:2.8769531 529:8.4452515 530:-2.5524597 531:5.2835693 532:5.056366 533:-0.10370255 534:0.27490234 535:2.9824219 536:-2.2137489 537:1.1445313 538:5.5410156 539:1.3702393 540:0.95996094 541:2.8535767 542:2.3109894 543:-0.021118164 544:2.1572571 545:-0.30353546 546:0.67089844 547:4.2809448 548:-1.1507721 549:0.075927734 550:3.1645203 551:-0.6631279 552:3.4971924 553:2.6317139 554:0.98531723 555:0.44714355 556:1.2858276 557:0.29405975 558:-1.7388916 559:1.764679 560:-0.93050385 561:0.25292969 562:0.35037231 563:-0.29372787 564:-0.70849609 565:0.71063232 566:1.3317833 567:-1.7357178 568:-1.4202271 569:-6.3434982 570:-3.4110107 571:-2.0996094 572:-0.45460892 573:-2.0001221 574:0.21759033 575:0.031852722 576:-1.3796387 577:0.83465576 578:1.7071457 579:-0.73510742 580:0.0023498535 581:1.4263115 582:-0.11743164 583:-1.1773987 584:3.5234451 585:-2.0059814 586:1.5830078 587:3.3244095 588:-1.053833 589:0.8873291 590:1.1135178 591:-0.37512207 592:-1.2808838 593:-0.64899445 594:0.68310547 595:-0.90979004 596:-0.3846817 597:-1.2644043 598:-0.62783813 599:-0.49237823 600:0.65808105 601:0.059844971 602:-0.051605225 603:0.1842041 604:-344.71222 605:-8.4035835 606:-198.25378 607:12.36907 608:6.0424423 609:7.317627 610:13.049824 611:0.58141327 612:8.2871094 613:15.793718 614:2.459507 615:10.566162 616:13.004974 617:-0.096244812 618:9.0841064 619:14.255775 620:0.98826599 621:9.7651367 622:15.018547 623:1.161438 624:10.103882 625:10.735062 626:1.4400253 627:8.5842285 628:11.991356 629:-0.12203217 630:9.7646484 631:11.267708 632:1.8366852 633:9.145874 634:13.066422 635:-0.2636795 636:9.8752441 637:13.010551 638:0.9223938 639:8.5057373 640:12.426598 641:3.6854477 642:7.5717773 643:11.793091 644:2.025116 645:6.8466797 646:13.678574 647:-2.2123489 648:7.5889893 649:12.658066 650:3.685051 651:7.1884766 652:10.752365 653:0.97083282 654:6.473877 655:13.259262 656:-1.5045547 657:9.6204834 658:9.4654694 659:-4.213768 660:4.8830566 661:10.231003 662:-4.7530594 663:5.9434814 664:7.8280182 665:2.2277145 666:3.4844971 667:12.217575 668:-0.37433624 669:7.1566162 670:8.569809 671:-4.9312973 672:5.1748047 673:7.6963654 674:-3.3305969 675:4.4284668 676:9.7086182 677:-0.75928497 678:5.9852295 679:4.9582825 680:0.36774445 681:4.5748291 682:2.8303223 683:-1.0375862 684:1.1289063 685:3.8301697 686:1.8441963 687:3.5230713 688:2.4341125 689:-1.9546127 690:0.46362305 691:1.4924622 692:-2.2052498 693:0.49304199 694:1.7903748 695:-1.1238556 696:-0.54553223 697:-0.018341064 698:-0.57628632 699:-1.2762451 700:-0.061981201 701:1.0411224 702:-0.66064453 703:-0.34164429 704:-1.3429222 705:-1.3736572 706:-2.4821472 707:-2.2457886 708:-1.4831543 709:1.7125549 710:1.3817482 711:0.5612793 712:-0.7565918 713:-0.57756805 714:-1.8148193 715:-1.1358948 716:1.3381195 717:-1.2894287 718:-1.0626221 719:0.017246246 720:-0.70874023 721:0.49493408 722:0.74058151 723:-0.18041992 724:-416.33759 725:-110.89476 726:-272.95227 727:6.698822 728:11.567322 729:-23.297974 730:11.94577 731:8.3378258 732:-25.960327 733:13.783615 734:2.0369339 735:-26.569336 736:15.119942 737:3.1664219 738:-27.589111 739:12.787392 740:1.5948544 741:-25.495239 742:11.038879 743:-1.0191002 744:-24.942505 745:11.18277 746:0.4064045 747:-21.882813 748:10.007919 749:-0.12837219 750:-20.338196 751:6.3910637 752:0.64673424 753:-18.510254 754:5.3788853 755:-1.2120972 756:-16.509705 757:6.1150608 758:-4.4302368 759:-13.966431 760:2.801775 761:-3.6982765 762:-11.525757 763:1.9404335 764:-0.47350311 765:-6.9987183 766:0.48897171 767:-0.37986755 768:-1.0999756 769:-0.78158379 770:0.46390533 771:3.8271484 772:-2.5867596 773:-0.065338135 774:8.9821167 775:-5.4739399 776:0.56437302 777:13.746399 778:-7.2126617 779:3.2888603 780:16.796997 781:-10.150639 782:2.4631062 783:21.255859 784:-10.942608 785:-1.0211048 786:24.166992 787:-12.043896 788:-1.9854622 789:25.827576 790:-12.385437 791:-0.15313339 792:26.91748 793:-13.108864 794:-2.0753365 795:28.890015 796:-11.188255 797:-4.2508354 798:29.865845 799:-10.327248 800:-3.8801613 801:26.988525 802:-8.612442 803:-2.8280945 804:26.884155 805:-6.8240585 806:-2.4429855 807:23.792114 808:-7.193573 809:-2.8489227 810:20.651733 811:-3.9568634 812:-5.4342728 813:18.079956 814:-4.1826935 815:-4.9709778 816:14.708008 817:-2.8321075 818:-6.675457 819:11.30835 820:-1.7513733 821:-4.1153793 822:10.087036 823:0.042251587 824:-3.0116196 825:7.8726807 826:0.66627502 827:-0.26306152 828:4.9859619 829:-1.9408264 830:-4.0948334 831:3.2386475 832:-1.0894165 833:-2.7255936 834:0.84204102 835:1.9841614 836:-0.087760925 837:0.87841797 838:0.39929199 839:0.50669861 840:-0.32763672 841:-0.10301208 842:3.406662 843:-2.1501465 844:0.018371582 845:1.3069534 846:-0.49682617 847:-1.0098724 848:-0.31660461 849:-1.4128418 
-0.7998046875 1:6.4500427 2:3.5558243 3:4.6036377 4:17.148254 5:0.33181 6:8.3829346 7:8.3112221 8:4.05233 9:5.1120605 10:11.0618 11:-0.14435577 12:5.2692871 13:6.6460648 14:-1.223114 15:3.590332 16:9.2006836 17:1.4577789 18:4.5709229 19:8.1173897 20:0.15284729 21:3.3438721 22:8.2887478 23:0.09223938 24:3.5598145 25:10.040784 26:-0.59951019 27:5.3380127 28:6.3140955 29:0.92939758 30:2.5490723 31:8.8790455 32:1.1466904 33:5.5734863 34:7.5102272 35:-1.9197922 36:3.9228516 37:10.818336 38:-0.86984253 39:5.8919678 40:10.370701 41:-0.44220734 42:6.0975342 43:7.7772598 44:0.31424713 45:5.2293701 46:10.208397 47:0.70575714 48:6.7426758 49:8.173027 50:0.92084503 51:5.4936523 52:9.0354843 53:-0.41819763 54:6.2940674 55:9.8692627 56:-2.6723328 57:7.3353271 58:6.2996597 59:-0.96421051 60:4.4763184 61:7.3152847 62:-1.2257156 63:6.1768799 64:4.9958572 65:-0.24747467 66:4.7890625 67:9.1170502 68:1.0025635 69:7.8328857 70:4.7487946 71:-0.72745514 72:5.3804932 73:5.9862976 74:-1.3328781 75:6.5321045 76:6.7539368 77:-0.048858643 78:7.7064209 79:9.1230927 80:0.26026917 81:8.413208 82:4.6921997 83:-1.737381 84:5.4537354 85:9.1665344 86:0.49555969 87:9.7888184 88:10.181503 89:-0.99134064 90:8.9094238 91:7.6412354 92:-3.9425774 93:6.6538086 94:7.6793823 95:-3.2462463 96:4.4686279 97:7.4250488 98:-0.92684174 99:5.7030029 100:11.51825 101:2.7374802 102:7.7667236 103:6.7124481 104:0.84508514 105:4.1446533 106:8.5605774 107:-2.4687958 108:6.6268311 109:10.941925 110:1.2667503 111:8.7591553 112:4.0105896 113:0.18912125 114:-0.39672852 115:6.2421265 116:-2.6302567 117:4.2840576 118:6.9663086 119:-2.9664001 120:3.7121582 121:8.1234436 122:0.56801224 123:6.5332031 124:8.2363892 125:-0.84839249 126:7.5518799 127:5.6203918 128:-1.0641022 129:1.5212402 130:5.3563843 131:-1.2302818 132:3.3046875 133:5.7800293 134:0.55969238 135:2.3669434 136:6.8978882 137:-0.26052094 138:5.8879395 139:7.4732056 140:0.28490448 141:5.6241455 142:4.3967285 143:-4.9203911 144:0.86401367 145:4.6838074 146:-6.5732422 147:0.40185547 148:2.4952393 149:-1.6088409 150:-0.073242188 151:6.0194702 152:-0.88605881 153:3.9625244 154:4.3911743 155:0.084049225 156:0.72192383 157:2.3757629 158:1.2596474 159:1.3422852 160:1.4048462 161:-0.40364075 162:0.26062012 163:0.5534668 164:-0.83268738 165:-1.2495117 166:0.14981079 167:0.057697296 168:-1.4864502 169:-0.74206543 170:-0.16708374 171:-0.86804199 172:-0.81884766 173:-0.030948639 174:-1.286499 175:-1.9111938 176:-1.9061852 177:-3.0313721 178:-0.060577393 179:1.4481964 180:-0.55981445 181:0.28366089 182:0.41601181 183:0.3112793 184:-0.3572998 185:-1.6754036 186:-1.8560791 187:-0.06262207 188:0.77490616 189:-1.7110596 190:-0.14971924 191:1.5508614 192:-1.8187256 193:-0.26882935 194:-0.19819641 195:-0.88989258 196:-0.83761597 197:0.1709938 198:-1.4776611 199:-0.086975098 200:1.2963867 201:0.68859863 202:-2.4643555 203:4.7019424 204:-2.2530518 205:0.65011597 206:2.1903725 207:1.5687256 208:-0.24423218 209:0.98040009 210:-0.36816406 211:-1.769043 212:0.77281952 213:0.33752441 214:1.4912415 215:-0.8144722 216:0.27514648 217:-1.5272522 218:2.5358543 219:0.14746094 220:-0.14923096 221:-2.2827492 222:-0.36218262 223:-1.15271 224:-0.68213654 225:0.64538574 226:0.58572388 227:-0.20729065 228:0.171875 229:-0.43115234 230:0.61040878 231:-1.2475586 232:0.94088745 233:0.57007599 234:1.0581055 235:-427.29236 236:2.7124329 237:-281.40283 238:8.5711288 239:4.8130264 240:2.6749268 241:7.5031433 242:-0.9119873 243:2.5515137 244:10.686989 245:-1.1806908 246:4.0290527 247:9.6412659 248:-0.44151688 249:4.451416 250:7.7444038 251:4.4308586 252:3.7521973 253:8.6013603 254:4.2638092 255:4.78125 256:7.7294312 257:-1.7457161 258:3.8203125 259:7.6216431 260:2.608326 261:4.6955566 262:9.2081337 263:3.0166473 264:5.7072754 265:5.4467468 266:-0.23073578 267:3.6014404 268:7.9243422 269:1.9072952 270:5.7843018 271:10.138556 272:-2.5798302 273:7.2803955 274:6.9961891 275:0.076725006 276:7.9030762 277:6.4051723 278:3.7126999 279:6.8387451 280:4.8604307 281:-4.5083542 282:7.1341553 283:6.3437948 284:-6.7875481 285:9.4266357 286:4.2078228 287:-3.1263237 288:7.8848877 289:7.1437607 290:-1.3713875 291:9.3480225 292:6.0923576 293:2.2643967 294:7.9804688 295:7.9970436 296:2.1457024 297:8.7998047 298:7.3141251 299:2.975914 300:8.0169678 301:7.3640022 302:-0.16075516 303:7.2508545 304:8.6575661 305:-0.21313095 306:8.6466064 307:8.2096863 308:-1.7510109 309:8.6358643 310:11.071548 311:1.0849609 312:9.5496826 313:9.7398911 314:-3.066124 315:9.710083 316:5.1271896 317:0.47054672 318:4.2133789 319:11.255882 320:1.1566849 321:9.6599121 322:9.8504944 323:-3.2036819 324:8.7808838 325:11.119232 326:-2.2888412 327:10.013184 328:7.0508728 329:-2.8345032 330:5.0324707 331:8.548645 332:-1.053299 333:6.5115967 334:8.1609802 335:0.80992508 336:6.5860596 337:9.2840729 338:1.239212 339:5.9926758 340:7.6261444 341:-5.2669868 342:6.4733887 343:5.7876892 344:-3.8927841 345:1.6186523 346:7.3016968 347:-2.3627396 348:5.3012695 349:5.9602203 350:-0.18035126 351:3.1777344 352:9.4730682 353:-0.52757263 354:7.4672852 355:5.4367218 356:1.5117378 357:5.4677734 358:8.2954254 359:-3.7160301 360:6.3361816 361:4.7607422 362:-1.2101097 363:2.7773438 364:7.7092438 365:-0.82855606 366:6.7419434 367:5.3394012 368:-6.6019058 369:3.0078125 370:4.780014 371:-0.34331131 372:3.7498779 373:8.0057983 374:-4.41008 375:5.5585938 376:3.8659363 377:-0.39718819 378:2.4864502 379:4.0977173 380:3.7158585 381:3.0012207 382:2.8530579 383:-0.49704552 384:1.2805176 385:2.0993652 386:-1.119606 387:1.2374268 388:-0.66040039 389:-0.3495121 390:-0.13623047 391:-1.2689209 392:-0.59455109 393:-1.7640381 394:1.7769775 395:-1.6065712 396:0.17456055 397:-0.30230713 398:-2.2905273 399:-1.4139404 400:1.2189636 401:0.32233429 402:-2.5323486 403:-2.499176 404:0.12449265 405:-1.3580322 406:-0.45098877 407:0.48436165 408:-0.26672363 409:1.745575 410:3.7819347 411:0.25268555 412:-340.77658 413:8.2654037 414:-239.91907 415:8.0770721 416:9.8236065 417:3.2307129 418:8.868679 419:1.6282616 420:4.0792236 421:11.48399 422:1.1061172 423:5.3768311 424:13.321823 425:-0.84351349 426:6.4259033 427:9.7929211 428:2.6359444 429:5.2424316 430:10.60984 431:-0.80471802 432:5.6315918 433:11.352392 434:0.29123688 435:6.0092773 436:7.4440322 437:-1.5421867 438:3.8723145 439:8.326498 440:1.5382919 441:4.736084 442:8.1564999 443:1.0655746 444:4.5187988 445:7.2281551 446:-0.46037292 447:5.5878906 448:8.7088852 449:-0.79840851 450:5.6967773 451:8.8616257 452:-1.1668777 453:5.9190674 454:10.121578 455:3.843895 456:5.6259766 457:10.022408 458:3.4292297 459:6.0474854 460:11.803013 461:-0.12893677 462:7.1973877 463:10.42141 464:-0.22755814 465:6.9256592 466:10.498314 467:1.7062263 468:5.8569336 469:11.029602 470:1.1111183 471:5.3603516 472:10.479515 473:-1.388176 474:5.7370605 475:10.297318 476:-0.87003326 477:5.7272949 478:10.861053 479:1.4392891 480:5.9223633 481:11.742508 482:-0.57526779 483:5.7332764 484:8.7528687 485:1.3556671 486:4.1519775 487:9.9268494 488:-1.7061119 489:4.7338867 490:10.42395 491:1.9113617 492:4.6300049 493:8.9853973 494:2.1906853 495:3.6506348 496:12.441422 497:3.6318817 498:6.6333008 499:9.4230194 500:2.7814331 501:4.1195068 502:12.541229 503:-0.22288513 504:7.4415283 505:9.9785461 506:2.984726 507:5.4622803 508:6.7961121 509:0.37815857 510:2.5177002 511:8.5032196 512:-1.3312988 513:3.0622559 514:10.041748 515:-0.65354156 516:4.581665 517:9.3985596 518:0.60003662 519:3.8222656 520:7.1112976 521:-1.08358 522:2.6356201 523:8.9938354 524:0.6584816 525:4.2120361 526:6.078125 527:-0.44949722 528:2.8769531 529:8.4452515 530:-2.5524597 531:5.2835693 532:5.056366 533:-0.10370255 534:0.27490234 535:2.9824219 536:-2.2137489 537:1.1445313 538:5.5410156 539:1.3702393 540:0.95996094 541:2.8535767 542:2.3109894 543:-0.021118164 544:2.1572571 545:-0.30353546 546:0.67089844 547:4.2809448 548:-1.1507721 549:0.075927734 550:3.1645203 551:-0.6631279 552:3.4971924 553:2.6317139 554:0.98531723 555:0.44714355 556:1.2858276 557:0.29405975 558:-1.7388916 559:1.764679 560:-0.93050385 561:0.25292969 562:0.35037231 563:-0.29372787 564:-0.70849609 565:0.71063232 566:1.3317833 567:-1.7357178 568:-1.4202271 569:-6.3434982 570:-3.4110107 571:-2.0996094 572:-0.45460892 573:-2.0001221 574:0.21759033 575:0.031852722 576:-1.3796387 577:0.83465576 578:1.7071457 579:-0.73510742 580:0.0023498535 581:1.4263115 582:-0.11743164 583:-1.1773987 584:3.5234451 585:-2.0059814 586:1.5830078 587:3.3244095 588:-1.053833 589:0.8873291 590:1.1135178 591:-0.37512207 592:-1.2808838 593:-0.64899445 594:0.68310547 595:-0.90979004 596:-0.3846817 597:-1.2644043 598:-0.62783813 599:-0.49237823 600:0.65808105 601:0.059844971 602:-0.051605225 603:0.1842041 604:-344.71222 605:-8.4035835 606:-198.25378 607:12.36907 608:6.0424423 609:7.317627 610:13.049824 611:0.58141327 612:8.2871094 613:15.793718 614:2.459507 615:10.566162 616:13.004974 617:-0.096244812 618:9.0841064 619:14.255775 620:0.98826599 621:9.7651367 622:15.018547 623:1.161438 624:10.103882 625:10.735062 626:1.4400253 627:8.5842285 628:11.991356 629:-0.12203217 630:9.7646484 631:11.267708 632:1.8366852 633:9.145874 634:13.066422 635:-0.2636795 636:9.8752441 637:13.010551 638:0.9223938 639:8.5057373 640:12.426598 641:3.6854477 642:7.5717773 643:11.793091 644:2.025116 645:6.8466797 646:13.678574 647:-2.2123489 648:7.5889893 649:12.658066 650:3.685051 651:7.1884766 652:10.752365 653:0.97083282 654:6.473877 655:13.259262 656:-1.5045547 657:9.6204834 658:9.4654694 659:-4.213768 660:4.8830566 661:10.231003 662:-4.7530594 663:5.9434814 664:7.8280182 665:2.2277145 666:3.4844971 667:12.217575 668:-0.37433624 669:7.1566162 670:8.569809 671:-4.9312973 672:5.1748047 673:7.6963654 674:-3.3305969 675:4.4284668 676:9.7086182 677:-0.75928497 678:5.9852295 679:4.9582825 680:0.36774445 681:4.5748291 682:2.8303223 683:-1.0375862 684:1.1289063 685:3.8301697 686:1.8441963 687:3.5230713 688:2.4341125 689:-1.9546127 690:0.46362305 691:1.4924622 692:-2.2052498 693:0.49304199 694:1.7903748 695:-1.1238556 696:-0.54553223 697:-0.018341064 698:-0.57628632 699:-1.2762451 700:-0.061981201 701:1.0411224 702:-0.66064453 703:-0.34164429 704:-1.3429222 705:-1.3736572 706:-2.4821472 707:-2.2457886 708:-1.4831543 709:1.7125549 710:1.3817482 711:0.5612793 712:-0.7565918 713:-0.57756805 714:-1.8148193 715:-1.1358948 716:1.3381195 717:-1.2894287 718:-1.0626221 719:0.017246246 720:-0.70874023 721:0.49493408 722:0.74058151 723:-0.18041992 724:-416.33759 725:-110.89476 726:-272.95227 727:6.698822 728:11.567322 729:-23.297974 730:11.94577 731:8.3378258 732:-25.960327 733:13.783615 734:2.0369339 735:-26.569336 736:15.119942 737:3.1664219 738:-27.589111 739:12.787392 740:1.5948544 741:-25.495239 742:11.038879 743:-1.0191002 744:-24.942505 745:11.18277 746:0.4064045 747:-21.882813 748:10.007919 749:-0.12837219 750:-20.338196 751:6.3910637 752:0.64673424 753:-18.510254 754:5.3788853 755:-1.2120972 756:-16.509705 757:6.1150608 758:-4.4302368 759:-13.966431 760:2.801775 761:-3.6982765 762:-11.525757 763:1.9404335 764:-0.47350311 765:-6.9987183 766:0.48897171 767:-0.37986755 768:-1.0999756 769:-0.78158379 770:0.46390533 771:3.8271484 772:-2.5867596 773:-0.065338135 774:8.9821167 775:-5.4739399 776:0.56437302 777:13.746399 778:-7.2126617 779:3.2888603 780:16.796997 781:-10.150639 782:2.4631062 783:21.255859 784:-10.942608 785:-1.0211048 786:24.166992 787:-12.043896 788:-1.9854622 789:25.827576 790:-12.385437 791:-0.15313339 792:26.91748 793:-13.108864 794:-2.0753365 795:28.890015 796:-11.188255 797:-4.2508354 798:29.865845 799:-10.327248 800:-3.8801613 801:26.988525 802:-8.612442 803:-2.8280945 804:26.884155 805:-6.8240585 806:-2.4429855 807:23.792114 808:-7.193573 809:-2.8489227 810:20.651733 811:-3.9568634 812:-5.4342728 813:18.079956 814:-4.1826935 815:-4.9709778 816:14.708008 817:-2.8321075 818:-6.675457 819:11.30835 820:-1.7513733 821:-4.1153793 822:10.087036 823:0.042251587 824:-3.0116196 825:7.8726807 826:0.66627502 827:-0.26306152 828:4.9859619 829:-1.9408264 830:-4.0948334 831:3.2386475 832:-1.0894165 833:-2.7255936 834:0.84204102 835:1.9841614 836:-0.087760925 837:0.87841797 838:0.39929199 839:0.50669861 840:-0.32763672 841:-0.10301208 842:3.406662 843:-2.1501465 844:0.018371582 845:1.3069534 846:-0.49682617 847:-1.0098724 848:-0.31660461 849:-1.4128418 850:18.279541 851:17.256031 852:-62.381958 853:1.792572 854:3.5175667 855:-15.167358 856:6.909874 857:3.4605179 858:-16.970581 859:6.8456802 860:-0.11894989 861:-18.192017 862:9.8126984 863:1.1271362 864:-19.908936 865:10.105453 866:-0.66255951 867:-20.608276 868:10.559555 869:1.6673088 870:-19.406006 871:11.323257 872:-0.21351242 873:-17.887573 874:7.900322 875:0.24583054 876:-16.943604 877:7.8483582 878:-2.7308846 879:-15.878662 880:5.645359 881:-1.5730133 882:-14.390015 883:6.5810318 884:-2.3282394 885:-14.708252 886:3.6578751 887:-0.13748932 888:-14.756226 889:5.2529373 890:-0.91891479 891:-13.984314 892:3.1995811 893:-0.02173233 894:-13.821167 895:4.2322922 896:-1.9299812 897:-13.029114 898:3.6745338 899:1.1489372 900:-13.438538 901:4.2949429 902:1.9512863 903:-13.152893 904:3.7692223 905:0.31959534 906:-13.625793 907:3.5663681 908:-0.014953613 909:-13.626709 910:3.2459631 911:-3.5792961 912:-12.74231 913:3.4055557 914:-2.5270233 915:-12.458801 916:1.6731176 917:-2.5098419 918:-11.477234 919:4.1227155 920:-1.2961502 921:-9.6206665 922:3.2594123 923:-2.2948227 924:-8.6947632 925:2.5057814 926:-0.63751221 927:-7.8440552 928:1.7408762 929:0.84081268 930:-7.2555542 931:0.9802413 932:1.2804108 933:-5.9800415 934:1.3455322 935:0.69748688 936:-4.3800049 937:1.1056328 938:-0.11180878 939:-3.0910645 940:-0.051141262 941:0.74674225 942:-2.539917 943:-0.18615437 944:0.85089874 945:-1.2148438 946:-0.12611771 947:0.19249725 948:-0.093811035 949:-2.0674167 950:-0.6463623 951:1.1801758 952:-0.73493743 953:-0.21416473 954:2.8590698 955:-1.0654032 956:0.2364502 957:3.9104004 958:-1.5996592 959:-0.69869232 960:4.8522949 961:-2.0618718 962:-0.49452209 963:6.1227417 964:-2.1867723 965:-2.5163574 966:7.5620117 967:-2.5351 968:-0.48274994 969:8.6630859 970:-1.0414181 971:0.36895752 972:10.329773 973:-1.8068886 974:-0.37303162 975:10.716492 976:-3.5167732 977:-0.14851379 978:12.122375 979:-3.0310974 980:-0.84036255 981:13.735962 982:-5.8709812 983:-0.32998657 984:14.4245 985:-5.7574978 986:0.58228302 987:15.887024 988:-5.1407566 989:-0.89631653 990:17.524414 991:-6.2856941 992:-0.11093903 993:18.497742 994:-8.4213943 995:-0.81964111 996:19.1297 997:-8.619175 998:-2.8492508 999:21.234253 1000:-8.6126213 1001:-0.97566223 1002:20.820557 1003:-8.356575 1004:2.4827576 1005:20.343628 1006:-9.2387238 1007:-0.77852631 1008:20.977539 1009:-7.9490738 1010:-1.5667801 1011:21.525024 1012:-9.2784729 1013:-3.0764847 1014:21.746094 1015:-8.9115143 1016:-2.4565201 1017:22.173462 1018:-7.5332413 1019:-0.96593475 1020:22.254517 1021:-9.7202606 1022:-2.7918243 1023:23.595581 1024:-8.116684 1025:-3.4599686 1026:23.325439 1027:-7.8989105 1028:-0.9523468 1029:23.99292 1030:-9.0121002 1031:-0.83550262 1032:23.050659 1033:-7.1534424 1034:-1.7732925 1035:20.099487 1036:-4.2062683 1037:-0.81271362 1038:18.526245 1039:-5.7648621 1040:-0.14942169 1041:14.761963 1042:-5.0080872 1043:2.0199966 1044:7.7424316 1045:0.6084137 1046:2.6839523 1047:6.611084 1048:2.2340088 1049:-1.913887 1050:2.4830322 1051:3.8067932 1052:-0.16446686 1053:0.65979004 1054:0.80929565 1055:-0.11549377 1056:-1.9100342 1057:2.57724 1058:-2.3222275 1059:-0.70922852 1060:0.62271118 1061:-1.0675507 1062:-1.9049072 1063:0.86785889 1064:-2.2279129 1065:-1.6965332 1066:1.4417725 1067:-2.3069839 1068:-1.7652588 1069:0.0095825195 1070:0.33345032 1071:-1.7512207 1072:-0.50009155 1073:-1.2627182 1074:-1.5181885 1075:-0.64663696 1076:0.0049514771 1077:-1.0810547 1078:2.0849304 1079:1.4000168 1080:-0.44494629 
-0.7998046875 1:6.4500427 2:3.5558243 3:4.6036377 4:17.148254 5:0.33181 6:8.3829346 7:8.3112221 8:4.05233 9:5.1120605 10:11.0618 11:-0.14435577 12:5.2692871 13:6.6460648 14:-1.223114 15:3.590332 16:9.2006836 17:1.4577789 18:4.5709229 19:8.1173897 20:0.15284729 21:3.3438721 22:8.2887478 23:0.09223938 24:3.5598145 25:10.040784 26:-0.59951019 27:5.3380127 28:6.3140955 29:0.92939758 30:2.5490723 31:8.8790455 32:1.1466904 33:5.5734863 34:7.5102272 35:-1.9197922 36:3.9228516 37:10.818336 38:-0.86984253 39:5.8919678 40:10.370701 41:-0.44220734 42:6.0975342 43:7.7772598 44:0.31424713 45:5.2293701 46:10.208397 47:0.70575714 48:6.7426758 49:8.173027 50:0.92084503 51:5.4936523 52:9.0354843 53:-0.41819763 54:6.2940674 55:9.8692627 56:-2.6723328 57:7.3353271 58:6.2996597 59:-0.96421051 60:4.4763184 61:7.3152847 62:-1.2257156 63:6.1768799 64:4.9958572 65:-0.24747467 66:4.7890625 67:9.1170502 68:1.0025635 69:7.8328857 70:4.7487946 71:-0.72745514 72:5.3804932 73:5.9862976 74:-1.3328781 75:6.5321045 76:6.7539368 77:-0.048858643 78:7.7064209 79:9.1230927 80:0.26026917 81:8.413208 82:4.6921997 83:-1.737381 84:5.4537354 85:9.1665344 86:0.49555969 87:9.7888184 88:10.181503 89:-0.99134064 90:8.9094238 91:7.6412354 92:-3.9425774 93:6.6538086 94:7.6793823 95:-3.2462463 96:4.4686279 97:7.4250488 98:-0.92684174 99:5.7030029 100:11.51825 101:2.7374802 102:7.7667236 103:6.7124481 104:0.84508514 105:4.1446533 106:8.5605774 107:-2.4687958 108:6.6268311 109:10.941925 110:1.2667503 111:8.7591553 112:4.0105896 113:0.18912125 114:-0.39672852 115:6.2421265 116:-2.6302567 117:4.2840576 118:6.9663086 119:-2.9664001 120:3.7121582 121:8.1234436 122:0.56801224 123:6.5332031 124:8.2363892 125:-0.84839249 126:7.5518799 127:5.6203918 128:-1.0641022 129:1.5212402 130:5.3563843 131:-1.2302818 132:3.3046875 133:5.7800293 134:0.55969238 135:2.3669434 136:6.8978882 137:-0.26052094 138:5.8879395 139:7.4732056 140:0.28490448 141:5.6241455 142:4.3967285 143:-4.9203911 144:0.86401367 145:4.6838074 146:-6.5732422 147:0.40185547 148:2.4952393 149:-1.6088409 150:-0.073242188 151:6.0194702 152:-0.88605881 153:3.9625244 154:4.3911743 155:0.084049225 156:0.72192383 157:2.3757629 158:1.2596474 159:1.3422852 160:1.4048462 161:-0.40364075 162:0.26062012 163:0.5534668 164:-0.83268738 165:-1.2495117 166:0.14981079 167:0.057697296 168:-1.4864502 169:-0.74206543 170:-0.16708374 171:-0.86804199 172:-0.81884766 173:-0.030948639 174:-1.286499 175:-1.9111938 176:-1.9061852 177:-3.0313721 178:-0.060577393 179:1.4481964 180:-0.55981445 181:0.28366089 182:0.41601181 183:0.3112793 184:-0.3572998 185:-1.6754036 186:-1.8560791 187:-0.06262207 188:0.77490616 189:-1.7110596 190:-0.14971924 191:1.5508614 192:-1.8187256 193:-0.26882935 194:-0.19819641 195:-0.88989258 196:-0.83761597 197:0.1709938 198:-1.4776611 199:-0.086975098 200:1.2963867 201:0.68859863 202:-2.4643555 203:4.7019424 204:-2.2530518 205:0.65011597 206:2.1903725 207:1.5687256 208:-0.24423218 209:0.98040009 210:-0.36816406 211:-1.769043 212:0.77281952 213:0.33752441 214:1.4912415 215:-0.8144722 216:0.27514648 217:-1.5272522 218:2.5358543 219:0.14746094 220:-0.14923096 221:-2.2827492 222:-0.36218262 223:-1.15271 224:-0.68213654 225:0.64538574 226:0.58572388 227:-0.20729065 228:0.171875 229:-0.43115234 230:0.61040878 231:-1.2475586 232:0.94088745 233:0.57007599 234:1.0581055 235:-427.29236 236:2.7124329 237:-281.40283 238:8.5711288 239:4.8130264 240:2.6749268 241:7.5031433 242:-0.9119873 243:2.5515137 244:10.686989 245:-1.1806908 246:4.0290527 247:9.6412659 248:-0.44151688 249:4.451416 250:7.7444038 251:4.4308586 252:3.7521973 253:8.6013603 254:4.2638092 255:4.78125 256:7.7294312 257:-1.7457161 258:3.8203125 259:7.6216431 260:2.608326 261:4.6955566 262:9.2081337 263:3.0166473 264:5.7072754 265:5.4467468 266:-0.23073578 267:3.6014404 268:7.9243422 269:1.9072952 270:5.7843018 271:10.138556 272:-2.5798302 273:7.2803955 274:6.9961891 275:0.076725006 276:7.9030762 277:6.4051723 278:3.7126999 279:6.8387451 280:4.8604307 281:-4.5083542 282:7.1341553 283:6.3437948 284:-6.7875481 285:9.4266357 286:4.2078228 287:-3.1263237 288:7.8848877 289:7.1437607 290:-1.3713875 291:9.3480225 292:6.0923576 293:2.2643967 294:7.9804688 295:7.9970436 296:2.1457024 297:8.7998047 298:7.3141251 299:2.975914 300:8.0169678 301:7.3640022 302:-0.16075516 303:7.2508545 304:8.6575661 305:-0.21313095 306:8.6466064 307:8.2096863 308:-1.7510109 309:8.6358643 310:11.071548 311:1.0849609 312:9.5496826 313:9.7398911 314:-3.066124 315:9.710083 316:5.1271896 317:0.47054672 318:4.2133789 319:11.255882 320:1.1566849 321:9.6599121 322:9.8504944 323:-3.2036819 324:8.7808838 325:11.119232 326:-2.2888412 327:10.013184 328:7.0508728 329:-2.8345032 330:5.0324707 331:8.548645 332:-1.053299 333:6.5115967 334:8.1609802 335:0.80992508 336:6.5860596 337:9.2840729 338:1.239212 339:5.9926758 340:7.6261444 341:-5.2669868 342:6.4733887 343:5.7876892 344:-3.8927841 345:1.6186523 346:7.3016968 347:-2.3627396 348:5.3012695 349:5.9602203 350:-0.18035126 351:3.1777344 352:9.4730682 353:-0.52757263 354:7.4672852 355:5.4367218 356:1.5117378 357:5.4677734 358:8.2954254 359:-3.7160301 360:6.3361816 361:4.7607422 362:-1.2101097 363:2.7773438 364:7.7092438 365:-0.82855606 366:6.7419434 367:5.3394012 368:-6.6019058 369:3.0078125 370:4.780014 371:-0.34331131 372:3.7498779 373:8.0057983 374:-4.41008 375:5.5585938 376:3.8659363 377:-0.39718819 378:2.4864502 379:4.0977173 380:3.7158585 381:3.0012207 382:2.8530579 383:-0.49704552 384:1.2805176 385:2.0993652 386:-1.119606 387:1.2374268 388:-0.66040039 389:-0.3495121 390:-0.13623047 391:-1.2689209 392:-0.59455109 393:-1.7640381 394:1.7769775 395:-1.6065712 396:0.17456055 397:-0.30230713 398:-2.2905273 399:-1.4139404 400:1.2189636 401:0.32233429 402:-2.5323486 403:-2.499176 404:0.12449265 405:-1.3580322 406:-0.45098877 407:0.48436165 408:-0.26672363 409:1.745575 410:3.7819347 411:0.25268555 412:-340.77658 413:8.2654037 414:-239.91907 415:8.0770721 416:9.8236065 417:3.2307129 418:8.868679 419:1.6282616 420:4.0792236 421:11.48399 422:1.1061172 423:5.3768311 424:13.321823 425:-0.84351349 426:6.4259033 427:9.7929211 428:2.6359444 429:5.2424316 430:10.60984 431:-0.80471802 432:5.6315918 433:11.352392 434:0.29123688 435:6.0092773 436:7.4440322 437:-1.5421867 438:3.8723145 439:8.326498 440:1.5382919 441:4.736084 442:8.1564999 443:1.0655746 444:4.5187988 445:7.2281551 446:-0.46037292 447:5.5878906 448:8.7088852 449:-0.79840851 450:5.6967773 451:8.8616257 452:-1.1668777 453:5.9190674 454:10.121578 455:3.843895 456:5.6259766 457:10.022408 458:3.4292297 459:6.0474854 460:11.803013 461:-0.12893677 462:7.1973877 463:10.42141 464:-0.22755814 465:6.9256592 466:10.498314 467:1.7062263 468:5.8569336 469:11.029602 470:1.1111183 471:5.3603516 472:10.479515 473:-1.388176 474:5.7370605 475:10.297318 476:-0.87003326 477:5.7272949 478:10.861053 479:1.4392891 480:5.9223633 481:11.742508 482:-0.57526779 483:5.7332764 484:8.7528687 485:1.3556671 486:4.1519775 487:9.9268494 488:-1.7061119 489:4.7338867 490:10.42395 491:1.9113617 492:4.6300049 493:8.9853973 494:2.1906853 495:3.6506348 496:12.441422 497:3.6318817 498:6.6333008 499:9.4230194 500:2.7814331 501:4.1195068 502:12.541229 503:-0.22288513 504:7.4415283 505:9.9785461 506:2.984726 507:5.4622803 508:6.7961121 509:0.37815857 510:2.5177002 511:8.5032196 512:-1.3312988 513:3.0622559 514:10.041748 515:-0.65354156 516:4.581665 517:9.3985596 518:0.60003662 519:3.8222656 520:7.1112976 521:-1.08358 522:2.6356201 523:8.9938354 524:0.6584816 525:4.2120361 526:6.078125 527:-0.44949722 528:2.8769531 529:8.4452515 530:-2.5524597 531:5.2835693 532:5.056366 533:-0.10370255 534:0.27490234 535:2.9824219 536:-2.2137489 537:1.1445313 538:5.5410156 539:1.3702393 540:0.95996094 541:2.8535767 542:2.3109894 543:-0.021118164 544:2.1572571 545:-0.30353546 546:0.67089844 547:4.2809448 548:-1.1507721 549:0.075927734 550:3.1645203 551:-0.6631279 552:3.4971924 553:2.6317139 554:0.98531723 555:0.44714355 556:1.2858276 557:0.29405975 558:-1.7388916 559:1.764679 560:-0.93050385 561:0.25292969 562:0.35037231 563:-0.29372787 564:-0.70849609 565:0.71063232 566:1.3317833 567:-1.7357178 568:-1.4202271 569:-6.3434982 570:-3.4110107 571:-2.0996094 572:-0.45460892 573:-2.0001221 574:0.21759033 575:0.031852722 576:-1.3796387 577:0.83465576 578:1.7071457 579:-0.73510742 580:0.0023498535 581:1.4263115 582:-0.11743164 583:-1.1773987 584:3.5234451 585:-2.0059814 586:1.5830078 587:3.3244095 588:-1.053833 589:0.8873291 590:1.1135178 591:-0.37512207 592:-1.2808838 593:-0.64899445 594:0.68310547 595:-0.90979004 596:-0.3846817 597:-1.2644043 598:-0.62783813 599:-0.49237823 600:0.65808105 601:0.059844971 602:-0.051605225 603:0.1842041 604:-344.71222 605:-8.4035835 606:-198.25378 607:12.36907 608:6.0424423 609:7.317627 610:13.049824 611:0.58141327 612:8.2871094 613:15.793718 614:2.459507 615:10.566162 616:13.004974 617:-0.096244812 618:9.0841064 619:14.255775 620:0.98826599 621:9.7651367 622:15.018547 623:1.161438 624:10.103882 625:10.735062 626:1.4400253 627:8.5842285 628:11.991356 629:-0.12203217 630:9.7646484 631:11.267708 632:1.8366852 633:9.145874 634:13.066422 635:-0.2636795 636:9.8752441 637:13.010551 638:0.9223938 639:8.5057373 640:12.426598 641:3.6854477 642:7.5717773 643:11.793091 644:2.025116 645:6.8466797 646:13.678574 647:-2.2123489 648:7.5889893 649:12.658066 650:3.685051 651:7.1884766 652:10.752365 653:0.97083282 654:6.473877 655:13.259262 656:-1.5045547 657:9.6204834 658:9.4654694 659:-4.213768 660:4.8830566 661:10.231003 662:-4.7530594 663:5.9434814 664:7.8280182 665:2.2277145 666:3.4844971 667:12.217575 668:-0.37433624 669:7.1566162 670:8.569809 671:-4.9312973 672:5.1748047 673:7.6963654 674:-3.3305969 675:4.4284668 676:9.7086182 677:-0.75928497 678:5.9852295 679:4.9582825 680:0.36774445 681:4.5748291 682:2.8303223 683:-1.0375862 684:1.1289063 685:3.8301697 686:1.8441963 687:3.5230713 688:2.4341125 689:-1.9546127 690:0.46362305 691:1.4924622 692:-2.2052498 693:0.49304199 694:1.7903748 695:-1.1238556 696:-0.54553223 697:-0.018341064 698:-0.57628632 699:-1.2762451 700:-0.061981201 701:1.0411224 702:-0.66064453 703:-0.34164429 704:-1.3429222 705:-1.3736572 706:-2.4821472 707:-2.2457886 708:-1.4831543 709:1.7125549 710:1.3817482 711:0.5612793 712:-0.7565918 713:-0.57756805 714:-1.8148193 715:-1.1358948 716:1.3381195 717:-1.2894287 718:-1.0626221 719:0.017246246 720:-0.70874023 721:0.49493408 722:0.74058151 723:-0.18041992 724:-416.33759 725:-110.89476 726:-272.95227 727:6.698822 728:11.567322 729:-23.297974 730:11.94577 731:8.3378258 732:-25.960327 733:13.783615 734:2.0369339 735:-26.569336 736:15.119942 737:3.1664219 738:-27.589111 739:12.787392 740:1.5948544 741:-25.495239 742:11.038879 743:-1.0191002 744:-24.942505 745:11.18277 746:0.4064045 747:-21.882813 748:10.007919 749:-0.12837219 750:-20.338196 751:6.3910637 752:0.64673424 753:-18.510254 754:5.3788853 755:-1.2120972 756:-16.509705 757:6.1150608 758:-4.4302368 759:-13.966431 760:2.801775 761:-3.6982765 762:-11.525757 763:1.9404335 764:-0.47350311 765:-6.9987183 766:0.48897171 767:-0.37986755 768:-1.0999756 769:-0.78158379 770:0.46390533 771:3.8271484 772:-2.5867596 773:-0.065338135 774:8.9821167 775:-5.4739399 776:0.56437302 777:13.746399 778:-7.2126617 779:3.2888603 780:16.796997 781:-10.150639 782:2.4631062 783:21.255859 784:-10.942608 785:-1.0211048 786:24.166992 787:-12.043896 788:-1.9854622 789:25.827576 790:-12.385437 791:-0.15313339 792:26.91748 793:-13.108864 794:-2.0753365 795:28.890015 796:-11.188255 797:-4.2508354 798:29.865845 799:-10.327248 800:-3.8801613 801:26.988525 802:-8.612442 803:-2.8280945 804:26.884155 805:-6.8240585 806:-2.4429855 807:23.792114 808:-7.193573 809:-2.8489227 810:20.651733 811:-3.9568634 812:-5.4342728 813:18.079956 814:-4.1826935 815:-4.9709778 816:14.708008 817:-2.8321075 818:-6.675457 819:11.30835 820:-1.7513733 821:-4.1153793 822:10.087036 823:0.042251587 824:-3.0116196 825:7.8726807 826:0.66627502 827:-0.26306152 828:4.9859619 829:-1.9408264 830:-4.0948334 831:3.2386475 832:-1.0894165 833:-2.7255936 834:0.84204102 835:1.9841614 836:-0.087760925 837:0.87841797 838:0.39929199 839:0.50669861 840:-0.32763672 841:-0.10301208 842:3.406662 843:-2.1501465 844:0.018371582 845:1.3069534 846:-0.49682617 847:-1.0098724 848:-0.31660461 849:-1.4128418 850:18.279541 851:17.256031 852:-62.381958 853:1.792572 854:3.5175667 855:-15.167358 856:6.909874 857:3.4605179 858:-16.970581 859:6.8456802 860:-0.11894989 861:-18.192017 862:9.8126984 863:1.1271362 864:-19.908936 865:10.105453 866:-0.66255951 867:-20.608276 868:10.559555 869:1.6673088 870:-19.406006 871:11.323257 872:-0.21351242 873:-17.887573 874:7.900322 875:0.24583054 876:-16.943604 877:7.8483582 878:-2.7308846 879:-15.878662 880:5.645359 881:-1.5730133 882:-14.390015 883:6.5810318 884:-2.3282394 885:-14.708252 886:3.6578751 887:-0.13748932 888:-14.756226 889:5.2529373 890:-0.91891479 891:-13.984314 892:3.1995811 893:-0.02173233 894:-13.821167 895:4.2322922 896:-1.9299812 897:-13.029114 898:3.6745338 899:1.1489372 900:-13.438538 901:4.2949429 902:1.9512863 903:-13.152893 904:3.7692223 905:0.31959534 906:-13.625793 907:3.5663681 908:-0.014953613 909:-13.626709 910:3.2459631 911:-3.5792961 912:-12.74231 913:3.4055557 914:-2.5270233 915:-12.458801 916:1.6731176 917:-2.5098419 918:-11.477234 919:4.1227155 920:-1.2961502 921:-9.6206665 922:3.2594123 923:-2.2948227 924:-8.6947632 925:2.5057814 926:-0.63751221 927:-7.8440552 928:1.7408762 929:0.84081268 930:-7.2555542 931:0.9802413 932:1.2804108 933:-5.9800415 934:1.3455322 935:0.69748688 936:-4.3800049 937:1.1056328 938:-0.11180878 939:-3.0910645 940:-0.051141262 941:0.74674225 942:-2.539917 943:-0.18615437 944:0.85089874 945:-1.2148438 946:-0.12611771 947:0.19249725 948:-0.093811035 949:-2.0674167 950:-0.6463623 951:1.1801758 952:-0.73493743 953:-0.21416473 954:2.8590698 955:-1.0654032 956:0.2364502 957:3.9104004 958:-1.5996592 959:-0.69869232 960:4.8522949 961:-2.0618718 962:-0.49452209 963:6.1227417 964:-2.1867723 965:-2.5163574 966:7.5620117 967:-2.5351 968:-0.48274994 969:8.6630859 970:-1.0414181 971:0.36895752 972:10.329773 973:-1.8068886 974:-0.37303162 975:10.716492 976:-3.5167732 977:-0.14851379 978:12.122375 979:-3.0310974 980:-0.84036255 981:13.735962 982:-5.8709812 983:-0.32998657 984:14.4245 985:-5.7574978 986:0.58228302 987:15.887024 988:-5.1407566 989:-0.89631653 990:17.524414 991:-6.2856941 992:-0.11093903 993:18.497742 994:-8.4213943 995:-0.81964111 996:19.1297 997:-8.619175 998:-2.8492508 999:21.234253 1000:-8.6126213 1001:-0.97566223 1002:20.820557 1003:-8.356575 1004:2.4827576 1005:20.343628 1006:-9.2387238 1007:-0.77852631 1008:20.977539 1009:-7.9490738 1010:-1.5667801 1011:21.525024 1012:-9.2784729 1013:-3.0764847 1014:21.746094 1015:-8.9115143 1016:-2.4565201 1017:22.173462 1018:-7.5332413 1019:-0.96593475 1020:22.254517 1021:-9.7202606 1022:-2.7918243 1023:23.595581 1024:-8.116684 1025:-3.4599686 1026:23.325439 1027:-7.8989105 1028:-0.9523468 1029:23.99292 1030:-9.0121002 1031:-0.83550262 1032:23.050659 1033:-7.1534424 1034:-1.7732925 1035:20.099487 1036:-4.2062683 1037:-0.81271362 1038:18.526245 1039:-5.7648621 1040:-0.14942169 1041:14.761963 1042:-5.0080872 1043:2.0199966 1044:7.7424316 1045:0.6084137 1046:2.6839523 1047:6.611084 1048:2.2340088 1049:-1.913887 1050:2.4830322 1051:3.8067932 1052:-0.16446686 1053:0.65979004 1054:0.80929565 1055:-0.11549377 1056:-1.9100342 1057:2.57724 1058:-2.3222275 1059:-0.70922852 1060:0.62271118 1061:-1.0675507 1062:-1.9049072 1063:0.86785889 1064:-2.2279129 1065:-1.6965332 1066:1.4417725 1067:-2.3069839 1068:-1.7652588 1069:0.0095825195 1070:0.33345032 1071:-1.7512207 1072:-0.50009155 1073:-1.2627182 1074:-1.5181885 1075:-0.64663696 1076:0.0049514771 1077:-1.0810547 1078:2.0849304 1079:1.4000168 1080:-0.44494629 1081:132.07513 1082:18.063728 1083:39.053101 1084:5.4237671 1085:6.3878326 1086:-7.3170166 1087:0.49659538 1088:2.77211 1089:-9.5826416 1090:1.0992527 1091:2.273407 1092:-8.8504639 1093:0.062540054 1094:-2.5945663 1095:-8.6561279 1096:4.5865688 1097:3.672226 1098:-11.87561 1099:0.29923725 1100:2.1045685 1101:-10.603271 1102:2.1858377 1103:1.1416168 1104:-11.746948 1105:4.7488852 1106:0.64521027 1107:-12.166138 1108:5.7922688 1109:0.58035278 1110:-11.313232 1111:3.7735448 1112:-4.8822403 1113:-14.927979 1114:5.943315 1115:-1.9045715 1116:-13.200928 1117:4.355247 1118:1.3739395 1119:-13.016235 1120:7.0889978 1121:1.5534058 1122:-14.384521 1123:5.6651154 1124:2.3232498 1125:-14.107788 1126:3.2099571 1127:0.58264923 1128:-12.658813 1129:5.4049015 1130:-0.88095856 1131:-12.885986 1132:3.8524055 1133:2.6452255 1134:-13.47937 1135:2.172493 1136:0.67642212 1137:-14.900879 1138:3.2792511 1139:-0.073242188 1140:-14.38269 1141:4.4400215 1142:1.7543144 1143:-13.279907 1144:4.0389709 1145:0.40148163 1146:-13.240967 1147:1.9105949 1148:-0.46050644 1149:-12.371094 1150:3.4828682 1151:-1.2673912 1152:-12.429688 1153:1.3918114 1154:-0.46874619 1155:-11.262451 1156:0.90451431 1157:-0.1572113 1158:-11.668335 1159:1.1691628 1160:0.6395874 1161:-10.322632 1162:1.7389755 1163:-0.80197906 1164:-10.696411 1165:0.75772476 1166:-1.1924133 1167:-9.7236328 1168:4.2040024 1169:-2.5585785 1170:-10.873535 1171:1.3799362 1172:-0.29749298 1173:-10.34021 1174:2.1541061 1175:0.87675476 1176:-9.5810547 1177:3.3536682 1178:1.7892075 1179:-10.354614 1180:2.2107925 1181:-0.61945343 1182:-11.023376 1183:0.64525604 1184:-1.0492172 1185:-11.481079 1186:2.8121338 1187:-0.99492645 1188:-11.943481 1189:0.57647705 1190:-3.8464584 1191:-11.842163 1192:3.2386703 1193:-2.2685165 1194:-12.345032 1195:3.4099121 1196:-1.2859726 1197:-11.327393 1198:0.53487396 1199:-2.9823532 1200:-10.331116 1201:4.6229706 1202:-1.1608582 1203:-9.8811646 1204:3.6214218 1205:-1.802742 1206:-8.0275269 1207:2.7773743 1208:-0.96266174 1209:-6.6447754 1210:-0.61262512 1211:-3.0442047 1212:-4.5068359 1213:1.7823944 1214:-1.7643585 1215:-3.5358276 1216:-0.091468811 1217:-1.7145462 1218:-1.8527832 1219:-0.13906097 1220:-2.3930511 1221:0.43041992 1222:-1.0993576 1223:0.4528656 1224:2.4492188 1225:-2.245369 1226:1.0634155 1227:4.6931152 1228:0.17351532 1229:2.0534515 1230:6.9448853 1231:-3.3803177 1232:1.3694611 1233:9.6623535 1234:-1.7731552 1235:1.7693634 1236:10.412659 1237:-1.9091873 1238:1.2790146 1239:13.58313 1240:-4.0122833 1241:0.034240723 1242:15.018738 1243:-2.8377151 1244:-0.1984787 1245:15.422119 1246:-4.1344299 1247:2.6726685 1248:16.86969 1249:-3.8620758 1250:1.1689224 1251:17.247192 1252:-5.1129532 1253:-1.7909622 1254:18.485901 1255:-5.437397 1256:0.77867889 1257:19.48114 1258:-4.0087814 1259:2.6413727 1260:20.292969 1261:-5.7670174 1262:1.8110352 1263:22.354248 1264:-6.4061623 1265:-1.0517426 1266:23.136963 1267:-7.1323776 1268:-1.4639359 1269:23.550049 1270:-8.4806442 1271:-1.3356705 1272:23.233643 1273:-7.1117287 1274:-0.43534088 1275:23.321777 1276:-7.1882839 1277:-1.1764526 1278:23.048096 1279:-10.413586 1280:0.18912506 1281:23.697876 1282:-7.6907449 1283:1.3253479 1284:21.983398 1285:-11.152008 1286:2.446373 1287:21.836792 1288:-10.675001 1289:-0.25641632 1290:22.236206 1291:-6.6225815 1292:-0.86985779 1293:20.200195 1294:-10.12023 1295:2.6884079 1296:20.20459 1297:-5.4836044 1298:-1.0384979 1299:19.482666 1300:-8.3213806 1301:1.0897064 1302:16.4646 1303:-6.6755867 1304:0.062004089 1305:13.980103 1306:-2.5952339 1307:3.0657959 1308:11.909424 1309:-3.2215271 1310:0.021080017 1311:9.3616943 1312:0.028251648 1313:0.22610474 1314:6.8594971 1315:-3.133461 1316:2.0213165 1317:4.1806641 1318:-0.97877502 1319:2.1265182 1320:1.446167 1321:-0.673172 1322:2.706749 1323:0.17382813 1324:3.0640717 1325:4.541172 1326:-0.021606445 1327:3.9394455 1328:0.38782883 1329:0.34790039 1330:-1.5593033 1331:0.053871155 1332:-0.92700195 
-0.7998046875 1:6.4500427 2:3.5558243 3:4.6036377 4:17.148254 5:0.33181 6:8.3829346 7:8.3112221 8:4.05233 9:5.1120605 10:11.0618 11:-0.14435577 12:5.2692871 13:6.6460648 14:-1.223114 15:3.590332 16:9.2006836 17:1.4577789 18:4.5709229 19:8.1173897 20:0.15284729 21:3.3438721 22:8.2887478 23:0.09223938 24:3.5598145 25:10.040784 26:-0.59951019 27:5.3380127 28:6.3140955 29:0.92939758 30:2.5490723 31:8.8790455 32:1.1466904 33:5.5734863 34:7.5102272 35:-1.9197922 36:3.9228516 37:10.818336 38:-0.86984253 39:5.8919678 40:10.370701 41:-0.44220734 42:6.0975342 43:7.7772598 44:0.31424713 45:5.2293701 46:10.208397 47:0.70575714 48:6.7426758 49:8.173027 50:0.92084503 51:5.4936523 52:9.0354843 53:-0.41819763 54:6.2940674 55:9.8692627 56:-2.6723328 57:7.3353271 58:6.2996597 59:-0.96421051 60:4.4763184 61:7.3152847 62:-1.2257156 63:6.1768799 64:4.9958572 65:-0.24747467 66:4.7890625 67:9.1170502 68:1.0025635 69:7.8328857 70:4.7487946 71:-0.72745514 72:5.3804932 73:5.9862976 74:-1.3328781 75:6.5321045 76:6.7539368 77:-0.048858643 78:7.7064209 79:9.1230927 80:0.26026917 81:8.413208 82:4.6921997 83:-1.737381 84:5.4537354 85:9.1665344 86:0.49555969 87:9.7888184 88:10.181503 89:-0.99134064 90:8.9094238 91:7.6412354 92:-3.9425774 93:6.6538086 94:7.6793823 95:-3.2462463 96:4.4686279 97:7.4250488 98:-0.92684174 99:5.7030029 100:11.51825 101:2.7374802 102:7.7667236 103:6.7124481 104:0.84508514 105:4.1446533 106:8.5605774 107:-2.4687958 108:6.6268311 109:10.941925 110:1.2667503 111:8.7591553 112:4.0105896 113:0.18912125 114:-0.39672852 115:6.2421265 116:-2.6302567 117:4.2840576 118:6.9663086 119:-2.9664001 120:3.7121582 121:8.1234436 122:0.56801224 123:6.5332031 124:8.2363892 125:-0.84839249 126:7.5518799 127:5.6203918 128:-1.0641022 129:1.5212402 130:5.3563843 131:-1.2302818 132:3.3046875 133:5.7800293 134:0.55969238 135:2.3669434 136:6.8978882 137:-0.26052094 138:5.8879395 139:7.4732056 140:0.28490448 141:5.6241455 142:4.3967285 143:-4.9203911 144:0.86401367 145:4.6838074 146:-6.5732422 147:0.40185547 148:2.4952393 149:-1.6088409 150:-0.073242188 151:6.0194702 152:-0.88605881 153:3.9625244 154:4.3911743 155:0.084049225 156:0.72192383 157:2.3757629 158:1.2596474 159:1.3422852 160:1.4048462 161:-0.40364075 162:0.26062012 163:0.5534668 164:-0.83268738 165:-1.2495117 166:0.14981079 167:0.057697296 168:-1.4864502 169:-0.74206543 170:-0.16708374 171:-0.86804199 172:-0.81884766 173:-0.030948639 174:-1.286499 175:-1.9111938 176:-1.9061852 177:-3.0313721 178:-0.060577393 179:1.4481964 180:-0.55981445 181:0.28366089 182:0.41601181 183:0.3112793 184:-0.3572998 185:-1.6754036 186:-1.8560791 187:-0.06262207 188:0.77490616 189:-1.7110596 190:-0.14971924 191:1.5508614 192:-1.8187256 193:-0.26882935 194:-0.19819641 195:-0.88989258 196:-0.83761597 197:0.1709938 198:-1.4776611 199:-0.086975098 200:1.2963867 201:0.68859863 202:-2.4643555 203:4.7019424 204:-2.2530518 205:0.65011597 206:2.1903725 207:1.5687256 208:-0.24423218 209:0.98040009 210:-0.36816406 211:-1.769043 212:0.77281952 213:0.33752441 214:1.4912415 215:-0.8144722 216:0.27514648 217:-1.5272522 218:2.5358543 219:0.14746094 220:-0.14923096 221:-2.2827492 222:-0.36218262 223:-1.15271 224:-0.68213654 225:0.64538574 226:0.58572388 227:-0.20729065 228:0.171875 229:-0.43115234 230:0.61040878 231:-1.2475586 232:0.94088745 233:0.57007599 234:1.0581055 235:-427.29236 236:2.7124329 237:-281.40283 238:8.5711288 239:4.8130264 240:2.6749268 241:7.5031433 242:-0.9119873 243:2.5515137 244:10.686989 245:-1.1806908 246:4.0290527 247:9.6412659 248:-0.44151688 249:4.451416 250:7.7444038 251:4.4308586 252:3.7521973 253:8.6013603 254:4.2638092 255:4.78125 256:7.7294312 257:-1.7457161 258:3.8203125 259:7.6216431 260:2.608326 261:4.6955566 262:9.2081337 263:3.0166473 264:5.7072754 265:5.4467468 266:-0.23073578 267:3.6014404 268:7.9243422 269:1.9072952 270:5.7843018 271:10.138556 272:-2.5798302 273:7.2803955 274:6.9961891 275:0.076725006 276:7.9030762 277:6.4051723 278:3.7126999 279:6.8387451 280:4.8604307 281:-4.5083542 282:7.1341553 283:6.3437948 284:-6.7875481 285:9.4266357 286:4.2078228 287:-3.1263237 288:7.8848877 289:7.1437607 290:-1.3713875 291:9.3480225 292:6.0923576 293:2.2643967 294:7.9804688 295:7.9970436 296:2.1457024 297:8.7998047 298:7.3141251 299:2.975914 300:8.0169678 301:7.3640022 302:-0.16075516 303:7.2508545 304:8.6575661 305:-0.21313095 306:8.6466064 307:8.2096863 308:-1.7510109 309:8.6358643 310:11.071548 311:1.0849609 312:9.5496826 313:9.7398911 314:-3.066124 315:9.710083 316:5.1271896 317:0.47054672 318:4.2133789 319:11.255882 320:1.1566849 321:9.6599121 322:9.8504944 323:-3.2036819 324:8.7808838 325:11.119232 326:-2.2888412 327:10.013184 328:7.0508728 329:-2.8345032 330:5.0324707 331:8.548645 332:-1.053299 333:6.5115967 334:8.1609802 335:0.80992508 336:6.5860596 337:9.2840729 338:1.239212 339:5.9926758 340:7.6261444 341:-5.2669868 342:6.4733887 343:5.7876892 344:-3.8927841 345:1.6186523 346:7.3016968 347:-2.3627396 348:5.3012695 349:5.9602203 350:-0.18035126 351:3.1777344 352:9.4730682 353:-0.52757263 354:7.4672852 355:5.4367218 356:1.5117378 357:5.4677734 358:8.2954254 359:-3.7160301 360:6.3361816 361:4.7607422 362:-1.2101097 363:2.7773438 364:7.7092438 365:-0.82855606 366:6.7419434 367:5.3394012 368:-6.6019058 369:3.0078125 370:4.780014 371:-0.34331131 372:3.7498779 373:8.0057983 374:-4.41008 375:5.5585938 376:3.8659363 377:-0.39718819 378:2.4864502 379:4.0977173 380:3.7158585 381:3.0012207 382:2.8530579 383:-0.49704552 384:1.2805176 385:2.0993652 386:-1.119606 387:1.2374268 388:-0.66040039 389:-0.3495121 390:-0.13623047 391:-1.2689209 392:-0.59455109 393:-1.7640381 394:1.7769775 395:-1.6065712 396:0.17456055 397:-0.30230713 398:-2.2905273 399:-1.4139404 400:1.2189636 401:0.32233429 402:-2.5323486 403:-2.499176 404:0.12449265 405:-1.3580322 406:-0.45098877 407:0.48436165 408:-0.26672363 409:1.745575 410:3.7819347 411:0.25268555 412:-340.77658 413:8.2654037 414:-239.91907 415:8.0770721 416:9.8236065 417:3.2307129 418:8.868679 419:1.6282616 420:4.0792236 421:11.48399 422:1.1061172 423:5.3768311 424:13.321823 425:-0.84351349 426:6.4259033 427:9.7929211 428:2.6359444 429:5.2424316 430:10.60984 431:-0.80471802 432:5.6315918 433:11.352392 434:0.29123688 435:6.0092773 436:7.4440322 437:-1.5421867 438:3.8723145 439:8.326498 440:1.5382919 441:4.736084 442:8.1564999 443:1.0655746 444:4.5187988 445:7.2281551 446:-0.46037292 447:5.5878906 448:8.7088852 449:-0.79840851 450:5.6967773 451:8.8616257 452:-1.1668777 453:5.9190674 454:10.121578 455:3.843895 456:5.6259766 457:10.022408 458:3.4292297 459:6.0474854 460:11.803013 461:-0.12893677 462:7.1973877 463:10.42141 464:-0.22755814 465:6.9256592 466:10.498314 467:1.7062263 468:5.8569336 469:11.029602 470:1.1111183 471:5.3603516 472:10.479515 473:-1.388176 474:5.7370605 475:10.297318 476:-0.87003326 477:5.7272949 478:10.861053 479:1.4392891 480:5.9223633 481:11.742508 482:-0.57526779 483:5.7332764 484:8.7528687 485:1.3556671 486:4.1519775 487:9.9268494 488:-1.7061119 489:4.7338867 490:10.42395 491:1.9113617 492:4.6300049 493:8.9853973 494:2.1906853 495:3.6506348 496:12.441422 497:3.6318817 498:6.6333008 499:9.4230194 500:2.7814331 501:4.1195068 502:12.541229 503:-0.22288513 504:7.4415283 505:9.9785461 506:2.984726 507:5.4622803 508:6.7961121 509:0.37815857 510:2.5177002 511:8.5032196 512:-1.3312988 513:3.0622559 514:10.041748 515:-0.65354156 516:4.581665 517:9.3985596 518:0.60003662 519:3.8222656 520:7.1112976 521:-1.08358 522:2.6356201 523:8.9938354 524:0.6584816 525:4.2120361 526:6.078125 527:-0.44949722 528:2.8769531 529:8.4452515 530:-2.5524597 531:5.2835693 532:5.056366 533:-0.10370255 534:0.27490234 535:2.9824219 536:-2.2137489 537:1.1445313 538:5.5410156 539:1.3702393 540:0.95996094 541:2.8535767 542:2.3109894 543:-0.021118164 544:2.1572571 545:-0.30353546 546:0.67089844 547:4.2809448 548:-1.1507721 549:0.075927734 550:3.1645203 551:-0.6631279 552:3.4971924 553:2.6317139 554:0.98531723 555:0.44714355 556:1.2858276 557:0.29405975 558:-1.7388916 559:1.764679 560:-0.93050385 561:0.25292969 562:0.35037231 563:-0.29372787 564:-0.70849609 565:0.71063232 566:1.3317833 567:-1.7357178 568:-1.4202271 569:-6.3434982 570:-3.4110107 571:-2.0996094 572:-0.45460892 573:-2.0001221 574:0.21759033 575:0.031852722 576:-1.3796387 577:0.83465576 578:1.7071457 579:-0.73510742 580:0.0023498535 581:1.4263115 582:-0.11743164 583:-1.1773987 584:3.5234451 585:-2.0059814 586:1.5830078 587:3.3244095 588:-1.053833 589:0.8873291 590:1.1135178 591:-0.37512207 592:-1.2808838 593:-0.64899445 594:0.68310547 595:-0.90979004 596:-0.3846817 597:-1.2644043 598:-0.62783813 599:-0.49237823 600:0.65808105 601:0.059844971 602:-0.051605225 603:0.1842041 604:-344.71222 605:-8.4035835 606:-198.25378 607:12.36907 608:6.0424423 609:7.317627 610:13.049824 611:0.58141327 612:8.2871094 613:15.793718 614:2.459507 615:10.566162 616:13.004974 617:-0.096244812 618:9.0841064 619:14.255775 620:0.98826599 621:9.7651367 622:15.018547 623:1.161438 624:10.103882 625:10.735062 626:1.4400253 627:8.5842285 628:11.991356 629:-0.12203217 630:9.7646484 631:11.267708 632:1.8366852 633:9.145874 634:13.066422 635:-0.2636795 636:9.8752441 637:13.010551 638:0.9223938 639:8.5057373 640:12.426598 641:3.6854477 642:7.5717773 643:11.793091 644:2.025116 645:6.8466797 646:13.678574 647:-2.2123489 648:7.5889893 649:12.658066 650:3.685051 651:7.1884766 652:10.752365 653:0.97083282 654:6.473877 655:13.259262 656:-1.5045547 657:9.6204834 658:9.4654694 659:-4.213768 660:4.8830566 661:10.231003 662:-4.7530594 663:5.9434814 664:7.8280182 665:2.2277145 666:3.4844971 667:12.217575 668:-0.37433624 669:7.1566162 670:8.569809 671:-4.9312973 672:5.1748047 673:7.6963654 674:-3.3305969 675:4.4284668 676:9.7086182 677:-0.75928497 678:5.9852295 679:4.9582825 680:0.36774445 681:4.5748291 682:2.8303223 683:-1.0375862 684:1.1289063 685:3.8301697 686:1.8441963 687:3.5230713 688:2.4341125 689:-1.9546127 690:0.46362305 691:1.4924622 692:-2.2052498 693:0.49304199 694:1.7903748 695:-1.1238556 696:-0.54553223 697:-0.018341064 698:-0.57628632 699:-1.2762451 700:-0.061981201 701:1.0411224 702:-0.66064453 703:-0.34164429 704:-1.3429222 705:-1.3736572 706:-2.4821472 707:-2.2457886 708:-1.4831543 709:1.7125549 710:1.3817482 711:0.5612793 712:-0.7565918 713:-0.57756805 714:-1.8148193 715:-1.1358948 716:1.3381195 717:-1.2894287 718:-1.0626221 719:0.017246246 720:-0.70874023 721:0.49493408 722:0.74058151 723:-0.18041992 724:-416.33759 725:-110.89476 726:-272.95227 727:6.698822 728:11.567322 729:-23.297974 730:11.94577 731:8.3378258 732:-25.960327 733:13.783615 734:2.0369339 735:-26.569336 736:15.119942 737:3.1664219 738:-27.589111 739:12.787392 740:1.5948544 741:-25.495239 742:11.038879 743:-1.0191002 744:-24.942505 745:11.18277 746:0.4064045 747:-21.882813 748:10.007919 749:-0.12837219 750:-20.338196 751:6.3910637 752:0.64673424 753:-18.510254 754:5.3788853 755:-1.2120972 756:-16.509705 757:6.1150608 758:-4.4302368 759:-13.966431 760:2.801775 761:-3.6982765 762:-11.525757 763:1.9404335 764:-0.47350311 765:-6.9987183 766:0.48897171 767:-0.37986755 768:-1.0999756 769:-0.78158379 770:0.46390533 771:3.8271484 772:-2.5867596 773:-0.065338135 774:8.9821167 775:-5.4739399 776:0.56437302 777:13.746399 778:-7.2126617 779:3.2888603 780:16.796997 781:-10.150639 782:2.4631062 783:21.255859 784:-10.942608 785:-1.0211048 786:24.166992 787:-12.043896 788:-1.9854622 789:25.827576 790:-12.385437 791:-0.15313339 792:26.91748 793:-13.108864 794:-2.0753365 795:28.890015 796:-11.188255 797:-4.2508354 798:29.865845 799:-10.327248 800:-3.8801613 801:26.988525 802:-8.612442 803:-2.8280945 804:26.884155 805:-6.8240585 806:-2.4429855 807:23.792114 808:-7.193573 809:-2.8489227 810:20.651733 811:-3.9568634 812:-5.4342728 813:18.079956 814:-4.1826935 815:-4.9709778 816:14.708008 817:-2.8321075 818:-6.675457 819:11.30835 820:-1.7513733 821:-4.1153793 822:10.087036 823:0.042251587 824:-3.0116196 825:7.8726807 826:0.66627502 827:-0.26306152 828:4.9859619 829:-1.9408264 830:-4.0948334 831:3.2386475 832:-1.0894165 833:-2.7255936 834:0.84204102 835:1.9841614 836:-0.087760925 837:0.87841797 838:0.39929199 839:0.50669861 840:-0.32763672 841:-0.10301208 842:3.406662 843:-2.1501465 844:0.018371582 845:1.3069534 846:-0.49682617 847:-1.0098724 848:-0.31660461 849:-1.4128418 850:18.279541 851:17.256031 852:-62.381958 853:1.792572 854:3.5175667 855:-15.167358 856:6.909874 857:3.4605179 858:-16.970581 859:6.8456802 860:-0.11894989 861:-18.192017 862:9.8126984 863:1.1271362 864:-19.908936 865:10.105453 866:-0.66255951 867:-20.608276 868:10.559555 869:1.6673088 870:-19.406006 871:11.323257 872:-0.21351242 873:-17.887573 874:7.900322 875:0.24583054 876:-16.943604 877:7.8483582 878:-2.7308846 879:-15.878662 880:5.645359 881:-1.5730133 882:-14.390015 883:6.5810318 884:-2.3282394 885:-14.708252 886:3.6578751 887:-0.13748932 888:-14.756226 889:5.2529373 890:-0.91891479 891:-13.984314 892:3.1995811 893:-0.02173233 894:-13.821167 895:4.2322922 896:-1.9299812 897:-13.029114 898:3.6745338 899:1.1489372 900:-13.438538 901:4.2949429 902:1.9512863 903:-13.152893 904:3.7692223 905:0.31959534 906:-13.625793 907:3.5663681 908:-0.014953613 909:-13.626709 910:3.2459631 911:-3.5792961 912:-12.74231 913:3.4055557 914:-2.5270233 915:-12.458801 916:1.6731176 917:-2.5098419 918:-11.477234 919:4.1227155 920:-1.2961502 921:-9.6206665 922:3.2594123 923:-2.2948227 924:-8.6947632 925:2.5057814 926:-0.63751221 927:-7.8440552 928:1.7408762 929:0.84081268 930:-7.2555542 931:0.9802413 932:1.2804108 933:-5.9800415 934:1.3455322 935:0.69748688 936:-4.3800049 937:1.1056328 938:-0.11180878 939:-3.0910645 940:-0.051141262 941:0.74674225 942:-2.539917 943:-0.18615437 944:0.85089874 945:-1.2148438 946:-0.12611771 947:0.19249725 948:-0.093811035 949:-2.0674167 950:-0.6463623 951:1.1801758 952:-0.73493743 953:-0.21416473 954:2.8590698 955:-1.0654032 956:0.2364502 957:3.9104004 958:-1.5996592 959:-0.69869232 960:4.8522949 961:-2.0618718 962:-0.49452209 963:6.1227417 964:-2.1867723 965:-2.5163574 966:7.5620117 967:-2.5351 968:-0.48274994 969:8.6630859 970:-1.0414181 971:0.36895752 972:10.329773 973:-1.8068886 974:-0.37303162 975:10.716492 976:-3.5167732 977:-0.14851379 978:12.122375 979:-3.0310974 980:-0.84036255 981:13.735962 982:-5.8709812 983:-0.32998657 984:14.4245 985:-5.7574978 986:0.58228302 987:15.887024 988:-5.1407566 989:-0.89631653 990:17.524414 991:-6.2856941 992:-0.11093903 993:18.497742 994:-8.4213943 995:-0.81964111 996:19.1297 997:-8.619175 998:-2.8492508 999:21.234253 1000:-8.6126213 1001:-0.97566223 1002:20.820557 1003:-8.356575 1004:2.4827576 1005:20.343628 1006:-9.2387238 1007:-0.77852631 1008:20.977539 1009:-7.9490738 1010:-1.5667801 1011:21.525024 1012:-9.2784729 1013:-3.0764847 1014:21.746094 1015:-8.9115143 1016:-2.4565201 1017:22.173462 1018:-7.5332413 1019:-0.96593475 1020:22.254517 1021:-9.7202606 1022:-2.7918243 1023:23.595581 1024:-8.116684 1025:-3.4599686 1026:23.325439 1027:-7.8989105 1028:-0.9523468 1029:23.99292 1030:-9.0121002 1031:-0.83550262 1032:23.050659 1033:-7.1534424 1034:-1.7732925 1035:20.099487 1036:-4.2062683 1037:-0.81271362 1038:18.526245 1039:-5.7648621 1040:-0.14942169 1041:14.761963 1042:-5.0080872 1043:2.0199966 1044:7.7424316 1045:0.6084137 1046:2.6839523 1047:6.611084 1048:2.2340088 1049:-1.913887 1050:2.4830322 1051:3.8067932 1052:-0.16446686 1053:0.65979004 1054:0.80929565 1055:-0.11549377 1056:-1.9100342 1057:2.57724 1058:-2.3222275 1059:-0.70922852 1060:0.62271118 1061:-1.0675507 1062:-1.9049072 1063:0.86785889 1064:-2.2279129 1065:-1.6965332 1066:1.4417725 1067:-2.3069839 1068:-1.7652588 1069:0.0095825195 1070:0.33345032 1071:-1.7512207 1072:-0.50009155 1073:-1.2627182 1074:-1.5181885 1075:-0.64663696 1076:0.0049514771 1077:-1.0810547 1078:2.0849304 1079:1.4000168 1080:-0.44494629 1081:132.07513 1082:18.063728 1083:39.053101 1084:5.4237671 1085:6.3878326 1086:-7.3170166 1087:0.49659538 1088:2.77211 1089:-9.5826416 1090:1.0992527 1091:2.273407 1092:-8.8504639 1093:0.062540054 1094:-2.5945663 1095:-8.6561279 1096:4.5865688 1097:3.672226 1098:-11.87561 1099:0.29923725 1100:2.1045685 1101:-10.603271 1102:2.1858377 1103:1.1416168 1104:-11.746948 1105:4.7488852 1106:0.64521027 1107:-12.166138 1108:5.7922688 1109:0.58035278 1110:-11.313232 1111:3.7735448 1112:-4.8822403 1113:-14.927979 1114:5.943315 1115:-1.9045715 1116:-13.200928 1117:4.355247 1118:1.3739395 1119:-13.016235 1120:7.0889978 1121:1.5534058 1122:-14.384521 1123:5.6651154 1124:2.3232498 1125:-14.107788 1126:3.2099571 1127:0.58264923 1128:-12.658813 1129:5.4049015 1130:-0.88095856 1131:-12.885986 1132:3.8524055 1133:2.6452255 1134:-13.47937 1135:2.172493 1136:0.67642212 1137:-14.900879 1138:3.2792511 1139:-0.073242188 1140:-14.38269 1141:4.4400215 1142:1.7543144 1143:-13.279907 1144:4.0389709 1145:0.40148163 1146:-13.240967 1147:1.9105949 1148:-0.46050644 1149:-12.371094 1150:3.4828682 1151:-1.2673912 1152:-12.429688 1153:1.3918114 1154:-0.46874619 1155:-11.262451 1156:0.90451431 1157:-0.1572113 1158:-11.668335 1159:1.1691628 1160:0.6395874 1161:-10.322632 1162:1.7389755 1163:-0.80197906 1164:-10.696411 1165:0.75772476 1166:-1.1924133 1167:-9.7236328 1168:4.2040024 1169:-2.5585785 1170:-10.873535 1171:1.3799362 1172:-0.29749298 1173:-10.34021 1174:2.1541061 1175:0.87675476 1176:-9.5810547 1177:3.3536682 1178:1.7892075 1179:-10.354614 1180:2.2107925 1181:-0.61945343 1182:-11.023376 1183:0.64525604 1184:-1.0492172 1185:-11.481079 1186:2.8121338 1187:-0.99492645 1188:-11.943481 1189:0.57647705 1190:-3.8464584 1191:-11.842163 1192:3.2386703 1193:-2.2685165 1194:-12.345032 1195:3.4099121 1196:-1.2859726 1197:-11.327393 1198:0.53487396 1199:-2.9823532 1200:-10.331116 1201:4.6229706 1202:-1.1608582 1203:-9.8811646 1204:3.6214218 1205:-1.802742 1206:-8.0275269 1207:2.7773743 1208:-0.96266174 1209:-6.6447754 1210:-0.61262512 1211:-3.0442047 1212:-4.5068359 1213:1.7823944 1214:-1.7643585 1215:-3.5358276 1216:-0.091468811 1217:-1.7145462 1218:-1.8527832 1219:-0.13906097 1220:-2.3930511 1221:0.43041992 1222:-1.0993576 1223:0.4528656 1224:2.4492188 1225:-2.245369 1226:1.0634155 1227:4.6931152 1228:0.17351532 1229:2.0534515 1230:6.9448853 1231:-3.3803177 1232:1.3694611 1233:9.6623535 1234:-1.7731552 1235:1.7693634 1236:10.412659 1237:-1.9091873 1238:1.2790146 1239:13.58313 1240:-4.0122833 1241:0.034240723 1242:15.018738 1243:-2.8377151 1244:-0.1984787 1245:15.422119 1246:-4.1344299 1247:2.6726685 1248:16.86969 1249:-3.8620758 1250:1.1689224 1251:17.247192 1252:-5.1129532 1253:-1.7909622 1254:18.485901 1255:-5.437397 1256:0.77867889 1257:19.48114 1258:-4.0087814 1259:2.6413727 1260:20.292969 1261:-5.7670174 1262:1.8110352 1263:22.354248 1264:-6.4061623 1265:-1.0517426 1266:23.136963 1267:-7.1323776 1268:-1.4639359 1269:23.550049 1270:-8.4806442 1271:-1.3356705 1272:23.233643 1273:-7.1117287 1274:-0.43534088 1275:23.321777 1276:-7.1882839 1277:-1.1764526 1278:23.048096 1279:-10.413586 1280:0.18912506 1281:23.697876 1282:-7.6907449 1283:1.3253479 1284:21.983398 1285:-11.152008 1286:2.446373 1287:21.836792 1288:-10.675001 1289:-0.25641632 1290:22.236206 1291:-6.6225815 1292:-0.86985779 1293:20.200195 1294:-10.12023 1295:2.6884079 1296:20.20459 1297:-5.4836044 1298:-1.0384979 1299:19.482666 1300:-8.3213806 1301:1.0897064 1302:16.4646 1303:-6.6755867 1304:0.062004089 1305:13.980103 1306:-2.5952339 1307:3.0657959 1308:11.909424 1309:-3.2215271 1310:0.021080017 1311:9.3616943 1312:0.028251648 1313:0.22610474 1314:6.8594971 1315:-3.133461 1316:2.0213165 1317:4.1806641 1318:-0.97877502 1319:2.1265182 1320:1.446167 1321:-0.673172 1322:2.706749 1323:0.17382813 1324:3.0640717 1325:4.541172 1326:-0.021606445 1327:3.9394455 1328:0.38782883 1329:0.34790039 1330:-1.5593033 1331:0.053871155 1332:-0.92700195 1333:67.45108 1334:37.745274 1335:-325.73389 1336:5.7900858 1337:-0.45530128 1338:-20.02063 1339:7.8617802 1340:-2.0283375 1341:-19.179688 1342:7.975872 1343:-1.6047668 1344:-19.607178 1345:8.2559624 1346:-4.4388161 1347:-19.340881 1348:11.150137 1349:-4.5440178 1350:-18.969849 1351:8.7817154 1352:-4.9261818 1353:-18.193665 1354:7.8795586 1355:-5.8671303 1356:-16.932678 1357:5.985775 1358:-3.1937332 1359:-16.578613 1360:4.4954605 1361:-3.1192627 1362:-15.060791 1363:5.4489899 1364:-2.7869225 1365:-14.714661 1366:3.458786 1367:-2.9282799 1368:-13.631775 1369:2.9770889 1370:-1.8248138 1371:-12.977539 1372:2.4459915 1373:-2.5837021 1374:-12.569946 1375:3.0427246 1376:-3.3567886 1377:-11.854004 1378:2.0299606 1379:-2.7701569 1380:-11.003601 1381:1.6642227 1382:-2.216156 1383:-9.7123413 1384:3.2772675 1385:1.8666687 1386:-8.9207764 1387:2.8205185 1388:1.8540421 1389:-8.614624 1390:1.4413452 1391:-0.40723419 1392:-6.6442871 1393:1.025856 1394:-2.7213211 1395:-4.703125 1396:0.36713409 1397:-1.9183197 1398:-3.0705566 1399:-0.22416687 1400:-1.2206116 1401:-1.8880615 1402:-0.24167633 1403:-1.2473831 1404:-0.57067871 1405:-0.44094849 1406:-1.550087 1407:-0.15631104 1408:-0.13922882 1409:-0.040313721 1410:-0.0032958984 1411:-1.3571701 1412:0.56848907 1413:0.16351318 1414:-0.050384521 1415:0.91836548 1416:0.90905762 1417:0.64639282 1418:0.12997437 1419:1.4161987 1420:-0.48158264 1421:-0.43219757 1422:1.8051147 1423:-0.21271515 1424:-0.077934265 1425:1.9584961 1426:-0.31323242 1427:0.017372131 1428:2.4924927 1429:0.39413452 1430:-0.3509903 1431:2.510437 1432:-0.050308228 1433:-0.55444336 1434:2.3627319 1435:0.89656067 1436:-1.124054 1437:2.1627808 1438:1.2023468 1439:0.69528961 1440:1.3422241 1441:1.1494217 1442:-0.17835236 1443:1.586853 1444:-0.068435669 1445:-1.4552078 1446:1.5216675 1447:0.21508789 1448:-2.1669998 1449:1.4714355 1450:0.77825165 1451:-1.1960526 1452:1.5481567 1453:-0.25522614 1454:0.034332275 1455:1.2751465 1456:0.83029938 1457:-0.54479218 1458:1.2977905 1459:0.63394928 1460:0.2926178 1461:1.6781616 1462:-0.058441162 1463:-0.38796234 1464:1.654541 1465:-0.74116516 1466:0.69407654 1467:0.60528564 1468:-0.066818237 1469:2.5157318 1470:0.84295654 1471:-0.60276794 1472:0.74697876 1473:0.81091309 1474:-0.77102661 1475:-0.37963104 1476:1.4884033 1477:-1.1755524 1478:0.097259521 1479:1.9036255 1480:-0.15208435 1481:0.38117218 1482:1.3248291 1483:-0.4422226 1484:1.3950958 1485:0.73278809 1486:-1.1635895 1487:0.86405945 1488:1.381897 1489:-0.99717712 1490:0.64640808 1491:0.64746094 1492:-0.72428894 1493:-0.10766602 1494:0.7444458 1495:-0.35434723 1496:0.21562958 1497:0.66149902 1498:-1.3386765 1499:-0.24324036 1500:0.95562744 1501:0.12939453 1502:0.45098114 1503:0.76367188 1504:-2.9403381 1505:-0.13189697 1506:0.87060547 1507:-1.6759338 1508:-0.86309052 1509:0.87615967 1510:-0.21741486 1511:0.71035004 1512:0.59692383 
