svm_type c_svc
kernel_type rbf
gamma 3.05176e-005
nr_class 5
total_sv 351
rho -0.405954 -0.499468 -0.30464 -0.133053 -0.108688 0.144017 0.298487 0.259026 0.396566 0.160821
label 1 2 3 5 4
probA -6.13555 -5.87417 -6.1415 -6.23265 -5.76348 -5.85226 -6.98402 -5.85871 -5.86772 -5.99411
probB -0.365928 -0.394426 -0.0663911 -0.123654 -0.118574 0.0292287 -1.8669 0.356239 0.290461 0.138466
nr_sv 100 51 52 65 83
SV
0.5928622788095567 0.4994147788080151 0.6941865062663555 0.865235402113673 1:3.826004 2:-6.2740021 3:2.5400391 4:-61.949097 5:-3.6759949 6:-11.530029 7:-250.2319 8:-129.2592 9:-2.1800537 10:62.783997 11:59.472198 12:-31.609985 13:377.12903 14:105.657 15:2.3800049 16:225.00598 17:-108.411 18:55.97998 19:-80.100983 20:65.104004 21:-50.75 22:-358.9837 23:37.729996 24:-70 25:-260.0293 26:-175.3047 27:43.630005 
0.5841228937273604 0.4923394679945843 0.680954178330608 0.8520346898771276 1:53.155006 2:45.127098 3:-12.829956 4:349.12698 5:94.427002 6:23.359985 7:178.99001 8:-114.596 9:15.099976 10:-217.03799 11:102.437 12:-71.269897 13:-308.23499 14:-72.940002 15:-20.360107 16:-112.61501 17:-105.4438 18:25.540039 19:83.774002 20:50.505802 21:-29.670044 22:274.00299 23:70.44799 24:-5.9699707 25:224.00699 26:-108.92969 27:52.77002 
0.5727310269348606 0.4881691801372609 0.669847295345293 0.8385143865265883 1:-174.32101 2:113.60921 3:-32.319946 4:-250.44598 5:-18.630005 6:3.5999756 7:-114.785 8:-79.1035 9:24.469971 10:-51.247009 11:-85.472679 12:20.089966 13:53.570007 14:77.072479 15:-26.789917 16:168.42 17:99.119698 18:-22.690063 19:161.769 20:57.485001 21:19.700073 22:169.07199 23:-5.0889893 24:38.429932 25:82.332001 26:-28.27301 27:42.97998 
0.5688489355577234 0.4926799480697637 0.6691393610348198 0.8321032195648473 1:-31.382004 2:-12.977997 3:-12.820068 4:-167.8727 5:-56.453995 6:-58.859985 7:-157.6553 8:-46.995903 9:11.25 10:-73.350998 11:-3.7714996 12:57.719971 13:40.009995 14:12.619499 15:-18.149902 16:254.60001 17:57.657898 18:-23.48999 19:293.79401 20:6.4880066 21:57.869995 22:166.599 23:6.1459961 24:33.339966 25:-17.322998 26:-1.197998 27:-13.72998 
0.5851059004503075 0.4932124736671972 0.6878311063368677 0.856352800672898 1:-225.00771 2:-10.741005 3:-7.5200195 4:79.217697 5:10.887001 6:4.6300049 7:226.52399 8:-11.470001 9:10.350098 10:-102.289 11:2.4169998 12:-23.100098 13:-225.53508 14:-13.837997 15:10.980103 16:34.830582 17:15.257004 18:5.9099121 19:223.0695 20:13.110992 21:10.450073 22:8.4520111 23:1.5640106 24:-3.2399902 25:-247.63821 26:-17.507004 27:-26.26001 
0.1185095661827932 0.09272599808853357 0.1768249616975592 0.2116969570435319 1:124.4315 2:4.4919891 3:-10.189941 4:193.20589 5:-0.047988892 6:29.52002 7:96.097015 8:-7.7980042 9:18.959961 10:-165.42599 11:19.772003 12:-25.780029 13:-185.6416 14:-4.503006 15:-27.160034 16:-83.625298 17:3.5970001 18:12.480103 19:86.6446 20:3.8419952 21:-10.210083 22:139.12929 23:-6.0069885 24:12.670044 25:112.35202 26:-6.1460114 27:21.349976 
0.3934307763072387 0.6326303385900182 0.8741533612319036 0.7320342315030101 1:60.576004 2:9.1609955 3:-7.9299316 4:-37.091003 5:9.4240036 6:-8.5400391 7:-100.126 8:3.2539978 9:-18.940063 10:-110.42888 11:-1.7929993 12:-3.5100098 13:-77.729324 14:-0.73500061 15:13.970093 16:22.0975 17:0.73799896 18:-6.0600586 19:78.674301 20:-5.7919998 21:-12.199951 22:122.4214 23:-1.7249985 24:6.5599365 25:113.44101 26:7.2819977 27:17.060059 
0.2493370478180431 0.2177143933712227 0.3055078020338147 0.5188964394959358 1:-32.274994 2:5.9930115 3:16.900024 4:-126.47699 5:22.108994 6:23.329956 7:-90.60701 8:-22.712006 9:9.8599854 10:58.813004 11:16.168015 12:-14.389893 13:149.28699 14:-10.46701 15:-2.6400146 16:73.100006 17:-39.625 18:8.6199951 19:-103.39301 20:47.908997 21:6.1300049 22:-150.94798 23:-14.151993 24:-2.1300049 25:18.582993 26:6.5590057 27:-15.5 
0.5827282912179318 0.4907585636776457 0.6814434068863481 0.8500866255884396 1:-117.951 2:-15.119003 3:15.22998 4:253.868 5:4.1889954 6:-1.3900146 7:-124.431 8:7.1270142 9:-15.639893 10:-114.382 11:-6.7210083 12:-3.4801025 13:227.03502 14:-1.2299957 15:14.150024 16:-86.393005 17:16.908997 18:-0.82995605 19:-108.64601 20:-14.100998 21:-13.609985 22:252.295 23:-35.022003 24:20.97998 25:-268.44598 26:36.313004 27:-13.599976 
0.5256831075989749 0.344495900660279 0.341439083479288 0.5533941874446884 1:14.315002 2:-1.7069702 3:-29.77002 4:-21.73999 5:2.5939941 6:25.149902 7:17.059998 8:6.7780151 9:-25.659912 10:-19.936951 11:-11.640015 12:11.449951 13:11.585999 14:6.5100098 15:-7.7800293 16:-8.257019 17:2.7459717 18:24 19:1.3250122 20:-0.036987305 21:-24.079834 22:2.4749756 23:-5.382019 24:5.8898926 25:-1.0949707 26:-1.9799805 27:-21.129883 
0.2192371892932098 0.1929046898165191 0.3708310937009719 0.343157511549165 1:100.1755 2:16.94899 3:10.76001 4:165.02499 5:-23.551987 6:-11.880005 7:114.58099 8:-59.474709 9:-10.400024 10:-87.612976 11:47.874702 12:8.7800293 13:-146.71201 14:27.080002 15:10.890015 16:-129.70601 17:-15.033005 18:5.3800049 19:57.259003 20:8.1660004 21:-1.0600586 22:152.795 23:3.5599976 24:-0.29992676 25:154.103 26:-53.008995 27:-13.469971 
0.558070624874078 0.4704747702809433 0.6536229264894553 0.8146355905325082 1:0.9730072 2:3.8589935 3:3.0300293 4:49.059998 5:38.848999 6:-0.2800293 7:-221.44449 8:-34.819 9:-0.57006836 10:-27.391003 11:-28.251999 12:-19.589966 13:197.0455 14:111.93001 15:-0.30004883 16:173.96999 17:-18.766998 18:84.990112 19:-321.95868 20:-23.143997 21:-82.869995 22:17.116501 23:-2.1920013 24:-9.6500244 25:309.86221 26:31.377991 27:75.640015 
0.2144088864531512 0.1816398547725828 0.3943274696449801 0.301742010862787 1:96.570198 2:64.072998 3:-16.190063 4:206.287 5:19.792007 6:14.380005 7:83.752991 8:-44.499008 9:38.140015 10:-118.34399 11:36.410004 12:-48.5 13:-178.78499 14:-17.145004 15:-26.839966 16:-85.954208 17:-40.175995 18:14.619995 19:119.7532 20:48.584 21:-5.6300049 22:230.98801 23:-9.6490021 24:41.609985 25:51.880981 26:-30.192001 27:6.5999756 
0.4678240590940698 0.3983689669446013 0.5619716388021002 0.7200001998036528 1:-0.38800049 2:-2.3066025 3:-5.7399902 4:9.7609863 5:8.7038002 6:2.7900391 7:-138.767 8:39.235229 9:-25.930054 10:-77.952698 11:-44.818932 12:-8.1999512 13:117.6037 14:67.495598 15:16.109985 16:233.46201 17:-58.504196 18:97.069946 19:-5.7770081 20:-1.6567001 21:-16.339966 22:-162.99599 23:76.071701 24:-45.819946 25:-112.92801 26:-37.300732 27:-25.400024 
0.08240309012677699 0.03940333484332424 0.05916839223066215 0.1427813168855115 1:-2.4179993 2:-5.4944706 3:-7.1499023 4:-44.580994 5:22.889 6:-26.070068 7:-84.770004 8:-12.38723 9:-35.27002 10:37.013 11:11.16485 12:12.390015 13:172.09399 14:8.0246801 15:70.969971 16:59.041016 17:-45.1469 18:55.710083 19:-64.347992 20:32.11414 21:-42.670044 22:-167.64302 23:30.743761 24:-56.420044 25:-17.184998 26:-23.934401 27:-11.859985 
0.5311602364942248 0.4463169027410452 0.6617963950793826 0.7793902916717099 1:-3.4640198 2:-1.9779968 3:-3.0500488 4:-7.3379822 5:-0.68399048 6:-2.1799316 7:3.1309814 8:0.10198975 9:-4.5500488 10:-12.324005 11:0.65100098 12:-0.47998047 13:174.59201 14:-27.669006 15:35.589966 16:-220.845 17:8.4160156 18:-6.5699463 19:129.99399 20:11.740997 21:5.4899902 22:9.8560181 23:-15.593994 24:20.969971 25:-172.62801 26:-30.150024 27:-17.75 
0.4394283080150949 0.3599331680873515 0.5781678470452895 0.6353690982256521 1:122.897 2:-57.722992 3:20.309937 4:-47.252014 5:26.401001 6:-18.919922 7:-123.20697 8:31.341003 9:-25.040039 10:-126.298 11:-9.2510071 12:-1.1300049 13:-71.355011 14:-35.539978 15:9.2000732 16:41.449997 17:15.515991 18:5.1699219 19:161.77901 20:41.649994 21:18.160034 22:156.604 23:-36.09201 24:51.579956 25:59.641968 26:-45.548981 27:9.6700439 
0.1932652914257282 0.2021193826634751 0.2480465095540947 0.474340665869526 1:-10.102005 2:1.865303 3:-1.1800537 4:-13.753998 5:1.855896 6:-3.3199463 7:-158.31729 8:-32.1623 9:8.7199707 10:29.5249 11:-3.8055992 12:-0.27001953 13:157.4664 14:32.3736 15:5.0500488 16:148.52299 17:-32.366798 18:25.27002 19:-26.957001 20:13.893799 21:-8.0700684 22:-162.054 23:25.4058 24:-29.01001 25:-73.976997 26:-13.0116 27:2.6900635 
0.04861825498869441 0.04063546507502568 0.05356972761431787 0.08112130557190382 1:4.9809952 2:6.4752007 3:-1.0799561 4:120.106 5:9.2140007 6:2.8199463 7:156.65901 8:-72.917702 9:2.5 10:-43.647003 11:23.718102 12:-10.429932 13:-157.244 14:49.488396 15:-9.0800781 16:-154.06491 17:-55.399998 18:16.27002 19:7.6641998 20:-12.388539 21:-4.2399902 22:142.1897 23:66.627441 24:-8.4100342 25:95.108002 26:-25.113201 27:12.77002 
0.5926653553649448 0.4991628323030348 0.6966043346385434 0.8645050729527479 1:15.262099 2:7.0248032 3:15.910034 4:-13.870399 5:-2.5379028 6:6.5 7:124.7373 8:28.418001 9:-19.710083 10:197.89799 11:-47.832298 12:-50.75 13:-350.465 14:-18.9562 15:105.07007 16:71.154297 17:19.229401 18:-5.0700684 19:301.77371 20:-49.491203 21:-121.71997 22:-310.67191 23:42.109505 24:110.30005 25:-64.0467 26:-41.115501 27:20.27002 
0.5666635840216168 0.4769126813347409 0.6688148586916163 0.8277514111590871 1:5.4918599 2:12.959297 3:-3.4400635 4:158.15974 5:44.706001 6:-36.189941 7:153.963 8:-35.977104 9:-48 10:-293.85449 11:20.315903 12:70.910034 13:-85.643799 14:-72.729103 15:24.130005 16:285.07129 17:77.451508 18:-86.650024 19:-13.440994 20:-10.322903 21:-24.150024 22:-262.13809 23:-64.083603 24:81.780029 25:17.542698 26:7.2140045 27:-7.1300049 
0.5936908346137727 0.5002011931403324 0.6948365608456204 0.8662009068392829 1:1.0899963 2:-0.13198853 3:1.4100342 4:-2.428009 5:-5.9950104 6:0.69995117 7:-128.10898 8:-25.145996 9:-63.73999 10:201.02499 11:4.7599945 12:81.469971 13:110.63 14:-37.547989 15:63.210083 16:-410.672 17:-41.423004 18:-127.87 19:466.63696 20:-35.131996 21:163.93994 22:-367.68799 23:95.297997 24:-161.76001 25:194.15802 26:-7.9720001 27:61.98999 
0.5939347162981582 0.5006185619301091 0.6952664151001167 0.866799702733515 1:6.7420044 2:4.125 3:6.4700928 4:251.11496 5:-166.5356 6:83.859985 7:-498.52399 8:47.345596 9:-153.52002 10:506.77399 11:22.850998 12:140.79004 13:-306.22098 14:95.488007 15:-132.7301 16:155.88498 17:0.18699646 18:48.290039 19:-82.102966 20:14.373001 21:-28.549927 22:124.46802 23:-23.520996 24:40.419922 25:-243.66403 26:7.6239929 27:-25.780029 
0.9730680425714472 1.379459505435979 0.1328080460474544 0.2535040606848197 1:0 2:0 3:0 4:0 5:0 6:0 7:0 8:0 9:0 10:0 11:0 12:0 13:0 14:0 15:0 16:0 17:0 18:0 19:0 20:0 21:0 22:0 23:0 24:0 25:0 26:0 27:0 
0.5852947990427048 0.4931381180677045 0.6848740621777991 0.8578621443065695 1:-3.6990051 2:-1.8770142 3:0.44006348 4:-5.7850037 5:-1.7309875 6:-6.8400879 7:-1.3470001 8:9.7929993 9:1.6500244 10:135.63 11:147.09999 12:93.180054 13:-276.9032 14:36.421005 15:-113.17004 16:229.91519 17:16.320999 18:118.78003 19:-49.802994 20:-2.2960052 21:-42.849976 22:-133.00819 23:-3.6100006 24:-63.830078 25:140.35719 26:-90.309006 27:53.190063 
0.5340945889925328 0.4499401454880241 0.6239434567913196 0.7895769559938334 1:2.1360016 2:2.2590027 3:-1.4200439 4:74.003006 5:72.171982 6:44.72998 7:-217.77222 8:25.932999 9:-111.01001 10:-8.8661995 11:-15.694992 12:12.080078 13:190.25639 14:20.391998 15:111.21997 16:28.485992 17:-18.313995 18:27.409912 19:-179.88608 20:18.311996 21:-104.68994 22:22.1241 23:-5.3339996 24:13.76001 25:144.483 26:-35.410004 27:54.160034 
0.4027054549327133 0.3408044614928358 0.4962255610457318 0.6000947027936496 1:1.7419891 2:-2.3510132 3:-2.6700439 4:-3.9989929 5:2.6590118 6:1.2700195 7:-139.92221 8:-6.4600067 9:-45.76001 10:109.9712 11:35.490997 12:65.049927 13:141.034 14:-72.481003 15:31.930054 16:-197.46599 17:64.879013 18:-63.390015 19:9.2389984 20:2.7819977 21:12.579956 22:144.358 23:-22.871002 24:54.940063 25:-141.5 26:16.500992 27:-43.459961 
0.4738921201996746 0.3937063909436719 0.580250041189777 0.7403875360738238 1:-2.2450104 2:-2.0850067 3:-2.210083 4:125.73701 5:14.164001 6:54.02002 7:19.125 8:-23.574005 9:-9.9599609 10:-217.57211 11:7.605011 12:-45.840088 13:123.8201 14:26.848999 15:44.5 16:71.917999 17:-35.401001 18:3.9901123 19:-161.565 20:13.246994 21:-31.470093 22:37.814995 23:1.4430084 24:-14.76001 25:-3.5269928 26:-4.7390137 27:0.19006348 
0.4219268123122329 0.3630852580560046 0.5470132516974952 0.6197987989530601 1:-5.4590988 2:-1.9619904 3:2.5500488 4:10.0581 5:4.022995 6:5.5799561 7:-105.4108 8:-10.160004 9:-80.540039 10:147.45131 11:31.466995 12:86.5 13:52.828194 14:-16.097992 15:55.869995 16:-171.2325 17:-5.5780029 18:-140.02991 19:92.252045 20:10.444 21:58.219971 22:41.918362 23:-9.4179993 24:41.119995 25:-1.2815018 26:0.72599792 27:-10.650024 
0.3920200501088733 0.3151702564405348 0.4460236354447928 0.5839521508019853 1:-0.44560051 2:-0.98199463 3:3.1700439 4:-131.0125 5:-2.8150024 6:-84.910034 7:3.3264999 8:-47.346008 9:-14.880005 10:138.68451 11:60.815002 12:115.04004 13:20.187599 14:-7.8589935 15:20.380005 16:-129.21021 17:3.7429962 18:-111.82007 19:49.906498 20:2.2510071 21:28.690063 22:27.7869 23:-1.0380096 24:26.119995 25:-0.14890003 26:5.6600037 27:-1.3699951 
0.4108898841122861 0.3196673432774702 0.4484572990891771 0.5585079143124209 1:2.5250015 2:-4.5763016 3:0.29003906 4:2.788002 5:-0.54019928 6:3.8699951 7:-14.977104 8:0.24530029 9:-0.059936523 10:211.32709 11:63.332397 12:75.149902 13:-236.2627 14:-30.1483 15:-94.079956 16:100.5397 17:51.4851 18:11.349976 19:120.18201 20:-31.473198 21:34.72998 22:-252.38481 23:-80.316803 24:-60.409912 25:32.333897 26:35.083504 27:9.7999268 
0.3884749155767603 0.3375091368802566 0.4670509887868931 0.5820891167929637 1:0.8832016 2:0.40599823 3:-0.29992676 4:-3.1301003 5:3.3247986 6:0.38000488 7:-8.1392021 8:0.74359894 9:-3.2900391 10:267.26981 11:31.467506 12:64.26001 13:-301.30261 14:-28.122803 15:-91.01001 16:142.1246 17:75.650497 18:19.780029 19:188.61101 20:-71.001595 21:50.099976 22:-307.42462 23:-36.525002 24:-74.27002 25:27.348896 26:33.9076 27:6.4399414 
0.5994195401206144 0.4924495923313997 0.7912085769335948 0.8522728731126088 1:-2.177002 2:-1.701004 3:0.70007324 4:-0.81399536 5:-2.4389954 6:-3.5200195 7:-7.2910004 8:14.303986 9:-0.10998535 10:133.66901 11:9.9049988 12:98.539917 13:2.7579956 14:3.7340088 15:-30.839966 16:-148.772 17:8.9419861 18:-85.97998 19:191.45901 20:-29.127991 21:105.72998 22:-199.39702 23:16.649994 24:-102.23999 25:177.90901 26:-17.431992 27:76.25 
0.4819531028303902 0.2773428214415727 0.6588112900933317 0.6917085381898591 1:-3.9779968 2:9.4570007 3:7.6799316 4:-6.7879944 5:-4.519989 6:-1.7199707 7:87.671997 8:-19.721008 9:63.72998 10:-116.98799 11:33.679993 12:-35.369995 13:29.666 14:6.3650208 15:14.77002 16:28.748993 17:-7.1799927 18:8.8099365 19:-29.877991 20:-2.9730225 21:-16.819946 22:8.3460083 23:-12.707001 24:-17.150024 25:-6.0610046 26:5.4129944 27:-2.2600098 
0.5913580979965418 0.5018228719156265 0.6953996736811808 0.864714667882862 1:0.18600464 2:0.8117981 3:-2.4899902 4:2.6029968 5:-0.85829926 6:-2.4599609 7:-13.567017 8:2.7374039 9:-6.1500244 10:173.48001 11:-46.550705 12:-45.719971 13:-247.13901 14:24.863699 15:66 16:197.741 17:2.0026016 18:-71.960083 19:-164.69598 20:-0.49440002 21:58.300049 22:109.99399 23:-1.0042992 24:-43.180054 25:24.080994 26:10.507999 27:-30.26001 
0.5921691254949218 0.4929318374782327 0.6903848351516219 0.8543153051023658 1:-0.5539856 2:0.8716011 3:0.22009277 4:2.1900024 5:0.72919846 6:0.77001953 7:141.09898 8:-25.046898 9:-30.230103 10:-159.79698 11:39.120296 12:27.680054 13:139.38599 14:-27.634399 15:-55.22998 16:-155.771 17:9.0368004 18:50.219971 19:144.228 20:-18.855099 21:-45.559937 22:-164.65302 23:14.911098 24:62.219971 25:139.38303 26:-12.275997 27:-44.780029 
0.2492920093664974 0.1806142966928602 0.2609759762639472 0.4883658363243029 1:42.265991 2:-10.337997 3:-10.719971 4:-74.296997 5:16.856995 6:-18.77002 7:-105.71901 8:-6.7339935 9:-19.900024 10:16.734009 11:-6.2360077 12:21.920044 13:119.26201 14:1.7150116 15:30.589966 16:62.279999 17:-14.109009 18:4.8300781 19:-96.860016 20:19.654007 21:-31.109985 22:-136.901 23:-12.871002 24:-20.609985 25:73.976013 26:17.634995 27:33.759888 
0.5137402094043165 0.4347377784400985 0.6604612524135513 0.7501923683656845 1:-0.81600952 2:6.4570007 3:-0.97998047 4:1.9859924 5:-1.496994 6:-1.9699707 7:-52.299988 8:-3.8029938 9:-30.619995 10:21.039993 11:18.988998 12:7.6599121 13:220.90401 14:-29.539001 15:57.780029 16:-183.83401 17:41.039993 18:-61.689941 19:-96.18399 20:-6.8840027 21:-10.460083 22:276.245 23:-16.519989 24:56.430054 25:-208.21698 26:22.011993 27:-63.959961 
0.1825023685645973 0.1889993458849864 1.492484219587297 0.3849379782712152 1:-10.7719 2:-0.82030106 3:-4.9499512 4:141.6655 5:57.007999 6:22.185974 7:141.70999 8:0.68730164 9:51.794983 10:-28.115997 11:-7.6937008 12:-12.096008 13:-171.515 14:-21.358782 15:-60.347961 16:-114.89119 17:-52.389019 18:-36.333008 19:49.975697 20:8.0922012 21:20.981018 22:145.9865 23:51.86515 24:44.686951 25:75.356995 26:1.7604504 27:30.752014 
0.3973364678673098 0.3390309875057564 0.469824213843236 0.6127211095753534 1:-69.736008 2:5.6893606 3:-4.375 4:-123.5057 5:-61.949402 6:-43.929016 7:8.0437012 8:-13.034199 9:-11.479004 10:115.25401 11:38.161301 12:28.570984 13:136.59801 14:15.070551 15:51.921997 16:101.48499 17:-23.713951 18:31.978027 19:-51.674988 20:8.7359009 21:-47.754028 22:-182.39401 23:15.29902 24:-44.259949 25:-147.1306 26:-30.517918 27:12.895996 
0.471457203035725 0.3901531439215677 0.4936453511439468 0.6690175005807855 1:61.044701 2:20.947662 3:16.643005 4:209.83731 5:41.204903 6:56.627991 7:228.61501 8:-32.684303 9:58.55603 10:46.449005 11:-32.985489 12:-23.324036 13:-159.57701 14:42.661892 15:-61.592957 16:-223.4872 17:-21.427601 18:-51.234009 19:-57.135803 20:-54.0373 21:-26.645996 22:176.55099 23:37.174809 24:11.832947 25:226.62399 26:-18.41931 27:60.688049 
0.1769989364904832 0.1512640178200474 0.1300215036017416 0.2620775547021574 1:23.7257 2:9.0852003 3:-0.82000732 4:145.347 5:8.8295202 6:5.9840088 7:123.806 8:-25.547621 9:3.4869995 10:-41.200012 11:4.7491016 12:-32.338989 13:-162.58499 14:9.3352985 15:-36.593994 16:-157.5094 17:-16.9891 18:-6.5350342 19:-10.725331 20:-6.9984016 21:12.980042 22:180.38074 23:18.656902 24:16.761963 25:216.989 26:-36.3713 27:51.800049 
0.681825451826563 0.5126657860184283 0.7767797023340142 0.6742000207050974 1:11.842201 2:5.3582001 3:4.6999512 4:122.1069 5:13.063901 6:3.6020508 7:-27.591003 8:-42.885399 9:-33.348022 10:-2.3859863 11:8.9016705 12:12.042969 13:-20.904007 14:-7.4570699 15:13.973022 16:35.785004 17:-16.056499 18:11.421997 19:-10.263 20:-13.930199 21:1.7659912 22:-60.505005 23:-35.492298 24:-29.843994 25:44.270996 26:-2.6692047 27:20.426025 
0.3927330808257768 0.3808539990690819 0.8657724062192767 0.615187648288685 1:-3.6893997 2:-0.62279892 3:4.5939941 4:6.9370956 5:-0.540802 6:8.4379883 7:28.214905 8:-3.6772995 9:10.106995 10:183.13699 11:-11.8335 12:37.536011 13:38.171997 14:-34.334602 15:-41.888 16:-178.86499 17:8.7235699 18:-39.684021 19:-126.2428 20:-56.988869 21:14.660034 22:156.3988 23:18.477501 24:-17.319031 25:177.20999 26:-18.421501 27:25.888 
0.4755339415424132 0.4280954800082354 0.635221717884769 0.6990403269560584 1:67.953003 2:21.118301 3:23.02002 4:118.127 5:-7.5743027 6:21.667969 7:-62.852005 8:-14.115997 9:-37.993958 10:-131.1324 11:-52.215942 12:-15.952026 13:207.2464 14:34.854038 15:10.830017 16:-22.915009 17:-24.76638 18:-16.915039 19:-150.86899 20:-51.941219 21:-8.1529541 22:87.296997 23:-0.48690033 24:-9.8880005 25:133.37701 26:-32.112804 27:6.4359741 
0.5760278662243298 0.4857531190679174 0.6734853810852103 0.8466786262968673 1:-64.330597 2:-28.04262 3:-32.636963 4:-240.28439 5:-164.31857 6:-27.162048 7:-62.13501 8:-79.912003 9:1.8240356 10:125.019 11:107.874 12:-38.460999 13:232.83499 14:136.37556 15:57.664001 16:179.453 17:1.8235292 18:66.565002 19:-19.757019 20:-4.5676293 21:5.5249634 22:-30.020996 23:-11.115231 24:-6.4849854 25:-55.102997 26:-1.4390402 27:-3.625 
0.401327786414019 0.3436194370474293 0.9796336749839079 0.6808398397498939 1:68.367996 2:5.1539001 3:5.4420166 4:199.93102 5:-39.0233 6:25.067993 7:26.04599 8:-33.352798 9:-19.875 10:-127.255 11:49.761898 12:-33.026978 13:-199.32278 14:-27.886198 15:-3.4970093 16:-31.763901 17:-25.5455 18:16.140991 19:160.55069 20:-15.712601 21:-29.846008 22:64.945999 23:-27.563 24:9.4490356 25:-39.807999 26:4.2526016 27:12.985962 
0.372849336384377 0.3214442074799613 0.6242074708234437 0.578021415241359 1:71.034996 2:14.9672 3:3.039978 4:156.83501 5:-1.5268002 6:25.072998 7:-8.4299927 8:-1.7870007 9:-12.213989 10:-178.925 11:-0.082399368 12:-22.125 13:-190.36691 14:-47.519001 15:-33.170044 16:-117.35909 17:-78.603104 18:-16.973999 19:107.30589 20:41.280201 21:-13.250977 22:217.3391 23:71.137604 24:51.390991 25:57.45401 26:11.2264 27:34.590027 
0.09922092895209266 0.1116391178994805 0.07123599638707552 0.164905488123045 1:65.261299 2:35.801399 3:14.01001 4:136.9314 5:3.911499 6:37.430054 7:139.35901 8:-61.952896 9:40.02002 10:64.912994 11:-62.594009 12:17.759888 13:-70.647003 14:53.82901 15:-23.549927 16:-176.3817 17:18.552994 18:-80.320068 19:-86.821205 20:-61.028992 21:-51.380005 22:-0.096800804 23:2.9959869 24:4.3400879 25:-3.9465399 26:0.053009033 27:0.55993652 
0.346426072746261 0.3128727385089674 0.4016185602436671 0.5353208891528261 1:1.9720001 2:-4.1174011 3:12.265991 4:51.017105 5:23.95562 6:36.468018 7:130.89859 8:15.388179 9:62.659912 10:91.548302 11:-38.411697 12:28.52002 13:2.9790039 14:-7.2896996 15:-9.6999512 16:-74.128807 17:19.311249 18:-31.050049 19:-148.89261 20:-10.705649 21:-50.079956 22:-90.818604 23:-28.768499 24:-42.656982 25:112.2272 26:-153.9711 27:25.266968 
0.03819981466710312 0.00113734475822651 0.01282202395658494 0.3472533502349873 1:36.088898 2:21.818008 3:12.77002 4:134.7097 5:-3.4170074 6:47.02002 7:103.98999 8:-64.940994 9:6.5699463 10:12.868011 11:-18.013 12:-3.9799805 13:-25.509995 14:33.320999 15:-9.4899902 16:-91.365005 17:58.222992 18:-20.51001 19:-130.15891 20:-3.5679932 21:-45.430054 22:-68.737099 23:-38.143997 24:-24.72998 25:-16.4198 26:-5.803009 27:-2.0699463 
0.2372325826361663 0.1974019911677987 0.2974906764008215 0.3700393656351867 1:21.9018 2:13.826004 3:11.030029 4:31.346901 5:11.247002 6:15.97998 7:34.806297 8:8.2126007 9:14.52002 10:63.643005 11:0.6289978 12:32.319946 13:65.462997 14:-26.243599 15:30.349976 16:63.187012 17:-57.341995 18:24.839966 19:-12.460022 20:2.0299988 21:-17.880005 22:-161.99899 23:50.373993 24:-83.399902 25:-108.4235 26:-42.289993 27:-63.580078 
0.5718347887834842 0.4834415353244266 0.6719512287225892 0.8199107734665521 1:84.167892 2:84.849197 3:52.719971 4:357.35049 5:-31.613903 6:137.16003 7:39.779022 8:-53.508301 9:7.6999512 10:-28.535004 11:46.500504 12:-23.329956 13:-65.880005 14:49.424999 15:-39.060059 16:-131.15401 17:27.935301 18:-64.01001 19:-142.1268 20:-25.9317 21:-58.179932 22:-98.340202 23:-66.735107 24:-31.930054 25:-29.377098 26:-42.862 27:1.6600342 
0.2470374756089335 0.2131204990152362 0.2979974410403433 0.3580902018838972 1:20.619995 2:12.020889 3:-1.0100098 4:160.48601 5:46.053211 6:27.47998 7:205.74301 8:-57.029099 9:29.060059 10:114.31699 11:-97.663506 12:8.0200195 13:-3.1359863 14:-4.8939972 15:-20.77002 16:-110.02499 17:94.997902 18:-40.280029 19:-191.02652 20:63.120697 21:-63.709961 22:-138.73441 23:-37.830318 24:-47.52002 25:-26.404003 26:-42.344879 27:-14.290039 
0.3450176240318107 0.2959519754065511 0.4068777219246618 0.5702929229002265 1:7.2479019 2:8.1889954 3:3.1101074 4:32.387501 5:2.4630127 6:10.059937 7:98.365402 8:3.4779968 9:19.349976 10:223.69009 11:-106.24199 12:19.300049 13:71.226013 14:-112.95102 15:-4.3000488 16:-19.371002 17:52.477997 18:-16.329956 19:-154.29599 20:152.662 21:-24.52002 22:-184.41391 23:14.408005 24:-28.790039 25:-6.4012003 26:-13.121002 27:2.1900635 
0.3105684255536002 0.2587863462502618 0.3698050289714876 0.3614502849204427 1:13.549299 2:49.52655 3:15.97998 4:113.6221 5:48.758251 6:81.350098 7:154.8895 8:-49.766331 9:63.609985 10:66.88501 11:-54.764671 12:0.64990234 13:-51.290009 14:37.555603 15:-31.529907 16:-143.88699 17:43.1731 18:-73.790039 19:-133.66541 20:-55.969002 21:-110.04004 22:-28.785799 23:-88.939804 24:-63.619934 25:15.505299 26:-5.2859955 27:-1.1600342 
0.394299156484723 0.3318780689598549 0.46162798558103 0.6003598105637775 1:-11.609699 2:11.181 3:-6.7299805 4:36.5308 5:66.458405 6:13.72998 7:192.55011 8:-2.7801056 9:68.109985 10:140.95499 11:-173.15331 12:-6.7199707 13:13.681 14:-98.791992 15:-27.180054 16:-64.705994 17:146.91 18:15.459961 19:-184.5031 20:133.18008 21:-20.179932 22:-134.2188 23:-39.640099 24:-74.47998 25:4.9210968 26:-0.34300232 27:-10.310059 
0.09211470478425186 0.081167383874698 0.1096988136612938 0.1054314638780863 1:35.514702 2:20.187101 3:8.4899902 4:101.3475 5:47.098701 6:36.109985 7:117.50181 8:13.9925 9:37.380005 10:121.653 11:-13.587502 12:41.189941 13:108.02599 14:-69.357193 15:12.550049 16:-106.84599 17:51.208797 18:-44.52002 19:-208.4436 20:44.545902 21:-33.069946 22:-159.4724 23:-37.256699 24:-19.52002 25:-27.173004 26:-42.194199 27:-25.51001 
0.3146274017906359 0.273976119564623 0.3763816541099672 0.444503198694728 1:28.675995 2:7.6669006 3:6.0300293 4:47.546097 5:22.622299 6:10.400024 7:84.083672 8:24.182899 9:24.439941 10:177.56422 11:-9.4624004 12:31.070068 13:140.797 14:-82.549797 15:-9.75 16:2.7810059 17:1.081398 18:-22.98999 19:-293.92102 20:28.691301 21:-65.72998 22:-95.188499 23:-19.961802 24:-19.700073 25:13.664402 26:-0.52689743 27:1.7199707 
0.5631949511620176 0.4744463535055049 0.6670415764662311 0.8274603330297173 1:29.960999 2:19.917 3:-8.9199219 4:269.43103 5:-3.1053009 6:-70.219971 7:-41.354996 8:-10.729599 9:-3.2600098 10:-248.60001 11:-23.541298 12:73.369995 13:9.5029907 14:-9.4692001 15:2.789917 16:272.40399 17:30.130398 18:-55.939941 19:-16.488998 20:-7.5156021 21:-2.6400146 22:-221.89301 23:-4.1935997 24:59.709961 25:-87.192993 26:-47.646698 27:23.580078 
0.05710262632101658 0.002303482900637957 0 0.1408052705137511 1:4.2680054 2:6.3769989 3:0.55004883 4:21.850983 5:10.512703 6:-8.5599365 7:85.26001 8:25.830799 9:-23.180054 10:197.724 11:-17.176399 12:-40.099976 13:39.122902 14:-19.672298 15:-16.300049 16:-196.98691 17:22.872097 18:-3.6999512 19:-165.996 20:-34.952099 21:34.410034 22:-9.4019775 23:-19.771301 24:15.349976 25:0.46398926 26:5.2320023 27:7.0599365 
0.3393769634228179 0.310222818188287 0.8896714223353464 0.4786320480155595 1:25.48999 2:7.8108997 3:2.3299561 4:73.064026 5:21.131798 6:2.9000244 7:160.76498 8:5.1256027 9:4.2199707 10:98.153099 11:-56.628983 12:-2.5499268 13:-119.8391 14:7.48804 15:-37.630005 16:-197.871 17:-122.07656 18:-72.320068 19:-94.627991 20:-116.252 21:-14.159912 22:25.52301 23:30.365997 24:26.339966 25:21.509979 26:18.658005 27:17.839966 
0 0.007440776111221744 0.5863359792571794 0.04501256495035148 1:-1.553009 2:0.24650002 3:0.90002441 4:7.9070129 5:1.68295 6:-4.5599365 7:73.682983 8:7.2687249 9:-11 10:86.903 11:-11.272326 12:2.6799316 13:-59.735001 14:-5.4598989 15:-3.4599609 16:-154.823 17:-19.199499 18:-1.9799805 19:-67.005005 20:-38.068802 21:-5.4300537 22:5.2380066 23:-0.74649811 24:-0.85998535 25:10.074005 26:-0.83969879 27:3.3900146 
0 0 0 0.1803200436583057 1:11.769989 2:2.5306501 3:-1.6600342 4:15.47702 5:4.7841101 6:-0.63000488 7:94.794983 8:-2.0837903 9:-4.1199951 10:116.6544 11:-20.77389 12:0.2199707 13:34.252102 14:-26.368502 15:-6.1899414 16:-61.7225 17:22.0256 18:-9.4100342 19:-151.79601 20:3.6946011 21:-4.9300537 22:-131.93399 23:-41.672104 24:-2.4399414 25:-40.455994 26:-29.148399 27:4.0899658 
0.2253124441113765 0.1586484970227536 0.2568220626005894 0.4426977256679031 1:5.3889771 2:5.2634048 3:4.0299072 4:10.447021 5:2.972496 6:0.15002441 7:15.455994 8:10.897701 9:-3.5499268 10:160.382 11:38.722603 12:-6.2800293 13:155.6152 14:-35.849503 15:-3.4300537 16:-113.5812 17:15.824402 18:-12.390015 19:-190.20702 20:-13.680202 21:10.540039 22:-29.488983 23:-25.821999 24:13.719971 25:6.3049927 26:6.8760986 27:9.9500732 
0.01327892373875644 0 0 0 1:2.4720154 2:0.92298889 3:8.1000977 4:38.881989 5:15.181 6:11.5 7:107.008 8:25.445999 9:1.3299561 10:87.259003 11:-7.1640015 12:-0.90002441 13:63.055901 14:-9.0670013 15:0.020019531 16:-24.2062 17:-15.280991 18:-7.2299805 19:-132.27769 20:16.837006 21:8.9599609 22:-102.04701 23:-28.034012 24:10.410034 25:-88.751007 26:-50.630997 27:13.390015 
0.04384214726854445 0 0 0 1:5.5620117 2:4.644989 3:-0.85998535 4:79.786987 5:54.618011 6:-1.5899658 7:172.51601 8:29.709 9:-31.890015 10:51.642998 11:-19.424011 12:-19.660034 13:-87.006004 14:7.6860046 15:3.1300049 16:-170.17101 17:-10.08699 18:27.890015 19:-47.716003 20:-28.725006 21:6.3300781 22:0.27700806 23:-4.6349945 24:5.2698975 25:1.9150085 26:5.7949982 27:5.9901123 
0.5487903372814915 0.4731399754854759 1.112185753024926 0.8146980890287952 1:1.3479996 2:0.83549881 3:1.0400391 4:52.956501 5:28.546761 6:15.839966 7:194.24969 8:32.241741 9:79.189941 10:2.4199982 11:-22.193409 12:-9.8499756 13:-238.37399 14:-52.080589 15:-110.80994 16:-16.800301 17:-20.866299 18:-29.490112 19:248.90829 20:58.2738 21:104.19006 22:35.311996 23:-12.903601 24:34.660034 25:-31.61499 26:8.1214008 27:-11.940063 
0.5295242592555218 0.482801537641159 1.616528165575163 0.892893462781665 1:25.099998 2:24.697403 3:12.109985 4:160.52579 5:60.905548 6:70.800049 7:82.95211 8:-25.724651 9:28.47998 10:-168.15762 11:-7.6895008 12:-68.369995 13:-104.87689 14:-92.426804 15:-53.429993 16:99.981979 17:49.757797 18:9.9800415 19:148.10852 20:52.688602 21:85.709961 22:2.0499878 23:-10.140598 24:12.77002 25:-7.4720001 26:0.69659805 27:1.1600342 
0.4985095118572569 0.4171309228394163 0.6110896834276046 0.7160889305577315 1:-72.237701 2:-6.6447558 3:-19 4:-143.9427 5:-78.727959 6:-68.640015 7:47.226799 8:28.268501 9:5.5999756 10:198.4126 11:57.32325 12:91.650024 13:80.73999 14:-31.59705 15:42.109985 16:-192.9415 17:12.754899 18:-83.560059 19:-97.272301 20:-54.033401 21:-54.539917 22:134.5813 23:55.803402 24:63.5 25:164.1515 26:-22.340702 27:88.149902 
0.1969546859619666 0.1596091630588571 0.1939412001794577 0.2605178943741973 1:-2.7722015 2:-0.46249771 3:-2.8399658 4:6.3417015 5:3.1374969 6:1.9799805 7:108.5248 8:51.862858 9:63.290039 10:164.6873 11:-32.195156 12:74.549927 13:8.9089966 14:-18.913002 15:-2.6199951 16:-155.882 17:45.956863 18:-75.029907 19:-147.4377 20:-46.787659 21:-85.070068 22:1.207901 23:-0.15399933 24:-9 25:12.5182 26:-3.578598 27:-0.98999023 
0.5778541969597109 0.4867423439084017 0.6771007448806841 0.8443442309689545 1:2.8850098 2:4.9938049 3:1.2600098 4:-11.917999 5:-4.2308044 6:4.7199707 7:-212.55002 8:78.807503 9:70.339966 10:-175.78198 11:-74.710899 12:31.829956 13:120.728 14:147.26059 15:-58.48999 16:288.96201 17:89.121101 18:-15.640015 19:87.955299 20:-51.527702 21:-5.8699951 22:-125.4283 23:34.178703 24:19.990112 25:-223.56902 26:-45.820503 27:43.859985 
0.2892708285415639 0.2911706418488728 1.012570651990195 0.6017692311006375 1:3.6170044 2:-0.98629761 3:-4.4200439 4:111.19299 5:45.432404 6:-13.040039 7:124.72101 8:19.727005 9:-0.14990234 10:103.86641 11:-68.549706 12:-22.190063 13:-125.53041 14:39.263695 15:3.1300049 16:-166.38998 17:-25.719597 18:9.4599609 19:-3.9700012 20:-0.30079651 21:-1.2999268 22:163.295 23:40.676399 24:-9.1900635 25:112.24169 26:-31.511002 27:2.5900879 
0.4601220757011946 0.4064560790387971 1.26796417175786 0.7148591255735417 1:-8.803009 2:0.93699646 3:0.18005371 4:36.992996 5:9.3769989 6:-14.969971 7:185.42474 8:-94.320297 9:-42.349976 10:-53.91124 11:41.044098 12:-2.6400146 13:-181.70149 14:2.2597046 15:19.049927 16:-58.866013 17:-29.0494 18:6.8599854 19:117.47101 20:46.306999 21:-11.089966 22:151.5652 23:-19.829002 24:-19.660034 25:8.1907005 26:-20.868599 27:-6.8399658 
0.5933449010788436 0.4998864229710512 0.6948112489107771 0.8659545057001106 1:-1.0410004 2:0.4940033 3:-2.8199463 4:-2.5110016 5:2.409996 6:-3.6300049 7:9.3509979 8:14.665009 9:-3.5500488 10:151.54539 11:202.49998 12:126 13:166.2316 14:-51.535004 15:188.39001 16:-9.2269897 17:-3.1349792 18:-72.599976 19:-197.93221 20:69.395996 21:-140.02002 22:-170.20779 23:-223.68001 24:-88.650024 25:177.61319 26:174.03099 27:73.560059 
0.5638917156044846 0.4757495240471862 0.6603658082443326 0.8198119411920576 1:4.2109985 2:1.1660004 3:-0.64001465 4:-5.720993 5:32.263992 6:-15.300049 7:-215.61661 8:50.556992 9:-88.419922 10:-55.185402 11:-119.409 12:-27.470093 13:219.56549 14:146.18201 15:133.70007 16:105.13151 17:-123.403 18:56.339966 19:-67.546005 20:82.577011 21:-77.099976 22:-213.4315 23:-48.759018 24:-107.45007 25:-9.335495 26:-49.256989 27:0.93005371 
0.006732715155962687 0 0 0.01283986309893988 1:-5.7100067 2:7.1940002 3:0.4699707 4:-4.0839996 5:2.9839993 6:-0.39001465 7:1.1130066 8:7.66571 9:-8.1199951 10:67.414993 11:19.275391 12:-16.829956 13:111.0496 14:-14.45111 15:-13.109985 16:41.547901 17:-25.80489 18:-0.87011719 19:-107.4644 20:24.02383 21:-1.75 22:-170.83411 23:-22.90493 24:19.990112 25:-44.442001 26:-31.659601 27:19.789917 
0 0 0 0.07256378269731344 1:9.868988 2:10.883102 3:-2.7199707 4:88.715012 5:33.699898 6:-12.919922 7:143.20621 8:-14.972599 9:-23.630005 10:32.944798 11:-14.943897 12:-0.67004395 13:-112.479 14:15.211899 15:-14.320068 16:-157.68102 17:-13.252102 18:19.810059 19:-49.84198 20:-23.360302 21:33.27002 22:12.519989 23:4.0109024 24:8.1099854 25:5.6450195 26:-1.2472992 27:3.6199951 
0.1645698071395833 0.1346033264953965 0.1884760537695726 0.2863540813311683 1:1.2590027 2:1.4120026 3:1.0799561 4:9.9719849 5:11.778297 6:2.8000488 7:173.14001 8:50.004101 9:5.1699219 10:189.0518 11:-34.288601 12:-2.4799805 13:1.2205009 14:-73.267792 15:-41.97998 16:-17.860302 17:78.303291 18:3.460022 19:-266.47098 20:9.9506035 21:-8.7299805 22:-92.854004 23:-64.173904 24:24.059998 25:6.4790039 26:3.0889969 27:4.0799561 
0.0496739475980444 0.04768744500242868 0.04571481986755865 0.08536063351413477 1:-0.36901855 2:4.6549988 3:1.2700195 4:12.821014 5:16.152 6:2.3299561 7:172.94901 8:41.642799 9:-3.0100098 10:189.33769 11:-80.49881 12:-0.85998535 13:-1.0538998 14:71.679306 15:1.4799805 16:-203.5388 17:40.5536 18:-42.579956 19:-229.83499 20:-76.921906 21:10.709961 22:-35.360016 23:-23.136993 24:32.650024 25:13.570007 26:-6.2740021 27:19.349976 
0 0.01714152627222195 0.009146582356751629 0 1:0.27801514 2:0.93800354 3:-0.34997559 4:21.505005 5:19.595993 6:-2.5100098 7:107.87997 8:54.687504 9:-20.930054 10:240.17401 11:14.159199 12:-33.5 13:58.075203 14:-14.337502 15:3.3900146 16:-157.97821 17:7.4147034 18:-22.099976 19:-202.66899 20:-38.658699 21:10.179993 22:-40.325012 23:-35.501198 24:19.879944 25:3.0809937 26:-2.7630005 27:2.5300293 
0.3069581227310606 0.2398952430575741 0.3519321367403523 0.421620393088978 1:9.6669922 2:6.0670013 3:-1.9399414 4:31.861023 5:18.941002 6:-4.8100586 7:80.315002 8:35.357002 9:-1.3299561 10:136.40199 11:28.724598 12:2.3800049 13:138.3797 14:-40.554798 15:6.9599609 16:3.5783005 17:-26.192802 18:-12.609985 19:-84.720596 20:47.199699 21:-24.169983 22:-157.0824 23:-3.0019989 24:-9.5170288 25:-156.55501 26:-47.706696 27:24.687012 
0.2242601183079712 0.1493183608832807 0.1742822027255912 0.3854270656937036 1:5.3780212 2:6.0799866 3:-0.86999512 4:10.738983 5:9.1330109 6:-0.7800293 7:50.337006 8:30.908897 9:-1.4699707 10:101.02901 11:23.497002 12:0.45996094 13:110.698 14:5.8717957 15:8.1799316 16:98.3694 17:-36.273697 18:13 19:-3.2029009 20:-3.5130005 21:-9.3599854 22:-56.9468 23:27.226303 24:-15.859985 25:-82.195694 26:18.518097 27:-13.609985 
0.2731540518292884 0.2307293821688162 0.3092911799961132 0.3979246123008833 1:-14.027008 2:6.8429871 3:-2.7600098 4:118.66701 5:71.362907 6:1.0999756 7:227.5403 8:55.166496 9:-9.4599609 10:81.925705 11:-115.02339 12:-82.689026 13:-55.242802 14:52.506798 15:-18.545959 16:-212.09621 17:65.025894 18:3.6279907 19:-152.41501 20:-74.946594 21:28.447998 22:-24.947998 23:-39.896111 24:15.369019 25:4.803009 26:5.5680084 27:11.362976 
0.2705613450728213 0.2385080797305672 0.2690330662599695 0.4196906324756191 1:0.42797852 2:2.0341034 3:-6.9300537 4:89.282013 5:53.195896 6:-16.900024 7:301.7836 8:-9.2271004 9:18.349976 10:58.850399 11:-30.507095 12:-16.349976 13:-152.67889 14:48.032398 15:-30.464966 16:-194.90411 17:-4.6546021 18:17.834961 19:-105.59698 20:-58.304897 21:33.900024 22:-24.992004 23:-30.696602 24:9.4000244 25:5.04599 26:-0.28800201 27:6.1699219 
0.220699148996975 0.1625013250859785 0.2494355472433344 0.2441522483129917 1:35.720001 2:25.203995 3:-17.790039 4:173.20801 5:45.501999 6:-29.400024 7:174.38649 8:-35.535995 9:-0.69995117 10:13.2929 11:-12.552002 12:-26.400024 13:-125.312 14:28.781998 15:-18.17395 16:-160.05042 17:-26.246002 18:30.393982 19:-81.47699 20:-63.29599 21:33.809998 22:-22.054993 23:-22.912003 24:3.7099609 25:7.5979919 26:8.6620026 27:5.5500488 
0.06402267896874896 0.04826983814002198 0 0.159333018693361 1:2.9489746 2:6.2044029 3:-2.4799805 4:24.576019 5:13.591297 6:-5.8499756 7:183.60399 8:34.7127 9:-23.050049 10:220.9599 11:-63.7635 12:-26.76001 13:-53.933899 14:28.489803 15:-9.4299316 16:-186.66299 17:34.317696 18:22.219971 19:-131.27699 20:-43.883999 21:27.919922 22:-37.546997 23:-18.939598 24:11.070068 25:-3.348999 26:3.9458008 27:3.4699707 
0.07755710601504669 0.06606570938901626 0.09206823838346163 0.1780690480168814 1:13.810974 2:3.7284012 3:-1.2199707 4:68.182007 5:16.904499 6:-5.4899902 7:201.85701 8:4.8897018 9:-24.939941 10:193.79581 11:-73.48037 12:-46.650024 13:32.932198 14:-36.955128 15:-25.380005 16:-112.27124 17:70.675499 18:-1.7700195 19:-236.49376 20:17.290901 21:29.52002 22:-193.039 23:-92.7201 24:27.069946 25:-22.436005 26:-45.808403 27:26.300049 
0.1721989202444078 0.1433508411333543 0.2028360414817432 0.211136261488706 1:23.363007 2:19.863598 3:3.2900391 4:92.645996 5:56.345501 6:-4.4499512 7:234.1344 8:61.690098 9:-24.170044 10:234.62759 11:-52.665798 12:-12.550049 13:44.546997 14:-1.9057999 15:-26.579956 16:-154.7811 17:85.759705 18:-31.778015 19:-259.92889 20:3.9229965 21:-2.4429932 22:-170.237 23:-74.504799 24:26.551025 25:-28.380005 26:-34.976299 27:18.969971 
0.3139726579141611 0.2634486995412967 0.3838455586795024 0.4557201380676752 1:-13.354004 2:0.38589954 3:2.7200317 4:43.394012 5:17.586231 6:-28.311035 7:285.6124 8:5.8096704 9:-45.638977 10:245.55161 11:-133.0152 12:-12.509033 13:-2.3710022 14:2.4639969 15:-25.385986 16:-209.1333 17:82.959602 18:-52.187988 19:-233.4917 20:-27.140205 21:27.899963 22:-55.679016 23:-26.7155 24:43.03302 25:-2.9289856 26:2.7866058 27:9.0839844 
0.1377867187501348 0.1277954353637739 0.1900142585161767 0.1736802820987969 1:-3.9320068 2:-2.6800003 3:-1.4750366 4:37.550018 5:25.518105 6:-1.7130127 7:155.84 8:51.003799 9:5.1270142 10:272.362 11:-45.2309 12:9.6749878 13:40.393997 14:-35.445202 15:-15.85199 16:-247.4415 17:93.537964 18:-46.002991 19:-219.6765 20:-44.58176 21:42.052979 22:-47.061005 23:-36.3564 24:16.60199 25:5.4259949 26:-0.054100037 27:-2.4189453 
0.2784005148308033 0.2347016527404605 0.3250041095133701 0.4019403228298401 1:1.0319824 2:3.6484985 3:1.7040405 4:13.828003 5:6.717804 6:3.6679688 7:114.80901 8:35.856499 9:1.9150391 10:272.62781 11:-66.447998 12:-14.118042 13:57.7202 14:-68.541008 15:-20.528015 16:-174.40269 17:93.455307 18:-41.804993 19:-292.80029 20:-34.285301 21:32.108032 22:-128.19901 23:-113.26 24:39.85199 25:-9.276001 26:-20.201996 27:6.2319946 
0.5586113443520923 0.4702934060176088 0.6521489779057884 0.8149479415773731 1:2.1029968 2:-3.4840088 3:-2.8599854 4:27.331009 5:-13.678009 6:-14.909912 7:-99.824997 8:24.96701 9:28.789917 10:-235.34604 11:-61.846008 12:19.48999 13:283.58002 14:62.110992 15:-52.900024 16:112.293 17:-44.453979 18:8.8300781 19:-285.09998 20:15.574982 21:13 22:-4.4070129 23:-28.442993 24:-20.359985 25:272.52899 26:32.11499 27:13.539917 
0.5890631078923894 0.4962107837249572 0.6938112831762971 0.8598970450900656 1:5.9160004 2:-1.5480042 3:1.8299561 4:-6.5789948 5:-2.5180054 6:1.75 7:-263.04999 8:-70.609009 9:55.450073 10:53.252991 11:20.347015 12:-49.540039 13:333.37292 14:48.300995 15:-8.0599365 16:-123.3139 17:15.881012 18:20.5 19:-272.08099 20:-93.951996 21:33.399902 22:169.27902 23:86.809998 24:-34.939941 25:218.43889 26:-21.476013 27:14.939941 
0.3304480562116793 0.2830075688290471 0.3504266267598477 0.586027460245178 1:-31.003601 2:-0.018600464 3:-1.2049561 4:-157.4014 5:-17.6208 6:-7.5040283 7:-23.485001 8:-6.7835002 9:6.2650146 10:141.75891 11:24.069099 12:-6.4990234 13:105.4693 14:-17.11244 15:-4.3889771 16:-82.416397 17:12.45903 18:-11.528015 19:-137.3858 20:3.2243099 21:16.626038 22:19.985992 23:-1.8155203 24:1.2319946 25:129.82809 26:2.0086203 27:-11.308044 
0.3108363779369081 0.2816677795089703 0.4462066507696329 0.5010185002455517 1:-5.294899 2:1.3047199 3:2.4569702 4:-150.6133 5:2.9910002 6:18.189026 7:-18.483002 8:-2.0195999 9:-14.182983 10:194.517 11:3.1255999 12:-15.271057 13:-18.729401 14:-4.6514997 15:-15.116943 16:-171.1926 17:-15.35305 18:19.903992 19:90.366989 20:14.47859 21:-17.033997 22:110.48521 23:-6.0704899 24:-9.28302 25:-25.669701 26:1.0872402 27:4.8220215 
0.3780744992003216 0.3574792972309546 0.8421098611585079 0.6263923692996914 1:-66.436699 2:1.347186 3:4.2769775 4:-140.32401 5:-17.073259 6:8.2449951 7:96.598007 8:17.49267 9:-20.710999 10:154.284 11:-4.5770302 12:-15.607971 13:-66.048004 14:8.5198002 15:6.822998 16:-152.52901 17:-16.955639 18:27.182007 19:21.850006 20:7.2160997 21:-15.775024 22:169.9007 23:6.7923498 24:-17.529968 25:-18.030098 26:-2.0717211 27:2.1359863 
0.146606959731815 0.1384126159732738 0.2196472524966779 0.2773204854389963 1:-10.534004 2:0.73892999 3:0.17498779 4:-144.38489 5:-4.0165172 6:1.2909546 7:-40.772995 8:-17.099279 9:-13.522949 10:183.065 11:25.425539 12:-9.3530273 13:75.998398 14:-12.792061 15:-1.7860107 16:-166.32941 17:8.5103559 18:0.934021 19:-67.314011 20:-21.896135 21:12.650024 22:118.50601 23:26.35845 24:-27.460999 25:65.041496 26:-2.71018 27:-11.925049 
0.5924314747518581 0.4992876966054825 0.6969761162520036 0.8648217980795816 1:8.9490051 2:5.7009888 3:-0.099975586 4:0.6289978 5:-3.2839966 6:-4.0700684 7:-2.2109985 8:6.4589996 9:-6.1699219 10:-227.72 11:19.681 12:-109.5 13:-289.172 14:-98.466995 15:24.130005 16:231.91119 17:101.556 18:-45.23999 19:424.72379 20:0.60699463 21:88.589966 22:-7.6299744 23:10.005005 24:16.369995 25:-89.848022 26:16.578003 27:-46.150024 
0.5940703825873701 0.5005801639175834 0.695414239695976 0.8668374590198037 1:-52.757019 2:12.765991 3:-35.559937 4:-400.86899 5:-2.2559814 6:-96.720093 7:-180.767 8:-89.254013 9:99.850098 10:551.58801 11:118.701 12:-12.480103 13:169.789 14:-54.837997 15:65.310059 16:-287.784 17:45.08699 18:-125.04004 19:-467.755 20:-155.95 21:78.920044 22:254.00589 23:144.75401 24:-60.75 25:485.4541 26:-12.910004 27:102.77002 
-0.3659499375490534 0.2277761574992334 0.2857631762141951 0.3235806077104936 1:-2.1009979 2:9.0790024 3:-4.7600098 4:-7.4100037 5:8.8960037 6:-101.84998 7:-14.263 8:21.292992 9:-138.18994 10:-9.0090027 11:13.101013 12:-165.92004 13:-4.6339951 14:3.3059998 15:-109.65002 16:5.2619934 17:-18.832001 18:190.22998 19:27.002998 20:-24.227005 21:219.84998 22:19.853012 23:5.9640045 24:105.75 25:-7.1570129 26:3.2739868 27:-4.8898926 
-0.3034964697617479 0.2014399502448356 0.2610329657976792 0.2831925524869411 1:1.0370026 2:-0.82200623 3:-0.63000488 4:4.8609924 5:-4.6299973 6:-3.7000732 7:-5.1360016 8:-3.7369995 9:-16.97998 10:-15.492996 11:23.747002 12:-148.62 13:1.5759964 14:-12.214005 15:-223.19995 16:1.3790054 17:2.3370056 18:88.76001 19:38.882996 20:-19.166 21:225.97998 22:15.238007 23:-14.146103 24:143.43994 25:7.9779968 26:1.3019028 27:43.099976 
-1.253709915379406 0.7946513957151854 1.017001808523343 1.147569939867315 1:-4.4089966 2:-1.4280014 3:-89.259888 4:-2.9290009 5:15.456001 6:-214.19006 7:-3.0370026 8:2.6760025 9:-167.58997 10:-8.3580017 11:-41.478706 12:-167.76001 13:-3.4819946 14:-30.696896 15:-34.840027 16:3.0240021 17:26.488895 18:191.61005 19:5.1410065 20:21.6269 21:239.69995 22:27.942993 23:21.384804 24:222.52002 25:13.326996 26:17.903 27:196.10999 
-0.3477757666491415 0.2886910549584671 0.2888432070033472 0.3305214792077064 1:0.85479736 2:-11.8899 3:20.75 4:-6.8589993 5:5.8424988 6:-4.5800781 7:-4.0275002 8:18.061005 9:-96.759949 10:-9.2453995 11:-21.000504 12:-64.368042 13:-1.1693001 14:-1.1467972 15:37.614014 16:14.1824 17:-5.2473984 18:138.12396 19:20.9027 20:-8.0922012 21:156.93005 22:4.9333992 23:-15.560501 24:109.20996 25:6.4403 26:1.2159996 27:71.52002 
-0.03702304152987335 0.02222993287640628 0.05930651280367982 0.1228228820801931 1:2.1739006 2:2.5327034 3:-28.089966 4:-5.6739006 5:-1.5470009 6:-121.28003 7:-20.434799 8:18.601601 9:-137.12 10:-35.1619 11:17.987396 12:-84.94104 13:-0.8499012 14:-3.6021957 15:-33.122986 16:1.2831001 17:7.3348999 18:99.093933 19:19.3965 20:5.1528015 21:168 22:18.786001 23:-17.514603 24:150.70007 25:35.892799 26:-1.3693008 27:95.849976 
-0.4097399675930004 0.2493422029512443 0.3081598815199643 0.3283644326119373 1:-0.72080231 2:3.1474991 3:1.4500732 4:-12.6008 5:-14.540802 6:-72.48999 7:-11.805302 8:17.507702 9:-199.59009 10:-28.607201 11:38.262203 12:-158.57593 13:-11.432252 14:0.47109985 15:-72.869019 16:10.964052 17:-3.311203 18:75.062988 19:25.799101 20:-8.2677994 21:179.40198 22:31.828701 23:-26.878502 24:182.95007 25:37.883301 26:-5.6582985 27:114.17993 
-1.405426470405483 0.8910517009530787 1.144213790565201 1.297947978777107 1:-1.0149994 2:29.824799 3:100.13 4:-13.700302 5:23.880302 6:180.96008 7:-7.7960968 8:-67.012207 9:-306.19006 10:25.443398 11:-99.0121 12:-27.030029 13:-16.585297 14:84.171898 15:68.150024 16:21.028297 17:86.3284 18:292.78003 19:-33.9972 20:-18.296005 21:-219.72998 22:16.880203 23:-129.76509 24:-150.52002 25:-3.5804062 26:125.89211 27:219.05005 
-1.452034086495016 0.9171652537247151 1.146889244384981 1.292044554326503 1:1.9440002 2:18.023245 3:30.030029 4:0.65100098 5:46.391151 6:111.82996 7:7.6650009 8:38.956902 9:130.46997 10:-2.3399963 11:10.414001 12:82.670044 13:-8.4420013 14:10.713295 15:9.8900146 16:-17.592201 17:7.5839996 18:-156.73999 19:8.0530014 20:-114.40485 21:-211.31006 22:-6.9131012 23:-20.430948 24:15.040039 25:6.0134964 26:9.7842999 27:7.7299805 
-1.011633325125597 0.6868211798412807 0.8179449392685244 1.014418121045173 1:-14.748001 2:6.7389984 3:-103.21997 4:-6.3790054 5:-3.2159958 6:-51.22998 7:-20.283394 8:-97.176201 9:-184.60999 10:8.1334 11:-55.3564 12:-21.560059 13:19.303993 14:51.3181 15:28.030029 16:16.848007 17:44.123901 18:122.20996 19:3.5019989 20:33.655296 21:152.56006 22:1.0950012 23:-0.75609589 24:27.709961 25:-14.265007 26:12.666397 27:-48.969971 
-0.3411389649529085 0.2343629060216441 0.2950690552207591 0.3559179760381737 1:-1.6419983 2:-7.9949951 3:-8.9499512 4:1.3629913 5:-1.1199951 6:-43.72998 7:45.397003 8:11.425995 9:-139.95007 10:64.012009 11:-48.780991 12:-216.75 13:-7.1670227 14:-23.87001 15:-41.099976 16:-8.1879883 17:25.525009 18:73.829956 19:-43.345001 20:19.983994 21:205.83008 22:-35.05899 23:-17.546005 24:133.02002 25:-7.2080078 26:-2.1559906 27:19.149902 
-0.1528285461255184 0.1193226915242674 0.1559245988646699 0.1971307929264672 1:-0.7460022 2:3.0859985 3:1.8000488 4:-0.23699951 5:-5.9570007 6:-1.3399658 7:-8.3899994 8:-3.4359894 9:-16.310059 10:13.921997 11:23.763 12:-142.32996 13:31.867996 14:-17.650009 15:-228.03003 16:14.837006 17:-38.919998 18:-51.880005 19:0.34599304 20:45.145004 21:91.880005 22:-22.12999 23:14.229004 24:176.88 25:-4.3040009 26:-32.234009 27:96.400024 
-0.3229079250796761 0.2206068842185816 0.2893053843659659 0.3466431016087655 1:0.93701172 2:3.0398998 3:5.1099854 4:-10.900024 5:-6.5707989 6:-13.069946 7:-20.25798 8:15.171659 9:-158.91003 10:3.0449982 11:-8.5334606 12:-247.90991 13:-23.318008 14:-6.7619991 15:-43.050049 16:7.7380066 17:3.4529991 18:75.300049 19:11.080994 20:9.072691 21:99.949951 22:1.901001 23:-15.581291 24:131.94995 25:-4.6309967 26:-9.4703999 27:128.28003 
-0.9310710377877114 0.5973064883360936 0.7684829947582207 0.8692714717008487 1:2.9960022 2:3.2340088 3:4.7099609 4:-2.934021 5:-5.1579895 6:4.3000488 7:-13.712006 8:30.259979 9:-51.650024 10:40.862 11:140.884 12:-324.17993 13:-18.192993 14:-11.14798 15:-25.600098 16:-16.203003 17:-12.291016 18:96.660034 19:-14.104004 20:-117.008 21:179.41003 22:16.812012 23:-24.798004 24:54.650024 25:5.6960144 26:-6.4519958 27:15.689941 
-1.020200557902463 0.662469605274381 0.8699513513859675 0.9944945815291988 1:20.300995 2:117.74599 3:-224.74011 4:14.08902 5:46.877014 6:-162.16992 7:-26.193024 8:10.553009 9:30.75 10:-12.847992 11:-18.810028 12:92.329956 13:-0.47900391 14:-76.668976 15:166.22998 16:-8.2229919 17:-58.287018 18:110.4801 19:7.776001 20:-3.2160034 21:21.159912 22:1.3500061 23:0.5670166 24:2.8000488 25:-1.8320007 26:-0.89599609 27:0.64001465 
-0.2747648891610269 0.2484537852054117 0.3701018416216885 0.4121631674437704 1:30.856207 2:18.581902 3:-60.959961 4:1.214413 5:38.124199 6:-129.91003 7:11.30688 8:20.902401 9:-75.310059 10:-1.8933001 11:-3.4563007 12:20.170044 13:-22.3927 14:-37.227997 15:109.31995 16:-19.814499 17:-51.354797 18:151 19:21.689499 20:-43.907005 21:91.170044 22:1.2931805 23:-2.5690002 24:-4.75 25:0.16230965 26:11.412003 27:-28.130005 
-1.008250587107247 0.6390657716992614 0.8202580156449352 0.9309834813546349 1:1.6704702 2:3.6389923 3:1.3800049 4:4.5866594 5:17.990997 6:-28.990112 7:30.095798 8:65.22641 9:-223.79993 10:56.387699 11:55.551899 12:-321.26801 13:33.629707 14:-26.823402 15:-129.84601 16:-41.633606 17:-1.3372002 18:213.77405 19:-31.145798 20:-71.1717 21:331.8999 22:1.6210976 23:-64.637993 24:154.97009 25:10.137203 26:0.5349884 27:-3.1099854 
-0.1493400442760339 0.09533593079313248 0.1387704412037734 0.197355946094396 1:-5.6489868 2:-9.8959961 3:-17.47998 4:5.5409851 5:-8.9049988 6:-92.890015 7:73.666016 8:-40.264008 9:-174.51001 10:-23.216003 11:-4.9069977 12:1.2199707 13:-13.631012 14:13.783997 15:60.920044 16:-38.097992 17:6.6860046 18:141.59998 19:-23.562012 20:-0.58399963 21:107.28003 22:6.8900146 23:0.044998169 24:18.349976 25:-3.6480103 26:-11.641006 27:-12.97998 
-1.09641977323665 0.6940046562916322 0.8883042718463637 1.008653811628435 1:-0.49000549 2:-1.6020203 3:7.0299072 4:-9.1690063 5:-0.34597778 6:8.6000977 7:4.4120026 8:23.502991 9:-50.420044 10:34.915009 11:129.866 12:-260.81995 13:17.685989 14:-9.2149963 15:-107.83008 16:-5.1079865 17:-15.884003 18:1.6800537 19:-8.5540009 20:-4.7559967 21:78.039917 22:-47.708008 23:-93.238007 24:355.27002 25:-4.6049957 26:-39.284012 27:47.050049 
-0.7526866265968315 0.4759031712427159 0.6096742560758067 0.6911194040952188 1:2.7659988 2:-6.1849976 3:-6.3000488 4:2.0960007 5:1.4689941 6:-2.5499268 7:13.492004 8:62.911011 9:-123.62 10:40.289993 11:99.690994 12:-298.33008 13:-3.9039917 14:-24.289001 15:-42.099976 16:-2.4130096 17:-1.3359985 18:47.619995 19:-26.481003 20:-27.979004 21:225.48999 22:-26.644989 23:-124.17198 24:226.28003 25:-3.9060059 26:9.5209961 27:-17.589966 
-0.6878407558996337 0.345034819396168 0.264183115408539 0.2486735692926198 1:21.309006 2:40.640991 3:-85.48999 4:19.421997 5:50.337997 6:-115.42993 7:-24.016998 8:14.569 9:-42.890015 10:-13.050003 11:-13.414993 12:1.1899414 13:-25.83699 14:-3.6230011 15:65.75 16:12.304993 17:-40.807007 18:86.27002 19:0.2539978 20:-17.755997 21:56.530029 22:4.0319977 23:-9.7630005 24:14.079956 25:8.0480042 26:5.0740051 27:-2.7600098 
-0.5994461982886843 0.3996289676373188 0.5165734327101464 0.592687192533054 1:0.44072962 2:-2.0830078 3:2.2299805 4:1.4310102 5:-1.8880005 6:-2.0899658 7:-0.1579299 8:3.6380005 9:-1.1500244 10:61.271351 11:26.811005 12:-234.28003 13:25.706497 14:-19.507004 15:-30.339966 16:-47.482697 17:-19.530991 18:235.32996 19:-0.84669876 20:-6.4499969 21:27.560059 22:-0.45070267 23:2.427002 24:-6.5999756 25:-8.2532005 26:-10.388 27:-2.7900391 
-1.073230998325713 0.6804950445642052 0.8745587474040983 0.991570014254352 1:-3.8290024 2:7.6809998 3:1.5300293 4:-0.074100494 5:-6.0580139 6:-2.1000977 7:-2.3178978 8:-3.96698 9:2.7000732 10:2.9602013 11:6.3259888 12:-17.349976 13:15.089199 14:42.151001 15:-285.88 16:2.7076988 17:3.5700073 18:133.17993 19:-5.200901 20:-31.835999 21:189.33997 22:-11.2747 23:-7.3690186 24:-22.23999 25:-4.3521976 26:-2.901001 27:-1.0499268 
-1.45030482478715 0.8975154281499236 1.204345072034226 1.29787347140376 1:-6.0979996 2:6.2378998 3:-2.9100342 4:68.556 5:40.829098 6:26.910034 7:-114.0209 8:-62.058399 9:-43.980103 10:76.652908 11:52.3932 12:8.710083 13:-55.576103 14:-34.628803 15:-6.2900391 16:15.622398 17:-17.665794 18:17.26001 19:210.88269 20:56.893097 21:56.369995 22:-205.71609 23:4.6287994 24:-80.27002 25:-37.600498 26:-32.493599 27:-1.1799316 
-0.6729838366273212 0.4195298616419911 0.5320914334099488 0.6046603613935464 1:1.3259964 2:-3.0531006 3:-0.34008789 4:-2.1270981 5:-1.8883972 6:1.0900879 7:5.3770981 8:12.850494 9:-15.51001 10:58.258995 11:48.014103 12:-234.41003 13:-6.0219879 14:5.8153 15:59.900024 16:-21.740005 17:-65.245605 18:207.28992 19:9.9649963 20:10.567703 21:-8.5799561 22:-2.4579926 23:-3.9869003 24:11.339966 25:-4.1170044 26:-0.83520508 27:4.6500244 
-0.7405720887222073 0.4533403215877555 0.5862244281760046 0.6627369269758823 1:3.6859894 2:1.1599045 3:-0.23999023 4:-1.2259979 5:-1.0444031 6:-2.0500488 7:-5.9129944 8:-1.8250961 9:-0.31005859 10:1.8539886 11:12.4235 12:-12.929932 13:56.804001 14:49.523598 15:-237.03003 16:5.723999 17:-1.2803993 18:-11.109985 19:-20.788986 20:-32.707497 21:143.94995 22:-10.779999 23:-48.179504 24:104.53003 25:0.99398804 26:11.567902 27:-5.5599365 
-1.179099933181119 0.7000386463631289 0.866907149031605 0.9790601345025204 1:65.563995 2:24.032013 3:-174.22998 4:7.4110107 5:-1.6170044 6:-40.75 7:-10.955994 8:0.98300171 9:39.459961 10:-39.899017 11:-4.0230103 12:139.27002 13:-17.806976 14:-26.721985 15:132.16003 16:7.0469971 17:7.1229858 18:19.589966 19:-7.9590149 20:-5.8049927 21:-10.339966 22:-2.6009827 23:-2.2160034 24:-3.25 25:0.22497559 26:0.78799438 27:1.3099365 
-1.393572245667232 0.8841420494191975 1.134434251170332 1.2868459488977 1:-14.044006 2:14.066101 3:69.640015 4:-72.110001 5:4.1676979 6:221.37 7:-29.855988 8:-9.9482002 9:87.869995 10:18.018982 11:25.811199 12:-197.97009 13:15.755005 14:-16.0093 15:-157.77991 16:10.313995 17:12.858303 18:144.70996 19:-11.247986 20:-52.982731 21:203.72998 22:1.4720001 23:16.50563 24:-121.56995 25:5.0879974 26:0.93499947 27:-198.46997 
-1.405171609635093 0.8906668098130337 1.143099446614608 1.297538913833822 1:-1.4799957 2:2.4706993 3:3.6700439 4:-1.2389984 5:3.6618996 6:3.6799316 7:43.543991 8:1.724102 9:-81.679932 10:46.835007 11:-7.9164009 12:-244.32996 13:-64.854004 14:19.030899 15:290.30994 16:-20.835999 17:-14.390999 18:3.0100098 19:-3.7369995 20:-18.5187 21:-246.78003 22:17.345001 23:12.069199 24:249.87 25:-1.0749969 26:-8.0816994 27:-82.829956 
-0.9122001663235521 0.5793609728067656 0.7399405790810966 0.8366986458306313 1:-1.9309998 2:-0.63899231 3:-1.9699707 4:-6.477005 5:-2.0709991 6:-17.849976 7:7.2050018 8:36.703995 9:-196.88 10:41.908997 11:27.112 12:-250.97998 13:-15.194 14:-1.3950043 15:79.669922 16:-42.962997 17:-52.444 18:296.44006 19:-32.386002 20:-58.534897 21:171.67004 22:-5.7559967 23:6.6273041 24:-1.0900879 25:-5.2120056 26:0.35179901 27:-4.0999756 
-0.5538309488915469 0.2948394052407872 0.3369929104023869 0.3822346460384862 1:8.7703934 2:-1.8939972 3:-5.0999756 4:20.418804 5:32.501999 6:-79.670044 7:35.373901 8:22.40799 9:-163.89795 10:30.979309 11:10.186005 12:15.799988 13:9.5274906 14:-15.789993 15:123.41803 16:-9.2979002 17:-44.841003 18:122.87 19:-17.34445 20:-21.298004 21:61.059937 22:-6.3223495 23:-3.8710022 24:-4.9899902 25:0.36889935 26:-0.21099854 27:-0.95996094 
-1.406168345938351 0.8912437181501087 1.144214421213552 1.298402822152346 1:45.965801 2:44.117996 3:-207.67004 4:-22.87912 5:6.9210052 6:33.060059 7:-40.376377 8:-49.488998 9:156.94995 10:3.7884979 11:-2.1569977 12:6.7800293 13:76.720299 14:-14.736008 15:47.890015 16:-6.1519966 17:10.096008 18:-6.9300537 19:-5.9570007 20:4.2819977 21:-8.6500244 22:29.729202 23:45.002991 24:-329.72797 25:-57.907265 26:-55.621994 27:334.91803 
-0.4331751064551859 0.2468429245435393 0.3019709035071352 0.4164427768989771 1:-0.3716011 2:-2.894989 3:-1.8900146 4:4.0925007 5:17.965988 6:-17.450073 7:65.647102 8:37.963989 9:-173.28992 10:22.5354 11:-57.261002 12:-112.36011 13:3.7657013 14:31.119003 15:59.540039 16:-43.7323 17:30.34201 18:146.29004 19:-38.6059 20:-38.337006 21:75.160034 22:-5.1828003 23:2.7859955 24:-12.110107 25:0.93130112 26:6.5429993 27:-13.689941 
-0.1994691269148121 0.06927047151715081 0.07002312063773922 0.09257898213032567 1:-2.2699013 2:0.5039978 3:2.0599365 4:2.785202 5:3.4640045 6:-2.6099854 7:24.7335 8:26.873993 9:-33.880005 10:77.367897 11:33.70401 12:-169.42993 13:4.3048019 14:-8.2799988 15:7.4599609 16:-49.340973 17:-15.930008 18:135.95996 19:-56.696632 20:-52.130997 21:83.77002 22:-0.47129822 23:-5.0809937 24:-5.7700195 25:5.2821999 26:6.2419891 27:-5.8599854 
-0.1481714354067996 0.1289518573054647 0.1506459135853971 0.1169934360607133 1:6.7330017 2:-5.052002 3:0.65002441 4:16.403999 5:18.707001 6:-15.689941 7:71.9478 8:39.037003 9:-185.72009 10:10.5797 11:-38.987991 12:-131.45892 13:19.944801 14:12.181992 15:96.078979 16:10.80809 17:-28.195999 18:184.64996 19:-7.5777903 20:-22.070007 21:56.349976 22:-2.6322002 23:0.8420105 24:-6.2799072 25:-1.5746994 26:2.8540039 27:-2.4200439 
-0.1299960279817694 0.07643210218632252 0.1081468915479863 0.1261469625057924 1:0.44090271 2:6.6820068 3:-3.5100098 4:18.482697 5:16.110001 6:-18.530029 7:46.531002 8:80.906998 9:-193.29993 10:-4.2565002 11:10.099998 12:-194.62805 13:-2.4368 14:-10.209999 15:77.953979 16:18.632889 17:-47.802002 18:189.354 19:0.51327038 20:-58.757996 21:110.29004 22:2.8791599 23:-21.656006 24:11.27002 25:0.67635965 26:7.8589935 27:-1.2301025 
-0.8817249468519169 0.5589932298374409 0.7168830661906154 0.8144708998339926 1:-0.31799316 2:17.453003 3:-15.140015 4:77.818092 5:56.53299 6:-113.47998 7:76.261452 8:106.31403 9:-313.68994 10:5.204195 11:55.206985 12:-305.08008 13:-22.384739 14:15.235001 15:-35.680969 16:48.3592 17:-72.29599 18:248.44098 19:14.411798 20:-91.401001 21:293.82007 22:-41.27906 23:-50.957001 24:148.44995 25:-29.51124 26:19.191986 27:10.890015 
-1.036300329344475 0.6568836540733123 0.8430956017732509 0.9573321204833895 1:4.799099 2:14.565979 3:-17.469971 4:50.542702 5:80.569 6:-150.94995 7:16.4347 8:78.974014 9:-355.34998 10:-18.249899 11:42.016998 12:-288.95105 13:-19.87838 14:-5.0090027 15:-34.096985 16:43.751278 17:-64.539993 18:322.83795 19:-49.446198 20:-28.322006 21:190.66003 22:3.6353998 23:-73.344009 24:154.07996 25:-1.6135998 26:-17.362 27:19.050049 
-1.147547074487525 0.7270366226319913 0.9443742482120691 1.058056962760183 1:3.2739868 2:4.6460037 3:10.160034 4:-2.8439941 5:-13.659203 6:144.10999 7:-8.9799957 8:-31.274601 9:110.54993 10:-6.9810028 11:10.5709 12:-86.809937 13:21.046997 14:43.366199 15:-193.46997 16:-3.2330017 17:-25.001801 18:-109.88 19:30.287003 20:7.2934036 21:64.949951 22:5.1959991 23:-17.825703 24:197.30005 25:-26.087997 26:-22.355 27:136.09998 
-0.2920972369559257 0.1821664023836448 0.263686747611901 0.280803806823288 1:-2.473999 2:0.59390259 3:-0.94006348 4:2.2919922 5:1.2549973 6:0.58007813 7:5.0640106 8:-6.3760986 9:-8.5200195 10:-3.8320007 11:57.415104 12:-151.53003 13:-31.447998 14:-3.8459015 15:-160.32996 16:24.227997 17:14.960098 18:54.670044 19:13.136993 20:-6.6200027 21:233.48999 22:-32.117996 23:-39.693096 24:118.71997 25:-2.6589966 26:-9.6986008 27:-10.910034 
-0.08189043990153765 0.0511066343632385 0.07503355664540654 0.0613187991770739 1:0.4420166 2:2.052 3:-4.5500488 4:8.2470093 5:10.6105 6:-12.649902 7:13.412994 8:16.8955 9:-38.670044 10:22.138 11:30.669296 12:-74.170044 13:37.682999 14:12.292 15:-152.88995 16:6.5699921 17:-0.19959259 18:-51.674988 19:-27.822998 20:-39.274002 21:167.758 22:-23.852005 23:-52.595451 24:114.70697 25:-18.362991 26:-29.779049 27:41.390015 
-0.01108323285673437 0.01178441722783024 0.05194007325753454 0.02967253612318417 1:5.1460114 2:14.826797 3:-18.76001 4:13.421997 5:64.400101 6:-81.069946 7:5.2059937 8:65.033905 9:-129.91699 10:6.7550049 11:8.4253998 12:-73.368042 13:3.3049927 14:-4.6479034 15:37.165039 16:-55.088989 17:-35.709496 18:158.33997 19:-36.395996 20:-47.628902 21:98.700073 22:38.42099 23:-20.858231 24:36.329956 25:16.25 26:-4.3180704 27:0.17004395 
-0.160179655261179 0.1412701649225917 0.2318179301592155 0.2561528269936483 1:9.1889954 2:26.482269 3:-34.75 4:11.16301 5:32.62513 6:-58.119995 7:10.039993 8:44.852699 9:-79.448975 10:9.4609985 11:38.051003 12:-139.19 13:17.057999 14:11.977989 15:-109.16199 16:14.074005 17:1.6560059 18:-21.314026 19:-6.3150024 20:-16.028 21:81.843018 22:-17.128998 23:-52.174 24:142.18201 25:-16.578003 26:-66.425888 27:119.32001 
-0.0827317315955614 0.05274205488539376 0.08006199392078597 0.1002069572090777 1:-0.61499023 2:0.37400055 3:2.6300049 4:22.633995 5:20.502998 6:-21.899963 7:57.478996 8:25.9767 9:-153.612 10:23.201302 11:-2.1694031 12:-184.85602 13:-0.61330032 14:-16.025795 15:126.23102 16:-11.8918 17:-45.547508 18:232.72699 19:-3.4016991 20:-42.356995 21:69.369934 22:-7.2918015 23:-0.42399597 24:-4.25 25:-4.7024994 26:-1.447998 27:1.0400391 
-0.03586982519842215 0.02010610616755103 0.05047440020766334 0.02820514073024263 1:22.849003 2:4.1349945 3:-12.290039 4:38.911499 5:26.968002 6:-61.140015 7:49.526398 8:63.034607 9:-127.76202 10:-23.320709 11:-3.7560043 12:-158.15997 13:-20.361691 14:2.389801 15:-48.586975 16:-0.19830036 17:-21.075798 18:121.62195 19:-25.020199 20:-39.896606 21:211.38702 22:-20.261002 23:-41.776993 24:101.71997 25:-26.071598 26:-2.7539978 27:-12.369995 
-0.7546104790832093 0.4711827994654931 0.5975729011443621 0.6739114261075476 1:4.9279785 2:4.4249878 3:3.4100342 4:-3.8289795 5:0.29699707 6:1.2600098 7:10.84198 8:-2.776001 9:-36.320068 10:8.9760132 11:1.4309998 12:-212.85999 13:18.548981 14:-60.497986 15:-188.04993 16:11.646011 17:-14.831009 18:2.4199219 19:-11.112991 20:16.813004 21:152.03003 22:-41.181 23:41.231018 24:264.47998 25:3.6499939 26:-19.128021 27:114.71997 
-0.07618284656067782 0.04247890196246609 0.0440420055542925 0.06125228948970481 1:0.67901611 2:2.1130066 3:0.69006348 4:-1.6070251 5:-0.24801636 6:-2.0900879 7:8.7660217 8:1.881012 9:-50.849976 10:17.070984 11:7.1799927 12:-267.42993 13:20.662003 14:-16.454987 15:-139.13 16:-6.2489929 17:15.960999 18:59.799927 19:-13.783005 20:20.539978 21:229.88 22:-34.743988 23:-30.921997 24:162.56006 25:-4.6930237 26:2.3420105 27:10.559937 
-1.391368255741132 0.8825424330565874 1.132173255878189 1.284983237363143 1:1.303009 2:-63.685997 3:-134.76001 4:13.662994 5:36.835991 6:154.28992 7:-17.515991 8:-31.125992 9:296.5 10:-9.4759979 11:-21.203003 12:68.830078 13:1.5439911 14:35.091995 15:-201.27002 16:31.131989 17:-36.054398 18:-328.20007 19:-3.0509949 20:-19.7174 21:32.070068 22:1.460022 23:50.863808 24:271.21997 25:-21.690018 26:-44.523804 27:202.89001 
-1.269812394383055 0.8036466167053996 1.031062285968286 1.169781482665863 1:5.1889954 2:4.5034027 3:3.0899658 4:-8.5189819 5:-4.4093018 6:-0.38000488 7:0.51800537 8:2.3779984 9:6.0100098 10:-8.7840118 11:10.263298 12:-30.440063 13:-9.7420044 14:48.213997 15:-295.47998 16:8.8650055 17:-51.94529 18:-212.58997 19:12.454987 20:9.862793 21:97.5 22:15.906006 23:46.128502 24:338.06995 25:-22.457993 26:-52.416702 27:149.59009 
-0.1143753429574967 0 0 0 1:0.1210022 2:-0.92869949 3:-1.1989746 4:9.7629929 5:6.3073006 6:-23.700989 7:47.261009 8:31.3032 9:-86.255005 10:28.028 11:-0.10990143 12:-89.818024 13:-4.2690125 14:2.8382006 15:-8.5969849 16:-6.3959961 17:-5.0738993 18:12.998016 19:-28.453003 20:-9.7818012 21:78.23999 22:-25.875992 23:-22.283499 24:106.48297 25:-0.9200058 26:-17.104198 27:43.822021 
-1.590763234299869 0.8521247505246458 1.006393761259984 1.227196538445136 1:5.7117996 2:5.5766983 3:-4.769043 4:5.0442047 5:-2.2531967 6:-10.320007 7:49.745598 8:-125.3857 9:-57.311951 10:-80.327698 11:108.616 12:64.096985 13:-0.044006348 14:-15.813004 15:50.393982 16:0.65800476 17:-13.287003 18:42.268982 19:-0.081001282 20:-8.4189987 21:35.040039 22:2.3389969 23:1.0019989 24:28.880005 25:1.1320038 26:-5.0859909 27:22.940002 
-1.62309244119221 0.896348444761239 0.9607040942830536 1.099659806150493 1:-1.1920013 2:1.1260071 3:-3.3730469 4:1.8580017 5:6.4319916 6:-28.630981 7:11.224991 8:25.760002 9:-64.096008 10:17.650002 11:24.471802 12:-90.513 13:6.9892044 14:6.9048996 15:-81.348999 16:7.5238953 17:0.34469604 18:-47.666992 19:-0.40719604 20:-3.6236954 21:-9.7680054 22:5.6997986 23:1.9513016 24:23.148987 25:1.479599 26:-14.896202 27:80.980042 
-0.5459364852813806 -0.425908309875197 0.5076005566755281 0.5039898339624175 1:-8.7546005 2:-24.386993 3:5.9200439 4:-14.531399 5:-93.330017 6:54.890015 7:34.650204 8:-115.80998 9:0.26989746 10:-4.697403 11:-117.745 12:-1.9899902 13:68.510094 14:-91.334702 15:-3.8399658 16:141.73801 17:-5.8001022 18:26.699951 19:119.86301 20:-9.0228958 21:25.280029 22:112.14502 23:26.392399 24:26.410034 25:106.19995 26:-16.979404 27:49.160034 
-0.3694122790587766 -0.284742309978347 0.3222646672408362 0.3312707373922763 1:1.6623001 2:-4.5050049 3:6.1199951 4:-33.978897 5:-158.67999 6:-6.5299072 7:15.440001 8:-109.819 9:-4.0400391 10:10.0215 11:-160.18921 12:24.859985 13:3.0542984 14:-104.5918 15:6.6300049 16:121.1886 17:-13.402 18:49.400024 19:179.461 20:9.612999 21:45.059937 22:107.07901 23:-1.8030014 24:12.150024 25:-3.4550171 26:1.1319962 27:-1.5899658 
-0.4250522018486103 -0.3109762232344693 0.3164893130904394 0.3854904863358045 1:-4.1037979 2:-29.660004 3:-1.25 4:-0.25380135 5:-114.36598 6:-8.2199707 7:8.8917027 8:-157.6925 9:-34.199951 10:7.4468994 11:-173.0024 12:2.1599121 13:24.460598 14:-145.53711 15:-16.059937 16:75.253807 17:-44.277008 18:21.26001 19:187.52798 20:8.0610046 21:46.849976 22:183.32101 23:61.10701 24:33.089966 25:8.46698 26:3.6170044 27:0.63000488 
-0.2616629703884649 -0.2380451747534921 0.4295926428166017 0.3327617634032947 1:-0.063019991 2:-0.19500732 3:0.93994141 4:0.23496985 5:-12.011993 6:-0.56994629 7:3.3390901 8:-67.153992 9:-7.4699707 10:3.1796703 11:-147.998 12:-17.119995 13:6.1908693 14:-131.5417 15:-17.670044 16:-4.0668001 17:-106.3973 18:3.7199707 19:44.392502 20:-63.775002 21:13.590088 22:188.21001 23:26.037994 24:-2.9500732 25:103.15999 26:-2.7869873 27:-3.2900391 
-0.5698518519122036 -0.4183271697681147 0.4717603455811882 0.5165779439390825 1:-0.97290039 2:0.039978027 3:-1.4799805 4:-3.084301 5:-2.7249756 6:-2.3601074 7:-15.344898 8:-16.175018 9:-1.3599854 10:-16.289398 11:-158.101 12:-11.959961 13:-31.756203 14:-247.1828 15:8.7199707 16:15.548798 17:-40.965599 18:6.7299805 19:266.95319 20:9.9971008 21:-50.26001 22:166.47101 23:-2.3979034 24:47.180054 25:-13.458008 26:-2.2881012 27:-6.2399902 
-1.496971760476607 -1.106488607267091 1.256582877761082 1.394268608251732 1:-105.51401 2:273.1687 3:29.320068 4:-32.346199 5:146.32701 6:-15.330078 7:-43.748497 8:34.562988 9:3.7299805 10:-19.69585 11:-141.12698 12:-21.929932 13:-26.13875 14:-326.00671 15:-4.8900146 16:2.8507004 17:59.01339 18:-8.9599609 19:141.28461 20:28.412008 21:-35.710083 22:169.52298 23:-66.833496 24:65.27002 25:-264.81348 26:40.068581 27:34.469971 
-1.151693696541558 -0.8446042226480145 0.9463613931047953 1.063643219013164 1:-6.4664001 2:-1.8470154 3:0.52001953 4:-5.7978992 5:-4.3339844 6:-0.050048828 7:-2.1935005 8:-45.503021 9:-6.1500244 10:8.0042992 11:-157.99599 12:-7.2199707 13:-15.370798 14:-170.71761 15:3.6300049 16:7.8368988 17:-17.982359 18:5.0400391 19:109.87981 20:11.955959 21:-40.440063 22:329.98962 23:-76.274704 24:-14.660034 25:41.544983 26:7.9396019 27:47.890015 
-0.3262824317469926 -0.2400743232675026 0.2789294460549663 0.3056099150672754 1:-0.55599976 2:0.3500061 3:0.54992676 4:3.7160034 5:-18.201996 6:-9.3299561 7:13.75499 8:-91.512024 9:-64.030029 10:-14.868996 11:-236.7522 12:-81.429932 13:-11.581001 14:-274.6098 15:25.699951 16:29.583008 17:37.259995 18:-4.0300293 19:231.15601 20:42.809998 21:83.72998 22:59.130981 23:9.2389984 24:71.680054 25:-49.084991 26:-8.8379974 27:-33.709961 
-0.6783285515175608 -0.5008135516924077 0.5664788065503441 0.630972791182654 1:-0.83029938 2:-1.4759827 3:-2.1900635 4:2.3036957 5:-12.777008 6:-12.159912 7:5.4967041 8:-101.69601 9:-88.320068 10:-15.397606 11:-323.42484 12:-76.439941 13:-8.5540962 14:-248.32515 15:75.77002 16:83.332199 17:1.8639984 18:13.169922 19:240.875 20:65.520004 21:81.320068 22:89.27301 23:24.360992 24:91.630005 25:30.257996 26:0.16700745 27:-21.930054 
-0 -0.01662586620453924 0.1899780292967299 0 1:0.026000977 2:-1.9090118 3:-3.3400879 4:2.9450073 5:2.1529999 6:-0.90991211 7:-0.55700684 8:-0.43598938 9:0.58996582 10:-0.11499023 11:-18.930008 12:-1.8399658 13:-10.132004 14:-167.1232 15:-24.690063 16:13.916 17:-90.011795 18:5.9300537 19:38.943008 20:-6.7160034 21:10.97998 22:68.578979 23:-2.9013977 24:10.400024 25:1.9950256 26:-2.1851044 27:3.5100098 
-0.1968158935550249 -0.1837299710377257 0.1131447945107303 0.1803049086118163 1:-1.0845032 2:-0.87789917 3:0.33996582 4:-11.163696 5:-9.4957008 6:0.69006348 7:-8.9380035 8:-55.269379 9:-4.9799805 10:-21.992004 11:-147.08832 12:-25.380005 13:4.1990051 14:-147.45502 15:-36.920044 16:133.37662 17:10.104004 18:-82.5 19:190.35538 20:36.112015 21:-51.569946 22:22.099014 23:-13.25502 24:-5.9700928 25:-2.1070099 26:-1.8589783 27:12.5 
-0.6584086237411035 -0.4808200595502694 0.9414618145203632 0.6668303112629156 1:2.9528999 2:5.4634018 3:-0.31994629 4:3.6146011 5:2.542099 6:-4.0400391 7:-0.21360016 8:-42.311802 9:-4.7299805 10:-18.811005 11:-182.27089 12:-20.469971 13:54.326004 14:-101.22 15:-33.910034 16:208.1384 17:-11.753006 18:-112.43005 19:47.789993 20:1.875 21:-11.849976 22:0.82400513 23:-6.9320068 24:14.459961 25:11.550995 26:0.76602173 27:14.430054 
-1.246662897831471 -0.9678190638223641 1.11253782235541 1.177480069605686 1:-3.5419922 2:5.1490021 3:-2.0200195 4:2.9529724 5:19.489006 6:-13.77002 7:19.006012 8:-40.12291 9:-39.359985 10:33.268005 11:-162.0217 12:-57.560059 13:3.9899902 14:-164.77139 15:-15.109985 16:-20.428986 17:-102.69699 18:-2.6300049 19:-63.078003 20:-73.361023 21:34.869995 22:18.694 23:-1.17099 24:19.310059 25:11.75 26:23.923004 27:151.96997 
-0.3017329935572701 -0.2125503416436294 0.2187378834237677 0.2718116201316823 1:-3.4700012 2:-5.9889984 3:-3.4699707 4:-0.24099731 5:-0.087997437 6:0.32006836 7:1.0930023 8:-2.6360016 9:-4.6099854 10:22.774994 11:-128.02299 12:-62.170044 13:9.125 14:-334.009 15:-54.459961 16:7.5230103 17:-48.755005 18:-0.14001465 19:147.98898 20:7.776001 21:86.349976 22:105.194 23:2.5500183 24:59.890015 25:-4.2969971 26:1.3159943 27:-11.670044 
-1.350680388718339 -0.9965351774350501 1.125810151392611 1.260083633452981 1:1.0009995 2:-2.6069946 3:-1.4300537 4:-5.6750031 5:29.097 6:-3.289917 7:-1.3199997 8:214.43111 9:-0.96008301 10:-2.0970001 11:45.6036 12:-13.829956 13:-11.9842 14:-292.77972 15:-2.7900391 16:88.9142 17:-10.251984 18:27.390015 19:146.16801 20:12.085999 21:84.290039 22:-55.486023 23:-11.704987 24:-17.52002 25:-44.429993 26:-17.167999 27:-8.75 
-1.500022296226024 -1.110906944560269 1.258253494568754 1.416181096574565 1:-0.28900146 2:-2.8560181 3:2.1800537 4:-0.80299377 5:1.0490112 6:-1.3300781 7:-6.4840088 8:-0.94799805 9:-2.8199463 10:-1.0759888 11:180.67699 12:-64.910034 13:1.0779877 14:164.4189 15:4.1500244 16:-33.17099 17:-302.64191 18:10.469971 19:117.737 20:-22.34198 21:50.02002 22:74.187988 23:-8.335022 24:46.22998 25:-129.08398 26:-36.537994 27:-27.069946 
-1.500452366733512 -1.107868221887481 1.259833113418769 1.402063863183907 1:3.4271011 2:-0.72610092 3:2.2600098 4:19.317299 5:-283.88181 6:37.690063 7:231.41858 8:-31.768997 9:53.399902 10:17.097015 11:-13.830994 12:0.48999023 13:-1.875 14:-1.230011 15:-2.9799805 16:-212.98529 17:6.5750122 18:-65.98999 19:43.556297 20:205.43158 21:15.099976 22:2.5919952 23:90.162979 24:31.440063 25:8.0080109 26:-10.91823 27:-10.349976 
-0 -0 0.02650871677101838 0.008680553725447796 1:0.11700439 2:-0.15600014 3:1.5 4:-7.5789948 5:-6.2527008 6:-5.0999756 7:-25.367004 8:-71.915298 9:13 10:-1.1850052 11:-156.383 12:23.720093 13:14.596001 14:-83.769012 15:-12.200073 16:25.082001 17:5.3529968 18:5.7900391 19:163.02699 20:13.894012 21:55.119995 22:5.5020142 23:-14.886993 24:-4.5899658 25:-1.2510071 26:4.5359802 27:-1.8400879 
-0.1252684055233588 -0.08983095202306227 0.1015251958774963 0.107882509040455 1:-0.093299866 2:0.1579895 3:1.9100342 4:-0.83120346 5:-0.34199524 6:1.5799561 7:2.0596008 8:-16.395004 9:-4.789917 10:4.7080994 11:-142.74069 12:-44 13:-20.005096 14:-353.37729 15:-13.920044 16:82.952499 17:-106.94699 18:18.619995 19:166.91541 20:-25.843994 21:107.13 22:11.246994 23:-4.4260254 24:41.849976 25:2.8990021 26:-4.2749939 27:7.9400635 
-0.954867091566595 -0.7051990158170011 0.7929623795939944 0.8924744509261411 1:1.2954025 2:2.1100006 3:4.4899902 4:-0.71420288 5:1.1380005 6:-2.0600586 7:4.9218025 8:1.6090088 9:2.2600098 10:-13.996601 11:-62.068306 12:-19.199951 13:-20.307098 14:-311.6257 15:-40.47998 16:61.380997 17:-243.256 18:-11.070068 19:168.7258 20:-47.29303 21:114.28003 22:17.371002 23:-6.1479492 24:38.419922 25:-3.2109985 26:4.9219971 27:-4.8798828 
-1.022524553115228 -0.7576056107576291 0.8896003873386927 0.9611787706186943 1:0.27200317 2:4.8350067 3:0.87011719 4:-2.0240021 5:-8.897995 6:-0.18005371 7:16.0933 8:-118.30901 9:15.369995 10:-9.4521027 11:-248.758 12:-9.3499756 13:252.77051 14:-36.45401 15:12.929932 16:175 17:-16.707001 18:46.540039 19:-32.544006 20:-3.8209991 21:-14.619995 22:-30.725983 23:-12.312988 24:-19.319946 25:-15.10202 26:7.0849915 27:0.92993164 
-0.7807187972634876 -0.5755669606774211 0.6461062395597267 0.7138871492555757 1:1.607605 2:-2.8720093 3:-1.9500732 4:-2.7877045 5:0.11199951 6:-1.0699463 7:5.4517059 8:-85.511002 9:18.289917 10:6.4601974 11:-309.1058 12:-16.329956 13:124.56129 14:-33.607201 15:-1.5799561 16:257.453 17:-36.741005 18:7.6199951 19:-21.803009 20:-5.4669952 21:-10.090088 22:-21.138 23:-6.0540009 24:-0.82995605 25:-23.502014 26:12.341995 27:3.1999512 
-0.186506329809242 -0.1356711798522826 0.4043607396505594 0.2652491064413525 1:-1.8200073 2:1.0509949 3:0.48999023 4:0.64599609 5:-1.1589966 6:2.7399902 7:-0.58799744 8:-11.562012 9:7.5400391 10:-11.597 11:-112.933 12:-12.410034 13:-14.395996 14:-150.4454 15:-20.369995 16:6.5240021 17:-57.088997 18:-11.039917 19:106.12601 20:43.179001 21:68.589966 22:151.46298 23:-0.13380051 24:101.45996 25:-7.2070007 26:1.9921989 27:-14.399902 
-0.3306821946508953 -0.2535039229368191 0.4096965998009063 0.2629441942422796 1:0.80700684 2:-0.55700684 3:0.90002441 4:1.5429993 5:-0.33599854 6:0.68994141 7:-1.8070068 8:1.1480103 9:0.41003418 10:-4.8429871 11:-19.761002 12:-8.1800537 13:-5.0480042 14:-136.4037 15:-39.259888 16:27.533997 17:-147.7213 18:-43.290039 19:189.66901 20:-41.781998 21:-5.8800049 22:69.4617 23:16.449997 24:29.069946 25:-11.913002 26:15.432999 27:-2.5499268 
-0.7816841636331066 -0.5807121974558984 0.6005139753770242 0.9195647276297393 1:0.39102173 2:-5.3569946 3:-2.539917 4:-4.5910034 5:3.8820038 6:2.3800049 7:0.75698853 8:2.0749969 9:2.0100098 10:1.9599915 11:-20.979996 12:-5.9100342 13:59.623016 14:-190.9644 15:-84.76001 16:155.23199 17:-114.5156 18:-49.130005 19:103.4405 20:79.343002 21:58.949951 22:11.687991 23:20.175198 24:27.890015 25:-6.4906902 26:-8.0960999 27:-1.5 
-1.302684794923315 -0.9470344947693068 1.175224531470608 1.187683011562259 1:1.2219849 2:-11.510986 3:2.8900146 4:8.9360046 5:2.1609955 6:5.7199707 7:5.3040161 8:3.048996 9:10.320068 10:0.98599243 11:4.7429962 12:1.539917 13:-1.9049988 14:-0.21699524 15:-9.5100098 16:-2.2680054 17:-33.212997 18:-22.659912 19:-2.223999 20:-188.6301 21:-45.630005 22:299.0271 23:-29.0737 24:10.689941 25:41.7024 26:2.5054016 27:25.170044 
-0 -0 0.05007650762722919 0 1:-2.2720032 2:-1.3280029 3:1.4799805 4:0.23300171 5:-2.5230103 6:-0.44006348 7:6.8699951 8:-8.92099 9:-5.8699951 10:-1.3199921 11:-128.01999 12:-48.52002 13:-7.8370056 14:-159.4502 15:-65.209961 16:46.567001 17:-51.278 18:-0.22998047 19:253.26901 20:-41.358795 21:66.359985 22:46.729004 23:-12.931 24:22.310059 25:-0.98602295 26:2.0939941 27:2.5098877 
-0.3036930714727582 -0.2173910438116979 0.3619829851097051 0.2688197933384549 1:-2.8380127 2:1.434021 3:3.0699463 4:0.54299927 5:-0.084014893 6:0.36999512 7:2.7830048 8:1.1480103 9:0.5 10:-2.7810059 11:-79.302002 12:-27.189941 13:-17.523987 14:-227.9507 15:-86.910034 16:177.12898 17:-59.8396 18:25.23999 19:150.07501 20:-50.182701 21:58.98999 22:-7.1619873 23:-3.2129974 24:10.350098 25:-18.186005 26:3.5199966 27:-1.460083 
-0.9128535083424781 -0.6740632065513122 0.7764236633236502 0.8453804439071398 1:-2.5559998 2:-1.9599915 3:-0.73999023 4:2.5610046 5:2.0279846 6:-1.210083 7:-7.0190125 8:-132.61699 9:-32.549927 10:-9.0130005 11:-297.57202 12:-84.369995 13:80.287994 14:-188.177 15:-43.599976 16:214.53802 17:-80.759003 18:67.51001 19:133.69601 20:25.278015 21:75.719971 22:16.834961 23:17.763977 24:1.8599854 25:7.1600342 26:18.164001 27:-7.9500732 
-0 -0 0.2383420055092269 0 1:-0.69200134 2:-0.75970078 3:0.64990234 4:4.5780029 5:-7.7607002 6:-1.0499268 7:15.216995 8:-27.939999 9:-0.63000488 10:13.016006 11:-53.421101 12:5.1300049 13:-0.3730011 14:-74.891502 15:-3.7700195 16:5.8199921 17:-50.270996 18:-2.6199951 19:55.080002 20:-10.499008 21:-44.430054 22:107.66854 23:-10.070999 24:-63.98999 25:45.76836 26:-15.466995 27:-24.569946 
-0 -0 0.004922165734637204 0 1:-2.5139923 2:-0.81900024 3:2.0200195 4:3.7229919 5:-5.6870956 6:-2.5 7:23.210999 8:-62.9034 9:-15.72998 10:-22.692001 11:-101.2036 12:-15.140015 13:7.6480103 14:-68.696892 15:-20.48999 16:70.997993 17:-23.090012 18:-62.910034 19:95.468613 20:-2.5769958 21:-73.130005 22:49.892784 23:-3.5820007 24:-25.059937 25:4.4346008 26:2.0079956 27:8.0899658 
-0.04634076900182454 -0 0.1124541208751575 0 1:-5.5517044 2:-8.3970032 3:-3.0600586 4:-7.202301 5:-7.447998 6:-3.9899902 7:-24.805901 8:-19.72699 9:-3.9399414 10:-34.585991 11:-52.257805 12:-2.5 13:-33.945007 14:-91.259453 15:-13.430054 16:7.022995 17:-104.34275 18:-37.27002 19:79.230003 20:-53.728004 21:-56.969971 22:102.66182 23:8.3380127 24:-32.959961 25:64.828087 26:12.825989 27:2.6899414 
-1.629121539216585 -0.5379680709959812 0.9564056766341311 0 1:2.620697 2:0.055999756 3:1.3200684 4:9.1706009 5:-9.9729996 6:2.7099609 7:5.8017998 8:-21.542496 9:6.0600586 10:7.9816971 11:-30.419502 12:3.2799072 13:-3.3244972 14:-43.409798 15:1.710083 16:-1.3376007 17:-50.828499 18:-2.2700195 19:19.618599 20:-51.930897 21:-17.300049 22:56.004501 23:-43.243797 24:-24.26001 25:66.416199 26:-22.681 27:-9.1199951 
-0.03764816611144811 -0.2991848262865246 0.4775210089397883 0.5985275513689157 1:-0.99569702 2:-1.5820007 3:-0.059936523 4:-1.2826996 5:-2.840004 6:-0.57006836 7:-3.1829987 8:-7.2419968 9:-2.0799561 10:-1.965004 11:-29.781799 12:-9.9699707 13:-9.5589981 14:-47.978905 15:-24.01001 16:-6.6819992 17:-82.5886 18:-24.050049 19:44.473999 20:-97.876694 21:-55.459961 22:84.464798 23:-50.214005 24:-52.619995 25:88.393204 26:-14.141006 27:-11.440063 
-0.546057907739635 -0.565458329647356 0.4879132315851532 0.4886354997869419 1:2.915699 2:-3.0034981 3:0.97998047 4:-1.1927986 5:-15.000202 6:-3.9299316 7:-7.7612 8:-110.8657 9:-29.98999 10:27.471998 11:-125.77879 12:-4.3200684 13:25.490191 14:-17.031006 15:26.450073 16:107.26131 17:27.220993 18:68.819946 19:49.339005 20:-25.056992 21:36.619995 22:-6.4120026 23:-3.0039978 24:-0.59997559 25:-1.0590057 26:-3.2880096 27:4.5 
-0 -0 0.04455461409937332 0 1:-3.85656 2:-2.4127007 3:-0.41992188 4:-0.29732001 5:-7.9328003 6:-0.25 7:2.70261 8:-10.064499 9:-0.97009277 10:0.080199957 11:-44.093399 12:-6.5299072 13:6.5900307 14:-98.740005 15:-20.600098 16:8.1777992 17:-92.439987 18:-16.199951 19:68.644402 20:-14.90802 21:2.6600342 22:161.61331 23:-31.458984 24:45.059937 25:18.654007 26:9.2359924 27:11.910034 
-0.2359868814958932 -0.07197804311762937 0.01215464967559978 0.5210128281627915 1:-1.5056 2:-2.5600052 3:-3.6199951 4:-2.6744003 5:-17.375 6:-14.480103 7:8.5343018 8:-87.571754 9:-21.22998 10:68.807198 11:-131.76224 12:-9.1099854 13:116.0956 14:-51.186996 15:30.780029 16:122.13589 17:-3.4649963 18:56.339966 19:37.671005 20:-11.63501 21:12.02002 22:-9.3170013 23:1.2570038 24:-8.0400391 25:-0.66700745 26:0.24000549 27:0.66003418 
-0.9610947560267897 -0.7030860165069458 0.8566164264095202 0.8838545202238859 1:1.4630127 2:0.57098389 3:-3.1298828 4:-15.976013 5:-44.903992 6:-34.720093 7:-55.998993 8:-227.56709 9:-122.79993 10:9.0130005 11:-241.2339 12:-37.380005 13:42.024994 14:-86.415985 15:-5.7299805 16:132.47501 17:-5.7540283 18:-20.27002 19:205.89511 20:-4.3639832 21:5.6599121 22:58.972404 23:7.553009 24:0.70007324 25:-30.963902 26:-11.931 27:0.76000977 
-0.3528061730587301 -0.2633889340422017 0.2677281202783794 0.3237478883403891 1:3.4199982 2:-0.38400269 3:-0.27001953 4:0.94300842 5:-1.269989 6:-0.32006836 7:5.3499908 8:-49.717987 9:-21.349976 10:-13.123993 11:-256.62802 12:-104.69995 13:26.087997 14:-221.017 15:-48.359985 16:33.737 17:-45.942993 18:-4.2000732 19:172.63699 20:48.445999 21:-34.209961 22:152.71701 23:-16.561005 24:28.51001 25:11.944992 26:4.9820099 27:-3.960083 
-0.0905536836328953 -0.08584047813018833 0.07546577261356857 0.08319856771664581 1:10.774994 2:-17.13501 3:-15.02002 4:0.11700439 5:-7.7359924 6:-7.4399414 7:-9.3289948 8:-167.578 9:-100.75 10:11.806992 11:-206.4232 12:-65.380005 13:38.886002 14:-84.306793 15:9.539917 16:70.084 17:27.869995 18:-15.949951 19:193.42331 20:36.862 21:16.839966 22:113.1327 23:-25.457001 24:32.840088 25:-1.6389923 26:0.10500336 27:-2.75 
-0.2020845188228293 -0.03672761908725448 0.4009255681407489 0.2671871182813996 1:-3.6679993 2:-2.3003998 3:-0.30004883 4:-6.7689972 5:-25.818399 6:1.0400391 7:-25.663986 8:-64.638 9:-14.359985 10:-27.607025 11:-96.534294 12:-15.310059 13:-19.639984 14:-70.945007 15:-6.9499512 16:48.635986 17:4.822998 18:-40.550049 19:126.99802 20:32.841995 21:-61.550049 22:51.442696 23:3.7450104 24:-18.829956 25:-3.4139023 26:-0.18901062 27:1.6300049 
-0 -0 0 0.04171017376740164 1:0.25598145 2:-0.309021 3:0.84997559 4:-4.1900024 5:-32.373993 6:1.5400391 7:-14.789978 8:-104.207 9:-1.2600098 10:-8.8590088 11:-49.87999 12:-2.8499756 13:2.7030029 14:-102.38374 15:-4.960083 16:7.776001 17:-29.66276 18:-10.029907 19:33.321991 20:-7.0123997 21:-19.400024 22:120.595 23:0.078199387 24:-33.650024 25:84.063499 26:-2.2247982 27:2.4100342 
-0.1952624550760412 -0.1775571221346572 0.1919347030675339 0.1722760968051312 1:-4.0127945 2:-2.7220001 3:-1.4599609 4:3.4020004 5:8.9620056 6:1.4000244 7:-1.6787033 8:34.084 9:4.6999512 10:4.3445969 11:-74.846008 12:-34.72998 13:6.1366043 14:-234.79871 15:-18.310059 16:47.700493 17:-27.339302 18:44.920044 19:143.752 20:0.45200348 21:141.92004 22:52.21402 23:22.084 24:83.640015 25:-7.8840027 26:-5.8088989 27:-17.580078 
-0.6387912726276671 -0.4694368437105615 0.5825791541465812 0.6303291131261436 1:-1.4388008 2:-1.8500061 3:-1.2698975 4:1.5261993 5:1.5250244 6:-1.9700928 7:-0.23279953 8:-3.3690186 9:-0.38000488 10:25.803802 11:-190.0863 12:-52.789917 13:-21.9627 14:-260.4397 15:-9.9000244 16:73.581696 17:1.651001 18:47.780029 19:148.04501 20:51.481003 21:157.26001 22:-4.0500183 23:5.848999 24:-14.200073 25:-5.4369812 26:-7.3119965 27:-3.2199707 
-1.316149374044117 -0.9699439409357948 1.089110889169504 1.20264763608362 1:-59.731606 2:172.6682 3:28.849976 4:-42.714996 5:127.48981 6:9.9599609 7:-27.251999 8:7.4779968 9:-2.9699707 10:4.1159973 11:-26.893997 12:-12.349976 13:2.8410034 14:-4.848999 15:5.8599854 16:1.6790009 17:-110.4612 18:-34.51001 19:51.962006 20:-136.54579 21:-44.579956 22:139.99619 23:-10.090004 24:2.7900391 25:49.164902 26:-12.499992 27:7.0699463 
-0.9148361289232853 -0.6735837792316485 0.7623240360938877 0.8684449108968732 1:0.34799194 2:15.041992 3:-4.0499268 4:-7.7779846 5:57.903015 6:-2.3399658 7:-6.1080017 8:73.029999 9:9.3499756 10:7.9869995 11:-81.585999 12:-0.16003418 13:-23.542999 14:-266.6416 15:-39.619995 16:25.798004 17:-136.34669 18:-35.75 19:277.5231 20:23.010899 21:-40.060059 22:16.916281 23:18.749889 24:-5.2299805 25:-16.220921 26:-5.9352603 27:8.3200684 
-1.487109900751422 -1.098367556055228 1.250350838726833 1.383441413936792 1:3.5829773 2:-9.7160034 3:-7.1199951 4:1.9900208 5:10.398987 6:4.7099609 7:1.8299866 8:2.0949707 9:2.8200684 10:8.0150146 11:-26.927002 12:14.659912 13:27.977997 14:-175.70398 15:35.609985 16:2.3499756 17:-325.44119 18:-48.519897 19:-32.812988 20:-196.27579 21:6.75 22:113.436 23:1.4279938 24:-72 25:313.0062 26:7.9300003 27:-37.600098 
-0.9194015657412991 -0.6762787385022447 0.7684551344370443 0.8561559281689218 1:3.855011 2:-12.725006 3:-7.7600098 4:-1.3240051 5:-3.9230042 6:-7.5700684 7:-19.268997 8:-39.143997 9:-34.150024 10:-4.5600052 11:-305.41989 12:-97.949951 13:-0.21199799 14:-172.34509 15:-23.27002 16:118.658 17:65.378998 18:3.4100342 19:297.67099 20:79.672005 21:105.97998 22:114.05701 23:-9.385994 24:102.59998 25:0.55999756 26:0.1559906 27:1.4699707 
-1.413877030126111 -1.043699365421875 1.192333019348735 1.317145263232246 1:-0.83099365 2:1.1130066 3:11.380005 4:-2.2640076 5:-1.2480164 6:9.6099854 7:2.5720062 8:-10.108002 9:-1.289917 10:19.007996 11:-75.506989 12:-43.340088 13:14.018997 14:-301.64169 15:-113.94995 16:-43.985001 17:-235.58331 18:20.150024 19:84.778 20:31.121002 21:4.0100098 22:258.92401 23:55.415009 24:86.689941 25:143.39099 26:55.209 27:83.459961 
-0.9365972994811652 -0.51783356557877 0.3981787741504422 0.7897580348869423 1:-1.9180503 2:-8.8110962 3:-0.080993652 4:6.15658 5:-68.462997 6:1.1260376 7:16.916229 8:-74.479797 9:-8.1500244 10:5.5262995 11:-83.355103 12:-0.35699463 13:-0.77400017 14:-20.924004 15:0.59301758 16:4.2686005 17:-5.0119934 18:1.6099854 19:33.600098 20:2.7339935 21:4.0310059 22:50.867104 23:3.3150024 24:5.3560181 25:0.46399689 26:-3.2169952 27:3.401001 
-0 -0 0 0.01430771536316242 1:-2.3354702 2:-6.0749969 3:-1.276001 4:-1.0105696 5:-18.411804 6:3.6489868 7:-8.5368996 8:-99.562294 9:8.0430298 10:11.488739 11:-94.240906 12:-10.061035 13:7.8275681 14:-73.106995 15:-11.983948 16:10.344692 17:5.7259979 18:-3.0800171 19:15.8904 20:9.8699951 21:5.6029663 22:50.897995 23:3.0780029 24:16.830017 25:21.0877 26:-4.128006 27:11.697021 
-0 -0 0.3513923972788096 0.3355592190905862 1:1.0823002 2:-3.4349976 3:8.5610352 4:11.8256 5:-57.181404 6:-7.31604 7:3.3871002 8:-119.3922 9:-30.757996 10:-13.8992 11:-145.04541 12:-22.739014 13:6.3814011 14:-16.737991 15:2.7780151 16:41.524902 17:11.003006 18:18.572021 19:31.41 20:4.8269958 21:17.869995 22:11.5961 23:-5.197998 24:11.378967 25:0.47299957 26:0.60398865 27:-2.2509766 
-0.3288605535691065 -0.09621776222029491 -0.167072973803665 0.1524628120059476 1:42.156502 2:14.613007 3:-7.2099609 4:117.953 5:-3.4570007 6:-14.780029 7:107.429 8:-21.559998 9:-15.25 10:-80.910004 11:-60.631012 12:-20.440063 13:-155.91571 14:-118.369 15:-5.0599365 16:13.885399 17:-37.745102 18:-12.650024 19:177.31631 20:-7.2054977 21:-26.48999 22:59.717987 23:14.807198 24:0.61999512 25:-26.695984 26:-7.2649002 27:-7.4400635 
-1.215583205936283 -0.6015527684306399 -0.8369189320206689 0.9505321791020858 1:104.15499 2:3.8670044 3:-21.719971 4:114.72099 5:-19.237 6:-17.75 7:-102.87698 8:-70.432007 9:-10.699951 10:-99.811302 11:-71.787003 12:-2.2800293 13:-65.672699 14:-69.684502 15:0.61999512 16:38.161201 17:-18.841 18:-13.849976 19:105.1288 20:-3.4920006 21:-9.3200684 22:100.71201 23:-3.4321976 24:-13.419922 25:74.871979 26:1.3990974 27:-9.6201172 
-1.292574817940561 -0.8123589413311197 -0.7912458886476427 1.099238191998391 1:-39.384499 2:36.649002 3:12.799927 4:4.5409012 5:1.1759949 6:1.2200928 7:-0.057998657 8:-1.5690002 9:-0.57006836 10:10.377998 11:-1.6029968 12:-8.0799561 13:217.59361 14:-18.274002 15:-17.900024 16:-52.27002 17:-99.852997 18:-1.6799316 19:-157.5338 20:-164.8632 21:21.859985 22:187.47981 23:-6.0539017 24:-19.320068 25:30.882996 26:-21.329899 27:16.099976 
-1.004237700868198 -0.6567449783626136 -0.5678340321110248 0.8902181668231715 1:1.0499954 2:-0.92700195 3:1.8199463 4:77.259201 5:8.0109863 6:-21.209961 7:321.8428 8:-37.32901 9:-42.47998 10:-17.303009 11:-100.44199 12:-32.880005 13:-387.35999 14:-233.18759 15:-18.97998 16:-19.888 17:-65.485397 18:6.4599609 19:381.02301 20:-72.519997 21:-61.969971 22:89.119003 23:4.0769958 24:33.050049 25:-14.264008 26:-8.8010101 27:-1.1300049 
-1.059018698077518 -0.6950380891277396 -0.6016529208867266 0.9425619805548905 1:1.4400024 2:2.1389771 3:-5.1099854 4:165.7173 5:36.861023 6:-87.309937 7:350.5177 8:-63.531006 9:-19.050049 10:-134.70999 11:-85.380005 12:-45.709961 13:-358.41171 14:-234.7811 15:38.339966 16:-1.0023956 17:-70.593094 18:-11.76001 19:454.16809 20:-108.76081 21:-51.140015 22:71.117004 23:-36.503998 24:99.090088 25:-15.263 26:-3.2089996 27:-12.740112 
-0.9259345974115808 -0.626437324264828 -0.5471152111971963 0.8456194535482507 1:-2.2929993 2:-1.6420135 3:0.86999512 4:49.488998 5:11.609009 6:-7.0098877 7:176.74501 8:-8.9120026 9:78.219971 10:75.016998 11:-15.759995 12:88.909912 13:-101.05002 14:-154.44841 15:-142.62988 16:-203.64798 17:-254.3526 18:-139.28003 19:-7.7129974 20:-59.931 21:2.5899658 22:305.405 23:19.565002 24:108.08997 25:64.428009 26:-11.018005 27:68.619995 
-0 -0.01615569425230987 -0.02536878039691941 0.006387328988808497 1:-0.13800049 2:-0.58398438 3:-4.1900635 4:20.924988 5:-1.9790039 6:-13.339966 7:184.96001 8:-0.5039978 9:-3.4300537 10:64.506012 11:-27.373016 12:22.930054 13:-173.37601 14:-184.00899 15:-104.70996 16:-158.2486 17:-174.77921 18:-16.620117 19:171.0556 20:-8.6321011 21:26.240112 22:181.291 23:39.416061 24:93.719971 25:-14.449982 26:-4.2368989 27:-5.2000732 
-0.9508089235090675 -0.6269360994568453 -0.5431301558369943 0.8518013243444944 1:-2.3320007 2:-1.1820068 3:-3.4799805 4:125.25101 5:6.6700134 6:-11.619995 7:227.30298 8:-16.920013 9:65.969971 10:-62.139984 11:-65.010986 12:-47.02002 13:-250.263 14:-230.77721 15:-69.27002 16:-84.401405 17:-101.3742 18:16.690063 19:230.3324 20:-3.9673996 21:37.089966 22:172.457 23:90.538605 24:123.80005 25:-1.197998 26:-3.7770004 27:-2.9300537 
-0.6225686311807591 -0.1130204712644359 -0.09163285274787172 0.2427427776481458 1:1.1269989 2:-1.0509949 3:0.15002441 4:1.5419922 5:-1.3639984 6:0.14001465 7:91.80101 8:-7.7100067 9:-20.849976 10:138.44901 11:-71.448997 12:-26.27002 13:-65.304016 14:-22.133194 15:-5.9200439 16:-167.93098 17:-76.585304 18:-21.549927 19:14.000992 20:-40.162899 21:9.0100098 22:174.59799 23:-48.9538 24:-13.140015 25:0.90200806 26:5.4729004 27:8.7099609 
-1.107064337184377 -0.7274821195992132 -0.6462028976144839 0.9762760160400058 1:-2.7013016 2:-1.2376938 3:1.0300293 4:2.1696014 5:2.531395 6:-7.210083 7:102.8891 8:22.119499 9:-47.079956 10:227.09239 11:-56.831596 12:-65.839966 13:-223.42999 14:-144.2993 15:41.079956 16:21.617901 17:-61.112999 18:-16.109985 19:190.15611 20:-18.167007 21:-94.780029 22:30.130981 23:4.0630035 24:-2.8999023 25:-13.481995 26:-1.7030029 27:11.23999 
-1.236868777491135 -0.8003936281506112 -0.703173423633265 1.106031402284481 1:-0.8506012 2:-0.9427948 3:3.289917 4:77.231491 5:13.488701 6:-23.599976 7:204.17511 8:-13.065506 9:-90.98999 10:-182.2235 11:-156.3143 12:-33.619995 13:-131.23351 14:-151.72121 15:59.660034 16:234.81201 17:36.973999 18:-111.63 19:78.941994 20:11.421005 21:-4.0800781 22:11.966003 23:-4.6880035 24:9.8699951 25:0.1000061 26:3.553009 27:10.97998 
-1.215300550655668 -0.8024794837265943 -0.8344111337163521 1.115557297855212 1:149.867 2:-23.403992 3:30.690063 4:3.9809875 5:-25.173004 6:-3.5100098 7:-167.164 8:-159.5623 9:-66.320068 10:-109.37799 11:-185.5607 12:-42.01001 13:12.697998 14:-30.757004 15:-1.0799561 16:163.548 17:7.3200073 18:44.670044 19:134.07599 20:0.065994263 21:75.880005 22:-7.026001 23:7.1900024 24:-8.5300293 25:-41.867981 26:33.880997 27:21.939941 
-1.301957682120825 -0.8547699241602121 -0.7399065850339143 1.158542284283943 1:3.4570007 2:-2.4000015 3:2.5800781 4:-21.003998 5:37.536606 6:-1.7299805 7:-253.556 8:390.07141 9:-78.350098 10:99.230011 11:1.1940002 12:7.9300537 13:233.86499 14:-62.77002 15:66.030029 16:-223.974 17:-121.40099 18:-81.109985 19:-122.744 20:-279.802 21:-20.830078 22:260.16498 23:-15.968002 24:110.72998 25:39.52301 26:5.2310028 27:3.1900635 
-1.29842659053213 -0.8395218720157024 -0.7273538673987252 1.13877810521691 1:0.99200439 2:0.31900024 3:2.7800293 4:-8.3300018 5:17.134003 6:-18 7:-64.686295 8:223.54199 9:-112.97998 10:82.672302 11:68.693405 12:41.119995 13:173.38498 14:-45.1847 15:74.939941 16:-252.91978 17:-186.52371 18:-60.319946 19:56.770798 20:-45.362 21:-0.08996582 22:101.035 23:-28.304993 24:59.439941 25:-100.624 26:-26.690002 27:-0.55004883 
-1.304373785439825 -0.8557632554539828 -0.7405565473625203 1.160518747444629 1:-50.106895 2:211.88701 3:-87.430054 4:10.238998 5:82.816399 6:19.310059 7:227.76891 8:-17.668304 9:65.27002 10:-174.90901 11:-92.199104 12:-33.52002 13:-85.372696 14:-102.505 15:3 16:229.40771 17:-18.593994 18:52.640015 19:-81.02301 20:-67.080994 21:-40.830078 22:-239.82211 23:-239.72699 24:-61.72998 25:112.52551 26:-54.429016 27:124.48999 
-0.4856696050857479 -0.3302660608600473 -0.2573748782735819 0.4520386203302435 1:-0.64288998 2:-11.066002 3:-3.5400391 4:9.7045698 5:6.9598999 6:1.1800537 7:64.690598 8:7.7011032 9:6.7999268 10:213.12711 11:7.5395966 12:52.589966 13:-85.175018 14:-28.629097 15:-14.48999 16:-169.39279 17:-182.46698 18:-61.149902 19:5.2649994 20:-18.238007 21:-17.720093 22:188.19479 23:20.298981 24:58.950073 25:-2.2039948 26:-2.598999 27:-9.5700684 
-1.003184073885508 -0.65764395749682 -0.5693507181179061 0.8914887826900297 1:1.010242 2:3.6753998 3:-1.920166 4:-4.2326918 5:-0.94009972 6:-3.6599121 7:109.64417 8:-7.083601 9:123.5 10:68.860008 11:-58.746899 12:177.81006 13:-50.235008 14:-115.0412 15:-122.77002 16:-139.9939 17:-253.099 18:-263.79004 19:132.96291 20:-47.451996 21:115.54004 22:60.242996 23:-58.900024 24:222.76001 25:4.1860046 26:-2.4359741 27:-23.100098 
-1.084620842629679 -0.7112166073584078 -0.615712148841244 0.9645400080077043 1:-3.5060043 2:6.8347988 3:0.40991211 4:36.058502 5:-7.6829987 6:18.660034 7:210.46051 8:-10.553601 9:194.92993 10:74.781006 11:-98.2677 12:233.52002 13:-122.79821 14:-170.59378 15:-231.38989 16:-145.25461 17:-262.198 18:-198.3501 19:168.05981 20:-53.351013 21:168.23999 22:67.887993 23:-30.468018 24:234.31006 25:-7.7149963 26:-17.401978 27:-16.189941 
-0.5754768392443135 -0.3823175214086813 -0.3358101602798449 0.5175676036201303 1:-1.4073944 2:0.50500488 3:4.5300293 4:1.2093964 5:-1.1190033 6:2.0999756 7:90.262123 8:36.595993 9:-2.9799805 10:246.67938 11:-36.134003 12:0.32995605 13:-198.8325 14:-153.25369 15:-35.570068 16:-139.7644 17:-190.0173 18:43.220093 19:267.42389 20:10.257996 21:-83.780029 22:162.84702 23:-20.660995 24:65.579956 25:-23.810028 26:12.686996 27:-8.9899902 
-0.6675294082653487 -0.4443997775938763 -0.3861194522031798 0.6024346883391741 1:7.9290009 2:2.1230011 3:-2.3399658 4:6.2940979 5:5.2279968 6:2.0599365 7:154.5383 8:39.871002 9:7.7199707 10:173.79491 11:-52.825012 12:-10.27002 13:-201.354 14:-241.88559 15:-89.629883 16:-154.754 17:-178.0224 18:47.969971 19:317.14001 20:-70.881989 21:-37.180054 22:107.774 23:5.3539734 24:52.47998 25:-10.832001 26:12.126007 27:2.7900391 
-1.372781866680494 -0.9416538046093272 -0.7425219616004237 1.162377563943494 1:-3.1309967 2:4.5919952 3:-0.85998535 4:-1.8409882 5:-8.7870026 6:4.0300293 7:1.798996 8:2.428009 9:0.34997559 10:0.61599731 11:2.7319946 12:1.0600586 13:-21.781998 14:-3.095993 15:-19.540039 16:-131.22131 17:24.138 18:-64.410034 19:223.0603 20:113.65599 21:110.46997 22:-273.71899 23:27.27301 24:-124.73999 25:29.828003 26:-3.3600159 27:7.8400879 
-0.269823047707014 -0.008467601559927627 -0 0.08479672592872145 1:-0.27199554 2:-3.0849915 3:-3.0700684 4:4.4779968 5:1.8479919 6:-4.3299561 7:159.53799 8:25.742004 9:57.469971 10:64.484009 11:-13.277985 12:31.920044 13:-169.562 14:-117.40501 15:-70.949951 16:-106.94101 17:-94.524002 18:-28.210083 19:141.782 20:17.296997 21:23 22:87.886017 23:-8.0839996 24:45.720093 25:-24.410004 26:-7.519989 27:-10.290039 
-0.852172605417897 -0.560684081506499 -0.490391520745363 0.7534499089087432 1:-4.7870026 2:2.7959976 3:-4.3599854 4:-6.2610016 5:4.0690002 6:-5.5999756 7:-0.059005737 8:1.5999985 9:-6.1600342 10:63.408005 11:17.600006 12:29.98999 13:229.604 14:-18.370003 15:96.180054 16:-201.12001 17:-109.27213 18:-175.42004 19:-105.77299 20:-125.74887 21:-50.890015 22:273.87302 23:26.688805 24:119.08008 25:-19.017029 26:22.905396 27:29.819946 
-0.7520233155718563 -0.4606746114256629 -0.3930436741372458 0.6361004661227862 1:2.0730133 2:-0.0029907227 3:-3.2900391 4:0.5269928 5:-2.1439972 6:-0.58996582 7:3.2299957 8:-0.84300232 9:-4.25 10:121.782 11:38.820999 12:43.809937 13:208.91101 14:-44.518005 15:68.530029 16:-232.233 17:-127.8984 18:-146.83997 19:-74.531998 20:-76.550499 21:-31.02002 22:227.56599 23:9.1758995 24:61.109985 25:9.6600037 26:2.6575012 27:21.72998 
-0.8299223674480893 -0.3317273646232352 -0.4045328438661413 0.4915675419967254 1:-2.5829926 2:6.4069977 3:0.66003418 4:-2.7580109 5:-2.6129913 6:-1.4200439 7:63.022018 8:-1.5630035 9:9.9299316 10:100.72299 11:-15.735001 12:30.820068 13:-18 14:-22.746002 15:-24.170044 16:-167.48801 17:-111.7474 18:-80.72998 19:-64.296997 20:-71.718597 21:-22.130005 22:191.13699 23:30.649702 24:55.180054 25:77.817993 26:-17.524 27:54.26001 
-0.7513433102388184 -0.4829393881411843 -0.4431073658690395 0.6481378708916347 1:-4.8829956 2:-0.29800415 3:-5.2399902 4:14.126999 5:9.8179932 6:-7.5300293 7:134.16299 8:17.174011 9:19.350098 10:124.01001 11:-52.427002 12:7.6699219 13:-181.509 14:-172.095 15:-93.329956 16:-114.45201 17:-161.8515 18:-84.609985 19:308.64899 20:-88.955505 21:64.199951 22:45.760986 23:-4.4509888 24:45.849976 25:-15.019958 26:6.4279938 27:-14.529907 
-1.27408554053801 -0.8361463008269188 -0.7232908434738419 1.133768094116867 1:0.90699768 2:-2.2850037 3:-1.6599121 4:-2.0769958 5:1.1630249 6:-7.8400879 7:223.67499 8:31.875 9:29.220093 10:155.108 11:-43.646027 12:49.919922 13:-319.25101 14:-297.392 15:-133.69995 16:-152.07898 17:-206.202 18:-119.18005 19:555.56104 20:-88.627991 21:131.18005 22:52.234009 23:7.7309875 24:58.549927 25:-9.0859985 26:8.4550171 27:-8.4899902 
-1.299314776704802 -0.8402510558415347 -0.7406385423515711 1.137704068176971 1:1.973999 2:-6.7260132 3:-2.5600586 4:1.6199951 5:-4.4899902 6:-3.5400391 7:0.20300293 8:4.4199829 9:-2.0799561 10:27.531006 11:-0.68798828 12:-21.160034 13:191.64801 14:-66.989014 15:4.2800293 16:-195.996 17:-144.54298 18:-74.829956 19:329.79199 20:-130.97101 21:63.359985 22:14.197998 23:-15.50368 24:13.47998 25:-6.1519775 26:-3.0836401 27:-10.719971 
-0.4555647075282783 -0.3522726148307969 -0.3093608007956116 0.4749797031938829 1:-8.9979858 2:4.0754013 3:0.72998047 4:42.287994 5:8.6611977 6:-9.1899414 7:177.2972 8:-1.7838974 9:-14.5 10:80.885498 11:-51.174923 12:-7.1199951 13:-209.6657 14:-110.75798 15:-20.970093 16:-163.09299 17:-137.59 18:8.8100586 19:109.53198 20:44.623993 21:-64.930054 22:192.3242 23:41.117996 24:-76.889893 25:15.197899 26:-7.4179993 27:-4.7401123 
-1.04789307484748 -0.4266895081916061 -0.3003175076097893 0.5272476668703161 1:9.3190002 2:1.0159988 3:-3.1400146 4:55.814011 5:8.2970047 6:-13.140015 7:114.698 8:-23.097206 9:-26.540039 10:52.467403 11:-37.862297 12:-17.75 13:-48.9454 14:-47.2234 15:-21.049927 16:-130.58099 17:-111.6851 18:-23.599976 19:-74.222 20:-107.09 21:-5.3500977 22:101.13899 23:-4.7910004 24:-53.019897 25:110.6998 26:24.225006 27:-7.6700439 
-0.2158395823911599 -0.2167876204248142 -0.2242272515258548 0.3560843721251006 1:23.483002 2:8.0662003 3:-1.6899414 4:77.93399 5:-2.3214989 6:-17.200073 7:154.8456 8:-65.114029 9:-48.639893 10:55.129997 11:-103.09707 12:-47.300049 13:-129.4776 14:-114.43 15:-5.3900146 16:-18.018005 17:-34.73201 18:17.650024 19:127.9153 20:-18.643005 21:-15.690063 22:22.048399 23:-0.25 24:10.420044 25:-1.8472004 26:-7.7109985 27:9.7900391 
-0.7272733055834254 -0.3757524470544342 -0.3106433431466954 0.5176202679244253 1:6.6619873 2:5.5027404 3:2.5200195 4:47.334015 5:10.45683 6:-18.23999 7:155.3485 8:8.32864 9:-44.869995 10:13.412102 11:-44.874199 12:-8.5900879 13:-142.20959 14:-53.698395 15:13.070068 16:-102.94299 17:-76.594803 18:23.130005 19:216.332 20:55.891998 21:-72.77002 22:127.2101 23:-29.307999 24:6.6500244 25:-4.0911999 26:1.470993 27:11.679932 
