svm_type c_svc
kernel_type rbf
gamma 9.07293e-006
nr_class 5
total_sv 281
rho -0.210599 -0.365762 -0.262717 -0.186957 -0.0806918 -0.0576913 0.0224173 0.0433985 -0.0562485 0.188234
label 1 2 3 5 4
probA -4.88733 -5.09997 -5.09041 -4.69736 -5.13749 -4.78925 -5.0669 -4.8166 -5.06429 -4.80582
probB -0.31343 -0.290896 1.03712 -0.18116 0.0475258 -0.0143076 -0.0166603 -0.0383512 0.0571601 0.162218
nr_sv 94 21 27 84 55
SV
0 0 7.053552952555711 0 1:73.663712 2:13.322998 3:25.880127 4:256.69971 5:125.729 6:48.380005 7:197.60896 8:87.164993 9:75.410034 10:116.56281 11:36.024994 12:58.080078 
0 0 3.964077022098065 0 1:52.547897 2:14.017029 3:38.890137 4:283.22971 5:143.097 6:69.570068 7:248.1097 8:148.439 9:36.780029 10:93.151596 11:21.737015 12:25.23999 
0 0 9.513656920021768 0 1:106.8247 2:26.03801 3:22.499878 4:244.75238 5:126.18199 6:26.450073 7:156.33504 8:104.54102 9:14.120117 10:209.0625 11:58.440002 12:56.01001 
0 0 9.513656920021768 0 1:172.16032 2:45.172188 3:40.579956 4:235.65826 5:142.96732 6:41.209839 7:235.907 8:106.7156 9:34.009888 10:246.44308 11:72.183601 12:34.420044 
0 0 8.264503439806918 0 1:93.571014 2:46.779774 3:49.10022 4:178.43199 5:68.220581 6:67.390137 7:189.96002 8:89.033295 9:127.94006 10:239.97598 11:87.448059 12:83.380005 
0 0 9.513656920021768 0 1:73.663712 2:13.322998 3:25.880127 4:256.69971 5:125.729 6:48.380005 7:197.60896 8:87.164993 9:75.410034 10:116.56281 11:36.024994 12:58.080078 
0 0 9.513656920021768 0 1:52.547897 2:14.017029 3:38.890137 4:283.22971 5:143.097 6:69.570068 7:248.1097 8:148.439 9:36.780029 10:93.151596 11:21.737015 12:25.23999 
0 0 9.513656920021768 0 1:106.8247 2:26.03801 3:22.499878 4:244.75238 5:126.18199 6:26.450073 7:156.33504 8:104.54102 9:14.120117 10:209.0625 11:58.440002 12:56.01001 
0 0 9.513656920021768 0 1:172.16032 2:45.172188 3:40.579956 4:235.65826 5:142.96732 6:41.209839 7:235.907 8:106.7156 9:34.009888 10:246.44308 11:72.183601 12:34.420044 
0 0 4.082017964930311 0 1:60.451981 2:42.592789 3:23.52002 4:222.0224 5:115.29297 6:36.670044 7:343.73755 8:174.51491 9:126.75012 10:297.047 11:142.21513 12:89.939941 
0 0 9.513656920021768 0 1:93.571014 2:46.779774 3:49.10022 4:178.43199 5:68.220581 6:67.390137 7:189.96002 8:89.033295 9:127.94006 10:239.97598 11:87.448059 12:83.380005 
0 0 9.513656920021768 0 1:73.663712 2:13.322998 3:25.880127 4:256.69971 5:125.729 6:48.380005 7:197.60896 8:87.164993 9:75.410034 10:116.56281 11:36.024994 12:58.080078 
0 0 9.513656920021768 0 1:52.547897 2:14.017029 3:38.890137 4:283.22971 5:143.097 6:69.570068 7:248.1097 8:148.439 9:36.780029 10:93.151596 11:21.737015 12:25.23999 
0 0 9.513656920021768 0 1:106.8247 2:26.03801 3:22.499878 4:244.75238 5:126.18199 6:26.450073 7:156.33504 8:104.54102 9:14.120117 10:209.0625 11:58.440002 12:56.01001 
0 0 4.264455777163454 0 1:254.629 2:66.098198 3:43.73999 4:256.44098 5:169.09151 6:35.269897 7:246.66902 8:165.99191 9:93.150024 10:233.14548 11:88.555504 12:86.52002 
0 0 0 6.703085466242023 1:145.11859 2:95.184311 3:69.640015 4:290.47238 5:292.99509 6:90.689941 7:254.41412 8:291.13312 9:45.940063 10:148.4539 11:58.810493 12:87.949951 
0 0 6.626459324564759 0 1:79.298111 2:43.019905 3:25.969727 4:321.19385 5:85.7575 6:132.14001 7:376.51642 8:163.27609 9:170.66992 10:168.60699 11:51.623852 12:96.350098 
0 0 9.513656920021768 0 1:172.16032 2:45.172188 3:40.579956 4:235.65826 5:142.96732 6:41.209839 7:235.907 8:106.7156 9:34.009888 10:246.44308 11:72.183601 12:34.420044 
0 0 9.513656920021768 0 1:60.451981 2:42.592789 3:23.52002 4:222.0224 5:115.29297 6:36.670044 7:343.73755 8:174.51491 9:126.75012 10:297.047 11:142.21513 12:89.939941 
0 0 9.513656920021768 0 1:93.571014 2:46.779774 3:49.10022 4:178.43199 5:68.220581 6:67.390137 7:189.96002 8:89.033295 9:127.94006 10:239.97598 11:87.448059 12:83.380005 
0 0 2.951634483801593 0 1:243.91002 2:76.770302 3:52.623962 4:260.78702 5:35.234711 6:114.36694 7:200.19791 8:90.702591 9:68.267029 10:239.59848 11:70.790497 12:80.873962 
0 0 8.988733381267529 0 1:98.981995 2:24.189011 3:32.639893 4:247.60951 5:154.91899 6:32.560059 7:252.33372 8:100.05598 9:59.530029 10:122.9399 11:57.811005 12:45.009888 
0 0 9.513656920021768 0 1:73.663712 2:13.322998 3:25.880127 4:256.69971 5:125.729 6:48.380005 7:197.60896 8:87.164993 9:75.410034 10:116.56281 11:36.024994 12:58.080078 
0 0 9.513656920021768 0 1:52.547897 2:14.017029 3:38.890137 4:283.22971 5:143.097 6:69.570068 7:248.1097 8:148.439 9:36.780029 10:93.151596 11:21.737015 12:25.23999 
0 0 9.513656920021768 0 1:106.8247 2:26.03801 3:22.499878 4:244.75238 5:126.18199 6:26.450073 7:156.33504 8:104.54102 9:14.120117 10:209.0625 11:58.440002 12:56.01001 
0 0 2.44577082703824 0 1:72.689499 2:30.894989 3:23.740112 4:68.169289 5:31.638 6:13.790039 7:109.9942 8:42.30098 9:15.660156 10:20.220699 11:20.835007 12:23.009888 
0 0 5.511226249233745 0 1:88.055 2:33.285606 3:41.530029 4:129.106 5:29.485588 6:62.669922 7:111.18103 8:102.998 9:53.76001 10:270.42249 11:92.663986 12:146.97998 
0 0 9.513656920021768 0 1:254.629 2:66.098198 3:43.73999 4:256.44098 5:169.09151 6:35.269897 7:246.66902 8:165.99191 9:93.150024 10:233.14548 11:88.555504 12:86.52002 
0 0 0 9.513656920021768 1:145.11859 2:95.184311 3:69.640015 4:290.47238 5:292.99509 6:90.689941 7:254.41412 8:291.13312 9:45.940063 10:148.4539 11:58.810493 12:87.949951 
0 0 9.513656920021768 0 1:79.298111 2:43.019905 3:25.969727 4:321.19385 5:85.7575 6:132.14001 7:376.51642 8:163.27609 9:170.66992 10:168.60699 11:51.623852 12:96.350098 
0 0 9.513656920021768 0 1:172.16032 2:45.172188 3:40.579956 4:235.65826 5:142.96732 6:41.209839 7:235.907 8:106.7156 9:34.009888 10:246.44308 11:72.183601 12:34.420044 
0 0 6.242435215657042 0 1:218.76501 2:23.93103 3:14.002991 4:244.98289 5:51.943989 6:13.372131 7:230.35153 8:33.810921 9:27.522034 10:218.25708 11:22.64188 12:36.493042 
0.331317367424517 0.2844112292263223 0 0.2919802937658644 1:183.17682 2:58.380951 3:29.290039 4:407.5881 5:288.13202 6:87.939941 7:461.23706 8:177.66902 9:113.5199 10:670.66388 11:297.44269 12:145.32996 
0.5488859844450743 0.4191100904333565 0 0.5313862945374646 1:512.40796 2:194.70969 3:89.530273 4:516.06494 5:219.166 6:110.62988 7:255.07809 8:203.29233 9:65.089966 10:529.97888 11:202.22403 12:80.659912 
0.04034237132602822 0.2583737850283953 0 0.001789307502556828 1:466.15396 2:188.601 3:79.929688 4:155.2 5:177.5285 6:72.689575 7:339.84238 8:207.27971 9:69.229492 10:292.98361 11:72.200043 12:90.559937 
0.3299213151403323 0 0 0 1:472.59973 2:60.98201 3:50.610107 4:407.56573 5:25.830002 6:55.060181 7:362.45093 8:53.939598 9:61.240112 10:362.34216 11:39.75502 12:64.8302 
0.1118517464720219 0.1756583949308661 0 0.09383467401152197 1:424.259 2:92.878006 3:32.599731 4:454.63699 5:70.438995 6:37.120117 7:392.19 8:99.117004 9:37.099976 10:542.23901 11:133.16502 12:53.129883 
5.852389050300189 2.033187271257456 2.778013076878703 5.787769971908686 1:102.0509 2:116.24298 3:149.33911 4:90.291931 5:76.140015 6:63.830322 7:87.41095 8:65.833008 9:89.380371 10:95.951904 11:45.568054 12:84.379639 
0 0 9.513656920021768 3.584407967245046 1:60.451981 2:42.592789 3:23.52002 4:222.0224 5:115.29297 6:36.670044 7:343.73755 8:174.51491 9:126.75012 10:297.047 11:142.21513 12:89.939941 
0 0 7.909618110440806 0 1:93.571014 2:46.779774 3:49.10022 4:178.43199 5:68.220581 6:67.390137 7:189.96002 8:89.033295 9:127.94006 10:239.97598 11:87.448059 12:83.380005 
0.5374085908126651 0.4368556628938123 0 0.4098500450956643 1:40.882904 2:35.462158 3:19.960327 4:102.75702 5:48.957001 6:31.750366 7:588.677 8:137.125 9:85.650024 10:582.84106 11:174.38098 12:102.58997 
0 0 0 0.04892394450777583 1:203.976 2:76.414505 3:19.119873 4:244.22202 5:126.6613 6:29.319824 7:255.4548 8:103.09731 9:40.589722 10:252.7502 11:132.10193 12:38.169922 
0.2651143048648706 0.2050125552280873 0.4651643125089449 0 1:52.591396 2:67.386215 3:38.480103 4:575.76477 5:186.8804 6:165.78992 7:607.73389 8:244.63487 9:196.15991 10:439.01385 11:182.93451 12:171.48999 
0 0 4.965721579443238 0 1:267.36749 2:77.936089 3:71.600098 4:492.8035 5:212.60231 6:139.41003 7:454.32352 8:234.52112 9:176.05994 10:345.57037 11:126.29374 12:115.66968 
0.7892367988680192 0.6345036119975303 0.7371892760874192 0.8128289863092839 1:49.418091 2:65.128098 3:33.679688 4:747.52509 5:189.65396 6:296.21008 7:1386.9181 8:718.10413 9:507.34009 10:709.36993 11:318.26996 12:295.76001 
0.7894297062481229 0.6342931486436724 0.7369009824223876 0.8124046954443323 1:329.00497 2:272.64618 3:131.41003 4:1396.6069 5:718.09509 6:425.46008 7:1059.963 8:543.435 9:306.19019 10:805.22302 11:328.03397 12:197.10986 
2.407656024028854 2.985825516791907 0 0.01405669698783291 1:0 2:0 3:0 4:0 5:0 6:0 7:0 8:0 9:0 10:71.253899 11:62.76001 12:131.18005 
0 0 3.993876982181881 0 1:63.547012 2:76.139999 3:38.449951 4:343.77936 5:106.93604 6:149.73999 7:302.33514 8:146.18202 9:105.82983 10:349.78305 11:82.903015 12:146.88989 
0.8056378953529457 0.3972034593129696 0 0.06276274052947374 1:46.331108 2:40.652023 3:39.759888 4:398.76501 5:220.61697 6:292.30005 7:231.90294 8:57.701035 9:216.53992 10:159.71445 11:54.955994 12:127.14001 
0 0 4.063454301203001 0 1:159.06131 2:56.671951 3:122.08984 4:330.81491 5:223.48996 6:187.53015 7:202.87791 8:59.234009 9:163.63 10:95.957619 11:45.982971 12:84.109497 
0 0 1.339852811886841 0 1:15.908005 2:20.918388 3:15.429932 4:370.94321 5:150.25909 6:139.02991 7:553.50146 8:308.9584 9:112.55005 10:321.41669 11:179.30139 12:93.150146 
0.1020463720356518 0 0 0.7004410532393676 1:11.839283 2:12.516312 3:6.2103271 4:437.11743 5:201.02139 6:140.25989 7:618.20447 8:331.71649 9:141.71997 10:382.68713 11:220.89522 12:101.85999 
0 0.2021980002963863 0 0 1:18.534012 2:31.891968 3:14.760132 4:192.68002 5:91.102036 6:144.54993 7:436.38 8:145.267 9:277.51001 10:391.96399 11:147.43202 12:192.88989 
0 0 2.840372259729929 0 1:34.095093 2:46.523987 3:44.480103 4:395.24597 5:158.6041 6:202.44983 7:400.42294 8:140.48395 9:134.20996 10:157.59799 11:58.944 12:57.529785 
0.1875198643268181 0.05462332645363134 0 0 1:14.987976 2:16.957092 3:13.010132 4:349.56799 5:106.86341 6:87.899902 7:490.827 8:68.144989 9:199.58997 10:542.91602 11:82.848709 12:255.83997 
0 0 2.525554849605159 0 1:181.95001 2:40.254013 3:44.449951 4:183.59698 5:39.300003 6:52.970093 7:153.94504 8:33.563019 9:41.339966 10:245.569 11:46.723999 12:68.389893 
0 0 7.302577032406281 0 1:243.91002 2:76.770302 3:52.623962 4:260.78702 5:35.234711 6:114.36694 7:200.19791 8:90.702591 9:68.267029 10:239.59848 11:70.790497 12:80.873962 
0 0.4774019340920923 3.326224095173952 1.975935580756816 1:335.785 2:235.65959 3:80.922913 4:327.0748 5:262.49313 6:83.718994 7:270.05823 8:40.67408 9:97.770081 10:85.123993 11:17.27515 12:10.109985 
0 0 7.326079033529822 0 1:305.14001 2:76.730698 3:36.177002 4:298.629 5:87.034393 6:61.647949 7:220.1572 8:53.567696 9:47.823975 10:141.34599 11:49.5424 12:32.03595 
0 0 4.223778470593074 0.3005297683505354 1:261.6767 2:65.613998 3:71.580078 4:159.92403 5:126.04401 6:42.17981 7:315.18826 8:128.54599 9:146.38 10:13.364939 11:14.998016 12:11.430054 
0 0.1284980611781625 9.36570666408686 0 1:98.981995 2:24.189011 3:32.639893 4:247.60951 5:154.91899 6:32.560059 7:252.33372 8:100.05598 9:59.530029 10:122.9399 11:57.811005 12:45.009888 
0 0.3194590062021211 0 1.334746425176257 1:83.464905 2:38.0914 3:62.963989 4:203.93208 5:57.656197 6:80.959961 7:170.7498 8:26.814791 9:70.619995 10:319.32339 11:322.66095 12:132.05603 
0 0 9.167085723074409 0 1:73.663712 2:13.322998 3:25.880127 4:256.69971 5:125.729 6:48.380005 7:197.60896 8:87.164993 9:75.410034 10:116.56281 11:36.024994 12:58.080078 
0 0 9.513656920021768 8.215349697889081 1:52.547897 2:14.017029 3:38.890137 4:283.22971 5:143.097 6:69.570068 7:248.1097 8:148.439 9:36.780029 10:93.151596 11:21.737015 12:25.23999 
0 0 9.513656920021768 0 1:106.8247 2:26.03801 3:22.499878 4:244.75238 5:126.18199 6:26.450073 7:156.33504 8:104.54102 9:14.120117 10:209.0625 11:58.440002 12:56.01001 
0 1.902050221450595 9.513656920021768 0.4339904677133868 1:72.689499 2:30.894989 3:23.740112 4:68.169289 5:31.638 6:13.790039 7:109.9942 8:42.30098 9:15.660156 10:20.220699 11:20.835007 12:23.009888 
0 0 4.116651331410875 0.7290267888492077 1:223.5416 2:74.506012 3:65.27002 4:77.452942 5:70.738007 6:11.839844 7:211.09543 8:93.229996 9:61.880005 10:108.87641 11:59.001999 12:35.919922 
0 0.597199841369494 9.513656920021768 0.1274002551471639 1:88.055 2:33.285606 3:41.530029 4:129.106 5:29.485588 6:62.669922 7:111.18103 8:102.998 9:53.76001 10:270.42249 11:92.663986 12:146.97998 
0.2574486092472869 0.2584937799245831 0 0 1:492.01541 2:260.78601 3:205.15002 4:105.133 5:117.3485 6:71.160034 7:273.28082 8:53.867001 9:122.18994 10:127.7173 11:109.59711 12:37.830078 
0 0 9.513656920021768 0 1:254.629 2:66.098198 3:43.73999 4:256.44098 5:169.09151 6:35.269897 7:246.66902 8:165.99191 9:93.150024 10:233.14548 11:88.555504 12:86.52002 
0 0.03249007322550528 1.805884779117158 2.065870192864951 1:59.652702 2:15.643005 3:18.51001 4:359.17523 5:180.80598 6:37.75 7:106.21295 8:187.97202 9:38.22998 10:303.96832 11:98.52301 12:40.73999 
0 0.3745456532460962 0 0 1:192.99789 2:109.4369 3:130.73999 4:172.93202 5:109.49409 6:55.569946 7:292.25443 8:104.01649 9:178.33997 10:72.47348 11:127.96241 12:95.360046 
0 1.531008340782952 4.920692262855617 9.513656920021768 1:145.11859 2:95.184311 3:69.640015 4:290.47238 5:292.99509 6:90.689941 7:254.41412 8:291.13312 9:45.940063 10:148.4539 11:58.810493 12:87.949951 
0 0 0.3327822696307117 3.208414937110408 1:166.658 2:47.426197 3:9.1298828 4:273.62598 5:89.257347 6:30.220093 7:324.52521 8:230.02341 9:103.27014 10:52.033997 11:60.249008 12:46.449951 
0 0 8.083211995066586 0 1:183.27789 2:39.2015 3:28.539917 4:111.47501 5:58.291237 6:6.6101074 7:255.40981 8:57.978359 9:53.130005 10:64.06041 11:20.854502 12:22.710083 
0 0 9.513656920021768 0 1:79.298111 2:43.019905 3:25.969727 4:321.19385 5:85.7575 6:132.14001 7:376.51642 8:163.27609 9:170.66992 10:168.60699 11:51.623852 12:96.350098 
0 0 0 2.802911663257278 1:238.69751 2:91.026566 3:105.06006 4:306.80188 5:114.66174 6:129.66003 7:242.34889 8:122.5971 9:106.08997 10:31.640991 11:28.264904 12:26.560181 
0 0 0.1415865238705892 0 1:35.178402 2:28.053001 3:20.84021 4:275.46521 5:103.32079 6:131.23999 7:257.5524 8:74.512222 9:133.56995 10:91.510193 11:41.3876 12:49.860107 
0 0 2.445996924542453 0 1:45.752945 2:33.544395 3:22.4198 4:408.77695 5:217.8631 6:135.22998 7:457.58679 8:245.90967 9:42.339844 10:350.96143 11:100.8194 12:68.3302 
0 0 9.513656920021768 0 1:172.16032 2:45.172188 3:40.579956 4:235.65826 5:142.96732 6:41.209839 7:235.907 8:106.7156 9:34.009888 10:246.44308 11:72.183601 12:34.420044 
0.5757652224479835 0.482426692239177 0.9565463281848784 1.280961437922015 1:14.555023 2:20.288002 3:9.079834 4:247.79701 5:262.21698 6:240.1698 7:280.59488 8:231.63303 9:258.56995 10:405.45132 11:420.24399 12:199.10022 
0 0.821035564815418 0 1.395619469946523 1:73.90979 2:95.02803 3:41.90979 4:375.55551 5:307.72891 6:151.37 7:255.54169 8:246.82402 9:190.32007 10:320.14905 11:253.50101 12:171.95007 
0 2.248944099916647 1.707678502269529 0.474008726826589 1:11.317001 2:14.169098 3:4.3901367 4:129.20599 5:31.315403 6:31.869995 7:141.59309 8:55.152504 9:11.199829 10:277.90753 11:79.620758 12:41.140137 
0 0.2104029360606413 0 0 1:31.307022 2:15.647903 3:8.3897705 4:275.87546 5:86.944107 6:19.589966 7:346.31772 8:102.60461 9:31.5 10:23.422028 11:22.641487 12:12.610107 
0.1475876188056248 0.4479599488479382 1.39541973608906 0 1:45.981018 2:38.614998 3:4.0899658 4:349.04541 5:176.01291 6:24.380005 7:457.70978 8:141.48651 9:86.300049 10:28.912018 11:7.2120056 12:32.309937 
0 0 2.669350612463693 0 1:63.181 2:35.554001 3:7.9499512 4:246.0441 5:55.158604 6:5.7800293 7:131.49098 8:145.3846 9:24.460022 10:388.9668 11:90.4702 12:52.67804 
0 0 0.6611489368082889 4.80559340295398 1:66.45401 2:46.121895 3:3.8199463 4:211.72701 5:29.937996 6:9.4599609 7:101.5723 8:83.790695 9:22.359985 10:139.14249 11:45.7444 12:29.469971 
0 0 1.093291441920088 0 1:13.615021 2:10.803696 3:7.5800171 4:219.19492 5:40.634506 6:12.049988 7:159.0647 8:42.545395 9:30.340088 10:131.92696 11:26.041702 12:16.679932 
0.5896381682943206 0.3427056619455308 1.696452645492357 2.448323668341065 1:216.00699 2:108.62202 3:8.8498535 4:284.72632 5:199.73778 6:119.12616 7:547.84851 8:440.82407 9:102.72302 10:35.569 11:49.87809 12:26.731995 
0 0 0.9746005468660069 0 1:119.31396 2:36.618401 3:47.55896 4:495.22302 5:180.96178 6:55.585022 7:437.896 8:132.66029 9:94.447998 10:83.414993 11:36.798409 12:61.675964 
0.1152666479245361 0.1343989174040858 0 0 1:43.804001 2:20.652039 3:22.299805 4:511.71304 5:237.5 6:125.89001 7:591.31921 8:124.77701 9:58.100098 10:465.71173 11:209.40103 12:65.5 
0 0 8.328719724241521 0 1:218.76501 2:23.93103 3:14.002991 4:244.98289 5:51.943989 6:13.372131 7:230.35153 8:33.810921 9:27.522034 10:218.25708 11:22.64188 12:36.493042 
0.1609820895812731 0.04826369363471443 0 0 1:36.527893 2:31.380035 3:30.280029 4:446.9838 5:93.015015 6:147.98999 7:634.36426 8:168.06799 9:157.46008 10:259.11404 11:53.815002 12:147.01001 
0.7767341581573187 0.6239597264293698 0.7697237862564216 0.8028057727020513 1:592.88702 2:124.12302 3:152.11975 4:843.78308 5:260.25403 6:248.92004 7:759.02087 8:194.37097 9:246.36011 10:765.89587 11:260.40799 12:201.08008 
-0.6141033703515696 0.4603264111197889 0.5213867884442172 0.5233638508747593 1:48.150581 2:80.749504 3:332.72009 4:48.573212 5:224.93008 6:330.36023 7:64.674507 8:148.63248 9:420.22998 10:53.974091 11:296.34622 12:543.91016 
-0 0 0 0.1563284686834013 1:19.200958 2:17.964966 3:15.390137 4:68.875916 5:180.35797 6:405.52991 7:37.920044 8:134.104 9:248.20996 10:30.520996 11:59.809998 12:103.16003 
-0 0.1360855633361116 0.04206113570186209 0.3572069000097966 1:65.03302 2:171.06001 3:396.43005 4:26.156006 5:78.655975 6:192.3999 7:19.80896 8:110.77399 9:215.20007 10:12.919037 11:10.613007 12:15.72998 
-0.3242262934014422 0.2053938430442058 0.2452054830697006 0.2142526867832766 1:23.264534 2:33.288048 3:68.190063 4:109.545 5:130.77856 6:621.23193 7:68.575714 8:51.353302 9:416.62402 10:34.042793 11:116.5538 12:328.64014 
-0.5019603401123536 0.4657963549727875 0.3630925494881415 0.4847590553171872 1:18.360977 2:13.792023 3:19.679932 4:64.600037 5:177.56201 6:416.55994 7:24.071991 8:38.959 9:70.809814 10:58.575989 11:144.42297 12:451.61011 
-3.604972383657977 1.154681259475912 1.348315736359531 1.678334117235366 1:50.328995 2:98.261993 3:221.44995 4:52.408981 5:34.325012 6:79.660034 7:37.188004 8:71.302002 9:168.21997 10:36.029984 11:39.792999 12:21.499878 
-0.4836744799791221 0.4883683207251288 0.3834884630299458 0.4049339840463854 1:21.631203 2:22.041016 3:10.910034 4:11.076 5:32.35701 6:88.609741 7:44.538502 8:56.176041 9:505.46997 10:27.361795 11:48.74704 12:121.61975 
-1.210827779644457 0.9193754938303534 0.9428172064654358 1.022341864479804 1:241.4128 2:122.77921 3:113.08008 4:788.35077 5:406.97696 6:278.67957 7:99.461319 8:148.82758 9:54.569824 10:1212.3333 11:572.4325 12:380.13013 
-0 0 0.1271685686660839 0 1:85.793976 2:36.45401 3:221.63 4:65.920013 5:40.059967 6:289.62 7:22.692017 8:24.319977 9:50.450073 10:19.360992 11:17.468994 12:15.359741 
-0.5040224177198186 0.372540711538581 0.5070400454438339 0.4226695460423144 1:19.700012 2:20.147804 3:14.129761 4:112.96498 5:59.362305 6:420.0199 7:82.121017 8:63.999111 9:555.59998 10:44.181015 11:123.09734 12:527.53003 
-0.6552620552009578 0.4691727786177354 0.514138708169091 0.5598456096294355 1:15.832977 2:12.429977 3:57.029907 4:68.394012 5:88.096985 6:453.45996 7:86.196014 8:113.08688 9:530.43005 10:25.923996 11:14.41169 12:11.470093 
-1.150940551709454 0.8715605658307991 0.8946931955169378 0.9723178865491885 1:134.9976 2:77.837006 3:579.09204 4:66.353104 5:48.011993 6:94.579834 7:49.564907 8:40.937988 9:43.920166 10:112.36457 11:132.49702 12:718.80798 
-0 0 1.883936579950877 0 1:29.788603 2:30.841995 3:38.549927 4:82.033203 5:41.218018 6:184.02002 7:49.701469 8:16.695999 9:158.01001 10:69.613144 11:69.048004 12:98.420044 
-0 0 0.0182920737799508 0 1:116.55349 2:110.10101 3:221.12 4:74.4879 5:134.633 6:577.44897 7:79.121498 8:111.25299 9:394.625 10:76.815598 11:129.75098 12:354.8501 
-0.5241344694577383 0.4116385261730269 0.418684659759555 0.4520088215648241 1:82.806099 2:136.06299 3:302.98999 4:43.848026 5:83.526993 6:579.31598 7:67.786026 8:82.891006 9:468.07599 10:81.671684 11:119.01199 12:249 
-0 0 0 0.2561804360019019 1:29.322197 2:30.243011 3:93.330078 4:57.9431 5:50.254974 6:221.52991 7:12.716499 8:17.335022 9:56.640137 10:98.512817 11:104.81799 12:311.22998 
-0.4393051466850525 0.3383339302512994 0.3524756314557269 0.3725830711370183 1:34.225952 2:119.735 3:429.1001 4:59.524017 5:73.889 6:326.58008 7:53.312073 8:107.24529 9:469.58997 10:46.982956 11:96.854111 12:501.95996 
-0.4227380472303507 0.3336972594338862 0.3229681842572853 0.3647287306070404 1:24.563995 2:17.951187 3:14.030029 4:22.658051 5:48.483391 6:187.21008 7:28.275986 8:95.049217 9:414.62 10:49.027985 11:152.0755 12:533.63 
-0.5194408238374937 0.5345746608895785 1.080910222570187 0.5093182681294466 1:21.51799 2:21.789196 3:45.997009 4:69.652985 5:37.838806 6:165.07901 7:28.168015 8:15.051001 9:58.442047 10:44.673988 11:46.1143 12:184.25299 
-3.554383439918553 0.4172207635781962 0 0.8981796158562132 1:37.397003 2:51.260609 3:110.94098 4:45.112991 5:39.554302 6:142.43301 7:21.149994 8:16.710121 9:62.870026 10:44.537003 11:34.536102 12:159.76202 
-1.212188307198113 2.649869254416011 1.518881619196207 2.361774537823786 1:15.222305 2:15.525299 3:33.865051 4:157.63638 5:255.0972 6:172.18195 7:8.6909943 8:29.772301 9:87.122009 10:7.2469711 11:17.661011 12:58.470032 
-1.986728208262348 -0.1707494444834516 1.607200622015057 1.79684460371689 1:106.49675 2:163.86493 3:89.43042 4:181.90781 5:367.68823 6:92.140503 7:296.82901 8:111.35255 9:104.82007 10:292.90524 11:152.34012 12:137.51013 
-1.269397138888159 -1.039262402881807 0.9680647770538401 0.838602612340445 1:159.14751 2:443.5907 3:60.480225 4:79.155762 5:468.07843 6:60.490234 7:67.367897 8:117.59131 9:44.740112 10:716.87177 11:124.36488 12:147.33997 
-0 -0.08599929889994795 0 0 1:17.047501 2:22.485962 3:10.610352 4:29.303499 5:338.30249 6:18.040161 7:97.293594 8:59.329517 9:43.070068 10:408.11621 11:101.4579 12:119.04004 
-0.4529212017607148 -0.6359364664337326 0.340622982686447 0 1:14.808701 2:37.708008 3:33.210205 4:27.043995 5:572.86798 6:220.28992 7:235.51889 8:175.92998 9:78.960205 10:217.319 11:53.564987 12:175.37012 
-0 -0.4094077850422414 0 2.114089197915622 1:14.39798 2:27.914009 3:22.599976 4:57.345978 5:295.70801 6:106.59998 7:80.222015 8:241.175 9:39.149902 10:99.567963 11:52.729004 12:174.94995 
-1.940674890384346 -0.9555345633207909 1.650666198191026 1.666789080688166 1:106.38311 2:346.34174 3:105.64954 4:330.72647 5:124.59213 6:131.18982 7:281.85953 8:150.31516 9:119.25964 10:122.522 11:288.10486 12:98.359253 
-0.7759499868433267 -0.5663625847255311 0.6713014476497032 0.7661360172727335 1:20.952583 2:24.566025 3:26.700195 4:37.374916 5:181.11569 6:59.360107 7:234.8898 8:477.91629 9:152.04004 10:53.202003 11:34.562012 12:72.47998 
-0 -0 0.8883572315672417 0 1:18.168701 2:25.142014 3:17.309937 4:160.84659 5:396.392 6:48.010132 7:345.41998 8:58.538033 9:72.76001 10:45.828003 11:30.120026 12:27.8302 
-0.627008911667604 -0 1.459080259332389 3.53218188331154 1:13.341034 2:16.89299 3:10.409912 4:24.365997 5:106.48653 6:45.48999 7:268.32248 8:253.07449 9:122.23999 10:56.149918 11:82.266296 12:66.509888 
-0.4017341395310688 -0 0.6209560347807369 0 1:20.427002 2:21.69101 3:13.969971 4:16.36499 5:17.399002 6:15.849854 7:12.416016 8:173.83263 9:60.329956 10:353.21707 11:125.00516 12:95.859985 
-0.4512814270130362 -0.3250168610019391 0.5019262246393196 0.4096272225483268 1:11.028 2:18.28299 3:12.799561 4:38.951035 5:498.25397 6:150.83008 7:381.48199 8:206.12399 9:137.57996 10:68.387085 11:60.675995 12:49.900024 
-0 -0 1.009381497179691 0 1:24.276867 2:7.6926904 3:6.2398682 4:39.74263 5:117.14375 6:16.950012 7:64.786598 8:139.784 9:22.787964 10:175.9512 11:26.126984 12:65.139954 
-0 -0 0 2.072135644980979 1:6.9570007 2:23.150181 3:6.4199219 4:54.151001 5:186.76743 6:38.109985 7:98.97699 8:93.10701 9:59.529907 10:163.3925 11:59.848022 12:21.550049 
-0.8381558723630168 -0 0 0 1:14.104004 2:24.9 3:5.8897705 4:25.872009 5:141.83781 6:10.860107 7:61.182007 8:60.770004 9:51.949951 10:153.4369 11:25.899994 12:88.559937 
-0 -0 2.005630117160036 2.390877126656766 1:23.509109 2:23.386017 3:14.550049 4:74.995003 5:125.73321 6:13.589966 7:71.082977 8:173.8728 9:79.930054 10:199.99792 11:39.641998 12:57.920044 
-3.329769121929943 -0 0.8180766303496597 1.589743713818435 1:14.491596 2:19.255898 3:5.5200195 4:15.244099 5:74.6259 6:12.47998 7:17.819607 8:103.29321 9:16.589966 10:131.63669 11:78.487991 12:38.100098 
-1.708888007709386 -0.7361497675465988 0.2146343840677593 0.3589864267130736 1:5.4613953 2:11.664001 3:2.7099609 4:6.0539932 5:46.2612 6:20.02002 7:13.173996 8:114.0881 9:38.01001 10:217.332 11:162.2317 12:119.52002 
-0 -0 0 1.966878846654905 1:4.6096954 2:19.776497 3:9.5200195 4:39.515198 5:201.03061 6:84.5 7:144.3186 8:150.439 9:43.619995 10:77.283287 11:29.019012 12:44.839966 
-2.41238224481739 -1.39071414617661 4.812086074013878 3.566372574818419 1:7.4716949 2:54.937508 3:29.580078 4:148.2233 5:230.72749 6:33.27002 7:202.8856 8:21.901047 9:89.48999 10:14.376999 11:8.7050018 12:12.000122 
-0 -0 0 0.2003179869674634 1:10.792038 2:9.5639648 3:9.84021 4:45.727982 5:435.17102 6:161.17004 7:171.82587 8:189.71696 9:53.490112 10:229.61711 11:64.073013 12:63.120239 
-0 -0.2576648146084787 0 0 1:12.333969 2:16.046005 3:14.419922 4:29.442001 5:180.13269 6:98.599976 7:78.244995 8:115.7543 9:95.47998 10:174.49997 11:29.872009 12:46.969971 
-1.056916389931956 -0.7140878021372586 0.8248983619035258 1.244000114546949 1:117.9266 2:315.039 3:40.010132 4:23.792007 5:36.439987 6:20.310181 7:48.04599 8:244.79999 9:78.889893 10:209.08632 11:39.228996 12:24.809937 
-0 -0 0 2.012362989402194 1:26.5 2:106.23697 3:23.089478 4:52.671051 5:296.69 6:66.689941 7:240.87144 8:303.88339 9:120.08997 10:175.43851 11:55.875214 12:58.470093 
-0.9766373077987135 -0.8406315201171885 0.8454143374277346 0.8687775000851752 1:11.60498 2:22.313904 3:15.659912 4:25.395935 5:59.253113 6:32.9198 7:76.320038 8:578.21887 9:100.32007 10:460.90613 11:205.4028 12:141.8501 
-0.4984431354303581 -0.1817164461036935 0.3432966349374364 0.3600310976611949 1:10.780991 2:11.773041 3:21.560059 4:36.137009 5:305.8519 6:135.46008 7:133.23903 8:342.44806 9:87.559937 10:429.74701 11:120.89702 12:180.23999 
-0.9756122209281513 -0 0 0 1:16.19915 2:92.369507 3:6.085022 4:18.271851 5:155.69652 6:11.802917 7:19.115301 8:22.530991 9:6.5797729 10:80.668892 11:16.003998 12:11.381042 
-0 -1.919401793754132 0 0 1:10.847939 2:39.061508 3:27.085022 4:15.850683 5:216.1795 6:28.995056 7:23.12673 8:21.684021 9:11.641968 10:50.84531 11:15.593964 12:16.749023 
-9.513656920021768 -0 -0 0 1:194.6515 2:41.868011 3:31.390015 4:257.60101 5:148.91302 6:36.929932 7:234.16679 8:89.328995 9:36.150024 10:153.08498 11:57.341492 12:19.370239 
-9.513656920021768 -0 -0 0 1:27.314011 2:25.709015 3:10.550293 4:276.29102 5:96.952988 6:49.920288 7:236.468 8:113.74604 9:34.330078 10:157.04799 11:41.199867 12:22.369995 
-9.513656920021768 -0 -0 0 1:207.26102 2:44.941502 3:51.799927 4:225.96501 5:97.177994 6:44.090088 7:198.15503 8:80.501114 9:53.329956 10:233.0517 11:47.997005 12:71.530029 
-9.513656920021768 -0 -0 0 1:102.15581 2:37.264099 3:40.97998 4:213.09811 5:90.266296 6:81.260132 7:258.84021 8:137.63271 9:97.039978 10:244.96539 11:133.90399 12:78.080017 
-0 -0 -0 9.513656920021768 1:178.0802 2:63.73175 3:20.519897 4:282.07898 5:238.73631 6:45.560059 7:148.29498 8:189.24899 9:68.51001 10:85.853012 11:63.553986 12:18.719971 
-9.513656920021768 -0 -0 0 1:194.6515 2:41.868011 3:31.390015 4:257.60101 5:148.91302 6:36.929932 7:234.16679 8:89.328995 9:36.150024 10:153.08498 11:57.341492 12:19.370239 
-9.513656920021768 -0 -0 0 1:27.314011 2:25.709015 3:10.550293 4:276.29102 5:96.952988 6:49.920288 7:236.468 8:113.74604 9:34.330078 10:157.04799 11:41.199867 12:22.369995 
-9.513656920021768 -0 -0 0 1:207.26102 2:44.941502 3:51.799927 4:225.96501 5:97.177994 6:44.090088 7:198.15503 8:80.501114 9:53.329956 10:233.0517 11:47.997005 12:71.530029 
-6.348051760217704 -0 -0 0 1:101.26799 2:25.978676 3:50.859985 4:187.35799 5:163.63942 6:40.599976 7:208.756 8:45.694695 9:72.070068 10:24.245987 11:18.789993 12:14.209961 
-9.513656920021768 -0 -0 0 1:102.15581 2:37.264099 3:40.97998 4:213.09811 5:90.266296 6:81.260132 7:258.84021 8:137.63271 9:97.039978 10:244.96539 11:133.90399 12:78.080017 
-0 -0 -0 9.513656920021768 1:178.0802 2:63.73175 3:20.519897 4:282.07898 5:238.73631 6:45.560059 7:148.29498 8:189.24899 9:68.51001 10:85.853012 11:63.553986 12:18.719971 
-9.513656920021768 -0 -0 0 1:194.6515 2:41.868011 3:31.390015 4:257.60101 5:148.91302 6:36.929932 7:234.16679 8:89.328995 9:36.150024 10:153.08498 11:57.341492 12:19.370239 
-9.513656920021768 -0 -0 0 1:27.314011 2:25.709015 3:10.550293 4:276.29102 5:96.952988 6:49.920288 7:236.468 8:113.74604 9:34.330078 10:157.04799 11:41.199867 12:22.369995 
-9.513656920021768 -0 -0 0 1:207.26102 2:44.941502 3:51.799927 4:225.96501 5:97.177994 6:44.090088 7:198.15503 8:80.501114 9:53.329956 10:233.0517 11:47.997005 12:71.530029 
-9.513656920021768 -0 -0 0 1:101.26799 2:25.978676 3:50.859985 4:187.35799 5:163.63942 6:40.599976 7:208.756 8:45.694695 9:72.070068 10:24.245987 11:18.789993 12:14.209961 
-3.493507640409851 -0 -0 0 1:66.989296 2:19.855988 3:34.879883 4:91.219589 5:34.446213 6:73.290161 7:87.97271 8:46.657204 9:73.669922 10:154.7832 11:21.099701 12:90 
-9.513656920021768 -0 -0 0 1:102.15581 2:37.264099 3:40.97998 4:213.09811 5:90.266296 6:81.260132 7:258.84021 8:137.63271 9:97.039978 10:244.96539 11:133.90399 12:78.080017 
-0 -0 -0 9.513656920021768 1:178.0802 2:63.73175 3:20.519897 4:282.07898 5:238.73631 6:45.560059 7:148.29498 8:189.24899 9:68.51001 10:85.853012 11:63.553986 12:18.719971 
-3.426966139294111 -0 -0 0 1:89.450989 2:7.3857994 3:24.910034 4:246.5108 5:104.32 6:40.959839 7:185.927 8:137.73798 9:55.720093 10:280.31354 11:41.168976 12:128.52002 
-9.513656920021768 -0 -0 0 1:194.6515 2:41.868011 3:31.390015 4:257.60101 5:148.91302 6:36.929932 7:234.16679 8:89.328995 9:36.150024 10:153.08498 11:57.341492 12:19.370239 
-2.529705885279313 -0 -0 0 1:229.49696 2:55.390015 3:41.569824 4:238.4982 5:171.63901 6:27.910156 7:164.50159 8:74.227814 9:29.220093 10:197.32599 11:52.840199 12:29.880005 
-9.513656920021768 -0 -0 0 1:27.314011 2:25.709015 3:10.550293 4:276.29102 5:96.952988 6:49.920288 7:236.468 8:113.74604 9:34.330078 10:157.04799 11:41.199867 12:22.369995 
-7.220083794240656 -0 -0 0 1:20.925404 2:16.558998 3:16.509766 4:427.39941 5:148.24577 6:115.98999 7:403.69443 8:160.91551 9:191.64001 10:77.307922 11:22.702988 12:37.909912 
-0 -0 -0 0.6869477893322058 1:92.376953 2:21.807999 3:25.5 4:158.1918 5:74.765594 6:51.22998 7:88.61721 8:175.58951 9:18.609741 10:161.76578 11:55.011993 12:33.890015 
-3.578194097898223 -0 -0 0 1:78.629028 2:30.080799 3:19.5802 4:269.18399 5:156.31161 6:34.790039 7:238.73901 8:156.20702 9:71.259888 10:232.69232 11:23.244019 12:51.589966 
-9.513656920021768 -0 -0 0 1:207.26102 2:44.941502 3:51.799927 4:225.96501 5:97.177994 6:44.090088 7:198.15503 8:80.501114 9:53.329956 10:233.0517 11:47.997005 12:71.530029 
-9.513656920021768 -0 -0 3.830762521697503 1:101.26799 2:25.978676 3:50.859985 4:187.35799 5:163.63942 6:40.599976 7:208.756 8:45.694695 9:72.070068 10:24.245987 11:18.789993 12:14.209961 
-8.071548451130681 -0 -0 0 1:79.713394 2:23.757393 3:27.429932 4:257.44162 5:103.20079 6:104.37012 7:295.11902 8:192.1844 9:175.07098 10:178.1226 11:99.820038 12:99.311035 
-0 -0 -0 2.593121771456585 1:179.65341 2:15.566891 3:75.719849 4:151.144 5:189.49161 6:149.59998 7:168.69479 8:165.47203 9:82.210083 10:74.335022 11:63.592041 12:45.319824 
-2.251685026978398 -0 -0 0 1:212.985 2:71.821693 3:53.240112 4:240.203 5:113.81471 6:105.92004 7:214.34036 8:133.44028 9:102.71021 10:231.86543 11:33.388 12:102.55005 
-9.513656920021768 -0 -0 0 1:66.989296 2:19.855988 3:34.879883 4:91.219589 5:34.446213 6:73.290161 7:87.97271 8:46.657204 9:73.669922 10:154.7832 11:21.099701 12:90 
-9.513656920021768 -0 -0 0 1:102.15581 2:37.264099 3:40.97998 4:213.09811 5:90.266296 6:81.260132 7:258.84021 8:137.63271 9:97.039978 10:244.96539 11:133.90399 12:78.080017 
-0 -0 -0 9.513656920021768 1:178.0802 2:63.73175 3:20.519897 4:282.07898 5:238.73631 6:45.560059 7:148.29498 8:189.24899 9:68.51001 10:85.853012 11:63.553986 12:18.719971 
-9.513656920021768 -0 -0 0 1:89.450989 2:7.3857994 3:24.910034 4:246.5108 5:104.32 6:40.959839 7:185.927 8:137.73798 9:55.720093 10:280.31354 11:41.168976 12:128.52002 
-0.1202799535379282 -0 -0 0 1:111.91501 2:21.273003 3:16.057983 4:205.65561 5:101.81741 6:17.674011 7:169.812 8:122.13771 9:56.228088 10:214.3887 11:39.992897 12:55.758911 
-9.513656920021768 -0 -0 0 1:131.91699 2:30.671997 3:4.6799316 4:229.16159 5:116.0284 6:27.98999 7:214.24599 8:126.3638 9:26.120117 10:233.93993 11:73.005814 12:13.680054 
-5.273855678837375 -0 -0 0 1:71.03299 2:33.408005 3:5.6000977 4:222.961 5:98.000206 6:26.07019 7:141.71599 8:155.67349 9:16.709961 10:183.16029 11:36.626595 12:70.799927 
-9.513656920021768 -0 -0 0 1:194.6515 2:41.868011 3:31.390015 4:257.60101 5:148.91302 6:36.929932 7:234.16679 8:89.328995 9:36.150024 10:153.08498 11:57.341492 12:19.370239 
-9.513656920021768 -0 -0 0 1:229.49696 2:55.390015 3:41.569824 4:238.4982 5:171.63901 6:27.910156 7:164.50159 8:74.227814 9:29.220093 10:197.32599 11:52.840199 12:29.880005 
-0 -0 -0.3888263961450936 4.668652892528502 1:55.742004 2:59.244995 3:22.540161 4:104.27239 5:19.939011 6:28.970093 7:437.68262 8:255.69566 9:49.170044 10:247.12347 11:94.117348 12:55.089966 
-0 -0.578979359209586 -0.5076844449770491 0.9722137889332382 1:164.58302 2:23.955109 3:46.039917 4:696.57574 5:297.91751 6:140.76013 7:549.6333 8:223.59047 9:181.43982 10:170.27901 11:36.078979 12:52.900146 
-5.18226166551871 -0.1800501673518476 -0.1794504942719954 0 1:274.29401 2:51.309998 3:117.13 4:524.69202 5:213.24701 6:75.329834 7:542.8006 8:296.40198 9:200.79993 10:369.67032 11:93.432007 12:148.47009 
-0 -0.3956683932613479 -0.3159074399402792 0 1:128.05798 2:24.641006 3:31.72998 4:219.10202 5:68.735977 6:185.36987 7:349.14447 8:452.46509 9:267 10:435.6225 11:78.146027 12:196.80017 
-0.1053520911306231 -0 -0 0 1:194.03104 2:24.852966 3:22.349731 4:377.46704 5:166.04503 6:171.20996 7:326.78699 8:289.54431 9:62.380127 10:305.44 11:122.44509 12:163.15002 
-9.513656920021768 -0 -0 2.888641202021009 1:27.314011 2:25.709015 3:10.550293 4:276.29102 5:96.952988 6:49.920288 7:236.468 8:113.74604 9:34.330078 10:157.04799 11:41.199867 12:22.369995 
-9.417314030438737 -0 -0 0 1:20.925404 2:16.558998 3:16.509766 4:427.39941 5:148.24577 6:115.98999 7:403.69443 8:160.91551 9:191.64001 10:77.307922 11:22.702988 12:37.909912 
-2.447314588941499 -0 -0 0 1:184.12891 2:28.069099 3:66.790161 4:431.2775 5:293.15198 6:161.52991 7:341.17899 8:104.45998 9:142.65015 10:20.847015 11:18.292023 12:21.450195 
-0.8134514146886237 -0 -0.2305010802936467 0 1:230.86401 2:64.238007 3:76.770142 4:260.58398 5:361.22107 6:98.789795 7:272.60202 8:29.602982 9:98.109863 10:114.96002 11:63.039993 12:83.940063 
-0.5971220497092318 -0.3365914188762103 -0.293456456494765 0.9800871515708234 1:109.29599 2:188.94012 3:26.400269 4:529.69397 5:315.81488 6:146.56982 7:421.26093 8:425.31201 9:140.77991 10:325.79703 11:81.13298 12:142.1698 
-6.19668160798429 -0 -0.5918267468147016 2.914762355276543 1:30.319031 2:109.39001 3:69.179932 4:316.61258 5:257.10794 6:200.70007 7:371.62335 8:265.35507 9:85.520142 10:299.5238 11:64.78299 12:99.119995 
-3.39644555631923 -0.919648376995256 -1.43368434695022 0.8982351122657851 1:164.3452 2:305.08752 3:146.94019 4:457.47992 5:207.22832 6:94.799927 7:331.24948 8:63.870941 9:89.019653 10:418.60278 11:336.80402 12:243.04004 
-0 -0.7760566622626992 -0.3657927747080624 0.1240779351002489 1:44.404949 2:41.262806 3:58.40918 4:208.76559 5:127.61449 6:349.40015 7:248.17586 8:377.14029 9:403.95996 10:209.82895 11:120.05508 12:391.38013 
-0.681023181397855 -0.5492254295916498 -0.5722495657675046 0.9012918731318114 1:133.64923 2:28.581688 3:92.770142 4:276.02979 5:169.95061 6:462.16016 7:312.22058 8:419.75198 9:435.71973 10:159.82802 11:81.225952 12:381.33008 
-0 -0.0627578029649795 -0 0 1:12.154305 2:9.7489319 3:8.9398193 4:365.96301 5:114.82399 6:35.569824 7:377.29105 8:342.57806 9:108.0802 10:395.63495 11:115.98199 12:127.6897 
-0 -0 -0 0.365488413310618 1:41.205009 2:36.59198 3:17.48999 4:473.8287 5:243.88261 6:98.499756 7:532.90796 8:331.02838 9:108.27991 10:141.32201 11:27.496033 12:65.429932 
-3.636735080363263 -0.2565363625914374 -1.076902232888162 0.003126480609023285 1:21.828018 2:33.664001 3:18.700439 4:33.500992 5:27.637985 6:25.089478 7:387.73599 8:140.40099 9:189.09009 10:324.37402 11:49.539001 12:162.19995 
-1.843066097056535 -0.0294630969721894 -0 0 1:15.527985 2:10.324005 3:11.89978 4:193.53003 5:53.112 6:93.859863 7:451.24298 8:268.677 9:276.6001 10:375.71899 11:106.5918 12:160.32007 
-0.4320117727364896 -0.5969124261094005 -0.5405224352387436 0.5615304386619044 1:32.712982 2:21.950012 3:21.939819 4:496.68698 5:201.11903 6:128.05005 7:775.88892 8:445.58203 9:280.75 10:210.065 11:53.188049 12:157.75989 
-3.058450456179853 -0.4387454973950207 -0.6715394542347577 1.803846024071825 1:8.1730042 2:14.527039 3:7.4700928 4:222.224 5:66.765991 6:31.489868 7:536.33301 8:293.008 9:138.96997 10:41.937988 11:23.886377 12:46.26001 
-6.940228206743845 -0 -0 0 1:96.349014 2:26.205597 3:18.559937 4:296.20358 5:94.125008 6:31.480103 7:369.24438 8:243.05701 9:67.060303 10:255.11504 11:84.747025 12:112.2998 
-0 -0 -2.489003202468262 9.07708537598891 1:92.376953 2:21.807999 3:25.5 4:158.1918 5:74.765594 6:51.22998 7:88.61721 8:175.58951 9:18.609741 10:161.76578 11:55.011993 12:33.890015 
-1.318383019645263 -0 -0 0 1:149.34799 2:40.591187 3:65.699951 4:205.73502 5:115.39197 6:35.180054 7:228.12802 8:187.40002 9:57.289795 10:247.638 11:66.041992 12:85.330078 
-9.513656920021768 -0 -0 0 1:78.629028 2:30.080799 3:19.5802 4:269.18399 5:156.31161 6:34.790039 7:238.73901 8:156.20702 9:71.259888 10:232.69232 11:23.244019 12:51.589966 
-9.513656920021768 -0 -0 0 1:207.26102 2:44.941502 3:51.799927 4:225.96501 5:97.177994 6:44.090088 7:198.15503 8:80.501114 9:53.329956 10:233.0517 11:47.997005 12:71.530029 
-9.513656920021768 -0 -3.017983806857415 9.513656920021768 1:101.26799 2:25.978676 3:50.859985 4:187.35799 5:163.63942 6:40.599976 7:208.756 8:45.694695 9:72.070068 10:24.245987 11:18.789993 12:14.209961 
-9.513656920021768 -0 -0 0 1:79.713394 2:23.757393 3:27.429932 4:257.44162 5:103.20079 6:104.37012 7:295.11902 8:192.1844 9:175.07098 10:178.1226 11:99.820038 12:99.311035 
-0 -0 -0 9.480950294254859 1:179.65341 2:15.566891 3:75.719849 4:151.144 5:189.49161 6:149.59998 7:168.69479 8:165.47203 9:82.210083 10:74.335022 11:63.592041 12:45.319824 
-0 -0 -0.8225061729987366 2.001823009429354 1:178.821 2:39.291103 3:69.870117 4:130.834 5:107.8566 6:115.37 7:194.89508 8:332.17209 9:145.71008 10:240.30048 11:61.210999 12:147.29993 
-5.425066398252346 -0 -0 0 1:241.41298 2:63.462822 3:94.23999 4:308.8132 5:192.34619 6:214.32007 7:322.90381 8:207.18277 9:177.72986 10:155.22995 11:30.134003 12:133.20996 
-9.415713791820398 -0 -0 0 1:212.985 2:71.821693 3:53.240112 4:240.203 5:113.81471 6:105.92004 7:214.34036 8:133.44028 9:102.71021 10:231.86543 11:33.388 12:102.55005 
-9.513656920021768 -3.061532163770053 -2.827153771816443 0 1:66.989296 2:19.855988 3:34.879883 4:91.219589 5:34.446213 6:73.290161 7:87.97271 8:46.657204 9:73.669922 10:154.7832 11:21.099701 12:90 
-5.220961271094882 -0 -0 0 1:73.792694 2:24.470993 3:34.01001 4:139.28491 5:41.714005 6:79.380005 7:104.29935 8:65.339508 9:93.27002 10:136.02403 11:16.784897 12:88.630005 
-0 -2.037175862855058 -0 0 1:142.57681 2:18.556015 3:65.069946 4:179.97 5:105.076 6:135.52991 7:136.24701 8:55.877396 9:124.07019 10:48.099197 11:14.822998 12:39.51001 
-0 -0 -0 5.725167234873966 1:59.571999 2:10.444 3:25.809937 4:218.69901 5:104.9434 6:100.71997 7:286.14423 8:234.88861 9:161.65002 10:237.91995 11:153.347 12:143.68005 
-9.513656920021768 -0 -0 0 1:102.15581 2:37.264099 3:40.97998 4:213.09811 5:90.266296 6:81.260132 7:258.84021 8:137.63271 9:97.039978 10:244.96539 11:133.90399 12:78.080017 
-0 -0.5989426313826163 -3.032388712324001 1.955304933419478 1:104.23884 2:28.185181 3:35.619995 4:230.0208 5:336.66159 6:120.58997 7:243.46001 8:124.89697 9:128.33997 10:20.376892 11:32.307983 12:25.47998 
-5.930871780723956 -0 -0 9.513656920021768 1:178.0802 2:63.73175 3:20.519897 4:282.07898 5:238.73631 6:45.560059 7:148.29498 8:189.24899 9:68.51001 10:85.853012 11:63.553986 12:18.719971 
-9.513656920021768 -0 -0 0 1:89.450989 2:7.3857994 3:24.910034 4:246.5108 5:104.32 6:40.959839 7:185.927 8:137.73798 9:55.720093 10:280.31354 11:41.168976 12:128.52002 
-8.77840125871902 -0 -0 0 1:131.91699 2:30.671997 3:4.6799316 4:229.16159 5:116.0284 6:27.98999 7:214.24599 8:126.3638 9:26.120117 10:233.93993 11:73.005814 12:13.680054 
-9.513656920021768 -0 -0 4.359037578504174 1:71.03299 2:33.408005 3:5.6000977 4:222.961 5:98.000206 6:26.07019 7:141.71599 8:155.67349 9:16.709961 10:183.16029 11:36.626595 12:70.799927 
-0.2286897164407301 -0.03648936012949489 -0 0 1:196.82761 2:43.651001 3:163.07007 4:178.68996 5:258.9733 6:205.90002 7:318.72943 8:158.4278 9:178.15015 10:108.23003 11:54.747078 12:162.40002 
-3.34781448290468 -0.2683783911980506 -0 0.903980295387719 1:334.18903 2:59.372986 3:74.329956 4:464.87009 5:301.01532 6:187.13989 7:456.76593 8:197.48271 9:86.660156 10:198.46599 11:36.97197 12:100.18982 
-0.5337573262949189 -0.3624034484076719 -0.2242142797656426 0.01573514947847 1:18.534988 2:16.326965 3:12.499756 4:416.52405 5:83.408966 6:123.54993 7:604.45032 8:535.44397 9:162.38037 10:351.233 11:65.937988 12:146.53003 
-0.732494673417852 -0 -0 0 1:153.64511 2:34.930592 3:16.596008 4:179.78979 5:33.9916 6:17.70105 7:146.26199 8:108.4449 9:18.906982 10:165.09921 11:16.702694 12:8.8720093 
-0 -0 -0 -5.869421207595044 1:137.06497 2:51.266396 3:27.189941 4:235.74701 5:188.0463 6:47.260254 7:108.21996 8:79.073189 9:16.210083 10:17.703003 11:17.928993 12:10.800049 
-3.363360185762006 -0 -0 -2.597661498772931 1:217.76602 2:114.6013 3:48.809692 4:316.922 5:204.45158 6:86.480103 7:223.82599 8:224.47722 9:45.559937 10:55.802002 11:13.920454 12:9.4498291 
-0 -0 -0 -9.513656920021768 1:137.06497 2:51.266396 3:27.189941 4:235.74701 5:188.0463 6:47.260254 7:108.21996 8:79.073189 9:16.210083 10:17.703003 11:17.928993 12:10.800049 
-0.1431958223485554 -0 -0 -1.100733164620692 1:31.102936 2:67.009033 3:20.930054 4:223.33351 5:102.64078 6:55.701965 7:185.74596 8:152.13181 9:67.054016 10:124.07001 11:78.858002 12:18.660034 
-0 -0 -0 -4.136009824999158 1:166.145 2:118.89631 3:19.480225 4:283.61459 5:207.50673 6:49.53894 7:107.3084 8:253.63603 9:96.204956 10:117.08302 11:55.966995 12:62.020142 
-0 -0 -0 -6.946012334454293 1:165.254 2:35.174988 3:9.3199463 4:188.94859 5:244.7287 6:63.860107 7:167.653 8:203.29208 9:40.349976 10:161.00398 11:102.777 12:25.930176 
-3.897027879268013 -0 -0 -0 1:137.43474 2:65.603058 3:26.720093 4:195.28145 5:260.75677 6:31.329956 7:274.33154 8:247.74733 9:33.200073 10:233.3848 11:119.30698 12:50.130005 
-0 -0 -0 -0.03970595555012122 1:115.63037 2:29.134003 3:32.630005 4:408.67084 5:496.01697 6:107.23999 7:414.79663 8:536.67798 9:129.93982 10:236.26791 11:81.982941 12:94.490234 
-0.3535257490802365 -0 -0 -0.2278263084633605 1:143.3354 2:86.673996 3:29.339966 4:331.10599 5:432.11099 6:101.72009 7:281.70547 8:299.81091 9:123.28003 10:124.39269 11:156.69612 12:107.55005 
-0.651361481911791 -0.5275904190555658 -0.5721008776810972 -0.5335072846937602 1:151.82895 2:64.015076 3:77.189819 4:441.81693 5:766.76013 6:309.5199 7:600.78534 8:616.92609 9:108.28003 10:231.323 11:96.208038 12:43.009766 
-0 -0 -3.363275686718743 -0 1:21.22699 2:24.174973 3:9.1802979 4:121.662 5:254.84651 6:49.190063 7:203.20979 8:284.15912 9:45.500122 10:119.34599 11:115.9034 12:48.709839 
-0.1709604369086848 -0.3646477505588818 -0.2852652191753577 -3.322862311058621 1:179.14302 2:63.26503 3:20.839966 4:501.65347 5:340.13599 6:98 7:343.13068 8:305.8573 9:95.309937 10:38.636993 11:30.864227 12:24.690063 
-0 -0.3906088194001713 -0.3676555940552592 -0.02600320622377055 1:30.839966 2:28.973999 3:13.580078 4:490.93219 5:620.64307 6:179.34009 7:411.35397 8:579.349 9:85.519897 10:66.797028 11:34.573944 12:27.249878 
-0.3740093047961107 -0 -0 -0 1:40.109055 2:47.638 3:46.470215 4:320.30002 5:338.65738 6:125.46021 7:400.73999 8:432.2688 9:80.939941 10:135.63802 11:86.569092 12:134.44006 
-7.560550553677198 -0 -0 -0 1:52.285004 2:20.916077 3:30.840332 4:277.79498 5:359.29224 6:87.569946 7:306.36932 8:328.4324 9:59.930176 10:164.81601 11:77.055023 12:112.17017 
-0.8590303944027476 -0.6763355884398713 -0.7034322506510565 -0.5724034689475046 1:90.154785 2:83.786011 3:71.650513 4:382.17654 5:752.8457 6:369.27014 7:389.13171 8:754.75452 9:305.26001 10:232.90231 11:75.869102 12:223.82996 
-0.4027180940828699 -0.5107249319732407 -0.7082702617115634 -0.4351707189188919 1:145.78529 2:72.270187 3:138.83997 4:213.61551 5:513.67529 6:294.25012 7:214.43097 8:448.28934 9:315.71997 10:191.51669 11:214.55421 12:172.58057 
-0 -0 -0.08469417675079953 -0 1:114.14319 2:67.165985 3:45.879639 4:150.81989 5:318.95599 6:101.90002 7:280.91397 8:275.96527 9:90.120361 10:267.2756 11:158.41281 12:45.779907 
-1.533125059815786 -0.2517579250777247 -1.854337979461699 -5.683671187682803 1:8.3620148 2:8.8450089 3:4.8399658 4:113.222 5:63.552994 6:56.810059 7:382.91602 8:290.9256 9:134.12988 10:215.21503 11:144.19879 12:57.32019 
-0 -0 -0.07599155209012888 -0.4983540193721094 1:29.85199 2:125.30501 3:28.749878 4:270.22214 5:413.828 6:199.92004 7:413.8765 8:498.38104 9:204.47986 10:289.12881 11:106.25902 12:56.359985 
-0 -0.2712830654476219 -0.1887522124051166 -0.3530151854977524 1:51.296021 2:36.277008 3:23.670044 4:203.5872 5:334.83807 6:100.29004 7:495.44324 8:500.28192 9:166.77991 10:289.49362 11:152.98798 12:64.929932 
-7.386564830162252 -0 -0 -0 1:173.99698 2:73.633202 3:21.52002 4:339.73776 5:324.5014 6:97.780029 7:349.966 8:353.44272 9:91.630127 10:138.37 11:33.637306 12:29.900024 
-0.6682425243478249 -0 -0 -2.064113942416066 1:171.73119 2:30.849998 3:21.290039 4:179.6601 5:228.33301 6:37.329956 7:260.89954 8:127.08031 9:55.51001 10:272.10269 11:176.6767 12:22.609863 
-0 -0 -0.7156725643223431 -0 1:80.847794 2:48.693993 3:16.530029 4:94.087196 5:209.735 6:101.71997 7:292.92444 8:216.9624 9:95.599976 10:257.30328 11:168.85712 12:55.719971 
-4.324454132057993 -0 -0 -0.8627136123460309 1:47.9744 2:92.654297 3:44.299927 4:233.78668 5:180.6938 6:67.920044 7:165.57103 8:162.74228 9:116.71008 10:298.1821 11:144.95619 12:45.539917 
-0 -0 -0.5560952451226825 -0 1:82.285095 2:50.928501 3:35.020142 4:92.342148 5:222.19238 6:155.29993 7:266.76807 8:115.06499 9:82.529907 10:266.2854 11:242.43341 12:67.280151 
-0 -0 -0 -5.456873871141764 1:113.55139 2:19.422798 3:31.709961 4:118.0812 5:196.14868 6:128.28003 7:247.3448 8:175.52982 9:91.619995 10:100.418 11:43.601501 12:7.5397949 
-0 -0 -0 -0.700762560419006 1:6.5789795 2:5.9195023 3:5 4:205.474 5:75.339821 6:42.32019 7:196.97101 8:194.47792 9:57.690063 10:194.47299 11:234.49164 12:62.490112 
-9.513656920021768 -0 -0 -9.508534052405667 1:217.76602 2:114.6013 3:48.809692 4:316.922 5:204.45158 6:86.480103 7:223.82599 8:224.47722 9:45.559937 10:55.802002 11:13.920454 12:9.4498291 
-0 -0 -0.7223106591431939 -4.376810496329768 1:28.753937 2:42.698502 3:10.560059 4:205.5524 5:169.6709 6:45.880005 7:204.25497 8:198.57849 9:180.88 10:142.125 11:53.896397 12:34.030029 
-1.605050420285467 -0 -0 -0 1:115.944 2:68.641701 3:9.880127 4:269.55518 5:278.86023 6:165.52002 7:295.06601 8:259.21301 9:111.12988 10:287.96899 11:297.74988 12:78.359985 
-0 -0 -0.1264674572807311 -0 1:176.16841 2:47.230488 3:44.760132 4:232.68741 5:426.05521 6:69.999878 7:257.82098 8:307.79816 9:167.04004 10:219.04996 11:88.879211 12:37.510132 
-4.283589075225048 -0 -0 -6.192245444794239 1:114.39159 2:34.037598 3:44.079956 4:147.20209 5:184.29291 6:99.23999 7:237.7123 8:144.27139 9:51.334045 10:69.695999 11:111.0717 12:105.82001 
-0 -0.4776408397905172 -0 -0 1:85.525703 2:112.1748 3:63.450073 4:206.8027 5:216.1637 6:199.90906 7:76.07711 8:173.00299 9:126.33301 10:70.900681 11:35.615189 12:29.550049 
-2.61820153732966 -0 -0.1008924182888643 -0 1:169.3689 2:181.85239 3:99.289917 4:288.259 5:285.29361 6:265.99603 7:100.80601 8:384.00598 9:137.922 10:114.45822 11:50.998032 12:132.81012 
-0 -0 -0.2598260845804571 -0 1:40.704899 2:60.629684 3:44.690063 4:165.45209 5:259.15527 6:228.24493 7:101.99611 8:290.61597 9:70.13501 10:153.44391 11:105.19901 12:157.87799 
-0 -0.4528921356902115 -0 -1.146286277017923 1:118.97949 2:49.619308 3:43.25 4:187.69778 5:226.3631 6:196.97906 7:95.725914 8:206.284 9:117.039 10:32.432503 11:12.270996 12:19.360107 
-0 -0.5827947629270952 -0 -0 1:123.1489 2:165.55101 3:121.01001 4:202.17889 5:233.8286 6:187.65204 7:54.355988 8:175.7314 9:119.76398 10:36.958305 11:20.106995 12:22.170044 
-4.258880553395554 -2.302197975408614 -2.315581582174674 -0 1:56.330498 2:160.97659 3:124.27002 4:108.4817 5:54.559299 6:84.442017 7:26.036987 8:146.3367 9:36.223999 10:92.371201 11:73.167992 12:144.40796 
-0 -0.519002439860711 -0.1756789642760049 -0 1:54.374302 2:33.151001 3:40.130005 4:100.8917 5:241.31729 6:162.19202 7:130.9659 8:167.59399 9:72.322998 10:74.415596 11:107.65252 12:81.649048 
-0 -0 -0 -1.065683600005333 1:85.457932 2:29.743988 3:73.710083 4:152.74725 5:253.911 6:145.21991 7:161.37181 8:170.4355 9:126.71405 10:91.9123 11:116.73349 12:130.58398 
-0.949017875334816 -0.3936095260042671 -0.4879905543981067 -0.3342180358750466 1:249.0262 2:68.900009 3:28.139893 4:365.72363 5:561.75305 6:115.87988 7:207.8591 8:344.35669 9:31.639893 10:228.47992 11:282.81628 12:98.699951 
-0 -0.06812028849124549 -0.08345848184498504 -0 1:50.373032 2:22.19899 3:11.730347 4:354.79407 5:561.19507 6:101.81006 7:279.461 8:439.88382 9:45.049927 10:330.70703 11:226.24019 12:78.610107 
-2.029298846200987 -0.440154040833725 -0 -9.513656920021768 1:137.06497 2:51.266396 3:27.189941 4:235.74701 5:188.0463 6:47.260254 7:108.21996 8:79.073189 9:16.210083 10:17.703003 11:17.928993 12:10.800049 
-0 -0.2011447163074989 -0.3753527329777223 -0 1:26.560196 2:16.748001 3:15.029907 4:270.67419 5:439.43497 6:122.3501 7:421.63721 8:570.48901 9:272.46997 10:129.46301 11:71.998001 12:69.430054 
-9.513656920021768 -0 -0 -8.494667797957263 1:31.102936 2:67.009033 3:20.930054 4:223.33351 5:102.64078 6:55.701965 7:185.74596 8:152.13181 9:67.054016 10:124.07001 11:78.858002 12:18.660034 
-0 -0 -0 -9.513656920021768 1:166.145 2:118.89631 3:19.480225 4:283.61459 5:207.50673 6:49.53894 7:107.3084 8:253.63603 9:96.204956 10:117.08302 11:55.966995 12:62.020142 
-0 -0 -0 -9.513656920021768 1:165.254 2:35.174988 3:9.3199463 4:188.94859 5:244.7287 6:63.860107 7:167.653 8:203.29208 9:40.349976 10:161.00398 11:102.777 12:25.930176 
-2.084569275682788 -0 -0 -0 1:129.86249 2:91.646011 3:45.660034 4:236.01831 5:166.1564 6:73.140015 7:186.24702 8:205.7104 9:33.810059 10:121.02 11:37.816971 12:16.57959 
-0 -0 -0 -2.49128231352492 1:127.22701 2:39.998978 3:29.580078 4:254.89496 5:285.03833 6:113.70996 7:141.12259 8:257.48587 9:70.01001 10:127.929 11:56.490005 12:72.849976 
-1.061996714158895 -0.7842480275704035 -0.9129005168336822 -0.5859333776672793 1:260.03497 2:431.42398 3:163.58008 4:458.108 5:613.48486 6:164.3999 7:455.79556 8:434.66406 9:46.300171 10:126.67888 11:168.64799 12:37.539917 
-1.218875718115319 -0.9531980974210422 -1.07264628847482 -0.8100945697484114 1:48.417984 2:18.280991 3:11.769897 4:68.641998 5:34.347 6:29.080078 7:347.99759 8:563.51996 9:160.70996 10:642.67743 11:636.87103 12:307.90002 
-0.4594039287835945 -0.607673883970198 -0.5313388984527778 -0.3066058328485676 1:19.77095 2:14.167023 3:13.879761 4:270.7746 5:373.69296 6:133.35999 7:377.6402 8:537.453 9:78.659912 10:283.79019 11:470.54297 12:99.440063 
-0 -0 -6.372238805243315 -0 1:49.17448 2:40.139393 3:17.649902 4:130.3676 5:201.34619 6:85.518982 7:111.5947 8:192.5744 9:80.205017 10:96.264404 11:47.437904 12:17.037048 
-0 -1.23550221654254 -4.742527575984096 -0 1:73.735489 2:25.276505 3:15.575012 4:83.527405 5:131.76761 6:46.207031 7:149.60959 8:56.873398 9:33.499023 10:75.369698 11:127.55622 12:35.268982 
