svm_type one_class
kernel_type rbf
gamma 0.1
nr_class 2
total_sv 10
rho 0.555566
SV
0.5556640625 1:9.9774513 2:4.1617699 3:0.31744385 4:10.649151 5:0.50290108 6:-1.62854 7:9.832592 8:-1.5566406 9:-2.133606 10:7.5079994 11:0.12294769 12:-2.3319702 13:8.4635983 14:1.2971897 15:-2.3323975 16:6.941103 17:-1.0117702 18:-2.7115479 19:7.4993706 20:-0.12649155 21:-2.2327881 22:7.1045704 23:0.52905464 24:-2.8572998 25:6.2236567 26:0.98860168 27:-2.8085938 28:6.4807801 29:0.26473045 30:-2.3889771 31:5.3597984 32:-0.11997795 33:-1.7582397 34:7.5016613 35:-0.30091095 36:-1.6381836 37:6.043642 38:-1.0462818 39:-1.4744263 40:5.1682568 41:-2.1699677 42:-2.3966064 43:4.6991196 44:-0.69505119 45:-1.4266968 46:6.1117363 47:-0.22735214 48:-0.94158936 49:6.2178841 50:0.56267738 51:-0.67419434 52:3.7831879 53:-0.7713356 54:-1.0582275 55:4.3335953 56:-0.068742752 57:-0.74420166 
0.5546875 1:9.9774513 2:4.1617699 3:0.31744385 4:10.649151 5:0.50290108 6:-1.62854 7:9.832592 8:-1.5566406 9:-2.133606 10:7.5079994 11:0.12294769 12:-2.3319702 13:8.4635983 14:1.2971897 15:-2.3323975 16:6.941103 17:-1.0117702 18:-2.7115479 19:7.4993706 20:-0.12649155 21:-2.2327881 22:7.1045704 23:0.52905464 24:-2.8572998 25:6.2236567 26:0.98860168 27:-2.8085938 28:6.4807801 29:0.26473045 30:-2.3889771 31:5.3597984 32:-0.11997795 33:-1.7582397 34:7.5016613 35:-0.30091095 36:-1.6381836 37:6.043642 38:-1.0462818 39:-1.4744263 40:5.1682568 41:-2.1699677 42:-2.3966064 43:4.6991196 44:-0.69505119 45:-1.4266968 46:6.1117363 47:-0.22735214 48:-0.94158936 49:6.2178841 50:0.56267738 51:-0.67419434 52:3.7831879 53:-0.7713356 54:-1.0582275 55:4.3335953 56:-0.068742752 57:-0.74420166 58:-114.73596 59:27.443581 60:94.590332 61:28.092693 62:-6.8934932 63:-0.48632813 64:23.92775 65:-9.1966057 66:-0.8526001 67:18.59691 68:-9.971405 69:-0.69274902 70:14.988029 71:-7.2828026 72:-0.47351074 73:10.065172 74:-2.5177174 75:0.016052246 76:3.7597542 77:3.6212635 78:1.4213257 79:2.888649 80:5.3202496 81:1.5616455 82:1.6353073 83:-8.8610268 84:-1.940979 85:-2.0491447 86:-1.4519348 87:0.77191162 88:0.15604782 89:0.31254196 90:0.40905762 91:0.21311569 92:-0.51646042 93:1.2179565 
0.5 1:9.9774513 2:4.1617699 3:0.31744385 4:10.649151 5:0.50290108 6:-1.62854 7:9.832592 8:-1.5566406 9:-2.133606 10:7.5079994 11:0.12294769 12:-2.3319702 13:8.4635983 14:1.2971897 15:-2.3323975 16:6.941103 17:-1.0117702 18:-2.7115479 19:7.4993706 20:-0.12649155 21:-2.2327881 22:7.1045704 23:0.52905464 24:-2.8572998 25:6.2236567 26:0.98860168 27:-2.8085938 28:6.4807801 29:0.26473045 30:-2.3889771 31:5.3597984 32:-0.11997795 33:-1.7582397 34:7.5016613 35:-0.30091095 36:-1.6381836 37:6.043642 38:-1.0462818 39:-1.4744263 40:5.1682568 41:-2.1699677 42:-2.3966064 43:4.6991196 44:-0.69505119 45:-1.4266968 46:6.1117363 47:-0.22735214 48:-0.94158936 49:6.2178841 50:0.56267738 51:-0.67419434 52:3.7831879 53:-0.7713356 54:-1.0582275 55:4.3335953 56:-0.068742752 57:-0.74420166 58:-114.73596 59:27.443581 60:94.590332 61:28.092693 62:-6.8934932 63:-0.48632813 64:23.92775 65:-9.1966057 66:-0.8526001 67:18.59691 68:-9.971405 69:-0.69274902 70:14.988029 71:-7.2828026 72:-0.47351074 73:10.065172 74:-2.5177174 75:0.016052246 76:3.7597542 77:3.6212635 78:1.4213257 79:2.888649 80:5.3202496 81:1.5616455 82:1.6353073 83:-8.8610268 84:-1.940979 85:-2.0491447 86:-1.4519348 87:0.77191162 88:0.15604782 89:0.31254196 90:0.40905762 91:0.21311569 92:-0.51646042 93:1.2179565 94:-282.94852 95:97.865585 96:17.503723 97:11.389801 98:9.1405907 99:-1.4542847 100:15.820053 101:6.3740234 102:-1.7036133 103:16.233231 104:-1.6069412 105:-3.8261719 106:15.900101 107:-4.0894241 108:-5.5413208 109:14.580368 110:-2.3470764 111:-5.317749 112:11.705261 113:-0.066902161 114:-4.8930664 115:11.078262 116:0.6932373 117:-4.708374 118:10.581894 119:-0.29483032 120:-4.6964111 121:10.024338 122:0.94837189 123:-5.0756836 124:14.094803 125:-1.7673264 126:-4.3173828 127:11.969841 128:-2.0342636 129:-5.2938843 130:11.525826 131:-2.7444992 132:-4.501709 133:11.782089 134:-3.0008011 135:-3.8341064 136:9.9325562 137:-3.2833786 138:-4.4325562 139:10.885117 140:-4.165905 141:-2.6177368 142:9.2181396 143:-2.7363396 144:-3.1672363 145:7.7340279 146:-3.5490417 147:-2.7038574 148:8.4114056 149:-4.59412 150:-2.1796265 
0.0556640625 1:9.9774513 2:4.1617699 3:0.31744385 4:10.649151 5:0.50290108 6:-1.62854 7:9.832592 8:-1.5566406 9:-2.133606 10:7.5079994 11:0.12294769 12:-2.3319702 13:8.4635983 14:1.2971897 15:-2.3323975 16:6.941103 17:-1.0117702 18:-2.7115479 19:7.4993706 20:-0.12649155 21:-2.2327881 22:7.1045704 23:0.52905464 24:-2.8572998 25:6.2236567 26:0.98860168 27:-2.8085938 28:6.4807801 29:0.26473045 30:-2.3889771 31:5.3597984 32:-0.11997795 33:-1.7582397 34:7.5016613 35:-0.30091095 36:-1.6381836 37:6.043642 38:-1.0462818 39:-1.4744263 40:5.1682568 41:-2.1699677 42:-2.3966064 43:4.6991196 44:-0.69505119 45:-1.4266968 46:6.1117363 47:-0.22735214 48:-0.94158936 49:6.2178841 50:0.56267738 51:-0.67419434 52:3.7831879 53:-0.7713356 54:-1.0582275 55:4.3335953 56:-0.068742752 57:-0.74420166 58:-114.73596 59:27.443581 60:94.590332 61:28.092693 62:-6.8934932 63:-0.48632813 64:23.92775 65:-9.1966057 66:-0.8526001 67:18.59691 68:-9.971405 69:-0.69274902 70:14.988029 71:-7.2828026 72:-0.47351074 73:10.065172 74:-2.5177174 75:0.016052246 76:3.7597542 77:3.6212635 78:1.4213257 79:2.888649 80:5.3202496 81:1.5616455 82:1.6353073 83:-8.8610268 84:-1.940979 85:-2.0491447 86:-1.4519348 87:0.77191162 88:0.15604782 89:0.31254196 90:0.40905762 91:0.21311569 92:-0.51646042 93:1.2179565 94:-282.94852 95:97.865585 96:17.503723 97:11.389801 98:9.1405907 99:-1.4542847 100:15.820053 101:6.3740234 102:-1.7036133 103:16.233231 104:-1.6069412 105:-3.8261719 106:15.900101 107:-4.0894241 108:-5.5413208 109:14.580368 110:-2.3470764 111:-5.317749 112:11.705261 113:-0.066902161 114:-4.8930664 115:11.078262 116:0.6932373 117:-4.708374 118:10.581894 119:-0.29483032 120:-4.6964111 121:10.024338 122:0.94837189 123:-5.0756836 124:14.094803 125:-1.7673264 126:-4.3173828 127:11.969841 128:-2.0342636 129:-5.2938843 130:11.525826 131:-2.7444992 132:-4.501709 133:11.782089 134:-3.0008011 135:-3.8341064 136:9.9325562 137:-3.2833786 138:-4.4325562 139:10.885117 140:-4.165905 141:-2.6177368 142:9.2181396 143:-2.7363396 144:-3.1672363 145:7.7340279 146:-3.5490417 147:-2.7038574 148:8.4114056 149:-4.59412 150:-2.1796265 
0.5556640625 1:9.9774513 2:4.1617699 3:0.31744385 4:10.649151 5:0.50290108 6:-1.62854 7:9.832592 8:-1.5566406 9:-2.133606 10:7.5079994 11:0.12294769 12:-2.3319702 13:8.4635983 14:1.2971897 15:-2.3323975 16:6.941103 17:-1.0117702 18:-2.7115479 19:7.4993706 20:-0.12649155 21:-2.2327881 22:7.1045704 23:0.52905464 24:-2.8572998 25:6.2236567 26:0.98860168 27:-2.8085938 28:6.4807801 29:0.26473045 30:-2.3889771 31:5.3597984 32:-0.11997795 33:-1.7582397 34:7.5016613 35:-0.30091095 36:-1.6381836 37:6.043642 38:-1.0462818 39:-1.4744263 40:5.1682568 41:-2.1699677 42:-2.3966064 43:4.6991196 44:-0.69505119 45:-1.4266968 46:6.1117363 47:-0.22735214 48:-0.94158936 49:6.2178841 50:0.56267738 51:-0.67419434 52:3.7831879 53:-0.7713356 54:-1.0582275 55:4.3335953 56:-0.068742752 57:-0.74420166 58:-114.73596 59:27.443581 60:94.590332 61:28.092693 62:-6.8934932 63:-0.48632813 64:23.92775 65:-9.1966057 66:-0.8526001 67:18.59691 68:-9.971405 69:-0.69274902 70:14.988029 71:-7.2828026 72:-0.47351074 73:10.065172 74:-2.5177174 75:0.016052246 76:3.7597542 77:3.6212635 78:1.4213257 79:2.888649 80:5.3202496 81:1.5616455 82:1.6353073 83:-8.8610268 84:-1.940979 85:-2.0491447 86:-1.4519348 87:0.77191162 88:0.15604782 89:0.31254196 90:0.40905762 91:0.21311569 92:-0.51646042 93:1.2179565 94:-282.94852 95:97.865585 96:17.503723 97:11.389801 98:9.1405907 99:-1.4542847 100:15.820053 101:6.3740234 102:-1.7036133 103:16.233231 104:-1.6069412 105:-3.8261719 106:15.900101 107:-4.0894241 108:-5.5413208 109:14.580368 110:-2.3470764 111:-5.317749 112:11.705261 113:-0.066902161 114:-4.8930664 115:11.078262 116:0.6932373 117:-4.708374 118:10.581894 119:-0.29483032 120:-4.6964111 121:10.024338 122:0.94837189 123:-5.0756836 124:14.094803 125:-1.7673264 126:-4.3173828 127:11.969841 128:-2.0342636 129:-5.2938843 130:11.525826 131:-2.7444992 132:-4.501709 133:11.782089 134:-3.0008011 135:-3.8341064 136:9.9325562 137:-3.2833786 138:-4.4325562 139:10.885117 140:-4.165905 141:-2.6177368 142:9.2181396 143:-2.7363396 144:-3.1672363 145:7.7340279 146:-3.5490417 147:-2.7038574 148:8.4114056 149:-4.59412 150:-2.1796265 151:-210.33122 152:35.817921 153:-21.710938 154:-4.7752838 155:11.445236 156:2.2407837 157:-1.4078217 158:-1.4356689 159:0.61608887 160:-1.8141479 161:-2.468605 162:0.64208984 163:-1.2450562 164:-3.7338104 165:0.80249023 166:-1.8634033 167:-1.2945862 168:0.6338501 169:-1.7262573 170:0.085830688 171:1.3395386 172:-1.4051514 173:0.784729 174:0.777771 175:-0.4359436 176:0.19313049 177:0.39074707 178:-0.71356201 179:0.46965027 180:0.10089111 181:-0.36506653 182:0.20565796 183:0.1282959 184:-1.2945709 185:-0.60255432 186:-0.36413574 187:-0.81166077 188:-0.081596375 189:-0.042114258 190:0.48292542 191:0.73600006 192:-0.68127441 193:1.5531616 194:0.33342743 195:-0.61505127 196:3.2533264 197:1.9421082 198:-1.314209 199:3.3121185 200:2.521843 201:-1.3651733 202:5.8075409 203:2.9394684 204:-1.8479004 205:5.7090302 206:3.9629364 207:-2.375 208:7.0671539 209:2.3460541 210:-2.2785645 211:6.6086578 212:1.3353653 213:-2.4098511 214:3.9921265 215:1.6853485 216:-2.0691528 217:4.8301086 218:0.67093658 219:-1.1547852 220:3.4215546 221:1.3532257 222:-1.5126953 223:5.3975677 224:0.68061829 225:-2.4313965 226:4.2210693 227:1.3704147 228:-3.1592407 229:6.1800995 230:0.048217773 231:-3.8726196 232:6.7889404 233:1.0180435 234:-3.8861084 235:7.920578 236:-0.70537567 237:-3.854126 238:8.5996246 239:-0.27354431 240:-3.9807739 241:6.9921417 242:2.056282 243:-3.6920166 244:7.6155243 245:1.5129623 246:-3.6807251 247:7.8329773 248:2.128685 249:-4.1571045 250:8.8922729 251:-0.8766098 252:-3.6729736 253:7.6705246 254:1.2877579 255:-4.4718018 256:7.283577 257:0.84085083 258:-4.2376099 259:9.2951431 260:-1.3007278 261:-3.7225342 262:8.7465973 263:0.025291443 264:-3.8728638 265:8.6520386 266:1.3697662 267:-4.1831055 268:10.517807 269:2.1200027 270:-3.3317871 271:9.7357407 272:0.75846863 273:-4.1338501 274:10.700947 275:-0.4052887 276:-4.6647949 277:12.827888 278:-0.39907074 279:-4.3136597 280:10.198738 281:0.67572021 282:-4.4996338 283:11.341702 284:-0.92861176 285:-4.345459 286:10.038233 287:0.10931396 288:-3.9834595 289:11.271601 290:-1.4296112 291:-2.6141357 292:9.224824 293:-2.074585 294:-2.1789551 295:8.3929043 296:-1.1239319 297:-1.8213501 298:7.4765577 299:0.3560257 300:-2.1930542 301:7.0118427 302:0.28704834 303:-2.1525269 304:6.038826 305:0.24641418 306:-1.866272 307:7.1742172 308:0.28223419 309:-2.0331421 310:5.7249336 311:0.63547516 312:-2.6934204 313:8.4488449 314:-0.53874969 315:-0.97753906 316:6.9458122 317:-1.5656967 318:-1.5501709 319:8.2864227 320:0.1115799 321:-0.12713623 322:7.1622467 323:0.19097137 324:-0.51153564 325:8.5321884 326:0.4183197 327:0.24914551 328:8.9350204 329:-0.21098328 330:0.98675537 331:9.6376724 332:-0.51368713 333:1.2597656 334:8.6019821 335:1.1786957 336:0.78338623 337:9.1401825 338:1.7092133 339:1.7269897 340:7.8578796 341:-1.483284 342:1.6814575 343:9.3854218 344:0.42692566 345:3.0782471 346:11.64122 347:-1.2605057 348:3.7097168 349:8.9176788 350:-1.8246536 351:3.6621094 352:8.6174774 353:1.6482849 354:4.2821045 355:7.0933838 356:-0.3637619 357:4.8093872 358:7.5548706 359:-2.403595 360:5.5209351 361:8.018219 362:-5.4072495 363:5.7383423 364:6.6155701 365:-3.9922562 366:5.151123 367:6.7469025 368:-3.2849579 369:5.2645264 370:5.9318542 371:0.39842987 372:4.5962524 373:6.9183502 374:-1.3594055 375:4.9783325 376:6.0934753 377:-2.6194763 378:3.9764404 379:7.8101807 380:-1.7485809 381:5.0490112 382:6.0352478 383:-0.71817017 384:3.947876 385:6.9736938 386:-0.50646973 387:4.4782715 388:6.2774811 389:0.25611115 390:3.8338013 391:8.1100311 392:-0.15499878 393:4.2497559 394:6.1610107 395:-0.93190002 396:3.3869019 397:6.1564636 398:-3.0349045 399:3.3354492 400:7.8361206 401:-1.1862717 402:3.4089966 403:6.6671448 404:-0.0089492798 405:2.2770996 406:9.9998474 407:1.8119431 408:2.0339355 409:7.3587952 410:0.2286911 411:0.81848145 412:4.9639893 413:-1.8215027 414:0.49139404 415:7.7481079 416:1.3346405 417:0.067626953 418:5.2330933 419:-0.37735748 420:0.42095947 421:8.1053162 422:0.63201141 423:1.4293823 424:5.8811646 425:-0.17507172 426:1.0728149 427:6.1028442 428:-0.6211319 429:1.6535645 430:5.2282104 431:0.27763367 432:1.0831299 433:5.5961609 434:-0.67778015 435:2.6047363 436:3.6151733 437:-0.65013885 438:1.7373047 439:2.1211243 440:0.059661865 441:1.8095703 442:1.9914246 443:0.82300568 444:2.196228 445:3.4537659 446:-0.26719666 447:2.0198364 448:2.5203857 449:0.053413391 450:1.4043579 451:3.7877808 452:-0.4317627 453:0.58319092 454:2.9756165 455:1.7432404 456:0.25604248 457:3.5921021 458:1.401886 459:-0.28509521 460:4.37677 461:-0.32717133 462:0.96569824 463:4.1126709 464:1.4159622 465:0.29840088 466:4.0887756 467:1.944603 468:0.25073242 469:4.0637817 470:1.3818436 471:-0.16882324 472:4.9525452 473:0.32678986 474:0.14398193 475:3.0773621 476:-0.86515045 477:-0.45318604 
0.5556640625 1:9.9774513 2:4.1617699 3:0.31744385 4:10.649151 5:0.50290108 6:-1.62854 7:9.832592 8:-1.5566406 9:-2.133606 10:7.5079994 11:0.12294769 12:-2.3319702 13:8.4635983 14:1.2971897 15:-2.3323975 16:6.941103 17:-1.0117702 18:-2.7115479 19:7.4993706 20:-0.12649155 21:-2.2327881 22:7.1045704 23:0.52905464 24:-2.8572998 25:6.2236567 26:0.98860168 27:-2.8085938 28:6.4807801 29:0.26473045 30:-2.3889771 31:5.3597984 32:-0.11997795 33:-1.7582397 34:7.5016613 35:-0.30091095 36:-1.6381836 37:6.043642 38:-1.0462818 39:-1.4744263 40:5.1682568 41:-2.1699677 42:-2.3966064 43:4.6991196 44:-0.69505119 45:-1.4266968 46:6.1117363 47:-0.22735214 48:-0.94158936 49:6.2178841 50:0.56267738 51:-0.67419434 52:3.7831879 53:-0.7713356 54:-1.0582275 55:4.3335953 56:-0.068742752 57:-0.74420166 58:-114.73596 59:27.443581 60:94.590332 61:28.092693 62:-6.8934932 63:-0.48632813 64:23.92775 65:-9.1966057 66:-0.8526001 67:18.59691 68:-9.971405 69:-0.69274902 70:14.988029 71:-7.2828026 72:-0.47351074 73:10.065172 74:-2.5177174 75:0.016052246 76:3.7597542 77:3.6212635 78:1.4213257 79:2.888649 80:5.3202496 81:1.5616455 82:1.6353073 83:-8.8610268 84:-1.940979 85:-2.0491447 86:-1.4519348 87:0.77191162 88:0.15604782 89:0.31254196 90:0.40905762 91:0.21311569 92:-0.51646042 93:1.2179565 94:-282.94852 95:97.865585 96:17.503723 97:11.389801 98:9.1405907 99:-1.4542847 100:15.820053 101:6.3740234 102:-1.7036133 103:16.233231 104:-1.6069412 105:-3.8261719 106:15.900101 107:-4.0894241 108:-5.5413208 109:14.580368 110:-2.3470764 111:-5.317749 112:11.705261 113:-0.066902161 114:-4.8930664 115:11.078262 116:0.6932373 117:-4.708374 118:10.581894 119:-0.29483032 120:-4.6964111 121:10.024338 122:0.94837189 123:-5.0756836 124:14.094803 125:-1.7673264 126:-4.3173828 127:11.969841 128:-2.0342636 129:-5.2938843 130:11.525826 131:-2.7444992 132:-4.501709 133:11.782089 134:-3.0008011 135:-3.8341064 136:9.9325562 137:-3.2833786 138:-4.4325562 139:10.885117 140:-4.165905 141:-2.6177368 142:9.2181396 143:-2.7363396 144:-3.1672363 145:7.7340279 146:-3.5490417 147:-2.7038574 148:8.4114056 149:-4.59412 150:-2.1796265 151:-210.33122 152:35.817921 153:-21.710938 154:-4.7752838 155:11.445236 156:2.2407837 157:-1.4078217 158:-1.4356689 159:0.61608887 160:-1.8141479 161:-2.468605 162:0.64208984 163:-1.2450562 164:-3.7338104 165:0.80249023 166:-1.8634033 167:-1.2945862 168:0.6338501 169:-1.7262573 170:0.085830688 171:1.3395386 172:-1.4051514 173:0.784729 174:0.777771 175:-0.4359436 176:0.19313049 177:0.39074707 178:-0.71356201 179:0.46965027 180:0.10089111 181:-0.36506653 182:0.20565796 183:0.1282959 184:-1.2945709 185:-0.60255432 186:-0.36413574 187:-0.81166077 188:-0.081596375 189:-0.042114258 190:0.48292542 191:0.73600006 192:-0.68127441 193:1.5531616 194:0.33342743 195:-0.61505127 196:3.2533264 197:1.9421082 198:-1.314209 199:3.3121185 200:2.521843 201:-1.3651733 202:5.8075409 203:2.9394684 204:-1.8479004 205:5.7090302 206:3.9629364 207:-2.375 208:7.0671539 209:2.3460541 210:-2.2785645 211:6.6086578 212:1.3353653 213:-2.4098511 214:3.9921265 215:1.6853485 216:-2.0691528 217:4.8301086 218:0.67093658 219:-1.1547852 220:3.4215546 221:1.3532257 222:-1.5126953 223:5.3975677 224:0.68061829 225:-2.4313965 226:4.2210693 227:1.3704147 228:-3.1592407 229:6.1800995 230:0.048217773 231:-3.8726196 232:6.7889404 233:1.0180435 234:-3.8861084 235:7.920578 236:-0.70537567 237:-3.854126 238:8.5996246 239:-0.27354431 240:-3.9807739 241:6.9921417 242:2.056282 243:-3.6920166 244:7.6155243 245:1.5129623 246:-3.6807251 247:7.8329773 248:2.128685 249:-4.1571045 250:8.8922729 251:-0.8766098 252:-3.6729736 253:7.6705246 254:1.2877579 255:-4.4718018 256:7.283577 257:0.84085083 258:-4.2376099 259:9.2951431 260:-1.3007278 261:-3.7225342 262:8.7465973 263:0.025291443 264:-3.8728638 265:8.6520386 266:1.3697662 267:-4.1831055 268:10.517807 269:2.1200027 270:-3.3317871 271:9.7357407 272:0.75846863 273:-4.1338501 274:10.700947 275:-0.4052887 276:-4.6647949 277:12.827888 278:-0.39907074 279:-4.3136597 280:10.198738 281:0.67572021 282:-4.4996338 283:11.341702 284:-0.92861176 285:-4.345459 286:10.038233 287:0.10931396 288:-3.9834595 289:11.271601 290:-1.4296112 291:-2.6141357 292:9.224824 293:-2.074585 294:-2.1789551 295:8.3929043 296:-1.1239319 297:-1.8213501 298:7.4765577 299:0.3560257 300:-2.1930542 301:7.0118427 302:0.28704834 303:-2.1525269 304:6.038826 305:0.24641418 306:-1.866272 307:7.1742172 308:0.28223419 309:-2.0331421 310:5.7249336 311:0.63547516 312:-2.6934204 313:8.4488449 314:-0.53874969 315:-0.97753906 316:6.9458122 317:-1.5656967 318:-1.5501709 319:8.2864227 320:0.1115799 321:-0.12713623 322:7.1622467 323:0.19097137 324:-0.51153564 325:8.5321884 326:0.4183197 327:0.24914551 328:8.9350204 329:-0.21098328 330:0.98675537 331:9.6376724 332:-0.51368713 333:1.2597656 334:8.6019821 335:1.1786957 336:0.78338623 337:9.1401825 338:1.7092133 339:1.7269897 340:7.8578796 341:-1.483284 342:1.6814575 343:9.3854218 344:0.42692566 345:3.0782471 346:11.64122 347:-1.2605057 348:3.7097168 349:8.9176788 350:-1.8246536 351:3.6621094 352:8.6174774 353:1.6482849 354:4.2821045 355:7.0933838 356:-0.3637619 357:4.8093872 358:7.5548706 359:-2.403595 360:5.5209351 361:8.018219 362:-5.4072495 363:5.7383423 364:6.6155701 365:-3.9922562 366:5.151123 367:6.7469025 368:-3.2849579 369:5.2645264 370:5.9318542 371:0.39842987 372:4.5962524 373:6.9183502 374:-1.3594055 375:4.9783325 376:6.0934753 377:-2.6194763 378:3.9764404 379:7.8101807 380:-1.7485809 381:5.0490112 382:6.0352478 383:-0.71817017 384:3.947876 385:6.9736938 386:-0.50646973 387:4.4782715 388:6.2774811 389:0.25611115 390:3.8338013 391:8.1100311 392:-0.15499878 393:4.2497559 394:6.1610107 395:-0.93190002 396:3.3869019 397:6.1564636 398:-3.0349045 399:3.3354492 400:7.8361206 401:-1.1862717 402:3.4089966 403:6.6671448 404:-0.0089492798 405:2.2770996 406:9.9998474 407:1.8119431 408:2.0339355 409:7.3587952 410:0.2286911 411:0.81848145 412:4.9639893 413:-1.8215027 414:0.49139404 415:7.7481079 416:1.3346405 417:0.067626953 418:5.2330933 419:-0.37735748 420:0.42095947 421:8.1053162 422:0.63201141 423:1.4293823 424:5.8811646 425:-0.17507172 426:1.0728149 427:6.1028442 428:-0.6211319 429:1.6535645 430:5.2282104 431:0.27763367 432:1.0831299 433:5.5961609 434:-0.67778015 435:2.6047363 436:3.6151733 437:-0.65013885 438:1.7373047 439:2.1211243 440:0.059661865 441:1.8095703 442:1.9914246 443:0.82300568 444:2.196228 445:3.4537659 446:-0.26719666 447:2.0198364 448:2.5203857 449:0.053413391 450:1.4043579 451:3.7877808 452:-0.4317627 453:0.58319092 454:2.9756165 455:1.7432404 456:0.25604248 457:3.5921021 458:1.401886 459:-0.28509521 460:4.37677 461:-0.32717133 462:0.96569824 463:4.1126709 464:1.4159622 465:0.29840088 466:4.0887756 467:1.944603 468:0.25073242 469:4.0637817 470:1.3818436 471:-0.16882324 472:4.9525452 473:0.32678986 474:0.14398193 475:3.0773621 476:-0.86515045 477:-0.45318604 478:-684.12476 479:-39.006157 480:57.166382 481:1.6282349 482:7.5422859 483:0.7467041 484:1.645752 485:2.6494255 486:-0.21368408 487:0.31265259 488:-0.34145737 489:-0.46728516 490:1.2288513 491:1.5173416 492:0.23266602 493:1.1386414 494:0.82069016 495:-0.38751221 496:0.077606201 497:-0.22126007 498:-0.24890137 499:0.13140869 500:0.19623947 501:-0.33514404 502:-0.13534546 503:0.058826447 504:-0.063293457 505:0.96487427 506:-0.108284 507:-0.40228271 508:-0.76547241 509:0.079544067 510:0.26153564 511:-1.9185486 512:1.3512115 513:0.26287842 514:-0.41629028 515:-0.24293137 516:-0.36279297 517:0.20846558 518:0.089366913 519:-0.44604492 520:0.86062622 521:0.55197525 522:-0.26098633 523:0.49893188 524:-0.34955215 525:-0.34765625 526:0.5770874 527:0.055473328 528:0.022888184 529:3.0834656 530:-0.85931015 531:-0.49993896 532:1.3158875 533:0.25148773 534:-0.30487061 535:-0.46783447 536:1.5270576 537:-0.13946533 538:0.46347046 539:1.9998856 540:-0.32086182 541:0.75558472 542:1.4551163 543:-0.41473389 544:1.37323 545:0.41952515 546:-0.80358887 547:2.3857422 548:-1.4141388 549:-1.194519 550:2.2480774 551:1.4897766 552:-0.73272705 553:3.6045532 554:0.33335114 555:-1.3702393 556:3.5458984 557:1.7764969 558:-1.822937 559:5.7060242 560:1.2633972 561:-2.5953369 562:5.3486328 563:1.0408325 564:-1.9721069 565:3.409729 566:1.967659 567:-1.0229492 568:6.1579895 569:1.5439835 570:-1.8044434 571:6.4397736 572:-0.04473114 573:-1.3049927 574:5.8630829 575:1.7686157 576:-1.2819824 577:5.7156372 578:2.0895996 579:-0.95617676 580:6.6364136 581:2.2033691 582:-3.0723267 583:7.8249359 584:0.53501892 585:-2.8162842 586:7.7427826 587:1.8647919 588:-2.9475708 589:8.4807434 590:1.4542313 591:-2.7087402 592:11.422867 593:3.00737 594:-3.3894653 595:10.67749 596:2.3738785 597:-2.7070923 598:13.236191 599:0.73297119 600:-2.9460449 601:13.20311 602:1.2948074 603:-3.2608643 604:12.600632 605:2.2582474 606:-2.9594116 607:13.118256 608:2.5810928 609:-2.7032471 610:14.089287 611:2.3491135 612:-2.8961792 613:15.219131 614:3.0355072 615:-2.4238281 616:14.191246 617:1.4397812 618:-2.6490479 619:14.778687 620:0.70137787 621:-2.6021118 622:14.878635 623:0.10447693 624:-1.8577881 625:15.828602 626:0.16589355 627:-1.1740112 628:14.015173 629:1.9118729 630:-0.74987793 631:16.435076 632:1.3029938 633:0.48730469 634:16.434868 635:-0.032493591 636:0.71142578 637:17.200031 638:-1.1427002 639:1.4105225 640:18.559811 641:-2.4912338 642:2.2382202 643:16.286209 644:0.41033173 645:2.4220581 646:17.725967 647:-0.82371521 648:2.6890259 649:18.013588 650:-1.9820709 651:1.6273193 652:19.677246 653:-4.3915405 654:0.89147949 655:15.866898 656:-3.922142 657:0.74462891 658:17.535904 659:-1.9708023 660:1.546814 661:15.623856 662:-0.61721802 663:0.55334473 664:16.186432 665:-0.81494904 666:1.6533203 667:17.569 668:-2.5952301 669:1.6118164 670:16.278534 671:-2.6168747 672:0.79974365 673:14.547836 674:-3.2839432 675:1.5440674 676:12.83078 677:-0.61901855 678:1.7671509 679:14.381531 680:-0.41433716 681:2.0127563 682:14.851685 683:-1.7214813 684:3.1156616 685:13.567627 686:-1.199646 687:2.8339233 688:10.876984 689:-1.9529572 690:2.4189453 691:10.049133 692:-1.2466812 693:1.8668823 694:8.5942688 695:-1.2571335 696:1.1117554 697:7.0610962 698:-0.29983521 699:0.28259277 700:5.7987976 701:0.83560181 702:-0.10955811 703:7.0956726 704:-2.1785126 705:0.25964355 706:5.4359436 707:-2.4391327 708:-0.18994141 709:5.9303284 710:-0.81733704 711:0.023376465 712:7.7669373 713:-0.37988281 714:0.15930176 715:6.8143311 716:-0.44380951 717:0.77630615 718:4.1793518 719:-0.48369598 720:1.3141479 721:2.8285522 722:-0.42440033 723:1.9033813 724:5.3318176 725:-1.5382767 726:1.9925537 727:8.0220642 728:-2.8282051 729:2.0076904 730:6.8103333 731:-1.4234924 732:3.1184692 733:3.7730408 734:-2.5278206 735:4.0929565 736:4.6744995 737:-0.25074005 738:3.7319336 739:2.6325989 740:-0.308815 741:4.3964844 742:2.3714294 743:1.9386482 744:2.0945435 745:0.23898315 746:-1.3452759 747:1.8146362 748:0.74050903 749:-3.299881 750:1.8707886 751:-0.59719849 752:-1.3647461 753:2.1390991 754:1.6056519 755:1.1505699 756:1.6203003 757:-1.2758789 758:1.1608391 759:1.0603638 
0.5556640625 1:9.9774513 2:4.1617699 3:0.31744385 4:10.649151 5:0.50290108 6:-1.62854 7:9.832592 8:-1.5566406 9:-2.133606 10:7.5079994 11:0.12294769 12:-2.3319702 13:8.4635983 14:1.2971897 15:-2.3323975 16:6.941103 17:-1.0117702 18:-2.7115479 19:7.4993706 20:-0.12649155 21:-2.2327881 22:7.1045704 23:0.52905464 24:-2.8572998 25:6.2236567 26:0.98860168 27:-2.8085938 28:6.4807801 29:0.26473045 30:-2.3889771 31:5.3597984 32:-0.11997795 33:-1.7582397 34:7.5016613 35:-0.30091095 36:-1.6381836 37:6.043642 38:-1.0462818 39:-1.4744263 40:5.1682568 41:-2.1699677 42:-2.3966064 43:4.6991196 44:-0.69505119 45:-1.4266968 46:6.1117363 47:-0.22735214 48:-0.94158936 49:6.2178841 50:0.56267738 51:-0.67419434 52:3.7831879 53:-0.7713356 54:-1.0582275 55:4.3335953 56:-0.068742752 57:-0.74420166 58:-114.73596 59:27.443581 60:94.590332 61:28.092693 62:-6.8934932 63:-0.48632813 64:23.92775 65:-9.1966057 66:-0.8526001 67:18.59691 68:-9.971405 69:-0.69274902 70:14.988029 71:-7.2828026 72:-0.47351074 73:10.065172 74:-2.5177174 75:0.016052246 76:3.7597542 77:3.6212635 78:1.4213257 79:2.888649 80:5.3202496 81:1.5616455 82:1.6353073 83:-8.8610268 84:-1.940979 85:-2.0491447 86:-1.4519348 87:0.77191162 88:0.15604782 89:0.31254196 90:0.40905762 91:0.21311569 92:-0.51646042 93:1.2179565 94:-282.94852 95:97.865585 96:17.503723 97:11.389801 98:9.1405907 99:-1.4542847 100:15.820053 101:6.3740234 102:-1.7036133 103:16.233231 104:-1.6069412 105:-3.8261719 106:15.900101 107:-4.0894241 108:-5.5413208 109:14.580368 110:-2.3470764 111:-5.317749 112:11.705261 113:-0.066902161 114:-4.8930664 115:11.078262 116:0.6932373 117:-4.708374 118:10.581894 119:-0.29483032 120:-4.6964111 121:10.024338 122:0.94837189 123:-5.0756836 124:14.094803 125:-1.7673264 126:-4.3173828 127:11.969841 128:-2.0342636 129:-5.2938843 130:11.525826 131:-2.7444992 132:-4.501709 133:11.782089 134:-3.0008011 135:-3.8341064 136:9.9325562 137:-3.2833786 138:-4.4325562 139:10.885117 140:-4.165905 141:-2.6177368 142:9.2181396 143:-2.7363396 144:-3.1672363 145:7.7340279 146:-3.5490417 147:-2.7038574 148:8.4114056 149:-4.59412 150:-2.1796265 151:-210.33122 152:35.817921 153:-21.710938 154:-4.7752838 155:11.445236 156:2.2407837 157:-1.4078217 158:-1.4356689 159:0.61608887 160:-1.8141479 161:-2.468605 162:0.64208984 163:-1.2450562 164:-3.7338104 165:0.80249023 166:-1.8634033 167:-1.2945862 168:0.6338501 169:-1.7262573 170:0.085830688 171:1.3395386 172:-1.4051514 173:0.784729 174:0.777771 175:-0.4359436 176:0.19313049 177:0.39074707 178:-0.71356201 179:0.46965027 180:0.10089111 181:-0.36506653 182:0.20565796 183:0.1282959 184:-1.2945709 185:-0.60255432 186:-0.36413574 187:-0.81166077 188:-0.081596375 189:-0.042114258 190:0.48292542 191:0.73600006 192:-0.68127441 193:1.5531616 194:0.33342743 195:-0.61505127 196:3.2533264 197:1.9421082 198:-1.314209 199:3.3121185 200:2.521843 201:-1.3651733 202:5.8075409 203:2.9394684 204:-1.8479004 205:5.7090302 206:3.9629364 207:-2.375 208:7.0671539 209:2.3460541 210:-2.2785645 211:6.6086578 212:1.3353653 213:-2.4098511 214:3.9921265 215:1.6853485 216:-2.0691528 217:4.8301086 218:0.67093658 219:-1.1547852 220:3.4215546 221:1.3532257 222:-1.5126953 223:5.3975677 224:0.68061829 225:-2.4313965 226:4.2210693 227:1.3704147 228:-3.1592407 229:6.1800995 230:0.048217773 231:-3.8726196 232:6.7889404 233:1.0180435 234:-3.8861084 235:7.920578 236:-0.70537567 237:-3.854126 238:8.5996246 239:-0.27354431 240:-3.9807739 241:6.9921417 242:2.056282 243:-3.6920166 244:7.6155243 245:1.5129623 246:-3.6807251 247:7.8329773 248:2.128685 249:-4.1571045 250:8.8922729 251:-0.8766098 252:-3.6729736 253:7.6705246 254:1.2877579 255:-4.4718018 256:7.283577 257:0.84085083 258:-4.2376099 259:9.2951431 260:-1.3007278 261:-3.7225342 262:8.7465973 263:0.025291443 264:-3.8728638 265:8.6520386 266:1.3697662 267:-4.1831055 268:10.517807 269:2.1200027 270:-3.3317871 271:9.7357407 272:0.75846863 273:-4.1338501 274:10.700947 275:-0.4052887 276:-4.6647949 277:12.827888 278:-0.39907074 279:-4.3136597 280:10.198738 281:0.67572021 282:-4.4996338 283:11.341702 284:-0.92861176 285:-4.345459 286:10.038233 287:0.10931396 288:-3.9834595 289:11.271601 290:-1.4296112 291:-2.6141357 292:9.224824 293:-2.074585 294:-2.1789551 295:8.3929043 296:-1.1239319 297:-1.8213501 298:7.4765577 299:0.3560257 300:-2.1930542 301:7.0118427 302:0.28704834 303:-2.1525269 304:6.038826 305:0.24641418 306:-1.866272 307:7.1742172 308:0.28223419 309:-2.0331421 310:5.7249336 311:0.63547516 312:-2.6934204 313:8.4488449 314:-0.53874969 315:-0.97753906 316:6.9458122 317:-1.5656967 318:-1.5501709 319:8.2864227 320:0.1115799 321:-0.12713623 322:7.1622467 323:0.19097137 324:-0.51153564 325:8.5321884 326:0.4183197 327:0.24914551 328:8.9350204 329:-0.21098328 330:0.98675537 331:9.6376724 332:-0.51368713 333:1.2597656 334:8.6019821 335:1.1786957 336:0.78338623 337:9.1401825 338:1.7092133 339:1.7269897 340:7.8578796 341:-1.483284 342:1.6814575 343:9.3854218 344:0.42692566 345:3.0782471 346:11.64122 347:-1.2605057 348:3.7097168 349:8.9176788 350:-1.8246536 351:3.6621094 352:8.6174774 353:1.6482849 354:4.2821045 355:7.0933838 356:-0.3637619 357:4.8093872 358:7.5548706 359:-2.403595 360:5.5209351 361:8.018219 362:-5.4072495 363:5.7383423 364:6.6155701 365:-3.9922562 366:5.151123 367:6.7469025 368:-3.2849579 369:5.2645264 370:5.9318542 371:0.39842987 372:4.5962524 373:6.9183502 374:-1.3594055 375:4.9783325 376:6.0934753 377:-2.6194763 378:3.9764404 379:7.8101807 380:-1.7485809 381:5.0490112 382:6.0352478 383:-0.71817017 384:3.947876 385:6.9736938 386:-0.50646973 387:4.4782715 388:6.2774811 389:0.25611115 390:3.8338013 391:8.1100311 392:-0.15499878 393:4.2497559 394:6.1610107 395:-0.93190002 396:3.3869019 397:6.1564636 398:-3.0349045 399:3.3354492 400:7.8361206 401:-1.1862717 402:3.4089966 403:6.6671448 404:-0.0089492798 405:2.2770996 406:9.9998474 407:1.8119431 408:2.0339355 409:7.3587952 410:0.2286911 411:0.81848145 412:4.9639893 413:-1.8215027 414:0.49139404 415:7.7481079 416:1.3346405 417:0.067626953 418:5.2330933 419:-0.37735748 420:0.42095947 421:8.1053162 422:0.63201141 423:1.4293823 424:5.8811646 425:-0.17507172 426:1.0728149 427:6.1028442 428:-0.6211319 429:1.6535645 430:5.2282104 431:0.27763367 432:1.0831299 433:5.5961609 434:-0.67778015 435:2.6047363 436:3.6151733 437:-0.65013885 438:1.7373047 439:2.1211243 440:0.059661865 441:1.8095703 442:1.9914246 443:0.82300568 444:2.196228 445:3.4537659 446:-0.26719666 447:2.0198364 448:2.5203857 449:0.053413391 450:1.4043579 451:3.7877808 452:-0.4317627 453:0.58319092 454:2.9756165 455:1.7432404 456:0.25604248 457:3.5921021 458:1.401886 459:-0.28509521 460:4.37677 461:-0.32717133 462:0.96569824 463:4.1126709 464:1.4159622 465:0.29840088 466:4.0887756 467:1.944603 468:0.25073242 469:4.0637817 470:1.3818436 471:-0.16882324 472:4.9525452 473:0.32678986 474:0.14398193 475:3.0773621 476:-0.86515045 477:-0.45318604 478:-684.12476 479:-39.006157 480:57.166382 481:1.6282349 482:7.5422859 483:0.7467041 484:1.645752 485:2.6494255 486:-0.21368408 487:0.31265259 488:-0.34145737 489:-0.46728516 490:1.2288513 491:1.5173416 492:0.23266602 493:1.1386414 494:0.82069016 495:-0.38751221 496:0.077606201 497:-0.22126007 498:-0.24890137 499:0.13140869 500:0.19623947 501:-0.33514404 502:-0.13534546 503:0.058826447 504:-0.063293457 505:0.96487427 506:-0.108284 507:-0.40228271 508:-0.76547241 509:0.079544067 510:0.26153564 511:-1.9185486 512:1.3512115 513:0.26287842 514:-0.41629028 515:-0.24293137 516:-0.36279297 517:0.20846558 518:0.089366913 519:-0.44604492 520:0.86062622 521:0.55197525 522:-0.26098633 523:0.49893188 524:-0.34955215 525:-0.34765625 526:0.5770874 527:0.055473328 528:0.022888184 529:3.0834656 530:-0.85931015 531:-0.49993896 532:1.3158875 533:0.25148773 534:-0.30487061 535:-0.46783447 536:1.5270576 537:-0.13946533 538:0.46347046 539:1.9998856 540:-0.32086182 541:0.75558472 542:1.4551163 543:-0.41473389 544:1.37323 545:0.41952515 546:-0.80358887 547:2.3857422 548:-1.4141388 549:-1.194519 550:2.2480774 551:1.4897766 552:-0.73272705 553:3.6045532 554:0.33335114 555:-1.3702393 556:3.5458984 557:1.7764969 558:-1.822937 559:5.7060242 560:1.2633972 561:-2.5953369 562:5.3486328 563:1.0408325 564:-1.9721069 565:3.409729 566:1.967659 567:-1.0229492 568:6.1579895 569:1.5439835 570:-1.8044434 571:6.4397736 572:-0.04473114 573:-1.3049927 574:5.8630829 575:1.7686157 576:-1.2819824 577:5.7156372 578:2.0895996 579:-0.95617676 580:6.6364136 581:2.2033691 582:-3.0723267 583:7.8249359 584:0.53501892 585:-2.8162842 586:7.7427826 587:1.8647919 588:-2.9475708 589:8.4807434 590:1.4542313 591:-2.7087402 592:11.422867 593:3.00737 594:-3.3894653 595:10.67749 596:2.3738785 597:-2.7070923 598:13.236191 599:0.73297119 600:-2.9460449 601:13.20311 602:1.2948074 603:-3.2608643 604:12.600632 605:2.2582474 606:-2.9594116 607:13.118256 608:2.5810928 609:-2.7032471 610:14.089287 611:2.3491135 612:-2.8961792 613:15.219131 614:3.0355072 615:-2.4238281 616:14.191246 617:1.4397812 618:-2.6490479 619:14.778687 620:0.70137787 621:-2.6021118 622:14.878635 623:0.10447693 624:-1.8577881 625:15.828602 626:0.16589355 627:-1.1740112 628:14.015173 629:1.9118729 630:-0.74987793 631:16.435076 632:1.3029938 633:0.48730469 634:16.434868 635:-0.032493591 636:0.71142578 637:17.200031 638:-1.1427002 639:1.4105225 640:18.559811 641:-2.4912338 642:2.2382202 643:16.286209 644:0.41033173 645:2.4220581 646:17.725967 647:-0.82371521 648:2.6890259 649:18.013588 650:-1.9820709 651:1.6273193 652:19.677246 653:-4.3915405 654:0.89147949 655:15.866898 656:-3.922142 657:0.74462891 658:17.535904 659:-1.9708023 660:1.546814 661:15.623856 662:-0.61721802 663:0.55334473 664:16.186432 665:-0.81494904 666:1.6533203 667:17.569 668:-2.5952301 669:1.6118164 670:16.278534 671:-2.6168747 672:0.79974365 673:14.547836 674:-3.2839432 675:1.5440674 676:12.83078 677:-0.61901855 678:1.7671509 679:14.381531 680:-0.41433716 681:2.0127563 682:14.851685 683:-1.7214813 684:3.1156616 685:13.567627 686:-1.199646 687:2.8339233 688:10.876984 689:-1.9529572 690:2.4189453 691:10.049133 692:-1.2466812 693:1.8668823 694:8.5942688 695:-1.2571335 696:1.1117554 697:7.0610962 698:-0.29983521 699:0.28259277 700:5.7987976 701:0.83560181 702:-0.10955811 703:7.0956726 704:-2.1785126 705:0.25964355 706:5.4359436 707:-2.4391327 708:-0.18994141 709:5.9303284 710:-0.81733704 711:0.023376465 712:7.7669373 713:-0.37988281 714:0.15930176 715:6.8143311 716:-0.44380951 717:0.77630615 718:4.1793518 719:-0.48369598 720:1.3141479 721:2.8285522 722:-0.42440033 723:1.9033813 724:5.3318176 725:-1.5382767 726:1.9925537 727:8.0220642 728:-2.8282051 729:2.0076904 730:6.8103333 731:-1.4234924 732:3.1184692 733:3.7730408 734:-2.5278206 735:4.0929565 736:4.6744995 737:-0.25074005 738:3.7319336 739:2.6325989 740:-0.308815 741:4.3964844 742:2.3714294 743:1.9386482 744:2.0945435 745:0.23898315 746:-1.3452759 747:1.8146362 748:0.74050903 749:-3.299881 750:1.8707886 751:-0.59719849 752:-1.3647461 753:2.1390991 754:1.6056519 755:1.1505699 756:1.6203003 757:-1.2758789 758:1.1608391 759:1.0603638 760:-466.96042 761:51.301945 762:67.600647 763:-5.5060844 764:10.642181 765:4.8739624 766:3.0045166 767:-0.10425568 768:1.7931519 769:3.0003357 770:2.2801056 771:2.8612671 772:2.0163651 773:2.4813156 774:2.2979126 775:3.648159 776:2.3225632 777:1.8136597 778:3.7530708 779:-1.5694275 780:0.64538574 781:2.9304924 782:2.3892899 783:1.9498291 784:4.1564636 785:4.1968079 786:1.0422974 787:3.192234 788:2.8797913 789:0.246521 790:5.7677345 791:0.44316101 792:0.69598389 793:6.6358986 794:-2.5513916 795:-0.072814941 796:8.053895 797:-1.9527435 798:-0.534729 799:8.8247967 800:-2.8629913 801:-0.77850342 802:5.8391671 803:-1.1453552 804:-0.16241455 805:4.926404 806:0.54717255 807:-0.27667236 808:5.9728551 809:-1.2831802 810:-1.2371826 811:4.3584614 812:-1.137352 813:-0.95025635 814:6.4358644 815:0.70469666 816:0.14489746 817:6.5974789 818:-2.3207474 819:0.50506592 820:7.013504 821:-2.5677567 822:0.24554443 823:6.4531898 824:-1.0635986 825:1.1744995 826:5.9585152 827:-0.1158371 828:0.60119629 829:4.5835648 830:-0.15113068 831:0.96801758 832:4.8970528 833:-0.67892456 834:1.3110962 835:5.3450813 836:-0.48942566 837:1.3974609 838:3.5982933 839:-0.24143982 840:0.99304199 841:3.608429 842:-0.82982635 843:1.8244629 844:5.5306549 845:1.4873276 846:1.3532715 847:3.3064957 848:-2.2192917 849:0.58966064 850:4.4775009 851:-2.1636124 852:0.96081543 853:4.0511246 854:-1.3122253 855:0.89593506 856:3.2114258 857:0.52614594 858:0.9095459 859:5.5479507 860:-0.099601746 861:1.1584473 862:4.9704742 863:-1.8665543 864:2.2573242 865:5.2398834 866:-0.44355011 867:1.6932373 868:7.2353592 869:-0.7207489 870:1.1174316 871:5.7177277 872:1.7800369 873:1.383667 874:5.6027222 875:-2.4644547 876:1.2194824 877:7.1151276 878:-1.0582886 879:0.89550781 880:6.3422852 881:-1.509346 882:0.61962891 883:18.010178 884:-20.919441 885:-2.1668701 886:1.2085114 887:3.0248032 888:2.916748 889:4.6081543 890:2.9045258 891:2.963623 892:5.1573639 893:2.0282516 894:3.0449219 895:3.7978973 896:-1.8178711 897:1.7515869 898:6.3949585 899:-2.5272675 900:1.0167236 901:5.8665924 902:-2.4344788 903:1.7839355 904:4.3904572 905:-1.1923141 906:1.9976807 907:6.1955566 908:-0.82093811 909:2.0495605 910:2.6109619 911:-2.7436295 912:-0.62731934 913:4.5025177 914:0.45890045 915:-0.65490723 916:5.6036835 917:-1.2399063 918:-0.64660645 919:5.513382 920:-1.554245 921:-0.9473877 922:4.0460663 923:-4.2355881 924:-1.7147217 925:7.4992676 926:-1.8650894 927:0.0079345703 928:6.2536163 929:1.6087494 930:0.63122559 931:6.6754761 932:0.31747437 933:0.58825684 934:6.9708099 935:0.1027832 936:1.1643066 937:5.5842285 938:-0.96628571 939:1.3005371 940:6.3117065 941:-1.066864 942:1.732666 943:5.8903198 944:1.1276093 945:1.9525146 946:5.1524353 947:-0.3872757 948:1.5300293 949:5.9683533 950:0.12922668 951:1.12854 952:5.1225281 953:-2.6633606 954:1.7047119 955:5.0270691 956:-1.5474396 957:0.97875977 958:6.642395 959:1.5505295 960:2.4737549 961:5.5179443 962:1.5145721 963:1.7216797 964:4.7422791 965:1.527298 966:1.100708 967:4.0205383 968:-0.62437439 969:0.86181641 970:5.3336487 971:0.57417297 972:0.19799805 973:5.9161987 974:0.94819641 975:-0.028930664 976:5.29953 977:-1.6697464 978:-0.30529785 979:6.2667236 980:-1.4419403 981:-1.302124 982:5.665863 983:-1.6653748 984:-1.2139893 985:7.4785461 986:1.2407303 987:-2.8648682 988:7.5419617 989:1.319664 990:-2.0004883 991:10.08493 992:0.73122406 993:-2.4165039 994:7.6944275 995:2.0408478 996:-1.3239746 997:6.0141907 998:-0.071159363 999:-1.1445313 1000:5.4441528 1001:-1.0451965 1002:-2.4447021 1003:6.2281494 1004:-0.55440521 1005:-3.6864014 1006:4.4748535 1007:0.69211578 1008:-2.3375244 1009:3.2174988 1010:-0.66126251 1011:-2.4439697 1012:4.8408813 1013:-1.2321167 1014:-1.9034424 1015:8.3576355 1016:2.5290604 1017:-1.6481934 1018:5.0863342 1019:1.7341766 1020:-1.6791992 1021:5.9979248 1022:1.3645248 1023:-2.8016357 1024:6.1381226 1025:0.36915588 1026:-2.1925049 1027:5.6611633 1028:-0.28108978 1029:-2.8618164 1030:7.2147827 1031:0.55464172 1032:-2.972168 1033:6.0014038 1034:-1.388092 1035:-3.1572876 1036:4.2284851 1037:-3.2412262 1038:-2.9918823 1039:5.263916 1040:1.2339859 1041:-4.5586548 
0.5556640625 1:9.9774513 2:4.1617699 3:0.31744385 4:10.649151 5:0.50290108 6:-1.62854 7:9.832592 8:-1.5566406 9:-2.133606 10:7.5079994 11:0.12294769 12:-2.3319702 13:8.4635983 14:1.2971897 15:-2.3323975 16:6.941103 17:-1.0117702 18:-2.7115479 19:7.4993706 20:-0.12649155 21:-2.2327881 22:7.1045704 23:0.52905464 24:-2.8572998 25:6.2236567 26:0.98860168 27:-2.8085938 28:6.4807801 29:0.26473045 30:-2.3889771 31:5.3597984 32:-0.11997795 33:-1.7582397 34:7.5016613 35:-0.30091095 36:-1.6381836 37:6.043642 38:-1.0462818 39:-1.4744263 40:5.1682568 41:-2.1699677 42:-2.3966064 43:4.6991196 44:-0.69505119 45:-1.4266968 46:6.1117363 47:-0.22735214 48:-0.94158936 49:6.2178841 50:0.56267738 51:-0.67419434 52:3.7831879 53:-0.7713356 54:-1.0582275 55:4.3335953 56:-0.068742752 57:-0.74420166 58:-114.73596 59:27.443581 60:94.590332 61:28.092693 62:-6.8934932 63:-0.48632813 64:23.92775 65:-9.1966057 66:-0.8526001 67:18.59691 68:-9.971405 69:-0.69274902 70:14.988029 71:-7.2828026 72:-0.47351074 73:10.065172 74:-2.5177174 75:0.016052246 76:3.7597542 77:3.6212635 78:1.4213257 79:2.888649 80:5.3202496 81:1.5616455 82:1.6353073 83:-8.8610268 84:-1.940979 85:-2.0491447 86:-1.4519348 87:0.77191162 88:0.15604782 89:0.31254196 90:0.40905762 91:0.21311569 92:-0.51646042 93:1.2179565 94:-282.94852 95:97.865585 96:17.503723 97:11.389801 98:9.1405907 99:-1.4542847 100:15.820053 101:6.3740234 102:-1.7036133 103:16.233231 104:-1.6069412 105:-3.8261719 106:15.900101 107:-4.0894241 108:-5.5413208 109:14.580368 110:-2.3470764 111:-5.317749 112:11.705261 113:-0.066902161 114:-4.8930664 115:11.078262 116:0.6932373 117:-4.708374 118:10.581894 119:-0.29483032 120:-4.6964111 121:10.024338 122:0.94837189 123:-5.0756836 124:14.094803 125:-1.7673264 126:-4.3173828 127:11.969841 128:-2.0342636 129:-5.2938843 130:11.525826 131:-2.7444992 132:-4.501709 133:11.782089 134:-3.0008011 135:-3.8341064 136:9.9325562 137:-3.2833786 138:-4.4325562 139:10.885117 140:-4.165905 141:-2.6177368 142:9.2181396 143:-2.7363396 144:-3.1672363 145:7.7340279 146:-3.5490417 147:-2.7038574 148:8.4114056 149:-4.59412 150:-2.1796265 151:-210.33122 152:35.817921 153:-21.710938 154:-4.7752838 155:11.445236 156:2.2407837 157:-1.4078217 158:-1.4356689 159:0.61608887 160:-1.8141479 161:-2.468605 162:0.64208984 163:-1.2450562 164:-3.7338104 165:0.80249023 166:-1.8634033 167:-1.2945862 168:0.6338501 169:-1.7262573 170:0.085830688 171:1.3395386 172:-1.4051514 173:0.784729 174:0.777771 175:-0.4359436 176:0.19313049 177:0.39074707 178:-0.71356201 179:0.46965027 180:0.10089111 181:-0.36506653 182:0.20565796 183:0.1282959 184:-1.2945709 185:-0.60255432 186:-0.36413574 187:-0.81166077 188:-0.081596375 189:-0.042114258 190:0.48292542 191:0.73600006 192:-0.68127441 193:1.5531616 194:0.33342743 195:-0.61505127 196:3.2533264 197:1.9421082 198:-1.314209 199:3.3121185 200:2.521843 201:-1.3651733 202:5.8075409 203:2.9394684 204:-1.8479004 205:5.7090302 206:3.9629364 207:-2.375 208:7.0671539 209:2.3460541 210:-2.2785645 211:6.6086578 212:1.3353653 213:-2.4098511 214:3.9921265 215:1.6853485 216:-2.0691528 217:4.8301086 218:0.67093658 219:-1.1547852 220:3.4215546 221:1.3532257 222:-1.5126953 223:5.3975677 224:0.68061829 225:-2.4313965 226:4.2210693 227:1.3704147 228:-3.1592407 229:6.1800995 230:0.048217773 231:-3.8726196 232:6.7889404 233:1.0180435 234:-3.8861084 235:7.920578 236:-0.70537567 237:-3.854126 238:8.5996246 239:-0.27354431 240:-3.9807739 241:6.9921417 242:2.056282 243:-3.6920166 244:7.6155243 245:1.5129623 246:-3.6807251 247:7.8329773 248:2.128685 249:-4.1571045 250:8.8922729 251:-0.8766098 252:-3.6729736 253:7.6705246 254:1.2877579 255:-4.4718018 256:7.283577 257:0.84085083 258:-4.2376099 259:9.2951431 260:-1.3007278 261:-3.7225342 262:8.7465973 263:0.025291443 264:-3.8728638 265:8.6520386 266:1.3697662 267:-4.1831055 268:10.517807 269:2.1200027 270:-3.3317871 271:9.7357407 272:0.75846863 273:-4.1338501 274:10.700947 275:-0.4052887 276:-4.6647949 277:12.827888 278:-0.39907074 279:-4.3136597 280:10.198738 281:0.67572021 282:-4.4996338 283:11.341702 284:-0.92861176 285:-4.345459 286:10.038233 287:0.10931396 288:-3.9834595 289:11.271601 290:-1.4296112 291:-2.6141357 292:9.224824 293:-2.074585 294:-2.1789551 295:8.3929043 296:-1.1239319 297:-1.8213501 298:7.4765577 299:0.3560257 300:-2.1930542 301:7.0118427 302:0.28704834 303:-2.1525269 304:6.038826 305:0.24641418 306:-1.866272 307:7.1742172 308:0.28223419 309:-2.0331421 310:5.7249336 311:0.63547516 312:-2.6934204 313:8.4488449 314:-0.53874969 315:-0.97753906 316:6.9458122 317:-1.5656967 318:-1.5501709 319:8.2864227 320:0.1115799 321:-0.12713623 322:7.1622467 323:0.19097137 324:-0.51153564 325:8.5321884 326:0.4183197 327:0.24914551 328:8.9350204 329:-0.21098328 330:0.98675537 331:9.6376724 332:-0.51368713 333:1.2597656 334:8.6019821 335:1.1786957 336:0.78338623 337:9.1401825 338:1.7092133 339:1.7269897 340:7.8578796 341:-1.483284 342:1.6814575 343:9.3854218 344:0.42692566 345:3.0782471 346:11.64122 347:-1.2605057 348:3.7097168 349:8.9176788 350:-1.8246536 351:3.6621094 352:8.6174774 353:1.6482849 354:4.2821045 355:7.0933838 356:-0.3637619 357:4.8093872 358:7.5548706 359:-2.403595 360:5.5209351 361:8.018219 362:-5.4072495 363:5.7383423 364:6.6155701 365:-3.9922562 366:5.151123 367:6.7469025 368:-3.2849579 369:5.2645264 370:5.9318542 371:0.39842987 372:4.5962524 373:6.9183502 374:-1.3594055 375:4.9783325 376:6.0934753 377:-2.6194763 378:3.9764404 379:7.8101807 380:-1.7485809 381:5.0490112 382:6.0352478 383:-0.71817017 384:3.947876 385:6.9736938 386:-0.50646973 387:4.4782715 388:6.2774811 389:0.25611115 390:3.8338013 391:8.1100311 392:-0.15499878 393:4.2497559 394:6.1610107 395:-0.93190002 396:3.3869019 397:6.1564636 398:-3.0349045 399:3.3354492 400:7.8361206 401:-1.1862717 402:3.4089966 403:6.6671448 404:-0.0089492798 405:2.2770996 406:9.9998474 407:1.8119431 408:2.0339355 409:7.3587952 410:0.2286911 411:0.81848145 412:4.9639893 413:-1.8215027 414:0.49139404 415:7.7481079 416:1.3346405 417:0.067626953 418:5.2330933 419:-0.37735748 420:0.42095947 421:8.1053162 422:0.63201141 423:1.4293823 424:5.8811646 425:-0.17507172 426:1.0728149 427:6.1028442 428:-0.6211319 429:1.6535645 430:5.2282104 431:0.27763367 432:1.0831299 433:5.5961609 434:-0.67778015 435:2.6047363 436:3.6151733 437:-0.65013885 438:1.7373047 439:2.1211243 440:0.059661865 441:1.8095703 442:1.9914246 443:0.82300568 444:2.196228 445:3.4537659 446:-0.26719666 447:2.0198364 448:2.5203857 449:0.053413391 450:1.4043579 451:3.7877808 452:-0.4317627 453:0.58319092 454:2.9756165 455:1.7432404 456:0.25604248 457:3.5921021 458:1.401886 459:-0.28509521 460:4.37677 461:-0.32717133 462:0.96569824 463:4.1126709 464:1.4159622 465:0.29840088 466:4.0887756 467:1.944603 468:0.25073242 469:4.0637817 470:1.3818436 471:-0.16882324 472:4.9525452 473:0.32678986 474:0.14398193 475:3.0773621 476:-0.86515045 477:-0.45318604 478:-684.12476 479:-39.006157 480:57.166382 481:1.6282349 482:7.5422859 483:0.7467041 484:1.645752 485:2.6494255 486:-0.21368408 487:0.31265259 488:-0.34145737 489:-0.46728516 490:1.2288513 491:1.5173416 492:0.23266602 493:1.1386414 494:0.82069016 495:-0.38751221 496:0.077606201 497:-0.22126007 498:-0.24890137 499:0.13140869 500:0.19623947 501:-0.33514404 502:-0.13534546 503:0.058826447 504:-0.063293457 505:0.96487427 506:-0.108284 507:-0.40228271 508:-0.76547241 509:0.079544067 510:0.26153564 511:-1.9185486 512:1.3512115 513:0.26287842 514:-0.41629028 515:-0.24293137 516:-0.36279297 517:0.20846558 518:0.089366913 519:-0.44604492 520:0.86062622 521:0.55197525 522:-0.26098633 523:0.49893188 524:-0.34955215 525:-0.34765625 526:0.5770874 527:0.055473328 528:0.022888184 529:3.0834656 530:-0.85931015 531:-0.49993896 532:1.3158875 533:0.25148773 534:-0.30487061 535:-0.46783447 536:1.5270576 537:-0.13946533 538:0.46347046 539:1.9998856 540:-0.32086182 541:0.75558472 542:1.4551163 543:-0.41473389 544:1.37323 545:0.41952515 546:-0.80358887 547:2.3857422 548:-1.4141388 549:-1.194519 550:2.2480774 551:1.4897766 552:-0.73272705 553:3.6045532 554:0.33335114 555:-1.3702393 556:3.5458984 557:1.7764969 558:-1.822937 559:5.7060242 560:1.2633972 561:-2.5953369 562:5.3486328 563:1.0408325 564:-1.9721069 565:3.409729 566:1.967659 567:-1.0229492 568:6.1579895 569:1.5439835 570:-1.8044434 571:6.4397736 572:-0.04473114 573:-1.3049927 574:5.8630829 575:1.7686157 576:-1.2819824 577:5.7156372 578:2.0895996 579:-0.95617676 580:6.6364136 581:2.2033691 582:-3.0723267 583:7.8249359 584:0.53501892 585:-2.8162842 586:7.7427826 587:1.8647919 588:-2.9475708 589:8.4807434 590:1.4542313 591:-2.7087402 592:11.422867 593:3.00737 594:-3.3894653 595:10.67749 596:2.3738785 597:-2.7070923 598:13.236191 599:0.73297119 600:-2.9460449 601:13.20311 602:1.2948074 603:-3.2608643 604:12.600632 605:2.2582474 606:-2.9594116 607:13.118256 608:2.5810928 609:-2.7032471 610:14.089287 611:2.3491135 612:-2.8961792 613:15.219131 614:3.0355072 615:-2.4238281 616:14.191246 617:1.4397812 618:-2.6490479 619:14.778687 620:0.70137787 621:-2.6021118 622:14.878635 623:0.10447693 624:-1.8577881 625:15.828602 626:0.16589355 627:-1.1740112 628:14.015173 629:1.9118729 630:-0.74987793 631:16.435076 632:1.3029938 633:0.48730469 634:16.434868 635:-0.032493591 636:0.71142578 637:17.200031 638:-1.1427002 639:1.4105225 640:18.559811 641:-2.4912338 642:2.2382202 643:16.286209 644:0.41033173 645:2.4220581 646:17.725967 647:-0.82371521 648:2.6890259 649:18.013588 650:-1.9820709 651:1.6273193 652:19.677246 653:-4.3915405 654:0.89147949 655:15.866898 656:-3.922142 657:0.74462891 658:17.535904 659:-1.9708023 660:1.546814 661:15.623856 662:-0.61721802 663:0.55334473 664:16.186432 665:-0.81494904 666:1.6533203 667:17.569 668:-2.5952301 669:1.6118164 670:16.278534 671:-2.6168747 672:0.79974365 673:14.547836 674:-3.2839432 675:1.5440674 676:12.83078 677:-0.61901855 678:1.7671509 679:14.381531 680:-0.41433716 681:2.0127563 682:14.851685 683:-1.7214813 684:3.1156616 685:13.567627 686:-1.199646 687:2.8339233 688:10.876984 689:-1.9529572 690:2.4189453 691:10.049133 692:-1.2466812 693:1.8668823 694:8.5942688 695:-1.2571335 696:1.1117554 697:7.0610962 698:-0.29983521 699:0.28259277 700:5.7987976 701:0.83560181 702:-0.10955811 703:7.0956726 704:-2.1785126 705:0.25964355 706:5.4359436 707:-2.4391327 708:-0.18994141 709:5.9303284 710:-0.81733704 711:0.023376465 712:7.7669373 713:-0.37988281 714:0.15930176 715:6.8143311 716:-0.44380951 717:0.77630615 718:4.1793518 719:-0.48369598 720:1.3141479 721:2.8285522 722:-0.42440033 723:1.9033813 724:5.3318176 725:-1.5382767 726:1.9925537 727:8.0220642 728:-2.8282051 729:2.0076904 730:6.8103333 731:-1.4234924 732:3.1184692 733:3.7730408 734:-2.5278206 735:4.0929565 736:4.6744995 737:-0.25074005 738:3.7319336 739:2.6325989 740:-0.308815 741:4.3964844 742:2.3714294 743:1.9386482 744:2.0945435 745:0.23898315 746:-1.3452759 747:1.8146362 748:0.74050903 749:-3.299881 750:1.8707886 751:-0.59719849 752:-1.3647461 753:2.1390991 754:1.6056519 755:1.1505699 756:1.6203003 757:-1.2758789 758:1.1608391 759:1.0603638 760:-466.96042 761:51.301945 762:67.600647 763:-5.5060844 764:10.642181 765:4.8739624 766:3.0045166 767:-0.10425568 768:1.7931519 769:3.0003357 770:2.2801056 771:2.8612671 772:2.0163651 773:2.4813156 774:2.2979126 775:3.648159 776:2.3225632 777:1.8136597 778:3.7530708 779:-1.5694275 780:0.64538574 781:2.9304924 782:2.3892899 783:1.9498291 784:4.1564636 785:4.1968079 786:1.0422974 787:3.192234 788:2.8797913 789:0.246521 790:5.7677345 791:0.44316101 792:0.69598389 793:6.6358986 794:-2.5513916 795:-0.072814941 796:8.053895 797:-1.9527435 798:-0.534729 799:8.8247967 800:-2.8629913 801:-0.77850342 802:5.8391671 803:-1.1453552 804:-0.16241455 805:4.926404 806:0.54717255 807:-0.27667236 808:5.9728551 809:-1.2831802 810:-1.2371826 811:4.3584614 812:-1.137352 813:-0.95025635 814:6.4358644 815:0.70469666 816:0.14489746 817:6.5974789 818:-2.3207474 819:0.50506592 820:7.013504 821:-2.5677567 822:0.24554443 823:6.4531898 824:-1.0635986 825:1.1744995 826:5.9585152 827:-0.1158371 828:0.60119629 829:4.5835648 830:-0.15113068 831:0.96801758 832:4.8970528 833:-0.67892456 834:1.3110962 835:5.3450813 836:-0.48942566 837:1.3974609 838:3.5982933 839:-0.24143982 840:0.99304199 841:3.608429 842:-0.82982635 843:1.8244629 844:5.5306549 845:1.4873276 846:1.3532715 847:3.3064957 848:-2.2192917 849:0.58966064 850:4.4775009 851:-2.1636124 852:0.96081543 853:4.0511246 854:-1.3122253 855:0.89593506 856:3.2114258 857:0.52614594 858:0.9095459 859:5.5479507 860:-0.099601746 861:1.1584473 862:4.9704742 863:-1.8665543 864:2.2573242 865:5.2398834 866:-0.44355011 867:1.6932373 868:7.2353592 869:-0.7207489 870:1.1174316 871:5.7177277 872:1.7800369 873:1.383667 874:5.6027222 875:-2.4644547 876:1.2194824 877:7.1151276 878:-1.0582886 879:0.89550781 880:6.3422852 881:-1.509346 882:0.61962891 883:18.010178 884:-20.919441 885:-2.1668701 886:1.2085114 887:3.0248032 888:2.916748 889:4.6081543 890:2.9045258 891:2.963623 892:5.1573639 893:2.0282516 894:3.0449219 895:3.7978973 896:-1.8178711 897:1.7515869 898:6.3949585 899:-2.5272675 900:1.0167236 901:5.8665924 902:-2.4344788 903:1.7839355 904:4.3904572 905:-1.1923141 906:1.9976807 907:6.1955566 908:-0.82093811 909:2.0495605 910:2.6109619 911:-2.7436295 912:-0.62731934 913:4.5025177 914:0.45890045 915:-0.65490723 916:5.6036835 917:-1.2399063 918:-0.64660645 919:5.513382 920:-1.554245 921:-0.9473877 922:4.0460663 923:-4.2355881 924:-1.7147217 925:7.4992676 926:-1.8650894 927:0.0079345703 928:6.2536163 929:1.6087494 930:0.63122559 931:6.6754761 932:0.31747437 933:0.58825684 934:6.9708099 935:0.1027832 936:1.1643066 937:5.5842285 938:-0.96628571 939:1.3005371 940:6.3117065 941:-1.066864 942:1.732666 943:5.8903198 944:1.1276093 945:1.9525146 946:5.1524353 947:-0.3872757 948:1.5300293 949:5.9683533 950:0.12922668 951:1.12854 952:5.1225281 953:-2.6633606 954:1.7047119 955:5.0270691 956:-1.5474396 957:0.97875977 958:6.642395 959:1.5505295 960:2.4737549 961:5.5179443 962:1.5145721 963:1.7216797 964:4.7422791 965:1.527298 966:1.100708 967:4.0205383 968:-0.62437439 969:0.86181641 970:5.3336487 971:0.57417297 972:0.19799805 973:5.9161987 974:0.94819641 975:-0.028930664 976:5.29953 977:-1.6697464 978:-0.30529785 979:6.2667236 980:-1.4419403 981:-1.302124 982:5.665863 983:-1.6653748 984:-1.2139893 985:7.4785461 986:1.2407303 987:-2.8648682 988:7.5419617 989:1.319664 990:-2.0004883 991:10.08493 992:0.73122406 993:-2.4165039 994:7.6944275 995:2.0408478 996:-1.3239746 997:6.0141907 998:-0.071159363 999:-1.1445313 1000:5.4441528 1001:-1.0451965 1002:-2.4447021 1003:6.2281494 1004:-0.55440521 1005:-3.6864014 1006:4.4748535 1007:0.69211578 1008:-2.3375244 1009:3.2174988 1010:-0.66126251 1011:-2.4439697 1012:4.8408813 1013:-1.2321167 1014:-1.9034424 1015:8.3576355 1016:2.5290604 1017:-1.6481934 1018:5.0863342 1019:1.7341766 1020:-1.6791992 1021:5.9979248 1022:1.3645248 1023:-2.8016357 1024:6.1381226 1025:0.36915588 1026:-2.1925049 1027:5.6611633 1028:-0.28108978 1029:-2.8618164 1030:7.2147827 1031:0.55464172 1032:-2.972168 1033:6.0014038 1034:-1.388092 1035:-3.1572876 1036:4.2284851 1037:-3.2412262 1038:-2.9918823 1039:5.263916 1040:1.2339859 1041:-4.5586548 1042:-638.39905 1043:-78.375565 1044:-123.02332 1045:5.2405548 1046:9.5923681 1047:-20.239868 1048:-0.31446838 1049:8.0828304 1050:-11.061584 1051:0.15679932 1052:5.6740246 1053:-12.746338 1054:-1.2925873 1055:4.7268715 1056:-14.081726 1057:-0.57481384 1058:3.7848377 1059:-14.972534 1060:-0.56111145 1061:4.9808941 1062:-15.783447 1063:1.101181 1064:4.7304688 1065:-15.25769 1066:0.45800781 1067:2.6379738 1068:-16.227905 1069:0.034744263 1070:2.6006012 1071:-16.166748 1072:0.24029541 1073:3.8941154 1074:-15.478638 1075:1.6423492 1076:1.5141602 1077:-16.346802 1078:0.66503906 1079:1.975132 1080:-16.316284 1081:1.6867828 1082:3.4842873 1083:-15.84314 1084:1.4300232 1085:1.5445175 1086:-16.276794 1087:2.1168213 1088:2.2889214 1089:-15.760925 1090:2.4244995 1091:1.6857033 1092:-15.492188 1093:2.0415039 1094:0.5643425 1095:-15.055176 1096:2.8838348 1097:0.23754883 1098:-14.493896 1099:2.5693054 1100:0.2145462 1101:-13.084595 1102:1.8088531 1103:1.1470833 1104:-10.854004 1105:0.69821167 1106:-0.11626816 1107:-7.9506226 1108:0.060928345 1109:0.13444519 1110:-4.557312 1111:-1.2561035 1112:-0.47771072 1113:-1.4949341 1114:-0.54896545 1115:-0.84619141 1116:2.5205078 1117:-0.31584167 1118:-2.7695732 1119:5.9194336 1120:-2.3552094 1121:-3.118557 1122:8.2885742 1123:-3.6043396 1124:-2.1785812 1125:10.617737 1126:-3.5276642 1127:-3.3681641 1128:12.954285 1129:-3.5210571 1130:-3.8287621 1131:13.877075 1132:-3.3249664 1133:-2.8263931 1134:15.827698 1135:-4.1364441 1136:-5.6700592 1137:16.448547 1138:-2.7767029 1139:-3.1844215 1140:17.42749 1141:-2.8818512 1142:-2.5440941 1143:17.625854 1144:-1.8114166 1145:-2.5831585 1146:18.617065 1147:-1.7186127 1148:-2.4780579 1149:18.891174 1150:0.81338501 1151:-3.0949345 1152:18.183533 1153:1.6298523 1154:-4.5616665 1155:18.237793 1156:2.3175507 1157:-3.7560959 1158:17.545349 1159:2.0951843 1160:-2.0513983 1161:17.522888 1162:2.8871918 1163:-2.802 1164:18.668884 1165:3.3119507 1166:-3.8849416 1167:17.704468 1168:3.7935791 1169:-3.3169341 1170:17.542053 1171:4.4610748 1172:-3.2389791 1173:17.477417 1174:5.2185516 1175:-4.2515907 1176:15.946289 1177:2.8489685 1178:-4.1066542 1179:13.997192 1180:1.5774078 1181:-2.0367899 1182:12.236206 1183:-0.46885681 1184:-2.3940287 1185:9.4772949 1186:-0.21183777 1187:-2.4640903 1188:7.4031372 
0.5556640625 1:9.9774513 2:4.1617699 3:0.31744385 4:10.649151 5:0.50290108 6:-1.62854 7:9.832592 8:-1.5566406 9:-2.133606 10:7.5079994 11:0.12294769 12:-2.3319702 13:8.4635983 14:1.2971897 15:-2.3323975 16:6.941103 17:-1.0117702 18:-2.7115479 19:7.4993706 20:-0.12649155 21:-2.2327881 22:7.1045704 23:0.52905464 24:-2.8572998 25:6.2236567 26:0.98860168 27:-2.8085938 28:6.4807801 29:0.26473045 30:-2.3889771 31:5.3597984 32:-0.11997795 33:-1.7582397 34:7.5016613 35:-0.30091095 36:-1.6381836 37:6.043642 38:-1.0462818 39:-1.4744263 40:5.1682568 41:-2.1699677 42:-2.3966064 43:4.6991196 44:-0.69505119 45:-1.4266968 46:6.1117363 47:-0.22735214 48:-0.94158936 49:6.2178841 50:0.56267738 51:-0.67419434 52:3.7831879 53:-0.7713356 54:-1.0582275 55:4.3335953 56:-0.068742752 57:-0.74420166 58:-114.73596 59:27.443581 60:94.590332 61:28.092693 62:-6.8934932 63:-0.48632813 64:23.92775 65:-9.1966057 66:-0.8526001 67:18.59691 68:-9.971405 69:-0.69274902 70:14.988029 71:-7.2828026 72:-0.47351074 73:10.065172 74:-2.5177174 75:0.016052246 76:3.7597542 77:3.6212635 78:1.4213257 79:2.888649 80:5.3202496 81:1.5616455 82:1.6353073 83:-8.8610268 84:-1.940979 85:-2.0491447 86:-1.4519348 87:0.77191162 88:0.15604782 89:0.31254196 90:0.40905762 91:0.21311569 92:-0.51646042 93:1.2179565 94:-282.94852 95:97.865585 96:17.503723 97:11.389801 98:9.1405907 99:-1.4542847 100:15.820053 101:6.3740234 102:-1.7036133 103:16.233231 104:-1.6069412 105:-3.8261719 106:15.900101 107:-4.0894241 108:-5.5413208 109:14.580368 110:-2.3470764 111:-5.317749 112:11.705261 113:-0.066902161 114:-4.8930664 115:11.078262 116:0.6932373 117:-4.708374 118:10.581894 119:-0.29483032 120:-4.6964111 121:10.024338 122:0.94837189 123:-5.0756836 124:14.094803 125:-1.7673264 126:-4.3173828 127:11.969841 128:-2.0342636 129:-5.2938843 130:11.525826 131:-2.7444992 132:-4.501709 133:11.782089 134:-3.0008011 135:-3.8341064 136:9.9325562 137:-3.2833786 138:-4.4325562 139:10.885117 140:-4.165905 141:-2.6177368 142:9.2181396 143:-2.7363396 144:-3.1672363 145:7.7340279 146:-3.5490417 147:-2.7038574 148:8.4114056 149:-4.59412 150:-2.1796265 151:-210.33122 152:35.817921 153:-21.710938 154:-4.7752838 155:11.445236 156:2.2407837 157:-1.4078217 158:-1.4356689 159:0.61608887 160:-1.8141479 161:-2.468605 162:0.64208984 163:-1.2450562 164:-3.7338104 165:0.80249023 166:-1.8634033 167:-1.2945862 168:0.6338501 169:-1.7262573 170:0.085830688 171:1.3395386 172:-1.4051514 173:0.784729 174:0.777771 175:-0.4359436 176:0.19313049 177:0.39074707 178:-0.71356201 179:0.46965027 180:0.10089111 181:-0.36506653 182:0.20565796 183:0.1282959 184:-1.2945709 185:-0.60255432 186:-0.36413574 187:-0.81166077 188:-0.081596375 189:-0.042114258 190:0.48292542 191:0.73600006 192:-0.68127441 193:1.5531616 194:0.33342743 195:-0.61505127 196:3.2533264 197:1.9421082 198:-1.314209 199:3.3121185 200:2.521843 201:-1.3651733 202:5.8075409 203:2.9394684 204:-1.8479004 205:5.7090302 206:3.9629364 207:-2.375 208:7.0671539 209:2.3460541 210:-2.2785645 211:6.6086578 212:1.3353653 213:-2.4098511 214:3.9921265 215:1.6853485 216:-2.0691528 217:4.8301086 218:0.67093658 219:-1.1547852 220:3.4215546 221:1.3532257 222:-1.5126953 223:5.3975677 224:0.68061829 225:-2.4313965 226:4.2210693 227:1.3704147 228:-3.1592407 229:6.1800995 230:0.048217773 231:-3.8726196 232:6.7889404 233:1.0180435 234:-3.8861084 235:7.920578 236:-0.70537567 237:-3.854126 238:8.5996246 239:-0.27354431 240:-3.9807739 241:6.9921417 242:2.056282 243:-3.6920166 244:7.6155243 245:1.5129623 246:-3.6807251 247:7.8329773 248:2.128685 249:-4.1571045 250:8.8922729 251:-0.8766098 252:-3.6729736 253:7.6705246 254:1.2877579 255:-4.4718018 256:7.283577 257:0.84085083 258:-4.2376099 259:9.2951431 260:-1.3007278 261:-3.7225342 262:8.7465973 263:0.025291443 264:-3.8728638 265:8.6520386 266:1.3697662 267:-4.1831055 268:10.517807 269:2.1200027 270:-3.3317871 271:9.7357407 272:0.75846863 273:-4.1338501 274:10.700947 275:-0.4052887 276:-4.6647949 277:12.827888 278:-0.39907074 279:-4.3136597 280:10.198738 281:0.67572021 282:-4.4996338 283:11.341702 284:-0.92861176 285:-4.345459 286:10.038233 287:0.10931396 288:-3.9834595 289:11.271601 290:-1.4296112 291:-2.6141357 292:9.224824 293:-2.074585 294:-2.1789551 295:8.3929043 296:-1.1239319 297:-1.8213501 298:7.4765577 299:0.3560257 300:-2.1930542 301:7.0118427 302:0.28704834 303:-2.1525269 304:6.038826 305:0.24641418 306:-1.866272 307:7.1742172 308:0.28223419 309:-2.0331421 310:5.7249336 311:0.63547516 312:-2.6934204 313:8.4488449 314:-0.53874969 315:-0.97753906 316:6.9458122 317:-1.5656967 318:-1.5501709 319:8.2864227 320:0.1115799 321:-0.12713623 322:7.1622467 323:0.19097137 324:-0.51153564 325:8.5321884 326:0.4183197 327:0.24914551 328:8.9350204 329:-0.21098328 330:0.98675537 331:9.6376724 332:-0.51368713 333:1.2597656 334:8.6019821 335:1.1786957 336:0.78338623 337:9.1401825 338:1.7092133 339:1.7269897 340:7.8578796 341:-1.483284 342:1.6814575 343:9.3854218 344:0.42692566 345:3.0782471 346:11.64122 347:-1.2605057 348:3.7097168 349:8.9176788 350:-1.8246536 351:3.6621094 352:8.6174774 353:1.6482849 354:4.2821045 355:7.0933838 356:-0.3637619 357:4.8093872 358:7.5548706 359:-2.403595 360:5.5209351 361:8.018219 362:-5.4072495 363:5.7383423 364:6.6155701 365:-3.9922562 366:5.151123 367:6.7469025 368:-3.2849579 369:5.2645264 370:5.9318542 371:0.39842987 372:4.5962524 373:6.9183502 374:-1.3594055 375:4.9783325 376:6.0934753 377:-2.6194763 378:3.9764404 379:7.8101807 380:-1.7485809 381:5.0490112 382:6.0352478 383:-0.71817017 384:3.947876 385:6.9736938 386:-0.50646973 387:4.4782715 388:6.2774811 389:0.25611115 390:3.8338013 391:8.1100311 392:-0.15499878 393:4.2497559 394:6.1610107 395:-0.93190002 396:3.3869019 397:6.1564636 398:-3.0349045 399:3.3354492 400:7.8361206 401:-1.1862717 402:3.4089966 403:6.6671448 404:-0.0089492798 405:2.2770996 406:9.9998474 407:1.8119431 408:2.0339355 409:7.3587952 410:0.2286911 411:0.81848145 412:4.9639893 413:-1.8215027 414:0.49139404 415:7.7481079 416:1.3346405 417:0.067626953 418:5.2330933 419:-0.37735748 420:0.42095947 421:8.1053162 422:0.63201141 423:1.4293823 424:5.8811646 425:-0.17507172 426:1.0728149 427:6.1028442 428:-0.6211319 429:1.6535645 430:5.2282104 431:0.27763367 432:1.0831299 433:5.5961609 434:-0.67778015 435:2.6047363 436:3.6151733 437:-0.65013885 438:1.7373047 439:2.1211243 440:0.059661865 441:1.8095703 442:1.9914246 443:0.82300568 444:2.196228 445:3.4537659 446:-0.26719666 447:2.0198364 448:2.5203857 449:0.053413391 450:1.4043579 451:3.7877808 452:-0.4317627 453:0.58319092 454:2.9756165 455:1.7432404 456:0.25604248 457:3.5921021 458:1.401886 459:-0.28509521 460:4.37677 461:-0.32717133 462:0.96569824 463:4.1126709 464:1.4159622 465:0.29840088 466:4.0887756 467:1.944603 468:0.25073242 469:4.0637817 470:1.3818436 471:-0.16882324 472:4.9525452 473:0.32678986 474:0.14398193 475:3.0773621 476:-0.86515045 477:-0.45318604 478:-684.12476 479:-39.006157 480:57.166382 481:1.6282349 482:7.5422859 483:0.7467041 484:1.645752 485:2.6494255 486:-0.21368408 487:0.31265259 488:-0.34145737 489:-0.46728516 490:1.2288513 491:1.5173416 492:0.23266602 493:1.1386414 494:0.82069016 495:-0.38751221 496:0.077606201 497:-0.22126007 498:-0.24890137 499:0.13140869 500:0.19623947 501:-0.33514404 502:-0.13534546 503:0.058826447 504:-0.063293457 505:0.96487427 506:-0.108284 507:-0.40228271 508:-0.76547241 509:0.079544067 510:0.26153564 511:-1.9185486 512:1.3512115 513:0.26287842 514:-0.41629028 515:-0.24293137 516:-0.36279297 517:0.20846558 518:0.089366913 519:-0.44604492 520:0.86062622 521:0.55197525 522:-0.26098633 523:0.49893188 524:-0.34955215 525:-0.34765625 526:0.5770874 527:0.055473328 528:0.022888184 529:3.0834656 530:-0.85931015 531:-0.49993896 532:1.3158875 533:0.25148773 534:-0.30487061 535:-0.46783447 536:1.5270576 537:-0.13946533 538:0.46347046 539:1.9998856 540:-0.32086182 541:0.75558472 542:1.4551163 543:-0.41473389 544:1.37323 545:0.41952515 546:-0.80358887 547:2.3857422 548:-1.4141388 549:-1.194519 550:2.2480774 551:1.4897766 552:-0.73272705 553:3.6045532 554:0.33335114 555:-1.3702393 556:3.5458984 557:1.7764969 558:-1.822937 559:5.7060242 560:1.2633972 561:-2.5953369 562:5.3486328 563:1.0408325 564:-1.9721069 565:3.409729 566:1.967659 567:-1.0229492 568:6.1579895 569:1.5439835 570:-1.8044434 571:6.4397736 572:-0.04473114 573:-1.3049927 574:5.8630829 575:1.7686157 576:-1.2819824 577:5.7156372 578:2.0895996 579:-0.95617676 580:6.6364136 581:2.2033691 582:-3.0723267 583:7.8249359 584:0.53501892 585:-2.8162842 586:7.7427826 587:1.8647919 588:-2.9475708 589:8.4807434 590:1.4542313 591:-2.7087402 592:11.422867 593:3.00737 594:-3.3894653 595:10.67749 596:2.3738785 597:-2.7070923 598:13.236191 599:0.73297119 600:-2.9460449 601:13.20311 602:1.2948074 603:-3.2608643 604:12.600632 605:2.2582474 606:-2.9594116 607:13.118256 608:2.5810928 609:-2.7032471 610:14.089287 611:2.3491135 612:-2.8961792 613:15.219131 614:3.0355072 615:-2.4238281 616:14.191246 617:1.4397812 618:-2.6490479 619:14.778687 620:0.70137787 621:-2.6021118 622:14.878635 623:0.10447693 624:-1.8577881 625:15.828602 626:0.16589355 627:-1.1740112 628:14.015173 629:1.9118729 630:-0.74987793 631:16.435076 632:1.3029938 633:0.48730469 634:16.434868 635:-0.032493591 636:0.71142578 637:17.200031 638:-1.1427002 639:1.4105225 640:18.559811 641:-2.4912338 642:2.2382202 643:16.286209 644:0.41033173 645:2.4220581 646:17.725967 647:-0.82371521 648:2.6890259 649:18.013588 650:-1.9820709 651:1.6273193 652:19.677246 653:-4.3915405 654:0.89147949 655:15.866898 656:-3.922142 657:0.74462891 658:17.535904 659:-1.9708023 660:1.546814 661:15.623856 662:-0.61721802 663:0.55334473 664:16.186432 665:-0.81494904 666:1.6533203 667:17.569 668:-2.5952301 669:1.6118164 670:16.278534 671:-2.6168747 672:0.79974365 673:14.547836 674:-3.2839432 675:1.5440674 676:12.83078 677:-0.61901855 678:1.7671509 679:14.381531 680:-0.41433716 681:2.0127563 682:14.851685 683:-1.7214813 684:3.1156616 685:13.567627 686:-1.199646 687:2.8339233 688:10.876984 689:-1.9529572 690:2.4189453 691:10.049133 692:-1.2466812 693:1.8668823 694:8.5942688 695:-1.2571335 696:1.1117554 697:7.0610962 698:-0.29983521 699:0.28259277 700:5.7987976 701:0.83560181 702:-0.10955811 703:7.0956726 704:-2.1785126 705:0.25964355 706:5.4359436 707:-2.4391327 708:-0.18994141 709:5.9303284 710:-0.81733704 711:0.023376465 712:7.7669373 713:-0.37988281 714:0.15930176 715:6.8143311 716:-0.44380951 717:0.77630615 718:4.1793518 719:-0.48369598 720:1.3141479 721:2.8285522 722:-0.42440033 723:1.9033813 724:5.3318176 725:-1.5382767 726:1.9925537 727:8.0220642 728:-2.8282051 729:2.0076904 730:6.8103333 731:-1.4234924 732:3.1184692 733:3.7730408 734:-2.5278206 735:4.0929565 736:4.6744995 737:-0.25074005 738:3.7319336 739:2.6325989 740:-0.308815 741:4.3964844 742:2.3714294 743:1.9386482 744:2.0945435 745:0.23898315 746:-1.3452759 747:1.8146362 748:0.74050903 749:-3.299881 750:1.8707886 751:-0.59719849 752:-1.3647461 753:2.1390991 754:1.6056519 755:1.1505699 756:1.6203003 757:-1.2758789 758:1.1608391 759:1.0603638 760:-466.96042 761:51.301945 762:67.600647 763:-5.5060844 764:10.642181 765:4.8739624 766:3.0045166 767:-0.10425568 768:1.7931519 769:3.0003357 770:2.2801056 771:2.8612671 772:2.0163651 773:2.4813156 774:2.2979126 775:3.648159 776:2.3225632 777:1.8136597 778:3.7530708 779:-1.5694275 780:0.64538574 781:2.9304924 782:2.3892899 783:1.9498291 784:4.1564636 785:4.1968079 786:1.0422974 787:3.192234 788:2.8797913 789:0.246521 790:5.7677345 791:0.44316101 792:0.69598389 793:6.6358986 794:-2.5513916 795:-0.072814941 796:8.053895 797:-1.9527435 798:-0.534729 799:8.8247967 800:-2.8629913 801:-0.77850342 802:5.8391671 803:-1.1453552 804:-0.16241455 805:4.926404 806:0.54717255 807:-0.27667236 808:5.9728551 809:-1.2831802 810:-1.2371826 811:4.3584614 812:-1.137352 813:-0.95025635 814:6.4358644 815:0.70469666 816:0.14489746 817:6.5974789 818:-2.3207474 819:0.50506592 820:7.013504 821:-2.5677567 822:0.24554443 823:6.4531898 824:-1.0635986 825:1.1744995 826:5.9585152 827:-0.1158371 828:0.60119629 829:4.5835648 830:-0.15113068 831:0.96801758 832:4.8970528 833:-0.67892456 834:1.3110962 835:5.3450813 836:-0.48942566 837:1.3974609 838:3.5982933 839:-0.24143982 840:0.99304199 841:3.608429 842:-0.82982635 843:1.8244629 844:5.5306549 845:1.4873276 846:1.3532715 847:3.3064957 848:-2.2192917 849:0.58966064 850:4.4775009 851:-2.1636124 852:0.96081543 853:4.0511246 854:-1.3122253 855:0.89593506 856:3.2114258 857:0.52614594 858:0.9095459 859:5.5479507 860:-0.099601746 861:1.1584473 862:4.9704742 863:-1.8665543 864:2.2573242 865:5.2398834 866:-0.44355011 867:1.6932373 868:7.2353592 869:-0.7207489 870:1.1174316 871:5.7177277 872:1.7800369 873:1.383667 874:5.6027222 875:-2.4644547 876:1.2194824 877:7.1151276 878:-1.0582886 879:0.89550781 880:6.3422852 881:-1.509346 882:0.61962891 883:18.010178 884:-20.919441 885:-2.1668701 886:1.2085114 887:3.0248032 888:2.916748 889:4.6081543 890:2.9045258 891:2.963623 892:5.1573639 893:2.0282516 894:3.0449219 895:3.7978973 896:-1.8178711 897:1.7515869 898:6.3949585 899:-2.5272675 900:1.0167236 901:5.8665924 902:-2.4344788 903:1.7839355 904:4.3904572 905:-1.1923141 906:1.9976807 907:6.1955566 908:-0.82093811 909:2.0495605 910:2.6109619 911:-2.7436295 912:-0.62731934 913:4.5025177 914:0.45890045 915:-0.65490723 916:5.6036835 917:-1.2399063 918:-0.64660645 919:5.513382 920:-1.554245 921:-0.9473877 922:4.0460663 923:-4.2355881 924:-1.7147217 925:7.4992676 926:-1.8650894 927:0.0079345703 928:6.2536163 929:1.6087494 930:0.63122559 931:6.6754761 932:0.31747437 933:0.58825684 934:6.9708099 935:0.1027832 936:1.1643066 937:5.5842285 938:-0.96628571 939:1.3005371 940:6.3117065 941:-1.066864 942:1.732666 943:5.8903198 944:1.1276093 945:1.9525146 946:5.1524353 947:-0.3872757 948:1.5300293 949:5.9683533 950:0.12922668 951:1.12854 952:5.1225281 953:-2.6633606 954:1.7047119 955:5.0270691 956:-1.5474396 957:0.97875977 958:6.642395 959:1.5505295 960:2.4737549 961:5.5179443 962:1.5145721 963:1.7216797 964:4.7422791 965:1.527298 966:1.100708 967:4.0205383 968:-0.62437439 969:0.86181641 970:5.3336487 971:0.57417297 972:0.19799805 973:5.9161987 974:0.94819641 975:-0.028930664 976:5.29953 977:-1.6697464 978:-0.30529785 979:6.2667236 980:-1.4419403 981:-1.302124 982:5.665863 983:-1.6653748 984:-1.2139893 985:7.4785461 986:1.2407303 987:-2.8648682 988:7.5419617 989:1.319664 990:-2.0004883 991:10.08493 992:0.73122406 993:-2.4165039 994:7.6944275 995:2.0408478 996:-1.3239746 997:6.0141907 998:-0.071159363 999:-1.1445313 1000:5.4441528 1001:-1.0451965 1002:-2.4447021 1003:6.2281494 1004:-0.55440521 1005:-3.6864014 1006:4.4748535 1007:0.69211578 1008:-2.3375244 1009:3.2174988 1010:-0.66126251 1011:-2.4439697 1012:4.8408813 1013:-1.2321167 1014:-1.9034424 1015:8.3576355 1016:2.5290604 1017:-1.6481934 1018:5.0863342 1019:1.7341766 1020:-1.6791992 1021:5.9979248 1022:1.3645248 1023:-2.8016357 1024:6.1381226 1025:0.36915588 1026:-2.1925049 1027:5.6611633 1028:-0.28108978 1029:-2.8618164 1030:7.2147827 1031:0.55464172 1032:-2.972168 1033:6.0014038 1034:-1.388092 1035:-3.1572876 1036:4.2284851 1037:-3.2412262 1038:-2.9918823 1039:5.263916 1040:1.2339859 1041:-4.5586548 1042:-638.39905 1043:-78.375565 1044:-123.02332 1045:5.2405548 1046:9.5923681 1047:-20.239868 1048:-0.31446838 1049:8.0828304 1050:-11.061584 1051:0.15679932 1052:5.6740246 1053:-12.746338 1054:-1.2925873 1055:4.7268715 1056:-14.081726 1057:-0.57481384 1058:3.7848377 1059:-14.972534 1060:-0.56111145 1061:4.9808941 1062:-15.783447 1063:1.101181 1064:4.7304688 1065:-15.25769 1066:0.45800781 1067:2.6379738 1068:-16.227905 1069:0.034744263 1070:2.6006012 1071:-16.166748 1072:0.24029541 1073:3.8941154 1074:-15.478638 1075:1.6423492 1076:1.5141602 1077:-16.346802 1078:0.66503906 1079:1.975132 1080:-16.316284 1081:1.6867828 1082:3.4842873 1083:-15.84314 1084:1.4300232 1085:1.5445175 1086:-16.276794 1087:2.1168213 1088:2.2889214 1089:-15.760925 1090:2.4244995 1091:1.6857033 1092:-15.492188 1093:2.0415039 1094:0.5643425 1095:-15.055176 1096:2.8838348 1097:0.23754883 1098:-14.493896 1099:2.5693054 1100:0.2145462 1101:-13.084595 1102:1.8088531 1103:1.1470833 1104:-10.854004 1105:0.69821167 1106:-0.11626816 1107:-7.9506226 1108:0.060928345 1109:0.13444519 1110:-4.557312 1111:-1.2561035 1112:-0.47771072 1113:-1.4949341 1114:-0.54896545 1115:-0.84619141 1116:2.5205078 1117:-0.31584167 1118:-2.7695732 1119:5.9194336 1120:-2.3552094 1121:-3.118557 1122:8.2885742 1123:-3.6043396 1124:-2.1785812 1125:10.617737 1126:-3.5276642 1127:-3.3681641 1128:12.954285 1129:-3.5210571 1130:-3.8287621 1131:13.877075 1132:-3.3249664 1133:-2.8263931 1134:15.827698 1135:-4.1364441 1136:-5.6700592 1137:16.448547 1138:-2.7767029 1139:-3.1844215 1140:17.42749 1141:-2.8818512 1142:-2.5440941 1143:17.625854 1144:-1.8114166 1145:-2.5831585 1146:18.617065 1147:-1.7186127 1148:-2.4780579 1149:18.891174 1150:0.81338501 1151:-3.0949345 1152:18.183533 1153:1.6298523 1154:-4.5616665 1155:18.237793 1156:2.3175507 1157:-3.7560959 1158:17.545349 1159:2.0951843 1160:-2.0513983 1161:17.522888 1162:2.8871918 1163:-2.802 1164:18.668884 1165:3.3119507 1166:-3.8849416 1167:17.704468 1168:3.7935791 1169:-3.3169341 1170:17.542053 1171:4.4610748 1172:-3.2389791 1173:17.477417 1174:5.2185516 1175:-4.2515907 1176:15.946289 1177:2.8489685 1178:-4.1066542 1179:13.997192 1180:1.5774078 1181:-2.0367899 1182:12.236206 1183:-0.46885681 1184:-2.3940287 1185:9.4772949 1186:-0.21183777 1187:-2.4640903 1188:7.4031372 1189:-9.6587982 1190:-2.033905 1191:-16.334412 1192:3.4345856 1193:13.045832 1194:-3.975708 1195:1.2323914 1196:7.6747813 1197:-7.2355347 1198:1.4850464 1199:4.5876541 1200:-11.18042 1201:2.5546265 1202:4.1292667 1203:-13.082397 1204:2.9634247 1205:3.3963127 1206:-14.589844 1207:3.6346283 1208:6.6476116 1209:-15.32843 1210:1.0648346 1211:5.3375263 1212:-16.293884 1213:1.6293335 1214:5.059639 1215:-17.013306 1216:2.2781219 1217:4.141304 1218:-17.911133 1219:1.3665161 1220:3.9385719 1221:-18.58252 1222:2.7095032 1223:2.928009 1224:-18.370361 1225:1.9640808 1226:3.6593781 1227:-18.457031 1228:3.1101074 1229:4.332653 1230:-17.118958 1231:3.8971863 1232:3.8867836 1233:-15.40863 1234:2.9839325 1235:2.7035065 1236:-15.380798 1237:2.645462 1238:2.8604012 1239:-14.962219 1240:1.8183136 1241:2.4260101 1242:-15.107788 1243:2.5893707 1244:2.0656891 1245:-14.72937 1246:2.1165009 1247:1.0077133 1248:-14.42926 1249:2.8383408 1250:0.10012054 1251:-13.803406 1252:3.5859909 1253:0.89730835 1254:-11.784302 1255:2.6753922 1256:0.017295837 1257:-8.2458496 1258:1.0336304 1259:1.8610992 1260:-5.5298462 1261:0.64980316 1262:1.8206558 1263:-3.5186768 1264:0.50229645 1265:1.2851028 1266:-2.3406982 1267:-0.30636597 1268:0.66552734 1269:-0.84790039 1270:0.14012146 1271:1.0562515 1272:1.2138672 1273:-0.25345612 1274:0.54401398 1275:3.4094238 1276:-0.64147949 1277:-1.2656555 1278:6.1679077 1279:-0.62693024 1280:-0.36604309 1281:8.2945557 1282:-1.5460358 1283:-2.2664337 1284:9.9254761 1285:-3.5688629 1286:-2.3090744 1287:11.054871 1288:-2.8931656 1289:-2.6807861 1290:12.439331 1291:-2.7570343 1292:-3.5025787 1293:13.933472 1294:-3.0192719 1295:-2.7611351 1296:15.033447 1297:-2.6147766 1298:-4.03508 1299:16.329712 1300:-1.6172943 1301:-4.2781754 1302:17.31842 1303:-0.68267822 1304:-3.8237305 1305:18.492065 1306:-0.20629883 1307:-5.4418411 1308:18.296509 1309:1.2754517 1310:-4.7073326 1311:19.013245 1312:3.1032715 1313:-6.1497803 1314:18.483521 1315:1.1338806 1316:-6.0723267 1317:17.825928 1318:2.2783203 1319:-6.5790539 1320:17.55426 1321:2.1661835 1322:-5.9740105 1323:16.300476 1324:-1.3844452 1325:-3.6349487 1326:15.666077 1327:-0.60455322 1328:-2.8046927 1329:14.554993 1330:-2.0031586 1331:-3.5950036 1332:13.315308 1333:-0.75846863 1334:-5.7632637 1335:12.263916 1336:-0.21824646 1337:-6.4706945 1338:10.527161 1339:-2.0387573 1340:-6.9529943 1341:8.4852295 1342:-2.7930603 1343:-4.164505 1344:7.9821777 1345:-2.3266907 1346:-4.2592087 1347:6.3151245 1348:-2.7695618 1349:-4.3363628 1350:5.0534668 1351:-2.9124451 1352:-2.1157036 1353:4.4570313 1354:-3.2763519 1355:-4.216589 1356:3.9769897 1357:-2.5439148 1358:-2.3766632 1359:2.5685425 1360:-2.9920044 1361:1.3238411 1362:2.7305298 1363:-3.5009155 1364:-0.3665123 1365:2.6497803 1366:-0.15391541 1367:-2.8130493 1368:-0.16333008 1369:0.4115448 1370:-3.0237312 1371:-0.64385986 1372:-0.74333191 1373:-0.77289963 1374:-0.13848877 1375:0.11447144 1376:-0.81195831 1377:-0.34625244 1378:0.36087036 1379:-0.20862961 1380:0.026733398 1381:-0.10263062 1382:0.49803543 1383:-0.15045166 
0.5556640625 1:9.9774513 2:4.1617699 3:0.31744385 4:10.649151 5:0.50290108 6:-1.62854 7:9.832592 8:-1.5566406 9:-2.133606 10:7.5079994 11:0.12294769 12:-2.3319702 13:8.4635983 14:1.2971897 15:-2.3323975 16:6.941103 17:-1.0117702 18:-2.7115479 19:7.4993706 20:-0.12649155 21:-2.2327881 22:7.1045704 23:0.52905464 24:-2.8572998 25:6.2236567 26:0.98860168 27:-2.8085938 28:6.4807801 29:0.26473045 30:-2.3889771 31:5.3597984 32:-0.11997795 33:-1.7582397 34:7.5016613 35:-0.30091095 36:-1.6381836 37:6.043642 38:-1.0462818 39:-1.4744263 40:5.1682568 41:-2.1699677 42:-2.3966064 43:4.6991196 44:-0.69505119 45:-1.4266968 46:6.1117363 47:-0.22735214 48:-0.94158936 49:6.2178841 50:0.56267738 51:-0.67419434 52:3.7831879 53:-0.7713356 54:-1.0582275 55:4.3335953 56:-0.068742752 57:-0.74420166 58:-114.73596 59:27.443581 60:94.590332 61:28.092693 62:-6.8934932 63:-0.48632813 64:23.92775 65:-9.1966057 66:-0.8526001 67:18.59691 68:-9.971405 69:-0.69274902 70:14.988029 71:-7.2828026 72:-0.47351074 73:10.065172 74:-2.5177174 75:0.016052246 76:3.7597542 77:3.6212635 78:1.4213257 79:2.888649 80:5.3202496 81:1.5616455 82:1.6353073 83:-8.8610268 84:-1.940979 85:-2.0491447 86:-1.4519348 87:0.77191162 88:0.15604782 89:0.31254196 90:0.40905762 91:0.21311569 92:-0.51646042 93:1.2179565 94:-282.94852 95:97.865585 96:17.503723 97:11.389801 98:9.1405907 99:-1.4542847 100:15.820053 101:6.3740234 102:-1.7036133 103:16.233231 104:-1.6069412 105:-3.8261719 106:15.900101 107:-4.0894241 108:-5.5413208 109:14.580368 110:-2.3470764 111:-5.317749 112:11.705261 113:-0.066902161 114:-4.8930664 115:11.078262 116:0.6932373 117:-4.708374 118:10.581894 119:-0.29483032 120:-4.6964111 121:10.024338 122:0.94837189 123:-5.0756836 124:14.094803 125:-1.7673264 126:-4.3173828 127:11.969841 128:-2.0342636 129:-5.2938843 130:11.525826 131:-2.7444992 132:-4.501709 133:11.782089 134:-3.0008011 135:-3.8341064 136:9.9325562 137:-3.2833786 138:-4.4325562 139:10.885117 140:-4.165905 141:-2.6177368 142:9.2181396 143:-2.7363396 144:-3.1672363 145:7.7340279 146:-3.5490417 147:-2.7038574 148:8.4114056 149:-4.59412 150:-2.1796265 151:-210.33122 152:35.817921 153:-21.710938 154:-4.7752838 155:11.445236 156:2.2407837 157:-1.4078217 158:-1.4356689 159:0.61608887 160:-1.8141479 161:-2.468605 162:0.64208984 163:-1.2450562 164:-3.7338104 165:0.80249023 166:-1.8634033 167:-1.2945862 168:0.6338501 169:-1.7262573 170:0.085830688 171:1.3395386 172:-1.4051514 173:0.784729 174:0.777771 175:-0.4359436 176:0.19313049 177:0.39074707 178:-0.71356201 179:0.46965027 180:0.10089111 181:-0.36506653 182:0.20565796 183:0.1282959 184:-1.2945709 185:-0.60255432 186:-0.36413574 187:-0.81166077 188:-0.081596375 189:-0.042114258 190:0.48292542 191:0.73600006 192:-0.68127441 193:1.5531616 194:0.33342743 195:-0.61505127 196:3.2533264 197:1.9421082 198:-1.314209 199:3.3121185 200:2.521843 201:-1.3651733 202:5.8075409 203:2.9394684 204:-1.8479004 205:5.7090302 206:3.9629364 207:-2.375 208:7.0671539 209:2.3460541 210:-2.2785645 211:6.6086578 212:1.3353653 213:-2.4098511 214:3.9921265 215:1.6853485 216:-2.0691528 217:4.8301086 218:0.67093658 219:-1.1547852 220:3.4215546 221:1.3532257 222:-1.5126953 223:5.3975677 224:0.68061829 225:-2.4313965 226:4.2210693 227:1.3704147 228:-3.1592407 229:6.1800995 230:0.048217773 231:-3.8726196 232:6.7889404 233:1.0180435 234:-3.8861084 235:7.920578 236:-0.70537567 237:-3.854126 238:8.5996246 239:-0.27354431 240:-3.9807739 241:6.9921417 242:2.056282 243:-3.6920166 244:7.6155243 245:1.5129623 246:-3.6807251 247:7.8329773 248:2.128685 249:-4.1571045 250:8.8922729 251:-0.8766098 252:-3.6729736 253:7.6705246 254:1.2877579 255:-4.4718018 256:7.283577 257:0.84085083 258:-4.2376099 259:9.2951431 260:-1.3007278 261:-3.7225342 262:8.7465973 263:0.025291443 264:-3.8728638 265:8.6520386 266:1.3697662 267:-4.1831055 268:10.517807 269:2.1200027 270:-3.3317871 271:9.7357407 272:0.75846863 273:-4.1338501 274:10.700947 275:-0.4052887 276:-4.6647949 277:12.827888 278:-0.39907074 279:-4.3136597 280:10.198738 281:0.67572021 282:-4.4996338 283:11.341702 284:-0.92861176 285:-4.345459 286:10.038233 287:0.10931396 288:-3.9834595 289:11.271601 290:-1.4296112 291:-2.6141357 292:9.224824 293:-2.074585 294:-2.1789551 295:8.3929043 296:-1.1239319 297:-1.8213501 298:7.4765577 299:0.3560257 300:-2.1930542 301:7.0118427 302:0.28704834 303:-2.1525269 304:6.038826 305:0.24641418 306:-1.866272 307:7.1742172 308:0.28223419 309:-2.0331421 310:5.7249336 311:0.63547516 312:-2.6934204 313:8.4488449 314:-0.53874969 315:-0.97753906 316:6.9458122 317:-1.5656967 318:-1.5501709 319:8.2864227 320:0.1115799 321:-0.12713623 322:7.1622467 323:0.19097137 324:-0.51153564 325:8.5321884 326:0.4183197 327:0.24914551 328:8.9350204 329:-0.21098328 330:0.98675537 331:9.6376724 332:-0.51368713 333:1.2597656 334:8.6019821 335:1.1786957 336:0.78338623 337:9.1401825 338:1.7092133 339:1.7269897 340:7.8578796 341:-1.483284 342:1.6814575 343:9.3854218 344:0.42692566 345:3.0782471 346:11.64122 347:-1.2605057 348:3.7097168 349:8.9176788 350:-1.8246536 351:3.6621094 352:8.6174774 353:1.6482849 354:4.2821045 355:7.0933838 356:-0.3637619 357:4.8093872 358:7.5548706 359:-2.403595 360:5.5209351 361:8.018219 362:-5.4072495 363:5.7383423 364:6.6155701 365:-3.9922562 366:5.151123 367:6.7469025 368:-3.2849579 369:5.2645264 370:5.9318542 371:0.39842987 372:4.5962524 373:6.9183502 374:-1.3594055 375:4.9783325 376:6.0934753 377:-2.6194763 378:3.9764404 379:7.8101807 380:-1.7485809 381:5.0490112 382:6.0352478 383:-0.71817017 384:3.947876 385:6.9736938 386:-0.50646973 387:4.4782715 388:6.2774811 389:0.25611115 390:3.8338013 391:8.1100311 392:-0.15499878 393:4.2497559 394:6.1610107 395:-0.93190002 396:3.3869019 397:6.1564636 398:-3.0349045 399:3.3354492 400:7.8361206 401:-1.1862717 402:3.4089966 403:6.6671448 404:-0.0089492798 405:2.2770996 406:9.9998474 407:1.8119431 408:2.0339355 409:7.3587952 410:0.2286911 411:0.81848145 412:4.9639893 413:-1.8215027 414:0.49139404 415:7.7481079 416:1.3346405 417:0.067626953 418:5.2330933 419:-0.37735748 420:0.42095947 421:8.1053162 422:0.63201141 423:1.4293823 424:5.8811646 425:-0.17507172 426:1.0728149 427:6.1028442 428:-0.6211319 429:1.6535645 430:5.2282104 431:0.27763367 432:1.0831299 433:5.5961609 434:-0.67778015 435:2.6047363 436:3.6151733 437:-0.65013885 438:1.7373047 439:2.1211243 440:0.059661865 441:1.8095703 442:1.9914246 443:0.82300568 444:2.196228 445:3.4537659 446:-0.26719666 447:2.0198364 448:2.5203857 449:0.053413391 450:1.4043579 451:3.7877808 452:-0.4317627 453:0.58319092 454:2.9756165 455:1.7432404 456:0.25604248 457:3.5921021 458:1.401886 459:-0.28509521 460:4.37677 461:-0.32717133 462:0.96569824 463:4.1126709 464:1.4159622 465:0.29840088 466:4.0887756 467:1.944603 468:0.25073242 469:4.0637817 470:1.3818436 471:-0.16882324 472:4.9525452 473:0.32678986 474:0.14398193 475:3.0773621 476:-0.86515045 477:-0.45318604 478:-684.12476 479:-39.006157 480:57.166382 481:1.6282349 482:7.5422859 483:0.7467041 484:1.645752 485:2.6494255 486:-0.21368408 487:0.31265259 488:-0.34145737 489:-0.46728516 490:1.2288513 491:1.5173416 492:0.23266602 493:1.1386414 494:0.82069016 495:-0.38751221 496:0.077606201 497:-0.22126007 498:-0.24890137 499:0.13140869 500:0.19623947 501:-0.33514404 502:-0.13534546 503:0.058826447 504:-0.063293457 505:0.96487427 506:-0.108284 507:-0.40228271 508:-0.76547241 509:0.079544067 510:0.26153564 511:-1.9185486 512:1.3512115 513:0.26287842 514:-0.41629028 515:-0.24293137 516:-0.36279297 517:0.20846558 518:0.089366913 519:-0.44604492 520:0.86062622 521:0.55197525 522:-0.26098633 523:0.49893188 524:-0.34955215 525:-0.34765625 526:0.5770874 527:0.055473328 528:0.022888184 529:3.0834656 530:-0.85931015 531:-0.49993896 532:1.3158875 533:0.25148773 534:-0.30487061 535:-0.46783447 536:1.5270576 537:-0.13946533 538:0.46347046 539:1.9998856 540:-0.32086182 541:0.75558472 542:1.4551163 543:-0.41473389 544:1.37323 545:0.41952515 546:-0.80358887 547:2.3857422 548:-1.4141388 549:-1.194519 550:2.2480774 551:1.4897766 552:-0.73272705 553:3.6045532 554:0.33335114 555:-1.3702393 556:3.5458984 557:1.7764969 558:-1.822937 559:5.7060242 560:1.2633972 561:-2.5953369 562:5.3486328 563:1.0408325 564:-1.9721069 565:3.409729 566:1.967659 567:-1.0229492 568:6.1579895 569:1.5439835 570:-1.8044434 571:6.4397736 572:-0.04473114 573:-1.3049927 574:5.8630829 575:1.7686157 576:-1.2819824 577:5.7156372 578:2.0895996 579:-0.95617676 580:6.6364136 581:2.2033691 582:-3.0723267 583:7.8249359 584:0.53501892 585:-2.8162842 586:7.7427826 587:1.8647919 588:-2.9475708 589:8.4807434 590:1.4542313 591:-2.7087402 592:11.422867 593:3.00737 594:-3.3894653 595:10.67749 596:2.3738785 597:-2.7070923 598:13.236191 599:0.73297119 600:-2.9460449 601:13.20311 602:1.2948074 603:-3.2608643 604:12.600632 605:2.2582474 606:-2.9594116 607:13.118256 608:2.5810928 609:-2.7032471 610:14.089287 611:2.3491135 612:-2.8961792 613:15.219131 614:3.0355072 615:-2.4238281 616:14.191246 617:1.4397812 618:-2.6490479 619:14.778687 620:0.70137787 621:-2.6021118 622:14.878635 623:0.10447693 624:-1.8577881 625:15.828602 626:0.16589355 627:-1.1740112 628:14.015173 629:1.9118729 630:-0.74987793 631:16.435076 632:1.3029938 633:0.48730469 634:16.434868 635:-0.032493591 636:0.71142578 637:17.200031 638:-1.1427002 639:1.4105225 640:18.559811 641:-2.4912338 642:2.2382202 643:16.286209 644:0.41033173 645:2.4220581 646:17.725967 647:-0.82371521 648:2.6890259 649:18.013588 650:-1.9820709 651:1.6273193 652:19.677246 653:-4.3915405 654:0.89147949 655:15.866898 656:-3.922142 657:0.74462891 658:17.535904 659:-1.9708023 660:1.546814 661:15.623856 662:-0.61721802 663:0.55334473 664:16.186432 665:-0.81494904 666:1.6533203 667:17.569 668:-2.5952301 669:1.6118164 670:16.278534 671:-2.6168747 672:0.79974365 673:14.547836 674:-3.2839432 675:1.5440674 676:12.83078 677:-0.61901855 678:1.7671509 679:14.381531 680:-0.41433716 681:2.0127563 682:14.851685 683:-1.7214813 684:3.1156616 685:13.567627 686:-1.199646 687:2.8339233 688:10.876984 689:-1.9529572 690:2.4189453 691:10.049133 692:-1.2466812 693:1.8668823 694:8.5942688 695:-1.2571335 696:1.1117554 697:7.0610962 698:-0.29983521 699:0.28259277 700:5.7987976 701:0.83560181 702:-0.10955811 703:7.0956726 704:-2.1785126 705:0.25964355 706:5.4359436 707:-2.4391327 708:-0.18994141 709:5.9303284 710:-0.81733704 711:0.023376465 712:7.7669373 713:-0.37988281 714:0.15930176 715:6.8143311 716:-0.44380951 717:0.77630615 718:4.1793518 719:-0.48369598 720:1.3141479 721:2.8285522 722:-0.42440033 723:1.9033813 724:5.3318176 725:-1.5382767 726:1.9925537 727:8.0220642 728:-2.8282051 729:2.0076904 730:6.8103333 731:-1.4234924 732:3.1184692 733:3.7730408 734:-2.5278206 735:4.0929565 736:4.6744995 737:-0.25074005 738:3.7319336 739:2.6325989 740:-0.308815 741:4.3964844 742:2.3714294 743:1.9386482 744:2.0945435 745:0.23898315 746:-1.3452759 747:1.8146362 748:0.74050903 749:-3.299881 750:1.8707886 751:-0.59719849 752:-1.3647461 753:2.1390991 754:1.6056519 755:1.1505699 756:1.6203003 757:-1.2758789 758:1.1608391 759:1.0603638 760:-466.96042 761:51.301945 762:67.600647 763:-5.5060844 764:10.642181 765:4.8739624 766:3.0045166 767:-0.10425568 768:1.7931519 769:3.0003357 770:2.2801056 771:2.8612671 772:2.0163651 773:2.4813156 774:2.2979126 775:3.648159 776:2.3225632 777:1.8136597 778:3.7530708 779:-1.5694275 780:0.64538574 781:2.9304924 782:2.3892899 783:1.9498291 784:4.1564636 785:4.1968079 786:1.0422974 787:3.192234 788:2.8797913 789:0.246521 790:5.7677345 791:0.44316101 792:0.69598389 793:6.6358986 794:-2.5513916 795:-0.072814941 796:8.053895 797:-1.9527435 798:-0.534729 799:8.8247967 800:-2.8629913 801:-0.77850342 802:5.8391671 803:-1.1453552 804:-0.16241455 805:4.926404 806:0.54717255 807:-0.27667236 808:5.9728551 809:-1.2831802 810:-1.2371826 811:4.3584614 812:-1.137352 813:-0.95025635 814:6.4358644 815:0.70469666 816:0.14489746 817:6.5974789 818:-2.3207474 819:0.50506592 820:7.013504 821:-2.5677567 822:0.24554443 823:6.4531898 824:-1.0635986 825:1.1744995 826:5.9585152 827:-0.1158371 828:0.60119629 829:4.5835648 830:-0.15113068 831:0.96801758 832:4.8970528 833:-0.67892456 834:1.3110962 835:5.3450813 836:-0.48942566 837:1.3974609 838:3.5982933 839:-0.24143982 840:0.99304199 841:3.608429 842:-0.82982635 843:1.8244629 844:5.5306549 845:1.4873276 846:1.3532715 847:3.3064957 848:-2.2192917 849:0.58966064 850:4.4775009 851:-2.1636124 852:0.96081543 853:4.0511246 854:-1.3122253 855:0.89593506 856:3.2114258 857:0.52614594 858:0.9095459 859:5.5479507 860:-0.099601746 861:1.1584473 862:4.9704742 863:-1.8665543 864:2.2573242 865:5.2398834 866:-0.44355011 867:1.6932373 868:7.2353592 869:-0.7207489 870:1.1174316 871:5.7177277 872:1.7800369 873:1.383667 874:5.6027222 875:-2.4644547 876:1.2194824 877:7.1151276 878:-1.0582886 879:0.89550781 880:6.3422852 881:-1.509346 882:0.61962891 883:18.010178 884:-20.919441 885:-2.1668701 886:1.2085114 887:3.0248032 888:2.916748 889:4.6081543 890:2.9045258 891:2.963623 892:5.1573639 893:2.0282516 894:3.0449219 895:3.7978973 896:-1.8178711 897:1.7515869 898:6.3949585 899:-2.5272675 900:1.0167236 901:5.8665924 902:-2.4344788 903:1.7839355 904:4.3904572 905:-1.1923141 906:1.9976807 907:6.1955566 908:-0.82093811 909:2.0495605 910:2.6109619 911:-2.7436295 912:-0.62731934 913:4.5025177 914:0.45890045 915:-0.65490723 916:5.6036835 917:-1.2399063 918:-0.64660645 919:5.513382 920:-1.554245 921:-0.9473877 922:4.0460663 923:-4.2355881 924:-1.7147217 925:7.4992676 926:-1.8650894 927:0.0079345703 928:6.2536163 929:1.6087494 930:0.63122559 931:6.6754761 932:0.31747437 933:0.58825684 934:6.9708099 935:0.1027832 936:1.1643066 937:5.5842285 938:-0.96628571 939:1.3005371 940:6.3117065 941:-1.066864 942:1.732666 943:5.8903198 944:1.1276093 945:1.9525146 946:5.1524353 947:-0.3872757 948:1.5300293 949:5.9683533 950:0.12922668 951:1.12854 952:5.1225281 953:-2.6633606 954:1.7047119 955:5.0270691 956:-1.5474396 957:0.97875977 958:6.642395 959:1.5505295 960:2.4737549 961:5.5179443 962:1.5145721 963:1.7216797 964:4.7422791 965:1.527298 966:1.100708 967:4.0205383 968:-0.62437439 969:0.86181641 970:5.3336487 971:0.57417297 972:0.19799805 973:5.9161987 974:0.94819641 975:-0.028930664 976:5.29953 977:-1.6697464 978:-0.30529785 979:6.2667236 980:-1.4419403 981:-1.302124 982:5.665863 983:-1.6653748 984:-1.2139893 985:7.4785461 986:1.2407303 987:-2.8648682 988:7.5419617 989:1.319664 990:-2.0004883 991:10.08493 992:0.73122406 993:-2.4165039 994:7.6944275 995:2.0408478 996:-1.3239746 997:6.0141907 998:-0.071159363 999:-1.1445313 1000:5.4441528 1001:-1.0451965 1002:-2.4447021 1003:6.2281494 1004:-0.55440521 1005:-3.6864014 1006:4.4748535 1007:0.69211578 1008:-2.3375244 1009:3.2174988 1010:-0.66126251 1011:-2.4439697 1012:4.8408813 1013:-1.2321167 1014:-1.9034424 1015:8.3576355 1016:2.5290604 1017:-1.6481934 1018:5.0863342 1019:1.7341766 1020:-1.6791992 1021:5.9979248 1022:1.3645248 1023:-2.8016357 1024:6.1381226 1025:0.36915588 1026:-2.1925049 1027:5.6611633 1028:-0.28108978 1029:-2.8618164 1030:7.2147827 1031:0.55464172 1032:-2.972168 1033:6.0014038 1034:-1.388092 1035:-3.1572876 1036:4.2284851 1037:-3.2412262 1038:-2.9918823 1039:5.263916 1040:1.2339859 1041:-4.5586548 1042:-638.39905 1043:-78.375565 1044:-123.02332 1045:5.2405548 1046:9.5923681 1047:-20.239868 1048:-0.31446838 1049:8.0828304 1050:-11.061584 1051:0.15679932 1052:5.6740246 1053:-12.746338 1054:-1.2925873 1055:4.7268715 1056:-14.081726 1057:-0.57481384 1058:3.7848377 1059:-14.972534 1060:-0.56111145 1061:4.9808941 1062:-15.783447 1063:1.101181 1064:4.7304688 1065:-15.25769 1066:0.45800781 1067:2.6379738 1068:-16.227905 1069:0.034744263 1070:2.6006012 1071:-16.166748 1072:0.24029541 1073:3.8941154 1074:-15.478638 1075:1.6423492 1076:1.5141602 1077:-16.346802 1078:0.66503906 1079:1.975132 1080:-16.316284 1081:1.6867828 1082:3.4842873 1083:-15.84314 1084:1.4300232 1085:1.5445175 1086:-16.276794 1087:2.1168213 1088:2.2889214 1089:-15.760925 1090:2.4244995 1091:1.6857033 1092:-15.492188 1093:2.0415039 1094:0.5643425 1095:-15.055176 1096:2.8838348 1097:0.23754883 1098:-14.493896 1099:2.5693054 1100:0.2145462 1101:-13.084595 1102:1.8088531 1103:1.1470833 1104:-10.854004 1105:0.69821167 1106:-0.11626816 1107:-7.9506226 1108:0.060928345 1109:0.13444519 1110:-4.557312 1111:-1.2561035 1112:-0.47771072 1113:-1.4949341 1114:-0.54896545 1115:-0.84619141 1116:2.5205078 1117:-0.31584167 1118:-2.7695732 1119:5.9194336 1120:-2.3552094 1121:-3.118557 1122:8.2885742 1123:-3.6043396 1124:-2.1785812 1125:10.617737 1126:-3.5276642 1127:-3.3681641 1128:12.954285 1129:-3.5210571 1130:-3.8287621 1131:13.877075 1132:-3.3249664 1133:-2.8263931 1134:15.827698 1135:-4.1364441 1136:-5.6700592 1137:16.448547 1138:-2.7767029 1139:-3.1844215 1140:17.42749 1141:-2.8818512 1142:-2.5440941 1143:17.625854 1144:-1.8114166 1145:-2.5831585 1146:18.617065 1147:-1.7186127 1148:-2.4780579 1149:18.891174 1150:0.81338501 1151:-3.0949345 1152:18.183533 1153:1.6298523 1154:-4.5616665 1155:18.237793 1156:2.3175507 1157:-3.7560959 1158:17.545349 1159:2.0951843 1160:-2.0513983 1161:17.522888 1162:2.8871918 1163:-2.802 1164:18.668884 1165:3.3119507 1166:-3.8849416 1167:17.704468 1168:3.7935791 1169:-3.3169341 1170:17.542053 1171:4.4610748 1172:-3.2389791 1173:17.477417 1174:5.2185516 1175:-4.2515907 1176:15.946289 1177:2.8489685 1178:-4.1066542 1179:13.997192 1180:1.5774078 1181:-2.0367899 1182:12.236206 1183:-0.46885681 1184:-2.3940287 1185:9.4772949 1186:-0.21183777 1187:-2.4640903 1188:7.4031372 1189:-9.6587982 1190:-2.033905 1191:-16.334412 1192:3.4345856 1193:13.045832 1194:-3.975708 1195:1.2323914 1196:7.6747813 1197:-7.2355347 1198:1.4850464 1199:4.5876541 1200:-11.18042 1201:2.5546265 1202:4.1292667 1203:-13.082397 1204:2.9634247 1205:3.3963127 1206:-14.589844 1207:3.6346283 1208:6.6476116 1209:-15.32843 1210:1.0648346 1211:5.3375263 1212:-16.293884 1213:1.6293335 1214:5.059639 1215:-17.013306 1216:2.2781219 1217:4.141304 1218:-17.911133 1219:1.3665161 1220:3.9385719 1221:-18.58252 1222:2.7095032 1223:2.928009 1224:-18.370361 1225:1.9640808 1226:3.6593781 1227:-18.457031 1228:3.1101074 1229:4.332653 1230:-17.118958 1231:3.8971863 1232:3.8867836 1233:-15.40863 1234:2.9839325 1235:2.7035065 1236:-15.380798 1237:2.645462 1238:2.8604012 1239:-14.962219 1240:1.8183136 1241:2.4260101 1242:-15.107788 1243:2.5893707 1244:2.0656891 1245:-14.72937 1246:2.1165009 1247:1.0077133 1248:-14.42926 1249:2.8383408 1250:0.10012054 1251:-13.803406 1252:3.5859909 1253:0.89730835 1254:-11.784302 1255:2.6753922 1256:0.017295837 1257:-8.2458496 1258:1.0336304 1259:1.8610992 1260:-5.5298462 1261:0.64980316 1262:1.8206558 1263:-3.5186768 1264:0.50229645 1265:1.2851028 1266:-2.3406982 1267:-0.30636597 1268:0.66552734 1269:-0.84790039 1270:0.14012146 1271:1.0562515 1272:1.2138672 1273:-0.25345612 1274:0.54401398 1275:3.4094238 1276:-0.64147949 1277:-1.2656555 1278:6.1679077 1279:-0.62693024 1280:-0.36604309 1281:8.2945557 1282:-1.5460358 1283:-2.2664337 1284:9.9254761 1285:-3.5688629 1286:-2.3090744 1287:11.054871 1288:-2.8931656 1289:-2.6807861 1290:12.439331 1291:-2.7570343 1292:-3.5025787 1293:13.933472 1294:-3.0192719 1295:-2.7611351 1296:15.033447 1297:-2.6147766 1298:-4.03508 1299:16.329712 1300:-1.6172943 1301:-4.2781754 1302:17.31842 1303:-0.68267822 1304:-3.8237305 1305:18.492065 1306:-0.20629883 1307:-5.4418411 1308:18.296509 1309:1.2754517 1310:-4.7073326 1311:19.013245 1312:3.1032715 1313:-6.1497803 1314:18.483521 1315:1.1338806 1316:-6.0723267 1317:17.825928 1318:2.2783203 1319:-6.5790539 1320:17.55426 1321:2.1661835 1322:-5.9740105 1323:16.300476 1324:-1.3844452 1325:-3.6349487 1326:15.666077 1327:-0.60455322 1328:-2.8046927 1329:14.554993 1330:-2.0031586 1331:-3.5950036 1332:13.315308 1333:-0.75846863 1334:-5.7632637 1335:12.263916 1336:-0.21824646 1337:-6.4706945 1338:10.527161 1339:-2.0387573 1340:-6.9529943 1341:8.4852295 1342:-2.7930603 1343:-4.164505 1344:7.9821777 1345:-2.3266907 1346:-4.2592087 1347:6.3151245 1348:-2.7695618 1349:-4.3363628 1350:5.0534668 1351:-2.9124451 1352:-2.1157036 1353:4.4570313 1354:-3.2763519 1355:-4.216589 1356:3.9769897 1357:-2.5439148 1358:-2.3766632 1359:2.5685425 1360:-2.9920044 1361:1.3238411 1362:2.7305298 1363:-3.5009155 1364:-0.3665123 1365:2.6497803 1366:-0.15391541 1367:-2.8130493 1368:-0.16333008 1369:0.4115448 1370:-3.0237312 1371:-0.64385986 1372:-0.74333191 1373:-0.77289963 1374:-0.13848877 1375:0.11447144 1376:-0.81195831 1377:-0.34625244 1378:0.36087036 1379:-0.20862961 1380:0.026733398 1381:-0.10263062 1382:0.49803543 1383:-0.15045166 1384:2.2115631 1385:33.709423 1386:-33.014282 1387:4.5840912 1388:13.230103 1389:-12.073547 1390:4.2615814 1391:8.6668177 1392:-16.611694 1393:4.2288361 1394:11.650502 1395:-17.216309 1396:4.9473877 1397:8.6981449 1398:-20.058044 1399:4.4086151 1400:9.1904678 1401:-23.407959 1402:7.7629776 1403:8.4824486 1404:-26.579773 1405:8.4464798 1406:5.8038635 1407:-27.813171 1408:8.5759048 1409:7.1391716 1410:-29.066895 1411:4.1605453 1412:8.0953217 1413:-30.348816 1414:3.8069382 1415:5.0399017 1416:-28.964294 1417:5.003479 1418:-0.92626953 1419:-28.16156 1420:4.9215775 1421:8.0680237 1422:-26.814026 1423:5.6503677 1424:7.7143097 1425:-22.214417 1426:4.9246826 1427:4.310257 1428:-19.038574 1429:3.8155136 1430:2.1132584 1431:-16.170654 1432:1.9980011 1433:2.6238022 1434:-12.856873 1435:2.7072983 1436:1.7078094 1437:-6.1685181 1438:1.3504257 1439:0.76804352 1440:-0.50457764 1441:-0.61238098 1442:0.096054077 1443:3.7258301 1444:-1.7581558 1445:-0.62586975 1446:7.3557129 1447:-2.3979492 1448:-2.8879166 1449:11.105591 1450:-3.3154907 1451:-2.3087692 1452:13.415039 1453:-5.248497 1454:-4.5227509 1455:14.984619 1456:-5.7264709 1457:-5.6480637 1458:16.637756 1459:-6.9647827 1460:-6.2512741 1461:18.094788 1462:-5.4334793 1463:-5.8650589 1464:19.286499 1465:-6.1540985 1466:-6.4786758 1467:20.95343 1468:-6.8346024 1469:-3.4346619 1470:22.423706 1471:-4.9989777 1472:-4.4746475 1473:23.168091 1474:-4.2680969 1475:-6.0584946 1476:24.183105 1477:-4.9476929 1478:-8.1537476 1479:24.056335 1480:-4.7079315 1481:-9.1991882 1482:23.968201 1483:-1.6973267 1484:-6.5834312 1485:24.317871 1486:-3.3394012 1487:-6.3957272 1488:22.464233 1489:-2.4833832 1490:-8.2265463 1491:19.935303 1492:-1.2588806 1493:-7.4058676 1494:17.315918 1495:-0.51615906 1496:-8.6536341 1497:13.75824 1498:-0.11531067 1499:-7.9499002 1500:12.926331 1501:0.77934265 1502:-6.8698797 1503:11.646545 1504:3.0440063 1505:-3.8159218 1506:10.541504 1507:1.2145691 1508:-2.5416317 1509:9.3950806 1510:0.26113892 1511:-2.5267906 1512:8.2297363 1513:1.1816101 1514:-1.744112 1515:5.5640869 1516:0.72711182 1517:-0.28627968 1518:4.4755249 1519:0.15681458 1520:-0.47858238 1521:2.5778198 1522:0.022842407 1523:-0.55192947 1524:1.7620239 1525:-0.18968201 1526:-1.3701744 1527:0.6081543 1528:-0.32518005 1529:-0.14469337 1530:0.32763672 1531:-0.86778259 1532:-0.49083138 1533:-0.19122314 1534:0.25984192 1535:0.16139793 1536:-0.20770264 1537:-0.36135864 1538:0.96633148 1539:-0.10229492 
