svm_type c_svc
kernel_type rbf
gamma 3.05176e-005
nr_class 5
total_sv 338
rho -0.273767 -0.361869 -0.334888 -0.167743 -0.0810529 0.0835907 0.120639 0.167758 0.192082 0.0637385
label 1 2 3 5 4
probA -6.06873 -5.99856 -5.61804 -5.77921 -5.89448 -5.81896 -6.20017 -5.8359 -5.75557 -5.6287
probB -0.341488 -0.240774 -0.115343 -0.147497 -0.0297003 0.0120688 -0.886968 0.0300142 -0.00819864 0.0415805
nr_sv 100 46 49 70 73
SV
0 0 6.513742309514348 0 1:172.16032 2:45.172188 3:40.579956 4:235.65826 5:142.96732 6:41.209839 7:235.907 8:106.7156 9:34.009888 10:246.44308 11:72.183601 12:34.420044 
0 0 0.5824304534204053 0 1:93.571014 2:46.779774 3:49.10022 4:178.43199 5:68.220581 6:67.390137 7:189.96002 8:89.033295 9:127.94006 10:239.97598 11:87.448059 12:83.380005 
0 0 6.1278120596162 0 1:106.8247 2:26.03801 3:22.499878 4:244.75238 5:126.18199 6:26.450073 7:156.33504 8:104.54102 9:14.120117 10:209.0625 11:58.440002 12:56.01001 
0 0 8 0 1:172.16032 2:45.172188 3:40.579956 4:235.65826 5:142.96732 6:41.209839 7:235.907 8:106.7156 9:34.009888 10:246.44308 11:72.183601 12:34.420044 
0.5896549668687273 0.5184693515206877 0.5551586908486589 0.678043807364265 1:183.17682 2:58.380951 3:29.290039 4:407.5881 5:288.13202 6:87.939941 7:461.23706 8:177.66902 9:113.5199 10:670.66388 11:297.44269 12:145.32996 
0.679432876405475 0.5971422617106902 0.6185353000664671 0.7784921098626013 1:512.40796 2:194.70969 3:89.530273 4:516.06494 5:219.166 6:110.62988 7:255.07809 8:203.29233 9:65.089966 10:529.97888 11:202.22403 12:80.659912 
0.586977707353449 0.5176851944080733 0.3959937072903686 0.6668032596784924 1:466.15396 2:188.601 3:79.929688 4:155.2 5:177.5285 6:72.689575 7:339.84238 8:207.27971 9:69.229492 10:292.98361 11:72.200043 12:90.559937 
0.5156679013810751 0.4550294721640736 0.0495643035867238 0.5264418938400944 1:259.34604 2:108.17204 3:84.750244 4:211.87897 5:90.265892 6:123.31995 7:512.76007 8:110.22412 9:94.059692 10:278.52805 11:67.408005 12:92.479858 
0.4491033552775595 0.3923094989642607 0.3311348871147778 0.5322659856851172 1:472.59973 2:60.98201 3:50.610107 4:407.56573 5:25.830002 6:55.060181 7:362.45093 8:53.939598 9:61.240112 10:362.34216 11:39.75502 12:64.8302 
0.2420115784680142 0.2232123929003548 0 0.2118308748643046 1:359.12439 2:41.348999 3:61.190063 4:331.81213 5:61.784058 6:61.290039 7:213.67473 8:47.794968 9:30.700195 10:287.29202 11:39.224991 12:39.47998 
0 0 1.795579306505116 0 1:220.912 2:57.038986 3:43.709961 4:199.403 5:47.872986 6:27.139893 7:184.896 8:89.562012 9:17.680054 10:285.19 11:72.164017 12:30.309814 
0.5301364839504817 0.4664640058064974 0.5154733265460928 0.6069167844603326 1:424.259 2:92.878006 3:32.599731 4:454.63699 5:70.438995 6:37.120117 7:392.19 8:99.117004 9:37.099976 10:542.23901 11:133.16502 12:53.129883 
1.610414284778196 0.7095588907824625 1.319284955533522 1.863428444298855 1:102.0509 2:116.24298 3:149.33911 4:90.291931 5:76.140015 6:63.830322 7:87.41095 8:65.833008 9:89.380371 10:95.951904 11:45.568054 12:84.379639 
0 0.02332483107566562 0 0 1:319.24652 2:76.302002 3:35.640015 4:215.207 5:99.866409 6:26.289795 7:250.31282 8:53.750015 9:16.700195 10:351.56699 11:78.08297 12:30.590088 
0.361842819581074 0.3171804129665111 0.2911323369200136 0.406883639322235 1:84.443024 2:54.703995 3:17.34021 4:361.49042 5:211.64 6:43.469971 7:456.15399 8:90.297989 9:163.31006 10:570.92444 11:265.97601 12:109.48022 
0.3423308757566689 0.2953578363545684 0 0.3916550635222671 1:375.0452 2:113.89601 3:68.630127 4:244.73798 5:69.318008 6:85.249878 7:216.4324 8:79.957001 9:34.170166 10:394.785 11:127.923 12:61.740112 
0.1338183555082062 0.2506080947110148 5.379529285871844 1.597448274734857 1:60.451981 2:42.592789 3:23.52002 4:222.0224 5:115.29297 6:36.670044 7:343.73755 8:174.51491 9:126.75012 10:297.047 11:142.21513 12:89.939941 
0 0 8 0.4461609455011039 1:93.571014 2:46.779774 3:49.10022 4:178.43199 5:68.220581 6:67.390137 7:189.96002 8:89.033295 9:127.94006 10:239.97598 11:87.448059 12:83.380005 
0.69035578250217 0.6062581349325504 0.6526596701403474 0.7869424783825396 1:40.882904 2:35.462158 3:19.960327 4:102.75702 5:48.957001 6:31.750366 7:588.677 8:137.125 9:85.650024 10:582.84106 11:174.38098 12:102.58997 
0 0 0 0.5687421300089217 1:203.976 2:76.414505 3:19.119873 4:244.22202 5:126.6613 6:29.319824 7:255.4548 8:103.09731 9:40.589722 10:252.7502 11:132.10193 12:38.169922 
0.4436616361774762 0.3883780746102698 0.5326252016892651 0.5086693049860324 1:52.591396 2:67.386215 3:38.480103 4:575.76477 5:186.8804 6:165.78992 7:607.73389 8:244.63487 9:196.15991 10:439.01385 11:182.93451 12:171.48999 
0.5153029905197119 0.4491456296541177 2.15986616167737 0.6061235611858267 1:267.36749 2:77.936089 3:71.600098 4:492.8035 5:212.60231 6:139.41003 7:454.32352 8:234.52112 9:176.05994 10:345.57037 11:126.29374 12:115.66968 
0.7265440356078465 0.638104708036646 0.6650698741682639 0.8323655428391651 1:49.418091 2:65.128098 3:33.679688 4:747.52509 5:189.65396 6:296.21008 7:1386.9181 8:718.10413 9:507.34009 10:709.36993 11:318.26996 12:295.76001 
0.7262194480894847 0.638180118510859 0.6655720553407192 0.8322915809207869 1:329.00497 2:272.64618 3:131.41003 4:1396.6069 5:718.09509 6:425.46008 7:1059.963 8:543.435 9:306.19019 10:805.22302 11:328.03397 12:197.10986 
0.8991631710032714 1.169261234846958 0.9719368486508144 0.6883697498578475 1:0 2:0 3:0 4:0 5:0 6:0 7:0 8:0 9:0 10:71.253899 11:62.76001 12:131.18005 
0.09022076572680188 0.1053749831379528 0 0.1067656463028511 1:25.252991 2:20.538055 3:14.919922 4:324.57205 5:218.34302 6:182.53003 7:413.78143 8:133.11 9:180.85999 10:348.31522 11:177.94102 12:157.76013 
0.2305325529842896 0.2075478123920804 0 0.2341832371050341 1:116.51003 2:100.12 3:66.369751 4:428.97839 5:120.655 6:213.80994 7:283.45401 8:77.088974 9:179.60999 10:272.29761 11:80.10498 12:114.67004 
0 0 1.023482896521426 0 1:63.547012 2:76.139999 3:38.449951 4:343.77936 5:106.93604 6:149.73999 7:302.33514 8:146.18202 9:105.82983 10:349.78305 11:82.903015 12:146.88989 
0.507435714674485 0.4337503383652888 0.316069609924423 0.5975575495020624 1:46.331108 2:40.652023 3:39.759888 4:398.76501 5:220.61697 6:292.30005 7:231.90294 8:57.701035 9:216.53992 10:159.71445 11:54.955994 12:127.14001 
0.3421242571985555 0.3082042915339429 1.418814479219355 0.3920907756305437 1:159.06131 2:56.671951 3:122.08984 4:330.81491 5:223.48996 6:187.53015 7:202.87791 8:59.234009 9:163.63 10:95.957619 11:45.982971 12:84.109497 
0.1866598926965874 0.1549313203703827 0.8220712807914631 0.2860012852316441 1:15.908005 2:20.918388 3:15.429932 4:370.94321 5:150.25909 6:139.02991 7:553.50146 8:308.9584 9:112.55005 10:321.41669 11:179.30139 12:93.150146 
0.3417510807968196 0.3052784508047014 0.151465815150353 0.3628962504732151 1:11.839283 2:12.516312 3:6.2103271 4:437.11743 5:201.02139 6:140.25989 7:618.20447 8:331.71649 9:141.71997 10:382.68713 11:220.89522 12:101.85999 
0.4869138200521291 0.4167909011344169 1.22106382640688 0.475309102362285 1:18.534012 2:31.891968 3:14.760132 4:192.68002 5:91.102036 6:144.54993 7:436.38 8:145.267 9:277.51001 10:391.96399 11:147.43202 12:192.88989 
0.1190925329940405 0.08807684088219818 1.183948903454406 0.100426618995152 1:34.095093 2:46.523987 3:44.480103 4:395.24597 5:158.6041 6:202.44983 7:400.42294 8:140.48395 9:134.20996 10:157.59799 11:58.944 12:57.529785 
0.475850536983544 0.4150802155774946 0.4313196012396585 0.5495593606619179 1:14.987976 2:16.957092 3:13.010132 4:349.56799 5:106.86341 6:87.899902 7:490.827 8:68.144989 9:199.58997 10:542.91602 11:82.848709 12:255.83997 
0 0 3.825562344891779 0 1:181.95001 2:40.254013 3:44.449951 4:183.59698 5:39.300003 6:52.970093 7:153.94504 8:33.563019 9:41.339966 10:245.569 11:46.723999 12:68.389893 
0.3538777313994312 0.3254652053521535 0.1315728942606089 0.4029479872322433 1:20.601013 2:13.592987 3:6.9598389 4:382.12802 5:79.62001 6:117.79993 7:352.75201 8:88.643982 9:111.7998 10:519.953 11:109.02199 12:132.54993 
0 0 4.057986525966301 0 1:243.91002 2:76.770302 3:52.623962 4:260.78702 5:35.234711 6:114.36694 7:200.19791 8:90.702591 9:68.267029 10:239.59848 11:70.790497 12:80.873962 
0.04325978482062595 0 0 0 1:207.46651 2:94.763458 3:64.098022 4:220.43329 5:66.81881 6:62.763 7:183.70001 8:35.554508 9:81.996033 10:364.3476 11:53.278141 12:81.242981 
0.1184034811798751 0.1007210036765615 0 0.1416454842632884 1:338.62302 2:75.2071 3:90.049011 4:317.55203 5:99.467697 6:112.78693 7:386.91098 8:107.64351 9:103.61102 10:427.125 11:68.695183 12:75.49408 
0.2813670476581884 0.230542536569824 0 0.2002091578942666 1:216.62289 2:30.690458 3:15.452942 4:205.20198 5:41.2495 6:58.632019 7:278.26328 8:37.746296 9:31.844971 10:409.96631 11:59.875401 12:72.413025 
0.4204372924030269 0.3584646854107415 0.2187585808127157 0.3932787814843212 1:200.31169 2:22.496401 3:20.64093 4:312.72784 5:114.8566 6:115.15302 7:375.68399 8:69.999008 9:246.17004 10:324.25198 11:108.80002 12:234.27393 
0.2265079537274983 0.09304107694309895 0 0.03603982475301645 1:16.728401 2:3.6963005 3:16.344971 4:259.12598 5:37.24234 6:47.31604 7:270.76599 8:45.838837 9:88.20105 10:395.40659 11:91.658707 12:54.22406 
0.5942776267043594 0.5397168833241001 0.7442727052807394 0.8216634673602755 1:335.785 2:235.65959 3:80.922913 4:327.0748 5:262.49313 6:83.718994 7:270.05823 8:40.67408 9:97.770081 10:85.123993 11:17.27515 12:10.109985 
0.110756587817663 0.09964565435220578 3.122429157624875 0 1:305.14001 2:76.730698 3:36.177002 4:298.629 5:87.034393 6:61.647949 7:220.1572 8:53.567696 9:47.823975 10:141.34599 11:49.5424 12:32.03595 
0.278833613300724 0.3039144319747212 0.5223502842449365 0.3034271725479551 1:261.6767 2:65.613998 3:71.580078 4:159.92403 5:126.04401 6:42.17981 7:315.18826 8:128.54599 9:146.38 10:13.364939 11:14.998016 12:11.430054 
0 0 7.318687051353399 0.3708192290255816 1:98.981995 2:24.189011 3:32.639893 4:247.60951 5:154.91899 6:32.560059 7:252.33372 8:100.05598 9:59.530029 10:122.9399 11:57.811005 12:45.009888 
0.6007560325272314 0.4999648680250677 0.4075693490965618 0.8612601284163837 1:83.464905 2:38.0914 3:62.963989 4:203.93208 5:57.656197 6:80.959961 7:170.7498 8:26.814791 9:70.619995 10:319.32339 11:322.66095 12:132.05603 
0 0 3.820788540882308 0.5571698194162971 1:73.663712 2:13.322998 3:25.880127 4:256.69971 5:125.729 6:48.380005 7:197.60896 8:87.164993 9:75.410034 10:116.56281 11:36.024994 12:58.080078 
0 0.1554021297642708 4.888162364694367 1.632504245307314 1:52.547897 2:14.017029 3:38.890137 4:283.22971 5:143.097 6:69.570068 7:248.1097 8:148.439 9:36.780029 10:93.151596 11:21.737015 12:25.23999 
0 0 8 0.4775439849420146 1:106.8247 2:26.03801 3:22.499878 4:244.75238 5:126.18199 6:26.450073 7:156.33504 8:104.54102 9:14.120117 10:209.0625 11:58.440002 12:56.01001 
0.3011993733408623 0.9640007637716328 1.393577589632435 0.7151807985388569 1:72.689499 2:30.894989 3:23.740112 4:68.169289 5:31.638 6:13.790039 7:109.9942 8:42.30098 9:15.660156 10:20.220699 11:20.835007 12:23.009888 
0 0.1902008264850342 2.437341529622679 0.4749935233566037 1:223.5416 2:74.506012 3:65.27002 4:77.452942 5:70.738007 6:11.839844 7:211.09543 8:93.229996 9:61.880005 10:108.87641 11:59.001999 12:35.919922 
0.1820455771032427 0.7109299854475928 1.322961825577021 0.3458531777674567 1:88.055 2:33.285606 3:41.530029 4:129.106 5:29.485588 6:62.669922 7:111.18103 8:102.998 9:53.76001 10:270.42249 11:92.663986 12:146.97998 
0.6537193812349428 0.5744134096727364 0.5605606536252312 0.7423378735847291 1:492.01541 2:260.78601 3:205.15002 4:105.133 5:117.3485 6:71.160034 7:273.28082 8:53.867001 9:122.18994 10:127.7173 11:109.59711 12:37.830078 
0 0 3.417657075903956 0.2236904236415896 1:254.629 2:66.098198 3:43.73999 4:256.44098 5:169.09151 6:35.269897 7:246.66902 8:165.99191 9:93.150024 10:233.14548 11:88.555504 12:86.52002 
0.4707316304312376 0.4377573351291012 0.008579549876385883 1.11690629350603 1:59.652702 2:15.643005 3:18.51001 4:359.17523 5:180.80598 6:37.75 7:106.21295 8:187.97202 9:38.22998 10:303.96832 11:98.52301 12:40.73999 
0.2227286972650995 0.3184128669720844 0.02930955305823351 0.2746413199005743 1:192.99789 2:109.4369 3:130.73999 4:172.93202 5:109.49409 6:55.569946 7:292.25443 8:104.01649 9:178.33997 10:72.47348 11:127.96241 12:95.360046 
0.5331708619293216 0.6616324053164763 1.060475176574151 4.624786133785416 1:145.11859 2:95.184311 3:69.640015 4:290.47238 5:292.99509 6:90.689941 7:254.41412 8:291.13312 9:45.940063 10:148.4539 11:58.810493 12:87.949951 
0 0 1.934321628041955 0 1:168.6396 2:73.332901 3:54.01001 4:279.53241 5:61.365532 6:83.289917 7:322.60767 8:149.26187 9:77.830078 10:217.20628 11:80.630302 12:50.030029 
0.08411570817113721 0 0 0 1:293.06598 2:70.815109 3:114.87 4:155.18701 5:93.536583 6:67.559937 7:299.13541 8:72.208168 9:95.380005 10:42.126495 11:49.516548 12:21.659912 
0.005653411484388226 0 0.6601876759090138 0 1:59.0093 2:21.891609 3:55.069946 4:406.68439 5:174.7641 6:100.33008 7:215.19899 8:164.0005 9:62.300049 10:210.99934 11:43.376801 12:53.380005 
0.06388264780503324 0.1417461313088308 0.4324685565664515 0 1:197.13501 2:37.88586 3:15.260132 4:212.26952 5:127.3828 6:17.429932 7:359.13605 8:95.172203 9:21.450073 10:61.882019 11:53.264214 12:6.3999023 
0 0.221684300230399 0 0.09517399116730914 1:11.428009 2:14.730289 3:5.9901123 4:201.76999 5:51.415119 6:21.98999 7:272.27496 8:35.437599 9:42.01001 10:64.377045 11:42.097301 12:15.519897 
0.1756046987479044 0.1360359951386031 0.5408730176567549 0.7429075453869563 1:166.658 2:47.426197 3:9.1298828 4:273.62598 5:89.257347 6:30.220093 7:324.52521 8:230.02341 9:103.27014 10:52.033997 11:60.249008 12:46.449951 
0.3723780189768357 0.2224504730548027 0 0.4719535725378957 1:22.416962 2:4.4634709 3:8.6901855 4:160.49298 5:22.494043 6:14.869873 7:266.88901 8:54.689899 9:11.900024 10:20.39801 11:16.523407 12:7.1401367 
0.01741844683148922 0 0.7151685761628942 0 1:23.393036 2:10.108704 3:5.9598389 4:265.582 5:59.067902 6:14.059814 7:306.5864 8:50.801895 9:17.039917 10:113.67401 11:45.114292 12:31.26001 
0 0 0.9200440289791753 0 1:33.597992 2:22.055992 3:4.7901611 4:246.36162 5:63.968407 6:26.930054 7:258.62561 8:59.412003 9:10.699829 10:89.835968 11:66.893005 12:18.02002 
0 0 0 0.01244896480143858 1:162.22308 2:85.083023 3:18.990112 4:199.66399 5:43.552948 6:45.409912 7:260.57703 8:44.503021 9:40.400024 10:16.596954 11:26.767014 12:14.189941 
0 0 0.1194737119371998 0 1:183.27789 2:39.2015 3:28.539917 4:111.47501 5:58.291237 6:6.6101074 7:255.40981 8:57.978359 9:53.130005 10:64.06041 11:20.854502 12:22.710083 
0 0 2.267005960949061 0 1:79.298111 2:43.019905 3:25.969727 4:321.19385 5:85.7575 6:132.14001 7:376.51642 8:163.27609 9:170.66992 10:168.60699 11:51.623852 12:96.350098 
0.06652683871666909 0.03462544061788685 0.760119139531276 1.021867769032254 1:238.69751 2:91.026566 3:105.06006 4:306.80188 5:114.66174 6:129.66003 7:242.34889 8:122.5971 9:106.08997 10:31.640991 11:28.264904 12:26.560181 
0 0.03353776986966341 0 0 1:225.40271 2:106.29549 3:92.129883 4:332.73932 5:129.7912 6:148.37988 7:291.54449 8:100.10937 9:132.55017 10:309.85168 11:101.75425 12:161.06982 
0.1374970969776178 0.1862956621040324 0 0.1130002687992209 1:35.178402 2:28.053001 3:20.84021 4:275.46521 5:103.32079 6:131.23999 7:257.5524 8:74.512222 9:133.56995 10:91.510193 11:41.3876 12:49.860107 
0.2250174261376865 0.1923816811686029 1.181403196182777 0.33482487819209 1:45.752945 2:33.544395 3:22.4198 4:408.77695 5:217.8631 6:135.22998 7:457.58679 8:245.90967 9:42.339844 10:350.96143 11:100.8194 12:68.3302 
0 0 8 0 1:172.16032 2:45.172188 3:40.579956 4:235.65826 5:142.96732 6:41.209839 7:235.907 8:106.7156 9:34.009888 10:246.44308 11:72.183601 12:34.420044 
0.6597164067510081 0.5761428854446776 0.5855264489968767 0.811027480908705 1:14.555023 2:20.288002 3:9.079834 4:247.79701 5:262.21698 6:240.1698 7:280.59488 8:231.63303 9:258.56995 10:405.45132 11:420.24399 12:199.10022 
0.545315254353318 0.5515984143083168 0.7388282513653065 1.236069142152974 1:73.90979 2:95.02803 3:41.90979 4:375.55551 5:307.72891 6:151.37 7:255.54169 8:246.82402 9:190.32007 10:320.14905 11:253.50101 12:171.95007 
0.2170562100661652 0.6966511150265461 0 0.3560985322381265 1:11.317001 2:14.169098 3:4.3901367 4:129.20599 5:31.315403 6:31.869995 7:141.59309 8:55.152504 9:11.199829 10:277.90753 11:79.620758 12:41.140137 
0.09727633251024824 0.1067353658235585 0 0 1:31.307022 2:15.647903 3:8.3897705 4:275.87546 5:86.944107 6:19.589966 7:346.31772 8:102.60461 9:31.5 10:23.422028 11:22.641487 12:12.610107 
0 0 1.081701317683897 0 1:157.17601 2:46.880699 3:27.689941 4:216.53979 5:52.031204 6:27.299805 7:248.28299 8:42.521305 9:54.450195 10:20.509003 11:11.193779 12:11.72998 
0.3475799594950979 0.3212573615941746 0.6940705634786569 0.2697541556549467 1:45.981018 2:38.614998 3:4.0899658 4:349.04541 5:176.01291 6:24.380005 7:457.70978 8:141.48651 9:86.300049 10:28.912018 11:7.2120056 12:32.309937 
0.06291436685431714 0 0 0 1:79.288025 2:57.457611 3:13.73999 4:367.83682 5:77.875694 6:49.690063 7:337.20084 8:49.615501 9:31.440002 10:89.982971 11:54.686798 12:26.299988 
0.03945005410186905 0 0.3937612549904583 0.1073172945532411 1:245.29901 2:63.025703 3:33.319946 4:179.56876 5:128.7897 6:26.750061 7:348.66208 8:69.189491 9:48.503052 10:76.006012 11:72.952095 12:21.19104 
0.2183108362689053 0.1489959358578082 0.3994872592579949 0.2933831916168186 1:63.181 2:35.554001 3:7.9499512 4:246.0441 5:55.158604 6:5.7800293 7:131.49098 8:145.3846 9:24.460022 10:388.9668 11:90.4702 12:52.67804 
0 0.04361824618185324 1.100503692867881 1.059888303572149 1:66.45401 2:46.121895 3:3.8199463 4:211.72701 5:29.937996 6:9.4599609 7:101.5723 8:83.790695 9:22.359985 10:139.14249 11:45.7444 12:29.469971 
0.05173417899074558 0 0.2046864941898793 0 1:32.171997 2:29.533401 3:8.3800049 4:277.34961 5:47.6847 6:17.700073 7:167.3098 8:49.506592 9:37.419922 10:189.618 11:34.303185 12:16.049927 
0.01842644153726495 0 0.5693033683077369 0 1:13.615021 2:10.803696 3:7.5800171 4:219.19492 5:40.634506 6:12.049988 7:159.0647 8:42.545395 9:30.340088 10:131.92696 11:26.041702 12:16.679932 
0.7036069285990506 0.6190246053662822 0.8527238368470715 0.9782987417128242 1:216.00699 2:108.62202 3:8.8498535 4:284.72632 5:199.73778 6:119.12616 7:547.84851 8:440.82407 9:102.72302 10:35.569 11:49.87809 12:26.731995 
0.04291935973643102 0 0 0 1:242.24742 2:65.042603 3:33.270142 4:302.13452 5:94.084991 6:65.160034 7:368.1261 8:88.944099 9:56.73999 10:42.128021 11:43.614395 12:20.98999 
0.04744335011246445 0 0 0 1:44.890015 2:17.22699 3:30.570068 4:303.27649 5:46.723999 6:47.479858 7:194.13184 8:30.526978 9:19.289795 10:197.93103 11:65.48999 12:27.029907 
0.2423369846024392 0.2268557252003474 0 0.1194452019113829 1:180.461 2:101.9824 3:15.989868 4:450.43198 5:108.4241 6:42.849976 7:337.49597 8:118.6044 9:54.470032 10:281.63 11:120.4671 12:48.771973 
0.3311346009534615 0.2905500638332121 1.305359292891053 0.4714594434175408 1:119.31396 2:36.618401 3:47.55896 4:495.22302 5:180.96178 6:55.585022 7:437.896 8:132.66029 9:94.447998 10:83.414993 11:36.798409 12:61.675964 
0.2323723923885026 0.2017945143864472 0 0.2063469169106583 1:40.536011 2:22.584595 3:6.881958 4:433.71298 5:192.97121 6:26.843994 7:430.77798 8:125.48759 9:78.532959 10:189.20404 11:150.65201 12:57.97699 
0.04740032902605622 0.02085299250024133 0.5824553279781877 0 1:64.050995 2:46.167999 3:6.4000244 4:382.54578 5:80.882401 6:8.3380127 7:229.7482 8:76.242096 9:53.024048 10:226.67099 11:105.2151 12:40.607971 
0.02278242912672682 0.01747594474644602 0 0 1:59.499985 2:26.390015 3:27.160034 4:508.93298 5:160.43799 6:111.63013 7:546.84698 8:140.56799 9:46.899902 10:439.99408 11:170.96503 12:66.589844 
0.4395276279642146 0.3879608049048258 0.2823073421821485 0.5147380536722546 1:43.804001 2:20.652039 3:22.299805 4:511.71304 5:237.5 6:125.89001 7:591.31921 8:124.77701 9:58.100098 10:465.71173 11:209.40103 12:65.5 
0.06545773576519197 0 5.623425204303016 0 1:218.76501 2:23.93103 3:14.002991 4:244.98289 5:51.943989 6:13.372131 7:230.35153 8:33.810921 9:27.522034 10:218.25708 11:22.64188 12:36.493042 
0.5173109954458129 0.4557645015391473 0.4978602907239976 0.5823414440966782 1:36.527893 2:31.380035 3:30.280029 4:446.9838 5:93.015015 6:147.98999 7:634.36426 8:168.06799 9:157.46008 10:259.11404 11:53.815002 12:147.01001 
0.7263307107971834 0.6377782635383726 0.6655995212019451 0.8322643791083491 1:592.88702 2:124.12302 3:152.11975 4:843.78308 5:260.25403 6:248.92004 7:759.02087 8:194.37097 9:246.36011 10:765.89587 11:260.40799 12:201.08008 
-0.1298018528075791 0.08625332141950534 0.1018524607323477 0.110619548576764 1:47.297943 2:32.319023 3:149.71008 4:48.590004 5:60.237961 6:342.16003 7:64.850945 8:77.584 9:377.84985 10:67.123047 11:46.880981 12:204.44995 
-0.184986044560195 0.1325668091199154 0.1594057935215765 0.1699410122051306 1:17.477997 2:25.133011 3:10.229614 4:30.335999 5:55.19101 6:306.63 7:40.17804 8:27.963005 9:295.42004 10:56.490997 11:28.945007 12:302.02991 
-0.1702132605399142 0.1241834856525273 0.1468171251112985 0.1512594474594755 1:76.200958 2:65.18399 3:365.33997 4:71.244019 5:97.12278 6:319.55994 7:53.764114 8:112.30011 9:405.27002 10:70.398972 11:78.497093 12:459.80994 
-0.1145158982522334 0.09910826719845135 0.08365833377634357 0.09700359843614755 1:16.153502 2:49.543396 3:95.439941 4:19.959797 5:39.986404 6:132.57501 7:34.670399 8:23.622101 9:297.039 10:17.175098 11:32.698101 12:201.82996 
-0.01329972093697712 0.05102740319062407 0.06459804966713865 0.04033553214977347 1:16.270596 2:21.412998 3:184.33008 4:53.868099 5:43.905605 6:211.89294 7:19.557497 8:25.96698 9:187.31506 10:65.966805 11:33.295715 12:337.05994 
-1.155120309838754 0.8332349935194439 0.9829035843238428 1.016528968638571 1:48.150581 2:80.749504 3:332.72009 4:48.573212 5:224.93008 6:330.36023 7:64.674507 8:148.63248 9:420.22998 10:53.974091 11:296.34622 12:543.91016 
-0.4763708622770506 0.3780796969756108 0.4514279887643159 0.4550085289775209 1:11.92202 2:84.813896 3:197.76001 4:19.477005 5:37.155701 6:174.93994 7:32.876305 8:107.2748 9:366.95996 10:19.128296 11:59.3703 12:31.710083 
-0.4938392446267165 0.3763417889183574 0.4229360990674601 0.4603887499011677 1:36.118904 2:26.813011 3:213.41992 4:41.621498 5:176.22034 6:167.75012 7:36.622009 8:94.193047 9:266.64001 10:26.803032 11:34.445396 12:121.13 
-0.4552447250412052 0.3283431803823564 0.3748544894339593 0.3959351733721806 1:34.452087 2:31.230797 3:40.950195 4:47.714966 5:46.759323 6:435.04993 7:36.192001 8:24.295544 9:163.95007 10:30.336014 11:41.189835 12:281.07996 
-0.571757922240871 0.4046465455874039 0.4704258979052005 0.5331260770110278 1:19.200958 2:17.964966 3:15.390137 4:68.875916 5:180.35797 6:405.52991 7:37.920044 8:134.104 9:248.20996 10:30.520996 11:59.809998 12:103.16003 
-0.9410763226359178 0.7153464579149074 0.8402682334510969 0.8710997601552403 1:65.03302 2:171.06001 3:396.43005 4:26.156006 5:78.655975 6:192.3999 7:19.80896 8:110.77399 9:215.20007 10:12.919037 11:10.613007 12:15.72998 
-0.8657950762924073 0.6240604855634725 0.735393444759963 0.7626659422907274 1:23.264534 2:33.288048 3:68.190063 4:109.545 5:130.77856 6:621.23193 7:68.575714 8:51.353302 9:416.62402 10:34.042793 11:116.5538 12:328.64014 
-1.055051590191608 0.7593144725689558 0.8960120340729655 0.9237738665487877 1:18.360977 2:13.792023 3:19.679932 4:64.600037 5:177.56201 6:416.55994 7:24.071991 8:38.959 9:70.809814 10:58.575989 11:144.42297 12:451.61011 
-0.5218823887872008 0.3786822122040204 0.4464449117295053 0.4545447622376551 1:16.392006 2:19.678009 3:31.050049 4:77.833977 5:197.01402 6:454.92993 7:40.061981 8:63.769989 9:277.98999 10:36.957001 11:156.58299 12:250.97009 
-1.243620569965394 0.5204764418967617 0.6263309590875847 0.7130107105387706 1:50.328995 2:98.261993 3:221.44995 4:52.408981 5:34.325012 6:79.660034 7:37.188004 8:71.302002 9:168.21997 10:36.029984 11:39.792999 12:21.499878 
-0.268343667486953 0.1840255895867677 0.2089453181226182 0.2112254635454459 1:17.891247 2:25.008957 3:22.249878 4:105.85299 5:58.137009 6:330.11011 7:77.124207 8:57.400986 9:330.34998 10:39.90369 11:37.965973 12:29.619751 
-1.124018496317272 0.8067143007708428 0.9549586680110972 0.9862804754065191 1:21.631203 2:22.041016 3:10.910034 4:11.076 5:32.35701 6:88.609741 7:44.538502 8:56.176041 9:505.46997 10:27.361795 11:48.74704 12:121.61975 
-1.273720326115964 0.9188890433087875 1.083902225597672 1.120395729426554 1:241.4128 2:122.77921 3:113.08008 4:788.35077 5:406.97696 6:278.67957 7:99.461319 8:148.82758 9:54.569824 10:1212.3333 11:572.4325 12:380.13013 
-0.006675590948864547 0 0.04639405908031023 0.02507474695311097 1:15.419983 2:23.414787 3:10.6698 4:89.15799 5:77.471794 6:313.28003 7:53.859024 8:81.951202 9:256.79993 10:24.805984 11:18.961006 12:21.200195 
-0.8672843403263204 0.6320723315641169 0.7869043701247347 0.7943294883300187 1:85.793976 2:36.45401 3:221.63 4:65.920013 5:40.059967 6:289.62 7:22.692017 8:24.319977 9:50.450073 10:19.360992 11:17.468994 12:15.359741 
-0.1782937075227227 0.13824999484433 0.116908123809121 0.1909753506805496 1:22.358032 2:22.355072 3:28.789917 4:59.46405 5:24.981079 6:260.56995 7:31.197998 8:32.244019 9:232.48999 10:27.659973 11:23.962006 12:18.059937 
-0.8789604496208001 0.636105146829221 0.749094784680837 0.7750200918183663 1:110.338 2:39.859898 3:366.2301 4:37.571991 5:43.163498 6:363.2301 7:26.100983 8:70.972206 9:362.6499 10:11.681 11:24.292965 12:332.61987 
-1.137540739818191 0.8206300624881509 0.9689465415275861 1.001317901555277 1:19.700012 2:20.147804 3:14.129761 4:112.96498 5:59.362305 6:420.0199 7:82.121017 8:63.999111 9:555.59998 10:44.181015 11:123.09734 12:527.53003 
-1.043227239148354 0.7554710819510049 0.8877256327637944 0.9221691747611002 1:15.832977 2:12.429977 3:57.029907 4:68.394012 5:88.096985 6:453.45996 7:86.196014 8:113.08688 9:530.43005 10:25.923996 11:14.41169 12:11.470093 
-0.1328168157374506 0.1097972824902654 0.123500039439597 0.119847074738893 1:16.812603 2:22.893021 3:82.579956 4:28.501884 5:58.993805 6:355.78296 7:53.139809 8:41.128998 9:380.80505 10:14.886703 11:52.686996 12:26.099731 
-0 0.1294068168030034 0.08461051996110937 0.1063856503322662 1:16.442398 2:16.373009 3:36.249878 4:39.090004 5:63.354301 6:225.13501 7:47.053307 8:105.29291 9:232.38696 10:16.775398 11:21.136993 12:28.839966 
-1.273603354672261 0.9187800907967481 1.083459120130675 1.120946087606772 1:134.9976 2:77.837006 3:579.09204 4:66.353104 5:48.011993 6:94.579834 7:49.564907 8:40.937988 9:43.920166 10:112.36457 11:132.49702 12:718.80798 
-0.2083454265696419 0.1401055514792633 0.5905689416413779 0.1584425649301279 1:29.788603 2:30.841995 3:38.549927 4:82.033203 5:41.218018 6:184.02002 7:49.701469 8:16.695999 9:158.01001 10:69.613144 11:69.048004 12:98.420044 
-0.5584310773482398 0.4028921747162746 0.4770600605517343 0.4915299179363002 1:116.55349 2:110.10101 3:221.12 4:74.4879 5:134.633 6:577.44897 7:79.121498 8:111.25299 9:394.625 10:76.815598 11:129.75098 12:354.8501 
-0.8906462821489475 0.6425507936115166 0.7567814487982709 0.7839208874159677 1:82.806099 2:136.06299 3:302.98999 4:43.848026 5:83.526993 6:579.31598 7:67.786026 8:82.891006 9:468.07599 10:81.671684 11:119.01199 12:249 
-0.4124566392034871 0.3349195007518764 0.3623795452858878 0.4350106498695164 1:29.322197 2:30.243011 3:93.330078 4:57.9431 5:50.254974 6:221.52991 7:12.716499 8:17.335022 9:56.640137 10:98.512817 11:104.81799 12:311.22998 
-0 0 0 0.04741903814783138 1:24.835804 2:61.575027 3:146.66003 4:36.710827 5:29.714981 6:131.97986 7:51.693428 8:35.712006 9:135.30005 10:32.193295 11:92.679993 12:164.23999 
-0.5722442450935851 0.3861322543038936 0.4590310863625478 0.4779083830115975 1:29.163055 2:46.577488 3:212.50989 4:28.276001 5:52.054302 6:251.1499 7:50.052994 8:56.224602 9:232.34985 10:51.834 11:50.507202 12:361.44006 
-0.4940999531694893 0.3640207577502281 0.3531006799840024 0.4262097820948557 1:11.016998 2:20.076498 3:22.97998 4:51.751007 5:46.822803 6:157.45398 7:41.371017 8:14.740204 9:215.01605 10:63.651993 11:117.96809 12:293.90802 
-0.03774962101135763 0.01812000170625016 0.04310249631751689 0.04822238317024419 1:25.602005 2:82.227402 3:127.47095 4:24.246994 5:68.406693 6:258.56104 7:23.862991 8:15.522026 9:100.27496 10:40.001007 11:130.34488 12:306.26904 
-0.3836300646837444 0.2812746163566831 0.3350844405484401 0.3341487890622082 1:25.505997 2:31.539707 3:94.679932 4:43.629005 5:96.237305 6:459.07703 7:76.498009 8:167.19305 9:374.52002 10:34.560959 11:54.615803 12:206.177 
-0.1472032538143144 0.08466407616684066 0.118950765580891 0.1154369487488375 1:50.877991 2:36.116013 3:70.406006 4:67.406601 5:42.267593 6:322.61298 7:26.437492 8:107.0304 9:393.81097 10:15.925499 11:22.125 12:21.599976 
-0.1407685741791436 0.01199938102198684 0 0.03050597030116543 1:10.560181 2:10.528 3:8.6699219 4:43.290703 5:46.082993 6:259.06494 7:13.610504 8:46.479004 9:237.28296 10:13.533005 11:27.830002 12:33.990112 
-0.2369916016967955 0.1691529699936931 0.2070999287945229 0.204330139857687 1:26.677948 2:14.271027 3:11.489746 4:39.626984 5:52.937073 6:394.19006 7:34.764008 8:74.475006 9:227.81006 10:49.717041 11:69.449066 12:382.15991 
-0.9290597038032151 0.6694798144864168 0.7892781534302762 0.8161718396427501 1:34.225952 2:119.735 3:429.1001 4:59.524017 5:73.889 6:326.58008 7:53.312073 8:107.24529 9:469.58997 10:46.982956 11:96.854111 12:501.95996 
-1.123475537838024 0.810342454672686 0.9588221024320862 0.9891717999513635 1:24.563995 2:17.951187 3:14.030029 4:22.658051 5:48.483391 6:187.21008 7:28.275986 8:95.049217 9:414.62 10:49.027985 11:152.0755 12:533.63 
-0.1060900068385905 0.04344319716859388 0.3012213573870397 0.03028429790373698 1:21.51799 2:21.789196 3:45.997009 4:69.652985 5:37.838806 6:165.07901 7:28.168015 8:15.051001 9:58.442047 10:44.673988 11:46.1143 12:184.25299 
-0.7975504572877565 0 0.2131552995596982 0.2717890932276482 1:37.397003 2:51.260609 3:110.94098 4:45.112991 5:39.554302 6:142.43301 7:21.149994 8:16.710121 9:62.870026 10:44.537003 11:34.536102 12:159.76202 
-1.137250510273918 1.182306661450509 1.08496461314641 1.303543682080227 1:15.222305 2:15.525299 3:33.865051 4:157.63638 5:255.0972 6:172.18195 7:8.6909943 8:29.772301 9:87.122009 10:7.2469711 11:17.661011 12:58.470032 
-0 0.06145016061841963 0 0 1:5.2780304 2:13.925995 3:45.367004 4:32.596001 5:50.204102 6:185.25 7:12.176498 8:26.3563 9:93.94397 10:14.1576 11:23.78801 12:105.32104 
-0.286736403805278 0.4737009826282602 0.1717128792400036 0.4323188421200049 1:14.609299 2:48.947525 3:80.44397 4:17.7999 5:32.6287 6:172.30701 7:4.5597916 8:7.6675034 9:32.538025 10:10.744503 11:46.298302 12:181.43799 
-1.151176035019587 -0.8051601940824636 1.021067260098517 1.247234912697654 1:106.49675 2:163.86493 3:89.43042 4:181.90781 5:367.68823 6:92.140503 7:296.82901 8:111.35255 9:104.82007 10:292.90524 11:152.34012 12:137.51013 
-0.3519797204579543 -0.288033744451806 0.2741294460626972 0.2060964581899941 1:70.683998 2:199.38997 3:45.329834 4:57.774498 5:316.74948 6:47.320068 7:250.00829 8:99.481506 9:85.710205 10:188.84903 11:44.043976 12:41.759766 
-0.4347912416591468 -0.1259592325686274 0.4338903358083942 0.5907863913299718 1:66.320145 2:142.97798 3:37.000244 4:69.999352 5:247.10126 6:50.290283 7:233.2155 8:155.88474 9:88.490356 10:263.99396 11:54.868004 12:101.1001 
-0.04515110475757624 -0.1365188846990174 0.008754001900776463 0.01087691393593504 1:59.965305 2:209.78998 3:49.570068 4:68.261292 5:375.53809 6:85.400024 7:222.92381 8:134.00597 9:76.599854 10:259.19904 11:97.48201 12:93.550415 
-0.5680106319692611 -0.471806296105435 0.3776530713555846 0.4557758712589046 1:12.582219 2:38.837036 3:8.7197266 4:25.954727 5:261.3457 6:39.030029 7:38.789246 8:249.22128 9:27.489868 10:316.88312 11:50.113968 12:21.559937 
-0 -0.02464050444541996 0 0 1:21.374481 2:22.634979 3:13.379883 4:47.058105 5:340.88919 6:21.609985 7:227.15311 8:154.61111 9:68.820068 10:273.35544 11:42.988228 12:65.260132 
-1.361851557940189 -1.081018838687349 1.167757922850875 1.192426983426079 1:159.14751 2:443.5907 3:60.480225 4:79.155762 5:468.07843 6:60.490234 7:67.367897 8:117.59131 9:44.740112 10:716.87177 11:124.36488 12:147.33997 
-1.086339736950134 -0.853849843403394 0.9107395682775096 0.9234082461341705 1:17.047501 2:22.485962 3:10.610352 4:29.303499 5:338.30249 6:18.040161 7:97.293594 8:59.329517 9:43.070068 10:408.11621 11:101.4579 12:119.04004 
-0.964776779386588 -0.7686689740166068 0.8254917364207506 0.8191511044834864 1:14.808701 2:37.708008 3:33.210205 4:27.043995 5:572.86798 6:220.28992 7:235.51889 8:175.92998 9:78.960205 10:217.319 11:53.564987 12:175.37012 
-0 -0.03065411825043575 0 0 1:19.276962 2:18.233017 3:18.699829 4:23.570969 5:139.07999 6:24.740112 7:49.342972 8:157.40541 9:51.739868 10:91.047028 11:12.544693 12:16.150146 
-0.2790546885378051 -0.2444655707109812 0.03132305424527947 0.02900351739016915 1:14.213501 2:22.363594 3:9.630249 4:29.715206 5:292.14301 6:27.699951 7:309.18683 8:52.858032 9:155.51001 10:18.340027 11:24.978943 12:31.099854 
-0.7709825919382334 -0.64759031917049 0.6633928384229763 1.335211985535386 1:14.39798 2:27.914009 3:22.599976 4:57.345978 5:295.70801 6:106.59998 7:80.222015 8:241.175 9:39.149902 10:99.567963 11:52.729004 12:174.94995 
-0.4401908462203057 -0.3435763607703329 0.4021373239568882 0.3560418616984625 1:25.991974 2:27.508911 3:13.119995 4:22.621017 5:331.40109 6:88.599854 7:110.627 8:375.02225 9:83.920166 10:292.33594 11:67.029053 12:133.91968 
-1.383063841612606 -1.074983252244747 1.178018509481964 1.205582455067314 1:106.38311 2:346.34174 3:105.64954 4:330.72647 5:124.59213 6:131.18982 7:281.85953 8:150.31516 9:119.25964 10:122.522 11:288.10486 12:98.359253 
-0.001823301909242897 -0 0 0 1:11.91629 2:13.764999 3:17.559937 4:27.030399 5:395.07401 6:70.22998 7:239.0657 8:245.483 9:105.86011 10:78.921997 11:27.24292 12:89.769653 
-1.128129590799236 -0.9047687123805333 0.9790710057439839 1.047649671559283 1:20.952583 2:24.566025 3:26.700195 4:37.374916 5:181.11569 6:59.360107 7:234.8898 8:477.91629 9:152.04004 10:53.202003 11:34.562012 12:72.47998 
-0.411320366725798 -0.2902595910384125 0.702489187629346 0.3975891549758086 1:18.168701 2:25.142014 3:17.309937 4:160.84659 5:396.392 6:48.010132 7:345.41998 8:58.538033 9:72.76001 10:45.828003 11:30.120026 12:27.8302 
-0.4792209131690922 -0.4028248188457654 0.2656718170080728 0.4159677249459001 1:14.69352 2:18.377991 3:11.060181 4:51.681389 5:452.802 6:55.419678 7:377.32001 8:84.216995 9:27.120361 10:51.176025 11:32.718979 12:19.719971 
-0.3016946149715173 -0.2203421629732755 0.2887935887376801 0.1723734425956736 1:5.5950012 2:6.2890167 3:3.9901123 4:10.873993 5:90.205002 6:31.64978 7:154.21803 8:243.46696 9:73.320068 10:158.84094 11:44.728989 12:42.390015 
-0.8303720859939776 -0.5738478182830334 0.7785384582908984 1.299615713795921 1:13.341034 2:16.89299 3:10.409912 4:24.365997 5:106.48653 6:45.48999 7:268.32248 8:253.07449 9:122.23999 10:56.149918 11:82.266296 12:66.509888 
-1.062829030962537 -0.6909525660618739 0.7723987041002833 0.7117280761889867 1:20.427002 2:21.69101 3:13.969971 4:16.36499 5:17.399002 6:15.849854 7:12.416016 8:173.83263 9:60.329956 10:353.21707 11:125.00516 12:95.859985 
-0.2323408819142061 -0.1621913253325996 0.3132700811511122 0.353722451446653 1:11.037033 2:8.4209595 3:8.0299072 4:32.483994 5:248.21635 6:89.170166 7:331.15799 8:169.3217 9:115.73999 10:39.628021 11:30.199005 12:22.380005 
-0.7380409190234462 -0.5841548199051402 0.6505324451832859 0.6399945559999722 1:11.028 2:18.28299 3:12.799561 4:38.951035 5:498.25397 6:150.83008 7:381.48199 8:206.12399 9:137.57996 10:68.387085 11:60.675995 12:49.900024 
-0 -0 0 0.08887876290589759 1:17.657902 2:56.774704 3:18.380005 4:29.917603 5:173.00829 6:45.979858 7:209.4352 8:136.002 9:68.438965 10:50.145981 11:33.219971 12:16.67804 
-0.07843304412739437 -0 0.04981370404720713 0 1:23.555008 2:16.617599 3:8.5301514 4:35.721008 5:169.3306 6:36.399902 7:125.85152 8:104.89442 9:14.489746 10:209.7085 11:48.276009 12:23.360107 
-0 -0 0 0.3057898592476471 1:6.9570007 2:23.150181 3:6.4199219 4:54.151001 5:186.76743 6:38.109985 7:98.97699 8:93.10701 9:59.529907 10:163.3925 11:59.848022 12:21.550049 
-0.2896756750058103 -0 0.2064905000129622 0 1:14.104004 2:24.9 3:5.8897705 4:25.872009 5:141.83781 6:10.860107 7:61.182007 8:60.770004 9:51.949951 10:153.4369 11:25.899994 12:88.559937 
-0.04895803402701136 -0 0.8227036998635173 0.5690583682627773 1:23.509109 2:23.386017 3:14.550049 4:74.995003 5:125.73321 6:13.589966 7:71.082977 8:173.8728 9:79.930054 10:199.99792 11:39.641998 12:57.920044 
-1.010043048343482 -0.2918089708107926 0.5629113071680993 0.4670927155322621 1:14.491596 2:19.255898 3:5.5200195 4:15.244099 5:74.6259 6:12.47998 7:17.819607 8:103.29321 9:16.589966 10:131.63669 11:78.487991 12:38.100098 
-0.725974139020491 -0.4844985879692835 0.4622468428831789 0.5369372792302229 1:5.4613953 2:11.664001 3:2.7099609 4:6.0539932 5:46.2612 6:20.02002 7:13.173996 8:114.0881 9:38.01001 10:217.332 11:162.2317 12:119.52002 
-0.2520139799083428 -0 0.07475373318909366 0.04449865366244703 1:5.8690033 2:22.251122 3:5.3101807 4:42.117599 5:179.97681 6:62.310059 7:168.9761 8:69.216995 9:45.380127 10:20.192978 11:10.812988 12:19.559937 
-0 -0 0 0.9239072448826262 1:4.6096954 2:19.776497 3:9.5200195 4:39.515198 5:201.03061 6:84.5 7:144.3186 8:150.439 9:43.619995 10:77.283287 11:29.019012 12:44.839966 
-0.9392431855807869 -0.6584020528577571 1.847190745992401 1.206745978738264 1:7.4716949 2:54.937508 3:29.580078 4:148.2233 5:230.72749 6:33.27002 7:202.8856 8:21.901047 9:89.48999 10:14.376999 11:8.7050018 12:12.000122 
-0.6005489944873965 -0.47199137270569 0.5721514348467988 0.5222256681419485 1:50.005981 2:125.198 3:95.510254 4:99.911011 5:484.51193 6:115.91992 7:278.86203 8:46.20697 9:53.34021 10:163.104 11:33.725098 12:41.020142 
-0.309377317633396 -0.2273433674334024 0.2628127480093232 0.3802067801921909 1:10.792038 2:9.5639648 3:9.84021 4:45.727982 5:435.17102 6:161.17004 7:171.82587 8:189.71696 9:53.490112 10:229.61711 11:64.073013 12:63.120239 
-0 -0.1904744314335288 0 0 1:12.333969 2:16.046005 3:14.419922 4:29.442001 5:180.13269 6:98.599976 7:78.244995 8:115.7543 9:95.47998 10:174.49997 11:29.872009 12:46.969971 
-0 -0 0.07859697611901462 0.2798159881735914 1:44.47599 2:74.476601 3:23.369751 4:65.609985 5:235.20399 6:58.140015 7:141.03 8:61.111008 9:28.22998 10:165.573 11:14.376007 12:23.700073 
-0 -0 0.01497131935507543 0.2678840770138672 1:29.868927 2:112.38998 3:34.449951 4:29.654037 5:139.7357 6:31.639893 7:87.725998 8:108.94382 9:18.100098 10:142.82748 11:29.509102 12:43.199951 
-0.022200458571805 -0.1489893439182958 0 0 1:11.9468 2:29.289001 3:9.2601318 4:32.606178 5:259.11545 6:69.119873 7:169.4012 8:120.08796 9:156.17993 10:92.327972 11:35.771683 12:142.28015 
-0.2942394466340937 -0.2324175044680822 0.4148869294474849 0.4392360905407104 1:16.13401 2:16.364899 3:15.02002 4:44.545815 5:347.20831 6:86.900024 7:216.15501 8:158.15269 9:199.32007 10:55.183044 11:49.679001 12:61.589966 
-1.324929709950446 -1.037988578088684 1.131721542589567 1.205437460065097 1:117.9266 2:315.039 3:40.010132 4:23.792007 5:36.439987 6:20.310181 7:48.04599 8:244.79999 9:78.889893 10:209.08632 11:39.228996 12:24.809937 
-0.3429373065194911 -0.163282538319583 0.1555453458779578 0.278337183792973 1:16.867996 2:114.66401 3:5.3499756 4:6.8190308 5:253.27499 6:48.673035 7:146.17859 8:16.950989 9:10.304016 10:19.086498 11:14.613998 12:4.8719482 
-0.3066314104073728 -0.2171056516030869 0.2455501626336356 1.162254445769048 1:26.5 2:106.23697 3:23.089478 4:52.671051 5:296.69 6:66.689941 7:240.87144 8:303.88339 9:120.08997 10:175.43851 11:55.875214 12:58.470093 
-1.340724215834103 -1.064355480243103 1.152963840046866 1.174889659066196 1:11.60498 2:22.313904 3:15.659912 4:25.395935 5:59.253113 6:32.9198 7:76.320038 8:578.21887 9:100.32007 10:460.90613 11:205.4028 12:141.8501 
-0.2534127578394494 -0.1994913963717154 0.2120851429050658 0.2104126217889561 1:12.661011 2:40.211014 3:22.369995 4:44.102005 5:513.93896 6:152.68005 7:370.06601 8:140.70999 9:110.77991 10:173.76895 11:30.372009 12:146.91016 
-0.986902546886264 -0.7823732303385956 0.8586451862716437 0.9158097365713865 1:10.780991 2:11.773041 3:21.560059 4:36.137009 5:305.8519 6:135.46008 7:133.23903 8:342.44806 9:87.559937 10:429.74701 11:120.89702 12:180.23999 
-0.8840604571008506 -0.2776028596295534 0.4946478332852254 0.4452260074070825 1:16.19915 2:92.369507 3:6.085022 4:18.271851 5:155.69652 6:11.802917 7:19.115301 8:22.530991 9:6.5797729 10:80.668892 11:16.003998 12:11.381042 
-0.09329935029077491 -0.4960755576384233 0.1846294498103202 0.3172289431945037 1:10.847939 2:39.061508 3:27.085022 4:15.850683 5:216.1795 6:28.995056 7:23.12673 8:21.684021 9:11.641968 10:50.84531 11:15.593964 12:16.749023 
-0 -0.2678937801716265 0 0 1:18.178221 2:88.502594 3:22.013 4:20.056103 5:257.79639 6:50.300964 7:68.051208 8:22.646011 9:34.109985 10:26.951096 11:12.669006 12:20.455872 
-0.4041302455965989 -0 -0 0 1:207.26102 2:44.941502 3:51.799927 4:225.96501 5:97.177994 6:44.090088 7:198.15503 8:80.501114 9:53.329956 10:233.0517 11:47.997005 12:71.530029 
-8 -0 -0 0 1:207.26102 2:44.941502 3:51.799927 4:225.96501 5:97.177994 6:44.090088 7:198.15503 8:80.501114 9:53.329956 10:233.0517 11:47.997005 12:71.530029 
-4.581728168314786 -0 -0 0 1:194.6515 2:41.868011 3:31.390015 4:257.60101 5:148.91302 6:36.929932 7:234.16679 8:89.328995 9:36.150024 10:153.08498 11:57.341492 12:19.370239 
-1.937319816000233 -0 -0 0 1:27.314011 2:25.709015 3:10.550293 4:276.29102 5:96.952988 6:49.920288 7:236.468 8:113.74604 9:34.330078 10:157.04799 11:41.199867 12:22.369995 
-8 -0 -0 0 1:207.26102 2:44.941502 3:51.799927 4:225.96501 5:97.177994 6:44.090088 7:198.15503 8:80.501114 9:53.329956 10:233.0517 11:47.997005 12:71.530029 
-2.283497106834413 -0 -0 0 1:102.15581 2:37.264099 3:40.97998 4:213.09811 5:90.266296 6:81.260132 7:258.84021 8:137.63271 9:97.039978 10:244.96539 11:133.90399 12:78.080017 
-5.017119490638486 -0 -0 0 1:131.91699 2:30.671997 3:4.6799316 4:229.16159 5:116.0284 6:27.98999 7:214.24599 8:126.3638 9:26.120117 10:233.93993 11:73.005814 12:13.680054 
-8 -0 -0 0 1:194.6515 2:41.868011 3:31.390015 4:257.60101 5:148.91302 6:36.929932 7:234.16679 8:89.328995 9:36.150024 10:153.08498 11:57.341492 12:19.370239 
-0 -0.2442398527913925 -0.1335654867846683 0.196408351256271 1:229.49696 2:55.390015 3:41.569824 4:238.4982 5:171.63901 6:27.910156 7:164.50159 8:74.227814 9:29.220093 10:197.32599 11:52.840199 12:29.880005 
-0.9043179401265282 -0.58662890039753 -0.5941614472102432 1.66736113855555 1:55.742004 2:59.244995 3:22.540161 4:104.27239 5:19.939011 6:28.970093 7:437.68262 8:255.69566 9:49.170044 10:247.12347 11:94.117348 12:55.089966 
-1.245377352614775 -0.811335237984554 -0.7371386014715301 0.9524064377453998 1:164.58302 2:23.955109 3:46.039917 4:696.57574 5:297.91751 6:140.76013 7:549.6333 8:223.59047 9:181.43982 10:170.27901 11:36.078979 12:52.900146 
-2.270139480346899 -0.782074346897754 -0.7102800253030059 0.8964159473402292 1:274.29401 2:51.309998 3:117.13 4:524.69202 5:213.24701 6:75.329834 7:542.8006 8:296.40198 9:200.79993 10:369.67032 11:93.432007 12:148.47009 
-0.9554365054555566 -0.7256346514114351 -0.6605207107795866 0.8382970540544767 1:128.05798 2:24.641006 3:31.72998 4:219.10202 5:68.735977 6:185.36987 7:349.14447 8:452.46509 9:267 10:435.6225 11:78.146027 12:196.80017 
-1.555763297435983 -0.4626544340282123 -0.4125257783331199 0.5224004358513364 1:194.03104 2:24.852966 3:22.349731 4:377.46704 5:166.04503 6:171.20996 7:326.78699 8:289.54431 9:62.380127 10:305.44 11:122.44509 12:163.15002 
-0 -0 -0 0.490082882586746 1:36.775024 2:19.179016 3:13.979858 4:252.58101 5:78.033997 6:34.25 7:255.93219 8:172.85219 9:57.939697 10:162.983 11:27.2192 12:30.389893 
-0 -0 -0 0.6196694335305216 1:21.972 2:16.361008 3:17.370117 4:239.23399 5:85.51001 6:54.680054 7:238.29597 8:128.98819 9:44.219849 10:210.49702 11:70.046104 12:28.309814 
-8 -0.2567827623718734 -0.08058227485810789 0.9873188099490147 1:27.314011 2:25.709015 3:10.550293 4:276.29102 5:96.952988 6:49.920288 7:236.468 8:113.74604 9:34.330078 10:157.04799 11:41.199867 12:22.369995 
-3.112894756623668 -0.5850201784594722 -0.5343997421183744 0.6138353193645084 1:20.925404 2:16.558998 3:16.509766 4:427.39941 5:148.24577 6:115.98999 7:403.69443 8:160.91551 9:191.64001 10:77.307922 11:22.702988 12:37.909912 
-1.266311589395566 -0.5110185754363342 -0.4039630830370605 0.7564983877938961 1:184.12891 2:28.069099 3:66.790161 4:431.2775 5:293.15198 6:161.52991 7:341.17899 8:104.45998 9:142.65015 10:20.847015 11:18.292023 12:21.450195 
-0.985876115305069 -0.4943437419551265 -0.5591458900409977 0.3389915212371111 1:230.86401 2:64.238007 3:76.770142 4:260.58398 5:361.22107 6:98.789795 7:272.60202 8:29.602982 9:98.109863 10:114.96002 11:63.039993 12:83.940063 
-1.233207897155352 -0.778816857560915 -0.7038619382216393 0.9743132093736967 1:109.29599 2:188.94012 3:26.400269 4:529.69397 5:315.81488 6:146.56982 7:421.26093 8:425.31201 9:140.77991 10:325.79703 11:81.13298 12:142.1698 
-1.815787765952281 -0.5469028222711648 -0.5947111058157359 1.035012801797774 1:30.319031 2:109.39001 3:69.179932 4:316.61258 5:257.10794 6:200.70007 7:371.62335 8:265.35507 9:85.520142 10:299.5238 11:64.78299 12:99.119995 
-1.358871722598017 -0.914650529125961 -0.8448861673750767 1.0635401518426 1:164.3452 2:305.08752 3:146.94019 4:457.47992 5:207.22832 6:94.799927 7:331.24948 8:63.870941 9:89.019653 10:418.60278 11:336.80402 12:243.04004 
-0.9768398559883197 -0.6688080954110364 -0.6031700257111365 0.7806216083962747 1:44.404949 2:41.262806 3:58.40918 4:208.76559 5:127.61449 6:349.40015 7:248.17586 8:377.14029 9:403.95996 10:209.82895 11:120.05508 12:391.38013 
-1.036616630043651 -0.7129125774440304 -0.6479641677713431 0.826285413483548 1:133.64923 2:28.581688 3:92.770142 4:276.02979 5:169.95061 6:462.16016 7:312.22058 8:419.75198 9:435.71973 10:159.82802 11:81.225952 12:381.33008 
-0.8195370282594977 -0.3313914892193797 -0.3080332476939645 0.4451888655475244 1:12.154305 2:9.7489319 3:8.9398193 4:365.96301 5:114.82399 6:35.569824 7:377.29105 8:342.57806 9:108.0802 10:395.63495 11:115.98199 12:127.6897 
-1.024630046352539 -0.5058367728304615 -0.45768081806484 0.7888615049433508 1:41.205009 2:36.59198 3:17.48999 4:473.8287 5:243.88261 6:98.499756 7:532.90796 8:331.02838 9:108.27991 10:141.32201 11:27.496033 12:65.429932 
-1.533685020587218 -0.6850474522909447 -0.6391425352220319 0.8022983034168855 1:21.828018 2:33.664001 3:18.700439 4:33.500992 5:27.637985 6:25.089478 7:387.73599 8:140.40099 9:189.09009 10:324.37402 11:49.539001 12:162.19995 
-1.622667273269626 -0.561733345555815 -0.5014948278554156 0.6872778569141482 1:15.527985 2:10.324005 3:11.89978 4:193.53003 5:53.112 6:93.859863 7:451.24298 8:268.677 9:276.6001 10:375.71899 11:106.5918 12:160.32007 
-0.5985014221606568 -0 -0 0 1:9.9989777 2:12.391953 3:11.209961 4:267.74799 5:57.53299 6:93.449829 7:414.21301 8:256.4317 9:201.92004 10:294.63199 11:38.776997 12:93.48999 
-0 -0 -0.1933196708387904 0 1:29.972031 2:25.96904 3:9.2200928 4:165.24399 5:44.177994 6:57.119995 7:245.89301 8:182.86401 9:114.28003 10:272.25702 11:65.595703 12:114.40002 
-0.6052816058483653 -0.3518690979753584 -0.3110514557178523 0.4583343374542761 1:50.989014 2:27.397003 3:18.730103 4:334.06903 5:156.804 6:86.950073 7:560.31299 8:329.82993 9:190.6499 10:70.186951 11:39.306992 12:64.439941 
-1.237753163846222 -0.8415474051686881 -0.7646953286566931 0.9720399805148868 1:32.712982 2:21.950012 3:21.939819 4:496.68698 5:201.11903 6:128.05005 7:775.88892 8:445.58203 9:280.75 10:210.065 11:53.188049 12:157.75989 
-1.144168157521784 -0.6652913435998097 -0.6351099495049516 0.9119012844840333 1:8.1730042 2:14.527039 3:7.4700928 4:222.224 5:66.765991 6:31.489868 7:536.33301 8:293.008 9:138.96997 10:41.937988 11:23.886377 12:46.26001 
-1.335320094409854 -0 -0 0 1:96.349014 2:26.205597 3:18.559937 4:296.20358 5:94.125008 6:31.480103 7:369.24438 8:243.05701 9:67.060303 10:255.11504 11:84.747025 12:112.2998 
-1.070855908726214 -0 -0 0 1:144.14203 2:18.759396 3:36.530029 4:248.40839 5:223.383 6:98.779907 7:240.88051 8:109.49202 9:50.869995 10:34.125404 11:34.126953 12:20.210083 
-0 -0.05967514396197663 -1.017624594214739 2.357141423754974 1:92.376953 2:21.807999 3:25.5 4:158.1918 5:74.765594 6:51.22998 7:88.61721 8:175.58951 9:18.609741 10:161.76578 11:55.011993 12:33.890015 
-0.5503883090157129 -0 -0 0.4012983981792639 1:53.587006 2:8.4509964 3:17.729858 4:323.19971 5:145.74329 6:76.48999 7:353.35303 8:225.9567 9:72.720093 10:206.39011 11:39.716965 12:39.59906 
-0.9051040252293571 -0.4774262838642897 -0.38566354739849 0.6010036218381597 1:234.81099 2:45.677193 3:67.869995 4:157.8558 5:80.026901 6:32.27002 7:227.56699 8:217.26788 9:21.949951 10:268.81702 11:65.800995 12:35.280029 
-3.37298233911811 -0 -0.002477768727898537 0 1:78.629028 2:30.080799 3:19.5802 4:269.18399 5:156.31161 6:34.790039 7:238.73901 8:156.20702 9:71.259888 10:232.69232 11:23.244019 12:51.589966 
-8 -0 -0 0 1:207.26102 2:44.941502 3:51.799927 4:225.96501 5:97.177994 6:44.090088 7:198.15503 8:80.501114 9:53.329956 10:233.0517 11:47.997005 12:71.530029 
-4.765416928654062 -0.1564762376276591 -1.606062307835994 2.831297261697665 1:101.26799 2:25.978676 3:50.859985 4:187.35799 5:163.63942 6:40.599976 7:208.756 8:45.694695 9:72.070068 10:24.245987 11:18.789993 12:14.209961 
-1.389442529367183 -0 -0 0 1:79.713394 2:23.757393 3:27.429932 4:257.44162 5:103.20079 6:104.37012 7:295.11902 8:192.1844 9:175.07098 10:178.1226 11:99.820038 12:99.311035 
-0 -0.03945810305856005 -0.06210926160738836 3.702867986247959 1:179.65341 2:15.566891 3:75.719849 4:151.144 5:189.49161 6:149.59998 7:168.69479 8:165.47203 9:82.210083 10:74.335022 11:63.592041 12:45.319824 
-0.180379508276613 -0.428022707354371 -0.5929147974771905 0.8850840033781058 1:178.821 2:39.291103 3:69.870117 4:130.834 5:107.8566 6:115.37 7:194.89508 8:332.17209 9:145.71008 10:240.30048 11:61.210999 12:147.29993 
-0.3831042177998454 -0.1019111092618751 -0 0.2297382455992446 1:225.54149 2:74.41111 3:82.109863 4:326.2052 5:311.20001 6:238.22009 7:314.13733 8:119.37903 9:130.91003 10:66.042969 11:38.027985 12:62.309937 
-1.491016487844615 -0.2351104952066588 -0.2218000601249547 0.423196348379789 1:241.41298 2:63.462822 3:94.23999 4:308.8132 5:192.34619 6:214.32007 7:322.90381 8:207.18277 9:177.72986 10:155.22995 11:30.134003 12:133.20996 
-0.1582742471975749 -0.1948487361605984 -0.1662901264123638 0 1:182.73898 2:44.313797 3:59.5 4:227.216 5:104.6312 6:100.96997 7:185.24699 8:211.06281 9:205.67004 10:256.80896 11:85.381027 12:189.73999 
-0.5413069085692736 -0.2033803548343391 -0.1224630817140388 0 1:111.9284 2:37.24099 3:69.170044 4:206.71681 5:61.713913 6:146.46008 7:199.79282 8:215.10211 9:192.00977 10:309.1196 11:70.265991 12:204.15002 
-3.335833051679396 -1.166364891597669 -1.293068640074337 0.6333760931946449 1:66.989296 2:19.855988 3:34.879883 4:91.219589 5:34.446213 6:73.290161 7:87.97271 8:46.657204 9:73.669922 10:154.7832 11:21.099701 12:90 
-1.249536863228485 -0 -0 0 1:73.792694 2:24.470993 3:34.01001 4:139.28491 5:41.714005 6:79.380005 7:104.29935 8:65.339508 9:93.27002 10:136.02403 11:16.784897 12:88.630005 
-0.1203595120706859 -0.8083242976844829 -0 0 1:142.57681 2:18.556015 3:65.069946 4:179.97 5:105.076 6:135.52991 7:136.24701 8:55.877396 9:124.07019 10:48.099197 11:14.822998 12:39.51001 
-0 -0 -0.01772637374767869 2.084007438738512 1:59.571999 2:10.444 3:25.809937 4:218.69901 5:104.9434 6:100.71997 7:286.14423 8:234.88861 9:161.65002 10:237.91995 11:153.347 12:143.68005 
-8 -0 -0 0.724158766367294 1:102.15581 2:37.264099 3:40.97998 4:213.09811 5:90.266296 6:81.260132 7:258.84021 8:137.63271 9:97.039978 10:244.96539 11:133.90399 12:78.080017 
-0.5912247333421494 -0.4360435802247203 -1.048885998194796 0.8000867127494802 1:104.23884 2:28.185181 3:35.619995 4:230.0208 5:336.66159 6:120.58997 7:243.46001 8:124.89697 9:128.33997 10:20.376892 11:32.307983 12:25.47998 
-1.267217769318144 -0.356468439940317 -0.1366377274094442 6.946196732019934 1:178.0802 2:63.73175 3:20.519897 4:282.07898 5:238.73631 6:45.560059 7:148.29498 8:189.24899 9:68.51001 10:85.853012 11:63.553986 12:18.719971 
-2.643242537628873 -0 -0 0 1:102.22398 2:15.942007 3:35.02002 4:166.26201 5:102.5322 6:75.580078 7:121.72 8:95.19899 9:55.080078 10:187.77298 11:37.39801 12:106.47974 
-1.810626786392651 -0.1007619240225362 -0.1290505555188658 0 1:89.450989 2:7.3857994 3:24.910034 4:246.5108 5:104.32 6:40.959839 7:185.927 8:137.73798 9:55.720093 10:280.31354 11:41.168976 12:128.52002 
-0 -0.2985880723802566 -0.2214959808604569 0.09354836521382191 1:18.859985 2:34.660004 3:17.179932 4:280.24597 5:40.651123 6:36.790039 7:279.94 8:232.39818 9:96.849976 10:270.444 11:61.438988 12:36.229858 
-8 -0 -0 0 1:131.91699 2:30.671997 3:4.6799316 4:229.16159 5:116.0284 6:27.98999 7:214.24599 8:126.3638 9:26.120117 10:233.93993 11:73.005814 12:13.680054 
-2.708339288021425 -0 -0 0.9628248196588162 1:71.03299 2:33.408005 3:5.6000977 4:222.961 5:98.000206 6:26.07019 7:141.71599 8:155.67349 9:16.709961 10:183.16029 11:36.626595 12:70.799927 
-0 -0 -0 0.7465288909501464 1:146.65501 2:11.643005 3:17.48999 4:128.57199 5:135.74176 6:82.310059 7:166.88602 8:75.892441 9:79.349976 10:131.91791 11:48.926804 12:16.190063 
-0.8950439068623098 -0.5697039713012766 -0.5709198821431962 0.7089001154991662 1:196.82761 2:43.651001 3:163.07007 4:178.68996 5:258.9733 6:205.90002 7:318.72943 8:158.4278 9:178.15015 10:108.23003 11:54.747078 12:162.40002 
-0.6582729863255916 -0.582159404540045 -0.5237154791814916 0.5379830516401237 1:27.1884 2:16.966003 3:13.089966 4:274.33917 5:85.600006 6:208.33008 7:278.77655 8:325.8952 9:181.45007 10:233.82965 11:63.773716 12:283.90002 
-0.4933403899888596 -0.06338494594955416 -0.04269666948280745 0.09636519924809325 1:37.061005 2:19.54007 3:23.060059 4:287.95862 5:89.839081 6:92.789795 7:436.23141 8:332.71606 9:97.470093 10:410.79776 11:87.523994 12:101.58997 
-0.1213158348101733 -0.2894205946862482 -0.2599829921372004 0.2173093482589311 1:20.190002 2:29.039001 3:27.329834 4:409.47632 5:104.875 6:75.849731 7:399.83249 8:380.46304 9:112.84985 10:385.03625 11:32.034752 12:99.179932 
-1.373551069233787 -0.7062803552708188 -0.6504582604863708 0.8791936996776858 1:334.18903 2:59.372986 3:74.329956 4:464.87009 5:301.01532 6:187.13989 7:456.76593 8:197.48271 9:86.660156 10:198.46599 11:36.97197 12:100.18982 
-0.2608927974851431 -0.0704033353108084 -0.0638723896763656 0.232122785570169 1:63.816399 2:22.69397 3:23.660034 4:368.11697 5:137.41399 6:87.780029 7:502.05258 8:449.01498 9:156.75 10:330.64307 11:87.431046 12:107.61987 
-1.109805921098836 -0.7522391532881478 -0.6831180282690768 0.8264639190354546 1:18.534988 2:16.326965 3:12.499756 4:416.52405 5:83.408966 6:123.54993 7:604.45032 8:535.44397 9:162.38037 10:351.233 11:65.937988 12:146.53003 
-0.7789504534036149 -0 -0 0 1:153.64511 2:34.930592 3:16.596008 4:179.78979 5:33.9916 6:17.70105 7:146.26199 8:108.4449 9:18.906982 10:165.09921 11:16.702694 12:8.8720093 
-0.9894738734375042 -0 -0 -0 1:137.43474 2:65.603058 3:26.720093 4:195.28145 5:260.75677 6:31.329956 7:274.33154 8:247.74733 9:33.200073 10:233.3848 11:119.30698 12:50.130005 
-0 -0 -0.02522703041138482 -0 1:56.712509 2:46.946991 3:10.929688 4:151.6709 5:243.75508 6:33.090454 7:181.8268 8:200.2337 9:18.790039 10:126.0377 11:60.541992 12:23.010254 
-0 -0 -0 -0.1723667450113811 1:112.8647 2:43.277008 3:12.390381 4:184.96431 5:227.79671 6:47.980225 7:165.6824 8:199.61472 9:33.449829 10:63.692085 11:50.198959 12:17.700195 
-0.3646808259017967 -0.2822832767535786 -0.2596485205173461 -0.3235705913902078 1:115.63037 2:29.134003 3:32.630005 4:408.67084 5:496.01697 6:107.23999 7:414.79663 8:536.67798 9:129.93982 10:236.26791 11:81.982941 12:94.490234 
-0.5621713383135271 -0.0760104809801016 -0.1151555385867723 -0.2463705625881425 1:143.3354 2:86.673996 3:29.339966 4:331.10599 5:432.11099 6:101.72009 7:281.70547 8:299.81091 9:123.28003 10:124.39269 11:156.69612 12:107.55005 
-1.112836232975296 -0.838207639213267 -0.770000741668482 -0.8926295744396708 1:151.82895 2:64.015076 3:77.189819 4:441.81693 5:766.76013 6:309.5199 7:600.78534 8:616.92609 9:108.28003 10:231.323 11:96.208038 12:43.009766 
-0.7572647351612059 -0.5653123889077346 -0.5190092211078929 -0.601996132933827 1:162.85991 2:66.048004 3:54.14978 4:362.7287 5:652.17285 6:255.03992 7:284.85901 8:613.32117 9:140.65002 10:220.71698 11:98.563049 12:61.099976 
-0.3543355979161563 -0.2799570724661233 -0 -0 1:24.379059 2:19.887909 3:15.239746 4:248.23862 5:308.56201 6:71.980103 7:156.36002 8:298.422 9:35.72998 10:120.95599 11:81.473007 12:32.710083 
-0 -0 -1.124422722710945 -0 1:21.22699 2:24.174973 3:9.1802979 4:121.662 5:254.84651 6:49.190063 7:203.20979 8:284.15912 9:45.500122 10:119.34599 11:115.9034 12:48.709839 
-0.2381532061363133 -0.427885434706439 -0.5190124974326378 -0 1:32.338943 2:17.307999 3:16.47998 4:121.33101 5:102.45586 6:21.5 7:245.03461 8:348.14014 9:51.829834 10:129.70601 11:211.05399 12:54.449951 
-0.3348571652592065 -0.2718759971300527 -0.2532205734490383 -0.03133026943055478 1:167.65161 2:44.713982 3:44.22998 4:496.27158 5:381.85699 6:138.52002 7:312.27139 8:361.14899 9:54.419922 10:57.67601 11:20.819 12:20.550049 
-0.6075811656119601 -0.5046533567612126 -0.4693003940674286 -0.9770249211178247 1:179.14302 2:63.26503 3:20.839966 4:501.65347 5:340.13599 6:98 7:343.13068 8:305.8573 9:95.309937 10:38.636993 11:30.864227 12:24.690063 
-0.4161196759180779 -0 -0 -0.9830294944065833 1:33.21199 2:17.2181 3:10.280151 4:218.90602 5:182.3999 6:57.789795 7:327.53867 8:277.47162 9:99.460083 10:245.53371 11:128.3334 12:56.679932 
-0 -0.0704545632788512 -0.07379278981857533 -0.03233870766036438 1:28.397995 2:30.299957 3:18.159546 4:287.86096 5:475.92303 6:161.79028 7:284.84998 8:464.30701 9:113.24976 10:207.44402 11:51.730972 12:46.059814 
-0.9091716963869726 -0.6717966214037789 -0.6166682469663225 -0.7092185670040073 1:30.839966 2:28.973999 3:13.580078 4:490.93219 5:620.64307 6:179.34009 7:411.35397 8:579.349 9:85.519897 10:66.797028 11:34.573944 12:27.249878 
-0.1506996411947059 -0.205156705238602 -0.1644726436330754 -0.4076191922053954 1:40.109055 2:47.638 3:46.470215 4:320.30002 5:338.65738 6:125.46021 7:400.73999 8:432.2688 9:80.939941 10:135.63802 11:86.569092 12:134.44006 
-1.033742253395114 -0 -0 -0 1:52.285004 2:20.916077 3:30.840332 4:277.79498 5:359.29224 6:87.569946 7:306.36932 8:328.4324 9:59.930176 10:164.81601 11:77.055023 12:112.17017 
-0.5498652468959544 -0 -0 -0 1:105.11099 2:61.914886 3:58.819824 4:236.0732 5:296.3103 6:124.18994 7:263.15598 8:315.9549 9:137.31995 10:93.959976 11:56.992889 12:51.549927 
-1.123745298850988 -0.8464045505916507 -0.7775822330366659 -0.901364851256421 1:90.154785 2:83.786011 3:71.650513 4:382.17654 5:752.8457 6:369.27014 7:389.13171 8:754.75452 9:305.26001 10:232.90231 11:75.869102 12:223.82996 
-1.07215936586638 -0.8053162671731404 -0.7416367569075441 -0.859088178034513 1:145.78529 2:72.270187 3:138.83997 4:213.61551 5:513.67529 6:294.25012 7:214.43097 8:448.28934 9:315.71997 10:191.51669 11:214.55421 12:172.58057 
-0 -0.2458604855661461 -0.2325796419825228 -0.3504994157181044 1:43.943802 2:21.974991 3:24.230103 4:399.37323 5:396.02603 6:98 7:397.79999 8:414.08295 9:96.200073 10:92.712593 11:34.041992 12:21.579956 
-0 -0 -0.522077819331116 -0 1:114.14319 2:67.165985 3:45.879639 4:150.81989 5:318.95599 6:101.90002 7:280.91397 8:275.96527 9:90.120361 10:267.2756 11:158.41281 12:45.779907 
-0.01672130118254084 -0.1557557050063453 -0.1997814147570473 -0.1614510406919344 1:34.800049 2:25.488998 3:48.030029 4:223.40802 5:274.211 6:157.7301 7:306.81497 8:356.33099 9:241.20996 10:141.57497 11:131.41101 12:88.640137 
-0.3302684018134107 -0.2072386336150925 -0.1467018312369244 -0.9643739424398905 1:14.993988 2:13.110992 3:18.829956 4:144.556 5:159.61201 6:135.37 7:283.961 8:298.75397 9:164.68994 10:232.248 11:222.76599 12:142.64001 
-0.5331316364317636 -0.3869515866581366 -0.3543999550888916 -0.4974842302883459 1:18.340088 2:21.280014 3:9.8201904 4:225.66907 5:203.58374 6:153.33008 7:368.26709 8:335.99146 9:142.50989 10:120.776 11:50.120972 12:30.350098 
-1.011532288959333 -0.5204497501786702 -0.7231476251689426 -1.941348710828433 1:8.3620148 2:8.8450089 3:4.8399658 4:113.222 5:63.552994 6:56.810059 7:382.91602 8:290.9256 9:134.12988 10:215.21503 11:144.19879 12:57.32019 
-0.4940805152754724 -0.3647550606094114 -0.3330290803338752 -0.4545287851377423 1:29.85199 2:125.30501 3:28.749878 4:270.22214 5:413.828 6:199.92004 7:413.8765 8:498.38104 9:204.47986 10:289.12881 11:106.25902 12:56.359985 
-0.7483923567879744 -0.5716005058611627 -0.5183692600075762 -0.6240709432877549 1:51.296021 2:36.277008 3:23.670044 4:203.5872 5:334.83807 6:100.29004 7:495.44324 8:500.28192 9:166.77991 10:289.49362 11:152.98798 12:64.929932 
-1.39434878981549 -0.03563659420328186 -0 -0.1473007632079117 1:173.99698 2:73.633202 3:21.52002 4:339.73776 5:324.5014 6:97.780029 7:349.966 8:353.44272 9:91.630127 10:138.37 11:33.637306 12:29.900024 
-1.024104666704323 -0.3741513345339645 -0.2947263951378288 -0.5928172949042829 1:171.73119 2:30.849998 3:21.290039 4:179.6601 5:228.33301 6:37.329956 7:260.89954 8:127.08031 9:55.51001 10:272.10269 11:176.6767 12:22.609863 
-1.38683763968546 -0.2655088610143306 -0.4127512467393766 -0.6352572240674664 1:47.9744 2:92.654297 3:44.299927 4:233.78668 5:180.6938 6:67.920044 7:165.57103 8:162.74228 9:116.71008 10:298.1821 11:144.95619 12:45.539917 
-0.1849944995798493 -0.1623710518253988 -0.3563829985076694 -0.6329879912216044 1:61.20153 2:106.30951 3:18.219971 4:175.71431 5:81.96199 6:59.809937 7:72.414978 8:162.92099 9:64.680054 10:193.12598 11:147.37469 12:20.720093 
-0.4024748349987659 -0.4137189756658402 -0.5808008006965235 -0.2076024238275435 1:82.285095 2:50.928501 3:35.020142 4:92.342148 5:222.19238 6:155.29993 7:266.76807 8:115.06499 9:82.529907 10:266.2854 11:242.43341 12:67.280151 
-0.2023527697687224 -0 -0.6101345197194278 -1.995294624409534 1:113.55139 2:19.422798 3:31.709961 4:118.0812 5:196.14868 6:128.28003 7:247.3448 8:175.52982 9:91.619995 10:100.418 11:43.601501 12:7.5397949 
-0.4620606601486669 -0.2573456696827304 -0.01368843440293258 -0.5938059293606788 1:6.5789795 2:5.9195023 3:5 4:205.474 5:75.339821 6:42.32019 7:196.97101 8:194.47792 9:57.690063 10:194.47299 11:234.49164 12:62.490112 
-2.440777330685887 -0.4507913900111352 -0.3859058634980717 -2.808135359385398 1:217.76602 2:114.6013 3:48.809692 4:316.922 5:204.45158 6:86.480103 7:223.82599 8:224.47722 9:45.559937 10:55.802002 11:13.920454 12:9.4498291 
-0.03941467168224298 -0.1504103220866131 -0.3230264831859022 -0.1490556005016301 1:28.753937 2:42.698502 3:10.560059 4:205.5524 5:169.6709 6:45.880005 7:204.25497 8:198.57849 9:180.88 10:142.125 11:53.896397 12:34.030029 
-1.19154512973582 -0.5224723386363996 -0.4116981738216913 -0.6438566201608138 1:115.944 2:68.641701 3:9.880127 4:269.55518 5:278.86023 6:165.52002 7:295.06601 8:259.21301 9:111.12988 10:287.96899 11:297.74988 12:78.359985 
-0.5355728925353287 -0.4816627901166675 -0.4555495258250087 -0.4571697996464129 1:176.16841 2:47.230488 3:44.760132 4:232.68741 5:426.05521 6:69.999878 7:257.82098 8:307.79816 9:167.04004 10:219.04996 11:88.879211 12:37.510132 
-0 -0 -0 -0.1612673700155874 1:178.88214 2:137.7628 3:61.380127 4:231.82162 5:279.37503 6:167.14899 7:127.08041 8:241.39601 9:128.11908 10:54.782204 11:26.316759 12:45.820068 
-0.5933108036211611 -0 -0 -1.364032330880002 1:114.39159 2:34.037598 3:44.079956 4:147.20209 5:184.29291 6:99.23999 7:237.7123 8:144.27139 9:51.334045 10:69.695999 11:111.0717 12:105.82001 
-0.3789085358228 -0.2947291686070591 -0.1794586203970068 -0.264067819775099 1:88.355194 2:28.26001 3:43 4:238.34882 5:351.75882 6:175.11993 7:246.45169 8:295.30508 9:133.59503 10:76.953697 11:195.94189 12:150.98096 
-0.8894431528387911 -0.5333621882767488 -0.5376788389970364 -0.4317150248472104 1:169.3689 2:181.85239 3:99.289917 4:288.259 5:285.29361 6:265.99603 7:100.80601 8:384.00598 9:137.922 10:114.45822 11:50.998032 12:132.81012 
-0.3371162792237099 -0.2658112798749831 -0.1574884545184935 -0.35964496387155 1:153.6626 2:115.20781 3:56.279907 4:247.43152 5:268.0112 6:304.30896 7:91.43959 8:330.65997 9:167.28296 10:152.5049 11:84.878998 12:109.2699 
-0.4122830266727438 -0.3040545573163261 -0.6477695124886935 -0.03806786670705915 1:40.704899 2:60.629684 3:44.690063 4:165.45209 5:259.15527 6:228.24493 7:101.99611 8:290.61597 9:70.13501 10:153.44391 11:105.19901 12:157.87799 
-0 -0.2983363146258538 -0 -1.293950903582559 1:118.97949 2:49.619308 3:43.25 4:187.69778 5:226.3631 6:196.97906 7:95.725914 8:206.284 9:117.039 10:32.432503 11:12.270996 12:19.360107 
-0.6335213286213648 -0.5744973497591221 -0.3357805951358283 -0.1530886673343092 1:123.1489 2:165.55101 3:121.01001 4:202.17889 5:233.8286 6:187.65204 7:54.355988 8:175.7314 9:119.76398 10:36.958305 11:20.106995 12:22.170044 
-1.915319373770027 -1.092266200196608 -0.9026119264884448 -0.9271036057958424 1:56.330498 2:160.97659 3:124.27002 4:108.4817 5:54.559299 6:84.442017 7:26.036987 8:146.3367 9:36.223999 10:92.371201 11:73.167992 12:144.40796 
-0 -0.3771203969420005 -0.6142616413258281 -0 1:54.374302 2:33.151001 3:40.130005 4:100.8917 5:241.31729 6:162.19202 7:130.9659 8:167.59399 9:72.322998 10:74.415596 11:107.65252 12:81.649048 
-0 -0 -0 -0.6500633641333867 1:85.457932 2:29.743988 3:73.710083 4:152.74725 5:253.911 6:145.21991 7:161.37181 8:170.4355 9:126.71405 10:91.9123 11:116.73349 12:130.58398 
-0.9555896465071393 -0.7386019563115924 -0.6754096748411625 -0.771304225682053 1:249.0262 2:68.900009 3:28.139893 4:365.72363 5:561.75305 6:115.87988 7:207.8591 8:344.35669 9:31.639893 10:228.47992 11:282.81628 12:98.699951 
-0.08341401821984781 -0.0824767777065465 -0.07199251036337803 -0.07723042485908674 1:38.185974 2:26.026001 3:12.759521 4:304.354 5:565.39197 6:144.39001 7:284.41962 8:484.20798 9:56.530273 10:250.36641 11:188.077 12:91.069824 
-0.7756367832262456 -0.5798785429997651 -0.5319573884181071 -0.6245365015105682 1:50.373032 2:22.19899 3:11.730347 4:354.79407 5:561.19507 6:101.81006 7:279.461 8:439.88382 9:45.049927 10:330.70703 11:226.24019 12:78.610107 
-1.174911580237625 -0.5997541470352571 -0.3743050993740434 -3.851767178213494 1:137.06497 2:51.266396 3:27.189941 4:235.74701 5:188.0463 6:47.260254 7:108.21996 8:79.073189 9:16.210083 10:17.703003 11:17.928993 12:10.800049 
-0.6652342929983919 -0.493962635232429 -0.4543287298195525 -0.5246259481501134 1:35.691372 2:33.738983 3:20.500366 4:337.34232 5:563.80103 6:280.32983 7:340.30997 8:592.54993 9:178.93018 10:64.14859 11:170.076 12:78.030273 
-0.7164963254321539 -0.5228398247950202 -0.4844216505464969 -0.5253576497835789 1:26.560196 2:16.748001 3:15.029907 4:270.67419 5:439.43497 6:122.3501 7:421.63721 8:570.48901 9:272.46997 10:129.46301 11:71.998001 12:69.430054 
-2.515176492032307 -0 -0 -2.973252682151964 1:31.102936 2:67.009033 3:20.930054 4:223.33351 5:102.64078 6:55.701965 7:185.74596 8:152.13181 9:67.054016 10:124.07001 11:78.858002 12:18.660034 
-0.248589270711894 -0.05306924266760982 -0 -2.235926518857284 1:166.145 2:118.89631 3:19.480225 4:283.61459 5:207.50673 6:49.53894 7:107.3084 8:253.63603 9:96.204956 10:117.08302 11:55.966995 12:62.020142 
-0 -0 -0.20834719478027 -0 1:46.167023 2:19.160019 3:9.7398682 4:198.312 5:313.41 6:75.654968 7:242.34161 8:296.17401 9:65.715942 10:156.543 11:50.554001 12:91.371033 
-0 -0 -0 -2.344889100518646 1:165.254 2:35.174988 3:9.3199463 4:188.94859 5:244.7287 6:63.860107 7:167.653 8:203.29208 9:40.349976 10:161.00398 11:102.777 12:25.930176 
-0.2919837375805897 -0 -0 -0.03191901416386696 1:129.86249 2:91.646011 3:45.660034 4:236.01831 5:166.1564 6:73.140015 7:186.24702 8:205.7104 9:33.810059 10:121.02 11:37.816971 12:16.57959 
-0 -0 -0 -1.045295142854823 1:123.97409 2:68.701004 3:39.190063 4:213.2467 5:180.86601 6:57.719971 7:123.83299 8:225.78181 9:26.579834 10:133.05901 11:37.989975 12:27.23999 
-0.7867921850391728 -0 -0 -0.3254027018438386 1:127.22701 2:39.998978 3:29.580078 4:254.89496 5:285.03833 6:113.70996 7:141.12259 8:257.48587 9:70.01001 10:127.929 11:56.490005 12:72.849976 
-0.3665286631463228 -0.273781374102836 -0.2517024375149109 -0.2935225078003632 1:89.687042 2:31.338104 3:53.379883 4:428.98004 5:522.091 6:296.8999 7:302.87598 8:462.84207 9:129.31995 10:193.21397 11:136.53998 12:101.19995 
-0.2643257732292213 -0.1547581508597415 -0.1403825014843525 -0.2252389628529841 1:100.31702 2:57.038025 3:87.860107 4:432.75345 5:445.85101 6:237.06982 7:309.34491 8:465.62601 9:169.33008 10:120.332 11:50.74408 12:93.34021 
-0.0256514896511516 -0.08978271939963979 -0.08088737145915023 -0.03716975885180538 1:106.80701 2:53.47403 3:72.139893 4:375.97784 5:445.078 6:230.35999 7:258.28491 8:457.349 9:155.41992 10:96.036026 11:49.838959 12:67.900146 
-1.165981101737626 -0.8779613032117688 -0.8071179519818854 -0.9348475017787313 1:260.03497 2:431.42398 3:163.58008 4:458.108 5:613.48486 6:164.3999 7:455.79556 8:434.66406 9:46.300171 10:126.67888 11:168.64799 12:37.539917 
-1.167860273373131 -0.8792883287124409 -0.8078384696071241 -0.9359432919208479 1:48.417984 2:18.280991 3:11.769897 4:68.641998 5:34.347 6:29.080078 7:347.99759 8:563.51996 9:160.70996 10:642.67743 11:636.87103 12:307.90002 
-1.114317270036344 -0.8394102218873785 -0.7717675484155594 -0.8902225317472149 1:19.77095 2:14.167023 3:13.879761 4:270.7746 5:373.69296 6:133.35999 7:377.6402 8:537.453 9:78.659912 10:283.79019 11:470.54297 12:99.440063 
-0 -0 -0.8537827722581808 -0 1:47.469898 2:60.228901 3:14.044067 4:119.44651 5:203.5049 6:68.244934 7:93.255493 8:156.92569 9:47.619995 10:78.968208 11:80.503494 12:18.213928 
-0 -0 -0.3828492008117552 -0 1:49.17448 2:40.139393 3:17.649902 4:130.3676 5:201.34619 6:85.518982 7:111.5947 8:192.5744 9:80.205017 10:96.264404 11:47.437904 12:17.037048 
-0 -0 -0.1496752903019784 -0 1:76.025627 2:68.093613 3:40.085083 4:136.4847 5:191.3876 6:45.246033 7:76.670593 8:168.55119 9:49.971985 10:75.283371 11:38.077801 12:9.9699097 
-1.528314247006406 -0.5878358327292969 -1.426394655750743 -1.25961221728325 1:73.735489 2:25.276505 3:15.575012 4:83.527405 5:131.76761 6:46.207031 7:149.60959 8:56.873398 9:33.499023 10:75.369698 11:127.55622 12:35.268982 
