svm_type c_svc
kernel_type rbf
gamma 0.2
nr_class 2
total_sv 4
rho 0
label 1 2
nr_sv 2 2
SV
1 1:0 2:0 3:0 4:0 5:0 6:0 7:0 8:0 9:0 10:0 11:0 12:0 13:0 14:0 15:0 16:0 17:0 18:0 19:0 20:0 21:0 22:0 23:0 24:0 25:0 26:0 27:0 28:0 29:0 30:0 31:0 32:0 33:0 34:0 35:0 36:0 37:0 38:0 39:0 40:0 41:0 42:0 43:0 44:0 45:0 46:0 47:0 48:0 49:0 50:0 51:0 52:0 53:0 54:0 55:0 56:0 57:0 58:0 59:0 60:0 61:0 62:0 63:0 64:0 65:0 66:0 67:0 68:0 69:0 70:0 71:0 72:0 73:0 74:0 75:0 76:0 77:0 78:0 79:0 80:0 81:0 82:0 83:0 84:0 85:0 86:0 87:0 88:314.39273 89:109.84833 90:971.3761 91:-14.129456 92:0.0092773438 93:-8.8139648 94:-23.306915 95:-5.5961151 96:-18.263123 97:-37.794083 98:-16.367363 99:-24.498047 100:-36.62532 101:-22.40786 102:-22.631836 103:-33.391861 104:-31.846935 105:-14.241577 106:-33.900803 107:-29.023556 108:-4.3980103 109:-16.41349 110:-21.820133 111:6.7109375 112:3.8384018 113:4.7221155 114:7.1585693 115:15.81752 116:15.686467 117:8.0877686 118:25.143112 119:18.633165 120:9.562561 121:33.721039 122:21.713087 123:10.875854 124:34.886826 125:17.360737 126:13.227356 127:32.014648 128:14.588615 129:14.065796 130:28.19635 131:13.581161 132:14.718567 133:18.484406 134:6.0129776 135:12.538635 136:1.250061 137:-2.2557526 138:3.6292114 139:-7.4525146 140:3.004921 141:-3.0306396 142:-17.365448 143:-4.953476 144:-10.403564 145:-28.618591 146:-10.647003 147:-17.359863 148:-38.310043 149:-16.717216 150:-21.067993 151:-39.715286 152:-23.514343 153:-19.207703 154:-39.331696 155:-30.362091 156:-13.702515 157:-31.371284 158:-35.895714 159:-2.277771 160:-17.882088 161:-21.812679 162:3.7304688 163:0.69493866 164:-0.10574341 165:1.7139893 166:14.458527 167:12.691139 168:0.089416504 169:22.245995 170:17.544491 171:1.017395 172:26.501831 173:20.60358 174:1.6573486 175:33.967651 176:25.682539 177:3.8155518 178:38.84639 179:26.991796 180:6.9833984 181:36.58342 182:22.05397 183:10.856995 184:23.342651 185:13.575874 186:10.717346 187:16.427368 188:9.2157974 189:11.517334 190:4.1408386 191:5.1870117 192:6.864624 193:-9.6244507 194:2.2631989 195:-0.76550293 196:-18.711456 197:-1.6544724 198:-8.3088379 199:-24.395447 200:-5.7814102 201:-12.565186 202:-31.29361 203:-8.6729584 204:-16.361023 205:-41.919159 206:-20.458748 207:-16.289124 208:-37.056198 209:-21.711529 210:-10.310364 211:-30.987991 212:-27.391922 213:-1.3577881 214:-17.784225 215:-18.165649 216:3.3377075 217:-5.2985229 218:-7.7423763 219:2.2816162 220:2.6564026 221:2.2859387 222:-0.17803955 223:6.826973 224:5.5123744 225:-1.5323486 226:8.7559662 227:4.2691154 228:-0.48901367 229:8.6313934 230:5.0470505 231:-0.44213867 232:7.284874 233:4.9040804 234:0.47619629 235:5.5493164 236:4.9391327 237:0.72161865 238:1.7474976 239:1.3112831 240:1.8233643 241:1.5559845 242:1.1289959 243:2.0392456 244:-0.27934265 245:1.7793903 246:0.74084473 247:0.05645752 248:1.4768467 249:0.45025635 250:-2.0576782 251:-0.57366562 252:-0.12091064 253:-0.62232971 254:-2.1547699 255:-0.4552002 256:1.3238373 257:0.19048119 258:-1.1553955 259:-1.2641602 260:-2.4577885 261:-0.60656738 262:-0.94329834 263:-1.8371201 264:-0.5335083 265:0.56341553 266:-0.54768944 267:-0.58453369 268:-0.093948364 269:-0.33009148 270:-0.36273193 271:-0.076828003 272:-0.45649338 273:-0.2935791 274:1.1219788 275:0.3066864 276:-0.30432129 277:-0.35662842 278:0.40057564 279:-0.38378906 280:0.14738464 281:0.10355377 282:-0.24615479 283:-1.4414825 284:-0.086610794 285:-0.041320801 286:-0.24705505 287:1.2225876 288:0.21063232 289:-1.0968475 290:1.4526997 291:0.43170166 292:-1.686554 293:0.61667824 294:0.10565186 295:-0.0094451904 296:0.83547974 297:0.10693359 298:-2.5273285 299:-1.2525711 300:-0.18658447 301:-2.6951523 302:0.20201492 303:0.15692139 304:0.71121979 305:1.4930248 306:-0.62219238 307:0.38878632 308:0.66821098 309:0.34423828 310:-0.061218262 311:0.3040638 312:0.26116943 313:0.552742 314:0.56697464 315:0.28588867 316:1.9907608 317:-0.28621292 318:0.35357666 319:1.2976685 320:-1.1676579 321:0.62976074 322:0.52346039 323:0.4675293 324:-0.3404541 325:-0.12747192 326:0.060569763 327:-0.18286133 328:-0.42298889 329:0.26280785 330:0.029296875 331:0.98365784 332:-0.23710251 333:0.14434814 334:-1.0291901 335:-0.6356411 336:-0.31005859 337:0.8094635 338:0.33438301 339:0.21765137 340:0.42739868 341:0.94815445 342:-0.94049072 343:-0.66455078 344:-0.76546478 345:0.083251953 346:-0.28337097 347:1.0906162 348:-0.57049561 349:0.8422699 350:1.2960377 351:0.024780273 352:0.29060364 353:-0.089643478 354:0.35888672 
1 1:0 2:0 3:0 4:0 5:0 6:0 7:0 8:0 9:0 10:0 11:0 12:0 13:0 14:0 15:0 16:0 17:0 18:0 19:0 20:0 21:0 22:0 23:0 24:0 25:0 26:0 27:0 28:0 29:0 30:0 31:0 32:0 33:0 34:0 35:0 36:0 37:0 38:0 39:0 40:0 41:0 42:0 43:0 44:0 45:0 46:0 47:0 48:0 49:0 50:0 51:0 52:0 53:0 54:0 55:0 56:0 57:0 58:0 59:0 60:0 61:0 62:0 63:0 64:0 65:0 66:0 67:0 68:0 69:0 70:0 71:0 72:0 73:0 74:0 75:0 76:0 77:0 78:0 79:0 80:0 81:0 82:0 83:0 84:0 85:0 86:0 87:0 88:314.39273 89:109.84833 90:971.3761 91:-14.129456 92:0.0092773438 93:-8.8139648 94:-23.306915 95:-5.5961151 96:-18.263123 97:-37.794083 98:-16.367363 99:-24.498047 100:-36.62532 101:-22.40786 102:-22.631836 103:-33.391861 104:-31.846935 105:-14.241577 106:-33.900803 107:-29.023556 108:-4.3980103 109:-16.41349 110:-21.820133 111:6.7109375 112:3.8384018 113:4.7221155 114:7.1585693 115:15.81752 116:15.686467 117:8.0877686 118:25.143112 119:18.633165 120:9.562561 121:33.721039 122:21.713087 123:10.875854 124:34.886826 125:17.360737 126:13.227356 127:32.014648 128:14.588615 129:14.065796 130:28.19635 131:13.581161 132:14.718567 133:18.484406 134:6.0129776 135:12.538635 136:1.250061 137:-2.2557526 138:3.6292114 139:-7.4525146 140:3.004921 141:-3.0306396 142:-17.365448 143:-4.953476 144:-10.403564 145:-28.618591 146:-10.647003 147:-17.359863 148:-38.310043 149:-16.717216 150:-21.067993 151:-39.715286 152:-23.514343 153:-19.207703 154:-39.331696 155:-30.362091 156:-13.702515 157:-31.371284 158:-35.895714 159:-2.277771 160:-17.882088 161:-21.812679 162:3.7304688 163:0.69493866 164:-0.10574341 165:1.7139893 166:14.458527 167:12.691139 168:0.089416504 169:22.245995 170:17.544491 171:1.017395 172:26.501831 173:20.60358 174:1.6573486 175:33.967651 176:25.682539 177:3.8155518 178:38.84639 179:26.991796 180:6.9833984 181:36.58342 182:22.05397 183:10.856995 184:23.342651 185:13.575874 186:10.717346 187:16.427368 188:9.2157974 189:11.517334 190:4.1408386 191:5.1870117 192:6.864624 193:-9.6244507 194:2.2631989 195:-0.76550293 196:-18.711456 197:-1.6544724 198:-8.3088379 199:-24.395447 200:-5.7814102 201:-12.565186 202:-31.29361 203:-8.6729584 204:-16.361023 205:-41.919159 206:-20.458748 207:-16.289124 208:-37.056198 209:-21.711529 210:-10.310364 211:-30.987991 212:-27.391922 213:-1.3577881 214:-17.784225 215:-18.165649 216:3.3377075 217:-5.2985229 218:-7.7423763 219:2.2816162 220:2.6564026 221:2.2859387 222:-0.17803955 223:6.826973 224:5.5123744 225:-1.5323486 226:8.7559662 227:4.2691154 228:-0.48901367 229:8.6313934 230:5.0470505 231:-0.44213867 232:7.284874 233:4.9040804 234:0.47619629 235:5.5493164 236:4.9391327 237:0.72161865 238:1.7474976 239:1.3112831 240:1.8233643 241:1.5559845 242:1.1289959 243:2.0392456 244:-0.27934265 245:1.7793903 246:0.74084473 247:0.05645752 248:1.4768467 249:0.45025635 250:-2.0576782 251:-0.57366562 252:-0.12091064 253:-0.62232971 254:-2.1547699 255:-0.4552002 256:1.3238373 257:0.19048119 258:-1.1553955 259:-1.2641602 260:-2.4577885 261:-0.60656738 262:-0.94329834 263:-1.8371201 264:-0.5335083 265:0.56341553 266:-0.54768944 267:-0.58453369 268:-0.093948364 269:-0.33009148 270:-0.36273193 271:-0.076828003 272:-0.45649338 273:-0.2935791 274:1.1219788 275:0.3066864 276:-0.30432129 277:-0.35662842 278:0.40057564 279:-0.38378906 280:0.14738464 281:0.10355377 282:-0.24615479 283:-1.4414825 284:-0.086610794 285:-0.041320801 286:-0.24705505 287:1.2225876 288:0.21063232 289:-1.0968475 290:1.4526997 291:0.43170166 292:-1.686554 293:0.61667824 294:0.10565186 295:-0.0094451904 296:0.83547974 297:0.10693359 298:-2.5273285 299:-1.2525711 300:-0.18658447 301:-2.6951523 302:0.20201492 303:0.15692139 304:0.71121979 305:1.4930248 306:-0.62219238 307:0.38878632 308:0.66821098 309:0.34423828 310:-0.061218262 311:0.3040638 312:0.26116943 313:0.552742 314:0.56697464 315:0.28588867 316:1.9907608 317:-0.28621292 318:0.35357666 319:1.2976685 320:-1.1676579 321:0.62976074 322:0.52346039 323:0.4675293 324:-0.3404541 325:-0.12747192 326:0.060569763 327:-0.18286133 328:-0.42298889 329:0.26280785 330:0.029296875 331:0.98365784 332:-0.23710251 333:0.14434814 334:-1.0291901 335:-0.6356411 336:-0.31005859 337:0.8094635 338:0.33438301 339:0.21765137 340:0.42739868 341:0.94815445 342:-0.94049072 343:-0.66455078 344:-0.76546478 345:0.083251953 346:-0.28337097 347:1.0906162 348:-0.57049561 349:0.8422699 350:1.2960377 351:0.024780273 352:0.29060364 353:-0.089643478 354:0.35888672 355:35.287689 356:-12.898642 357:-339.62689 358:-9.0811462 359:-3.9813948 360:7.1018677 361:-9.893631 362:4.98985 363:28.711304 364:-16.775055 365:6.3409309 366:43.593018 367:-9.7175751 368:7.5367699 369:62.058411 370:-12.719254 371:-9.1722374 372:64.254517 373:-7.4295654 374:-3.8402977 375:62.34259 376:-7.5306396 377:-5.9510365 378:54.936035 379:-4.7347107 380:-5.3281555 381:39.039185 382:-0.88427734 383:-0.32391453 384:22.046875 385:2.5576401 386:2.1503925 387:9.2528076 388:0.013473511 389:3.4719753 390:-0.75689697 391:2.6179581 392:4.0610619 393:-6.6467896 394:2.5561981 395:5.0710268 396:-9.5713501 397:5.4843674 398:1.0153561 399:-9.9954224 400:2.2496109 401:2.0794754 402:-8.6714478 403:-0.65374756 404:-1.0934887 405:-4.489624 406:-0.17782593 407:-0.19127083 408:-3.5708618 409:-1.398468 410:-1.2558613 411:-2.3520508 412:0.46212006 413:2.3422604 414:-1.9706421 415:0.63632965 416:-2.0880432 417:-2.3058472 418:2.1292648 419:-2.3702183 420:-1.2183228 421:0.7048111 422:-0.95989418 423:-1.5863647 424:1.5771561 425:-1.9723377 426:-0.18011475 427:-0.83190155 428:-1.5078478 429:-0.29498291 430:-1.7314911 431:-0.69038773 432:-0.49291992 433:-0.79444885 434:-0.080793381 435:-2.2399292 436:-0.051818848 437:0.54811096 438:-3.659668 439:1.4052734 440:-0.0035915375 441:-4.5980225 442:0.4203949 443:1.0515337 444:-7.4458618 445:0.86666107 446:4.2449722 447:-13.646729 448:2.9401932 449:11.394089 450:-23.797119 451:7.6969986 452:17.254772 453:-38.962646 454:12.42614 455:16.250877 456:-49.728699 457:14.035782 458:9.0361481 459:-58.993225 460:19.414642 461:4.2895203 462:-59.462646 463:10.215851 464:-6.9060898 465:-43.045715 466:4.1818695 467:-18.493103 468:-13.645874 469:0.98429871 470:-0.70155716 471:6.1355591 472:-2.5876312 473:7.3611221 474:18.11322 475:-3.8335266 476:5.4497643 477:27.721008 478:-8.858429 479:-1.9709702 480:41.014282 481:-6.8274384 482:-0.81493759 483:45.323303 484:-8.2591705 485:-6.8816605 486:47.740356 487:-8.162735 488:-11.09277 489:50.86731 490:-7.0556183 491:-9.7250938 492:42.712646 493:-3.7383347 494:-9.0355644 495:34.324036 496:-1.9998169 497:-0.61806107 498:23.035156 499:-1.8483047 500:2.8769436 501:12.776001 502:-0.096305847 503:2.8011646 504:5.3870239 505:1.8783798 506:2.6231384 507:-1.6704712 508:2.1320877 509:0.24264145 510:-4.6412964 511:2.4686661 512:1.6457672 513:-8.3208008 514:1.269104 515:-0.73418808 516:-7.5742798 517:0.37683105 518:0.21573257 519:-8.2711182 520:-0.48031616 521:0.22813797 522:-7.4708862 523:-0.40744019 524:-0.9071312 525:-5.2785645 526:0.67863464 527:-0.41293716 528:-5.1429443 529:0.44667053 530:1.0002556 531:-4.9675293 532:0.20509338 533:-0.80869675 534:-4.255127 535:1.539917 536:-0.39452744 537:-3.4051514 538:-1.5597687 539:-0.19815063 540:-2.5697632 541:-1.0269775 542:0.25122452 543:-2.1142578 544:-6.3966599 545:-11.901766 546:-0.18292236 547:-0.34986877 548:0.18146896 549:0.0028686523 550:-0.27553558 551:1.4153423 552:-0.2019043 553:-0.90318298 554:0.98065948 555:-0.081604004 556:0.51398468 557:0.56576538 558:0.12438965 559:-0.99877167 560:-0.844347 561:0.73730469 562:0.8591156 563:-0.73669624 564:0.77386475 565:-0.8885498 566:-0.13391876 567:0.91717529 568:-1.4276123 569:1.3227253 570:0.12109375 571:1.0635529 572:1.8583145 573:0.56811523 574:-0.22639465 575:0.025972366 576:0.74029541 577:0.036735535 578:-0.76755333 579:0.6817627 580:-0.6736908 581:-0.21764183 582:-0.2043457 583:0.61896515 584:-0.79786682 585:0.23138428 586:-0.0012512207 587:-1.2950916 588:0.05871582 589:0.73204803 590:-0.63614845 591:-0.28991699 592:0.28036499 593:0.50255203 594:-0.56518555 595:0.7970047 596:-0.20853233 597:-0.12023926 598:-0.22855377 599:-0.094423294 600:0.31646729 601:1.3382187 602:-0.72381401 603:0.47625732 604:-1.3684082 605:-0.12162781 606:0.12988281 607:0.1517868 608:-0.089799881 609:-0.077941895 610:0.276474 611:-0.010511398 612:0.37609863 613:1.0844498 614:0.37652588 615:-0.078369141 616:-0.318367 617:0.25269508 618:0.17254639 619:0.22299957 620:0.33514214 621:0.073608398 622:0.34760284 623:0.14811707 624:-0.0051269531 625:-0.098426819 626:-0.60137558 627:0.44134521 628:0.075622559 629:-0.24504852 630:0.2789917 631:0.54855347 632:0.67492294 633:0.03729248 634:0.38803101 635:0.0054149628 636:0.14447021 637:1.0546341 638:-0.072834015 639:0.42333984 640:-0.55743408 641:0.086658478 642:-0.2399292 643:-0.64526367 644:-0.50845909 645:-0.064941406 646:0.6445694 647:-0.13699722 648:-0.39764404 649:-0.059494019 650:-1.0995884 651:-0.001159668 652:0.052383423 653:-0.051267624 654:-0.70898438 655:-1.588768 656:-0.0016269684 657:-0.60662842 658:0.7250824 659:-0.21007729 660:-0.10906982 661:0.51626587 662:0.26044846 663:0.34295654 664:-0.07371521 665:0.51713181 666:0.13934326 667:4.9571609 668:30.520784 669:-35.779968 670:13.210175 671:8.5741272 672:-27.251953 673:12.416916 674:3.0444984 675:-30.631714 676:13.475922 677:-2.3466835 678:-32.076477 679:11.260849 680:-4.3686905 681:-26.587646 682:8.8901215 683:-5.2059441 684:-16.622192 685:4.3830872 686:-4.9020271 687:-8.8016357 688:2.9883881 689:-0.54218674 690:-1.8527222 691:0.54637146 692:2.1114464 693:4.6245728 694:-1.0457458 695:2.3826218 696:8.7894287 697:-2.9690247 698:-0.12399292 699:13.494446 700:-4.7930145 701:-0.12999344 702:15.138367 703:-8.2191772 704:0.12427521 705:16.079102 706:-7.6924591 707:-2.3554955 708:17.55011 709:-6.4226227 710:-3.209137 711:16.106384 712:-4.7345428 713:-1.9546547 714:13.369934 715:-4.0747986 716:-3.0300255 717:9.8798218 718:-2.3279572 719:-2.3101959 720:6.5333862 721:-1.0570679 722:-2.2101822 723:3.9177246 724:0.014419556 725:-3.2297287 726:2.6977539 727:0.16946411 728:-1.3592834 729:1.9476929 730:0.99650574 731:-1.8318386 732:2.178894 733:0.33979797 734:-1.9710941 735:0.93182373 736:-0.6366272 737:-0.41947556 738:0.71496582 739:-2.009964 740:-0.84313011 741:0.024536133 742:-1.096756 743:0.11542892 744:-0.68286133 745:0.65513611 746:-0.065753937 747:-1.9199219 748:0.78338623 749:-0.55143738 750:-3.7445679 751:1.4296722 752:1.1906872 753:-6.3016357 754:3.4784393 755:0.11506653 756:-9.9091797 757:3.3079834 758:1.9729767 759:-14.355713 760:4.6746826 761:1.2143803 762:-17.90686 763:6.530426 764:1.6857052 765:-22.159912 766:8.7125397 767:-3.3575077 768:-25.398865 769:12.719559 770:-13.904743 771:-52.255005 772:4.0909576 773:-4.65271 774:-20.586487 775:0.67486572 776:-10.16265 777:-10.865845 778:1.3428497 779:-5.2443132 780:-3.711853 781:-0.81700134 782:-1.2919855 783:1.0772095 784:0.79139709 785:2.7533951 786:6.5202637 787:-0.41093445 788:6.5497775 789:9.5094604 790:-0.66888428 791:0.041614056 792:14.762207 793:-2.5086212 794:0.12531984 795:16.628113 796:-2.4350128 797:1.7389023 798:17.888 799:-4.05896 800:1.4100528 801:18.152344 802:-4.4494629 803:1.7676692 804:17.605652 805:-2.1847839 806:-1.0281577 807:16.87793 808:-3.1882782 809:-0.28034878 810:14.950012 811:0.13034058 812:-0.14879847 813:12.308838 814:-2.3159637 815:-0.32184839 816:10.737671 817:0.23718262 818:1.7341704 819:8.3656616 820:0.69692993 821:0.47257042 822:6.1529541 823:0.27148438 824:-0.43221283 825:4.840271 826:0.13818359 827:-1.3921003 828:4.2612305 829:-0.66609192 830:-2.6526425 831:2.8024292 832:1.9475555 833:0.53176522 834:1.4168091 835:-0.43067932 836:-0.15713763 837:1.8875732 838:-0.15115356 839:-0.36918902 840:1.4036865 841:1.2959747 842:-0.2513001 843:0.84954834 844:-2.6726532 845:-0.97208083 846:1.6081543 847:-3.72995 848:-2.0349219 849:1.3562012 850:-2.48703 851:-3.1444035 852:1.1005249 853:-1.4806519 854:-1.2524748 855:1.4880371 856:-0.76333618 857:1.5269656 858:0.73339844 859:-0.9772644 860:0.71054029 861:0.69396973 862:1.2502747 863:0.25812221 864:1.7175903 865:-2.1250153 866:-0.34201956 867:0.94177246 868:-2.3671722 869:0.76734698 870:0.85009766 871:-0.38725281 872:2.2272263 873:0.36322021 874:1.0986633 875:0.54771799 876:0.72039795 877:-0.74536133 878:0.99597305 879:0.45111084 880:-2.006958 881:0.92168939 882:-0.19012451 883:-2.0731812 884:0.87923527 885:0.47076416 886:-1.0895844 887:1.2105806 888:-0.1975708 889:-0.86787415 890:0.96192646 891:-0.26776123 892:-0.20375061 893:0.40616417 894:-0.47802734 895:0.43952942 896:0.56652546 897:-0.54656982 898:0.50538635 899:0.50099373 900:-0.40710449 901:-0.8099823 902:0.20508671 903:-0.82946777 904:-0.60031128 905:-0.21926498 906:0.054321289 907:0.46485901 908:-0.68944407 909:0.29174805 910:-0.59629822 911:0.2199769 912:0.29754639 913:0.82749939 914:0.43375635 915:-0.22900391 916:-1.2819672 917:-1.0095325 918:0.75372314 919:-0.054107666 920:0.29868698 921:0.20495605 922:0.71879578 923:0.5582509 924:-0.045043945 925:0.55055237 926:0.21282005 927:0.24688721 928:-0.75970459 929:-0.63469076 930:0.15802002 931:0.4924469 932:-0.3966589 933:0.26062012 934:-0.10443115 935:0.33902025 936:-0.47460938 937:-0.054595947 938:-0.32772064 939:0.35467529 940:0.31333923 941:-0.035596371 942:-0.095275879 943:3.813858 944:80.81208 945:-5.4707031 946:-16.238419 947:3.2674255 948:-3.5281372 949:-19.585045 950:-3.2377319 951:-4.2376099 952:-17.516922 953:-0.42806244 954:-2.5112915 955:-18.811546 956:-2.2035675 957:-1.2670288 958:-18.616615 959:-5.9247208 960:-0.71795654 961:-18.094376 962:-7.7119446 963:0.33227539 964:-14.366306 965:-6.3612976 966:0.6831665 967:-9.3074837 968:-5.3545418 969:1.30896 970:-5.0179977 971:-6.1108322 972:1.3479004 973:0.40480995 974:-2.95084 975:1.2015381 976:6.4971638 977:0.89558029 978:1.6009521 979:10.189259 980:4.9678764 981:0.8614502 982:15.692043 983:4.6472015 984:0.38146973 985:18.883648 986:6.4115524 987:0.453125 988:21.898567 989:4.5918884 990:0.99749756 991:22.703735 992:5.3271027 993:1.3231201 994:25.868874 995:5.6345825 996:2.8119507 997:26.531525 998:6.2506409 999:4.3614502 1000:25.415314 1001:5.1000671 1002:5.4168091 1003:21.953522 1004:4.0638962 1005:5.543335 1006:20.291351 1007:3.5359802 1008:6.2650146 1009:17.980988 1010:1.7389755 1011:6.5870972 1012:12.84729 1013:0.25650024 1014:4.7744751 1015:8.4631042 1016:-2.7802277 1017:3.2416382 1018:2.206543 1019:-3.4284592 1020:0.41296387 1021:-1.3583374 1022:-1.3496552 1023:-0.50714111 1024:-1.8583679 1025:-0.95263672 1026:-0.57824707 1027:-8.0474243 1028:-1.4695206 1029:-4.1623535 1030:-13.746948 1031:-3.2745056 1032:-8.0907593 1033:-15.488953 1034:-2.4572754 1035:-8.6173096 1036:-16.992477 1037:-2.5968475 1038:-9.0359497 1039:-17.983505 1040:-3.2132111 1041:-8.9042969 1042:-17.445496 1043:-3.3310852 1044:-7.8466797 1045:-19.2491 1046:-2.568985 1047:-7.7426147 1048:-20.966217 1049:-3.744606 1050:-6.7793579 1051:-20.746994 1052:-3.1104889 1053:-5.8674316 1054:-18.856728 1055:-4.4734421 1056:-4.7463379 1057:-20.069633 1058:-6.469677 1059:-3.8414307 1060:-21.018204 1061:-7.4661903 1062:-2.8245239 1063:-21.765072 1064:-9.1179657 1065:-1.5341187 1066:-18.548882 1067:-9.001133 1068:0.014099121 1069:-14.552669 1070:-10.522474 1071:1.203186 1072:-10.896387 1073:-10.009224 1074:2.5661621 1075:-3.0585532 1076:-6.6631389 1077:2.6784058 1078:2.6472526 1079:-4.0862932 1080:2.767334 1081:5.4013982 1082:-0.37069821 1083:2.0951538 1084:8.8156948 1085:2.5817358 1086:1.5942993 1087:15.245417 1088:2.8444135 1089:2.2105103 1090:17.906754 1091:4.2473974 1092:1.5144043 1093:21.037651 1094:4.2974854 1095:1.8532715 1096:21.637688 1097:4.4412241 1098:2.1882935 1099:23.264191 1100:4.6539822 1101:3.9180908 1102:21.235558 1103:3.9733543 1104:4.9634399 1105:20.152405 1106:2.0876122 1107:5.0667114 1108:21.711975 1109:3.7318687 1110:5.6056519 1111:20.149277 1112:2.962368 1113:5.9646606 1114:17.980484 1115:4.6326599 1116:6.0158691 1117:14.08342 1118:3.801796 1119:5.4992065 1120:12.020813 1121:1.4827538 1122:5.6529541 1123:8.9143219 1124:-0.46832275 1125:4.7383423 1126:7.9059753 1127:0.098693848 1128:4.5787354 1129:2.5717163 1130:-0.042366028 1131:1.5971069 1132:-0.056030273 1133:-0.99867249 1134:-0.45452881 1135:-5.3314819 1136:-3.5288124 1137:-2.9389038 1138:-7.3518524 1139:-3.5457993 1140:-4.8837891 1141:-10.176773 1142:-2.5507545 1143:-6.338623 1144:-11.645035 1145:-4.7191353 1146:-6.7888184 1147:-14.769943 1148:-5.929657 1149:-7.6670532 1150:-16.036682 1151:-4.1897163 1152:-7.1444092 1153:-14.744553 1154:-5.9734802 1155:-5.6258545 1156:-16.925537 1157:-6.0182352 1158:-4.7461548 1159:-14.027832 1160:-4.6688762 1161:-2.5936279 1162:-13.541809 1163:-4.6234932 1164:-1.682251 1165:-11.989227 1166:-4.3247266 1167:-0.00024414063 1168:-11.006607 1169:-2.1831212 1170:0.35754395 1171:-10.79068 1172:-1.6213632 1173:0.56549072 1174:-7.2343521 1175:-2.927083 1176:0.48413086 1177:-8.0449066 1178:-4.279459 1179:0.53637695 1180:-12.423347 1181:-19.965767 1182:3.2155151 1183:-2.7742538 1184:-2.2103844 1185:0.99523926 1186:0.1224823 1187:2.0003395 1188:0.35717773 1189:-0.62516022 1190:1.4277802 1191:0.24102783 1192:0.2824707 1193:0.26140594 1194:0.74481201 1195:0.33833313 1196:0.82484818 1197:-0.047546387 1198:0.98193359 1199:1.8083839 1200:-0.26971436 1201:1.4657135 1202:0.080217361 1203:-0.12011719 1204:0.28620148 1205:0.27710915 1206:-0.27478027 1207:0.63800049 1208:-0.61221695 1209:-0.070556641 1210:-0.2026062 1211:1.8581638 1212:-0.28491211 1213:0.66445923 1214:0.56160355 1215:0.21832275 1216:0.092498779 1217:1.2523232 1218:0.26428223 1219:0.30839539 1220:1.0120201 1221:-0.10552979 1222:0.34925079 1223:0.43833733 1224:0.34796143 1225:0.89446259 1226:0.3603611 1227:0.56079102 1228:-0.093276978 1229:1.536562 1230:0.16320801 1231:1.2996445 1232:1.4063778 1233:0.61419678 1234:-0.5094223 1235:-0.036724091 1236:0.26928711 1237:0.98284912 1238:1.4649792 1239:0.1585083 1240:-0.97293091 1241:-0.20887566 1242:0.44219971 1243:2.4395218 1244:1.8054543 1245:0.40472412 1246:-0.61293793 1247:-0.39064789 1248:0.40887451 1249:1.1688232 1250:1.3370056 1251:-0.067687988 1252:0.74234009 1253:0.80118179 1254:0.67346191 1255:-0.084274292 1256:1.3207798 1257:0.15698242 1258:0.91885376 1259:0.44680595 1260:0.36071777 1261:0.64296722 1262:0.66467667 1263:0.23956299 1264:-0.88806915 1265:-1.0294647 1266:0.34881592 1267:0.20491791 1268:0.72448349 1269:0.043029785 
-1 1:0 2:0 3:0 4:0 5:0 6:0 7:0 8:0 9:0 10:0 11:0 12:0 13:0 14:0 15:0 16:0 17:0 18:0 19:0 20:0 21:0 22:0 23:0 24:0 25:0 26:0 27:0 28:0 29:0 30:0 31:0 32:0 33:0 34:0 35:0 36:0 37:0 38:0 39:0 40:0 41:0 42:0 43:0 44:0 45:0 46:0 47:0 48:0 49:0 50:0 51:0 52:0 53:0 54:0 55:0 56:0 57:0 58:0 59:0 60:0 61:0 62:0 63:0 64:0 65:0 66:0 67:0 68:0 69:0 70:0 71:0 72:0 73:0 74:0 75:0 76:0 77:0 78:0 79:0 80:0 81:0 82:0 83:0 84:0 85:0 86:0 87:0 88:314.39273 89:109.84833 90:971.3761 91:-14.129456 92:0.0092773438 93:-8.8139648 94:-23.306915 95:-5.5961151 96:-18.263123 97:-37.794083 98:-16.367363 99:-24.498047 100:-36.62532 101:-22.40786 102:-22.631836 103:-33.391861 104:-31.846935 105:-14.241577 106:-33.900803 107:-29.023556 108:-4.3980103 109:-16.41349 110:-21.820133 111:6.7109375 112:3.8384018 113:4.7221155 114:7.1585693 115:15.81752 116:15.686467 117:8.0877686 118:25.143112 119:18.633165 120:9.562561 121:33.721039 122:21.713087 123:10.875854 124:34.886826 125:17.360737 126:13.227356 127:32.014648 128:14.588615 129:14.065796 130:28.19635 131:13.581161 132:14.718567 133:18.484406 134:6.0129776 135:12.538635 136:1.250061 137:-2.2557526 138:3.6292114 139:-7.4525146 140:3.004921 141:-3.0306396 142:-17.365448 143:-4.953476 144:-10.403564 145:-28.618591 146:-10.647003 147:-17.359863 148:-38.310043 149:-16.717216 150:-21.067993 151:-39.715286 152:-23.514343 153:-19.207703 154:-39.331696 155:-30.362091 156:-13.702515 157:-31.371284 158:-35.895714 159:-2.277771 160:-17.882088 161:-21.812679 162:3.7304688 163:0.69493866 164:-0.10574341 165:1.7139893 166:14.458527 167:12.691139 168:0.089416504 169:22.245995 170:17.544491 171:1.017395 172:26.501831 173:20.60358 174:1.6573486 175:33.967651 176:25.682539 177:3.8155518 178:38.84639 179:26.991796 180:6.9833984 181:36.58342 182:22.05397 183:10.856995 184:23.342651 185:13.575874 186:10.717346 187:16.427368 188:9.2157974 189:11.517334 190:4.1408386 191:5.1870117 192:6.864624 193:-9.6244507 194:2.2631989 195:-0.76550293 196:-18.711456 197:-1.6544724 198:-8.3088379 199:-24.395447 200:-5.7814102 201:-12.565186 202:-31.29361 203:-8.6729584 204:-16.361023 205:-41.919159 206:-20.458748 207:-16.289124 208:-37.056198 209:-21.711529 210:-10.310364 211:-30.987991 212:-27.391922 213:-1.3577881 214:-17.784225 215:-18.165649 216:3.3377075 217:-5.2985229 218:-7.7423763 219:2.2816162 220:2.6564026 221:2.2859387 222:-0.17803955 223:6.826973 224:5.5123744 225:-1.5323486 226:8.7559662 227:4.2691154 228:-0.48901367 229:8.6313934 230:5.0470505 231:-0.44213867 232:7.284874 233:4.9040804 234:0.47619629 235:5.5493164 236:4.9391327 237:0.72161865 238:1.7474976 239:1.3112831 240:1.8233643 241:1.5559845 242:1.1289959 243:2.0392456 244:-0.27934265 245:1.7793903 246:0.74084473 247:0.05645752 248:1.4768467 249:0.45025635 250:-2.0576782 251:-0.57366562 252:-0.12091064 253:-0.62232971 254:-2.1547699 255:-0.4552002 256:1.3238373 257:0.19048119 258:-1.1553955 259:-1.2641602 260:-2.4577885 261:-0.60656738 262:-0.94329834 263:-1.8371201 264:-0.5335083 265:0.56341553 266:-0.54768944 267:-0.58453369 268:-0.093948364 269:-0.33009148 270:-0.36273193 271:-0.076828003 272:-0.45649338 273:-0.2935791 274:1.1219788 275:0.3066864 276:-0.30432129 277:-0.35662842 278:0.40057564 279:-0.38378906 280:0.14738464 281:0.10355377 282:-0.24615479 283:-1.4414825 284:-0.086610794 285:-0.041320801 286:-0.24705505 287:1.2225876 288:0.21063232 289:-1.0968475 290:1.4526997 291:0.43170166 292:-1.686554 293:0.61667824 294:0.10565186 295:-0.0094451904 296:0.83547974 297:0.10693359 298:-2.5273285 299:-1.2525711 300:-0.18658447 301:-2.6951523 302:0.20201492 303:0.15692139 304:0.71121979 305:1.4930248 306:-0.62219238 307:0.38878632 308:0.66821098 309:0.34423828 310:-0.061218262 311:0.3040638 312:0.26116943 313:0.552742 314:0.56697464 315:0.28588867 316:1.9907608 317:-0.28621292 318:0.35357666 319:1.2976685 320:-1.1676579 321:0.62976074 322:0.52346039 323:0.4675293 324:-0.3404541 325:-0.12747192 326:0.060569763 327:-0.18286133 328:-0.42298889 329:0.26280785 330:0.029296875 331:0.98365784 332:-0.23710251 333:0.14434814 334:-1.0291901 335:-0.6356411 336:-0.31005859 337:0.8094635 338:0.33438301 339:0.21765137 340:0.42739868 341:0.94815445 342:-0.94049072 343:-0.66455078 344:-0.76546478 345:0.083251953 346:-0.28337097 347:1.0906162 348:-0.57049561 349:0.8422699 350:1.2960377 351:0.024780273 352:0.29060364 353:-0.089643478 354:0.35888672 355:35.287689 356:-12.898642 357:-339.62689 358:-9.0811462 359:-3.9813948 360:7.1018677 361:-9.893631 362:4.98985 363:28.711304 364:-16.775055 365:6.3409309 366:43.593018 367:-9.7175751 368:7.5367699 369:62.058411 370:-12.719254 371:-9.1722374 372:64.254517 373:-7.4295654 374:-3.8402977 375:62.34259 376:-7.5306396 377:-5.9510365 378:54.936035 379:-4.7347107 380:-5.3281555 381:39.039185 382:-0.88427734 383:-0.32391453 384:22.046875 385:2.5576401 386:2.1503925 387:9.2528076 388:0.013473511 389:3.4719753 390:-0.75689697 391:2.6179581 392:4.0610619 393:-6.6467896 394:2.5561981 395:5.0710268 396:-9.5713501 397:5.4843674 398:1.0153561 399:-9.9954224 400:2.2496109 401:2.0794754 402:-8.6714478 403:-0.65374756 404:-1.0934887 405:-4.489624 406:-0.17782593 407:-0.19127083 408:-3.5708618 409:-1.398468 410:-1.2558613 411:-2.3520508 412:0.46212006 413:2.3422604 414:-1.9706421 415:0.63632965 416:-2.0880432 417:-2.3058472 418:2.1292648 419:-2.3702183 420:-1.2183228 421:0.7048111 422:-0.95989418 423:-1.5863647 424:1.5771561 425:-1.9723377 426:-0.18011475 427:-0.83190155 428:-1.5078478 429:-0.29498291 430:-1.7314911 431:-0.69038773 432:-0.49291992 433:-0.79444885 434:-0.080793381 435:-2.2399292 436:-0.051818848 437:0.54811096 438:-3.659668 439:1.4052734 440:-0.0035915375 441:-4.5980225 442:0.4203949 443:1.0515337 444:-7.4458618 445:0.86666107 446:4.2449722 447:-13.646729 448:2.9401932 449:11.394089 450:-23.797119 451:7.6969986 452:17.254772 453:-38.962646 454:12.42614 455:16.250877 456:-49.728699 457:14.035782 458:9.0361481 459:-58.993225 460:19.414642 461:4.2895203 462:-59.462646 463:10.215851 464:-6.9060898 465:-43.045715 466:4.1818695 467:-18.493103 468:-13.645874 469:0.98429871 470:-0.70155716 471:6.1355591 472:-2.5876312 473:7.3611221 474:18.11322 475:-3.8335266 476:5.4497643 477:27.721008 478:-8.858429 479:-1.9709702 480:41.014282 481:-6.8274384 482:-0.81493759 483:45.323303 484:-8.2591705 485:-6.8816605 486:47.740356 487:-8.162735 488:-11.09277 489:50.86731 490:-7.0556183 491:-9.7250938 492:42.712646 493:-3.7383347 494:-9.0355644 495:34.324036 496:-1.9998169 497:-0.61806107 498:23.035156 499:-1.8483047 500:2.8769436 501:12.776001 502:-0.096305847 503:2.8011646 504:5.3870239 505:1.8783798 506:2.6231384 507:-1.6704712 508:2.1320877 509:0.24264145 510:-4.6412964 511:2.4686661 512:1.6457672 513:-8.3208008 514:1.269104 515:-0.73418808 516:-7.5742798 517:0.37683105 518:0.21573257 519:-8.2711182 520:-0.48031616 521:0.22813797 522:-7.4708862 523:-0.40744019 524:-0.9071312 525:-5.2785645 526:0.67863464 527:-0.41293716 528:-5.1429443 529:0.44667053 530:1.0002556 531:-4.9675293 532:0.20509338 533:-0.80869675 534:-4.255127 535:1.539917 536:-0.39452744 537:-3.4051514 538:-1.5597687 539:-0.19815063 540:-2.5697632 541:-1.0269775 542:0.25122452 543:-2.1142578 544:-6.3966599 545:-11.901766 546:-0.18292236 547:-0.34986877 548:0.18146896 549:0.0028686523 550:-0.27553558 551:1.4153423 552:-0.2019043 553:-0.90318298 554:0.98065948 555:-0.081604004 556:0.51398468 557:0.56576538 558:0.12438965 559:-0.99877167 560:-0.844347 561:0.73730469 562:0.8591156 563:-0.73669624 564:0.77386475 565:-0.8885498 566:-0.13391876 567:0.91717529 568:-1.4276123 569:1.3227253 570:0.12109375 571:1.0635529 572:1.8583145 573:0.56811523 574:-0.22639465 575:0.025972366 576:0.74029541 577:0.036735535 578:-0.76755333 579:0.6817627 580:-0.6736908 581:-0.21764183 582:-0.2043457 583:0.61896515 584:-0.79786682 585:0.23138428 586:-0.0012512207 587:-1.2950916 588:0.05871582 589:0.73204803 590:-0.63614845 591:-0.28991699 592:0.28036499 593:0.50255203 594:-0.56518555 595:0.7970047 596:-0.20853233 597:-0.12023926 598:-0.22855377 599:-0.094423294 600:0.31646729 601:1.3382187 602:-0.72381401 603:0.47625732 604:-1.3684082 605:-0.12162781 606:0.12988281 607:0.1517868 608:-0.089799881 609:-0.077941895 610:0.276474 611:-0.010511398 612:0.37609863 613:1.0844498 614:0.37652588 615:-0.078369141 616:-0.318367 617:0.25269508 618:0.17254639 619:0.22299957 620:0.33514214 621:0.073608398 622:0.34760284 623:0.14811707 624:-0.0051269531 625:-0.098426819 626:-0.60137558 627:0.44134521 628:0.075622559 629:-0.24504852 630:0.2789917 631:0.54855347 632:0.67492294 633:0.03729248 634:0.38803101 635:0.0054149628 636:0.14447021 637:1.0546341 638:-0.072834015 639:0.42333984 640:-0.55743408 641:0.086658478 642:-0.2399292 643:-0.64526367 644:-0.50845909 645:-0.064941406 646:0.6445694 647:-0.13699722 648:-0.39764404 649:-0.059494019 650:-1.0995884 651:-0.001159668 652:0.052383423 653:-0.051267624 654:-0.70898438 655:-1.588768 656:-0.0016269684 657:-0.60662842 658:0.7250824 659:-0.21007729 660:-0.10906982 661:0.51626587 662:0.26044846 663:0.34295654 664:-0.07371521 665:0.51713181 666:0.13934326 
-1 1:0 2:0 3:0 4:0 5:0 6:0 7:0 8:0 9:0 10:0 11:0 12:0 13:0 14:0 15:0 16:0 17:0 18:0 19:0 20:0 21:0 22:0 23:0 24:0 25:0 26:0 27:0 28:0 29:0 30:0 31:0 32:0 33:0 34:0 35:0 36:0 37:0 38:0 39:0 40:0 41:0 42:0 43:0 44:0 45:0 46:0 47:0 48:0 49:0 50:0 51:0 52:0 53:0 54:0 55:0 56:0 57:0 58:0 59:0 60:0 61:0 62:0 63:0 64:0 65:0 66:0 67:0 68:0 69:0 70:0 71:0 72:0 73:0 74:0 75:0 76:0 77:0 78:0 79:0 80:0 81:0 82:0 83:0 84:0 85:0 86:0 87:0 88:314.39273 89:109.84833 90:971.3761 91:-14.129456 92:0.0092773438 93:-8.8139648 94:-23.306915 95:-5.5961151 96:-18.263123 97:-37.794083 98:-16.367363 99:-24.498047 100:-36.62532 101:-22.40786 102:-22.631836 103:-33.391861 104:-31.846935 105:-14.241577 106:-33.900803 107:-29.023556 108:-4.3980103 109:-16.41349 110:-21.820133 111:6.7109375 112:3.8384018 113:4.7221155 114:7.1585693 115:15.81752 116:15.686467 117:8.0877686 118:25.143112 119:18.633165 120:9.562561 121:33.721039 122:21.713087 123:10.875854 124:34.886826 125:17.360737 126:13.227356 127:32.014648 128:14.588615 129:14.065796 130:28.19635 131:13.581161 132:14.718567 133:18.484406 134:6.0129776 135:12.538635 136:1.250061 137:-2.2557526 138:3.6292114 139:-7.4525146 140:3.004921 141:-3.0306396 142:-17.365448 143:-4.953476 144:-10.403564 145:-28.618591 146:-10.647003 147:-17.359863 148:-38.310043 149:-16.717216 150:-21.067993 151:-39.715286 152:-23.514343 153:-19.207703 154:-39.331696 155:-30.362091 156:-13.702515 157:-31.371284 158:-35.895714 159:-2.277771 160:-17.882088 161:-21.812679 162:3.7304688 163:0.69493866 164:-0.10574341 165:1.7139893 166:14.458527 167:12.691139 168:0.089416504 169:22.245995 170:17.544491 171:1.017395 172:26.501831 173:20.60358 174:1.6573486 175:33.967651 176:25.682539 177:3.8155518 178:38.84639 179:26.991796 180:6.9833984 181:36.58342 182:22.05397 183:10.856995 184:23.342651 185:13.575874 186:10.717346 187:16.427368 188:9.2157974 189:11.517334 190:4.1408386 191:5.1870117 192:6.864624 193:-9.6244507 194:2.2631989 195:-0.76550293 196:-18.711456 197:-1.6544724 198:-8.3088379 199:-24.395447 200:-5.7814102 201:-12.565186 202:-31.29361 203:-8.6729584 204:-16.361023 205:-41.919159 206:-20.458748 207:-16.289124 208:-37.056198 209:-21.711529 210:-10.310364 211:-30.987991 212:-27.391922 213:-1.3577881 214:-17.784225 215:-18.165649 216:3.3377075 217:-5.2985229 218:-7.7423763 219:2.2816162 220:2.6564026 221:2.2859387 222:-0.17803955 223:6.826973 224:5.5123744 225:-1.5323486 226:8.7559662 227:4.2691154 228:-0.48901367 229:8.6313934 230:5.0470505 231:-0.44213867 232:7.284874 233:4.9040804 234:0.47619629 235:5.5493164 236:4.9391327 237:0.72161865 238:1.7474976 239:1.3112831 240:1.8233643 241:1.5559845 242:1.1289959 243:2.0392456 244:-0.27934265 245:1.7793903 246:0.74084473 247:0.05645752 248:1.4768467 249:0.45025635 250:-2.0576782 251:-0.57366562 252:-0.12091064 253:-0.62232971 254:-2.1547699 255:-0.4552002 256:1.3238373 257:0.19048119 258:-1.1553955 259:-1.2641602 260:-2.4577885 261:-0.60656738 262:-0.94329834 263:-1.8371201 264:-0.5335083 265:0.56341553 266:-0.54768944 267:-0.58453369 268:-0.093948364 269:-0.33009148 270:-0.36273193 271:-0.076828003 272:-0.45649338 273:-0.2935791 274:1.1219788 275:0.3066864 276:-0.30432129 277:-0.35662842 278:0.40057564 279:-0.38378906 280:0.14738464 281:0.10355377 282:-0.24615479 283:-1.4414825 284:-0.086610794 285:-0.041320801 286:-0.24705505 287:1.2225876 288:0.21063232 289:-1.0968475 290:1.4526997 291:0.43170166 292:-1.686554 293:0.61667824 294:0.10565186 295:-0.0094451904 296:0.83547974 297:0.10693359 298:-2.5273285 299:-1.2525711 300:-0.18658447 301:-2.6951523 302:0.20201492 303:0.15692139 304:0.71121979 305:1.4930248 306:-0.62219238 307:0.38878632 308:0.66821098 309:0.34423828 310:-0.061218262 311:0.3040638 312:0.26116943 313:0.552742 314:0.56697464 315:0.28588867 316:1.9907608 317:-0.28621292 318:0.35357666 319:1.2976685 320:-1.1676579 321:0.62976074 322:0.52346039 323:0.4675293 324:-0.3404541 325:-0.12747192 326:0.060569763 327:-0.18286133 328:-0.42298889 329:0.26280785 330:0.029296875 331:0.98365784 332:-0.23710251 333:0.14434814 334:-1.0291901 335:-0.6356411 336:-0.31005859 337:0.8094635 338:0.33438301 339:0.21765137 340:0.42739868 341:0.94815445 342:-0.94049072 343:-0.66455078 344:-0.76546478 345:0.083251953 346:-0.28337097 347:1.0906162 348:-0.57049561 349:0.8422699 350:1.2960377 351:0.024780273 352:0.29060364 353:-0.089643478 354:0.35888672 355:35.287689 356:-12.898642 357:-339.62689 358:-9.0811462 359:-3.9813948 360:7.1018677 361:-9.893631 362:4.98985 363:28.711304 364:-16.775055 365:6.3409309 366:43.593018 367:-9.7175751 368:7.5367699 369:62.058411 370:-12.719254 371:-9.1722374 372:64.254517 373:-7.4295654 374:-3.8402977 375:62.34259 376:-7.5306396 377:-5.9510365 378:54.936035 379:-4.7347107 380:-5.3281555 381:39.039185 382:-0.88427734 383:-0.32391453 384:22.046875 385:2.5576401 386:2.1503925 387:9.2528076 388:0.013473511 389:3.4719753 390:-0.75689697 391:2.6179581 392:4.0610619 393:-6.6467896 394:2.5561981 395:5.0710268 396:-9.5713501 397:5.4843674 398:1.0153561 399:-9.9954224 400:2.2496109 401:2.0794754 402:-8.6714478 403:-0.65374756 404:-1.0934887 405:-4.489624 406:-0.17782593 407:-0.19127083 408:-3.5708618 409:-1.398468 410:-1.2558613 411:-2.3520508 412:0.46212006 413:2.3422604 414:-1.9706421 415:0.63632965 416:-2.0880432 417:-2.3058472 418:2.1292648 419:-2.3702183 420:-1.2183228 421:0.7048111 422:-0.95989418 423:-1.5863647 424:1.5771561 425:-1.9723377 426:-0.18011475 427:-0.83190155 428:-1.5078478 429:-0.29498291 430:-1.7314911 431:-0.69038773 432:-0.49291992 433:-0.79444885 434:-0.080793381 435:-2.2399292 436:-0.051818848 437:0.54811096 438:-3.659668 439:1.4052734 440:-0.0035915375 441:-4.5980225 442:0.4203949 443:1.0515337 444:-7.4458618 445:0.86666107 446:4.2449722 447:-13.646729 448:2.9401932 449:11.394089 450:-23.797119 451:7.6969986 452:17.254772 453:-38.962646 454:12.42614 455:16.250877 456:-49.728699 457:14.035782 458:9.0361481 459:-58.993225 460:19.414642 461:4.2895203 462:-59.462646 463:10.215851 464:-6.9060898 465:-43.045715 466:4.1818695 467:-18.493103 468:-13.645874 469:0.98429871 470:-0.70155716 471:6.1355591 472:-2.5876312 473:7.3611221 474:18.11322 475:-3.8335266 476:5.4497643 477:27.721008 478:-8.858429 479:-1.9709702 480:41.014282 481:-6.8274384 482:-0.81493759 483:45.323303 484:-8.2591705 485:-6.8816605 486:47.740356 487:-8.162735 488:-11.09277 489:50.86731 490:-7.0556183 491:-9.7250938 492:42.712646 493:-3.7383347 494:-9.0355644 495:34.324036 496:-1.9998169 497:-0.61806107 498:23.035156 499:-1.8483047 500:2.8769436 501:12.776001 502:-0.096305847 503:2.8011646 504:5.3870239 505:1.8783798 506:2.6231384 507:-1.6704712 508:2.1320877 509:0.24264145 510:-4.6412964 511:2.4686661 512:1.6457672 513:-8.3208008 514:1.269104 515:-0.73418808 516:-7.5742798 517:0.37683105 518:0.21573257 519:-8.2711182 520:-0.48031616 521:0.22813797 522:-7.4708862 523:-0.40744019 524:-0.9071312 525:-5.2785645 526:0.67863464 527:-0.41293716 528:-5.1429443 529:0.44667053 530:1.0002556 531:-4.9675293 532:0.20509338 533:-0.80869675 534:-4.255127 535:1.539917 536:-0.39452744 537:-3.4051514 538:-1.5597687 539:-0.19815063 540:-2.5697632 541:-1.0269775 542:0.25122452 543:-2.1142578 544:-6.3966599 545:-11.901766 546:-0.18292236 547:-0.34986877 548:0.18146896 549:0.0028686523 550:-0.27553558 551:1.4153423 552:-0.2019043 553:-0.90318298 554:0.98065948 555:-0.081604004 556:0.51398468 557:0.56576538 558:0.12438965 559:-0.99877167 560:-0.844347 561:0.73730469 562:0.8591156 563:-0.73669624 564:0.77386475 565:-0.8885498 566:-0.13391876 567:0.91717529 568:-1.4276123 569:1.3227253 570:0.12109375 571:1.0635529 572:1.8583145 573:0.56811523 574:-0.22639465 575:0.025972366 576:0.74029541 577:0.036735535 578:-0.76755333 579:0.6817627 580:-0.6736908 581:-0.21764183 582:-0.2043457 583:0.61896515 584:-0.79786682 585:0.23138428 586:-0.0012512207 587:-1.2950916 588:0.05871582 589:0.73204803 590:-0.63614845 591:-0.28991699 592:0.28036499 593:0.50255203 594:-0.56518555 595:0.7970047 596:-0.20853233 597:-0.12023926 598:-0.22855377 599:-0.094423294 600:0.31646729 601:1.3382187 602:-0.72381401 603:0.47625732 604:-1.3684082 605:-0.12162781 606:0.12988281 607:0.1517868 608:-0.089799881 609:-0.077941895 610:0.276474 611:-0.010511398 612:0.37609863 613:1.0844498 614:0.37652588 615:-0.078369141 616:-0.318367 617:0.25269508 618:0.17254639 619:0.22299957 620:0.33514214 621:0.073608398 622:0.34760284 623:0.14811707 624:-0.0051269531 625:-0.098426819 626:-0.60137558 627:0.44134521 628:0.075622559 629:-0.24504852 630:0.2789917 631:0.54855347 632:0.67492294 633:0.03729248 634:0.38803101 635:0.0054149628 636:0.14447021 637:1.0546341 638:-0.072834015 639:0.42333984 640:-0.55743408 641:0.086658478 642:-0.2399292 643:-0.64526367 644:-0.50845909 645:-0.064941406 646:0.6445694 647:-0.13699722 648:-0.39764404 649:-0.059494019 650:-1.0995884 651:-0.001159668 652:0.052383423 653:-0.051267624 654:-0.70898438 655:-1.588768 656:-0.0016269684 657:-0.60662842 658:0.7250824 659:-0.21007729 660:-0.10906982 661:0.51626587 662:0.26044846 663:0.34295654 664:-0.07371521 665:0.51713181 666:0.13934326 667:4.9571609 668:30.520784 669:-35.779968 670:13.210175 671:8.5741272 672:-27.251953 673:12.416916 674:3.0444984 675:-30.631714 676:13.475922 677:-2.3466835 678:-32.076477 679:11.260849 680:-4.3686905 681:-26.587646 682:8.8901215 683:-5.2059441 684:-16.622192 685:4.3830872 686:-4.9020271 687:-8.8016357 688:2.9883881 689:-0.54218674 690:-1.8527222 691:0.54637146 692:2.1114464 693:4.6245728 694:-1.0457458 695:2.3826218 696:8.7894287 697:-2.9690247 698:-0.12399292 699:13.494446 700:-4.7930145 701:-0.12999344 702:15.138367 703:-8.2191772 704:0.12427521 705:16.079102 706:-7.6924591 707:-2.3554955 708:17.55011 709:-6.4226227 710:-3.209137 711:16.106384 712:-4.7345428 713:-1.9546547 714:13.369934 715:-4.0747986 716:-3.0300255 717:9.8798218 718:-2.3279572 719:-2.3101959 720:6.5333862 721:-1.0570679 722:-2.2101822 723:3.9177246 724:0.014419556 725:-3.2297287 726:2.6977539 727:0.16946411 728:-1.3592834 729:1.9476929 730:0.99650574 731:-1.8318386 732:2.178894 733:0.33979797 734:-1.9710941 735:0.93182373 736:-0.6366272 737:-0.41947556 738:0.71496582 739:-2.009964 740:-0.84313011 741:0.024536133 742:-1.096756 743:0.11542892 744:-0.68286133 745:0.65513611 746:-0.065753937 747:-1.9199219 748:0.78338623 749:-0.55143738 750:-3.7445679 751:1.4296722 752:1.1906872 753:-6.3016357 754:3.4784393 755:0.11506653 756:-9.9091797 757:3.3079834 758:1.9729767 759:-14.355713 760:4.6746826 761:1.2143803 762:-17.90686 763:6.530426 764:1.6857052 765:-22.159912 766:8.7125397 767:-3.3575077 768:-25.398865 769:12.719559 770:-13.904743 771:-52.255005 772:4.0909576 773:-4.65271 774:-20.586487 775:0.67486572 776:-10.16265 777:-10.865845 778:1.3428497 779:-5.2443132 780:-3.711853 781:-0.81700134 782:-1.2919855 783:1.0772095 784:0.79139709 785:2.7533951 786:6.5202637 787:-0.41093445 788:6.5497775 789:9.5094604 790:-0.66888428 791:0.041614056 792:14.762207 793:-2.5086212 794:0.12531984 795:16.628113 796:-2.4350128 797:1.7389023 798:17.888 799:-4.05896 800:1.4100528 801:18.152344 802:-4.4494629 803:1.7676692 804:17.605652 805:-2.1847839 806:-1.0281577 807:16.87793 808:-3.1882782 809:-0.28034878 810:14.950012 811:0.13034058 812:-0.14879847 813:12.308838 814:-2.3159637 815:-0.32184839 816:10.737671 817:0.23718262 818:1.7341704 819:8.3656616 820:0.69692993 821:0.47257042 822:6.1529541 823:0.27148438 824:-0.43221283 825:4.840271 826:0.13818359 827:-1.3921003 828:4.2612305 829:-0.66609192 830:-2.6526425 831:2.8024292 832:1.9475555 833:0.53176522 834:1.4168091 835:-0.43067932 836:-0.15713763 837:1.8875732 838:-0.15115356 839:-0.36918902 840:1.4036865 841:1.2959747 842:-0.2513001 843:0.84954834 844:-2.6726532 845:-0.97208083 846:1.6081543 847:-3.72995 848:-2.0349219 849:1.3562012 850:-2.48703 851:-3.1444035 852:1.1005249 853:-1.4806519 854:-1.2524748 855:1.4880371 856:-0.76333618 857:1.5269656 858:0.73339844 859:-0.9772644 860:0.71054029 861:0.69396973 862:1.2502747 863:0.25812221 864:1.7175903 865:-2.1250153 866:-0.34201956 867:0.94177246 868:-2.3671722 869:0.76734698 870:0.85009766 871:-0.38725281 872:2.2272263 873:0.36322021 874:1.0986633 875:0.54771799 876:0.72039795 877:-0.74536133 878:0.99597305 879:0.45111084 880:-2.006958 881:0.92168939 882:-0.19012451 883:-2.0731812 884:0.87923527 885:0.47076416 886:-1.0895844 887:1.2105806 888:-0.1975708 889:-0.86787415 890:0.96192646 891:-0.26776123 892:-0.20375061 893:0.40616417 894:-0.47802734 895:0.43952942 896:0.56652546 897:-0.54656982 898:0.50538635 899:0.50099373 900:-0.40710449 901:-0.8099823 902:0.20508671 903:-0.82946777 904:-0.60031128 905:-0.21926498 906:0.054321289 907:0.46485901 908:-0.68944407 909:0.29174805 910:-0.59629822 911:0.2199769 912:0.29754639 913:0.82749939 914:0.43375635 915:-0.22900391 916:-1.2819672 917:-1.0095325 918:0.75372314 919:-0.054107666 920:0.29868698 921:0.20495605 922:0.71879578 923:0.5582509 924:-0.045043945 925:0.55055237 926:0.21282005 927:0.24688721 928:-0.75970459 929:-0.63469076 930:0.15802002 931:0.4924469 932:-0.3966589 933:0.26062012 934:-0.10443115 935:0.33902025 936:-0.47460938 937:-0.054595947 938:-0.32772064 939:0.35467529 940:0.31333923 941:-0.035596371 942:-0.095275879 
