svm_type c_svc
kernel_type rbf
gamma 3.05176e-005
nr_class 3
total_sv 168
rho -0.273767 -0.361869 -0.0810529
label 1 2 3
probA -6.19672 -5.35888 -5.11548
probB 0.962414 0.717674 -0.00846009
nr_sv 79 45 44
SV
0.5896549668687273 0.5184693515206877 1:183.17682 2:58.380951 3:29.290039 4:407.5881 5:288.13202 6:87.939941 7:461.23706 8:177.66902 9:113.5199 10:670.66388 11:297.44269 12:145.32996 
0.679432876405475 0.5971422617106902 1:512.40796 2:194.70969 3:89.530273 4:516.06494 5:219.166 6:110.62988 7:255.07809 8:203.29233 9:65.089966 10:529.97888 11:202.22403 12:80.659912 
0.586977707353449 0.5176851944080733 1:466.15396 2:188.601 3:79.929688 4:155.2 5:177.5285 6:72.689575 7:339.84238 8:207.27971 9:69.229492 10:292.98361 11:72.200043 12:90.559937 
0.5156679013810751 0.4550294721640736 1:259.34604 2:108.17204 3:84.750244 4:211.87897 5:90.265892 6:123.31995 7:512.76007 8:110.22412 9:94.059692 10:278.52805 11:67.408005 12:92.479858 
0.4491033552775595 0.3923094989642607 1:472.59973 2:60.98201 3:50.610107 4:407.56573 5:25.830002 6:55.060181 7:362.45093 8:53.939598 9:61.240112 10:362.34216 11:39.75502 12:64.8302 
0.2420115784680142 0.2232123929003548 1:359.12439 2:41.348999 3:61.190063 4:331.81213 5:61.784058 6:61.290039 7:213.67473 8:47.794968 9:30.700195 10:287.29202 11:39.224991 12:39.47998 
0.5301364839504817 0.4664640058064974 1:424.259 2:92.878006 3:32.599731 4:454.63699 5:70.438995 6:37.120117 7:392.19 8:99.117004 9:37.099976 10:542.23901 11:133.16502 12:53.129883 
1.610414284778196 0.7095588907824625 1:102.0509 2:116.24298 3:149.33911 4:90.291931 5:76.140015 6:63.830322 7:87.41095 8:65.833008 9:89.380371 10:95.951904 11:45.568054 12:84.379639 
0 0.02332483107566562 1:319.24652 2:76.302002 3:35.640015 4:215.207 5:99.866409 6:26.289795 7:250.31282 8:53.750015 9:16.700195 10:351.56699 11:78.08297 12:30.590088 
0.361842819581074 0.3171804129665111 1:84.443024 2:54.703995 3:17.34021 4:361.49042 5:211.64 6:43.469971 7:456.15399 8:90.297989 9:163.31006 10:570.92444 11:265.97601 12:109.48022 
0.3423308757566689 0.2953578363545684 1:375.0452 2:113.89601 3:68.630127 4:244.73798 5:69.318008 6:85.249878 7:216.4324 8:79.957001 9:34.170166 10:394.785 11:127.923 12:61.740112 
0.1338183555082062 0.2506080947110148 1:60.451981 2:42.592789 3:23.52002 4:222.0224 5:115.29297 6:36.670044 7:343.73755 8:174.51491 9:126.75012 10:297.047 11:142.21513 12:89.939941 
0.69035578250217 0.6062581349325504 1:40.882904 2:35.462158 3:19.960327 4:102.75702 5:48.957001 6:31.750366 7:588.677 8:137.125 9:85.650024 10:582.84106 11:174.38098 12:102.58997 
0.4436616361774762 0.3883780746102698 1:52.591396 2:67.386215 3:38.480103 4:575.76477 5:186.8804 6:165.78992 7:607.73389 8:244.63487 9:196.15991 10:439.01385 11:182.93451 12:171.48999 
0.5153029905197119 0.4491456296541177 1:267.36749 2:77.936089 3:71.600098 4:492.8035 5:212.60231 6:139.41003 7:454.32352 8:234.52112 9:176.05994 10:345.57037 11:126.29374 12:115.66968 
0.7265440356078465 0.638104708036646 1:49.418091 2:65.128098 3:33.679688 4:747.52509 5:189.65396 6:296.21008 7:1386.9181 8:718.10413 9:507.34009 10:709.36993 11:318.26996 12:295.76001 
0.7262194480894847 0.638180118510859 1:329.00497 2:272.64618 3:131.41003 4:1396.6069 5:718.09509 6:425.46008 7:1059.963 8:543.435 9:306.19019 10:805.22302 11:328.03397 12:197.10986 
0.8991631710032714 1.169261234846958 1:0 2:0 3:0 4:0 5:0 6:0 7:0 8:0 9:0 10:71.253899 11:62.76001 12:131.18005 
0.09022076572680188 0.1053749831379528 1:25.252991 2:20.538055 3:14.919922 4:324.57205 5:218.34302 6:182.53003 7:413.78143 8:133.11 9:180.85999 10:348.31522 11:177.94102 12:157.76013 
0.2305325529842896 0.2075478123920804 1:116.51003 2:100.12 3:66.369751 4:428.97839 5:120.655 6:213.80994 7:283.45401 8:77.088974 9:179.60999 10:272.29761 11:80.10498 12:114.67004 
0.507435714674485 0.4337503383652888 1:46.331108 2:40.652023 3:39.759888 4:398.76501 5:220.61697 6:292.30005 7:231.90294 8:57.701035 9:216.53992 10:159.71445 11:54.955994 12:127.14001 
0.3421242571985555 0.3082042915339429 1:159.06131 2:56.671951 3:122.08984 4:330.81491 5:223.48996 6:187.53015 7:202.87791 8:59.234009 9:163.63 10:95.957619 11:45.982971 12:84.109497 
0.1866598926965874 0.1549313203703827 1:15.908005 2:20.918388 3:15.429932 4:370.94321 5:150.25909 6:139.02991 7:553.50146 8:308.9584 9:112.55005 10:321.41669 11:179.30139 12:93.150146 
0.3417510807968196 0.3052784508047014 1:11.839283 2:12.516312 3:6.2103271 4:437.11743 5:201.02139 6:140.25989 7:618.20447 8:331.71649 9:141.71997 10:382.68713 11:220.89522 12:101.85999 
0.4869138200521291 0.4167909011344169 1:18.534012 2:31.891968 3:14.760132 4:192.68002 5:91.102036 6:144.54993 7:436.38 8:145.267 9:277.51001 10:391.96399 11:147.43202 12:192.88989 
0.1190925329940405 0.08807684088219818 1:34.095093 2:46.523987 3:44.480103 4:395.24597 5:158.6041 6:202.44983 7:400.42294 8:140.48395 9:134.20996 10:157.59799 11:58.944 12:57.529785 
0.475850536983544 0.4150802155774946 1:14.987976 2:16.957092 3:13.010132 4:349.56799 5:106.86341 6:87.899902 7:490.827 8:68.144989 9:199.58997 10:542.91602 11:82.848709 12:255.83997 
0.3538777313994312 0.3254652053521535 1:20.601013 2:13.592987 3:6.9598389 4:382.12802 5:79.62001 6:117.79993 7:352.75201 8:88.643982 9:111.7998 10:519.953 11:109.02199 12:132.54993 
0.04325978482062595 0 1:207.46651 2:94.763458 3:64.098022 4:220.43329 5:66.81881 6:62.763 7:183.70001 8:35.554508 9:81.996033 10:364.3476 11:53.278141 12:81.242981 
0.1184034811798751 0.1007210036765615 1:338.62302 2:75.2071 3:90.049011 4:317.55203 5:99.467697 6:112.78693 7:386.91098 8:107.64351 9:103.61102 10:427.125 11:68.695183 12:75.49408 
0.2813670476581884 0.230542536569824 1:216.62289 2:30.690458 3:15.452942 4:205.20198 5:41.2495 6:58.632019 7:278.26328 8:37.746296 9:31.844971 10:409.96631 11:59.875401 12:72.413025 
0.4204372924030269 0.3584646854107415 1:200.31169 2:22.496401 3:20.64093 4:312.72784 5:114.8566 6:115.15302 7:375.68399 8:69.999008 9:246.17004 10:324.25198 11:108.80002 12:234.27393 
0.2265079537274983 0.09304107694309895 1:16.728401 2:3.6963005 3:16.344971 4:259.12598 5:37.24234 6:47.31604 7:270.76599 8:45.838837 9:88.20105 10:395.40659 11:91.658707 12:54.22406 
0.5942776267043594 0.5397168833241001 1:335.785 2:235.65959 3:80.922913 4:327.0748 5:262.49313 6:83.718994 7:270.05823 8:40.67408 9:97.770081 10:85.123993 11:17.27515 12:10.109985 
0.110756587817663 0.09964565435220578 1:305.14001 2:76.730698 3:36.177002 4:298.629 5:87.034393 6:61.647949 7:220.1572 8:53.567696 9:47.823975 10:141.34599 11:49.5424 12:32.03595 
0.278833613300724 0.3039144319747212 1:261.6767 2:65.613998 3:71.580078 4:159.92403 5:126.04401 6:42.17981 7:315.18826 8:128.54599 9:146.38 10:13.364939 11:14.998016 12:11.430054 
0.6007560325272314 0.4999648680250677 1:83.464905 2:38.0914 3:62.963989 4:203.93208 5:57.656197 6:80.959961 7:170.7498 8:26.814791 9:70.619995 10:319.32339 11:322.66095 12:132.05603 
0 0.1554021297642708 1:52.547897 2:14.017029 3:38.890137 4:283.22971 5:143.097 6:69.570068 7:248.1097 8:148.439 9:36.780029 10:93.151596 11:21.737015 12:25.23999 
0.3011993733408623 0.9640007637716328 1:72.689499 2:30.894989 3:23.740112 4:68.169289 5:31.638 6:13.790039 7:109.9942 8:42.30098 9:15.660156 10:20.220699 11:20.835007 12:23.009888 
0 0.1902008264850342 1:223.5416 2:74.506012 3:65.27002 4:77.452942 5:70.738007 6:11.839844 7:211.09543 8:93.229996 9:61.880005 10:108.87641 11:59.001999 12:35.919922 
0.1820455771032427 0.7109299854475928 1:88.055 2:33.285606 3:41.530029 4:129.106 5:29.485588 6:62.669922 7:111.18103 8:102.998 9:53.76001 10:270.42249 11:92.663986 12:146.97998 
0.6537193812349428 0.5744134096727364 1:492.01541 2:260.78601 3:205.15002 4:105.133 5:117.3485 6:71.160034 7:273.28082 8:53.867001 9:122.18994 10:127.7173 11:109.59711 12:37.830078 
0.4707316304312376 0.4377573351291012 1:59.652702 2:15.643005 3:18.51001 4:359.17523 5:180.80598 6:37.75 7:106.21295 8:187.97202 9:38.22998 10:303.96832 11:98.52301 12:40.73999 
0.2227286972650995 0.3184128669720844 1:192.99789 2:109.4369 3:130.73999 4:172.93202 5:109.49409 6:55.569946 7:292.25443 8:104.01649 9:178.33997 10:72.47348 11:127.96241 12:95.360046 
0.5331708619293216 0.6616324053164763 1:145.11859 2:95.184311 3:69.640015 4:290.47238 5:292.99509 6:90.689941 7:254.41412 8:291.13312 9:45.940063 10:148.4539 11:58.810493 12:87.949951 
0.08411570817113721 0 1:293.06598 2:70.815109 3:114.87 4:155.18701 5:93.536583 6:67.559937 7:299.13541 8:72.208168 9:95.380005 10:42.126495 11:49.516548 12:21.659912 
0.005653411484388226 0 1:59.0093 2:21.891609 3:55.069946 4:406.68439 5:174.7641 6:100.33008 7:215.19899 8:164.0005 9:62.300049 10:210.99934 11:43.376801 12:53.380005 
0.06388264780503324 0.1417461313088308 1:197.13501 2:37.88586 3:15.260132 4:212.26952 5:127.3828 6:17.429932 7:359.13605 8:95.172203 9:21.450073 10:61.882019 11:53.264214 12:6.3999023 
0 0.221684300230399 1:11.428009 2:14.730289 3:5.9901123 4:201.76999 5:51.415119 6:21.98999 7:272.27496 8:35.437599 9:42.01001 10:64.377045 11:42.097301 12:15.519897 
0.1756046987479044 0.1360359951386031 1:166.658 2:47.426197 3:9.1298828 4:273.62598 5:89.257347 6:30.220093 7:324.52521 8:230.02341 9:103.27014 10:52.033997 11:60.249008 12:46.449951 
0.3723780189768357 0.2224504730548027 1:22.416962 2:4.4634709 3:8.6901855 4:160.49298 5:22.494043 6:14.869873 7:266.88901 8:54.689899 9:11.900024 10:20.39801 11:16.523407 12:7.1401367 
0.01741844683148922 0 1:23.393036 2:10.108704 3:5.9598389 4:265.582 5:59.067902 6:14.059814 7:306.5864 8:50.801895 9:17.039917 10:113.67401 11:45.114292 12:31.26001 
0.06652683871666909 0.03462544061788685 1:238.69751 2:91.026566 3:105.06006 4:306.80188 5:114.66174 6:129.66003 7:242.34889 8:122.5971 9:106.08997 10:31.640991 11:28.264904 12:26.560181 
0 0.03353776986966341 1:225.40271 2:106.29549 3:92.129883 4:332.73932 5:129.7912 6:148.37988 7:291.54449 8:100.10937 9:132.55017 10:309.85168 11:101.75425 12:161.06982 
0.1374970969776178 0.1862956621040324 1:35.178402 2:28.053001 3:20.84021 4:275.46521 5:103.32079 6:131.23999 7:257.5524 8:74.512222 9:133.56995 10:91.510193 11:41.3876 12:49.860107 
0.2250174261376865 0.1923816811686029 1:45.752945 2:33.544395 3:22.4198 4:408.77695 5:217.8631 6:135.22998 7:457.58679 8:245.90967 9:42.339844 10:350.96143 11:100.8194 12:68.3302 
0.6597164067510081 0.5761428854446776 1:14.555023 2:20.288002 3:9.079834 4:247.79701 5:262.21698 6:240.1698 7:280.59488 8:231.63303 9:258.56995 10:405.45132 11:420.24399 12:199.10022 
0.545315254353318 0.5515984143083168 1:73.90979 2:95.02803 3:41.90979 4:375.55551 5:307.72891 6:151.37 7:255.54169 8:246.82402 9:190.32007 10:320.14905 11:253.50101 12:171.95007 
0.2170562100661652 0.6966511150265461 1:11.317001 2:14.169098 3:4.3901367 4:129.20599 5:31.315403 6:31.869995 7:141.59309 8:55.152504 9:11.199829 10:277.90753 11:79.620758 12:41.140137 
0.09727633251024824 0.1067353658235585 1:31.307022 2:15.647903 3:8.3897705 4:275.87546 5:86.944107 6:19.589966 7:346.31772 8:102.60461 9:31.5 10:23.422028 11:22.641487 12:12.610107 
0.3475799594950979 0.3212573615941746 1:45.981018 2:38.614998 3:4.0899658 4:349.04541 5:176.01291 6:24.380005 7:457.70978 8:141.48651 9:86.300049 10:28.912018 11:7.2120056 12:32.309937 
0.06291436685431714 0 1:79.288025 2:57.457611 3:13.73999 4:367.83682 5:77.875694 6:49.690063 7:337.20084 8:49.615501 9:31.440002 10:89.982971 11:54.686798 12:26.299988 
0.03945005410186905 0 1:245.29901 2:63.025703 3:33.319946 4:179.56876 5:128.7897 6:26.750061 7:348.66208 8:69.189491 9:48.503052 10:76.006012 11:72.952095 12:21.19104 
0.2183108362689053 0.1489959358578082 1:63.181 2:35.554001 3:7.9499512 4:246.0441 5:55.158604 6:5.7800293 7:131.49098 8:145.3846 9:24.460022 10:388.9668 11:90.4702 12:52.67804 
0 0.04361824618185324 1:66.45401 2:46.121895 3:3.8199463 4:211.72701 5:29.937996 6:9.4599609 7:101.5723 8:83.790695 9:22.359985 10:139.14249 11:45.7444 12:29.469971 
0.05173417899074558 0 1:32.171997 2:29.533401 3:8.3800049 4:277.34961 5:47.6847 6:17.700073 7:167.3098 8:49.506592 9:37.419922 10:189.618 11:34.303185 12:16.049927 
0.01842644153726495 0 1:13.615021 2:10.803696 3:7.5800171 4:219.19492 5:40.634506 6:12.049988 7:159.0647 8:42.545395 9:30.340088 10:131.92696 11:26.041702 12:16.679932 
0.7036069285990506 0.6190246053662822 1:216.00699 2:108.62202 3:8.8498535 4:284.72632 5:199.73778 6:119.12616 7:547.84851 8:440.82407 9:102.72302 10:35.569 11:49.87809 12:26.731995 
0.04291935973643102 0 1:242.24742 2:65.042603 3:33.270142 4:302.13452 5:94.084991 6:65.160034 7:368.1261 8:88.944099 9:56.73999 10:42.128021 11:43.614395 12:20.98999 
0.04744335011246445 0 1:44.890015 2:17.22699 3:30.570068 4:303.27649 5:46.723999 6:47.479858 7:194.13184 8:30.526978 9:19.289795 10:197.93103 11:65.48999 12:27.029907 
0.2423369846024392 0.2268557252003474 1:180.461 2:101.9824 3:15.989868 4:450.43198 5:108.4241 6:42.849976 7:337.49597 8:118.6044 9:54.470032 10:281.63 11:120.4671 12:48.771973 
0.3311346009534615 0.2905500638332121 1:119.31396 2:36.618401 3:47.55896 4:495.22302 5:180.96178 6:55.585022 7:437.896 8:132.66029 9:94.447998 10:83.414993 11:36.798409 12:61.675964 
0.2323723923885026 0.2017945143864472 1:40.536011 2:22.584595 3:6.881958 4:433.71298 5:192.97121 6:26.843994 7:430.77798 8:125.48759 9:78.532959 10:189.20404 11:150.65201 12:57.97699 
0.04740032902605622 0.02085299250024133 1:64.050995 2:46.167999 3:6.4000244 4:382.54578 5:80.882401 6:8.3380127 7:229.7482 8:76.242096 9:53.024048 10:226.67099 11:105.2151 12:40.607971 
0.02278242912672682 0.01747594474644602 1:59.499985 2:26.390015 3:27.160034 4:508.93298 5:160.43799 6:111.63013 7:546.84698 8:140.56799 9:46.899902 10:439.99408 11:170.96503 12:66.589844 
0.4395276279642146 0.3879608049048258 1:43.804001 2:20.652039 3:22.299805 4:511.71304 5:237.5 6:125.89001 7:591.31921 8:124.77701 9:58.100098 10:465.71173 11:209.40103 12:65.5 
0.06545773576519197 0 1:218.76501 2:23.93103 3:14.002991 4:244.98289 5:51.943989 6:13.372131 7:230.35153 8:33.810921 9:27.522034 10:218.25708 11:22.64188 12:36.493042 
0.5173109954458129 0.4557645015391473 1:36.527893 2:31.380035 3:30.280029 4:446.9838 5:93.015015 6:147.98999 7:634.36426 8:168.06799 9:157.46008 10:259.11404 11:53.815002 12:147.01001 
0.7263307107971834 0.6377782635383726 1:592.88702 2:124.12302 3:152.11975 4:843.78308 5:260.25403 6:248.92004 7:759.02087 8:194.37097 9:246.36011 10:765.89587 11:260.40799 12:201.08008 
-0.1298018528075791 0.08625332141950534 1:47.297943 2:32.319023 3:149.71008 4:48.590004 5:60.237961 6:342.16003 7:64.850945 8:77.584 9:377.84985 10:67.123047 11:46.880981 12:204.44995 
-0.184986044560195 0.1325668091199154 1:17.477997 2:25.133011 3:10.229614 4:30.335999 5:55.19101 6:306.63 7:40.17804 8:27.963005 9:295.42004 10:56.490997 11:28.945007 12:302.02991 
-0.1702132605399142 0.1241834856525273 1:76.200958 2:65.18399 3:365.33997 4:71.244019 5:97.12278 6:319.55994 7:53.764114 8:112.30011 9:405.27002 10:70.398972 11:78.497093 12:459.80994 
-0.1145158982522334 0.09910826719845135 1:16.153502 2:49.543396 3:95.439941 4:19.959797 5:39.986404 6:132.57501 7:34.670399 8:23.622101 9:297.039 10:17.175098 11:32.698101 12:201.82996 
-0.01329972093697712 0.05102740319062407 1:16.270596 2:21.412998 3:184.33008 4:53.868099 5:43.905605 6:211.89294 7:19.557497 8:25.96698 9:187.31506 10:65.966805 11:33.295715 12:337.05994 
-1.155120309838754 0.8332349935194439 1:48.150581 2:80.749504 3:332.72009 4:48.573212 5:224.93008 6:330.36023 7:64.674507 8:148.63248 9:420.22998 10:53.974091 11:296.34622 12:543.91016 
-0.4763708622770506 0.3780796969756108 1:11.92202 2:84.813896 3:197.76001 4:19.477005 5:37.155701 6:174.93994 7:32.876305 8:107.2748 9:366.95996 10:19.128296 11:59.3703 12:31.710083 
-0.4938392446267165 0.3763417889183574 1:36.118904 2:26.813011 3:213.41992 4:41.621498 5:176.22034 6:167.75012 7:36.622009 8:94.193047 9:266.64001 10:26.803032 11:34.445396 12:121.13 
-0.4552447250412052 0.3283431803823564 1:34.452087 2:31.230797 3:40.950195 4:47.714966 5:46.759323 6:435.04993 7:36.192001 8:24.295544 9:163.95007 10:30.336014 11:41.189835 12:281.07996 
-0.571757922240871 0.4046465455874039 1:19.200958 2:17.964966 3:15.390137 4:68.875916 5:180.35797 6:405.52991 7:37.920044 8:134.104 9:248.20996 10:30.520996 11:59.809998 12:103.16003 
-0.9410763226359178 0.7153464579149074 1:65.03302 2:171.06001 3:396.43005 4:26.156006 5:78.655975 6:192.3999 7:19.80896 8:110.77399 9:215.20007 10:12.919037 11:10.613007 12:15.72998 
-0.8657950762924073 0.6240604855634725 1:23.264534 2:33.288048 3:68.190063 4:109.545 5:130.77856 6:621.23193 7:68.575714 8:51.353302 9:416.62402 10:34.042793 11:116.5538 12:328.64014 
-1.055051590191608 0.7593144725689558 1:18.360977 2:13.792023 3:19.679932 4:64.600037 5:177.56201 6:416.55994 7:24.071991 8:38.959 9:70.809814 10:58.575989 11:144.42297 12:451.61011 
-0.5218823887872008 0.3786822122040204 1:16.392006 2:19.678009 3:31.050049 4:77.833977 5:197.01402 6:454.92993 7:40.061981 8:63.769989 9:277.98999 10:36.957001 11:156.58299 12:250.97009 
-1.243620569965394 0.5204764418967617 1:50.328995 2:98.261993 3:221.44995 4:52.408981 5:34.325012 6:79.660034 7:37.188004 8:71.302002 9:168.21997 10:36.029984 11:39.792999 12:21.499878 
-0.268343667486953 0.1840255895867677 1:17.891247 2:25.008957 3:22.249878 4:105.85299 5:58.137009 6:330.11011 7:77.124207 8:57.400986 9:330.34998 10:39.90369 11:37.965973 12:29.619751 
-1.124018496317272 0.8067143007708428 1:21.631203 2:22.041016 3:10.910034 4:11.076 5:32.35701 6:88.609741 7:44.538502 8:56.176041 9:505.46997 10:27.361795 11:48.74704 12:121.61975 
-1.273720326115964 0.9188890433087875 1:241.4128 2:122.77921 3:113.08008 4:788.35077 5:406.97696 6:278.67957 7:99.461319 8:148.82758 9:54.569824 10:1212.3333 11:572.4325 12:380.13013 
-0.006675590948864547 0 1:15.419983 2:23.414787 3:10.6698 4:89.15799 5:77.471794 6:313.28003 7:53.859024 8:81.951202 9:256.79993 10:24.805984 11:18.961006 12:21.200195 
-0.8672843403263204 0.6320723315641169 1:85.793976 2:36.45401 3:221.63 4:65.920013 5:40.059967 6:289.62 7:22.692017 8:24.319977 9:50.450073 10:19.360992 11:17.468994 12:15.359741 
-0.1782937075227227 0.13824999484433 1:22.358032 2:22.355072 3:28.789917 4:59.46405 5:24.981079 6:260.56995 7:31.197998 8:32.244019 9:232.48999 10:27.659973 11:23.962006 12:18.059937 
-0.8789604496208001 0.636105146829221 1:110.338 2:39.859898 3:366.2301 4:37.571991 5:43.163498 6:363.2301 7:26.100983 8:70.972206 9:362.6499 10:11.681 11:24.292965 12:332.61987 
-1.137540739818191 0.8206300624881509 1:19.700012 2:20.147804 3:14.129761 4:112.96498 5:59.362305 6:420.0199 7:82.121017 8:63.999111 9:555.59998 10:44.181015 11:123.09734 12:527.53003 
-1.043227239148354 0.7554710819510049 1:15.832977 2:12.429977 3:57.029907 4:68.394012 5:88.096985 6:453.45996 7:86.196014 8:113.08688 9:530.43005 10:25.923996 11:14.41169 12:11.470093 
-0.1328168157374506 0.1097972824902654 1:16.812603 2:22.893021 3:82.579956 4:28.501884 5:58.993805 6:355.78296 7:53.139809 8:41.128998 9:380.80505 10:14.886703 11:52.686996 12:26.099731 
-0 0.1294068168030034 1:16.442398 2:16.373009 3:36.249878 4:39.090004 5:63.354301 6:225.13501 7:47.053307 8:105.29291 9:232.38696 10:16.775398 11:21.136993 12:28.839966 
-1.273603354672261 0.9187800907967481 1:134.9976 2:77.837006 3:579.09204 4:66.353104 5:48.011993 6:94.579834 7:49.564907 8:40.937988 9:43.920166 10:112.36457 11:132.49702 12:718.80798 
-0.2083454265696419 0.1401055514792633 1:29.788603 2:30.841995 3:38.549927 4:82.033203 5:41.218018 6:184.02002 7:49.701469 8:16.695999 9:158.01001 10:69.613144 11:69.048004 12:98.420044 
-0.5584310773482398 0.4028921747162746 1:116.55349 2:110.10101 3:221.12 4:74.4879 5:134.633 6:577.44897 7:79.121498 8:111.25299 9:394.625 10:76.815598 11:129.75098 12:354.8501 
-0.8906462821489475 0.6425507936115166 1:82.806099 2:136.06299 3:302.98999 4:43.848026 5:83.526993 6:579.31598 7:67.786026 8:82.891006 9:468.07599 10:81.671684 11:119.01199 12:249 
-0.4124566392034871 0.3349195007518764 1:29.322197 2:30.243011 3:93.330078 4:57.9431 5:50.254974 6:221.52991 7:12.716499 8:17.335022 9:56.640137 10:98.512817 11:104.81799 12:311.22998 
-0.5722442450935851 0.3861322543038936 1:29.163055 2:46.577488 3:212.50989 4:28.276001 5:52.054302 6:251.1499 7:50.052994 8:56.224602 9:232.34985 10:51.834 11:50.507202 12:361.44006 
-0.4940999531694893 0.3640207577502281 1:11.016998 2:20.076498 3:22.97998 4:51.751007 5:46.822803 6:157.45398 7:41.371017 8:14.740204 9:215.01605 10:63.651993 11:117.96809 12:293.90802 
-0.03774962101135763 0.01812000170625016 1:25.602005 2:82.227402 3:127.47095 4:24.246994 5:68.406693 6:258.56104 7:23.862991 8:15.522026 9:100.27496 10:40.001007 11:130.34488 12:306.26904 
-0.3836300646837444 0.2812746163566831 1:25.505997 2:31.539707 3:94.679932 4:43.629005 5:96.237305 6:459.07703 7:76.498009 8:167.19305 9:374.52002 10:34.560959 11:54.615803 12:206.177 
-0.1472032538143144 0.08466407616684066 1:50.877991 2:36.116013 3:70.406006 4:67.406601 5:42.267593 6:322.61298 7:26.437492 8:107.0304 9:393.81097 10:15.925499 11:22.125 12:21.599976 
-0.1407685741791436 0.01199938102198684 1:10.560181 2:10.528 3:8.6699219 4:43.290703 5:46.082993 6:259.06494 7:13.610504 8:46.479004 9:237.28296 10:13.533005 11:27.830002 12:33.990112 
-0.2369916016967955 0.1691529699936931 1:26.677948 2:14.271027 3:11.489746 4:39.626984 5:52.937073 6:394.19006 7:34.764008 8:74.475006 9:227.81006 10:49.717041 11:69.449066 12:382.15991 
-0.9290597038032151 0.6694798144864168 1:34.225952 2:119.735 3:429.1001 4:59.524017 5:73.889 6:326.58008 7:53.312073 8:107.24529 9:469.58997 10:46.982956 11:96.854111 12:501.95996 
-1.123475537838024 0.810342454672686 1:24.563995 2:17.951187 3:14.030029 4:22.658051 5:48.483391 6:187.21008 7:28.275986 8:95.049217 9:414.62 10:49.027985 11:152.0755 12:533.63 
-0.1060900068385905 0.04344319716859388 1:21.51799 2:21.789196 3:45.997009 4:69.652985 5:37.838806 6:165.07901 7:28.168015 8:15.051001 9:58.442047 10:44.673988 11:46.1143 12:184.25299 
-0.7975504572877565 0 1:37.397003 2:51.260609 3:110.94098 4:45.112991 5:39.554302 6:142.43301 7:21.149994 8:16.710121 9:62.870026 10:44.537003 11:34.536102 12:159.76202 
-1.137250510273918 1.182306661450509 1:15.222305 2:15.525299 3:33.865051 4:157.63638 5:255.0972 6:172.18195 7:8.6909943 8:29.772301 9:87.122009 10:7.2469711 11:17.661011 12:58.470032 
-0 0.06145016061841963 1:5.2780304 2:13.925995 3:45.367004 4:32.596001 5:50.204102 6:185.25 7:12.176498 8:26.3563 9:93.94397 10:14.1576 11:23.78801 12:105.32104 
-0.286736403805278 0.4737009826282602 1:14.609299 2:48.947525 3:80.44397 4:17.7999 5:32.6287 6:172.30701 7:4.5597916 8:7.6675034 9:32.538025 10:10.744503 11:46.298302 12:181.43799 
-1.151176035019587 -0.8051601940824636 1:106.49675 2:163.86493 3:89.43042 4:181.90781 5:367.68823 6:92.140503 7:296.82901 8:111.35255 9:104.82007 10:292.90524 11:152.34012 12:137.51013 
-0.3519797204579543 -0.288033744451806 1:70.683998 2:199.38997 3:45.329834 4:57.774498 5:316.74948 6:47.320068 7:250.00829 8:99.481506 9:85.710205 10:188.84903 11:44.043976 12:41.759766 
-0.4347912416591468 -0.1259592325686274 1:66.320145 2:142.97798 3:37.000244 4:69.999352 5:247.10126 6:50.290283 7:233.2155 8:155.88474 9:88.490356 10:263.99396 11:54.868004 12:101.1001 
-0.04515110475757624 -0.1365188846990174 1:59.965305 2:209.78998 3:49.570068 4:68.261292 5:375.53809 6:85.400024 7:222.92381 8:134.00597 9:76.599854 10:259.19904 11:97.48201 12:93.550415 
-0.5680106319692611 -0.471806296105435 1:12.582219 2:38.837036 3:8.7197266 4:25.954727 5:261.3457 6:39.030029 7:38.789246 8:249.22128 9:27.489868 10:316.88312 11:50.113968 12:21.559937 
-0 -0.02464050444541996 1:21.374481 2:22.634979 3:13.379883 4:47.058105 5:340.88919 6:21.609985 7:227.15311 8:154.61111 9:68.820068 10:273.35544 11:42.988228 12:65.260132 
-1.361851557940189 -1.081018838687349 1:159.14751 2:443.5907 3:60.480225 4:79.155762 5:468.07843 6:60.490234 7:67.367897 8:117.59131 9:44.740112 10:716.87177 11:124.36488 12:147.33997 
-1.086339736950134 -0.853849843403394 1:17.047501 2:22.485962 3:10.610352 4:29.303499 5:338.30249 6:18.040161 7:97.293594 8:59.329517 9:43.070068 10:408.11621 11:101.4579 12:119.04004 
-0.964776779386588 -0.7686689740166068 1:14.808701 2:37.708008 3:33.210205 4:27.043995 5:572.86798 6:220.28992 7:235.51889 8:175.92998 9:78.960205 10:217.319 11:53.564987 12:175.37012 
-0 -0.03065411825043575 1:19.276962 2:18.233017 3:18.699829 4:23.570969 5:139.07999 6:24.740112 7:49.342972 8:157.40541 9:51.739868 10:91.047028 11:12.544693 12:16.150146 
-0.2790546885378051 -0.2444655707109812 1:14.213501 2:22.363594 3:9.630249 4:29.715206 5:292.14301 6:27.699951 7:309.18683 8:52.858032 9:155.51001 10:18.340027 11:24.978943 12:31.099854 
-0.7709825919382334 -0.64759031917049 1:14.39798 2:27.914009 3:22.599976 4:57.345978 5:295.70801 6:106.59998 7:80.222015 8:241.175 9:39.149902 10:99.567963 11:52.729004 12:174.94995 
-0.4401908462203057 -0.3435763607703329 1:25.991974 2:27.508911 3:13.119995 4:22.621017 5:331.40109 6:88.599854 7:110.627 8:375.02225 9:83.920166 10:292.33594 11:67.029053 12:133.91968 
-1.383063841612606 -1.074983252244747 1:106.38311 2:346.34174 3:105.64954 4:330.72647 5:124.59213 6:131.18982 7:281.85953 8:150.31516 9:119.25964 10:122.522 11:288.10486 12:98.359253 
-0.001823301909242897 -0 1:11.91629 2:13.764999 3:17.559937 4:27.030399 5:395.07401 6:70.22998 7:239.0657 8:245.483 9:105.86011 10:78.921997 11:27.24292 12:89.769653 
-1.128129590799236 -0.9047687123805333 1:20.952583 2:24.566025 3:26.700195 4:37.374916 5:181.11569 6:59.360107 7:234.8898 8:477.91629 9:152.04004 10:53.202003 11:34.562012 12:72.47998 
-0.411320366725798 -0.2902595910384125 1:18.168701 2:25.142014 3:17.309937 4:160.84659 5:396.392 6:48.010132 7:345.41998 8:58.538033 9:72.76001 10:45.828003 11:30.120026 12:27.8302 
-0.4792209131690922 -0.4028248188457654 1:14.69352 2:18.377991 3:11.060181 4:51.681389 5:452.802 6:55.419678 7:377.32001 8:84.216995 9:27.120361 10:51.176025 11:32.718979 12:19.719971 
-0.3016946149715173 -0.2203421629732755 1:5.5950012 2:6.2890167 3:3.9901123 4:10.873993 5:90.205002 6:31.64978 7:154.21803 8:243.46696 9:73.320068 10:158.84094 11:44.728989 12:42.390015 
-0.8303720859939776 -0.5738478182830334 1:13.341034 2:16.89299 3:10.409912 4:24.365997 5:106.48653 6:45.48999 7:268.32248 8:253.07449 9:122.23999 10:56.149918 11:82.266296 12:66.509888 
-1.062829030962537 -0.6909525660618739 1:20.427002 2:21.69101 3:13.969971 4:16.36499 5:17.399002 6:15.849854 7:12.416016 8:173.83263 9:60.329956 10:353.21707 11:125.00516 12:95.859985 
-0.2323408819142061 -0.1621913253325996 1:11.037033 2:8.4209595 3:8.0299072 4:32.483994 5:248.21635 6:89.170166 7:331.15799 8:169.3217 9:115.73999 10:39.628021 11:30.199005 12:22.380005 
-0.7380409190234462 -0.5841548199051402 1:11.028 2:18.28299 3:12.799561 4:38.951035 5:498.25397 6:150.83008 7:381.48199 8:206.12399 9:137.57996 10:68.387085 11:60.675995 12:49.900024 
-0.07843304412739437 -0 1:23.555008 2:16.617599 3:8.5301514 4:35.721008 5:169.3306 6:36.399902 7:125.85152 8:104.89442 9:14.489746 10:209.7085 11:48.276009 12:23.360107 
-0.2896756750058103 -0 1:14.104004 2:24.9 3:5.8897705 4:25.872009 5:141.83781 6:10.860107 7:61.182007 8:60.770004 9:51.949951 10:153.4369 11:25.899994 12:88.559937 
-0.04895803402701136 -0 1:23.509109 2:23.386017 3:14.550049 4:74.995003 5:125.73321 6:13.589966 7:71.082977 8:173.8728 9:79.930054 10:199.99792 11:39.641998 12:57.920044 
-1.010043048343482 -0.2918089708107926 1:14.491596 2:19.255898 3:5.5200195 4:15.244099 5:74.6259 6:12.47998 7:17.819607 8:103.29321 9:16.589966 10:131.63669 11:78.487991 12:38.100098 
-0.725974139020491 -0.4844985879692835 1:5.4613953 2:11.664001 3:2.7099609 4:6.0539932 5:46.2612 6:20.02002 7:13.173996 8:114.0881 9:38.01001 10:217.332 11:162.2317 12:119.52002 
-0.2520139799083428 -0 1:5.8690033 2:22.251122 3:5.3101807 4:42.117599 5:179.97681 6:62.310059 7:168.9761 8:69.216995 9:45.380127 10:20.192978 11:10.812988 12:19.559937 
-0.9392431855807869 -0.6584020528577571 1:7.4716949 2:54.937508 3:29.580078 4:148.2233 5:230.72749 6:33.27002 7:202.8856 8:21.901047 9:89.48999 10:14.376999 11:8.7050018 12:12.000122 
-0.6005489944873965 -0.47199137270569 1:50.005981 2:125.198 3:95.510254 4:99.911011 5:484.51193 6:115.91992 7:278.86203 8:46.20697 9:53.34021 10:163.104 11:33.725098 12:41.020142 
-0.309377317633396 -0.2273433674334024 1:10.792038 2:9.5639648 3:9.84021 4:45.727982 5:435.17102 6:161.17004 7:171.82587 8:189.71696 9:53.490112 10:229.61711 11:64.073013 12:63.120239 
-0 -0.1904744314335288 1:12.333969 2:16.046005 3:14.419922 4:29.442001 5:180.13269 6:98.599976 7:78.244995 8:115.7543 9:95.47998 10:174.49997 11:29.872009 12:46.969971 
-0.022200458571805 -0.1489893439182958 1:11.9468 2:29.289001 3:9.2601318 4:32.606178 5:259.11545 6:69.119873 7:169.4012 8:120.08796 9:156.17993 10:92.327972 11:35.771683 12:142.28015 
-0.2942394466340937 -0.2324175044680822 1:16.13401 2:16.364899 3:15.02002 4:44.545815 5:347.20831 6:86.900024 7:216.15501 8:158.15269 9:199.32007 10:55.183044 11:49.679001 12:61.589966 
-1.324929709950446 -1.037988578088684 1:117.9266 2:315.039 3:40.010132 4:23.792007 5:36.439987 6:20.310181 7:48.04599 8:244.79999 9:78.889893 10:209.08632 11:39.228996 12:24.809937 
-0.3429373065194911 -0.163282538319583 1:16.867996 2:114.66401 3:5.3499756 4:6.8190308 5:253.27499 6:48.673035 7:146.17859 8:16.950989 9:10.304016 10:19.086498 11:14.613998 12:4.8719482 
-0.3066314104073728 -0.2171056516030869 1:26.5 2:106.23697 3:23.089478 4:52.671051 5:296.69 6:66.689941 7:240.87144 8:303.88339 9:120.08997 10:175.43851 11:55.875214 12:58.470093 
-1.340724215834103 -1.064355480243103 1:11.60498 2:22.313904 3:15.659912 4:25.395935 5:59.253113 6:32.9198 7:76.320038 8:578.21887 9:100.32007 10:460.90613 11:205.4028 12:141.8501 
-0.2534127578394494 -0.1994913963717154 1:12.661011 2:40.211014 3:22.369995 4:44.102005 5:513.93896 6:152.68005 7:370.06601 8:140.70999 9:110.77991 10:173.76895 11:30.372009 12:146.91016 
-0.986902546886264 -0.7823732303385956 1:10.780991 2:11.773041 3:21.560059 4:36.137009 5:305.8519 6:135.46008 7:133.23903 8:342.44806 9:87.559937 10:429.74701 11:120.89702 12:180.23999 
-0.8840604571008506 -0.2776028596295534 1:16.19915 2:92.369507 3:6.085022 4:18.271851 5:155.69652 6:11.802917 7:19.115301 8:22.530991 9:6.5797729 10:80.668892 11:16.003998 12:11.381042 
-0.09329935029077491 -0.4960755576384233 1:10.847939 2:39.061508 3:27.085022 4:15.850683 5:216.1795 6:28.995056 7:23.12673 8:21.684021 9:11.641968 10:50.84531 11:15.593964 12:16.749023 
-0 -0.2678937801716265 1:18.178221 2:88.502594 3:22.013 4:20.056103 5:257.79639 6:50.300964 7:68.051208 8:22.646011 9:34.109985 10:26.951096 11:12.669006 12:20.455872 
