svm_type c_svc
kernel_type rbf
gamma 9.07293e-006
nr_class 5
total_sv 466
rho -0.228719 -0.412077 -0.667203 -0.385626 -0.0735083 -0.0405369 0.0131332 0.160024 0.0482077 -0.105008
label 1 2 3 5 4
probA -4.9761 -5.14201 -4.4505 -4.98595 -5.29798 -4.93916 -5.20365 -5.09942 -5.22431 -3.82008
probB -0.204889 -0.231827 -0.855118 0.0666722 -0.0630191 -0.171346 -0.0306953 0.00737342 0.0898053 -0.110511
nr_sv 159 33 38 161 75
SV
0 0 1.576502697581039 0 1:31.996002 2:31.785843 3:20.59021 4:116.48601 5:50.010818 6:52.690186 7:244.94901 8:58.180115 9:108.07996 10:96.492004 11:78.724411 12:74.670044 13:212.01599 14:72.780518 15:71.780029 
0 0 1.136134362723746 0 1:109.10201 2:23.751968 3:55.150146 4:275.784 5:114.55304 6:60.149902 7:268.35297 8:90.81102 9:89.769897 10:196.08398 11:69.924988 12:44.580078 13:68.93 14:34.270004 15:33.670044 
0 0 1.681792830507429 0 1:17.713074 2:31.649994 3:24.660034 4:243.44099 5:102.10205 6:131.53003 7:351.711 8:133.82706 9:175.87 10:263.147 11:92.590942 12:73.379761 13:111.34999 14:44.385986 15:33.229858 
0 0 1.681792830507429 0 1:26.189711 2:10.408989 3:9.4200439 4:222.17371 5:53.243011 6:57.01001 7:91.75798 8:86.973999 9:11.780151 10:187.851 11:75.590988 12:71.459961 13:116.56281 14:36.024994 15:58.080078 
0 0 1.681792830507429 0 1:13.671299 2:7.4780273 3:13.990112 4:216.53929 5:45.741013 6:87.640015 7:124.90401 8:115.96899 9:14.920044 10:228.77269 11:136.36499 12:28.690063 13:93.151596 14:21.737015 15:25.23999 
0 0 1.681792830507429 0 1:52.879398 2:25.71159 3:21.740112 4:191.24582 5:46.933853 6:80.769897 7:228.09001 8:138.54605 9:54.349976 10:178.34297 11:72.820297 12:102.19995 13:241.53452 14:77.943314 15:69.709961 
0 0 1.681792830507429 0 1:26.626202 2:10.815002 3:8.1500244 4:239.9837 5:54.584 6:39.599976 7:170.66298 8:178.08701 9:14.709961 10:128.29099 11:173.40401 12:35.050049 13:263.44531 14:66.054001 15:37.719971 
0 0 1.681792830507429 0 1:76.222092 2:30.2892 3:16.430054 4:261.64789 5:33.645302 6:55.51001 7:175.629 8:117.4696 9:18.23999 10:163.506 11:94.205383 12:38.219971 13:271.31891 14:53.787781 15:64.490112 
0 0 1.681792830507429 0 1:20.8792 2:5.5526085 3:25.76001 4:220.33649 5:46.282001 6:98.459961 7:241.24298 8:168.60609 9:39.360107 10:151.00201 11:122.7531 12:48.439941 13:258.4313 14:60.839203 15:59.060059 
0 0 1.681792830507429 0 1:80.414017 2:22.593994 3:22.049927 4:214.03375 5:126.4919 6:49.72998 7:276.75479 8:95.491409 9:29.119873 10:168.82298 11:65.486801 12:25.629883 13:150.1431 14:56.974602 15:23.690063 
0 0 1.681792830507429 0 1:14.336975 2:6.769104 3:3.8100586 4:230.37201 5:61.319599 6:9.0301514 7:159.05551 8:158.71672 9:54.42981 10:231.50412 11:104.56749 12:36.930115 13:193.05099 14:83.603294 15:32.159973 
0 0 1.681792830507429 0 1:37.233002 2:29.21199 3:2 4:130.25002 5:40.406906 6:3.0999756 7:167.4287 8:23.889793 9:15.23999 10:44.841602 11:66.341896 12:15.299927 13:139.14249 14:45.7444 15:29.469971 
0 0 1.538708139526652 0 1:3.6490173 2:6.5962982 3:3.7000732 4:82.300018 5:22.6689 6:9.749939 7:161.9942 8:31.915001 9:10.350037 10:107.6414 11:30.704998 12:21.960022 13:168.21696 14:28.140102 15:20.889954 
0.09729845284905625 0 0 0 1:80.53186 2:97.313965 3:116.85938 4:75.405029 5:70.158997 6:60.310059 7:61.730896 8:28.263 9:41.590088 10:62.085999 11:62.480042 12:83.790283 13:95.951904 14:45.568054 15:84.379639 
0 0 0.8275563445957608 0 1:27.040985 2:22.584888 3:16.230103 4:212.4507 5:93.748596 6:37.350098 7:186.83229 8:101.626 9:37.589844 10:212.59299 11:133.5237 12:108.91003 13:284.34198 14:123.13264 15:76.800049 
0 0 1.681792830507429 0 1:31.996002 2:31.785843 3:20.59021 4:116.48601 5:50.010818 6:52.690186 7:244.94901 8:58.180115 9:108.07996 10:96.492004 11:78.724411 12:74.670044 13:212.01599 14:72.780518 15:71.780029 
0 0 0.4606073960717017 0 1:31.147003 2:60.966995 3:28.380005 4:176.8475 5:70.68103 6:66.219971 7:282.25491 8:138.80302 9:117.33984 10:281.03119 11:80.654007 12:114.42993 13:288.16397 14:61.056015 15:114.53992 
0 0 1.681792830507429 0 1:109.10201 2:23.751968 3:55.150146 4:275.784 5:114.55304 6:60.149902 7:268.35297 8:90.81102 9:89.769897 10:196.08398 11:69.924988 12:44.580078 13:68.93 14:34.270004 15:33.670044 
0 0 1.681792830507429 0 1:17.713074 2:31.649994 3:24.660034 4:243.44099 5:102.10205 6:131.53003 7:351.711 8:133.82706 9:175.87 10:263.147 11:92.590942 12:73.379761 13:111.34999 14:44.385986 15:33.229858 
0 0 0.4505698564977776 0 1:202.19272 2:48.157097 3:51.440063 4:206.479 5:119.8909 6:57.73999 7:166.75601 8:87.96701 9:63.329834 10:169.3936 11:72.423981 12:92.510132 13:5.3326387 14:6.763031 15:6.5499268 
0 0 1.681792830507429 0 1:26.189711 2:10.408989 3:9.4200439 4:222.17371 5:53.243011 6:57.01001 7:91.75798 8:86.973999 9:11.780151 10:187.851 11:75.590988 12:71.459961 13:116.56281 14:36.024994 15:58.080078 
0 0 1.681792830507429 0 1:13.671299 2:7.4780273 3:13.990112 4:216.53929 5:45.741013 6:87.640015 7:124.90401 8:115.96899 9:14.920044 10:228.77269 11:136.36499 12:28.690063 13:93.151596 14:21.737015 15:25.23999 
0 0 1.681792830507429 0 1:52.879398 2:25.71159 3:21.740112 4:191.24582 5:46.933853 6:80.769897 7:228.09001 8:138.54605 9:54.349976 10:178.34297 11:72.820297 12:102.19995 13:241.53452 14:77.943314 15:69.709961 
0 0 1.681792830507429 0 1:26.626202 2:10.815002 3:8.1500244 4:239.9837 5:54.584 6:39.599976 7:170.66298 8:178.08701 9:14.709961 10:128.29099 11:173.40401 12:35.050049 13:263.44531 14:66.054001 15:37.719971 
0 0 0.7694494856578924 0 1:106.35501 2:58.533104 3:33.199951 4:199.19298 5:25.498899 6:66.560059 7:186.162 8:93.985397 9:50.52002 10:279.0697 11:105.94289 12:64.849976 13:217.20628 14:80.630302 15:50.030029 
0 0 1.681792830507429 0 1:76.222092 2:30.2892 3:16.430054 4:261.64789 5:33.645302 6:55.51001 7:175.629 8:117.4696 9:18.23999 10:163.506 11:94.205383 12:38.219971 13:271.31891 14:53.787781 15:64.490112 
0 0 1.681792830507429 0 1:20.8792 2:5.5526085 3:25.76001 4:220.33649 5:46.282001 6:98.459961 7:241.24298 8:168.60609 9:39.360107 10:151.00201 11:122.7531 12:48.439941 13:258.4313 14:60.839203 15:59.060059 
0 0 1.66067409275651 0 1:98.554016 2:28.942698 3:6.5898438 4:258.91809 5:88.470383 6:7.7501221 7:241.46811 8:77.249481 9:85.380005 10:170.95398 11:184.19841 12:49.82019 13:46.949005 14:48.095001 15:39.529907 
0 0 1.681792830507429 0 1:80.414017 2:22.593994 3:22.049927 4:214.03375 5:126.4919 6:49.72998 7:276.75479 8:95.491409 9:29.119873 10:168.82298 11:65.486801 12:25.629883 13:150.1431 14:56.974602 15:23.690063 
0 0 1.681792830507429 0 1:14.336975 2:6.769104 3:3.8100586 4:230.37201 5:61.319599 6:9.0301514 7:159.05551 8:158.71672 9:54.42981 10:231.50412 11:104.56749 12:36.930115 13:193.05099 14:83.603294 15:32.159973 
0 0 1.681792830507429 0 1:37.233002 2:29.21199 3:2 4:130.25002 5:40.406906 6:3.0999756 7:167.4287 8:23.889793 9:15.23999 10:44.841602 11:66.341896 12:15.299927 13:139.14249 14:45.7444 15:29.469971 
0 0 1.681792830507429 0 1:3.6490173 2:6.5962982 3:3.7000732 4:82.300018 5:22.6689 6:9.749939 7:161.9942 8:31.915001 9:10.350037 10:107.6414 11:30.704998 12:21.960022 13:168.21696 14:28.140102 15:20.889954 
1.681792830507429 0 0 1.140873300884581 1:80.53186 2:97.313965 3:116.85938 4:75.405029 5:70.158997 6:60.310059 7:61.730896 8:28.263 9:41.590088 10:62.085999 11:62.480042 12:83.790283 13:95.951904 14:45.568054 15:84.379639 
0 0 1.681792830507429 0 1:27.040985 2:22.584888 3:16.230103 4:212.4507 5:93.748596 6:37.350098 7:186.83229 8:101.626 9:37.589844 10:212.59299 11:133.5237 12:108.91003 13:284.34198 14:123.13264 15:76.800049 
0 0 1.681792830507429 0 1:31.996002 2:31.785843 3:20.59021 4:116.48601 5:50.010818 6:52.690186 7:244.94901 8:58.180115 9:108.07996 10:96.492004 11:78.724411 12:74.670044 13:212.01599 14:72.780518 15:71.780029 
0 0 1.681792830507429 0 1:29.998001 2:19.290985 3:17.220215 4:192.2925 5:54.417095 6:30.429932 7:269.53549 8:54.902298 9:38.050049 10:152.67099 11:68.265503 12:35.989868 13:201.668 14:43.6548 15:36.110107 
0 0 1.079118611877635 0 1:132.87648 2:56.917591 3:38.930054 4:414.32098 5:114.5603 6:110.38 7:378.93008 8:230.9803 9:106.43005 10:452.7999 11:160.5161 12:191.52991 13:181.13742 14:88.378944 15:55.469727 
0 0 1.681792830507429 0 1:31.147003 2:60.966995 3:28.380005 4:176.8475 5:70.68103 6:66.219971 7:282.25491 8:138.80302 9:117.33984 10:281.03119 11:80.654007 12:114.42993 13:288.16397 14:61.056015 15:114.53992 
0 0 1.681792830507429 0 1:109.10201 2:23.751968 3:55.150146 4:275.784 5:114.55304 6:60.149902 7:268.35297 8:90.81102 9:89.769897 10:196.08398 11:69.924988 12:44.580078 13:68.93 14:34.270004 15:33.670044 
0 0 1.681792830507429 0 1:17.713074 2:31.649994 3:24.660034 4:243.44099 5:102.10205 6:131.53003 7:351.711 8:133.82706 9:175.87 10:263.147 11:92.590942 12:73.379761 13:111.34999 14:44.385986 15:33.229858 
0 0 1.681792830507429 0 1:202.19272 2:48.157097 3:51.440063 4:206.479 5:119.8909 6:57.73999 7:166.75601 8:87.96701 9:63.329834 10:169.3936 11:72.423981 12:92.510132 13:5.3326387 14:6.763031 15:6.5499268 
0 0 1.681792830507429 0 1:44.587204 2:21.963013 3:17.499878 4:252.3943 5:93.561005 6:44.859985 7:86.468002 8:101.21497 9:12.500122 10:246.19893 11:71.05899 12:59.02002 13:92.216698 14:49.177017 15:35.859863 
0 0 1.681792830507429 0 1:26.189711 2:10.408989 3:9.4200439 4:222.17371 5:53.243011 6:57.01001 7:91.75798 8:86.973999 9:11.780151 10:187.851 11:75.590988 12:71.459961 13:116.56281 14:36.024994 15:58.080078 
0 0 1.681792830507429 0 1:13.671299 2:7.4780273 3:13.990112 4:216.53929 5:45.741013 6:87.640015 7:124.90401 8:115.96899 9:14.920044 10:228.77269 11:136.36499 12:28.690063 13:93.151596 14:21.737015 15:25.23999 
0 0 0.1364474231053742 0 1:170.79858 2:44.433014 3:59.790039 4:117.28098 5:84.194 6:10.439819 7:74.05899 8:69.872009 9:19.119995 10:211.43761 11:63.348984 12:71.390015 13:47.390202 14:35.628006 15:14.169922 
0 0 1.681792830507429 0 1:52.879398 2:25.71159 3:21.740112 4:191.24582 5:46.933853 6:80.769897 7:228.09001 8:138.54605 9:54.349976 10:178.34297 11:72.820297 12:102.19995 13:241.53452 14:77.943314 15:69.709961 
0 0 1.681792830507429 0.5775214446415106 1:26.626202 2:10.815002 3:8.1500244 4:239.9837 5:54.584 6:39.599976 7:170.66298 8:178.08701 9:14.709961 10:128.29099 11:173.40401 12:35.050049 13:263.44531 14:66.054001 15:37.719971 
0 0 1.681792830507429 0 1:106.35501 2:58.533104 3:33.199951 4:199.19298 5:25.498899 6:66.560059 7:186.162 8:93.985397 9:50.52002 10:279.0697 11:105.94289 12:64.849976 13:217.20628 14:80.630302 15:50.030029 
0 0 1.681792830507429 0 1:76.222092 2:30.2892 3:16.430054 4:261.64789 5:33.645302 6:55.51001 7:175.629 8:117.4696 9:18.23999 10:163.506 11:94.205383 12:38.219971 13:271.31891 14:53.787781 15:64.490112 
0 0 1.681792830507429 0 1:20.8792 2:5.5526085 3:25.76001 4:220.33649 5:46.282001 6:98.459961 7:241.24298 8:168.60609 9:39.360107 10:151.00201 11:122.7531 12:48.439941 13:258.4313 14:60.839203 15:59.060059 
0 0 1.681792830507429 0 1:98.554016 2:28.942698 3:6.5898438 4:258.91809 5:88.470383 6:7.7501221 7:241.46811 8:77.249481 9:85.380005 10:170.95398 11:184.19841 12:49.82019 13:46.949005 14:48.095001 15:39.529907 
0 0 1.681792830507429 0 1:80.414017 2:22.593994 3:22.049927 4:214.03375 5:126.4919 6:49.72998 7:276.75479 8:95.491409 9:29.119873 10:168.82298 11:65.486801 12:25.629883 13:150.1431 14:56.974602 15:23.690063 
0 0 0 0.5562147871548998 1:16.671982 2:25.771011 3:15.139771 4:302.70996 5:258.11896 6:124.58008 7:304.10397 8:194.30598 9:182.69995 10:166.00708 11:225.43903 12:130.82007 13:235.66292 14:199.44701 15:102.31006 
0 0 1.681792830507429 0 1:14.336975 2:6.769104 3:3.8100586 4:230.37201 5:61.319599 6:9.0301514 7:159.05551 8:158.71672 9:54.42981 10:231.50412 11:104.56749 12:36.930115 13:193.05099 14:83.603294 15:32.159973 
0 0 1.681792830507429 0 1:37.233002 2:29.21199 3:2 4:130.25002 5:40.406906 6:3.0999756 7:167.4287 8:23.889793 9:15.23999 10:44.841602 11:66.341896 12:15.299927 13:139.14249 14:45.7444 15:29.469971 
0 0 1.681792830507429 0 1:3.6490173 2:6.5962982 3:3.7000732 4:82.300018 5:22.6689 6:9.749939 7:161.9942 8:31.915001 9:10.350037 10:107.6414 11:30.704998 12:21.960022 13:168.21696 14:28.140102 15:20.889954 
0 0 0.5280531388835652 0 1:109.44199 2:64.214432 3:5.9197998 4:349.88101 5:97.724297 6:50.913208 7:328.28906 8:500.08188 9:140.62903 10:280.5177 11:107.90738 12:37.940002 13:16.021027 14:29.133987 15:22.028992 
0 0 1.267282112986091 0 1:91.46701 2:22.839012 3:16.550171 4:187.9693 5:28.716988 6:25.810059 7:114.8595 8:14.612984 9:18.950195 10:127.08511 11:44.291977 12:19.480103 13:208.2363 14:26.464989 15:25.079956 
1.681792830507429 0.9305897480344669 0.9790321737068271 1.681792830507429 1:80.53186 2:97.313965 3:116.85938 4:75.405029 5:70.158997 6:60.310059 7:61.730896 8:28.263 9:41.590088 10:62.085999 11:62.480042 12:83.790283 13:95.951904 14:45.568054 15:84.379639 
0 0 1.681792830507429 0 1:27.040985 2:22.584888 3:16.230103 4:212.4507 5:93.748596 6:37.350098 7:186.83229 8:101.626 9:37.589844 10:212.59299 11:133.5237 12:108.91003 13:284.34198 14:123.13264 15:76.800049 
0 0 1.681792830507429 0 1:31.996002 2:31.785843 3:20.59021 4:116.48601 5:50.010818 6:52.690186 7:244.94901 8:58.180115 9:108.07996 10:96.492004 11:78.724411 12:74.670044 13:212.01599 14:72.780518 15:71.780029 
0 0 1.681792830507429 0 1:29.998001 2:19.290985 3:17.220215 4:192.2925 5:54.417095 6:30.429932 7:269.53549 8:54.902298 9:38.050049 10:152.67099 11:68.265503 12:35.989868 13:201.668 14:43.6548 15:36.110107 
0 0 1.681792830507429 0 1:132.87648 2:56.917591 3:38.930054 4:414.32098 5:114.5603 6:110.38 7:378.93008 8:230.9803 9:106.43005 10:452.7999 11:160.5161 12:191.52991 13:181.13742 14:88.378944 15:55.469727 
0.3201919340746559 0.2861703626939443 0 0 1:0 2:0 3:0 4:0 5:0 6:0 7:0 8:0 9:0 10:0 11:0 12:0 13:71.253899 14:62.76001 15:131.18005 
0 0 1.681792830507429 0 1:31.147003 2:60.966995 3:28.380005 4:176.8475 5:70.68103 6:66.219971 7:282.25491 8:138.80302 9:117.33984 10:281.03119 11:80.654007 12:114.42993 13:288.16397 14:61.056015 15:114.53992 
0 0 1.681792830507429 0 1:109.10201 2:23.751968 3:55.150146 4:275.784 5:114.55304 6:60.149902 7:268.35297 8:90.81102 9:89.769897 10:196.08398 11:69.924988 12:44.580078 13:68.93 14:34.270004 15:33.670044 
0 0 0.2660530939462522 0 1:112.26339 2:36.517944 3:85.42981 4:276.07523 5:216.03496 6:129.09021 7:186.1909 8:56.298004 9:180.33008 10:171.09337 11:52.396011 12:120.99988 13:43.088844 14:24.131973 15:41.509521 
0 0 1.681792830507429 0 1:17.713074 2:31.649994 3:24.660034 4:243.44099 5:102.10205 6:131.53003 7:351.711 8:133.82706 9:175.87 10:263.147 11:92.590942 12:73.379761 13:111.34999 14:44.385986 15:33.229858 
0 0 0.6491893249473538 0.1508291997708129 1:252.909 2:143.9366 3:67.905945 4:129.72101 5:142.741 6:33.502014 7:341.974 8:230.44957 9:83.615967 10:194.01401 11:19.650627 12:74.739014 13:99.424011 14:19.32416 15:12.759033 
0 0 1.681792830507429 0.14214965897696 1:202.19272 2:48.157097 3:51.440063 4:206.479 5:119.8909 6:57.73999 7:166.75601 8:87.96701 9:63.329834 10:169.3936 11:72.423981 12:92.510132 13:5.3326387 14:6.763031 15:6.5499268 
0 0 1.681792830507429 0 1:44.587204 2:21.963013 3:17.499878 4:252.3943 5:93.561005 6:44.859985 7:86.468002 8:101.21497 9:12.500122 10:246.19893 11:71.05899 12:59.02002 13:92.216698 14:49.177017 15:35.859863 
0 0 1.681792830507429 0 1:26.189711 2:10.408989 3:9.4200439 4:222.17371 5:53.243011 6:57.01001 7:91.75798 8:86.973999 9:11.780151 10:187.851 11:75.590988 12:71.459961 13:116.56281 14:36.024994 15:58.080078 
0 0 1.681792830507429 1.561590980871559 1:13.671299 2:7.4780273 3:13.990112 4:216.53929 5:45.741013 6:87.640015 7:124.90401 8:115.96899 9:14.920044 10:228.77269 11:136.36499 12:28.690063 13:93.151596 14:21.737015 15:25.23999 
0 1.311935310719047 0.05006145531660193 0.8325675085275952 1:41.315598 2:29.744003 3:16.590088 4:90.452507 5:24.474991 6:17.780029 7:41.728592 8:32.094986 9:8.8200684 10:91.666107 11:28.716995 12:19.610107 13:5.9109001 14:10.638 15:13.399902 
0 0 1.681792830507429 0 1:170.79858 2:44.433014 3:59.790039 4:117.28098 5:84.194 6:10.439819 7:74.05899 8:69.872009 9:19.119995 10:211.43761 11:63.348984 12:71.390015 13:47.390202 14:35.628006 15:14.169922 
0 0 0.2226797211384607 0 1:53.248703 2:25.073006 3:27.01001 4:76.598305 5:11.354691 6:36.01001 7:87.313995 8:26.343498 9:41.179932 10:80.95401 11:74.628998 12:30.359985 13:300.64951 14:121.03299 15:170.38 
0 0 1.681792830507429 0 1:52.879398 2:25.71159 3:21.740112 4:191.24582 5:46.933853 6:80.769897 7:228.09001 8:138.54605 9:54.349976 10:178.34297 11:72.820297 12:102.19995 13:241.53452 14:77.943314 15:69.709961 
0 0 1.681792830507429 1.681792830507429 1:26.626202 2:10.815002 3:8.1500244 4:239.9837 5:54.584 6:39.599976 7:170.66298 8:178.08701 9:14.709961 10:128.29099 11:173.40401 12:35.050049 13:263.44531 14:66.054001 15:37.719971 
0 0.1284240103544879 0 0.2021960722377531 1:69.392296 2:65.669014 3:36.449951 4:336.12671 5:154.20041 6:86.560059 7:50.667999 8:241.91599 9:48.939941 10:291.39032 11:223.61993 12:56.040039 13:90.881699 14:52.717682 15:66.22998 
0 0 1.681792830507429 0 1:106.35501 2:58.533104 3:33.199951 4:199.19298 5:25.498899 6:66.560059 7:186.162 8:93.985397 9:50.52002 10:279.0697 11:105.94289 12:64.849976 13:217.20628 14:80.630302 15:50.030029 
0 0 1.681792830507429 0 1:76.222092 2:30.2892 3:16.430054 4:261.64789 5:33.645302 6:55.51001 7:175.629 8:117.4696 9:18.23999 10:163.506 11:94.205383 12:38.219971 13:271.31891 14:53.787781 15:64.490112 
0 0 1.681792830507429 0 1:20.8792 2:5.5526085 3:25.76001 4:220.33649 5:46.282001 6:98.459961 7:241.24298 8:168.60609 9:39.360107 10:151.00201 11:122.7531 12:48.439941 13:258.4313 14:60.839203 15:59.060059 
0 0 1.681792830507429 0.5799985091322932 1:98.554016 2:28.942698 3:6.5898438 4:258.91809 5:88.470383 6:7.7501221 7:241.46811 8:77.249481 9:85.380005 10:170.95398 11:184.19841 12:49.82019 13:46.949005 14:48.095001 15:39.529907 
0 0 1.158374116096888 0 1:20.49704 2:6.907402 3:5.15979 4:94.19101 5:36.358601 6:7.5599365 7:256.75858 8:54.294102 9:11.079834 10:302.09879 11:44.417496 12:24.309937 13:35.690033 14:23.115192 15:20.210083 
0 0 0.4983929640362794 0 1:23.061005 2:20.8204 3:5.6202393 4:282.7233 5:69.846603 6:15.560059 7:191.9733 8:38.984596 9:12.000122 10:164.429 11:86.927597 12:8.1101074 13:26.165985 14:11.145004 15:8.7698975 
0 0 0.7252988738671825 0 1:35.370804 2:24.705473 3:10.699707 4:256.33118 5:84.908028 6:101.71997 7:309.88867 8:116.78151 9:153.25 10:302.17572 11:96.386444 12:135.53003 13:41.848999 14:20.895897 15:23.930054 
0 0 1.681792830507429 0.8767180759268719 1:80.414017 2:22.593994 3:22.049927 4:214.03375 5:126.4919 6:49.72998 7:276.75479 8:95.491409 9:29.119873 10:168.82298 11:65.486801 12:25.629883 13:150.1431 14:56.974602 15:23.690063 
0 0 0.06005593895258146 1.681792830507429 1:16.671982 2:25.771011 3:15.139771 4:302.70996 5:258.11896 6:124.58008 7:304.10397 8:194.30598 9:182.69995 10:166.00708 11:225.43903 12:130.82007 13:235.66292 14:199.44701 15:102.31006 
0 0.3808126101001025 0 0 1:7.7670135 2:10.635098 3:2.920166 4:26.681976 5:28.386612 6:15.829956 7:178.93657 8:27.256287 9:24.430054 10:97.038727 11:38.322102 12:5.15979 13:249.5993 14:75.657669 15:40.260132 
0 0 1.681792830507429 0 1:14.336975 2:6.769104 3:3.8100586 4:230.37201 5:61.319599 6:9.0301514 7:159.05551 8:158.71672 9:54.42981 10:231.50412 11:104.56749 12:36.930115 13:193.05099 14:83.603294 15:32.159973 
0 0 1.681792830507429 0 1:37.233002 2:29.21199 3:2 4:130.25002 5:40.406906 6:3.0999756 7:167.4287 8:23.889793 9:15.23999 10:44.841602 11:66.341896 12:15.299927 13:139.14249 14:45.7444 15:29.469971 
0 0 1.681792830507429 0 1:3.6490173 2:6.5962982 3:3.7000732 4:82.300018 5:22.6689 6:9.749939 7:161.9942 8:31.915001 9:10.350037 10:107.6414 11:30.704998 12:21.960022 13:168.21696 14:28.140102 15:20.889954 
0 0 1.681792830507429 0.1572025851924509 1:109.44199 2:64.214432 3:5.9197998 4:349.88101 5:97.724297 6:50.913208 7:328.28906 8:500.08188 9:140.62903 10:280.5177 11:107.90738 12:37.940002 13:16.021027 14:29.133987 15:22.028992 
0 0 0.303474828115403 0 1:193.1974 2:22.65024 3:20.376038 4:196.995 5:67.108086 6:19.708984 7:228.07822 8:41.229198 9:14.420959 10:168.42099 11:37.749809 12:25.138977 13:184.10037 14:20.064272 15:25.927002 
0.4775084252867838 0.2977457767861019 0 0.2239402318096792 1:56.505409 2:26.357956 3:15.970093 4:301.77856 5:174.35719 6:43.239868 7:556.03601 8:201.34079 9:116.48999 10:208.82596 11:168.75101 12:85.089966 13:599.51996 14:250.81769 15:115.28992 
0.4263366895445557 0.3426197468990333 0 0.3954291879683777 1:351.75098 2:156.2997 3:61.250244 4:335.65103 5:202.47899 6:84.779907 7:505.50897 8:172.62549 9:68.73999 10:155.0311 11:114.8041 12:59.22998 13:465.58789 14:173.18373 15:71.909912 
0 0.6606711815110544 0.5326316117451114 0.1982592466047495 1:392.41275 2:154.52504 3:66.459595 4:192.3782 5:158.80217 6:61.420044 7:136.20798 8:139.491 9:61.049438 10:295.59204 11:131.28001 12:40.449829 13:237.58899 14:61.511032 15:83.029785 
0 0.03987277202854091 0 0 1:174.40573 2:60.210037 3:69.530151 4:259.81931 5:109.36159 6:113.00012 7:169.68996 8:75.803398 9:63.799805 10:500.97507 11:76.489037 12:91.839722 13:157.62308 14:54.205994 15:56.439941 
0.356491158225592 0.06482792669917517 0 0 1:364.702 2:73.994003 3:27.849731 4:320.97699 5:59.428009 6:29.219971 7:303.65903 8:65.440994 9:25.930176 10:371.61096 11:85.062012 12:28.899902 13:452.37601 14:111.67401 15:48.049927 
1.681792830507429 1.582038901016571 1.580225306620118 1.681792830507429 1:80.53186 2:97.313965 3:116.85938 4:75.405029 5:70.158997 6:60.310059 7:61.730896 8:28.263 9:41.590088 10:62.085999 11:62.480042 12:83.790283 13:95.951904 14:45.568054 15:84.379639 
0 0 1.681792830507429 0 1:27.040985 2:22.584888 3:16.230103 4:212.4507 5:93.748596 6:37.350098 7:186.83229 8:101.626 9:37.589844 10:212.59299 11:133.5237 12:108.91003 13:284.34198 14:123.13264 15:76.800049 
0 0 1.681792830507429 1.007291961890114 1:31.996002 2:31.785843 3:20.59021 4:116.48601 5:50.010818 6:52.690186 7:244.94901 8:58.180115 9:108.07996 10:96.492004 11:78.724411 12:74.670044 13:212.01599 14:72.780518 15:71.780029 
0.3391419074458756 0.3582724089812868 0.6065238334803206 0.3500107375194907 1:32.225952 2:30.251099 3:16.270142 4:29.991974 5:26.988037 6:16.180176 7:290.42004 8:77.461029 9:65.700195 10:588.54803 11:128.68399 12:62.300415 13:373.97205 14:132.54099 15:79.499756 
0 0 0.2363453233548972 0 1:29.998001 2:19.290985 3:17.220215 4:192.2925 5:54.417095 6:30.429932 7:269.53549 8:54.902298 9:38.050049 10:152.67099 11:68.265503 12:35.989868 13:201.668 14:43.6548 15:36.110107 
0.08483987564804806 0.03171154210347709 0 0 1:43.763596 2:54.966206 3:33.209839 4:364.3096 5:121.40052 6:96.900146 7:460.82254 8:192.18726 9:148.25 10:445.89621 11:185.11398 12:162.05994 13:360.31183 14:128.168 15:131.5 
0.03180393721556001 0 1.681792830507429 0 1:132.87648 2:56.917591 3:38.930054 4:414.32098 5:114.5603 6:110.38 7:378.93008 8:230.9803 9:106.43005 10:452.7999 11:160.5161 12:191.52991 13:181.13742 14:88.378944 15:55.469727 
0.7666587338656246 0.584657638631393 0.3310121453034736 0.6109405508373619 1:44.388031 2:52.577103 3:28.119629 4:395.03909 5:102.54596 6:181.77014 7:830.14697 8:371.68408 9:314.84009 10:996.55389 11:537.45288 12:376.53003 13:627.10297 14:226.89601 15:231.72998 
0.7710831432427608 0.5877119271603535 0.3327346581754451 0.6140110846708675 1:237.91904 2:140.134 3:101.83997 4:1047.9099 5:630.99103 6:294.35022 7:973.32098 8:494.81934 9:323.67993 10:917.73389 11:405.5282 12:240.37024 13:413.91403 14:190.73795 15:99.92981 
1.681792830507429 1.670147725539898 0 0.6311025671707866 1:0 2:0 3:0 4:0 5:0 6:0 7:0 8:0 9:0 10:0 11:0 12:0 13:71.253899 14:62.76001 15:131.18005 
0 0 1.459932507311705 0 1:31.147003 2:60.966995 3:28.380005 4:176.8475 5:70.68103 6:66.219971 7:282.25491 8:138.80302 9:117.33984 10:281.03119 11:80.654007 12:114.42993 13:288.16397 14:61.056015 15:114.53992 
0 0 1.681792830507429 0 1:109.10201 2:23.751968 3:55.150146 4:275.784 5:114.55304 6:60.149902 7:268.35297 8:90.81102 9:89.769897 10:196.08398 11:69.924988 12:44.580078 13:68.93 14:34.270004 15:33.670044 
0.3869706157861167 0.5877997261179965 0 0 1:30.246708 2:34.168015 3:26.619751 4:220.78592 5:170.70601 6:132.64014 7:284.12573 8:75.686981 9:277.19006 10:240.5065 11:55.535034 12:172.66992 13:61.048676 14:37.829987 15:66.619995 
0.4791501212631538 0.1975330875043794 1.083927121098592 0.4857997196559669 1:112.26339 2:36.517944 3:85.42981 4:276.07523 5:216.03496 6:129.09021 7:186.1909 8:56.298004 9:180.33008 10:171.09337 11:52.396011 12:120.99988 13:43.088844 14:24.131973 15:41.509521 
0 0.1246868125769755 0 0.8220974722258192 1:11.987 2:18.563889 3:12.519897 4:94.288208 5:82.215401 6:40.050049 7:486.6962 8:176.0289 9:150.62 10:384.07922 11:224.049 12:78.76001 13:284.71869 14:158.58008 15:78.210083 
0.03969617360850735 0 0.623411329681806 0 1:8.0156822 2:8.2662125 3:3.5402832 4:163.966 5:90.359993 6:43.380005 7:477.35422 8:235.78479 9:145.56995 10:456.38019 11:232.6102 12:111.10999 13:344.13214 14:199.12819 15:86.449951 
0 0.1558060273922956 0 0 1:13.723022 2:20.540985 3:8.9902344 4:75.943985 5:47.967026 6:71.839844 7:282.74802 8:107.62601 9:197.71997 10:289.83698 11:105.13098 12:166.61011 13:377.30603 14:134.42802 15:184.5498 
0 0 1.520325899810396 0 1:17.713074 2:31.649994 3:24.660034 4:243.44099 5:102.10205 6:131.53003 7:351.711 8:133.82706 9:175.87 10:263.147 11:92.590942 12:73.379761 13:111.34999 14:44.385986 15:33.229858 
0.1794196499431665 0.09475778438965418 0 0 1:13.245026 2:13.388794 3:11.600098 4:160.00792 5:41.399204 6:49.790039 7:353.29205 8:99.127693 9:110.65979 10:393.85098 11:53.165089 12:168.72009 13:477.90298 14:67.733406 15:215.56995 
0 1.123780025430445 1.681792830507429 1.599046829025399 1:252.909 2:143.9366 3:67.905945 4:129.72101 5:142.741 6:33.502014 7:341.974 8:230.44957 9:83.615967 10:194.01401 11:19.650627 12:74.739014 13:99.424011 14:19.32416 15:12.759033 
0 0 1.657990263640522 1.681792830507429 1:202.19272 2:48.157097 3:51.440063 4:206.479 5:119.8909 6:57.73999 7:166.75601 8:87.96701 9:63.329834 10:169.3936 11:72.423981 12:92.510132 13:5.3326387 14:6.763031 15:6.5499268 
0 0 1.34922901705625 1.275646168007046 1:44.587204 2:21.963013 3:17.499878 4:252.3943 5:93.561005 6:44.859985 7:86.468002 8:101.21497 9:12.500122 10:246.19893 11:71.05899 12:59.02002 13:92.216698 14:49.177017 15:35.859863 
0.1564300769884951 0.01141418990685198 0 0.9236622652227745 1:30.612709 2:19.283602 3:34.453979 4:212.28329 5:44.819901 6:96.800049 7:60.01899 8:40.744301 9:25.259888 10:186.76901 11:22.764359 12:68.940063 13:287.78619 14:317.61115 15:121.146 
0 0 1.681792830507429 0 1:26.189711 2:10.408989 3:9.4200439 4:222.17371 5:53.243011 6:57.01001 7:91.75798 8:86.973999 9:11.780151 10:187.851 11:75.590988 12:71.459961 13:116.56281 14:36.024994 15:58.080078 
0 0 1.681792830507429 1.5756264526482 1:13.671299 2:7.4780273 3:13.990112 4:216.53929 5:45.741013 6:87.640015 7:124.90401 8:115.96899 9:14.920044 10:228.77269 11:136.36499 12:28.690063 13:93.151596 14:21.737015 15:25.23999 
1.095717069778196 1.681792830507429 1.679488572371175 1.681792830507429 1:41.315598 2:29.744003 3:16.590088 4:90.452507 5:24.474991 6:17.780029 7:41.728592 8:32.094986 9:8.8200684 10:91.666107 11:28.716995 12:19.610107 13:5.9109001 14:10.638 15:13.399902 
0 0.03953955452238598 1.681792830507429 0.9268789028354154 1:170.79858 2:44.433014 3:59.790039 4:117.28098 5:84.194 6:10.439819 7:74.05899 8:69.872009 9:19.119995 10:211.43761 11:63.348984 12:71.390015 13:47.390202 14:35.628006 15:14.169922 
0 0.4539426039116685 1.507817396104375 0.3514411315141564 1:53.248703 2:25.073006 3:27.01001 4:76.598305 5:11.354691 6:36.01001 7:87.313995 8:26.343498 9:41.179932 10:80.95401 11:74.628998 12:30.359985 13:300.64951 14:121.03299 15:170.38 
0.2775355922986147 0 0 0 1:441.5184 2:191.41672 3:189.88 4:89.75 5:137.2928 6:47.369995 7:168.625 8:73.544304 9:88.640015 10:216.8149 11:54.684196 12:89.73999 13:81.438202 14:84.660606 15:20.700073 
0 0 1.681792830507429 0 1:52.879398 2:25.71159 3:21.740112 4:191.24582 5:46.933853 6:80.769897 7:228.09001 8:138.54605 9:54.349976 10:178.34297 11:72.820297 12:102.19995 13:241.53452 14:77.943314 15:69.709961 
0 1.055011585127657 1.681792830507429 1.680525096025047 1:26.626202 2:10.815002 3:8.1500244 4:239.9837 5:54.584 6:39.599976 7:170.66298 8:178.08701 9:14.709961 10:128.29099 11:173.40401 12:35.050049 13:263.44531 14:66.054001 15:37.719971 
0 0.1696656960177625 0 0 1:127.17139 2:98.284805 3:97.330078 4:219.16251 5:98.606796 6:70.499878 7:132.94101 8:83.012596 9:71.649902 10:221.5428 11:91.341599 12:186.89001 13:29.840099 14:79.664108 15:33.640076 
0.005882564773434383 1.617597432563765 0.2889716224237965 1.67934402813788 1:69.392296 2:65.669014 3:36.449951 4:336.12671 5:154.20041 6:86.560059 7:50.667999 8:241.91599 9:48.939941 10:291.39032 11:223.61993 12:56.040039 13:90.881699 14:52.717682 15:66.22998 
0 0 1.66790248498311 0 1:106.35501 2:58.533104 3:33.199951 4:199.19298 5:25.498899 6:66.560059 7:186.162 8:93.985397 9:50.52002 10:279.0697 11:105.94289 12:64.849976 13:217.20628 14:80.630302 15:50.030029 
0 0 1.681792830507429 0 1:76.222092 2:30.2892 3:16.430054 4:261.64789 5:33.645302 6:55.51001 7:175.629 8:117.4696 9:18.23999 10:163.506 11:94.205383 12:38.219971 13:271.31891 14:53.787781 15:64.490112 
0 0 1.681792830507429 0 1:20.8792 2:5.5526085 3:25.76001 4:220.33649 5:46.282001 6:98.459961 7:241.24298 8:168.60609 9:39.360107 10:151.00201 11:122.7531 12:48.439941 13:258.4313 14:60.839203 15:59.060059 
0 0 0 0.3604103439592015 1:8.9419861 2:12.675489 3:5.3701172 4:115.24701 5:22.156507 6:7.5699463 7:137.017 8:40.106411 9:35.550049 10:262.35498 11:47.708897 12:24.440063 13:26.289032 14:21.033005 15:12.579834 
0 0 0.9362650634525697 1.165810248122657 1:98.554016 2:28.942698 3:6.5898438 4:258.91809 5:88.470383 6:7.7501221 7:241.46811 8:77.249481 9:85.380005 10:170.95398 11:184.19841 12:49.82019 13:46.949005 14:48.095001 15:39.529907 
0 0.1819415792878513 1.681792830507429 0.006992646054460826 1:20.49704 2:6.907402 3:5.15979 4:94.19101 5:36.358601 6:7.5599365 7:256.75858 8:54.294102 9:11.079834 10:302.09879 11:44.417496 12:24.309937 13:35.690033 14:23.115192 15:20.210083 
0 0 1.681792830507429 0 1:23.061005 2:20.8204 3:5.6202393 4:282.7233 5:69.846603 6:15.560059 7:191.9733 8:38.984596 9:12.000122 10:164.429 11:86.927597 12:8.1101074 13:26.165985 14:11.145004 15:8.7698975 
0 0 1.182897135087384 0 1:100.2101 2:32.4795 3:20.219971 4:151.47778 5:34.301598 6:9.8499756 7:43.065018 8:30.711639 9:5.0800781 10:152.1817 11:24.773159 12:23.380005 13:167.28851 14:54.059704 15:52.460083 
0 0 1.681792830507429 0 1:35.370804 2:24.705473 3:10.699707 4:256.33118 5:84.908028 6:101.71997 7:309.88867 8:116.78151 9:153.25 10:302.17572 11:96.386444 12:135.53003 13:41.848999 14:20.895897 15:23.930054 
0 0.004247413254850618 0 0 1:203.25121 2:76.681885 3:80.269897 4:206.02982 5:125.68614 6:82.299927 7:185.647 8:66.331673 9:91.250122 10:263.04111 11:80.783249 12:127.19995 13:301.56909 14:88.467339 15:153.10986 
0 0 1.037105536241189 0 1:36.760952 2:34.35006 3:15.440063 4:199.85655 5:41.267944 6:115.65002 7:117.79703 8:78.479805 9:52.160034 10:263.12708 11:49.414536 12:127.92004 13:62.260193 14:28.666405 15:38.299927 
0.187105258924295 0 0 0.5884543680453543 1:10.814503 2:11.868999 3:6.3201904 4:219.1521 5:67.357376 6:118.37 7:115.19203 8:72.785706 9:45.109985 10:273.53769 11:76.069321 12:145.15002 13:41.009892 14:19.1922 15:20.560059 
0 0 1.681792830507429 1.681792830507429 1:80.414017 2:22.593994 3:22.049927 4:214.03375 5:126.4919 6:49.72998 7:276.75479 8:95.491409 9:29.119873 10:168.82298 11:65.486801 12:25.629883 13:150.1431 14:56.974602 15:23.690063 
0.576233597248675 0.6278435080145846 0.02976761631914413 0.827602050623413 1:10.740005 2:15.991997 3:5.8198242 4:64.72953 5:128.83301 6:37.829834 7:283.89551 8:236.48897 9:286.97998 10:240.2742 11:146.92101 12:212.21997 13:348.759 14:406.147 15:164.07019 
0.05908394303086795 0.8663521104483744 1.681792830507429 1.681792830507429 1:16.671982 2:25.771011 3:15.139771 4:302.70996 5:258.11896 6:124.58008 7:304.10397 8:194.30598 9:182.69995 10:166.00708 11:225.43903 12:130.82007 13:235.66292 14:199.44701 15:102.31006 
0 1.681792830507429 0 0.7758979960370658 1:7.7670135 2:10.635098 3:2.920166 4:26.681976 5:28.386612 6:15.829956 7:178.93657 8:27.256287 9:24.430054 10:97.038727 11:38.322102 12:5.15979 13:249.5993 14:75.657669 15:40.260132 
0 0 0.2607375431285002 0 1:6.6630249 2:10.434902 3:3.2197266 4:213.3676 5:40.146801 6:7.6900635 7:160.2955 8:81.982193 9:26.089966 10:273.1741 11:72.632698 12:22.47998 13:23.422028 14:22.641487 15:12.610107 
0 0 1.681792830507429 0 1:14.336975 2:6.769104 3:3.8100586 4:230.37201 5:61.319599 6:9.0301514 7:159.05551 8:158.71672 9:54.42981 10:231.50412 11:104.56749 12:36.930115 13:193.05099 14:83.603294 15:32.159973 
0 0 0.05592923221806614 0 1:13.334015 2:20.806999 3:3.5999756 4:362.28671 5:122.14161 6:18.069946 7:222.9445 8:112.23291 9:49.380005 10:261.711 11:101.83891 12:52.060059 13:21.372009 14:6.3059998 15:23.969971 
0 0 1.681792830507429 0.3243107556500335 1:37.233002 2:29.21199 3:2 4:130.25002 5:40.406906 6:3.0999756 7:167.4287 8:23.889793 9:15.23999 10:44.841602 11:66.341896 12:15.299927 13:139.14249 14:45.7444 15:29.469971 
0 0 1.681792830507429 0 1:3.6490173 2:6.5962982 3:3.7000732 4:82.300018 5:22.6689 6:9.749939 7:161.9942 8:31.915001 9:10.350037 10:107.6414 11:30.704998 12:21.960022 13:168.21696 14:28.140102 15:20.889954 
0.5643058526885113 0.3668202773852242 1.681792830507429 1.681792830507429 1:109.44199 2:64.214432 3:5.9197998 4:349.88101 5:97.724297 6:50.913208 7:328.28906 8:500.08188 9:140.62903 10:280.5177 11:107.90738 12:37.940002 13:16.021027 14:29.133987 15:22.028992 
0.2541274629318253 0 0 0 1:40.622955 2:17.21533 3:24.889954 4:505.03201 5:141.55667 6:61.880981 7:172.827 8:122.59169 9:61.139038 10:369.48801 11:79.317696 12:67.654968 13:47.877991 14:26.357506 15:43.703003 
0 0 0.1861619083968762 0 1:42.716034 2:29.635895 3:6.3379517 4:388.91602 5:82.735306 6:20.809021 7:245.82948 8:175.01691 9:53.149048 10:371.9585 11:75.026321 12:63.668945 13:24.22699 14:24.685207 15:8.4219971 
0 0 1.681792830507429 0 1:193.1974 2:22.65024 3:20.376038 4:196.995 5:67.108086 6:19.708984 7:228.07822 8:41.229198 9:14.420959 10:168.42099 11:37.749809 12:25.138977 13:184.10037 14:20.064272 15:25.927002 
0.4803033092875039 0.3694037209919224 0.8539602874512902 0.3231681832060702 1:28.486877 2:26.091034 3:25.089966 4:116.771 5:40.170013 6:61.980103 7:455.06998 8:143.938 9:158.68005 10:649.27203 11:98.678986 12:167.08008 13:127.39005 14:37.400009 15:69.909912 
0.7532174306561362 0.5753117948603624 0.3214686296644214 0.6027546579696738 1:383.8949 2:68.593018 3:130.07996 4:581.63727 5:236.07602 6:150.60986 7:563.56293 8:120.55197 9:190.53003 10:693.03186 11:187.58299 12:212.88 13:739.45996 14:226.35201 15:164.38013 
-1.537230666902043 0 0 0 1:44.789001 2:85.463989 3:182.84998 4:37.893982 5:32.819016 6:69.549927 7:33.092987 8:37.141006 9:114.66003 10:34.068008 11:54.214996 12:107.35999 13:26.111984 14:34.042999 15:16.409912 
-0.3867164246260567 0 0 0 1:8.4889908 2:9.4306946 3:18.465027 4:74.010994 5:41.831303 6:146.64203 7:15.235001 8:11.274603 9:47.600983 10:29.477005 11:14.945699 12:72.436005 13:36.800987 14:43.311001 15:168.62701 
-1.681792830507429 0 0 0 1:44.789001 2:85.463989 3:182.84998 4:37.893982 5:32.819016 6:69.549927 7:33.092987 8:37.141006 9:114.66003 10:34.068008 11:54.214996 12:107.35999 13:26.111984 14:34.042999 15:16.409912 
-1.681792830507429 0 0.1262893220809047 0 1:8.4889908 2:9.4306946 3:18.465027 4:74.010994 5:41.831303 6:146.64203 7:15.235001 8:11.274603 9:47.600983 10:29.477005 11:14.945699 12:72.436005 13:36.800987 14:43.311001 15:168.62701 
-0 0.622821936989661 0 0.3493999999665939 1:11.208199 2:11.496307 3:15.08905 4:159.52151 5:220.23007 6:140.57397 7:7.4929886 8:54.164406 9:92.961975 10:4.6859818 11:17.527 12:64.39801 13:5.8879852 14:14.638008 15:38.616028 
-0.01617261927014627 0 0.04905138920142584 0 1:66.893982 2:47.020988 3:278.61987 4:51.959 5:74.825279 6:314.39001 7:43.861008 8:91.844101 9:150.63 10:51.159088 11:73.674706 12:423.18994 13:57.734985 14:65.738892 15:383.15002 
-0.7919091687810391 0.5936822463994472 0.620267655938974 0.6530815112717399 1:41.924286 2:72.482506 3:280.31006 4:36.302513 5:190.11398 6:357.53015 7:37.019394 8:127.05699 9:163.87012 10:62.241501 11:100.1063 12:472.31006 13:37.884697 14:260.8985 15:353.20007 
-0 0 0 0.07558535986459301 1:10.830994 2:13.027985 3:10.590088 4:53.4729 5:155.62698 6:302.27002 7:27.77002 8:46.509979 9:119.75989 10:36.61499 11:133.18298 12:254.64001 13:27.82901 14:43.889008 15:85.030029 
-0.1265217170820283 0.3905140555516056 0.4753963674280966 0.5685648388620578 1:48.90802 2:167.53297 3:386.91003 4:37.345001 5:35.024017 6:93.419922 7:14.011993 8:140.534 9:263.56006 10:15.752991 11:20.524963 12:67.48999 13:7.8990173 14:7.48703 15:8.3800049 
-0.5732935871033332 0.4098744173558213 0.5059459261551144 0.4412651152669532 1:18.909531 2:18.375046 3:22 4:64.418304 5:115.33841 6:437.33997 7:69.41671 8:45.432362 9:311.07806 10:62.559601 11:90.269897 12:532.008 13:20.123894 14:62.558006 15:132.26013 
-0 0 0 0.06293886357185573 1:15.933975 2:12.460022 3:16.189941 4:30.454041 5:124.83701 6:222.20996 7:48.966995 8:72.695007 9:207.1698 10:16.280991 11:22.520981 12:119.91003 13:53.972992 14:142.22299 15:393.18005 
-1.145333945083856 1.260436445878936 1.02519033024264 1.343468680350877 1:44.789001 2:85.463989 3:182.84998 4:37.893982 5:32.819016 6:69.549927 7:33.092987 8:37.141006 9:114.66003 10:34.068008 11:54.214996 12:107.35999 13:26.111984 14:34.042999 15:16.409912 
-0 0.3644609422210721 0.002648517208165064 0 1:20.556015 2:18.043015 3:13.500244 4:22.219986 5:35.08696 6:86.509766 7:28.837006 8:54.240997 9:160.35999 10:29.178986 11:29.684998 12:115.95996 13:33.362 14:51.649002 15:132.07007 
-0 0 0.1430581628552257 0.3284292790688593 1:15.276258 2:18.011963 3:18.239868 4:40.883579 5:33.311996 6:146.92004 7:115.52391 8:50.395004 9:384.70007 10:43.400497 11:47.296951 12:136.50977 13:25.687897 14:29.497009 15:25.959961 
-0.4462295565058358 0.4712626072816616 0 0.2791174960239288 1:21.443501 2:20.213013 3:8.2900391 4:10.781403 5:15.988007 6:12.219727 7:33.155899 8:61.105042 9:353.69995 10:24.144302 11:38.449997 12:329.10999 13:15.082396 14:23.565048 15:23.289795 
-1.232104380627435 0.9259637133698192 0.9596772172543805 1.012931169163799 1:29.283791 2:41.830917 3:25.490112 4:748.53217 5:365.69275 6:279.98975 7:271.7757 8:151.8405 9:99.449829 10:279.9343 11:186.97168 12:90.939819 13:1012.0324 14:504.68039 15:330.59009 
-0 0 1.053583155370015 0 1:16.511993 2:12.544304 3:10.589844 4:15.554016 5:21.249092 6:19.680176 7:73.028015 8:64.374496 9:282.42004 10:38.149994 11:49.185699 12:214.37 13:17.010025 14:47.321205 15:75.869873 
-0.3601817336522071 0.2760784295671126 0.4411350015341452 0.2802501517843101 1:14.675003 2:14.7048 3:12.449829 4:92.768005 5:35.114811 6:274.40991 7:90.990982 8:55.959797 9:410.38989 10:21.93103 11:57.92551 12:346.98999 13:38.602005 14:102.90163 15:473.04004 
-1.10181230530493 0.8215397843590285 0.8468371286478033 0.9195789130853941 1:88.979301 2:60.53801 3:385.91199 4:62.682404 5:56.970001 6:243.04993 7:85.929604 8:34.487 9:73.689941 10:22.510303 11:33.156982 12:46.440186 13:103.17857 14:114.13202 15:687.30798 
-0 0 1.015933505146875 0 1:29.788603 2:30.841995 3:38.549927 4:82.033203 5:41.218018 6:184.02002 7:49.701469 8:16.695999 9:158.01001 10:60.441032 11:59.744003 12:86.719971 13:9.1721077 14:9.3040009 15:11.700073 
-0.08720215143039013 0.07092529664479438 0.1054118290947766 0.09535282548020206 1:78.136086 2:73.985992 3:128.62 4:88.984802 5:150.97601 6:535 7:57.456734 8:39.595001 9:237.32397 10:51.610565 11:151.03198 12:481.46008 13:70.790298 14:70.148987 15:165.64001 
-0.7669387653953879 0.5747137271189061 0.5913084631752308 0.6305564081617737 1:66.306 2:95.134979 3:175.43994 4:41.752396 5:120.99101 6:644.30103 7:65.996658 8:55.924988 9:346.151 10:65.502197 11:55.224014 12:295.80994 13:36.554573 14:94.217987 15:137.68005 
-0 0 0 0.7482823171613942 1:19.023201 2:40.755035 3:96.5 4:27.137802 5:44.998993 6:158.58997 7:23.524719 8:6.8549805 9:40.949951 10:43.554337 11:34.393005 12:117.90002 13:32.193295 14:92.679993 15:164.23999 
-0 0 0.0005979807405273222 0 1:18.115997 2:13.928806 3:39.449951 4:26.950012 5:70.1661 6:357.58704 7:27.442001 8:57.315155 9:205.716 10:82.871994 11:175.78111 12:413.54797 13:24.813965 14:32.394703 15:118.15302 
-0.2768437793212709 0.2243901449248138 0.2260066444176332 0.2412452238794884 1:26.08197 2:99.485001 3:254.03015 4:40.184998 5:74.950989 6:409.03003 7:37.320007 8:57.208008 9:322.37 10:45.858063 11:69.657898 12:251.29993 13:44.59996 14:96.421509 15:490.5 
-0.8454574854798723 0.6131344628528096 0.5857786487039592 0.7090470751545849 1:20.504028 2:16.7873 3:8.9799805 4:11.93602 5:9.7808838 6:21.000122 7:20.729996 8:58.433411 9:413.71008 10:24.75 11:79.404495 12:196.54993 13:46.605972 14:149.1532 15:509.25 
-1.681792830507429 0.4566057093662053 1.681792830507429 0 1:8.4889908 2:9.4306946 3:18.465027 4:74.010994 5:41.831303 6:146.64203 7:15.235001 8:11.274603 9:47.600983 10:29.477005 11:14.945699 12:72.436005 13:36.800987 14:43.311001 15:168.62701 
-0 0.05582701211709231 0 0 1:19.602005 2:20.2593 3:45.468933 4:71.197998 5:50.257004 6:190.845 7:25.337021 8:68.374397 9:55.105988 10:53.626999 11:31.583395 12:157.21899 13:15.126022 14:33.071789 15:59.971008 
-0 0 0 1.619064606297502 1:7.7440033 2:11.806206 3:25.757935 4:52.830002 5:57.888123 6:140.80298 7:13.909012 8:16.420111 9:61.19104 10:18.802994 11:24.518911 12:74.684998 13:45.223 14:60.550003 15:185.26099 
-1.15437752054761 1.628358209126332 1.061054886016727 1.611863351070761 1:11.208199 2:11.496307 3:15.08905 4:159.52151 5:220.23007 6:140.57397 7:7.4929886 8:54.164406 9:92.961975 10:4.6859818 11:17.527 12:64.39801 13:5.8879852 14:14.638008 15:38.616028 
-0 0.2481482056010813 0 0 1:9.7546082 2:15.937012 3:52.346924 4:12.864998 5:73.589203 6:155.24603 7:10.592003 8:10.200096 9:51.468994 10:10.598793 11:20.677299 12:92.079956 13:22.945801 14:72.887375 15:130.87903 
-0 0.01326498164978795 0 0 1:4.1900177 2:7.7689972 3:21.533997 4:22.482018 5:43.765099 6:118.84998 7:17.688499 8:18.523399 9:143.98999 10:6.3925934 11:23.194206 12:41.379028 13:13.455002 14:21.022705 15:104.12903 
-0 0.1060822927039387 0 0 1:11.702599 2:27.637024 3:47.408936 4:13.125202 5:48.038902 6:161.01904 7:9.5439949 8:6.8874969 9:50.715027 10:5.4741974 11:8.6151047 12:51.327026 13:7.8675003 14:44.363503 15:156.25696 
-0.05930371144120684 -0 0 0 1:11.791298 2:11.607002 3:4.0300293 4:13.783497 5:51.961998 6:11.499878 7:11.577908 8:94.238297 9:6.4801025 10:43.300568 11:76.688698 12:28.410034 13:98.738731 14:41.166992 15:22.27002 
-0 -0 0 1.371997279975613 1:5.941597 2:20.313011 3:18.100098 4:56.195198 5:194.04501 6:31.329956 7:184.22279 8:80.331024 9:55.849976 10:114.79601 11:17.047012 12:49.860107 13:11.802002 14:4.5350037 15:9.2000732 
-0.9642120886516347 -0 1.164508409914153 1.677767769448819 1:85.896935 2:142.07596 3:68.860474 4:113.37289 5:214.96985 6:71.110352 7:210.38472 8:213.13339 9:79.730469 10:239.963 11:103.25203 12:92.23999 13:228.52124 14:121.81461 15:111.95984 
-0.7680869079915368 -0 0.2769339224697905 0.5306731641221515 1:76.014511 2:226.8847 3:79.949585 4:312.97107 5:194.69598 6:118.0199 7:114.58295 8:67.676239 9:75.399536 10:246.82858 11:304.02475 12:114.26001 13:91.093994 14:116.07211 15:66.829224 
-0 -0 0 0.4495822718583195 1:12.432037 2:15.913971 3:8.869873 4:7.0909729 5:12.26004 6:5.5 7:129.757 8:283.09503 9:130.6001 10:201.79082 11:135.0441 12:82.309937 13:11.108589 14:12.4072 15:17.369873 
-1.681792830507429 -0 0 0.3564882663105594 1:11.791298 2:11.607002 3:4.0300293 4:13.783497 5:51.961998 6:11.499878 7:11.577908 8:94.238297 9:6.4801025 10:43.300568 11:76.688698 12:28.410034 13:98.738731 14:41.166992 15:22.27002 
-0 -0 1.613881583312348 1.681792830507429 1:5.941597 2:20.313011 3:18.100098 4:56.195198 5:194.04501 6:31.329956 7:184.22279 8:80.331024 9:55.849976 10:114.79601 11:17.047012 12:49.860107 13:11.802002 14:4.5350037 15:9.2000732 
-0 -0 0 1.012067309561746 1:16.301994 2:41.421898 3:11.90979 4:79.73999 5:170.6427 6:58.630005 7:29.242996 8:122.704 9:13.959961 10:149.87569 11:38.280014 12:28.369995 13:141.52829 14:12.119003 15:20.570068 
-0 -1.065276305477838 0 0 1:7.1240025 2:26.091705 3:16.97699 4:16.21023 5:163.1478 6:29.360046 7:8.54422 8:84.149513 9:13.854004 10:42.507099 11:5.9970093 12:13.643982 13:26.28511 14:13.132965 15:10.636047 
-1.523349653311227 -0 1.681792830507429 1.67970973654672 1:85.896935 2:142.07596 3:68.860474 4:113.37289 5:214.96985 6:71.110352 7:210.38472 8:213.13339 9:79.730469 10:239.963 11:103.25203 12:92.23999 13:228.52124 14:121.81461 15:111.95984 
-1.1907318632216 -0.9315648182942468 0.9760476509404007 0.8199564913347595 1:130.10251 2:411.75668 3:55.360107 4:68.049393 5:73.091064 6:18.370361 7:51.962757 8:451.27707 9:59.419922 10:156.9977 11:105.658 12:54.160156 13:615.43054 14:111.84248 15:125.73999 
-0 -0.08277283485501555 0 0 1:11.848001 2:10.305939 3:5.6402588 4:13.777998 5:133.33502 6:13.640137 7:31.952194 8:260.55249 9:15.410156 10:86.066399 11:15.924529 12:37.030029 13:408.11621 14:101.4579 15:119.04004 
-0.1676129290781599 -0.3219479103818299 0.192861294120864 0 1:7.2659988 2:20.742004 3:12.860229 4:24.206703 5:253.79701 6:154.59998 7:33.862793 8:432.02899 9:126.91003 10:308.2821 11:99.006989 12:99.900146 13:121.073 14:34.495987 15:113.56006 
-0 -0.1375323260309638 0 1.579938199932993 1:7.743988 2:18.947998 3:11.150024 4:33.933014 5:128.06372 6:72.789917 7:36.415955 8:274.35831 9:49.069946 10:80.957001 11:152.79401 12:39.009888 13:92.483978 14:43.362 15:171.28003 
-0 -0 0 0.9284880747536743 1:22.106979 2:19.440918 3:9.9699707 4:14.439987 5:61.880951 6:27.150024 7:22.370026 8:319.93213 9:98.789917 10:146.181 11:342.43423 12:76.070068 13:246.47797 14:57.273041 15:107.57971 
-1.601505873072865 -0.9718967090856597 1.673478514673947 1.681792830507429 1:76.014511 2:226.8847 3:79.949585 4:312.97107 5:194.69598 6:118.0199 7:114.58295 8:67.676239 9:75.399536 10:246.82858 11:304.02475 12:114.26001 13:91.093994 14:116.07211 15:66.829224 
-0 -0.1522498349876288 0 0 1:15.660294 2:18.483017 3:20.620239 4:17.704391 5:21.438004 6:22.410034 7:43.353416 8:425.383 9:66.47998 10:216.49921 11:218.29401 12:128.59009 13:53.202003 14:34.562012 15:72.47998 
-0.9539282292319256 -0.7517893972970015 0.8447275162379074 0.8971863652748827 1:12.476295 2:17.45401 3:9.7298584 4:42.078194 5:298.67831 6:35.860229 7:406.31879 8:150.6667 9:61.420044 10:78.123016 11:21.701019 12:39.069946 13:31.266998 14:21.692032 15:19.8302 
-0.6137753144439362 -0.1451026688256586 1.465712963360464 1.664728991756455 1:12.432037 2:15.913971 3:8.869873 4:7.0909729 5:12.26004 6:5.5 7:129.757 8:283.09503 9:130.6001 10:201.79082 11:135.0441 12:82.309937 13:11.108589 14:12.4072 15:17.369873 
-1.404864745428653 -0.6485495777502505 1.494399865634914 1.223072235033289 1:15.626984 2:20.926987 3:11.289917 4:14.23999 5:15.957031 6:15.660156 7:9.9230347 8:21.112991 9:14.889648 10:36.682983 11:232.33267 12:66.570068 13:325.95206 14:47.598099 15:77.599976 
-0 -0 0 0.23366232971322 1:8.3269806 2:5.3420105 3:9.7095947 4:21.365036 5:325.16547 6:73.23999 7:150.97101 8:323.32251 9:106.74011 10:284.10403 11:78.001007 12:131.72998 13:35.081055 14:51.505981 15:29.689941 
-0 -0 0.7489554051452277 0 1:21.838898 2:6.2894306 3:4.5198975 4:32.924801 5:62.900612 6:13.049988 7:31.318199 8:162.0054 9:23.032959 10:112.4794 11:39.162994 12:22.705017 13:106.196 14:20.388977 15:47.809937 
-0.4245861483133679 -0 0 0 1:8.3880157 2:10.485199 3:3.619751 4:28.233002 5:81.361099 6:9.1201172 7:6.2510071 8:119.7165 9:8.2598877 10:103.293 11:18.341995 12:73.900024 13:108.4299 14:23.503006 15:62.359985 
-0.3734357059553234 -0.848845138623937 0.2896556953859452 0 1:12.431046 2:8.0141068 3:7.5200195 4:41.544998 5:145.2054 6:29.579956 7:56.200012 8:97.667488 9:54.190063 10:159.75322 11:23.73201 12:119.68005 13:27.410595 14:12.017975 15:17.119873 
-0 -0 1.365691673285468 0 1:16.365211 2:16.279022 3:11.630127 4:59.391891 5:71.994804 6:7.3999023 7:37.014999 8:170.7529 9:35.109985 10:127.81079 11:80.993309 12:89.26001 13:129.00211 14:22.613998 15:22.590088 
-1.681792830507429 -0 0.381907650001319 1.652546370292189 1:11.791298 2:11.607002 3:4.0300293 4:13.783497 5:51.961998 6:11.499878 7:11.577908 8:94.238297 9:6.4801025 10:43.300568 11:76.688698 12:28.410034 13:98.738731 14:41.166992 15:22.27002 
-1.206855778969077 -0 0.9595624295572021 0 1:4.8029938 2:10.536606 3:6.0300293 4:19.060898 5:73.797272 6:10.209961 7:14.4543 8:108.28653 9:8.4000244 10:16.931305 11:29.721001 12:2.6499023 13:211.8165 14:47.932007 15:62.419922 
-1.444967560658146 -0 1.219844329398938 1.681792830507429 1:5.941597 2:20.313011 3:18.100098 4:56.195198 5:194.04501 6:31.329956 7:184.22279 8:80.331024 9:55.849976 10:114.79601 11:17.047012 12:49.860107 13:11.802002 14:4.5350037 15:9.2000732 
-0.3718972522780201 -0.4863141345781846 0.685793587126596 0.03290131828335375 1:28.125 2:58.721008 3:40.650269 4:69.654999 5:398.78497 6:159.39001 7:94.326019 8:170.798 9:32.699951 10:336.21643 11:37.632965 12:42.720215 13:63.560589 14:23.705078 15:30.330078 
-0 -0 0 0.6082616544997261 1:15.529984 2:26.212036 3:21.75 4:29.611008 5:325.62662 6:151.31995 7:78.143005 8:153.03441 9:58.140015 10:243.09131 11:88.521988 12:42.190063 13:124.16372 14:39.297997 15:49.230225 
-0 -0 0.002330547883035284 1.681792830507429 1:16.301994 2:41.421898 3:11.90979 4:79.73999 5:170.6427 6:58.630005 7:29.242996 8:122.704 9:13.959961 10:149.87569 11:38.280014 12:28.369995 13:141.52829 14:12.119003 15:20.570068 
-0 -0.01177612701935551 0 0 1:9.9237976 2:10.223999 3:4.6901855 4:11.417686 5:56.080017 6:22.749878 7:34.173988 8:316.59 9:73.929932 10:174.8127 11:25.817413 12:153.47998 13:75.953979 14:35.552681 15:121.99011 
-1.045604473725217 -0.6984376007068365 0.4770958917119436 1.14781253628618 1:102.4466 2:300.15802 3:38.809937 4:32.276016 5:46.881973 6:16.130249 7:14.28299 8:45.939186 9:18.75 10:79.434982 11:213.46779 12:69.350098 13:170.41032 14:29.061005 15:20.979858 
-0.6675116761880784 -0.2504075173514924 0.375861459159496 0.1202638997834813 1:16.221008 2:60.248962 3:18.519531 4:34.618011 5:111.94302 6:29.009888 7:67.897064 8:485.91528 9:69.649902 10:323.61151 11:77.705101 12:119.46008 13:53.133377 14:26.873211 15:31.700073 
-0.6725017339669227 -0.4832875383358365 0.5398587370427954 0.5726134467498744 1:8.3079529 2:17.791931 3:12.73999 4:12.922974 5:16.907104 6:19.529785 7:47.588989 8:356.54501 9:62.419922 10:96.904999 11:384.50696 12:73.680298 13:408.5022 14:89.437614 15:122.37988 
-0.9051640794618572 -0.6784219095839243 0.7090188206868722 0.6566711299268606 1:5.4219818 2:5.6549988 3:18.76001 4:13.895004 5:42.467026 6:20.320068 7:69.801025 8:533.82202 9:185.73999 10:91.039017 11:78.128967 12:19.76001 13:429.74701 14:120.89702 15:180.23999 
-1.521768793575187 -0 0 0 1:8.441781 2:67.405807 3:4.9359741 4:20.936321 5:153.62219 6:11.975037 7:8.7247009 8:41.879997 9:3.7697754 10:51.661797 11:13.097992 12:6.5179443 13:44.490593 14:10.595001 15:8.6500244 
-0 -1.461912271894267 0 0 1:7.1240025 2:26.091705 3:16.97699 4:16.21023 5:163.1478 6:29.360046 7:8.54422 8:84.149513 9:13.854004 10:42.507099 11:5.9970093 12:13.643982 13:26.28511 14:13.132965 15:10.636047 
-1.681792830507429 -0 -0 0 1:9.6009979 2:12.369019 3:7.2301025 4:231.242 5:63.208008 6:34.170166 7:193.42596 8:111.2795 9:28.840088 10:189.14221 11:84.017281 12:31.140015 13:136.44496 14:30.266329 15:13.25 
-1.681792830507429 -0 -0 0 1:9.8769989 2:13.750992 3:13.790039 4:218.907 5:71.135025 6:49.370117 7:169.49998 8:83.865692 9:25.349976 10:148.52399 11:75.946198 12:35.019897 13:163.19102 14:56.207405 15:21.049805 
-1.681792830507429 -0 -0 0 1:9.5040131 2:19.063019 3:6.8902588 4:224.194 5:69.846985 6:45.150146 7:221.73201 8:94.6166 9:17.540161 10:180.106 11:67.777405 12:27.579956 13:61.584991 14:26.303902 15:20.010132 
-1.681792830507429 -0 -0 0 1:37.707546 2:42.011192 3:30.049927 4:222.75351 5:48.501808 6:38.190063 7:245.65804 8:110.68729 9:65.789917 10:128.8439 11:151.08003 12:80.700073 13:216.30591 14:59.620941 15:76.199829 
-1.681792830507429 -0 -0 0 1:39.089996 2:13.273109 3:15.939697 4:209.79631 5:58.160194 6:57.5 7:255.20091 8:122.23431 9:33.82019 10:248.86899 11:95.934982 12:83.410034 13:137.49327 14:38.842987 15:25.430054 
-0 -0 -0 0.3881636489010999 1:54.269958 2:13.284691 3:15.589966 4:171.30321 5:35.320305 6:43.280029 7:72.727303 8:124.1275 9:24.429932 10:61.738701 11:117.9256 12:17.459839 13:140.9126 14:36.516998 15:28.469971 
-1.681792830507429 -0 -0 0 1:67.789001 2:28.535088 3:41.459961 4:156.75301 5:49.872696 6:53.640015 7:203.73201 8:133.76971 9:5.9200439 10:129.88803 11:124.6907 12:41.389771 13:272.68701 14:72.556992 15:101.09009 
-1.681792830507429 -0 -0 0 1:110.46301 2:38.033794 3:27.209961 4:192.31 5:29.777107 6:59.199951 7:237.285 8:128.9315 9:29.980103 10:172.37901 11:34.651997 12:58.169922 13:151.99573 14:39.223206 15:46.190063 
-1.356795880914818 -0 -0 1.681792830507429 1:67.437988 2:10.343575 3:30.47998 4:158.31699 5:115.4034 6:40.769897 7:127.02701 8:77.406502 9:55.160156 10:147.88998 11:32.909294 12:37.199951 13:20.955994 14:18.039993 15:14.130005 
-0.3817529640457862 -0 -0 0 1:19.873093 2:9.284893 3:7.5799561 4:240.6739 5:36.057495 6:76.670044 7:136.79802 8:114.3787 9:101.23004 10:199.8362 11:141.8325 12:109.73199 13:213.21541 14:117.40903 15:110.97003 
-1.681792830507429 -0 -0 0 1:42.093002 2:12.826912 3:48.593994 4:282.28101 5:82.728096 6:128.64105 7:278.26099 8:171.61389 9:148.28107 10:248.91591 11:81.770996 12:97.830994 13:147.27711 14:44.538025 15:77.299927 
-1.681792830507429 -0 -0 0 1:46.482803 2:20.640594 3:20.690063 4:225.4041 5:54.708206 6:73.130005 7:152.18761 8:98.660103 9:85.080078 10:173.05119 11:98.9142 12:42.289978 13:221.93381 14:126.144 15:76.169983 
-0 -0 -0 1.681792830507429 1:107.42701 2:12.84451 3:13.159912 4:153.04181 5:199.60254 6:30.599976 7:241.49139 8:99.034012 9:34.140015 10:106.49399 11:180.23599 12:56.690063 13:85.853012 14:63.553986 15:18.719971 
-0.110398597372157 -0 -0 0 1:11.746002 2:22.048981 3:11.550049 4:219.59198 5:32.157104 6:22.969849 7:217.20297 8:110.45204 9:46.310059 10:177.65501 11:166.25259 12:75.819946 13:223.29399 14:38.237595 15:30.399902 
-1.681792830507429 -0 -0 0 1:68.606995 2:23.449997 3:3.5899658 4:224.47128 5:82.108597 6:14.959961 7:193.85728 8:104.8428 9:23.540039 10:162.24699 11:76.060303 12:25.740112 13:160.08192 14:59.608307 15:4.6400146 
-1.681792830507429 -0 -0 0 1:32.868988 2:20.074921 3:14.480103 4:259.13998 5:49.616943 6:84.369995 7:267.04202 8:177.56401 9:62.889893 10:320.82599 11:178.85443 12:81.209961 13:226.89742 14:40.544014 15:27.320068 
-1.681792830507429 -0 -0 0 1:74.740402 2:9.4057922 3:21.705017 4:137.62592 5:24.637402 6:15.054993 7:172.12581 8:82.205101 9:15.721069 10:116.61446 11:60.386196 12:14.912048 13:172.54034 14:18.618004 15:8.552002 
-0.7379081518906127 -0 -0 0 1:204.21101 2:40.249023 3:37.26001 4:181.58597 5:124.48 6:23.610107 7:116.29419 8:110.144 9:16.40979 10:172.8436 11:33.648289 12:24.839966 13:154.88799 14:45.575703 15:26.460205 
-1.681792830507429 -0 -0 0 1:9.6009979 2:12.369019 3:7.2301025 4:231.242 5:63.208008 6:34.170166 7:193.42596 8:111.2795 9:28.840088 10:189.14221 11:84.017281 12:31.140015 13:136.44496 14:30.266329 15:13.25 
-1.681792830507429 -0 -0 0 1:9.8769989 2:13.750992 3:13.790039 4:218.907 5:71.135025 6:49.370117 7:169.49998 8:83.865692 9:25.349976 10:148.52399 11:75.946198 12:35.019897 13:163.19102 14:56.207405 15:21.049805 
-1.681792830507429 -0 -0 0 1:9.5040131 2:19.063019 3:6.8902588 4:224.194 5:69.846985 6:45.150146 7:221.73201 8:94.6166 9:17.540161 10:180.106 11:67.777405 12:27.579956 13:61.584991 14:26.303902 15:20.010132 
-0.7964077793970085 -0 -0 0 1:186.84302 2:48.845001 3:52.130127 4:265.96002 5:283.07202 6:115.07007 7:115.31299 8:109.21498 9:17.229614 10:253.98201 11:34.341003 12:121.44995 13:56.912018 14:42.628998 15:51.730103 
-1.681792830507429 -0 -0 0 1:37.707546 2:42.011192 3:30.049927 4:222.75351 5:48.501808 6:38.190063 7:245.65804 8:110.68729 9:65.789917 10:128.8439 11:151.08003 12:80.700073 13:216.30591 14:59.620941 15:76.199829 
-1.681792830507429 -0 -0 0 1:39.089996 2:13.273109 3:15.939697 4:209.79631 5:58.160194 6:57.5 7:255.20091 8:122.23431 9:33.82019 10:248.86899 11:95.934982 12:83.410034 13:137.49327 14:38.842987 15:25.430054 
-0 -0 -0 1.681792830507429 1:54.269958 2:13.284691 3:15.589966 4:171.30321 5:35.320305 6:43.280029 7:72.727303 8:124.1275 9:24.429932 10:61.738701 11:117.9256 12:17.459839 13:140.9126 14:36.516998 15:28.469971 
-1.681792830507429 -0 -0 0 1:67.789001 2:28.535088 3:41.459961 4:156.75301 5:49.872696 6:53.640015 7:203.73201 8:133.76971 9:5.9200439 10:129.88803 11:124.6907 12:41.389771 13:272.68701 14:72.556992 15:101.09009 
-1.681792830507429 -0 -0 0 1:110.46301 2:38.033794 3:27.209961 4:192.31 5:29.777107 6:59.199951 7:237.285 8:128.9315 9:29.980103 10:172.37901 11:34.651997 12:58.169922 13:151.99573 14:39.223206 15:46.190063 
-1.681792830507429 -0 -0 1.681792830507429 1:67.437988 2:10.343575 3:30.47998 4:158.31699 5:115.4034 6:40.769897 7:127.02701 8:77.406502 9:55.160156 10:147.88998 11:32.909294 12:37.199951 13:20.955994 14:18.039993 15:14.130005 
-1.681792830507429 -0 -0 0 1:19.873093 2:9.284893 3:7.5799561 4:240.6739 5:36.057495 6:76.670044 7:136.79802 8:114.3787 9:101.23004 10:199.8362 11:141.8325 12:109.73199 13:213.21541 14:117.40903 15:110.97003 
-1.681792830507429 -0 -0 0 1:42.093002 2:12.826912 3:48.593994 4:282.28101 5:82.728096 6:128.64105 7:278.26099 8:171.61389 9:148.28107 10:248.91591 11:81.770996 12:97.830994 13:147.27711 14:44.538025 15:77.299927 
-0.6091709782565187 -0 -0 0 1:31.727699 2:11.929993 3:16.689941 4:102.7586 5:17.327011 6:38.77002 7:69.345299 8:54.698196 9:95.480103 10:61.793808 11:17.334003 12:43.509888 13:135.33939 14:20.769901 15:77.390015 
-1.681792830507429 -0 -0 0 1:46.482803 2:20.640594 3:20.690063 4:225.4041 5:54.708206 6:73.130005 7:152.18761 8:98.660103 9:85.080078 10:173.05119 11:98.9142 12:42.289978 13:221.93381 14:126.144 15:76.169983 
-0 -0 -0 1.681792830507429 1:107.42701 2:12.84451 3:13.159912 4:153.04181 5:199.60254 6:30.599976 7:241.49139 8:99.034012 9:34.140015 10:106.49399 11:180.23599 12:56.690063 13:85.853012 14:63.553986 15:18.719971 
-1.681792830507429 -0 -0 0 1:11.746002 2:22.048981 3:11.550049 4:219.59198 5:32.157104 6:22.969849 7:217.20297 8:110.45204 9:46.310059 10:177.65501 11:166.25259 12:75.819946 13:223.29399 14:38.237595 15:30.399902 
-1.681792830507429 -0 -0 0 1:68.606995 2:23.449997 3:3.5899658 4:224.47128 5:82.108597 6:14.959961 7:193.85728 8:104.8428 9:23.540039 10:162.24699 11:76.060303 12:25.740112 13:160.08192 14:59.608307 15:4.6400146 
-1.681792830507429 -0 -0 0 1:32.868988 2:20.074921 3:14.480103 4:259.13998 5:49.616943 6:84.369995 7:267.04202 8:177.56401 9:62.889893 10:320.82599 11:178.85443 12:81.209961 13:226.89742 14:40.544014 15:27.320068 
-1.681792830507429 -0 -0 0 1:74.740402 2:9.4057922 3:21.705017 4:137.62592 5:24.637402 6:15.054993 7:172.12581 8:82.205101 9:15.721069 10:116.61446 11:60.386196 12:14.912048 13:172.54034 14:18.618004 15:8.552002 
-1.681792830507429 -0 -0 0 1:204.21101 2:40.249023 3:37.26001 4:181.58597 5:124.48 6:23.610107 7:116.29419 8:110.144 9:16.40979 10:172.8436 11:33.648289 12:24.839966 13:154.88799 14:45.575703 15:26.460205 
-0 -0 -0 0.1738464235751253 1:52.765297 2:52.057999 3:20.210205 4:12.599808 5:15.402023 6:10.890015 7:282.19031 8:55.107986 9:35.180054 10:297.12219 11:250.72311 12:50.869995 13:200.14297 14:55.705902 15:38.619995 
-1.156669550967793 -0 -0 0 1:9.6009979 2:12.369019 3:7.2301025 4:231.242 5:63.208008 6:34.170166 7:193.42596 8:111.2795 9:28.840088 10:189.14221 11:84.017281 12:31.140015 13:136.44496 14:30.266329 15:13.25 
-1.681792830507429 -0 -0 0 1:9.8769989 2:13.750992 3:13.790039 4:218.907 5:71.135025 6:49.370117 7:169.49998 8:83.865692 9:25.349976 10:148.52399 11:75.946198 12:35.019897 13:163.19102 14:56.207405 15:21.049805 
-1.681792830507429 -0 -0 0 1:9.5040131 2:19.063019 3:6.8902588 4:224.194 5:69.846985 6:45.150146 7:221.73201 8:94.6166 9:17.540161 10:180.106 11:67.777405 12:27.579956 13:61.584991 14:26.303902 15:20.010132 
-1.45422675982546 -0 -0 0 1:66.114891 2:17.4711 3:24.250122 4:323.75247 5:101.6673 6:140.47998 7:337.68567 8:244.46568 9:136.22998 10:234.90833 11:67.24498 12:73.540283 13:14.970993 14:13.124023 15:17.920044 
-1.681792830507429 -0 -0 0 1:186.84302 2:48.845001 3:52.130127 4:265.96002 5:283.07202 6:115.07007 7:115.31299 8:109.21498 9:17.229614 10:253.98201 11:34.341003 12:121.44995 13:56.912018 14:42.628998 15:51.730103 
-1.681792830507429 -0 -0 0 1:37.707546 2:42.011192 3:30.049927 4:222.75351 5:48.501808 6:38.190063 7:245.65804 8:110.68729 9:65.789917 10:128.8439 11:151.08003 12:80.700073 13:216.30591 14:59.620941 15:76.199829 
-1.320482421928246 -0 -0 0 1:16.869034 2:19.739014 3:16.300415 4:27.064957 5:32.889008 6:19.389771 7:124.33002 8:19.527954 9:73.90979 10:290.92902 11:134.52698 12:137.43005 13:308.24603 14:44.559021 15:148.04993 
-1.681792830507429 -0 -0 0 1:39.089996 2:13.273109 3:15.939697 4:209.79631 5:58.160194 6:57.5 7:255.20091 8:122.23431 9:33.82019 10:248.86899 11:95.934982 12:83.410034 13:137.49327 14:38.842987 15:25.430054 
-0 -0 -0 1.681792830507429 1:54.269958 2:13.284691 3:15.589966 4:171.30321 5:35.320305 6:43.280029 7:72.727303 8:124.1275 9:24.429932 10:61.738701 11:117.9256 12:17.459839 13:140.9126 14:36.516998 15:28.469971 
-1.681792830507429 -0 -0 0 1:67.789001 2:28.535088 3:41.459961 4:156.75301 5:49.872696 6:53.640015 7:203.73201 8:133.76971 9:5.9200439 10:129.88803 11:124.6907 12:41.389771 13:272.68701 14:72.556992 15:101.09009 
-1.681792830507429 -0 -0 0 1:110.46301 2:38.033794 3:27.209961 4:192.31 5:29.777107 6:59.199951 7:237.285 8:128.9315 9:29.980103 10:172.37901 11:34.651997 12:58.169922 13:151.99573 14:39.223206 15:46.190063 
-1.681792830507429 -0 -0 1.681792830507429 1:67.437988 2:10.343575 3:30.47998 4:158.31699 5:115.4034 6:40.769897 7:127.02701 8:77.406502 9:55.160156 10:147.88998 11:32.909294 12:37.199951 13:20.955994 14:18.039993 15:14.130005 
-1.681792830507429 -0 -0 0 1:19.873093 2:9.284893 3:7.5799561 4:240.6739 5:36.057495 6:76.670044 7:136.79802 8:114.3787 9:101.23004 10:199.8362 11:141.8325 12:109.73199 13:213.21541 14:117.40903 15:110.97003 
-0.4429261828807825 -0 -0 0 1:113.7817 2:26.115803 3:43.72998 4:121.7756 5:41.028309 6:53.609985 7:210.1355 8:89.7286 9:126.69598 10:168.99821 11:32.3396 12:45.463074 13:85.325996 14:11.452602 15:41.984009 
-1.681792830507429 -0 -0 0 1:42.093002 2:12.826912 3:48.593994 4:282.28101 5:82.728096 6:128.64105 7:278.26099 8:171.61389 9:148.28107 10:248.91591 11:81.770996 12:97.830994 13:147.27711 14:44.538025 15:77.299927 
-1.681792830507429 -0 -0 0 1:31.727699 2:11.929993 3:16.689941 4:102.7586 5:17.327011 6:38.77002 7:69.345299 8:54.698196 9:95.480103 10:61.793808 11:17.334003 12:43.509888 13:135.33939 14:20.769901 15:77.390015 
-0 -0 -0 0.9470077474497342 1:29.221699 2:4.8070068 3:12.23999 4:213.72531 5:44.543991 6:96.849976 7:158.2834 8:159.36169 9:113.75 10:269.3028 11:193.4903 12:110.97998 13:131.80196 14:101.42 15:98.040039 
-1.681792830507429 -0 -0 0 1:46.482803 2:20.640594 3:20.690063 4:225.4041 5:54.708206 6:73.130005 7:152.18761 8:98.660103 9:85.080078 10:173.05119 11:98.9142 12:42.289978 13:221.93381 14:126.144 15:76.169983 
-0 -0 -0 0.1262039725246966 1:49.344437 2:20.461781 3:21.589966 4:217.3822 5:98.379616 6:77.029907 7:164.649 8:324.0574 9:101.84009 10:154.81398 11:62.008972 12:86.559937 13:11.906921 14:17.143982 15:23.01001 
-0.7993855947236599 -0 -0 1.681792830507429 1:107.42701 2:12.84451 3:13.159912 4:153.04181 5:199.60254 6:30.599976 7:241.49139 8:99.034012 9:34.140015 10:106.49399 11:180.23599 12:56.690063 13:85.853012 14:63.553986 15:18.719971 
-1.681792830507429 -0 -0 0 1:11.746002 2:22.048981 3:11.550049 4:219.59198 5:32.157104 6:22.969849 7:217.20297 8:110.45204 9:46.310059 10:177.65501 11:166.25259 12:75.819946 13:223.29399 14:38.237595 15:30.399902 
-1.681792830507429 -0 -0 0 1:68.606995 2:23.449997 3:3.5899658 4:224.47128 5:82.108597 6:14.959961 7:193.85728 8:104.8428 9:23.540039 10:162.24699 11:76.060303 12:25.740112 13:160.08192 14:59.608307 15:4.6400146 
-0 -0 -0 0.1422023846690212 1:100.62701 2:9.4590149 3:9.7099609 4:119.2924 5:61.208092 6:45.430054 7:140.17162 8:130.41441 9:85.150024 10:157.9487 11:47.023998 12:48.5 13:55.991203 14:24.098503 15:6.5500488 
-1.681792830507429 -0 -0 0 1:32.868988 2:20.074921 3:14.480103 4:259.13998 5:49.616943 6:84.369995 7:267.04202 8:177.56401 9:62.889893 10:320.82599 11:178.85443 12:81.209961 13:226.89742 14:40.544014 15:27.320068 
-1.224339093075081 -0 -0 0 1:63.480598 2:15.042809 3:20.83197 4:137.1481 5:30.9771 6:26.918091 7:143.1586 8:73.824791 9:27.44397 10:133.0778 11:70.054108 12:16.221008 13:125.55939 14:9.9489899 15:18.644958 
-1.681792830507429 -0 -0 0 1:74.740402 2:9.4057922 3:21.705017 4:137.62592 5:24.637402 6:15.054993 7:172.12581 8:82.205101 9:15.721069 10:116.61446 11:60.386196 12:14.912048 13:172.54034 14:18.618004 15:8.552002 
-1.681792830507429 -0 -0 0 1:204.21101 2:40.249023 3:37.26001 4:181.58597 5:124.48 6:23.610107 7:116.29419 8:110.144 9:16.40979 10:172.8436 11:33.648289 12:24.839966 13:154.88799 14:45.575703 15:26.460205 
-0 -0 -0 1.681792830507429 1:52.765297 2:52.057999 3:20.210205 4:12.599808 5:15.402023 6:10.890015 7:282.19031 8:55.107986 9:35.180054 10:297.12219 11:250.72311 12:50.869995 13:200.14297 14:55.705902 15:38.619995 
-0.399254266236743 -0 -0 0 1:131.5799 2:46.082977 3:80.660034 4:440.1521 5:110.35602 6:74.789795 7:511.685 8:307.57248 9:119.76001 10:562.80298 11:150.06551 12:167.88 13:65.236938 14:40.314011 15:98.640015 
-1.681792830507429 -0 -0 0 1:9.8769989 2:13.750992 3:13.790039 4:218.907 5:71.135025 6:49.370117 7:169.49998 8:83.865692 9:25.349976 10:148.52399 11:75.946198 12:35.019897 13:163.19102 14:56.207405 15:21.049805 
-1.681792830507429 -0 -0 0 1:9.5040131 2:19.063019 3:6.8902588 4:224.194 5:69.846985 6:45.150146 7:221.73201 8:94.6166 9:17.540161 10:180.106 11:67.777405 12:27.579956 13:61.584991 14:26.303902 15:20.010132 
-1.681792830507429 -0 -0 0 1:66.114891 2:17.4711 3:24.250122 4:323.75247 5:101.6673 6:140.47998 7:337.68567 8:244.46568 9:136.22998 10:234.90833 11:67.24498 12:73.540283 13:14.970993 14:13.124023 15:17.920044 
-1.681792830507429 -0 -0 0.6956161366934093 1:186.84302 2:48.845001 3:52.130127 4:265.96002 5:283.07202 6:115.07007 7:115.31299 8:109.21498 9:17.229614 10:253.98201 11:34.341003 12:121.44995 13:56.912018 14:42.628998 15:51.730103 
-1.20621852466162 -0 -0 0.693084158273502 1:21.411034 2:27.153015 3:14.659912 4:116.2604 5:297.45255 6:163.41003 7:307.54718 8:94.93251 9:126.92017 10:329.42123 11:218.03296 12:55.219971 13:243.439 14:59.065002 15:94.310059 
-1.49476509482208 -0 -0 0 1:81.054199 2:287.06934 3:116.02014 4:300.397 5:71.426498 6:90.339966 7:306.93179 8:176.41997 9:40.17981 10:325.54758 11:83.919006 12:111.03992 13:357.74683 14:294.15601 15:216.21997 
-1.681792830507429 -0 -0 0 1:37.707546 2:42.011192 3:30.049927 4:222.75351 5:48.501808 6:38.190063 7:245.65804 8:110.68729 9:65.789917 10:128.8439 11:151.08003 12:80.700073 13:216.30591 14:59.620941 15:76.199829 
-1.681792830507429 -0 -0 0 1:16.869034 2:19.739014 3:16.300415 4:27.064957 5:32.889008 6:19.389771 7:124.33002 8:19.527954 9:73.90979 10:290.92902 11:134.52698 12:137.43005 13:308.24603 14:44.559021 15:148.04993 
-1.044999500982421 -0 -0 0 1:18.504028 2:18.450043 3:6.8701172 4:151.22401 5:30.013 6:42.290039 7:125.80698 8:86.822884 9:76.77002 10:170.181 11:129.6597 12:62.609863 13:247.65002 14:53.661106 15:106.4801 
-0.185628416702398 -0 -0 0 1:6.6369934 2:12.039032 3:5.2200928 4:8.983017 5:13.098999 6:16.709839 7:278.26001 8:107.07199 9:31.700073 10:472.84998 11:242.091 12:124.29993 13:41.937988 14:23.886377 15:46.26001 
-0 -0 -0 1.057733834358702 1:65.17897 2:13.345016 3:18.120117 4:168.47649 5:54.5597 6:41.369995 7:106.6595 8:108.1651 9:37.290039 10:156.25699 11:167.0152 12:25.760132 13:203.9818 14:38.855988 15:58.879883 
-0 -0 -0 1.036085455256192 1:83.358032 2:14.979797 3:21.299927 4:234.17928 5:137.2373 6:83.01001 7:169.1373 8:172.11929 9:57.529907 10:167.0079 11:29.40004 12:27.300171 13:13.873802 14:32.024933 15:17.25 
-1.681792830507429 -0 -0 0 1:39.089996 2:13.273109 3:15.939697 4:209.79631 5:58.160194 6:57.5 7:255.20091 8:122.23431 9:33.82019 10:248.86899 11:95.934982 12:83.410034 13:137.49327 14:38.842987 15:25.430054 
-0 -0 -0 1.681792830507429 1:54.269958 2:13.284691 3:15.589966 4:171.30321 5:35.320305 6:43.280029 7:72.727303 8:124.1275 9:24.429932 10:61.738701 11:117.9256 12:17.459839 13:140.9126 14:36.516998 15:28.469971 
-1.681792830507429 -0 -0 0 1:67.789001 2:28.535088 3:41.459961 4:156.75301 5:49.872696 6:53.640015 7:203.73201 8:133.76971 9:5.9200439 10:129.88803 11:124.6907 12:41.389771 13:272.68701 14:72.556992 15:101.09009 
-1.681792830507429 -0 -0 0 1:110.46301 2:38.033794 3:27.209961 4:192.31 5:29.777107 6:59.199951 7:237.285 8:128.9315 9:29.980103 10:172.37901 11:34.651997 12:58.169922 13:151.99573 14:39.223206 15:46.190063 
-1.681792830507429 -0 -1.478984329959513 1.681792830507429 1:67.437988 2:10.343575 3:30.47998 4:158.31699 5:115.4034 6:40.769897 7:127.02701 8:77.406502 9:55.160156 10:147.88998 11:32.909294 12:37.199951 13:20.955994 14:18.039993 15:14.130005 
-1.681792830507429 -0 -0 0 1:19.873093 2:9.284893 3:7.5799561 4:240.6739 5:36.057495 6:76.670044 7:136.79802 8:114.3787 9:101.23004 10:199.8362 11:141.8325 12:109.73199 13:213.21541 14:117.40903 15:110.97003 
-1.681792830507429 -0 -0 0 1:113.7817 2:26.115803 3:43.72998 4:121.7756 5:41.028309 6:53.609985 7:210.1355 8:89.7286 9:126.69598 10:168.99821 11:32.3396 12:45.463074 13:85.325996 14:11.452602 15:41.984009 
-1.681792830507429 -0 -0 0 1:42.093002 2:12.826912 3:48.593994 4:282.28101 5:82.728096 6:128.64105 7:278.26099 8:171.61389 9:148.28107 10:248.91591 11:81.770996 12:97.830994 13:147.27711 14:44.538025 15:77.299927 
-1.681792830507429 -1.350668787264611 -1.227092720566971 0 1:31.727699 2:11.929993 3:16.689941 4:102.7586 5:17.327011 6:38.77002 7:69.345299 8:54.698196 9:95.480103 10:61.793808 11:17.334003 12:43.509888 13:135.33939 14:20.769901 15:77.390015 
-0 -0.223712168635831 -0 0 1:82.144608 2:16.119019 3:38.739868 4:146.40079 5:36.190994 6:81.210083 7:111.377 8:94.416397 9:102.14001 10:132.2966 11:35.843002 12:115.47009 13:34.673996 14:11.762993 15:26.619995 
-0 -0 -0 1.681792830507429 1:29.221699 2:4.8070068 3:12.23999 4:213.72531 5:44.543991 6:96.849976 7:158.2834 8:159.36169 9:113.75 10:269.3028 11:193.4903 12:110.97998 13:131.80196 14:101.42 15:98.040039 
-1.681792830507429 -0 -0 0 1:46.482803 2:20.640594 3:20.690063 4:225.4041 5:54.708206 6:73.130005 7:152.18761 8:98.660103 9:85.080078 10:173.05119 11:98.9142 12:42.289978 13:221.93381 14:126.144 15:76.169983 
-0 -0 -0 1.681792830507429 1:49.344437 2:20.461781 3:21.589966 4:217.3822 5:98.379616 6:77.029907 7:164.649 8:324.0574 9:101.84009 10:154.81398 11:62.008972 12:86.559937 13:11.906921 14:17.143982 15:23.01001 
-1.681792830507429 -0 -0.09185520029707667 1.681792830507429 1:107.42701 2:12.84451 3:13.159912 4:153.04181 5:199.60254 6:30.599976 7:241.49139 8:99.034012 9:34.140015 10:106.49399 11:180.23599 12:56.690063 13:85.853012 14:63.553986 15:18.719971 
-1.681792830507429 -0 -0 0 1:11.746002 2:22.048981 3:11.550049 4:219.59198 5:32.157104 6:22.969849 7:217.20297 8:110.45204 9:46.310059 10:177.65501 11:166.25259 12:75.819946 13:223.29399 14:38.237595 15:30.399902 
-0.127881160367388 -0 -0 0 1:31.087036 2:9.0769958 3:7.8519287 4:181.67258 5:20.85199 6:37.276001 7:132.86839 8:115.94995 9:17.289978 10:115.832 11:120.66315 12:9.717041 13:207.58409 14:42.403893 15:39 
-1.681792830507429 -0 -0 0 1:68.606995 2:23.449997 3:3.5899658 4:224.47128 5:82.108597 6:14.959961 7:193.85728 8:104.8428 9:23.540039 10:162.24699 11:76.060303 12:25.740112 13:160.08192 14:59.608307 15:4.6400146 
-1.552114695027989 -0 -0 0 1:18.286987 2:10.461807 3:5.1900635 4:231.188 5:57.601204 6:12.990112 7:97.498993 8:107.74993 9:16.100098 10:88.735992 11:111.26878 12:14.099976 13:183.16029 14:36.626595 15:70.799927 
-0 -0 -0 1.681792830507429 1:100.62701 2:9.4590149 3:9.7099609 4:119.2924 5:61.208092 6:45.430054 7:140.17162 8:130.41441 9:85.150024 10:157.9487 11:47.023998 12:48.5 13:55.991203 14:24.098503 15:6.5500488 
-0 -0 -0 0.6406687319974004 1:124.86899 2:9.769989 3:15.170044 4:119.5294 5:45.660103 6:20.299927 7:175.69 8:185.89691 9:17.030029 10:130.62802 11:63.562988 12:43.997986 13:85.068703 14:7.2069931 15:16.588013 
-1.681792830507429 -0 -0 0 1:32.868988 2:20.074921 3:14.480103 4:259.13998 5:49.616943 6:84.369995 7:267.04202 8:177.56401 9:62.889893 10:320.82599 11:178.85443 12:81.209961 13:226.89742 14:40.544014 15:27.320068 
-0.6095809617279551 -0 -0 0 1:283.31302 2:37.046997 3:63.859985 4:200.81403 5:111.19499 6:108.40991 7:433.13699 8:377.33499 9:111.25 10:449.47598 11:41.538986 12:101.80017 13:87.550995 14:27.72699 15:62.999756 
-1.681792830507429 -0 -0 0 1:63.480598 2:15.042809 3:20.83197 4:137.1481 5:30.9771 6:26.918091 7:143.1586 8:73.824791 9:27.44397 10:133.0778 11:70.054108 12:16.221008 13:125.55939 14:9.9489899 15:18.644958 
-1.681792830507429 -0 -0 0 1:74.740402 2:9.4057922 3:21.705017 4:137.62592 5:24.637402 6:15.054993 7:172.12581 8:82.205101 9:15.721069 10:116.61446 11:60.386196 12:14.912048 13:172.54034 14:18.618004 15:8.552002 
-1.681792830507429 -0 -0 0 1:204.21101 2:40.249023 3:37.26001 4:181.58597 5:124.48 6:23.610107 7:116.29419 8:110.144 9:16.40979 10:172.8436 11:33.648289 12:24.839966 13:154.88799 14:45.575703 15:26.460205 
-0.2757264809405082 -0 -0.2233536929188415 1.608778749090506 1:52.765297 2:52.057999 3:20.210205 4:12.599808 5:15.402023 6:10.890015 7:282.19031 8:55.107986 9:35.180054 10:297.12219 11:250.72311 12:50.869995 13:200.14297 14:55.705902 15:38.619995 
-1.30819034107325 -0.2293928011956015 -0.03466261422773943 0.141921121585172 1:35.996323 2:14.682098 3:16.549927 4:452.14673 5:100.21202 6:73.8302 7:532.19604 8:326.5993 9:154.62988 10:435.87503 11:106.8527 12:125.12988 13:124.85701 14:33.195969 15:51.000122 
-1.681792830507429 -0.2301899574429376 -0.2563634888846271 0.2189840622651994 1:131.5799 2:46.082977 3:80.660034 4:440.1521 5:110.35602 6:74.789795 7:511.685 8:307.57248 9:119.76001 10:562.80298 11:150.06551 12:167.88 13:65.236938 14:40.314011 15:98.640015 
-0 -0.120418779422224 -0.409622120715715 0 1:49.193985 2:20.240021 3:16.410034 4:269.20999 5:25.944962 6:150.15002 7:183.229 8:240.5081 9:218.84985 10:270.77402 11:279.3909 12:106.02002 13:359.51999 14:57.904022 15:189.47009 
-0.2464137288372116 -0 -0 0 1:95.904037 2:15.682983 3:19.599609 4:284.54605 5:57.946014 6:81.010132 7:363.98199 8:298.81689 9:117.00012 10:273.22601 11:127.59031 12:65.630005 13:186.06699 14:102.85119 15:135.84998 
-1.681792830507429 -0 -0 0 1:9.8769989 2:13.750992 3:13.790039 4:218.907 5:71.135025 6:49.370117 7:169.49998 8:83.865692 9:25.349976 10:148.52399 11:75.946198 12:35.019897 13:163.19102 14:56.207405 15:21.049805 
-1.681792830507429 -0 -0 0 1:9.5040131 2:19.063019 3:6.8902588 4:224.194 5:69.846985 6:45.150146 7:221.73201 8:94.6166 9:17.540161 10:180.106 11:67.777405 12:27.579956 13:61.584991 14:26.303902 15:20.010132 
-1.681792830507429 -0 -0 0 1:66.114891 2:17.4711 3:24.250122 4:323.75247 5:101.6673 6:140.47998 7:337.68567 8:244.46568 9:136.22998 10:234.90833 11:67.24498 12:73.540283 13:14.970993 14:13.124023 15:17.920044 
-1.477388382346702 -0.5406315673271899 -1.065057869286621 1.678062013514203 1:186.84302 2:48.845001 3:52.130127 4:265.96002 5:283.07202 6:115.07007 7:115.31299 8:109.21498 9:17.229614 10:253.98201 11:34.341003 12:121.44995 13:56.912018 14:42.628998 15:51.730103 
-1.45770461162903 -0.8523754325426913 -0.5479802003994151 1.133737795156684 1:31.492981 2:15.099716 3:15.380127 4:332.32401 5:442.98428 6:100.54004 7:384.01099 8:86.582001 9:113.75977 10:374.88892 11:394.10297 12:93.349976 13:263.33099 14:72.430984 15:132.88989 
-1.42632965176778 -0.04263360016406543 -1.202691567634805 1.402616879739764 1:21.411034 2:27.153015 3:14.659912 4:116.2604 5:297.45255 6:163.41003 7:307.54718 8:94.93251 9:126.92017 10:329.42123 11:218.03296 12:55.219971 13:243.439 14:59.065002 15:94.310059 
-1.669024125223842 -0.8074185880766376 -1.258468078986913 0.7092917109922939 1:81.054199 2:287.06934 3:116.02014 4:300.397 5:71.426498 6:90.339966 7:306.93179 8:176.41997 9:40.17981 10:325.54758 11:83.919006 12:111.03992 13:357.74683 14:294.15601 15:216.21997 
-1.681792830507429 -0 -0 0 1:37.707546 2:42.011192 3:30.049927 4:222.75351 5:48.501808 6:38.190063 7:245.65804 8:110.68729 9:65.789917 10:128.8439 11:151.08003 12:80.700073 13:216.30591 14:59.620941 15:76.199829 
-0.4299976434376377 -0.8210866556766661 -0.3945324683621003 0.2953630083540043 1:26.59914 2:32.544006 3:43.279541 4:183.82141 5:81.584091 6:262.0498 7:124.5725 8:231.77449 9:330.26978 10:294.26227 11:234.30899 12:334.84009 13:81.919983 14:85.861084 15:232.71021 
-1.043234635890451 -0.6871400275136577 -0.4798035610780678 0.4749768923238338 1:27.80201 2:17.743992 3:20.810181 4:313.35901 5:88.842102 6:394.26001 7:178.01642 8:312.00821 9:383.37 10:235.82309 11:210.55399 12:233.92993 13:126.72711 14:70.361938 15:339.60999 
-1.075794994052755 -0.01003271830790177 -0.1448448381272287 0 1:16.154007 2:23.534988 3:10.540039 4:333.73669 5:59.352997 6:15.139771 7:301.09128 8:428.453 9:130.17993 10:396.95969 11:100.16199 12:68.409912 13:141.32201 14:27.496033 15:65.429932 
-1.681792830507429 -0 -1.397661019708521 0.3132581271679951 1:16.869034 2:19.739014 3:16.300415 4:27.064957 5:32.889008 6:19.389771 7:124.33002 8:19.527954 9:73.90979 10:290.92902 11:134.52698 12:137.43005 13:308.24603 14:44.559021 15:148.04993 
-0.1960303873523498 -0.4232887190983745 -0 0.5134062726255539 1:11.242996 2:8.7550049 3:8.7298584 4:10.631012 5:12.582001 6:11.819824 7:305.23798 8:107.3204 9:151.76013 10:386.12799 11:241.3826 12:218.12988 13:322.78 14:68.664803 15:152.24011 
-1.265203670866471 -0 -0 0 1:18.504028 2:18.450043 3:6.8701172 4:151.22401 5:30.013 6:42.290039 7:125.80698 8:86.822884 9:76.77002 10:170.181 11:129.6597 12:62.609863 13:247.65002 14:53.661106 15:106.4801 
-0.8276826198419972 -0.6995948329231552 -0.5597677283932593 0.5345221352316895 1:11.03598 2:10.22998 3:11.839966 4:370.80099 5:50.473053 6:81.139893 7:472.65402 8:503.19598 9:245.48999 10:627.28497 11:132.04604 12:218.23999 13:33.578003 14:25.894012 15:31.789917 
-1.681792830507429 -0.4708558889479104 -0.7100525539085919 1.616581919319095 1:6.6369934 2:12.039032 3:5.2200928 4:8.983017 5:13.098999 6:16.709839 7:278.26001 8:107.07199 9:31.700073 10:472.84998 11:242.091 12:124.29993 13:41.937988 14:23.886377 15:46.26001 
-0.9754610256564344 -0 -0 0 1:26.707001 2:14.097996 3:9.2800293 4:274.96112 5:57.411102 6:27.670044 7:295.58389 8:185.0145 9:26.940186 10:205.32697 11:128.23502 12:75.080078 13:214.33305 14:63.376022 15:90.42981 
-0 -0 -0 1.681792830507429 1:65.17897 2:13.345016 3:18.120117 4:168.47649 5:54.5597 6:41.369995 7:106.6595 8:108.1651 9:37.290039 10:156.25699 11:167.0152 12:25.760132 13:203.9818 14:38.855988 15:58.879883 
-0 -0 -0 1.681792830507429 1:83.358032 2:14.979797 3:21.299927 4:234.17928 5:137.2373 6:83.01001 7:169.1373 8:172.11929 9:57.529907 10:167.0079 11:29.40004 12:27.300171 13:13.873802 14:32.024933 15:17.25 
-1.681792830507429 -0 -0 0 1:39.089996 2:13.273109 3:15.939697 4:209.79631 5:58.160194 6:57.5 7:255.20091 8:122.23431 9:33.82019 10:248.86899 11:95.934982 12:83.410034 13:137.49327 14:38.842987 15:25.430054 
-0 -0 -0.9180059293465797 1.092969643892377 1:54.269958 2:13.284691 3:15.589966 4:171.30321 5:35.320305 6:43.280029 7:72.727303 8:124.1275 9:24.429932 10:61.738701 11:117.9256 12:17.459839 13:140.9126 14:36.516998 15:28.469971 
-0 -0 -0 1.349518414703836 1:15.843994 2:5.4229965 3:7.0698242 4:207.72452 5:52.770599 6:32.300049 7:297.57825 8:205.38339 9:64.160034 10:208.99303 11:116.57401 12:63.410034 13:206.39011 14:39.716965 15:39.59906 
-1.681792830507429 -0 -0.3443213691029243 0.4069608345993148 1:67.789001 2:28.535088 3:41.459961 4:156.75301 5:49.872696 6:53.640015 7:203.73201 8:133.76971 9:5.9200439 10:129.88803 11:124.6907 12:41.389771 13:272.68701 14:72.556992 15:101.09009 
-0 -0 -0 0.784082527288962 1:168.98299 2:36.403191 3:51.75 4:132.63382 5:33.934502 6:30.52002 7:260.952 8:204.38629 9:31.369995 10:124.59097 11:96.86998 12:27.189941 13:201.89101 14:37.179001 15:16.540039 
-0.4792794469284938 -0 -0 0.6548866247270279 1:20.618042 2:15.316301 3:12.640137 4:223.61359 5:105.95539 6:22.990112 7:215.0504 8:143.83069 9:46.670044 10:127.27002 11:77.497025 12:43.329834 13:232.69232 14:23.244019 15:51.589966 
-1.681792830507429 -0 -0 0 1:110.46301 2:38.033794 3:27.209961 4:192.31 5:29.777107 6:59.199951 7:237.285 8:128.9315 9:29.980103 10:172.37901 11:34.651997 12:58.169922 13:151.99573 14:39.223206 15:46.190063 
-1.633955999980177 -0 -0 1.681792830507429 1:67.437988 2:10.343575 3:30.47998 4:158.31699 5:115.4034 6:40.769897 7:127.02701 8:77.406502 9:55.160156 10:147.88998 11:32.909294 12:37.199951 13:20.955994 14:18.039993 15:14.130005 
-1.681792830507429 -0 -0 0 1:19.873093 2:9.284893 3:7.5799561 4:240.6739 5:36.057495 6:76.670044 7:136.79802 8:114.3787 9:101.23004 10:199.8362 11:141.8325 12:109.73199 13:213.21541 14:117.40903 15:110.97003 
-1.681792830507429 -0 -0 0 1:113.7817 2:26.115803 3:43.72998 4:121.7756 5:41.028309 6:53.609985 7:210.1355 8:89.7286 9:126.69598 10:168.99821 11:32.3396 12:45.463074 13:85.325996 14:11.452602 15:41.984009 
-0.7144816445369572 -0 -0 0 1:44.946022 2:12.236008 3:10.572144 4:243.98502 5:73.290611 6:109.745 7:221.62631 8:126.39919 9:162.20197 10:239.47192 11:118.6212 12:61.966003 13:110.80499 14:44.475998 15:79.255005 
-1.681792830507429 -0 -0 0 1:42.093002 2:12.826912 3:48.593994 4:282.28101 5:82.728096 6:128.64105 7:278.26099 8:171.61389 9:148.28107 10:248.91591 11:81.770996 12:97.830994 13:147.27711 14:44.538025 15:77.299927 
-0 -0 -0.2505620883096743 0.6767526375747267 1:111.73873 2:28.495602 3:39.230103 4:172.23326 5:44.570301 6:84.699951 7:141.34091 8:265.4299 9:176.47009 10:168.8627 11:167.94099 12:68.570068 13:150.67497 14:34.093994 15:109.27991 
-1.491950232225532 -1.681792830507429 -1.681792830507429 0 1:31.727699 2:11.929993 3:16.689941 4:102.7586 5:17.327011 6:38.77002 7:69.345299 8:54.698196 9:95.480103 10:61.793808 11:17.334003 12:43.509888 13:135.33939 14:20.769901 15:77.390015 
-0 -1.638238565093596 -0 0 1:82.144608 2:16.119019 3:38.739868 4:146.40079 5:36.190994 6:81.210083 7:111.377 8:94.416397 9:102.14001 10:132.2966 11:35.843002 12:115.47009 13:34.673996 14:11.762993 15:26.619995 
-0 -0 -0 1.65610952660153 1:29.221699 2:4.8070068 3:12.23999 4:213.72531 5:44.543991 6:96.849976 7:158.2834 8:159.36169 9:113.75 10:269.3028 11:193.4903 12:110.97998 13:131.80196 14:101.42 15:98.040039 
-1.681792830507429 -0 -0 0 1:46.482803 2:20.640594 3:20.690063 4:225.4041 5:54.708206 6:73.130005 7:152.18761 8:98.660103 9:85.080078 10:173.05119 11:98.9142 12:42.289978 13:221.93381 14:126.144 15:76.169983 
-0 -0 -1.14945935870196 1.681792830507429 1:49.344437 2:20.461781 3:21.589966 4:217.3822 5:98.379616 6:77.029907 7:164.649 8:324.0574 9:101.84009 10:154.81398 11:62.008972 12:86.559937 13:11.906921 14:17.143982 15:23.01001 
-1.681792830507429 -0 -1.681792830507429 1.681792830507429 1:107.42701 2:12.84451 3:13.159912 4:153.04181 5:199.60254 6:30.599976 7:241.49139 8:99.034012 9:34.140015 10:106.49399 11:180.23599 12:56.690063 13:85.853012 14:63.553986 15:18.719971 
-1.030222893780437 -0 -0 0 1:31.761993 2:10.981979 3:9.5598145 4:195.10602 5:50.065994 6:34.840088 7:288.74698 8:244.28598 9:106.09998 10:138.5712 11:101.09998 12:35.200073 13:278.871 14:26.61998 15:83.810059 
-1.681792830507429 -0 -0 0 1:11.746002 2:22.048981 3:11.550049 4:219.59198 5:32.157104 6:22.969849 7:217.20297 8:110.45204 9:46.310059 10:177.65501 11:166.25259 12:75.819946 13:223.29399 14:38.237595 15:30.399902 
-1.681792830507429 -0 -0 0 1:68.606995 2:23.449997 3:3.5899658 4:224.47128 5:82.108597 6:14.959961 7:193.85728 8:104.8428 9:23.540039 10:162.24699 11:76.060303 12:25.740112 13:160.08192 14:59.608307 15:4.6400146 
-1.681792830507429 -0 -0 0 1:18.286987 2:10.461807 3:5.1900635 4:231.188 5:57.601204 6:12.990112 7:97.498993 8:107.74993 9:16.100098 10:88.735992 11:111.26878 12:14.099976 13:183.16029 14:36.626595 15:70.799927 
-0 -0 -0 1.681792830507429 1:100.62701 2:9.4590149 3:9.7099609 4:119.2924 5:61.208092 6:45.430054 7:140.17162 8:130.41441 9:85.150024 10:157.9487 11:47.023998 12:48.5 13:55.991203 14:24.098503 15:6.5500488 
-0 -0 -0.6799564992723346 0.129494472444857 1:128.29559 2:34.235016 3:95.490112 4:125.08496 5:88.496994 6:131.84998 7:262.98334 8:298.8772 9:191.39001 10:232.4341 11:58.867699 12:220.65002 13:53.679031 14:35.322281 15:70.140137 
-0 -0 -0.6163277988925409 0.9245397135822424 1:124.86899 2:9.769989 3:15.170044 4:119.5294 5:45.660103 6:20.299927 7:175.69 8:185.89691 9:17.030029 10:130.62802 11:63.562988 12:43.997986 13:85.068703 14:7.2069931 15:16.588013 
-1.681792830507429 -0 -0 0 1:32.868988 2:20.074921 3:14.480103 4:259.13998 5:49.616943 6:84.369995 7:267.04202 8:177.56401 9:62.889893 10:320.82599 11:178.85443 12:81.209961 13:226.89742 14:40.544014 15:27.320068 
-1.631499105333574 -0.4934976190633014 -0.3293145929014412 0.6899910894312997 1:283.31302 2:37.046997 3:63.859985 4:200.81403 5:111.19499 6:108.40991 7:433.13699 8:377.33499 9:111.25 10:449.47598 11:41.538986 12:101.80017 13:87.550995 14:27.72699 15:62.999756 
-0 -0 -0 0.9360881533441102 1:16.186096 2:10.964966 3:10.660034 4:360.71729 5:111.853 6:67.130005 7:400.50717 8:336.84 9:161.09998 10:379.76843 11:189.686 12:43.469971 13:107.44995 14:47.210037 15:93.449951 
-0 -0.1939954225162674 -0.005593426558737005 0 1:11.215996 2:10.232971 3:10.969727 4:295.64899 5:27.246979 6:70.429932 7:384.005 8:301.35297 9:163.27002 10:432.74442 11:306.22601 12:53.820313 13:267.12799 14:56.05899 15:146.47009 
-1.681792830507429 -0 -0 0 1:63.480598 2:15.042809 3:20.83197 4:137.1481 5:30.9771 6:26.918091 7:143.1586 8:73.824791 9:27.44397 10:133.0778 11:70.054108 12:16.221008 13:125.55939 14:9.9489899 15:18.644958 
-1.681792830507429 -0 -0 0 1:74.740402 2:9.4057922 3:21.705017 4:137.62592 5:24.637402 6:15.054993 7:172.12581 8:82.205101 9:15.721069 10:116.61446 11:60.386196 12:14.912048 13:172.54034 14:18.618004 15:8.552002 
-0 -0 -0 -1.681792830507429 1:107.44427 2:19.328094 3:25.349976 4:168.4957 5:111.63781 6:35.190063 7:135.93198 8:165.05899 9:21.360229 10:77.356995 11:28.760986 12:10.950073 13:9.5059967 14:11.528992 15:8.6099854 
-1.681792830507429 -0 -0 -1.681792830507429 1:14.218948 2:34.147034 3:5.3100586 4:171.0882 5:112.17699 6:62.843994 7:83.825058 8:88.1856 9:26.08197 10:209.1002 11:94.250984 12:54.649963 13:86.02002 14:71.879013 15:13.460083 
-0 -0 -0 -0.8819940816692813 1:121.494 2:14.557999 3:16.829956 4:144.51169 5:178.6377 6:28.550049 7:266.77307 8:107.10631 9:37.440063 10:136.30902 11:179.4917 12:33.949951 13:215.30569 14:83.146294 15:19.969849 
-0 -0 -0 -0.431780671500389 1:6.8519287 2:10.2661 3:6.9700928 4:159.59901 5:67.088501 6:22.519897 7:152.2244 8:180.4183 9:53.710083 10:119.88599 11:153.175 12:154.12 13:142.125 14:53.896397 15:34.030029 
-0 -0 -0 -1.681792830507429 1:107.44427 2:19.328094 3:25.349976 4:168.4957 5:111.63781 6:35.190063 7:135.93198 8:165.05899 9:21.360229 10:77.356995 11:28.760986 12:10.950073 13:9.5059967 14:11.528992 15:8.6099854 
-1.681792830507429 -0 -0 -1.681792830507429 1:14.218948 2:34.147034 3:5.3100586 4:171.0882 5:112.17699 6:62.843994 7:83.825058 8:88.1856 9:26.08197 10:209.1002 11:94.250984 12:54.649963 13:86.02002 14:71.879013 15:13.460083 
-0 -0 -0 -0.8967926769122362 1:7.0240173 2:7.7060013 3:3.4899902 4:7.9340057 5:23.210007 6:10.660034 7:250.49699 8:201.8765 9:99.179932 10:313.40503 11:238.5489 12:107.80994 13:140.85501 14:36.180984 15:31.960205 
-0 -0 -0 -1.681792830507429 1:121.494 2:14.557999 3:16.829956 4:144.51169 5:178.6377 6:28.550049 7:266.77307 8:107.10631 9:37.440063 10:136.30902 11:179.4917 12:33.949951 13:215.30569 14:83.146294 15:19.969849 
-0 -0 -0 -0.5395538531693328 1:200.15302 2:69.167686 3:32.049683 4:168.85901 5:210.43121 6:53.820068 7:213.11099 8:123.65399 9:83.859985 10:203.198 11:141.04066 12:13.060059 13:28.994995 14:13.157024 15:7.5097656 
-0 -0 -0 -1.681792830507429 1:6.8519287 2:10.2661 3:6.9700928 4:159.59901 5:67.088501 6:22.519897 7:152.2244 8:180.4183 9:53.710083 10:119.88599 11:153.175 12:154.12 13:142.125 14:53.896397 15:34.030029 
-0 -0 -0 -0.4301650656311989 1:68.498993 2:20.03241 3:32.98999 4:134.87601 5:102.91689 6:31 7:131.77507 8:114.45121 9:100.47693 10:164.1559 11:125.20139 12:30.187073 13:69.695999 14:111.0717 15:105.82001 
-1.26323126059725 -0 -0 -0 1:21.432299 2:113.3194 3:63.940063 4:67.216599 5:55.166901 6:94.801941 7:76.1633 8:47.049599 9:49.970032 10:21.507996 11:109.1353 12:19.236023 13:96.900192 14:110.36939 15:161.39594 
-1.307622234913691 -0 -0 -1.681792830507429 1:107.44427 2:19.328094 3:25.349976 4:168.4957 5:111.63781 6:35.190063 7:135.93198 8:165.05899 9:21.360229 10:77.356995 11:28.760986 12:10.950073 13:9.5059967 14:11.528992 15:8.6099854 
-1.681792830507429 -0 -0 -1.681792830507429 1:14.218948 2:34.147034 3:5.3100586 4:171.0882 5:112.17699 6:62.843994 7:83.825058 8:88.1856 9:26.08197 10:209.1002 11:94.250984 12:54.649963 13:86.02002 14:71.879013 15:13.460083 
-0 -0 -0.4851499736158052 -0 1:59.07803 2:33.371109 3:19.659058 4:52.718803 5:186.42209 6:58.486023 7:144.93501 8:84.415009 9:22.286011 10:42.550697 11:134.8647 12:38.187988 13:65.181763 14:27.0373 15:6.6539307 
-0.6732088167844685 -0 -0 -1.297946128208406 1:75.490021 2:32.762009 3:10.349976 4:300.16901 5:266.56702 6:65.970093 7:372.37503 8:281.79877 9:77.309937 10:287.69016 11:131.82616 12:63.449951 13:26.839981 14:27.168585 15:21.76001 
-0 -0 -0 -1.681792830507429 1:7.0240173 2:7.7060013 3:3.4899902 4:7.9340057 5:23.210007 6:10.660034 7:250.49699 8:201.8765 9:99.179932 10:313.40503 11:238.5489 12:107.80994 13:140.85501 14:36.180984 15:31.960205 
-0 -0 -0 -0.3037698386029757 1:20.838974 2:37.624969 3:10.689941 4:191.52692 5:139.84952 6:64.099976 7:203.09009 8:125.015 9:31.599976 10:117.22697 11:193.86673 12:14.520264 13:98.622887 14:32.954002 15:21.849976 
-0.7473871482430805 -0 -0 -1.681792830507429 1:121.494 2:14.557999 3:16.829956 4:144.51169 5:178.6377 6:28.550049 7:266.77307 8:107.10631 9:37.440063 10:136.30902 11:179.4917 12:33.949951 13:215.30569 14:83.146294 15:19.969849 
-0 -0 -0.4041432529956289 -0 1:48.53434 2:17.736504 3:16.630127 4:70.734955 5:154.2308 6:97.309937 7:128.31891 8:154.0006 9:96.630005 10:193.80711 11:62.217987 12:62.279907 13:266.2854 14:242.43341 15:67.280151 
-0.9182161977920593 -0 -0 -1.681792830507429 1:200.15302 2:69.167686 3:32.049683 4:168.85901 5:210.43121 6:53.820068 7:213.11099 8:123.65399 9:83.859985 10:203.198 11:141.04066 12:13.060059 13:28.994995 14:13.157024 15:7.5097656 
-0.3061869434263885 -0 -0 -1.681792830507429 1:6.8519287 2:10.2661 3:6.9700928 4:159.59901 5:67.088501 6:22.519897 7:152.2244 8:180.4183 9:53.710083 10:119.88599 11:153.175 12:154.12 13:142.125 14:53.896397 15:34.030029 
-1.639234932678679 -0 -0 -0 1:54.23999 2:42.688599 3:7.0201416 4:250.27859 5:124.85291 6:101.75 7:247.1046 8:313.12439 9:88.709961 10:149.45502 11:214.66699 12:109.89001 13:267.45599 14:209.13188 15:57.519897 
-0 -0 -0 -1.681792830507429 1:68.498993 2:20.03241 3:32.98999 4:134.87601 5:102.91689 6:31 7:131.77507 8:114.45121 9:100.47693 10:164.1559 11:125.20139 12:30.187073 13:69.695999 14:111.0717 15:105.82001 
-0 -0 -0 -0.5631288967698208 1:32.807701 2:16.296196 3:14.610107 4:173.99631 5:108.136 6:40.629883 7:132.0443 8:142.97072 9:125.93994 10:121.01571 11:161.86839 12:53.03595 13:74.068298 14:81.896805 15:101.14996 
-1.681792830507429 -1.681792830507429 -0.3664319089177443 -0 1:21.432299 2:113.3194 3:63.940063 4:67.216599 5:55.166901 6:94.801941 7:76.1633 8:47.049599 9:49.970032 10:21.507996 11:109.1353 12:19.236023 13:96.900192 14:110.36939 15:161.39594 
-1.681792830507429 -0 -0 -1.681792830507429 1:107.44427 2:19.328094 3:25.349976 4:168.4957 5:111.63781 6:35.190063 7:135.93198 8:165.05899 9:21.360229 10:77.356995 11:28.760986 12:10.950073 13:9.5059967 14:11.528992 15:8.6099854 
-1.681792830507429 -0 -1.161480202953204 -1.681792830507429 1:14.218948 2:34.147034 3:5.3100586 4:171.0882 5:112.17699 6:62.843994 7:83.825058 8:88.1856 9:26.08197 10:209.1002 11:94.250984 12:54.649963 13:86.02002 14:71.879013 15:13.460083 
-0 -0 -1.459377626308871 -0 1:84.475304 2:58.945793 3:35.919006 4:156.92319 5:194.46191 6:53.757019 7:102.17161 8:174.9666 9:53.359009 10:86.014694 11:60.391197 12:10.128113 13:23.413477 14:9.5863113 15:5.3288574 
-0 -0 -1.681792830507429 -0 1:59.07803 2:33.371109 3:19.659058 4:52.718803 5:186.42209 6:58.486023 7:144.93501 8:84.415009 9:22.286011 10:42.550697 11:134.8647 12:38.187988 13:65.181763 14:27.0373 15:6.6539307 
-0 -0 -0 -0.8381320837368008 1:57.605595 2:14.623707 3:11.330017 4:70.094101 5:116.8334 6:35.580017 7:141.27229 8:49.143295 9:32.476013 10:49.802795 11:108.95825 12:36.861023 13:63.4674 14:51.915043 15:14.302979 
-0.3022588952363423 -0.1843556236806322 -0.05263015464109416 -0.7580747910399148 1:34.518867 2:11.544983 3:13.150024 4:246.88155 5:308.405 6:66.380005 7:447.75598 8:261.80499 9:110.31006 10:279.11038 11:506.50098 12:95.729736 13:167.09891 14:55.555939 15:78.730225 
-0.9604092515016419 -0 -0 -0 1:54.527412 2:66.660995 3:17.140015 4:325.87799 5:224.99399 6:50.430054 7:266.34796 8:283.27502 9:137.2699 10:129.55881 11:306.4277 12:76.350098 13:104.22739 14:93.934319 15:80.700073 
-0.6485937034096025 -0.4508610220335209 -0.4273486368561199 -0.5023214189965887 1:43.716949 2:50.855072 3:30.049805 4:369.93896 5:390.4913 6:196.38 7:480.40439 8:508.51572 9:217.65991 10:375.02402 11:533.383 12:60.51001 13:156.66998 14:60.664032 15:33.39978 
-0 -0.006502950663376856 -0 -0 1:78.069016 2:28.648987 3:35.65979 4:221.43579 5:489.63 6:170.82996 7:416.61081 8:342.035 9:157.13 10:157.18503 11:532.74609 12:113.47998 13:157.86398 14:37.045044 15:33.839966 
-0 -0 -0.9673035934578251 -0 1:11.555984 2:13.009964 3:5.0102539 4:110.08041 5:97.92701 6:25.400024 7:117.0984 8:241.23698 9:52.660156 10:117.43098 11:255.01901 12:29.52002 13:109.27901 14:71.890991 15:39.989868 
-1.681792830507429 -0.1191952505394169 -0.8234322222000923 -1.681792830507429 1:75.490021 2:32.762009 3:10.349976 4:300.16901 5:266.56702 6:65.970093 7:372.37503 8:281.79877 9:77.309937 10:287.69016 11:131.82616 12:63.449951 13:26.839981 14:27.168585 15:21.76001 
-1.075123689361694 -0 -0 -1.370764753080918 1:23.024002 2:11.116999 3:9.210083 4:94.943008 5:25.068703 6:8.4498291 7:230.88901 8:241.92731 9:77.720093 10:244.79271 11:227.18449 12:75.22998 13:231.5417 14:100.1255 15:53.599976 
-0.841759427785687 -0.610051878010094 -0.572747279365432 -0.7017723601322405 1:33.007088 2:28.364311 3:27.240479 4:211.41519 5:546.8844 6:196.25012 7:356.79211 8:458.36002 9:386.10999 10:331.54547 11:587.94653 12:179.73999 13:161.6055 14:45.699997 15:180.67004 
-0.8230953927639428 -0.4158067199362278 -0.4408534884803245 -0.6150980755152435 1:92.629066 2:42.044891 3:80.850098 4:132.08223 5:385.02859 6:229.67993 7:277.69446 8:248.90601 9:330.53003 10:166.89587 11:456.18814 12:167.40015 13:96.046799 14:116.62134 15:112.93042 
-0 -0 -1.182121598948906 -0 1:12.644989 2:12.093002 3:15.969971 4:80.632996 5:28.576996 6:87.959961 7:156.70001 8:262.444 9:103 10:206.10199 11:227.75797 12:126.56995 13:219.679 14:163.371 15:128.03003 
-0.6520564092584493 -0.2688179322520536 -1.661680657202545 -1.681792830507429 1:7.0240173 2:7.7060013 3:3.4899902 4:7.9340057 5:23.210007 6:10.660034 7:250.49699 8:201.8765 9:99.179932 10:313.40503 11:238.5489 12:107.80994 13:140.85501 14:36.180984 15:31.960205 
-0 -0 -0 -1.681792830507429 1:20.838974 2:37.624969 3:10.689941 4:191.52692 5:139.84952 6:64.099976 7:203.09009 8:125.015 9:31.599976 10:117.22697 11:193.86673 12:14.520264 13:98.622887 14:32.954002 15:21.849976 
-0 -0.2134632270137941 -0.5017807652316992 -0 1:19.815002 2:100.34502 3:19.389893 4:168.8107 5:75.859985 6:57.150024 7:281.3349 8:435.07199 9:160.3999 10:243.98999 11:426.237 12:196.20996 13:289.12881 14:106.25902 15:56.359985 
-1.681792830507429 -0 -0 -1.681792830507429 1:121.494 2:14.557999 3:16.829956 4:144.51169 5:178.6377 6:28.550049 7:266.77307 8:107.10631 9:37.440063 10:136.30902 11:179.4917 12:33.949951 13:215.30569 14:83.146294 15:19.969849 
-1.423568054787431 -0 -0.4624984543243008 -0 1:40.962002 2:53.776627 3:25.799927 4:112.2196 5:182.48248 6:68.800049 7:209.7195 8:58.621994 9:50.400024 10:96.685028 11:168.56421 12:94.369995 13:285.9281 14:117.6013 15:35.099976 
-0.668934655079832 -0 -0 -0 1:21.210732 2:54.375206 3:13.109985 4:85.088104 5:92.921303 6:6.4199219 7:130.617 8:40.974991 9:58.5 10:68.89798 11:99.693993 12:58.300049 13:196.64297 14:210.60172 15:27.100098 
-0.05785706802251114 -0.146162331894198 -1.616313092143051 -0 1:48.53434 2:17.736504 3:16.630127 4:70.734955 5:154.2308 6:97.309937 7:128.31891 8:154.0006 9:96.630005 10:193.80711 11:62.217987 12:62.279907 13:266.2854 14:242.43341 15:67.280151 
-0 -0 -0.7190173894537713 -1.243072762450763 1:99.826996 2:13.4729 3:22.829956 4:47.778694 5:129.60449 6:95.25 7:202.86639 8:110.9991 9:75.620117 10:190.60352 11:139.26091 12:58.409912 13:38.319798 14:41.365402 15:7.0397949 
-0 -0 -0 -0.7991730618721377 1:50.783005 2:11.786261 3:6.6799316 4:142.02982 5:94.264297 6:61.51001 7:72.438789 8:165.0735 9:80.560059 10:163.55101 11:63.791977 12:47.990112 13:190.30498 14:189.9751 15:55.739868 
-1.487738107594955 -0 -0 -1.681792830507429 1:200.15302 2:69.167686 3:32.049683 4:168.85901 5:210.43121 6:53.820068 7:213.11099 8:123.65399 9:83.859985 10:203.198 11:141.04066 12:13.060059 13:28.994995 14:13.157024 15:7.5097656 
-1.637640411004281 -0 -0.05202512273484004 -1.407059673406623 1:6.8519287 2:10.2661 3:6.9700928 4:159.59901 5:67.088501 6:22.519897 7:152.2244 8:180.4183 9:53.710083 10:119.88599 11:153.175 12:154.12 13:142.125 14:53.896397 15:34.030029 
-1.681792830507429 -0 -0 -0.5410199104613331 1:54.23999 2:42.688599 3:7.0201416 4:250.27859 5:124.85291 6:101.75 7:247.1046 8:313.12439 9:88.709961 10:149.45502 11:214.66699 12:109.89001 13:267.45599 14:209.13188 15:57.519897 
-0 -0 -0.08317278363100847 -0.533033179077326 1:130.88815 2:58.815601 3:52.350098 4:182.32098 5:277.21121 6:137.28705 7:158.832 8:253.44331 9:82.985046 10:101.00351 11:80.124268 12:115.26599 13:19.521706 14:15.25619 15:14.580078 
-0 -1.183410549932147 -0 -0 1:86.125351 2:40.792099 3:35.419922 4:146.6747 5:206.9826 6:126.09998 7:137.82391 8:164.4359 9:77.91803 10:51.290401 11:81.322609 12:83.399963 13:11.414001 14:24.975185 15:25.510132 
-0 -0 -0 -1.681792830507429 1:68.498993 2:20.03241 3:32.98999 4:134.87601 5:102.91689 6:31 7:131.77507 8:114.45121 9:100.47693 10:164.1559 11:125.20139 12:30.187073 13:69.695999 14:111.0717 15:105.82001 
-0 -0 -0 -1.241965030022019 1:32.807701 2:16.296196 3:14.610107 4:173.99631 5:108.136 6:40.629883 7:132.0443 8:142.97072 9:125.93994 10:121.01571 11:161.86839 12:53.03595 13:74.068298 14:81.896805 15:101.14996 
-0.0759219327832862 -0 -0 -0 1:22.871099 2:18.080807 3:12.369995 4:217.7429 5:178.30299 6:72 7:182.60052 8:203.93201 9:204.67395 10:149.94119 11:275.00812 12:62.671021 13:76.953697 14:195.94189 15:150.98096 
-0 -0 -0.3806818688177414 -0 1:140.69791 2:94.156296 3:77.829956 4:200.08479 5:290.5647 6:220.315 7:176.3522 8:239.40121 9:80.737 10:63.427017 11:234.04178 12:166.98596 13:92.330215 14:43.986023 15:90.150146 
-0 -0 -0 -0.3325290708160222 1:47.475601 2:34.516701 3:15.930054 4:144.6194 5:165.3864 6:151.28998 7:167.00819 8:169.76117 9:96.917053 10:47.093018 11:113.71512 12:96.68103 13:28.639503 14:11.157997 15:15.810059 
-0 -0.7689774390783171 -0 -0.858226514338937 1:108.6858 2:83.716507 3:93.5 4:138.78349 5:180.4805 6:193.87805 7:100.28049 8:233.86002 9:47.208008 10:47.010994 11:85.422974 12:107.95996 13:21.881302 14:11.738007 15:8.0500488 
