svm_type c_svc
kernel_type rbf
gamma 0.0135135
nr_class 2
total_sv 74
rho 0.519768
label 22 23
nr_sv 24 50
SV
1 1:5.183979 2:0.015399933 3:-3.772522 4:6.4377708 5:3.0719299 6:-4.7525024 7:86.904083 8:-19.660786 9:194.86591 10:8.5653915 11:-1.5918121 12:-1.6004028 13:5.8482628 14:-0.4355011 15:-1.2615356 16:2.8707771 17:-0.30586624 18:-0.64398193 19:2.9836578 20:-0.94991684 21:-0.20373535 22:0.77176666 23:-1.1511688 24:0.14764404 25:-0.45727921 26:0.24824524 27:0.8394165 28:-0.86005402 29:2.9036179 30:0.73760986 31:0.82393646 32:2.1665344 33:0.68255615 34:-2.1735916 35:-0.48059082 36:1.0465088 37:-0.45608521 38:-1.9711838 39:-0.26629639 40:1.8233452 41:0.32287598 42:0.24749756 43:0.073856354 44:0.38477325 45:0.0098876953 46:-0.41931152 47:-0.3734169 48:-0.010314941 49:0.59167862 50:-0.71410751 51:-0.3895874 52:-0.029476166 53:0.59431458 54:-0.18157959 55:0.85033035 56:-1.1921921 57:-0.5635376 58:0.93512344 59:1.2171707 60:-0.33673096 61:-124.04535 62:37.58498 63:-174.14508 64:-8.6524429 65:5.2927608 66:1.302063 67:0.48693085 68:-3.8581448 69:-1.3566895 70:0.95779419 71:-3.3031406 72:-1.1326294 73:1.1822968 74:-1.3159523 75:-1.6503296 76:-0.58556366 77:-3.3404903 78:-0.91149902 79:0.37136078 80:-4.3497467 81:-0.68218994 82:2.7566376 83:-3.5993118 84:-1.7269897 85:3.1382141 86:-3.7162247 87:-1.7521362 
1 1:5.183979 2:0.015399933 3:-3.772522 4:6.4377708 5:3.0719299 6:-4.7525024 7:9.4391747 8:0.8338623 9:-6.2366333 10:9.4904785 11:-0.18850327 12:-6.2619629 13:11.272455 14:0.77602386 15:-7.0133667 16:12.764749 17:-0.45713425 18:-7.442688 19:64.205315 20:-23.908131 21:218.1109 22:0.77176666 23:-1.1511688 24:0.14764404 25:-0.45727921 26:0.24824524 27:0.8394165 28:-0.86005402 29:2.9036179 30:0.73760986 31:0.82393646 32:2.1665344 33:0.68255615 34:-2.1735916 35:-0.48059082 36:1.0465088 37:-0.45608521 38:-1.9711838 39:-0.26629639 40:1.8233452 41:0.32287598 42:0.24749756 43:0.073856354 44:0.38477325 45:0.0098876953 46:-0.41931152 47:-0.3734169 48:-0.010314941 49:0.59167862 50:-0.71410751 51:-0.3895874 52:-0.029476166 53:0.59431458 54:-0.18157959 55:0.85033035 56:-1.1921921 57:-0.5635376 58:0.93512344 59:1.2171707 60:-0.33673096 61:-124.04535 62:37.58498 63:-174.14508 64:-8.6524429 65:5.2927608 66:1.302063 67:0.48693085 68:-3.8581448 69:-1.3566895 70:0.95779419 71:-3.3031406 72:-1.1326294 73:1.1822968 74:-1.3159523 75:-1.6503296 76:-0.58556366 77:-3.3404903 78:-0.91149902 79:0.37136078 80:-4.3497467 81:-0.68218994 82:2.7566376 83:-3.5993118 84:-1.7269897 85:3.1382141 86:-3.7162247 87:-1.7521362 
1 1:5.183979 2:0.015399933 3:-3.772522 4:6.4377708 5:3.0719299 6:-4.7525024 7:9.4391747 8:0.8338623 9:-6.2366333 10:9.4904785 11:-0.18850327 12:-6.2619629 13:11.272455 14:0.77602386 15:-7.0133667 16:12.764749 17:-0.45713425 18:-7.442688 19:10.454928 20:0.13315201 21:-6.6525879 22:10.077198 23:-0.69231796 24:-6.5438843 25:9.6859398 26:0.1349678 27:-6.7762451 28:9.0881271 29:0.078796387 30:-6.5501709 31:25.177488 32:-19.3955 33:247.04102 34:-2.1735916 35:-0.48059082 36:1.0465088 37:-0.45608521 38:-1.9711838 39:-0.26629639 40:1.8233452 41:0.32287598 42:0.24749756 43:0.073856354 44:0.38477325 45:0.0098876953 46:-0.41931152 47:-0.3734169 48:-0.010314941 49:0.59167862 50:-0.71410751 51:-0.3895874 52:-0.029476166 53:0.59431458 54:-0.18157959 55:0.85033035 56:-1.1921921 57:-0.5635376 58:0.93512344 59:1.2171707 60:-0.33673096 61:-124.04535 62:37.58498 63:-174.14508 64:-8.6524429 65:5.2927608 66:1.302063 67:0.48693085 68:-3.8581448 69:-1.3566895 70:0.95779419 71:-3.3031406 72:-1.1326294 73:1.1822968 74:-1.3159523 75:-1.6503296 76:-0.58556366 77:-3.3404903 78:-0.91149902 79:0.37136078 80:-4.3497467 81:-0.68218994 82:2.7566376 83:-3.5993118 84:-1.7269897 85:3.1382141 86:-3.7162247 87:-1.7521362 
1 1:5.183979 2:0.015399933 3:-3.772522 4:6.4377708 5:3.0719299 6:-4.7525024 7:9.4391747 8:0.8338623 9:-6.2366333 10:9.4904785 11:-0.18850327 12:-6.2619629 13:11.272455 14:0.77602386 15:-7.0133667 16:12.764749 17:-0.45713425 18:-7.442688 19:10.454928 20:0.13315201 21:-6.6525879 22:10.077198 23:-0.69231796 24:-6.5438843 25:9.6859398 26:0.1349678 27:-6.7762451 28:9.0881271 29:0.078796387 30:-6.5501709 31:7.6173496 32:-0.22316742 33:-6.253418 34:6.8070068 35:-1.2513275 36:-6.0327148 37:6.6722984 38:-1.1661758 39:-5.9609985 40:6.2747498 41:-1.2752571 42:-4.9402466 43:-2.9263916 44:-17.223698 45:271.26599 46:-0.41931152 47:-0.3734169 48:-0.010314941 49:0.59167862 50:-0.71410751 51:-0.3895874 52:-0.029476166 53:0.59431458 54:-0.18157959 55:0.85033035 56:-1.1921921 57:-0.5635376 58:0.93512344 59:1.2171707 60:-0.33673096 61:-124.04535 62:37.58498 63:-174.14508 64:-8.6524429 65:5.2927608 66:1.302063 67:0.48693085 68:-3.8581448 69:-1.3566895 70:0.95779419 71:-3.3031406 72:-1.1326294 73:1.1822968 74:-1.3159523 75:-1.6503296 76:-0.58556366 77:-3.3404903 78:-0.91149902 79:0.37136078 80:-4.3497467 81:-0.68218994 82:2.7566376 83:-3.5993118 84:-1.7269897 85:3.1382141 86:-3.7162247 87:-1.7521362 
1 1:5.183979 2:0.015399933 3:-3.772522 4:6.4377708 5:3.0719299 6:-4.7525024 7:9.4391747 8:0.8338623 9:-6.2366333 10:9.4904785 11:-0.18850327 12:-6.2619629 13:11.272455 14:0.77602386 15:-7.0133667 16:12.764749 17:-0.45713425 18:-7.442688 19:10.454928 20:0.13315201 21:-6.6525879 22:10.077198 23:-0.69231796 24:-6.5438843 25:9.6859398 26:0.1349678 27:-6.7762451 28:9.0881271 29:0.078796387 30:-6.5501709 31:7.6173496 32:-0.22316742 33:-6.253418 34:6.8070068 35:-1.2513275 36:-6.0327148 37:6.6722984 38:-1.1661758 39:-5.9609985 40:6.2747498 41:-1.2752571 42:-4.9402466 43:4.9744263 44:-0.14037704 45:-3.9925537 46:3.0784874 47:-0.019920349 48:-2.824585 49:1.8265228 50:0.57014084 51:-2.2185669 52:-29.196537 53:-19.892315 54:21.691833 55:17.38393 56:0.57337189 57:257.46484 58:0.93512344 59:1.2171707 60:-0.33673096 61:-124.04535 62:37.58498 63:-174.14508 64:-8.6524429 65:5.2927608 66:1.302063 67:0.48693085 68:-3.8581448 69:-1.3566895 70:0.95779419 71:-3.3031406 72:-1.1326294 73:1.1822968 74:-1.3159523 75:-1.6503296 76:-0.58556366 77:-3.3404903 78:-0.91149902 79:0.37136078 80:-4.3497467 81:-0.68218994 82:2.7566376 83:-3.5993118 84:-1.7269897 85:3.1382141 86:-3.7162247 87:-1.7521362 
1 1:5.183979 2:0.015399933 3:-3.772522 4:6.4377708 5:3.0719299 6:-4.7525024 7:9.4391747 8:0.8338623 9:-6.2366333 10:9.4904785 11:-0.18850327 12:-6.2619629 13:11.272455 14:0.77602386 15:-7.0133667 16:12.764749 17:-0.45713425 18:-7.442688 19:10.454928 20:0.13315201 21:-6.6525879 22:10.077198 23:-0.69231796 24:-6.5438843 25:9.6859398 26:0.1349678 27:-6.7762451 28:9.0881271 29:0.078796387 30:-6.5501709 31:7.6173496 32:-0.22316742 33:-6.253418 34:6.8070068 35:-1.2513275 36:-6.0327148 37:6.6722984 38:-1.1661758 39:-5.9609985 40:6.2747498 41:-1.2752571 42:-4.9402466 43:4.9744263 44:-0.14037704 45:-3.9925537 46:3.0784874 47:-0.019920349 48:-2.824585 49:1.8265228 50:0.57014084 51:-2.2185669 52:-29.196537 53:-19.892315 54:21.691833 55:1.2134857 56:3.7188034 57:-3.2340698 58:3.5061073 59:1.0391464 60:-2.7897339 61:5.8326492 62:0.18057632 63:-2.8682251 64:5.6912918 65:0.75842285 66:-2.6087646 67:-130.13535 68:35.11319 69:94.429199 70:0.95779419 71:-3.3031406 72:-1.1326294 73:1.1822968 74:-1.3159523 75:-1.6503296 76:-0.58556366 77:-3.3404903 78:-0.91149902 79:0.37136078 80:-4.3497467 81:-0.68218994 82:2.7566376 83:-3.5993118 84:-1.7269897 85:3.1382141 86:-3.7162247 87:-1.7521362 
1 1:5.183979 2:0.015399933 3:-3.772522 4:6.4377708 5:3.0719299 6:-4.7525024 7:9.4391747 8:0.8338623 9:-6.2366333 10:9.4904785 11:-0.18850327 12:-6.2619629 13:11.272455 14:0.77602386 15:-7.0133667 16:12.764749 17:-0.45713425 18:-7.442688 19:10.454928 20:0.13315201 21:-6.6525879 22:10.077198 23:-0.69231796 24:-6.5438843 25:9.6859398 26:0.1349678 27:-6.7762451 28:9.0881271 29:0.078796387 30:-6.5501709 31:7.6173496 32:-0.22316742 33:-6.253418 34:6.8070068 35:-1.2513275 36:-6.0327148 37:6.6722984 38:-1.1661758 39:-5.9609985 40:6.2747498 41:-1.2752571 42:-4.9402466 43:4.9744263 44:-0.14037704 45:-3.9925537 46:3.0784874 47:-0.019920349 48:-2.824585 49:1.8265228 50:0.57014084 51:-2.2185669 52:-29.196537 53:-19.892315 54:21.691833 55:1.2134857 56:3.7188034 57:-3.2340698 58:3.5061073 59:1.0391464 60:-2.7897339 61:5.8326492 62:0.18057632 63:-2.8682251 64:5.6912918 65:0.75842285 66:-2.6087646 67:9.8496933 68:5.0804024 69:-4.2877808 70:9.7552948 71:7.6219635 72:-3.479187 73:11.294502 74:6.2520599 75:-3.2337036 76:14.430557 77:3.5338364 78:-3.7276611 79:-173.53949 80:0.31559753 81:104.78088 82:2.7566376 83:-3.5993118 84:-1.7269897 85:3.1382141 86:-3.7162247 87:-1.7521362 
1 1:-194.29109 2:-15.240631 3:104.20789 4:6.4377708 5:3.0719299 6:-4.7525024 7:9.4391747 8:0.8338623 9:-6.2366333 10:9.4904785 11:-0.18850327 12:-6.2619629 13:11.272455 14:0.77602386 15:-7.0133667 16:12.764749 17:-0.45713425 18:-7.442688 19:10.454928 20:0.13315201 21:-6.6525879 22:10.077198 23:-0.69231796 24:-6.5438843 25:9.6859398 26:0.1349678 27:-6.7762451 28:9.0881271 29:0.078796387 30:-6.5501709 31:7.6173496 32:-0.22316742 33:-6.253418 34:6.8070068 35:-1.2513275 36:-6.0327148 37:6.6722984 38:-1.1661758 39:-5.9609985 40:6.2747498 41:-1.2752571 42:-4.9402466 43:4.9744263 44:-0.14037704 45:-3.9925537 46:3.0784874 47:-0.019920349 48:-2.824585 49:1.8265228 50:0.57014084 51:-2.2185669 52:-29.196537 53:-19.892315 54:21.691833 55:1.2134857 56:3.7188034 57:-3.2340698 58:3.5061073 59:1.0391464 60:-2.7897339 61:5.8326492 62:0.18057632 63:-2.8682251 64:5.6912918 65:0.75842285 66:-2.6087646 67:9.8496933 68:5.0804024 69:-4.2877808 70:9.7552948 71:7.6219635 72:-3.479187 73:11.294502 74:6.2520599 75:-3.2337036 76:14.430557 77:3.5338364 78:-3.7276611 79:11.399094 80:2.7555237 81:-2.7675781 82:9.9144669 83:2.7591648 84:-2.2838745 85:8.6753387 86:1.5898762 87:-2.4921265 
1 1:5.9204254 2:1.0355282 3:-2.6130981 4:5.2031555 5:-1.5156956 6:-1.6601563 7:3.2586365 8:-0.77597618 9:-1.6784058 10:1.5916748 11:0.014213562 12:-0.87109375 13:-173.62511 14:-9.5053883 15:86.766174 16:12.764749 17:-0.45713425 18:-7.442688 19:10.454928 20:0.13315201 21:-6.6525879 22:10.077198 23:-0.69231796 24:-6.5438843 25:9.6859398 26:0.1349678 27:-6.7762451 28:9.0881271 29:0.078796387 30:-6.5501709 31:7.6173496 32:-0.22316742 33:-6.253418 34:6.8070068 35:-1.2513275 36:-6.0327148 37:6.6722984 38:-1.1661758 39:-5.9609985 40:6.2747498 41:-1.2752571 42:-4.9402466 43:4.9744263 44:-0.14037704 45:-3.9925537 46:3.0784874 47:-0.019920349 48:-2.824585 49:1.8265228 50:0.57014084 51:-2.2185669 52:-29.196537 53:-19.892315 54:21.691833 55:1.2134857 56:3.7188034 57:-3.2340698 58:3.5061073 59:1.0391464 60:-2.7897339 61:5.8326492 62:0.18057632 63:-2.8682251 64:5.6912918 65:0.75842285 66:-2.6087646 67:9.8496933 68:5.0804024 69:-4.2877808 70:9.7552948 71:7.6219635 72:-3.479187 73:11.294502 74:6.2520599 75:-3.2337036 76:14.430557 77:3.5338364 78:-3.7276611 79:11.399094 80:2.7555237 81:-2.7675781 82:9.9144669 83:2.7591648 84:-2.2838745 85:8.6753387 86:1.5898762 87:-2.4921265 
1 1:5.9204254 2:1.0355282 3:-2.6130981 4:5.2031555 5:-1.5156956 6:-1.6601563 7:3.2586365 8:-0.77597618 9:-1.6784058 10:1.5916748 11:0.014213562 12:-0.87109375 13:1.157135 14:0.50623322 15:-0.84362793 16:0.3921051 17:0.22501945 18:-0.39880371 19:-0.058105469 20:0.70783615 21:-0.2454834 22:-0.11087036 23:1.6934223 24:-0.34063721 25:-132.02255 26:-13.519232 27:61.179321 28:9.0881271 29:0.078796387 30:-6.5501709 31:7.6173496 32:-0.22316742 33:-6.253418 34:6.8070068 35:-1.2513275 36:-6.0327148 37:6.6722984 38:-1.1661758 39:-5.9609985 40:6.2747498 41:-1.2752571 42:-4.9402466 43:4.9744263 44:-0.14037704 45:-3.9925537 46:3.0784874 47:-0.019920349 48:-2.824585 49:1.8265228 50:0.57014084 51:-2.2185669 52:-29.196537 53:-19.892315 54:21.691833 55:1.2134857 56:3.7188034 57:-3.2340698 58:3.5061073 59:1.0391464 60:-2.7897339 61:5.8326492 62:0.18057632 63:-2.8682251 64:5.6912918 65:0.75842285 66:-2.6087646 67:9.8496933 68:5.0804024 69:-4.2877808 70:9.7552948 71:7.6219635 72:-3.479187 73:11.294502 74:6.2520599 75:-3.2337036 76:14.430557 77:3.5338364 78:-3.7276611 79:11.399094 80:2.7555237 81:-2.7675781 82:9.9144669 83:2.7591648 84:-2.2838745 85:8.6753387 86:1.5898762 87:-2.4921265 
1 1:5.9204254 2:1.0355282 3:-2.6130981 4:5.2031555 5:-1.5156956 6:-1.6601563 7:3.2586365 8:-0.77597618 9:-1.6784058 10:1.5916748 11:0.014213562 12:-0.87109375 13:1.157135 14:0.50623322 15:-0.84362793 16:0.3921051 17:0.22501945 18:-0.39880371 19:-0.058105469 20:0.70783615 21:-0.2454834 22:-0.11087036 23:1.6934223 24:-0.34063721 25:-0.58262634 26:-0.044591904 27:0.021118164 28:-0.23352051 29:-0.063583374 30:-0.19299316 31:-0.25212097 32:0.60384369 33:-0.0024414063 34:-0.97399902 35:0.48392868 36:0.1260376 37:-99.795502 38:-17.060703 39:36.430298 40:6.2747498 41:-1.2752571 42:-4.9402466 43:4.9744263 44:-0.14037704 45:-3.9925537 46:3.0784874 47:-0.019920349 48:-2.824585 49:1.8265228 50:0.57014084 51:-2.2185669 52:-29.196537 53:-19.892315 54:21.691833 55:1.2134857 56:3.7188034 57:-3.2340698 58:3.5061073 59:1.0391464 60:-2.7897339 61:5.8326492 62:0.18057632 63:-2.8682251 64:5.6912918 65:0.75842285 66:-2.6087646 67:9.8496933 68:5.0804024 69:-4.2877808 70:9.7552948 71:7.6219635 72:-3.479187 73:11.294502 74:6.2520599 75:-3.2337036 76:14.430557 77:3.5338364 78:-3.7276611 79:11.399094 80:2.7555237 81:-2.7675781 82:9.9144669 83:2.7591648 84:-2.2838745 85:8.6753387 86:1.5898762 87:-2.4921265 
1 1:5.9204254 2:1.0355282 3:-2.6130981 4:5.2031555 5:-1.5156956 6:-1.6601563 7:3.2586365 8:-0.77597618 9:-1.6784058 10:1.5916748 11:0.014213562 12:-0.87109375 13:1.157135 14:0.50623322 15:-0.84362793 16:0.3921051 17:0.22501945 18:-0.39880371 19:-0.058105469 20:0.70783615 21:-0.2454834 22:-0.11087036 23:1.6934223 24:-0.34063721 25:-0.58262634 26:-0.044591904 27:0.021118164 28:-0.23352051 29:-0.063583374 30:-0.19299316 31:-0.25212097 32:0.60384369 33:-0.0024414063 34:-0.97399902 35:0.48392868 36:0.1260376 37:-80.568176 38:3.6032448 39:50.837708 40:1.5269928 41:10.384044 42:-1.1052246 43:9.4973831 44:9.5262585 45:-4.8809204 46:12.897888 47:3.7651682 48:-4.3930054 49:-26.995407 50:-45.204834 51:-18.004211 52:-29.196537 53:-19.892315 54:21.691833 55:1.2134857 56:3.7188034 57:-3.2340698 58:3.5061073 59:1.0391464 60:-2.7897339 61:5.8326492 62:0.18057632 63:-2.8682251 64:5.6912918 65:0.75842285 66:-2.6087646 67:9.8496933 68:5.0804024 69:-4.2877808 70:9.7552948 71:7.6219635 72:-3.479187 73:11.294502 74:6.2520599 75:-3.2337036 76:14.430557 77:3.5338364 78:-3.7276611 79:11.399094 80:2.7555237 81:-2.7675781 82:9.9144669 83:2.7591648 84:-2.2838745 85:8.6753387 86:1.5898762 87:-2.4921265 
1 1:5.9204254 2:1.0355282 3:-2.6130981 4:5.2031555 5:-1.5156956 6:-1.6601563 7:3.2586365 8:-0.77597618 9:-1.6784058 10:1.5916748 11:0.014213562 12:-0.87109375 13:1.157135 14:0.50623322 15:-0.84362793 16:0.3921051 17:0.22501945 18:-0.39880371 19:-0.058105469 20:0.70783615 21:-0.2454834 22:-0.11087036 23:1.6934223 24:-0.34063721 25:-0.58262634 26:-0.044591904 27:0.021118164 28:-0.23352051 29:-0.063583374 30:-0.19299316 31:-0.25212097 32:0.60384369 33:-0.0024414063 34:-0.97399902 35:0.48392868 36:0.1260376 37:-80.568176 38:3.6032448 39:50.837708 40:1.5269928 41:10.384044 42:-1.1052246 43:9.4973831 44:9.5262585 45:-4.8809204 46:12.897888 47:3.7651682 48:-4.3930054 49:14.732285 50:3.234467 51:-5.5205078 52:13.213379 53:1.524116 54:-4.2641602 55:11.00547 56:0.94383526 57:-2.8068848 58:7.6202087 59:0.43378925 60:-1.4452515 61:-92.211044 62:-66.29483 63:8.8323975 64:5.6912918 65:0.75842285 66:-2.6087646 67:9.8496933 68:5.0804024 69:-4.2877808 70:9.7552948 71:7.6219635 72:-3.479187 73:11.294502 74:6.2520599 75:-3.2337036 76:14.430557 77:3.5338364 78:-3.7276611 79:11.399094 80:2.7555237 81:-2.7675781 82:9.9144669 83:2.7591648 84:-2.2838745 85:8.6753387 86:1.5898762 87:-2.4921265 
1 1:5.9204254 2:1.0355282 3:-2.6130981 4:5.2031555 5:-1.5156956 6:-1.6601563 7:3.2586365 8:-0.77597618 9:-1.6784058 10:1.5916748 11:0.014213562 12:-0.87109375 13:1.157135 14:0.50623322 15:-0.84362793 16:0.3921051 17:0.22501945 18:-0.39880371 19:-0.058105469 20:0.70783615 21:-0.2454834 22:-0.11087036 23:1.6934223 24:-0.34063721 25:-0.58262634 26:-0.044591904 27:0.021118164 28:-0.23352051 29:-0.063583374 30:-0.19299316 31:-0.25212097 32:0.60384369 33:-0.0024414063 34:-0.97399902 35:0.48392868 36:0.1260376 37:-80.568176 38:3.6032448 39:50.837708 40:1.5269928 41:10.384044 42:-1.1052246 43:9.4973831 44:9.5262585 45:-4.8809204 46:12.897888 47:3.7651682 48:-4.3930054 49:14.732285 50:3.234467 51:-5.5205078 52:13.213379 53:1.524116 54:-4.2641602 55:11.00547 56:0.94383526 57:-2.8068848 58:7.6202087 59:0.43378925 60:-1.4452515 61:5.9164276 62:-0.5049696 63:-1.0838013 64:3.6767883 65:0.46776962 66:-1.1949463 67:2.0093536 68:-0.094618797 69:-0.60717773 70:-70.626564 71:-17.910158 72:5.5818481 73:3.4037323 74:-28.540003 75:-7.4729614 76:14.430557 77:3.5338364 78:-3.7276611 79:11.399094 80:2.7555237 81:-2.7675781 82:9.9144669 83:2.7591648 84:-2.2838745 85:8.6753387 86:1.5898762 87:-2.4921265 
1 1:5.9204254 2:1.0355282 3:-2.6130981 4:5.2031555 5:-1.5156956 6:-1.6601563 7:3.2586365 8:-0.77597618 9:-1.6784058 10:1.5916748 11:0.014213562 12:-0.87109375 13:1.157135 14:0.50623322 15:-0.84362793 16:0.3921051 17:0.22501945 18:-0.39880371 19:-0.058105469 20:0.70783615 21:-0.2454834 22:-0.11087036 23:1.6934223 24:-0.34063721 25:-0.58262634 26:-0.044591904 27:0.021118164 28:-0.23352051 29:-0.063583374 30:-0.19299316 31:-0.25212097 32:0.60384369 33:-0.0024414063 34:-0.97399902 35:0.48392868 36:0.1260376 37:-80.568176 38:3.6032448 39:50.837708 40:1.5269928 41:10.384044 42:-1.1052246 43:9.4973831 44:9.5262585 45:-4.8809204 46:12.897888 47:3.7651682 48:-4.3930054 49:14.732285 50:3.234467 51:-5.5205078 52:13.213379 53:1.524116 54:-4.2641602 55:11.00547 56:0.94383526 57:-2.8068848 58:7.6202087 59:0.43378925 60:-1.4452515 61:5.9164276 62:-0.5049696 63:-1.0838013 64:3.6767883 65:0.46776962 66:-1.1949463 67:2.0093536 68:-0.094618797 69:-0.60717773 70:-70.626564 71:-17.910158 72:5.5818481 73:1.4233398 74:8.368001 75:-1.0609131 76:8.5410538 77:3.078229 78:-3.5801392 79:8.7034683 80:-0.040177941 81:-2.9970703 82:11.812233 83:0.79319203 84:-4.1778564 85:17.343094 86:-30.100845 87:-6.9282227 
1 1:10.825912 2:-1.1162111 3:-2.6765747 4:8.3717041 5:0.76934659 6:-2.3699341 7:-8.5588379 8:-30.987318 9:-1.4642944 10:1.5916748 11:0.014213562 12:-0.87109375 13:1.157135 14:0.50623322 15:-0.84362793 16:0.3921051 17:0.22501945 18:-0.39880371 19:-0.058105469 20:0.70783615 21:-0.2454834 22:-0.11087036 23:1.6934223 24:-0.34063721 25:-0.58262634 26:-0.044591904 27:0.021118164 28:-0.23352051 29:-0.063583374 30:-0.19299316 31:-0.25212097 32:0.60384369 33:-0.0024414063 34:-0.97399902 35:0.48392868 36:0.1260376 37:-80.568176 38:3.6032448 39:50.837708 40:1.5269928 41:10.384044 42:-1.1052246 43:9.4973831 44:9.5262585 45:-4.8809204 46:12.897888 47:3.7651682 48:-4.3930054 49:14.732285 50:3.234467 51:-5.5205078 52:13.213379 53:1.524116 54:-4.2641602 55:11.00547 56:0.94383526 57:-2.8068848 58:7.6202087 59:0.43378925 60:-1.4452515 61:5.9164276 62:-0.5049696 63:-1.0838013 64:3.6767883 65:0.46776962 66:-1.1949463 67:2.0093536 68:-0.094618797 69:-0.60717773 70:-70.626564 71:-17.910158 72:5.5818481 73:1.4233398 74:8.368001 75:-1.0609131 76:8.5410538 77:3.078229 78:-3.5801392 79:8.7034683 80:-0.040177941 81:-2.9970703 82:11.812233 83:0.79319203 84:-4.1778564 85:13.590332 86:0.74827337 87:-4.2869263 
1 1:10.825912 2:-1.1162111 3:-2.6765747 4:8.3717041 5:0.76934659 6:-2.3699341 7:6.2522736 8:0.58613843 9:-1.5532837 10:3.1800995 11:-0.74197882 12:-0.58270264 13:3.5658264 14:-1.2035508 15:-0.95043945 16:0.66203308 17:0.008949101 18:-0.26525879 19:-19.136261 20:-28.183573 21:-0.47161865 22:-0.11087036 23:1.6934223 24:-0.34063721 25:-0.58262634 26:-0.044591904 27:0.021118164 28:-0.23352051 29:-0.063583374 30:-0.19299316 31:-0.25212097 32:0.60384369 33:-0.0024414063 34:-0.97399902 35:0.48392868 36:0.1260376 37:-80.568176 38:3.6032448 39:50.837708 40:1.5269928 41:10.384044 42:-1.1052246 43:9.4973831 44:9.5262585 45:-4.8809204 46:12.897888 47:3.7651682 48:-4.3930054 49:14.732285 50:3.234467 51:-5.5205078 52:13.213379 53:1.524116 54:-4.2641602 55:11.00547 56:0.94383526 57:-2.8068848 58:7.6202087 59:0.43378925 60:-1.4452515 61:5.9164276 62:-0.5049696 63:-1.0838013 64:3.6767883 65:0.46776962 66:-1.1949463 67:2.0093536 68:-0.094618797 69:-0.60717773 70:-70.626564 71:-17.910158 72:5.5818481 73:1.4233398 74:8.368001 75:-1.0609131 76:8.5410538 77:3.078229 78:-3.5801392 79:8.7034683 80:-0.040177941 81:-2.9970703 82:11.812233 83:0.79319203 84:-4.1778564 85:13.590332 86:0.74827337 87:-4.2869263 
1 1:10.825912 2:-1.1162111 3:-2.6765747 4:8.3717041 5:0.76934659 6:-2.3699341 7:6.2522736 8:0.58613843 9:-1.5532837 10:3.1800995 11:-0.74197882 12:-0.58270264 13:3.5658264 14:-1.2035508 15:-0.95043945 16:0.66203308 17:0.008949101 18:-0.26525879 19:-148.47296 20:7.4918165 21:49.214294 22:-6.0966015 23:-0.21066618 24:-1.1924438 25:1.3197594 26:-0.40930557 27:-2.5614624 28:0.26516724 29:-4.9437947 30:-3.2543335 31:132.66925 32:-27.922533 33:-43.192627 34:-0.97399902 35:0.48392868 36:0.1260376 37:-80.568176 38:3.6032448 39:50.837708 40:1.5269928 41:10.384044 42:-1.1052246 43:9.4973831 44:9.5262585 45:-4.8809204 46:12.897888 47:3.7651682 48:-4.3930054 49:14.732285 50:3.234467 51:-5.5205078 52:13.213379 53:1.524116 54:-4.2641602 55:11.00547 56:0.94383526 57:-2.8068848 58:7.6202087 59:0.43378925 60:-1.4452515 61:5.9164276 62:-0.5049696 63:-1.0838013 64:3.6767883 65:0.46776962 66:-1.1949463 67:2.0093536 68:-0.094618797 69:-0.60717773 70:-70.626564 71:-17.910158 72:5.5818481 73:1.4233398 74:8.368001 75:-1.0609131 76:8.5410538 77:3.078229 78:-3.5801392 79:8.7034683 80:-0.040177941 81:-2.9970703 82:11.812233 83:0.79319203 84:-4.1778564 85:13.590332 86:0.74827337 87:-4.2869263 
1 1:10.825912 2:-1.1162111 3:-2.6765747 4:8.3717041 5:0.76934659 6:-2.3699341 7:6.2522736 8:0.58613843 9:-1.5532837 10:3.1800995 11:-0.74197882 12:-0.58270264 13:3.5658264 14:-1.2035508 15:-0.95043945 16:0.66203308 17:0.008949101 18:-0.26525879 19:-148.47296 20:7.4918165 21:49.214294 22:-6.0966015 23:-0.21066618 24:-1.1924438 25:1.3197594 26:-0.40930557 27:-2.5614624 28:0.26516724 29:-4.9437947 30:-3.2543335 31:2.2669106 32:-2.8843102 33:-3.8850708 34:1.4184551 35:-2.4728427 36:-3.7523193 37:0.24966431 38:-4.0781169 39:-3.0048218 40:1.7636566 41:-3.9445105 42:-3.2993164 43:56.452759 44:9.4547234 45:15.726501 46:12.897888 47:3.7651682 48:-4.3930054 49:14.732285 50:3.234467 51:-5.5205078 52:13.213379 53:1.524116 54:-4.2641602 55:11.00547 56:0.94383526 57:-2.8068848 58:7.6202087 59:0.43378925 60:-1.4452515 61:5.9164276 62:-0.5049696 63:-1.0838013 64:3.6767883 65:0.46776962 66:-1.1949463 67:2.0093536 68:-0.094618797 69:-0.60717773 70:-70.626564 71:-17.910158 72:5.5818481 73:1.4233398 74:8.368001 75:-1.0609131 76:8.5410538 77:3.078229 78:-3.5801392 79:8.7034683 80:-0.040177941 81:-2.9970703 82:11.812233 83:0.79319203 84:-4.1778564 85:13.590332 86:0.74827337 87:-4.2869263 
1 1:10.825912 2:-1.1162111 3:-2.6765747 4:8.3717041 5:0.76934659 6:-2.3699341 7:6.2522736 8:0.58613843 9:-1.5532837 10:3.1800995 11:-0.74197882 12:-0.58270264 13:3.5658264 14:-1.2035508 15:-0.95043945 16:0.66203308 17:0.008949101 18:-0.26525879 19:-148.47296 20:7.4918165 21:49.214294 22:-6.0966015 23:-0.21066618 24:-1.1924438 25:1.3197594 26:-0.40930557 27:-2.5614624 28:0.26516724 29:-4.9437947 30:-3.2543335 31:2.2669106 32:-2.8843102 33:-3.8850708 34:1.4184551 35:-2.4728427 36:-3.7523193 37:0.24966431 38:-4.0781169 39:-3.0048218 40:1.7636566 41:-3.9445105 42:-3.2993164 43:6.7441292 44:-15.359469 45:-5.5211182 46:7.7093544 47:6.6772289 48:-4.4907837 49:7.1168747 50:6.5022507 51:-3.826416 52:8.8605347 53:3.8453217 54:-2.7096558 55:77.870888 56:17.256977 57:15.289917 58:7.6202087 59:0.43378925 60:-1.4452515 61:5.9164276 62:-0.5049696 63:-1.0838013 64:3.6767883 65:0.46776962 66:-1.1949463 67:2.0093536 68:-0.094618797 69:-0.60717773 70:-70.626564 71:-17.910158 72:5.5818481 73:1.4233398 74:8.368001 75:-1.0609131 76:8.5410538 77:3.078229 78:-3.5801392 79:8.7034683 80:-0.040177941 81:-2.9970703 82:11.812233 83:0.79319203 84:-4.1778564 85:13.590332 86:0.74827337 87:-4.2869263 
1 1:10.825912 2:-1.1162111 3:-2.6765747 4:8.3717041 5:0.76934659 6:-2.3699341 7:6.2522736 8:0.58613843 9:-1.5532837 10:3.1800995 11:-0.74197882 12:-0.58270264 13:3.5658264 14:-1.2035508 15:-0.95043945 16:0.66203308 17:0.008949101 18:-0.26525879 19:-148.47296 20:7.4918165 21:49.214294 22:-6.0966015 23:-0.21066618 24:-1.1924438 25:1.3197594 26:-0.40930557 27:-2.5614624 28:0.26516724 29:-4.9437947 30:-3.2543335 31:2.2669106 32:-2.8843102 33:-3.8850708 34:1.4184551 35:-2.4728427 36:-3.7523193 37:0.24966431 38:-4.0781169 39:-3.0048218 40:1.7636566 41:-3.9445105 42:-3.2993164 43:6.7441292 44:-15.359469 45:-5.5211182 46:7.7093544 47:6.6772289 48:-4.4907837 49:7.1168747 50:6.5022507 51:-3.826416 52:8.8605347 53:3.8453217 54:-2.7096558 55:9.1249771 56:2.8350053 57:-2.6525879 58:9.3808289 59:-0.19251871 60:-1.8317261 61:8.6612549 62:-1.6594782 63:-1.8128052 64:7.3006668 65:-0.59188843 66:-1.77771 67:62.625938 68:17.167828 69:19.033569 70:-70.626564 71:-17.910158 72:5.5818481 73:1.4233398 74:8.368001 75:-1.0609131 76:8.5410538 77:3.078229 78:-3.5801392 79:8.7034683 80:-0.040177941 81:-2.9970703 82:11.812233 83:0.79319203 84:-4.1778564 85:13.590332 86:0.74827337 87:-4.2869263 
1 1:10.825912 2:-1.1162111 3:-2.6765747 4:8.3717041 5:0.76934659 6:-2.3699341 7:6.2522736 8:0.58613843 9:-1.5532837 10:3.1800995 11:-0.74197882 12:-0.58270264 13:3.5658264 14:-1.2035508 15:-0.95043945 16:0.66203308 17:0.008949101 18:-0.26525879 19:-148.47296 20:7.4918165 21:49.214294 22:-6.0966015 23:-0.21066618 24:-1.1924438 25:1.3197594 26:-0.40930557 27:-2.5614624 28:0.26516724 29:-4.9437947 30:-3.2543335 31:2.2669106 32:-2.8843102 33:-3.8850708 34:1.4184551 35:-2.4728427 36:-3.7523193 37:0.24966431 38:-4.0781169 39:-3.0048218 40:1.7636566 41:-3.9445105 42:-3.2993164 43:6.7441292 44:-15.359469 45:-5.5211182 46:7.7093544 47:6.6772289 48:-4.4907837 49:7.1168747 50:6.5022507 51:-3.826416 52:8.8605347 53:3.8453217 54:-2.7096558 55:9.1249771 56:2.8350053 57:-2.6525879 58:9.3808289 59:-0.19251871 60:-1.8317261 61:8.6612549 62:-1.6594782 63:-1.8128052 64:7.3006668 65:-0.59188843 66:-1.77771 67:6.8852844 68:1.1650772 69:-1.616333 70:5.2991791 71:0.01054287 72:-1.4483643 73:3.5195694 74:-0.81071091 75:-1.031311 76:0.93585205 77:-0.28453255 78:-0.57904053 79:-5.9726486 80:10.583345 81:21.652344 82:11.812233 83:0.79319203 84:-4.1778564 85:13.590332 86:0.74827337 87:-4.2869263 
1 1:40.582558 2:8.4330025 3:7.3846436 4:8.3717041 5:0.76934659 6:-2.3699341 7:6.2522736 8:0.58613843 9:-1.5532837 10:3.1800995 11:-0.74197882 12:-0.58270264 13:3.5658264 14:-1.2035508 15:-0.95043945 16:0.66203308 17:0.008949101 18:-0.26525879 19:-148.47296 20:7.4918165 21:49.214294 22:-6.0966015 23:-0.21066618 24:-1.1924438 25:1.3197594 26:-0.40930557 27:-2.5614624 28:0.26516724 29:-4.9437947 30:-3.2543335 31:2.2669106 32:-2.8843102 33:-3.8850708 34:1.4184551 35:-2.4728427 36:-3.7523193 37:0.24966431 38:-4.0781169 39:-3.0048218 40:1.7636566 41:-3.9445105 42:-3.2993164 43:6.7441292 44:-15.359469 45:-5.5211182 46:7.7093544 47:6.6772289 48:-4.4907837 49:7.1168747 50:6.5022507 51:-3.826416 52:8.8605347 53:3.8453217 54:-2.7096558 55:9.1249771 56:2.8350053 57:-2.6525879 58:9.3808289 59:-0.19251871 60:-1.8317261 61:8.6612549 62:-1.6594782 63:-1.8128052 64:7.3006668 65:-0.59188843 66:-1.77771 67:6.8852844 68:1.1650772 69:-1.616333 70:5.2991791 71:0.01054287 72:-1.4483643 73:3.5195694 74:-0.81071091 75:-1.031311 76:0.93585205 77:-0.28453255 78:-0.57904053 79:1.4630814 80:0.027213097 81:-0.6730957 82:0.67391205 83:0.38481522 84:-0.12390137 85:0.53536224 86:0.82406998 87:0.072753906 
1 1:0.39133453 2:-0.48225117 3:0.48522949 4:0.70330048 5:-0.33774471 6:0.23339844 7:0.42844391 8:-0.013303757 9:0.25671387 10:0.85403442 11:0.80840206 12:0.066345215 13:59.575348 14:7.8678555 15:0.88659668 16:0.66203308 17:0.008949101 18:-0.26525879 19:-148.47296 20:7.4918165 21:49.214294 22:-6.0966015 23:-0.21066618 24:-1.1924438 25:1.3197594 26:-0.40930557 27:-2.5614624 28:0.26516724 29:-4.9437947 30:-3.2543335 31:2.2669106 32:-2.8843102 33:-3.8850708 34:1.4184551 35:-2.4728427 36:-3.7523193 37:0.24966431 38:-4.0781169 39:-3.0048218 40:1.7636566 41:-3.9445105 42:-3.2993164 43:6.7441292 44:-15.359469 45:-5.5211182 46:7.7093544 47:6.6772289 48:-4.4907837 49:7.1168747 50:6.5022507 51:-3.826416 52:8.8605347 53:3.8453217 54:-2.7096558 55:9.1249771 56:2.8350053 57:-2.6525879 58:9.3808289 59:-0.19251871 60:-1.8317261 61:8.6612549 62:-1.6594782 63:-1.8128052 64:7.3006668 65:-0.59188843 66:-1.77771 67:6.8852844 68:1.1650772 69:-1.616333 70:5.2991791 71:0.01054287 72:-1.4483643 73:3.5195694 74:-0.81071091 75:-1.031311 76:0.93585205 77:-0.28453255 78:-0.57904053 79:1.4630814 80:0.027213097 81:-0.6730957 82:0.67391205 83:0.38481522 84:-0.12390137 85:0.53536224 86:0.82406998 87:0.072753906 
-0.4806501784510543 1:0.39133453 2:-0.48225117 3:0.48522949 4:0.70330048 5:-0.33774471 6:0.23339844 7:0.42844391 8:-0.013303757 9:0.25671387 10:0.85403442 11:0.80840206 12:0.066345215 13:-0.17079926 14:-0.39416122 15:0.58209229 16:0.50987244 17:0.39052868 18:-0.068603516 19:-0.54341125 20:-0.18353271 21:0.28173828 22:-89.808449 23:118.22224 24:147.42633 25:-2.9996452 26:-103.28642 27:-102.13983 28:0.26516724 29:-4.9437947 30:-3.2543335 31:2.2669106 32:-2.8843102 33:-3.8850708 34:1.4184551 35:-2.4728427 36:-3.7523193 37:0.24966431 38:-4.0781169 39:-3.0048218 40:1.7636566 41:-3.9445105 42:-3.2993164 43:6.7441292 44:-15.359469 45:-5.5211182 46:7.7093544 47:6.6772289 48:-4.4907837 49:7.1168747 50:6.5022507 51:-3.826416 52:8.8605347 53:3.8453217 54:-2.7096558 55:9.1249771 56:2.8350053 57:-2.6525879 58:9.3808289 59:-0.19251871 60:-1.8317261 61:8.6612549 62:-1.6594782 63:-1.8128052 64:7.3006668 65:-0.59188843 66:-1.77771 67:6.8852844 68:1.1650772 69:-1.616333 70:5.2991791 71:0.01054287 72:-1.4483643 73:3.5195694 74:-0.81071091 75:-1.031311 76:0.93585205 77:-0.28453255 78:-0.57904053 79:1.4630814 80:0.027213097 81:-0.6730957 82:0.67391205 83:0.38481522 84:-0.12390137 85:0.53536224 86:0.82406998 87:0.072753906 
-0.4797709460755328 1:0.39133453 2:-0.48225117 3:0.48522949 4:0.70330048 5:-0.33774471 6:0.23339844 7:0.42844391 8:-0.013303757 9:0.25671387 10:0.85403442 11:0.80840206 12:0.066345215 13:-0.17079926 14:-0.39416122 15:0.58209229 16:0.50987244 17:0.39052868 18:-0.068603516 19:-0.54341125 20:-0.18353271 21:0.28173828 22:-89.808449 23:118.22224 24:147.42633 25:6.0751877 26:11.585785 27:-1.7258911 28:7.3083477 29:3.1902084 30:-3.8184204 31:8.9063683 32:0.072235107 33:-4.7012939 34:8.223629 35:0.096595764 36:-4.5614014 37:-29.312981 38:-132.61031 39:-101.22937 40:1.7636566 41:-3.9445105 42:-3.2993164 43:6.7441292 44:-15.359469 45:-5.5211182 46:7.7093544 47:6.6772289 48:-4.4907837 49:7.1168747 50:6.5022507 51:-3.826416 52:8.8605347 53:3.8453217 54:-2.7096558 55:9.1249771 56:2.8350053 57:-2.6525879 58:9.3808289 59:-0.19251871 60:-1.8317261 61:8.6612549 62:-1.6594782 63:-1.8128052 64:7.3006668 65:-0.59188843 66:-1.77771 67:6.8852844 68:1.1650772 69:-1.616333 70:5.2991791 71:0.01054287 72:-1.4483643 73:3.5195694 74:-0.81071091 75:-1.031311 76:0.93585205 77:-0.28453255 78:-0.57904053 79:1.4630814 80:0.027213097 81:-0.6730957 82:0.67391205 83:0.38481522 84:-0.12390137 85:0.53536224 86:0.82406998 87:0.072753906 
-0.4797704362867209 1:0.39133453 2:-0.48225117 3:0.48522949 4:0.70330048 5:-0.33774471 6:0.23339844 7:0.42844391 8:-0.013303757 9:0.25671387 10:0.85403442 11:0.80840206 12:0.066345215 13:-0.17079926 14:-0.39416122 15:0.58209229 16:0.50987244 17:0.39052868 18:-0.068603516 19:-0.54341125 20:-0.18353271 21:0.28173828 22:-89.808449 23:118.22224 24:147.42633 25:6.0751877 26:11.585785 27:-1.7258911 28:7.3083477 29:3.1902084 30:-3.8184204 31:8.9063683 32:0.072235107 33:-4.7012939 34:8.223629 35:0.096595764 36:-4.5614014 37:7.7530327 38:0.49307251 39:-3.7470703 40:8.6566963 41:-1.5774689 42:-3.8309937 43:7.5506058 44:-2.3487549 45:-3.9560547 46:6.599617 47:-3.4704361 48:-3.4458008 49:-36.538918 50:-131.83122 51:-103.38708 52:8.8605347 53:3.8453217 54:-2.7096558 55:9.1249771 56:2.8350053 57:-2.6525879 58:9.3808289 59:-0.19251871 60:-1.8317261 61:8.6612549 62:-1.6594782 63:-1.8128052 64:7.3006668 65:-0.59188843 66:-1.77771 67:6.8852844 68:1.1650772 69:-1.616333 70:5.2991791 71:0.01054287 72:-1.4483643 73:3.5195694 74:-0.81071091 75:-1.031311 76:0.93585205 77:-0.28453255 78:-0.57904053 79:1.4630814 80:0.027213097 81:-0.6730957 82:0.67391205 83:0.38481522 84:-0.12390137 85:0.53536224 86:0.82406998 87:0.072753906 
-0.4797728891418975 1:0.39133453 2:-0.48225117 3:0.48522949 4:0.70330048 5:-0.33774471 6:0.23339844 7:0.42844391 8:-0.013303757 9:0.25671387 10:0.85403442 11:0.80840206 12:0.066345215 13:-0.17079926 14:-0.39416122 15:0.58209229 16:0.50987244 17:0.39052868 18:-0.068603516 19:-0.54341125 20:-0.18353271 21:0.28173828 22:-89.808449 23:118.22224 24:147.42633 25:6.0751877 26:11.585785 27:-1.7258911 28:7.3083477 29:3.1902084 30:-3.8184204 31:8.9063683 32:0.072235107 33:-4.7012939 34:8.223629 35:0.096595764 36:-4.5614014 37:7.7530327 38:0.49307251 39:-3.7470703 40:8.6566963 41:-1.5774689 42:-3.8309937 43:7.5506058 44:-2.3487549 45:-3.9560547 46:6.599617 47:-3.4704361 48:-3.4458008 49:5.9019852 50:-5.4321213 51:-3.1133423 52:5.3064499 53:-3.5373459 54:-3.5049438 55:5.6136017 56:-4.8316422 57:-3.795105 58:3.392662 59:-4.9523239 60:-3.5963745 61:-20.726021 62:-108.24946 63:-98.384094 64:7.3006668 65:-0.59188843 66:-1.77771 67:6.8852844 68:1.1650772 69:-1.616333 70:5.2991791 71:0.01054287 72:-1.4483643 73:3.5195694 74:-0.81071091 75:-1.031311 76:0.93585205 77:-0.28453255 78:-0.57904053 79:1.4630814 80:0.027213097 81:-0.6730957 82:0.67391205 83:0.38481522 84:-0.12390137 85:0.53536224 86:0.82406998 87:0.072753906 
-0.4806575723668226 1:0.39133453 2:-0.48225117 3:0.48522949 4:0.70330048 5:-0.33774471 6:0.23339844 7:0.42844391 8:-0.013303757 9:0.25671387 10:0.85403442 11:0.80840206 12:0.066345215 13:-0.17079926 14:-0.39416122 15:0.58209229 16:0.50987244 17:0.39052868 18:-0.068603516 19:-0.54341125 20:-0.18353271 21:0.28173828 22:-89.808449 23:118.22224 24:147.42633 25:6.0751877 26:11.585785 27:-1.7258911 28:7.3083477 29:3.1902084 30:-3.8184204 31:8.9063683 32:0.072235107 33:-4.7012939 34:8.223629 35:0.096595764 36:-4.5614014 37:7.7530327 38:0.49307251 39:-3.7470703 40:8.6566963 41:-1.5774689 42:-3.8309937 43:7.5506058 44:-2.3487549 45:-3.9560547 46:6.599617 47:-3.4704361 48:-3.4458008 49:5.9019852 50:-5.4321213 51:-3.1133423 52:5.3064499 53:-3.5373459 54:-3.5049438 55:5.6136017 56:-4.8316422 57:-3.795105 58:3.392662 59:-4.9523239 60:-3.5963745 61:3.1467514 62:-5.7576294 63:-3.3115845 64:4.056221 65:-6.3577194 66:-3.5449219 67:3.7572937 68:-6.8274841 69:-3.788147 70:3.7997818 71:-8.8194046 72:-3.3254395 73:-12.481369 74:-80.714203 75:-90.28772 76:0.93585205 77:-0.28453255 78:-0.57904053 79:1.4630814 80:0.027213097 81:-0.6730957 82:0.67391205 83:0.38481522 84:-0.12390137 85:0.53536224 86:0.82406998 87:0.072753906 
-0.4806575723668226 1:0.39133453 2:-0.48225117 3:0.48522949 4:0.70330048 5:-0.33774471 6:0.23339844 7:0.42844391 8:-0.013303757 9:0.25671387 10:0.85403442 11:0.80840206 12:0.066345215 13:-0.17079926 14:-0.39416122 15:0.58209229 16:0.50987244 17:0.39052868 18:-0.068603516 19:-0.54341125 20:-0.18353271 21:0.28173828 22:-89.808449 23:118.22224 24:147.42633 25:6.0751877 26:11.585785 27:-1.7258911 28:7.3083477 29:3.1902084 30:-3.8184204 31:8.9063683 32:0.072235107 33:-4.7012939 34:8.223629 35:0.096595764 36:-4.5614014 37:7.7530327 38:0.49307251 39:-3.7470703 40:8.6566963 41:-1.5774689 42:-3.8309937 43:7.5506058 44:-2.3487549 45:-3.9560547 46:6.599617 47:-3.4704361 48:-3.4458008 49:5.9019852 50:-5.4321213 51:-3.1133423 52:5.3064499 53:-3.5373459 54:-3.5049438 55:5.6136017 56:-4.8316422 57:-3.795105 58:3.392662 59:-4.9523239 60:-3.5963745 61:3.1467514 62:-5.7576294 63:-3.3115845 64:4.056221 65:-6.3577194 66:-3.5449219 67:3.7572937 68:-6.8274841 69:-3.788147 70:3.7997818 71:-8.8194046 72:-3.3254395 73:3.5466995 74:-4.870369 75:-3.3222046 76:3.1652908 77:-5.5148582 78:-3.8464355 79:1.5271301 80:-3.3272476 81:-4.1229248 82:2.0301056 83:-7.5934067 84:-3.5952148 85:-19.142387 86:-58.456753 87:-76.704224 
-0.4797788650813018 1:1.8409882 2:-11.86516 3:-2.4606934 4:0.79821777 5:-11.037701 6:-1.8823242 7:-24.993271 8:-16.689678 9:-64.844299 10:0.85403442 11:0.80840206 12:0.066345215 13:-0.17079926 14:-0.39416122 15:0.58209229 16:0.50987244 17:0.39052868 18:-0.068603516 19:-0.54341125 20:-0.18353271 21:0.28173828 22:-89.808449 23:118.22224 24:147.42633 25:6.0751877 26:11.585785 27:-1.7258911 28:7.3083477 29:3.1902084 30:-3.8184204 31:8.9063683 32:0.072235107 33:-4.7012939 34:8.223629 35:0.096595764 36:-4.5614014 37:7.7530327 38:0.49307251 39:-3.7470703 40:8.6566963 41:-1.5774689 42:-3.8309937 43:7.5506058 44:-2.3487549 45:-3.9560547 46:6.599617 47:-3.4704361 48:-3.4458008 49:5.9019852 50:-5.4321213 51:-3.1133423 52:5.3064499 53:-3.5373459 54:-3.5049438 55:5.6136017 56:-4.8316422 57:-3.795105 58:3.392662 59:-4.9523239 60:-3.5963745 61:3.1467514 62:-5.7576294 63:-3.3115845 64:4.056221 65:-6.3577194 66:-3.5449219 67:3.7572937 68:-6.8274841 69:-3.788147 70:3.7997818 71:-8.8194046 72:-3.3254395 73:3.5466995 74:-4.870369 75:-3.3222046 76:3.1652908 77:-5.5148582 78:-3.8464355 79:1.5271301 80:-3.3272476 81:-4.1229248 82:2.0301056 83:-7.5934067 84:-3.5952148 85:2.9119415 86:-8.9757004 87:-3.5773315 
-0.4806567035361923 1:1.8409882 2:-11.86516 3:-2.4606934 4:0.79821777 5:-11.037701 6:-1.8823242 7:-0.074874878 8:-9.6566648 9:-1.8739014 10:-2.4356537 11:-8.7885494 12:-1.7178345 13:-2.7434692 14:-7.9733353 15:-1.2492065 16:-5.0231323 17:-6.3020782 18:-0.84289551 19:-14.066444 20:16.652187 21:-58.298889 22:-89.808449 23:118.22224 24:147.42633 25:6.0751877 26:11.585785 27:-1.7258911 28:7.3083477 29:3.1902084 30:-3.8184204 31:8.9063683 32:0.072235107 33:-4.7012939 34:8.223629 35:0.096595764 36:-4.5614014 37:7.7530327 38:0.49307251 39:-3.7470703 40:8.6566963 41:-1.5774689 42:-3.8309937 43:7.5506058 44:-2.3487549 45:-3.9560547 46:6.599617 47:-3.4704361 48:-3.4458008 49:5.9019852 50:-5.4321213 51:-3.1133423 52:5.3064499 53:-3.5373459 54:-3.5049438 55:5.6136017 56:-4.8316422 57:-3.795105 58:3.392662 59:-4.9523239 60:-3.5963745 61:3.1467514 62:-5.7576294 63:-3.3115845 64:4.056221 65:-6.3577194 66:-3.5449219 67:3.7572937 68:-6.8274841 69:-3.788147 70:3.7997818 71:-8.8194046 72:-3.3254395 73:3.5466995 74:-4.870369 75:-3.3222046 76:3.1652908 77:-5.5148582 78:-3.8464355 79:1.5271301 80:-3.3272476 81:-4.1229248 82:2.0301056 83:-7.5934067 84:-3.5952148 85:2.9119415 86:-8.9757004 87:-3.5773315 
-0.4806558809396015 1:1.8409882 2:-11.86516 3:-2.4606934 4:0.79821777 5:-11.037701 6:-1.8823242 7:-0.074874878 8:-9.6566648 9:-1.8739014 10:-2.4356537 11:-8.7885494 12:-1.7178345 13:-2.7434692 14:-7.9733353 15:-1.2492065 16:-5.0231323 17:-6.3020782 18:-0.84289551 19:-7.3220596 20:-6.3596153 21:-0.56207275 22:-11.278229 23:-6.3519459 24:0.53564453 25:-14.295517 26:-4.0486984 27:1.2003784 28:-14.933205 29:-3.1484871 30:0.76239014 31:-33.755978 32:169.63139 33:76.945496 34:8.223629 35:0.096595764 36:-4.5614014 37:7.7530327 38:0.49307251 39:-3.7470703 40:8.6566963 41:-1.5774689 42:-3.8309937 43:7.5506058 44:-2.3487549 45:-3.9560547 46:6.599617 47:-3.4704361 48:-3.4458008 49:5.9019852 50:-5.4321213 51:-3.1133423 52:5.3064499 53:-3.5373459 54:-3.5049438 55:5.6136017 56:-4.8316422 57:-3.795105 58:3.392662 59:-4.9523239 60:-3.5963745 61:3.1467514 62:-5.7576294 63:-3.3115845 64:4.056221 65:-6.3577194 66:-3.5449219 67:3.7572937 68:-6.8274841 69:-3.788147 70:3.7997818 71:-8.8194046 72:-3.3254395 73:3.5466995 74:-4.870369 75:-3.3222046 76:3.1652908 77:-5.5148582 78:-3.8464355 79:1.5271301 80:-3.3272476 81:-4.1229248 82:2.0301056 83:-7.5934067 84:-3.5952148 85:2.9119415 86:-8.9757004 87:-3.5773315 
-0.4806501784510543 1:1.8409882 2:-11.86516 3:-2.4606934 4:0.79821777 5:-11.037701 6:-1.8823242 7:-0.074874878 8:-9.6566648 9:-1.8739014 10:-2.4356537 11:-8.7885494 12:-1.7178345 13:-2.7434692 14:-7.9733353 15:-1.2492065 16:-5.0231323 17:-6.3020782 18:-0.84289551 19:-7.3220596 20:-6.3596153 21:-0.56207275 22:-11.278229 23:-6.3519459 24:0.53564453 25:-14.295517 26:-4.0486984 27:1.2003784 28:-14.933205 29:-3.1484871 30:0.76239014 31:-13.620003 32:-3.5817909 33:-0.16223145 34:-14.317665 35:-2.3726082 36:-0.035644531 37:-12.771183 38:-3.4644127 39:0.14099121 40:-13.047388 41:-2.6222229 42:0.4251709 43:52.184227 44:178.33588 45:60.481689 46:6.599617 47:-3.4704361 48:-3.4458008 49:5.9019852 50:-5.4321213 51:-3.1133423 52:5.3064499 53:-3.5373459 54:-3.5049438 55:5.6136017 56:-4.8316422 57:-3.795105 58:3.392662 59:-4.9523239 60:-3.5963745 61:3.1467514 62:-5.7576294 63:-3.3115845 64:4.056221 65:-6.3577194 66:-3.5449219 67:3.7572937 68:-6.8274841 69:-3.788147 70:3.7997818 71:-8.8194046 72:-3.3254395 73:3.5466995 74:-4.870369 75:-3.3222046 76:3.1652908 77:-5.5148582 78:-3.8464355 79:1.5271301 80:-3.3272476 81:-4.1229248 82:2.0301056 83:-7.5934067 84:-3.5952148 85:2.9119415 86:-8.9757004 87:-3.5773315 
-0.4806555176401352 1:1.8409882 2:-11.86516 3:-2.4606934 4:0.79821777 5:-11.037701 6:-1.8823242 7:-0.074874878 8:-9.6566648 9:-1.8739014 10:-2.4356537 11:-8.7885494 12:-1.7178345 13:-2.7434692 14:-7.9733353 15:-1.2492065 16:-5.0231323 17:-6.3020782 18:-0.84289551 19:-7.3220596 20:-6.3596153 21:-0.56207275 22:-11.278229 23:-6.3519459 24:0.53564453 25:-14.295517 26:-4.0486984 27:1.2003784 28:-14.933205 29:-3.1484871 30:0.76239014 31:-13.620003 32:-3.5817909 33:-0.16223145 34:-14.317665 35:-2.3726082 36:-0.035644531 37:-12.771183 38:-3.4644127 39:0.14099121 40:-13.047388 41:-2.6222229 42:0.4251709 43:-12.928485 44:1.341217 45:0.03503418 46:-12.147363 47:1.9131699 48:0.30389404 49:-11.182397 50:4.157093 51:0.38604736 52:-10.641385 53:4.0242195 54:0.77154541 55:122.50551 56:149.62863 57:45.125977 58:3.392662 59:-4.9523239 60:-3.5963745 61:3.1467514 62:-5.7576294 63:-3.3115845 64:4.056221 65:-6.3577194 66:-3.5449219 67:3.7572937 68:-6.8274841 69:-3.788147 70:3.7997818 71:-8.8194046 72:-3.3254395 73:3.5466995 74:-4.870369 75:-3.3222046 76:3.1652908 77:-5.5148582 78:-3.8464355 79:1.5271301 80:-3.3272476 81:-4.1229248 82:2.0301056 83:-7.5934067 84:-3.5952148 85:2.9119415 86:-8.9757004 87:-3.5773315 
-0.4806466912987724 1:1.8409882 2:-11.86516 3:-2.4606934 4:0.79821777 5:-11.037701 6:-1.8823242 7:-0.074874878 8:-9.6566648 9:-1.8739014 10:-2.4356537 11:-8.7885494 12:-1.7178345 13:-2.7434692 14:-7.9733353 15:-1.2492065 16:-5.0231323 17:-6.3020782 18:-0.84289551 19:-7.3220596 20:-6.3596153 21:-0.56207275 22:-11.278229 23:-6.3519459 24:0.53564453 25:-14.295517 26:-4.0486984 27:1.2003784 28:-14.933205 29:-3.1484871 30:0.76239014 31:-13.620003 32:-3.5817909 33:-0.16223145 34:-14.317665 35:-2.3726082 36:-0.035644531 37:-12.771183 38:-3.4644127 39:0.14099121 40:-13.047388 41:-2.6222229 42:0.4251709 43:-12.928485 44:1.341217 45:0.03503418 46:-12.147363 47:1.9131699 48:0.30389404 49:-11.182397 50:4.157093 51:0.38604736 52:-10.641385 53:4.0242195 54:0.77154541 55:-9.23452 56:5.5609322 57:0.48577881 58:-8.3681259 59:1.9121552 60:1.5333252 61:-7.0653458 62:3.8646927 63:0.62371826 64:-5.135788 65:8.2507935 66:-0.9630127 67:166.66222 68:106.1449 69:29.205139 70:3.7997818 71:-8.8194046 72:-3.3254395 73:3.5466995 74:-4.870369 75:-3.3222046 76:3.1652908 77:-5.5148582 78:-3.8464355 79:1.5271301 80:-3.3272476 81:-4.1229248 82:2.0301056 83:-7.5934067 84:-3.5952148 85:2.9119415 86:-8.9757004 87:-3.5773315 
-0.4797739198008292 1:1.8409882 2:-11.86516 3:-2.4606934 4:0.79821777 5:-11.037701 6:-1.8823242 7:-0.074874878 8:-9.6566648 9:-1.8739014 10:-2.4356537 11:-8.7885494 12:-1.7178345 13:-2.7434692 14:-7.9733353 15:-1.2492065 16:-5.0231323 17:-6.3020782 18:-0.84289551 19:-7.3220596 20:-6.3596153 21:-0.56207275 22:-11.278229 23:-6.3519459 24:0.53564453 25:-14.295517 26:-4.0486984 27:1.2003784 28:-14.933205 29:-3.1484871 30:0.76239014 31:-13.620003 32:-3.5817909 33:-0.16223145 34:-14.317665 35:-2.3726082 36:-0.035644531 37:-12.771183 38:-3.4644127 39:0.14099121 40:-13.047388 41:-2.6222229 42:0.4251709 43:-12.928485 44:1.341217 45:0.03503418 46:-12.147363 47:1.9131699 48:0.30389404 49:-11.182397 50:4.157093 51:0.38604736 52:-10.641385 53:4.0242195 54:0.77154541 55:-9.23452 56:5.5609322 57:0.48577881 58:-8.3681259 59:1.9121552 60:1.5333252 61:-7.0653458 62:3.8646927 63:0.62371826 64:-5.135788 65:8.2507935 66:-0.9630127 67:-5.9113846 68:6.7404175 69:-0.34912109 70:-4.7356148 71:8.4624357 72:-0.27331543 73:-3.5535698 74:10.310012 75:-0.65966797 76:-3.3795471 77:9.3133106 78:0.37310791 79:196.28123 80:48.786846 81:15.497131 82:2.0301056 83:-7.5934067 84:-3.5952148 85:2.9119415 86:-8.9757004 87:-3.5773315 
-0.4797704362867209 1:204.14149 2:-27.425137 3:5.8070068 4:0.79821777 5:-11.037701 6:-1.8823242 7:-0.074874878 8:-9.6566648 9:-1.8739014 10:-2.4356537 11:-8.7885494 12:-1.7178345 13:-2.7434692 14:-7.9733353 15:-1.2492065 16:-5.0231323 17:-6.3020782 18:-0.84289551 19:-7.3220596 20:-6.3596153 21:-0.56207275 22:-11.278229 23:-6.3519459 24:0.53564453 25:-14.295517 26:-4.0486984 27:1.2003784 28:-14.933205 29:-3.1484871 30:0.76239014 31:-13.620003 32:-3.5817909 33:-0.16223145 34:-14.317665 35:-2.3726082 36:-0.035644531 37:-12.771183 38:-3.4644127 39:0.14099121 40:-13.047388 41:-2.6222229 42:0.4251709 43:-12.928485 44:1.341217 45:0.03503418 46:-12.147363 47:1.9131699 48:0.30389404 49:-11.182397 50:4.157093 51:0.38604736 52:-10.641385 53:4.0242195 54:0.77154541 55:-9.23452 56:5.5609322 57:0.48577881 58:-8.3681259 59:1.9121552 60:1.5333252 61:-7.0653458 62:3.8646927 63:0.62371826 64:-5.135788 65:8.2507935 66:-0.9630127 67:-5.9113846 68:6.7404175 69:-0.34912109 70:-4.7356148 71:8.4624357 72:-0.27331543 73:-3.5535698 74:10.310012 75:-0.65966797 76:-3.3795471 77:9.3133106 78:0.37310791 79:-2.0665436 80:11.42304 81:-0.48901367 82:-0.82909393 83:9.5458984 84:-0.42059326 85:2.0320969 86:8.6644726 87:-1.413208 
-0.4797702099409469 1:4.8897362 2:6.1894302 3:-0.88616943 4:6.290123 5:8.1697464 6:-0.65087891 7:7.6326675 8:8.9548264 9:-0.1126709 10:6.9836235 11:8.3071365 12:1.0743408 13:173.88956 14:-96.502525 15:-0.34088135 16:-5.0231323 17:-6.3020782 18:-0.84289551 19:-7.3220596 20:-6.3596153 21:-0.56207275 22:-11.278229 23:-6.3519459 24:0.53564453 25:-14.295517 26:-4.0486984 27:1.2003784 28:-14.933205 29:-3.1484871 30:0.76239014 31:-13.620003 32:-3.5817909 33:-0.16223145 34:-14.317665 35:-2.3726082 36:-0.035644531 37:-12.771183 38:-3.4644127 39:0.14099121 40:-13.047388 41:-2.6222229 42:0.4251709 43:-12.928485 44:1.341217 45:0.03503418 46:-12.147363 47:1.9131699 48:0.30389404 49:-11.182397 50:4.157093 51:0.38604736 52:-10.641385 53:4.0242195 54:0.77154541 55:-9.23452 56:5.5609322 57:0.48577881 58:-8.3681259 59:1.9121552 60:1.5333252 61:-7.0653458 62:3.8646927 63:0.62371826 64:-5.135788 65:8.2507935 66:-0.9630127 67:-5.9113846 68:6.7404175 69:-0.34912109 70:-4.7356148 71:8.4624357 72:-0.27331543 73:-3.5535698 74:10.310012 75:-0.65966797 76:-3.3795471 77:9.3133106 78:0.37310791 79:-2.0665436 80:11.42304 81:-0.48901367 82:-0.82909393 83:9.5458984 84:-0.42059326 85:2.0320969 86:8.6644726 87:-1.413208 
-0.4797704362867853 1:4.8897362 2:6.1894302 3:-0.88616943 4:6.290123 5:8.1697464 6:-0.65087891 7:7.6326675 8:8.9548264 9:-0.1126709 10:6.9836235 11:8.3071365 12:1.0743408 13:7.8555832 14:7.2200165 15:1.5869141 16:6.9972229 17:6.3252945 18:2.0971069 19:9.1418018 20:6.3996658 21:1.2606201 22:8.1828213 23:6.0179749 24:2.0126343 25:103.7932 26:-145.52782 27:-6.9671021 28:-14.933205 29:-3.1484871 30:0.76239014 31:-13.620003 32:-3.5817909 33:-0.16223145 34:-14.317665 35:-2.3726082 36:-0.035644531 37:-12.771183 38:-3.4644127 39:0.14099121 40:-13.047388 41:-2.6222229 42:0.4251709 43:-12.928485 44:1.341217 45:0.03503418 46:-12.147363 47:1.9131699 48:0.30389404 49:-11.182397 50:4.157093 51:0.38604736 52:-10.641385 53:4.0242195 54:0.77154541 55:-9.23452 56:5.5609322 57:0.48577881 58:-8.3681259 59:1.9121552 60:1.5333252 61:-7.0653458 62:3.8646927 63:0.62371826 64:-5.135788 65:8.2507935 66:-0.9630127 67:-5.9113846 68:6.7404175 69:-0.34912109 70:-4.7356148 71:8.4624357 72:-0.27331543 73:-3.5535698 74:10.310012 75:-0.65966797 76:-3.3795471 77:9.3133106 78:0.37310791 79:-2.0665436 80:11.42304 81:-0.48901367 82:-0.82909393 83:9.5458984 84:-0.42059326 85:2.0320969 86:8.6644726 87:-1.413208 
-0.4797728891418974 1:4.8897362 2:6.1894302 3:-0.88616943 4:6.290123 5:8.1697464 6:-0.65087891 7:7.6326675 8:8.9548264 9:-0.1126709 10:6.9836235 11:8.3071365 12:1.0743408 13:7.8555832 14:7.2200165 15:1.5869141 16:6.9972229 17:6.3252945 18:2.0971069 19:9.1418018 20:6.3996658 21:1.2606201 22:8.1828213 23:6.0179749 24:2.0126343 25:8.2573805 26:3.728653 27:2.0171509 28:7.3415403 29:2.2996445 30:1.4460449 31:8.0313568 32:2.5148621 33:1.3276367 34:6.7746181 35:2.5459976 36:1.8634644 37:17.746246 38:-169.18427 39:-12.915894 40:-13.047388 41:-2.6222229 42:0.4251709 43:-12.928485 44:1.341217 45:0.03503418 46:-12.147363 47:1.9131699 48:0.30389404 49:-11.182397 50:4.157093 51:0.38604736 52:-10.641385 53:4.0242195 54:0.77154541 55:-9.23452 56:5.5609322 57:0.48577881 58:-8.3681259 59:1.9121552 60:1.5333252 61:-7.0653458 62:3.8646927 63:0.62371826 64:-5.135788 65:8.2507935 66:-0.9630127 67:-5.9113846 68:6.7404175 69:-0.34912109 70:-4.7356148 71:8.4624357 72:-0.27331543 73:-3.5535698 74:10.310012 75:-0.65966797 76:-3.3795471 77:9.3133106 78:0.37310791 79:-2.0665436 80:11.42304 81:-0.48901367 82:-0.82909393 83:9.5458984 84:-0.42059326 85:2.0320969 86:8.6644726 87:-1.413208 
-0.4797702099366041 1:4.8897362 2:6.1894302 3:-0.88616943 4:6.290123 5:8.1697464 6:-0.65087891 7:7.6326675 8:8.9548264 9:-0.1126709 10:6.9836235 11:8.3071365 12:1.0743408 13:7.8555832 14:7.2200165 15:1.5869141 16:6.9972229 17:6.3252945 18:2.0971069 19:9.1418018 20:6.3996658 21:1.2606201 22:8.1828213 23:6.0179749 24:2.0126343 25:8.2573805 26:3.728653 27:2.0171509 28:7.3415403 29:2.2996445 30:1.4460449 31:8.0313568 32:2.5148621 33:1.3276367 34:6.7746181 35:2.5459976 36:1.8634644 37:6.1790066 38:2.6477509 39:2.2086792 40:5.9595852 41:0.07598877 42:1.5629272 43:5.9052963 44:1.4288712 45:0.93255615 46:4.6835709 47:0.82942963 48:1.1686401 49:-54.286846 50:-169.37706 51:-17.63855 52:-10.641385 53:4.0242195 54:0.77154541 55:-9.23452 56:5.5609322 57:0.48577881 58:-8.3681259 59:1.9121552 60:1.5333252 61:-7.0653458 62:3.8646927 63:0.62371826 64:-5.135788 65:8.2507935 66:-0.9630127 67:-5.9113846 68:6.7404175 69:-0.34912109 70:-4.7356148 71:8.4624357 72:-0.27331543 73:-3.5535698 74:10.310012 75:-0.65966797 76:-3.3795471 77:9.3133106 78:0.37310791 79:-2.0665436 80:11.42304 81:-0.48901367 82:-0.82909393 83:9.5458984 84:-0.42059326 85:2.0320969 86:8.6644726 87:-1.413208 
-0.4806572289166937 1:4.8897362 2:6.1894302 3:-0.88616943 4:6.290123 5:8.1697464 6:-0.65087891 7:7.6326675 8:8.9548264 9:-0.1126709 10:6.9836235 11:8.3071365 12:1.0743408 13:7.8555832 14:7.2200165 15:1.5869141 16:6.9972229 17:6.3252945 18:2.0971069 19:9.1418018 20:6.3996658 21:1.2606201 22:8.1828213 23:6.0179749 24:2.0126343 25:8.2573805 26:3.728653 27:2.0171509 28:7.3415403 29:2.2996445 30:1.4460449 31:8.0313568 32:2.5148621 33:1.3276367 34:6.7746181 35:2.5459976 36:1.8634644 37:6.1790066 38:2.6477509 39:2.2086792 40:5.9595852 41:0.07598877 42:1.5629272 43:5.9052963 44:1.4288712 45:0.93255615 46:4.6835709 47:0.82942963 48:1.1686401 49:8.6206665 50:-2.977005 51:2.7224731 52:0.8442955 53:9.5593033 54:1.1641235 55:1.5257912 56:3.0059738 57:-0.52624512 58:1.7167435 59:-1.1593094 60:-0.83056641 61:-102.30372 62:-162.44402 63:-16.753967 64:-5.135788 65:8.2507935 66:-0.9630127 67:-5.9113846 68:6.7404175 69:-0.34912109 70:-4.7356148 71:8.4624357 72:-0.27331543 73:-3.5535698 74:10.310012 75:-0.65966797 76:-3.3795471 77:9.3133106 78:0.37310791 79:-2.0665436 80:11.42304 81:-0.48901367 82:-0.82909393 83:9.5458984 84:-0.42059326 85:2.0320969 86:8.6644726 87:-1.413208 
-0.4806575723668226 1:4.8897362 2:6.1894302 3:-0.88616943 4:6.290123 5:8.1697464 6:-0.65087891 7:7.6326675 8:8.9548264 9:-0.1126709 10:6.9836235 11:8.3071365 12:1.0743408 13:7.8555832 14:7.2200165 15:1.5869141 16:6.9972229 17:6.3252945 18:2.0971069 19:9.1418018 20:6.3996658 21:1.2606201 22:8.1828213 23:6.0179749 24:2.0126343 25:8.2573805 26:3.728653 27:2.0171509 28:7.3415403 29:2.2996445 30:1.4460449 31:8.0313568 32:2.5148621 33:1.3276367 34:6.7746181 35:2.5459976 36:1.8634644 37:6.1790066 38:2.6477509 39:2.2086792 40:5.9595852 41:0.07598877 42:1.5629272 43:5.9052963 44:1.4288712 45:0.93255615 46:4.6835709 47:0.82942963 48:1.1686401 49:8.6206665 50:-2.977005 51:2.7224731 52:0.8442955 53:9.5593033 54:1.1641235 55:1.5257912 56:3.0059738 57:-0.52624512 58:1.7167435 59:-1.1593094 60:-0.83056641 61:1.7755814 62:-1.8490372 63:-0.65722656 64:3.3601456 65:0.56678772 66:-1.2433472 67:3.9145355 68:1.8165283 69:-1.3032837 70:5.9859619 71:1.9255981 72:-2.2064819 73:-136.6763 74:-131.14024 75:-13.588745 76:-3.3795471 77:9.3133106 78:0.37310791 79:-2.0665436 80:11.42304 81:-0.48901367 82:-0.82909393 83:9.5458984 84:-0.42059326 85:2.0320969 86:8.6644726 87:-1.413208 
-0.4806453024443545 1:4.8897362 2:6.1894302 3:-0.88616943 4:6.290123 5:8.1697464 6:-0.65087891 7:7.6326675 8:8.9548264 9:-0.1126709 10:6.9836235 11:8.3071365 12:1.0743408 13:7.8555832 14:7.2200165 15:1.5869141 16:6.9972229 17:6.3252945 18:2.0971069 19:9.1418018 20:6.3996658 21:1.2606201 22:8.1828213 23:6.0179749 24:2.0126343 25:8.2573805 26:3.728653 27:2.0171509 28:7.3415403 29:2.2996445 30:1.4460449 31:8.0313568 32:2.5148621 33:1.3276367 34:6.7746181 35:2.5459976 36:1.8634644 37:6.1790066 38:2.6477509 39:2.2086792 40:5.9595852 41:0.07598877 42:1.5629272 43:5.9052963 44:1.4288712 45:0.93255615 46:4.6835709 47:0.82942963 48:1.1686401 49:8.6206665 50:-2.977005 51:2.7224731 52:0.8442955 53:9.5593033 54:1.1641235 55:1.5257912 56:3.0059738 57:-0.52624512 58:1.7167435 59:-1.1593094 60:-0.83056641 61:1.7755814 62:-1.8490372 63:-0.65722656 64:3.3601456 65:0.56678772 66:-1.2433472 67:3.9145355 68:1.8165283 69:-1.3032837 70:5.9859619 71:1.9255981 72:-2.2064819 73:6.8733521 74:2.2226105 75:-3.2225952 76:8.4453735 77:1.2741241 78:-3.8502808 79:8.4588242 80:-1.7447968 81:-4.5656738 82:8.100647 83:-5.0342026 84:-4.8125 85:-172.79758 86:-88.911255 87:0.91259766 
-0.4806553123343605 1:4.7160339 2:-9.0465851 3:-6.0424194 4:2.7449341 5:-9.3106461 6:-6.1401978 7:-172.90553 8:-25.021942 9:22.351563 10:6.9836235 11:8.3071365 12:1.0743408 13:7.8555832 14:7.2200165 15:1.5869141 16:6.9972229 17:6.3252945 18:2.0971069 19:9.1418018 20:6.3996658 21:1.2606201 22:8.1828213 23:6.0179749 24:2.0126343 25:8.2573805 26:3.728653 27:2.0171509 28:7.3415403 29:2.2996445 30:1.4460449 31:8.0313568 32:2.5148621 33:1.3276367 34:6.7746181 35:2.5459976 36:1.8634644 37:6.1790066 38:2.6477509 39:2.2086792 40:5.9595852 41:0.07598877 42:1.5629272 43:5.9052963 44:1.4288712 45:0.93255615 46:4.6835709 47:0.82942963 48:1.1686401 49:8.6206665 50:-2.977005 51:2.7224731 52:0.8442955 53:9.5593033 54:1.1641235 55:1.5257912 56:3.0059738 57:-0.52624512 58:1.7167435 59:-1.1593094 60:-0.83056641 61:1.7755814 62:-1.8490372 63:-0.65722656 64:3.3601456 65:0.56678772 66:-1.2433472 67:3.9145355 68:1.8165283 69:-1.3032837 70:5.9859619 71:1.9255981 72:-2.2064819 73:6.8733521 74:2.2226105 75:-3.2225952 76:8.4453735 77:1.2741241 78:-3.8502808 79:8.4588242 80:-1.7447968 81:-4.5656738 82:8.100647 83:-5.0342026 84:-4.8125 85:7.2071686 86:-6.5049438 87:-5.5623169 
-0.480658521160898 1:4.7160339 2:-9.0465851 3:-6.0424194 4:2.7449341 5:-9.3106461 6:-6.1401978 7:2.5383453 8:-12.313477 9:-6.0776978 10:-0.72386932 11:-12.584427 12:-5.4802856 13:-1.2046967 14:-14.34481 15:-4.5158081 16:-1.0631714 17:-9.1523628 18:-3.3532104 19:-141.47391 20:51.625248 21:47.797546 22:8.1828213 23:6.0179749 24:2.0126343 25:8.2573805 26:3.728653 27:2.0171509 28:7.3415403 29:2.2996445 30:1.4460449 31:8.0313568 32:2.5148621 33:1.3276367 34:6.7746181 35:2.5459976 36:1.8634644 37:6.1790066 38:2.6477509 39:2.2086792 40:5.9595852 41:0.07598877 42:1.5629272 43:5.9052963 44:1.4288712 45:0.93255615 46:4.6835709 47:0.82942963 48:1.1686401 49:8.6206665 50:-2.977005 51:2.7224731 52:0.8442955 53:9.5593033 54:1.1641235 55:1.5257912 56:3.0059738 57:-0.52624512 58:1.7167435 59:-1.1593094 60:-0.83056641 61:1.7755814 62:-1.8490372 63:-0.65722656 64:3.3601456 65:0.56678772 66:-1.2433472 67:3.9145355 68:1.8165283 69:-1.3032837 70:5.9859619 71:1.9255981 72:-2.2064819 73:6.8733521 74:2.2226105 75:-3.2225952 76:8.4453735 77:1.2741241 78:-3.8502808 79:8.4588242 80:-1.7447968 81:-4.5656738 82:8.100647 83:-5.0342026 84:-4.8125 85:7.2071686 86:-6.5049438 87:-5.5623169 
-0.4806575723668227 1:4.7160339 2:-9.0465851 3:-6.0424194 4:2.7449341 5:-9.3106461 6:-6.1401978 7:2.5383453 8:-12.313477 9:-6.0776978 10:-0.72386932 11:-12.584427 12:-5.4802856 13:-1.2046967 14:-14.34481 15:-4.5158081 16:-1.0631714 17:-9.1523628 18:-3.3532104 19:-3.3647003 20:-7.0541306 21:-3.2802734 22:-6.1466446 23:-11.45414 24:-1.411377 25:-6.9326782 26:-8.359745 27:-0.59838867 28:-8.5156021 29:-6.563591 30:-1.0437622 31:-84.701187 32:99.617989 33:60.934814 34:6.7746181 35:2.5459976 36:1.8634644 37:6.1790066 38:2.6477509 39:2.2086792 40:5.9595852 41:0.07598877 42:1.5629272 43:5.9052963 44:1.4288712 45:0.93255615 46:4.6835709 47:0.82942963 48:1.1686401 49:8.6206665 50:-2.977005 51:2.7224731 52:0.8442955 53:9.5593033 54:1.1641235 55:1.5257912 56:3.0059738 57:-0.52624512 58:1.7167435 59:-1.1593094 60:-0.83056641 61:1.7755814 62:-1.8490372 63:-0.65722656 64:3.3601456 65:0.56678772 66:-1.2433472 67:3.9145355 68:1.8165283 69:-1.3032837 70:5.9859619 71:1.9255981 72:-2.2064819 73:6.8733521 74:2.2226105 75:-3.2225952 76:8.4453735 77:1.2741241 78:-3.8502808 79:8.4588242 80:-1.7447968 81:-4.5656738 82:8.100647 83:-5.0342026 84:-4.8125 85:7.2071686 86:-6.5049438 87:-5.5623169 
-0.4797709460755327 1:4.7160339 2:-9.0465851 3:-6.0424194 4:2.7449341 5:-9.3106461 6:-6.1401978 7:2.5383453 8:-12.313477 9:-6.0776978 10:-0.72386932 11:-12.584427 12:-5.4802856 13:-1.2046967 14:-14.34481 15:-4.5158081 16:-1.0631714 17:-9.1523628 18:-3.3532104 19:-3.3647003 20:-7.0541306 21:-3.2802734 22:-6.1466446 23:-11.45414 24:-1.411377 25:-6.9326782 26:-8.359745 27:-0.59838867 28:-8.5156021 29:-6.563591 30:-1.0437622 31:-9.9745255 32:-6.2740822 33:-0.62585449 34:-10.683853 35:-6.776165 36:0.040649414 37:-9.6240311 38:-7.8613348 39:0.95300293 40:-7.916378 41:-6.2570524 42:-1.3833618 43:-21.683895 44:133.48523 45:68.518005 46:4.6835709 47:0.82942963 48:1.1686401 49:8.6206665 50:-2.977005 51:2.7224731 52:0.8442955 53:9.5593033 54:1.1641235 55:1.5257912 56:3.0059738 57:-0.52624512 58:1.7167435 59:-1.1593094 60:-0.83056641 61:1.7755814 62:-1.8490372 63:-0.65722656 64:3.3601456 65:0.56678772 66:-1.2433472 67:3.9145355 68:1.8165283 69:-1.3032837 70:5.9859619 71:1.9255981 72:-2.2064819 73:6.8733521 74:2.2226105 75:-3.2225952 76:8.4453735 77:1.2741241 78:-3.8502808 79:8.4588242 80:-1.7447968 81:-4.5656738 82:8.100647 83:-5.0342026 84:-4.8125 85:7.2071686 86:-6.5049438 87:-5.5623169 
-0.4797735878645085 1:4.7160339 2:-9.0465851 3:-6.0424194 4:2.7449341 5:-9.3106461 6:-6.1401978 7:2.5383453 8:-12.313477 9:-6.0776978 10:-0.72386932 11:-12.584427 12:-5.4802856 13:-1.2046967 14:-14.34481 15:-4.5158081 16:-1.0631714 17:-9.1523628 18:-3.3532104 19:-3.3647003 20:-7.0541306 21:-3.2802734 22:-6.1466446 23:-11.45414 24:-1.411377 25:-6.9326782 26:-8.359745 27:-0.59838867 28:-8.5156021 29:-6.563591 30:-1.0437622 31:-9.9745255 32:-6.2740822 33:-0.62585449 34:-10.683853 35:-6.776165 36:0.040649414 37:-9.6240311 38:-7.8613348 39:0.95300293 40:-7.916378 41:-6.2570524 42:-1.3833618 43:-8.1765671 44:-5.0428085 45:-1.4246826 46:-9.1640282 47:-5.7716064 48:1.0721436 49:-9.7032204 50:-3.2515869 51:1.3435669 52:-9.7334938 53:1.0881424 54:0.47766113 55:30.767738 56:156.8808 57:71.578308 58:1.7167435 59:-1.1593094 60:-0.83056641 61:1.7755814 62:-1.8490372 63:-0.65722656 64:3.3601456 65:0.56678772 66:-1.2433472 67:3.9145355 68:1.8165283 69:-1.3032837 70:5.9859619 71:1.9255981 72:-2.2064819 73:6.8733521 74:2.2226105 75:-3.2225952 76:8.4453735 77:1.2741241 78:-3.8502808 79:8.4588242 80:-1.7447968 81:-4.5656738 82:8.100647 83:-5.0342026 84:-4.8125 85:7.2071686 86:-6.5049438 87:-5.5623169 
-0.4806453024443546 1:4.7160339 2:-9.0465851 3:-6.0424194 4:2.7449341 5:-9.3106461 6:-6.1401978 7:2.5383453 8:-12.313477 9:-6.0776978 10:-0.72386932 11:-12.584427 12:-5.4802856 13:-1.2046967 14:-14.34481 15:-4.5158081 16:-1.0631714 17:-9.1523628 18:-3.3532104 19:-3.3647003 20:-7.0541306 21:-3.2802734 22:-6.1466446 23:-11.45414 24:-1.411377 25:-6.9326782 26:-8.359745 27:-0.59838867 28:-8.5156021 29:-6.563591 30:-1.0437622 31:-9.9745255 32:-6.2740822 33:-0.62585449 34:-10.683853 35:-6.776165 36:0.040649414 37:-9.6240311 38:-7.8613348 39:0.95300293 40:-7.916378 41:-6.2570524 42:-1.3833618 43:-8.1765671 44:-5.0428085 45:-1.4246826 46:-9.1640282 47:-5.7716064 48:1.0721436 49:-9.7032204 50:-3.2515869 51:1.3435669 52:-9.7334938 53:1.0881424 54:0.47766113 55:-10.914416 56:-1.7513142 57:3.550354 58:-7.4668717 59:2.6505718 60:1.3122559 61:-8.0327721 62:3.6923809 63:1.8669434 64:-7.0057993 65:7.7024155 66:2.0646973 67:74.954605 68:143.9617 69:58.749634 70:5.9859619 71:1.9255981 72:-2.2064819 73:6.8733521 74:2.2226105 75:-3.2225952 76:8.4453735 77:1.2741241 78:-3.8502808 79:8.4588242 80:-1.7447968 81:-4.5656738 82:8.100647 83:-5.0342026 84:-4.8125 85:7.2071686 86:-6.5049438 87:-5.5623169 
-0.4806575723668226 1:4.7160339 2:-9.0465851 3:-6.0424194 4:2.7449341 5:-9.3106461 6:-6.1401978 7:2.5383453 8:-12.313477 9:-6.0776978 10:-0.72386932 11:-12.584427 12:-5.4802856 13:-1.2046967 14:-14.34481 15:-4.5158081 16:-1.0631714 17:-9.1523628 18:-3.3532104 19:-3.3647003 20:-7.0541306 21:-3.2802734 22:-6.1466446 23:-11.45414 24:-1.411377 25:-6.9326782 26:-8.359745 27:-0.59838867 28:-8.5156021 29:-6.563591 30:-1.0437622 31:-9.9745255 32:-6.2740822 33:-0.62585449 34:-10.683853 35:-6.776165 36:0.040649414 37:-9.6240311 38:-7.8613348 39:0.95300293 40:-7.916378 41:-6.2570524 42:-1.3833618 43:-8.1765671 44:-5.0428085 45:-1.4246826 46:-9.1640282 47:-5.7716064 48:1.0721436 49:-9.7032204 50:-3.2515869 51:1.3435669 52:-9.7334938 53:1.0881424 54:0.47766113 55:-10.914416 56:-1.7513142 57:3.550354 58:-7.4668717 59:2.6505718 60:1.3122559 61:-8.0327721 62:3.6923809 63:1.8669434 64:-7.0057993 65:7.7024155 66:2.0646973 67:-5.9498177 68:10.603265 69:2.3173828 70:-4.3266983 71:12.552032 72:1.9274292 73:-3.2085381 74:13.977613 75:2.6140137 76:-0.40861702 77:14.305662 78:1.6241455 79:118.61179 80:96.200668 81:36.421631 82:8.100647 83:-5.0342026 84:-4.8125 85:7.2071686 86:-6.5049438 87:-5.5623169 
-0.4806604860225101 1:131.4599 2:22.026039 3:10.868896 4:2.7449341 5:-9.3106461 6:-6.1401978 7:2.5383453 8:-12.313477 9:-6.0776978 10:-0.72386932 11:-12.584427 12:-5.4802856 13:-1.2046967 14:-14.34481 15:-4.5158081 16:-1.0631714 17:-9.1523628 18:-3.3532104 19:-3.3647003 20:-7.0541306 21:-3.2802734 22:-6.1466446 23:-11.45414 24:-1.411377 25:-6.9326782 26:-8.359745 27:-0.59838867 28:-8.5156021 29:-6.563591 30:-1.0437622 31:-9.9745255 32:-6.2740822 33:-0.62585449 34:-10.683853 35:-6.776165 36:0.040649414 37:-9.6240311 38:-7.8613348 39:0.95300293 40:-7.916378 41:-6.2570524 42:-1.3833618 43:-8.1765671 44:-5.0428085 45:-1.4246826 46:-9.1640282 47:-5.7716064 48:1.0721436 49:-9.7032204 50:-3.2515869 51:1.3435669 52:-9.7334938 53:1.0881424 54:0.47766113 55:-10.914416 56:-1.7513142 57:3.550354 58:-7.4668717 59:2.6505718 60:1.3122559 61:-8.0327721 62:3.6923809 63:1.8669434 64:-7.0057993 65:7.7024155 66:2.0646973 67:-5.9498177 68:10.603265 69:2.3173828 70:-4.3266983 71:12.552032 72:1.9274292 73:-3.2085381 74:13.977613 75:2.6140137 76:-0.40861702 77:14.305662 78:1.6241455 79:0.21957588 80:12.848682 81:2.2537231 82:3.4418564 83:12.05022 84:0.60205078 85:4.7873421 86:10.3699 87:0.11102295 
-0.4806567035361924 1:5.4244084 2:9.3767166 3:0.75024414 4:5.6618643 5:7.9201584 6:0.92095947 7:6.4213376 8:8.1150513 9:1.2314453 10:6.8347912 11:5.5064316 12:1.3112183 13:110.47221 14:-57.445679 15:-15.55896 16:-1.0631714 17:-9.1523628 18:-3.3532104 19:-3.3647003 20:-7.0541306 21:-3.2802734 22:-6.1466446 23:-11.45414 24:-1.411377 25:-6.9326782 26:-8.359745 27:-0.59838867 28:-8.5156021 29:-6.563591 30:-1.0437622 31:-9.9745255 32:-6.2740822 33:-0.62585449 34:-10.683853 35:-6.776165 36:0.040649414 37:-9.6240311 38:-7.8613348 39:0.95300293 40:-7.916378 41:-6.2570524 42:-1.3833618 43:-8.1765671 44:-5.0428085 45:-1.4246826 46:-9.1640282 47:-5.7716064 48:1.0721436 49:-9.7032204 50:-3.2515869 51:1.3435669 52:-9.7334938 53:1.0881424 54:0.47766113 55:-10.914416 56:-1.7513142 57:3.550354 58:-7.4668717 59:2.6505718 60:1.3122559 61:-8.0327721 62:3.6923809 63:1.8669434 64:-7.0057993 65:7.7024155 66:2.0646973 67:-5.9498177 68:10.603265 69:2.3173828 70:-4.3266983 71:12.552032 72:1.9274292 73:-3.2085381 74:13.977613 75:2.6140137 76:-0.40861702 77:14.305662 78:1.6241455 79:0.21957588 80:12.848682 81:2.2537231 82:3.4418564 83:12.05022 84:0.60205078 85:4.7873421 86:10.3699 87:0.11102295 
-0.4806555176401352 1:5.4244084 2:9.3767166 3:0.75024414 4:5.6618643 5:7.9201584 6:0.92095947 7:6.4213376 8:8.1150513 9:1.2314453 10:6.8347912 11:5.5064316 12:1.3112183 13:6.8773041 14:4.8620224 15:1.3224487 16:8.1709652 17:4.2312164 18:1.5577393 19:7.4209976 20:1.4691544 21:1.1273193 22:6.8745956 23:0.64429474 24:0.9699707 25:63.621147 26:-104.67274 27:-29.179688 28:-8.5156021 29:-6.563591 30:-1.0437622 31:-9.9745255 32:-6.2740822 33:-0.62585449 34:-10.683853 35:-6.776165 36:0.040649414 37:-9.6240311 38:-7.8613348 39:0.95300293 40:-7.916378 41:-6.2570524 42:-1.3833618 43:-8.1765671 44:-5.0428085 45:-1.4246826 46:-9.1640282 47:-5.7716064 48:1.0721436 49:-9.7032204 50:-3.2515869 51:1.3435669 52:-9.7334938 53:1.0881424 54:0.47766113 55:-10.914416 56:-1.7513142 57:3.550354 58:-7.4668717 59:2.6505718 60:1.3122559 61:-8.0327721 62:3.6923809 63:1.8669434 64:-7.0057993 65:7.7024155 66:2.0646973 67:-5.9498177 68:10.603265 69:2.3173828 70:-4.3266983 71:12.552032 72:1.9274292 73:-3.2085381 74:13.977613 75:2.6140137 76:-0.40861702 77:14.305662 78:1.6241455 79:0.21957588 80:12.848682 81:2.2537231 82:3.4418564 83:12.05022 84:0.60205078 85:4.7873421 86:10.3699 87:0.11102295 
-0.4797701883308818 1:5.4244084 2:9.3767166 3:0.75024414 4:5.6618643 5:7.9201584 6:0.92095947 7:6.4213376 8:8.1150513 9:1.2314453 10:6.8347912 11:5.5064316 12:1.3112183 13:6.8773041 14:4.8620224 15:1.3224487 16:8.1709652 17:4.2312164 18:1.5577393 19:7.4209976 20:1.4691544 21:1.1273193 22:6.8745956 23:0.64429474 24:0.9699707 25:5.8863411 26:0.26446533 27:0.88391113 28:3.7194481 29:0.8129425 30:1.1329956 31:2.6921272 32:-0.51150513 33:0.86279297 34:8.0312653 35:-163.47368 36:-39.971069 37:4.4939537 38:30.759853 39:7.2357178 40:-7.916378 41:-6.2570524 42:-1.3833618 43:-8.1765671 44:-5.0428085 45:-1.4246826 46:-9.1640282 47:-5.7716064 48:1.0721436 49:-9.7032204 50:-3.2515869 51:1.3435669 52:-9.7334938 53:1.0881424 54:0.47766113 55:-10.914416 56:-1.7513142 57:3.550354 58:-7.4668717 59:2.6505718 60:1.3122559 61:-8.0327721 62:3.6923809 63:1.8669434 64:-7.0057993 65:7.7024155 66:2.0646973 67:-5.9498177 68:10.603265 69:2.3173828 70:-4.3266983 71:12.552032 72:1.9274292 73:-3.2085381 74:13.977613 75:2.6140137 76:-0.40861702 77:14.305662 78:1.6241455 79:0.21957588 80:12.848682 81:2.2537231 82:3.4418564 83:12.05022 84:0.60205078 85:4.7873421 86:10.3699 87:0.11102295 
-0.4801987045441145 1:5.4244084 2:9.3767166 3:0.75024414 4:5.6618643 5:7.9201584 6:0.92095947 7:6.4213376 8:8.1150513 9:1.2314453 10:6.8347912 11:5.5064316 12:1.3112183 13:6.8773041 14:4.8620224 15:1.3224487 16:8.1709652 17:4.2312164 18:1.5577393 19:7.4209976 20:1.4691544 21:1.1273193 22:6.8745956 23:0.64429474 24:0.9699707 25:5.8863411 26:0.26446533 27:0.88391113 28:3.7194481 29:0.8129425 30:1.1329956 31:2.6921272 32:-0.51150513 33:0.86279297 34:8.0312653 35:-163.47368 36:-39.971069 37:-6.1555634 38:4.2301369 39:-2.1841431 40:-8.465107 41:-0.17466354 42:-0.91101074 43:-8.517334 44:1.3999329 45:-0.96929932 46:-10.725914 47:0.065563202 48:1.4082031 49:3.3976784 50:4.9158306 51:9.4996338 52:-9.7334938 53:1.0881424 54:0.47766113 55:-10.914416 56:-1.7513142 57:3.550354 58:-7.4668717 59:2.6505718 60:1.3122559 61:-8.0327721 62:3.6923809 63:1.8669434 64:-7.0057993 65:7.7024155 66:2.0646973 67:-5.9498177 68:10.603265 69:2.3173828 70:-4.3266983 71:12.552032 72:1.9274292 73:-3.2085381 74:13.977613 75:2.6140137 76:-0.40861702 77:14.305662 78:1.6241455 79:0.21957588 80:12.848682 81:2.2537231 82:3.4418564 83:12.05022 84:0.60205078 85:4.7873421 86:10.3699 87:0.11102295 
-0.4796527107795876 1:5.4244084 2:9.3767166 3:0.75024414 4:5.6618643 5:7.9201584 6:0.92095947 7:6.4213376 8:8.1150513 9:1.2314453 10:6.8347912 11:5.5064316 12:1.3112183 13:6.8773041 14:4.8620224 15:1.3224487 16:8.1709652 17:4.2312164 18:1.5577393 19:7.4209976 20:1.4691544 21:1.1273193 22:6.8745956 23:0.64429474 24:0.9699707 25:5.8863411 26:0.26446533 27:0.88391113 28:3.7194481 29:0.8129425 30:1.1329956 31:2.6921272 32:-0.51150513 33:0.86279297 34:8.0312653 35:-163.47368 36:-39.971069 37:-6.1555634 38:4.2301369 39:-2.1841431 40:-8.465107 41:-0.17466354 42:-0.91101074 43:-8.517334 44:1.3999329 45:-0.96929932 46:-10.725914 47:0.065563202 48:1.4082031 49:-10.055075 50:0.74546051 51:1.171936 52:-8.1616907 53:1.8714294 54:1.0219116 55:-6.751668 56:5.4901009 57:1.2772217 58:-5.2210255 59:4.1366062 60:0.4598999 61:-2.5604162 62:-1.6479855 63:12.775879 64:-7.0057993 65:7.7024155 66:2.0646973 67:-5.9498177 68:10.603265 69:2.3173828 70:-4.3266983 71:12.552032 72:1.9274292 73:-3.2085381 74:13.977613 75:2.6140137 76:-0.40861702 77:14.305662 78:1.6241455 79:0.21957588 80:12.848682 81:2.2537231 82:3.4418564 83:12.05022 84:0.60205078 85:4.7873421 86:10.3699 87:0.11102295 
-0.4797434541037812 1:5.4244084 2:9.3767166 3:0.75024414 4:5.6618643 5:7.9201584 6:0.92095947 7:6.4213376 8:8.1150513 9:1.2314453 10:6.8347912 11:5.5064316 12:1.3112183 13:6.8773041 14:4.8620224 15:1.3224487 16:8.1709652 17:4.2312164 18:1.5577393 19:7.4209976 20:1.4691544 21:1.1273193 22:6.8745956 23:0.64429474 24:0.9699707 25:5.8863411 26:0.26446533 27:0.88391113 28:3.7194481 29:0.8129425 30:1.1329956 31:2.6921272 32:-0.51150513 33:0.86279297 34:8.0312653 35:-163.47368 36:-39.971069 37:-6.1555634 38:4.2301369 39:-2.1841431 40:-8.465107 41:-0.17466354 42:-0.91101074 43:-8.517334 44:1.3999329 45:-0.96929932 46:-10.725914 47:0.065563202 48:1.4082031 49:-10.055075 50:0.74546051 51:1.171936 52:-8.1616907 53:1.8714294 54:1.0219116 55:-6.751668 56:5.4901009 57:1.2772217 58:-5.2210255 59:4.1366062 60:0.4598999 61:-3.8441024 62:7.8104277 63:0.24151611 64:-3.9936862 65:11.081799 66:1.333374 67:-2.3925962 68:11.364282 69:1.0904541 70:-0.91665649 71:12.574469 72:0.32611084 73:-11.904228 74:0.3563633 75:18.707947 76:-0.40861702 77:14.305662 78:1.6241455 79:0.21957588 80:12.848682 81:2.2537231 82:3.4418564 83:12.05022 84:0.60205078 85:4.7873421 86:10.3699 87:0.11102295 
-0.4800876747261935 1:5.4244084 2:9.3767166 3:0.75024414 4:5.6618643 5:7.9201584 6:0.92095947 7:6.4213376 8:8.1150513 9:1.2314453 10:6.8347912 11:5.5064316 12:1.3112183 13:6.8773041 14:4.8620224 15:1.3224487 16:8.1709652 17:4.2312164 18:1.5577393 19:7.4209976 20:1.4691544 21:1.1273193 22:6.8745956 23:0.64429474 24:0.9699707 25:5.8863411 26:0.26446533 27:0.88391113 28:3.7194481 29:0.8129425 30:1.1329956 31:2.6921272 32:-0.51150513 33:0.86279297 34:8.0312653 35:-163.47368 36:-39.971069 37:-6.1555634 38:4.2301369 39:-2.1841431 40:-8.465107 41:-0.17466354 42:-0.91101074 43:-8.517334 44:1.3999329 45:-0.96929932 46:-10.725914 47:0.065563202 48:1.4082031 49:-10.055075 50:0.74546051 51:1.171936 52:-8.1616907 53:1.8714294 54:1.0219116 55:-6.751668 56:5.4901009 57:1.2772217 58:-5.2210255 59:4.1366062 60:0.4598999 61:-3.8441024 62:7.8104277 63:0.24151611 64:-3.9936862 65:11.081799 66:1.333374 67:-2.3925962 68:11.364282 69:1.0904541 70:-0.91665649 71:12.574469 72:0.32611084 73:-1.262311 74:12.47028 75:1.5164795 76:-0.95798016 77:12.063992 78:1.6428223 79:-0.15000153 80:12.267376 81:2.3171387 82:1.7618523 83:11.298752 84:1.2113647 85:-3.2556305 86:1.8304291 87:16.611084 
-0.4754629069217197 1:3.1272874 2:9.5316849 3:2.3182983 4:4.0572066 5:7.0968323 6:1.7480469 7:7.5003376 8:-0.76751709 9:12.84668 10:6.8347912 11:5.5064316 12:1.3112183 13:6.8773041 14:4.8620224 15:1.3224487 16:8.1709652 17:4.2312164 18:1.5577393 19:7.4209976 20:1.4691544 21:1.1273193 22:6.8745956 23:0.64429474 24:0.9699707 25:5.8863411 26:0.26446533 27:0.88391113 28:3.7194481 29:0.8129425 30:1.1329956 31:2.6921272 32:-0.51150513 33:0.86279297 34:8.0312653 35:-163.47368 36:-39.971069 37:-6.1555634 38:4.2301369 39:-2.1841431 40:-8.465107 41:-0.17466354 42:-0.91101074 43:-8.517334 44:1.3999329 45:-0.96929932 46:-10.725914 47:0.065563202 48:1.4082031 49:-10.055075 50:0.74546051 51:1.171936 52:-8.1616907 53:1.8714294 54:1.0219116 55:-6.751668 56:5.4901009 57:1.2772217 58:-5.2210255 59:4.1366062 60:0.4598999 61:-3.8441024 62:7.8104277 63:0.24151611 64:-3.9936862 65:11.081799 66:1.333374 67:-2.3925962 68:11.364282 69:1.0904541 70:-0.91665649 71:12.574469 72:0.32611084 73:-1.262311 74:12.47028 75:1.5164795 76:-0.95798016 77:12.063992 78:1.6428223 79:-0.15000153 80:12.267376 81:2.3171387 82:1.7618523 83:11.298752 84:1.2113647 85:1.5627079 86:11.05175 87:1.4734497 
-0.4758064675495215 1:3.1272874 2:9.5316849 3:2.3182983 4:4.0572066 5:7.0968323 6:1.7480469 7:4.8204522 8:5.4856262 9:1.6773682 10:5.8397002 11:4.3180161 12:1.2640381 13:5.1265116 14:4.3663254 15:1.7126465 16:6.2722158 17:4.3287888 18:1.5131836 19:14.745516 20:-3.1974487 21:11.998169 22:6.8745956 23:0.64429474 24:0.9699707 25:5.8863411 26:0.26446533 27:0.88391113 28:3.7194481 29:0.8129425 30:1.1329956 31:2.6921272 32:-0.51150513 33:0.86279297 34:8.0312653 35:-163.47368 36:-39.971069 37:-6.1555634 38:4.2301369 39:-2.1841431 40:-8.465107 41:-0.17466354 42:-0.91101074 43:-8.517334 44:1.3999329 45:-0.96929932 46:-10.725914 47:0.065563202 48:1.4082031 49:-10.055075 50:0.74546051 51:1.171936 52:-8.1616907 53:1.8714294 54:1.0219116 55:-6.751668 56:5.4901009 57:1.2772217 58:-5.2210255 59:4.1366062 60:0.4598999 61:-3.8441024 62:7.8104277 63:0.24151611 64:-3.9936862 65:11.081799 66:1.333374 67:-2.3925962 68:11.364282 69:1.0904541 70:-0.91665649 71:12.574469 72:0.32611084 73:-1.262311 74:12.47028 75:1.5164795 76:-0.95798016 77:12.063992 78:1.6428223 79:-0.15000153 80:12.267376 81:2.3171387 82:1.7618523 83:11.298752 84:1.2113647 85:1.5627079 86:11.05175 87:1.4734497 
-0.4785376246115198 1:3.1272874 2:9.5316849 3:2.3182983 4:4.0572066 5:7.0968323 6:1.7480469 7:4.8204522 8:5.4856262 9:1.6773682 10:5.8397002 11:4.3180161 12:1.2640381 13:5.1265116 14:4.3663254 15:1.7126465 16:6.2722158 17:4.3287888 18:1.5131836 19:5.6636105 20:4.2971039 21:1.847168 22:5.6968498 23:3.0599976 24:1.2445068 25:5.522728 26:0.48851013 27:1.1657715 28:5.43713 29:0.46635437 30:0.65393066 31:11.59771 32:-10.299217 33:10.936462 34:8.0312653 35:-163.47368 36:-39.971069 37:-6.1555634 38:4.2301369 39:-2.1841431 40:-8.465107 41:-0.17466354 42:-0.91101074 43:-8.517334 44:1.3999329 45:-0.96929932 46:-10.725914 47:0.065563202 48:1.4082031 49:-10.055075 50:0.74546051 51:1.171936 52:-8.1616907 53:1.8714294 54:1.0219116 55:-6.751668 56:5.4901009 57:1.2772217 58:-5.2210255 59:4.1366062 60:0.4598999 61:-3.8441024 62:7.8104277 63:0.24151611 64:-3.9936862 65:11.081799 66:1.333374 67:-2.3925962 68:11.364282 69:1.0904541 70:-0.91665649 71:12.574469 72:0.32611084 73:-1.262311 74:12.47028 75:1.5164795 76:-0.95798016 77:12.063992 78:1.6428223 79:-0.15000153 80:12.267376 81:2.3171387 82:1.7618523 83:11.298752 84:1.2113647 85:1.5627079 86:11.05175 87:1.4734497 
-0.4797718383916799 1:3.1272874 2:9.5316849 3:2.3182983 4:4.0572066 5:7.0968323 6:1.7480469 7:4.8204522 8:5.4856262 9:1.6773682 10:5.8397002 11:4.3180161 12:1.2640381 13:5.1265116 14:4.3663254 15:1.7126465 16:6.2722158 17:4.3287888 18:1.5131836 19:5.6636105 20:4.2971039 21:1.847168 22:5.6968498 23:3.0599976 24:1.2445068 25:5.522728 26:0.48851013 27:1.1657715 28:5.43713 29:0.46635437 30:0.65393066 31:5.8721848 32:0.30853271 33:0.284729 34:4.4941216 35:0.24708557 36:0.65661621 37:4.1767464 38:-0.7583313 39:0.17938232 40:3.7054138 41:-1.2970886 42:-0.26055908 43:-21.757496 44:-166.81769 45:-33.959229 46:-10.725914 47:0.065563202 48:1.4082031 49:-10.055075 50:0.74546051 51:1.171936 52:-8.1616907 53:1.8714294 54:1.0219116 55:-6.751668 56:5.4901009 57:1.2772217 58:-5.2210255 59:4.1366062 60:0.4598999 61:-3.8441024 62:7.8104277 63:0.24151611 64:-3.9936862 65:11.081799 66:1.333374 67:-2.3925962 68:11.364282 69:1.0904541 70:-0.91665649 71:12.574469 72:0.32611084 73:-1.262311 74:12.47028 75:1.5164795 76:-0.95798016 77:12.063992 78:1.6428223 79:-0.15000153 80:12.267376 81:2.3171387 82:1.7618523 83:11.298752 84:1.2113647 85:1.5627079 86:11.05175 87:1.4734497 
-0.4806575723668226 1:3.1272874 2:9.5316849 3:2.3182983 4:4.0572066 5:7.0968323 6:1.7480469 7:4.8204522 8:5.4856262 9:1.6773682 10:5.8397002 11:4.3180161 12:1.2640381 13:5.1265116 14:4.3663254 15:1.7126465 16:6.2722158 17:4.3287888 18:1.5131836 19:5.6636105 20:4.2971039 21:1.847168 22:5.6968498 23:3.0599976 24:1.2445068 25:5.522728 26:0.48851013 27:1.1657715 28:5.43713 29:0.46635437 30:0.65393066 31:5.8721848 32:0.30853271 33:0.284729 34:4.4941216 35:0.24708557 36:0.65661621 37:4.1767464 38:-0.7583313 39:0.17938232 40:3.7054138 41:-1.2970886 42:-0.26055908 43:3.7151756 44:-1.8213806 45:-0.43121338 46:2.8855515 47:-2.5383759 48:-0.96234131 49:2.5572128 50:-2.2128677 51:-0.95141602 52:1.6777649 53:-2.0492172 54:-1.3609619 55:-68.287552 56:-150.02328 57:-25.374023 58:-5.2210255 59:4.1366062 60:0.4598999 61:-3.8441024 62:7.8104277 63:0.24151611 64:-3.9936862 65:11.081799 66:1.333374 67:-2.3925962 68:11.364282 69:1.0904541 70:-0.91665649 71:12.574469 72:0.32611084 73:-1.262311 74:12.47028 75:1.5164795 76:-0.95798016 77:12.063992 78:1.6428223 79:-0.15000153 80:12.267376 81:2.3171387 82:1.7618523 83:11.298752 84:1.2113647 85:1.5627079 86:11.05175 87:1.4734497 
-0.4806604860225099 1:3.1272874 2:9.5316849 3:2.3182983 4:4.0572066 5:7.0968323 6:1.7480469 7:4.8204522 8:5.4856262 9:1.6773682 10:5.8397002 11:4.3180161 12:1.2640381 13:5.1265116 14:4.3663254 15:1.7126465 16:6.2722158 17:4.3287888 18:1.5131836 19:5.6636105 20:4.2971039 21:1.847168 22:5.6968498 23:3.0599976 24:1.2445068 25:5.522728 26:0.48851013 27:1.1657715 28:5.43713 29:0.46635437 30:0.65393066 31:5.8721848 32:0.30853271 33:0.284729 34:4.4941216 35:0.24708557 36:0.65661621 37:4.1767464 38:-0.7583313 39:0.17938232 40:3.7054138 41:-1.2970886 42:-0.26055908 43:3.7151756 44:-1.8213806 45:-0.43121338 46:2.8855515 47:-2.5383759 48:-0.96234131 49:2.5572128 50:-2.2128677 51:-0.95141602 52:1.6777649 53:-2.0492172 54:-1.3609619 55:1.6931839 56:-1.8568878 57:-1.3892822 58:0.38104248 59:-1.2648621 60:-1.4845581 61:-0.19425964 62:-0.36214447 63:-0.97790527 64:-0.6084671 65:-0.39930725 66:-0.71533203 67:-85.01046 68:-111.74697 69:-17.681702 70:-0.91665649 71:12.574469 72:0.32611084 73:-1.262311 74:12.47028 75:1.5164795 76:-0.95798016 77:12.063992 78:1.6428223 79:-0.15000153 80:12.267376 81:2.3171387 82:1.7618523 83:11.298752 84:1.2113647 85:1.5627079 86:11.05175 87:1.4734497 
-0.480658521160898 1:3.1272874 2:9.5316849 3:2.3182983 4:4.0572066 5:7.0968323 6:1.7480469 7:4.8204522 8:5.4856262 9:1.6773682 10:5.8397002 11:4.3180161 12:1.2640381 13:5.1265116 14:4.3663254 15:1.7126465 16:6.2722158 17:4.3287888 18:1.5131836 19:5.6636105 20:4.2971039 21:1.847168 22:5.6968498 23:3.0599976 24:1.2445068 25:5.522728 26:0.48851013 27:1.1657715 28:5.43713 29:0.46635437 30:0.65393066 31:5.8721848 32:0.30853271 33:0.284729 34:4.4941216 35:0.24708557 36:0.65661621 37:4.1767464 38:-0.7583313 39:0.17938232 40:3.7054138 41:-1.2970886 42:-0.26055908 43:3.7151756 44:-1.8213806 45:-0.43121338 46:2.8855515 47:-2.5383759 48:-0.96234131 49:2.5572128 50:-2.2128677 51:-0.95141602 52:1.6777649 53:-2.0492172 54:-1.3609619 55:1.6931839 56:-1.8568878 57:-1.3892822 58:0.38104248 59:-1.2648621 60:-1.4845581 61:-0.19425964 62:-0.36214447 63:-0.97790527 64:-0.6084671 65:-0.39930725 66:-0.71533203 67:-0.90157318 68:-0.13383484 69:-0.44226074 70:-0.96208191 71:-0.54133606 72:-0.20068359 73:-1.1145248 74:0.66030884 75:0.31341553 76:-0.6133728 77:1.3651199 78:0.18267822 79:-84.705856 80:-63.721115 81:-11.7323 82:1.7618523 83:11.298752 84:1.2113647 85:1.5627079 86:11.05175 87:1.4734497 
-0.4797718383916798 1:59.493294 2:121.09295 3:27.156738 4:4.0572066 5:7.0968323 6:1.7480469 7:4.8204522 8:5.4856262 9:1.6773682 10:5.8397002 11:4.3180161 12:1.2640381 13:5.1265116 14:4.3663254 15:1.7126465 16:6.2722158 17:4.3287888 18:1.5131836 19:5.6636105 20:4.2971039 21:1.847168 22:5.6968498 23:3.0599976 24:1.2445068 25:5.522728 26:0.48851013 27:1.1657715 28:5.43713 29:0.46635437 30:0.65393066 31:5.8721848 32:0.30853271 33:0.284729 34:4.4941216 35:0.24708557 36:0.65661621 37:4.1767464 38:-0.7583313 39:0.17938232 40:3.7054138 41:-1.2970886 42:-0.26055908 43:3.7151756 44:-1.8213806 45:-0.43121338 46:2.8855515 47:-2.5383759 48:-0.96234131 49:2.5572128 50:-2.2128677 51:-0.95141602 52:1.6777649 53:-2.0492172 54:-1.3609619 55:1.6931839 56:-1.8568878 57:-1.3892822 58:0.38104248 59:-1.2648621 60:-1.4845581 61:-0.19425964 62:-0.36214447 63:-0.97790527 64:-0.6084671 65:-0.39930725 66:-0.71533203 67:-0.90157318 68:-0.13383484 69:-0.44226074 70:-0.96208191 71:-0.54133606 72:-0.20068359 73:-1.1145248 74:0.66030884 75:0.31341553 76:-0.6133728 77:1.3651199 78:0.18267822 79:-0.28289795 80:0.11241913 81:-0.004699707 82:-0.15612793 83:-9.9182129e-005 84:0.095458984 85:-125.81583 86:-187.37796 87:-29.655151 
-0.4797702099366041 1:-3.6512985 2:22.347378 3:1.9250488 4:2.2579193 5:18.832006 6:-0.83129883 7:3.3846359 8:18.203823 9:-0.91522217 10:4.3717842 11:18.284981 12:0.63647461 13:72.974121 14:64.691559 15:32.743835 16:6.2722158 17:4.3287888 18:1.5131836 19:5.6636105 20:4.2971039 21:1.847168 22:5.6968498 23:3.0599976 24:1.2445068 25:5.522728 26:0.48851013 27:1.1657715 28:5.43713 29:0.46635437 30:0.65393066 31:5.8721848 32:0.30853271 33:0.284729 34:4.4941216 35:0.24708557 36:0.65661621 37:4.1767464 38:-0.7583313 39:0.17938232 40:3.7054138 41:-1.2970886 42:-0.26055908 43:3.7151756 44:-1.8213806 45:-0.43121338 46:2.8855515 47:-2.5383759 48:-0.96234131 49:2.5572128 50:-2.2128677 51:-0.95141602 52:1.6777649 53:-2.0492172 54:-1.3609619 55:1.6931839 56:-1.8568878 57:-1.3892822 58:0.38104248 59:-1.2648621 60:-1.4845581 61:-0.19425964 62:-0.36214447 63:-0.97790527 64:-0.6084671 65:-0.39930725 66:-0.71533203 67:-0.90157318 68:-0.13383484 69:-0.44226074 70:-0.96208191 71:-0.54133606 72:-0.20068359 73:-1.1145248 74:0.66030884 75:0.31341553 76:-0.6133728 77:1.3651199 78:0.18267822 79:-0.28289795 80:0.11241913 81:-0.004699707 82:-0.15612793 83:-9.9182129e-005 84:0.095458984 85:-125.81583 86:-187.37796 87:-29.655151 
-0.4797728891418974 1:-3.6512985 2:22.347378 3:1.9250488 4:2.2579193 5:18.832006 6:-0.83129883 7:3.3846359 8:18.203823 9:-0.91522217 10:4.3717842 11:18.284981 12:0.63647461 13:3.8032417 14:17.386215 15:3.4525757 16:4.2231102 17:16.43692 18:3.9342651 19:6.6723938 20:14.089272 21:3.9382324 22:6.6920013 23:12.623268 24:4.5523682 25:74.738785 26:16.330284 27:22.637024 28:5.43713 29:0.46635437 30:0.65393066 31:5.8721848 32:0.30853271 33:0.284729 34:4.4941216 35:0.24708557 36:0.65661621 37:4.1767464 38:-0.7583313 39:0.17938232 40:3.7054138 41:-1.2970886 42:-0.26055908 43:3.7151756 44:-1.8213806 45:-0.43121338 46:2.8855515 47:-2.5383759 48:-0.96234131 49:2.5572128 50:-2.2128677 51:-0.95141602 52:1.6777649 53:-2.0492172 54:-1.3609619 55:1.6931839 56:-1.8568878 57:-1.3892822 58:0.38104248 59:-1.2648621 60:-1.4845581 61:-0.19425964 62:-0.36214447 63:-0.97790527 64:-0.6084671 65:-0.39930725 66:-0.71533203 67:-0.90157318 68:-0.13383484 69:-0.44226074 70:-0.96208191 71:-0.54133606 72:-0.20068359 73:-1.1145248 74:0.66030884 75:0.31341553 76:-0.6133728 77:1.3651199 78:0.18267822 79:-0.28289795 80:0.11241913 81:-0.004699707 82:-0.15612793 83:-9.9182129e-005 84:0.095458984 85:-125.81583 86:-187.37796 87:-29.655151 
-0.4797728891418973 1:-3.6512985 2:22.347378 3:1.9250488 4:2.2579193 5:18.832006 6:-0.83129883 7:3.3846359 8:18.203823 9:-0.91522217 10:4.3717842 11:18.284981 12:0.63647461 13:3.8032417 14:17.386215 15:3.4525757 16:4.2231102 17:16.43692 18:3.9342651 19:6.6723938 20:14.089272 21:3.9382324 22:6.6920013 23:12.623268 24:4.5523682 25:6.4988365 26:11.889748 27:5.3352051 28:7.6778488 29:9.8768463 30:5.2657471 31:7.4226561 32:8.3223724 33:5.4216309 34:7.6556468 35:5.2939148 36:4.4048462 37:65.463974 38:-18.788956 39:3.9842529 40:3.7054138 41:-1.2970886 42:-0.26055908 43:3.7151756 44:-1.8213806 45:-0.43121338 46:2.8855515 47:-2.5383759 48:-0.96234131 49:2.5572128 50:-2.2128677 51:-0.95141602 52:1.6777649 53:-2.0492172 54:-1.3609619 55:1.6931839 56:-1.8568878 57:-1.3892822 58:0.38104248 59:-1.2648621 60:-1.4845581 61:-0.19425964 62:-0.36214447 63:-0.97790527 64:-0.6084671 65:-0.39930725 66:-0.71533203 67:-0.90157318 68:-0.13383484 69:-0.44226074 70:-0.96208191 71:-0.54133606 72:-0.20068359 73:-1.1145248 74:0.66030884 75:0.31341553 76:-0.6133728 77:1.3651199 78:0.18267822 79:-0.28289795 80:0.11241913 81:-0.004699707 82:-0.15612793 83:-9.9182129e-005 84:0.095458984 85:-125.81583 86:-187.37796 87:-29.655151 
-0.4797732001056194 1:-3.6512985 2:22.347378 3:1.9250488 4:2.2579193 5:18.832006 6:-0.83129883 7:3.3846359 8:18.203823 9:-0.91522217 10:4.3717842 11:18.284981 12:0.63647461 13:3.8032417 14:17.386215 15:3.4525757 16:4.2231102 17:16.43692 18:3.9342651 19:6.6723938 20:14.089272 21:3.9382324 22:6.6920013 23:12.623268 24:4.5523682 25:6.4988365 26:11.889748 27:5.3352051 28:7.6778488 29:9.8768463 30:5.2657471 31:7.4226561 32:8.3223724 33:5.4216309 34:7.6556468 35:5.2939148 36:4.4048462 37:8.7779751 38:4.8369141 39:3.5951538 40:10.042798 41:3.0006409 42:3.0119629 43:9.2997665 44:1.8870697 45:2.5222168 46:8.3922462 47:0.53495789 48:2.8070068 49:41.814545 50:-36.918251 51:-10.557617 52:1.6777649 53:-2.0492172 54:-1.3609619 55:1.6931839 56:-1.8568878 57:-1.3892822 58:0.38104248 59:-1.2648621 60:-1.4845581 61:-0.19425964 62:-0.36214447 63:-0.97790527 64:-0.6084671 65:-0.39930725 66:-0.71533203 67:-0.90157318 68:-0.13383484 69:-0.44226074 70:-0.96208191 71:-0.54133606 72:-0.20068359 73:-1.1145248 74:0.66030884 75:0.31341553 76:-0.6133728 77:1.3651199 78:0.18267822 79:-0.28289795 80:0.11241913 81:-0.004699707 82:-0.15612793 83:-9.9182129e-005 84:0.095458984 85:-125.81583 86:-187.37796 87:-29.655151 
-0.4797704362867319 1:-3.6512985 2:22.347378 3:1.9250488 4:2.2579193 5:18.832006 6:-0.83129883 7:3.3846359 8:18.203823 9:-0.91522217 10:4.3717842 11:18.284981 12:0.63647461 13:3.8032417 14:17.386215 15:3.4525757 16:4.2231102 17:16.43692 18:3.9342651 19:6.6723938 20:14.089272 21:3.9382324 22:6.6920013 23:12.623268 24:4.5523682 25:6.4988365 26:11.889748 27:5.3352051 28:7.6778488 29:9.8768463 30:5.2657471 31:7.4226561 32:8.3223724 33:5.4216309 34:7.6556468 35:5.2939148 36:4.4048462 37:8.7779751 38:4.8369141 39:3.5951538 40:10.042798 41:3.0006409 42:3.0119629 43:9.2997665 44:1.8870697 45:2.5222168 46:8.3922462 47:0.53495789 48:2.8070068 49:9.8413639 50:0.12931824 51:1.6575928 52:9.6965561 53:-1.6146698 54:1.1669312 55:9.2600517 56:-2.7552643 57:-0.041564941 58:8.1018143 59:-3.8096619 60:-0.50280762 61:8.4724884 62:-34.401085 63:-18.050476 64:-0.6084671 65:-0.39930725 66:-0.71533203 67:-0.90157318 68:-0.13383484 69:-0.44226074 70:-0.96208191 71:-0.54133606 72:-0.20068359 73:-1.1145248 74:0.66030884 75:0.31341553 76:-0.6133728 77:1.3651199 78:0.18267822 79:-0.28289795 80:0.11241913 81:-0.004699707 82:-0.15612793 83:-9.9182129e-005 84:0.095458984 85:-125.81583 86:-187.37796 87:-29.655151 
-0.4806572289166404 1:-3.6512985 2:22.347378 3:1.9250488 4:2.2579193 5:18.832006 6:-0.83129883 7:3.3846359 8:18.203823 9:-0.91522217 10:4.3717842 11:18.284981 12:0.63647461 13:3.8032417 14:17.386215 15:3.4525757 16:4.2231102 17:16.43692 18:3.9342651 19:6.6723938 20:14.089272 21:3.9382324 22:6.6920013 23:12.623268 24:4.5523682 25:6.4988365 26:11.889748 27:5.3352051 28:7.6778488 29:9.8768463 30:5.2657471 31:7.4226561 32:8.3223724 33:5.4216309 34:7.6556468 35:5.2939148 36:4.4048462 37:8.7779751 38:4.8369141 39:3.5951538 40:10.042798 41:3.0006409 42:3.0119629 43:9.2997665 44:1.8870697 45:2.5222168 46:8.3922462 47:0.53495789 48:2.8070068 49:9.8413639 50:0.12931824 51:1.6575928 52:9.6965561 53:-1.6146698 54:1.1669312 55:9.2600517 56:-2.7552643 57:-0.041564941 58:8.1018143 59:-3.8096619 60:-0.50280762 61:5.9580994 62:-4.5402069 63:-1.0350342 64:3.7207031 65:-1.1399536 66:-0.39007568 67:1.6046829 68:-1.4875031 69:-0.82220459 70:-0.52725983 71:-1.7649841 72:-0.96044922 73:-5.8703842 74:-25.882607 75:-15.887573 76:-0.6133728 77:1.3651199 78:0.18267822 79:-0.28289795 80:0.11241913 81:-0.004699707 82:-0.15612793 83:-9.9182129e-005 84:0.095458984 85:-125.81583 86:-187.37796 87:-29.655151 
