svm_type one_class
kernel_type rbf
gamma 0.00166945
nr_class 2
total_sv 300
rho -1.#IND
SV
1 1:0.0020226585 2:-0.0033168192 3:0.0013428192 4:-0.032750063 5:-0.0019433545 6:-0.0060954751 7:-0.1322878 8:-0.068334274 9:-0.001152509 10:0.033191439 11:0.031440623 12:-0.016710961 13:0.19937335 14:0.055856716 15:0.0012582154 16:0.11895185 17:-0.057312649 18:0.029594423 19:-0.042346254 20:0.034417938 21:-0.026829537 22:-0.18978062 23:0.01994637 24:-0.037006259 25:-0.13746731 26:-0.092676729 27:0.023065476 
1 1:0.026440844 2:0.02244753 3:-0.0063819927 4:0.17366591 5:0.046970733 6:0.011619936 7:0.089034826 8:-0.057003379 9:0.0075111664 10:-0.10796101 11:0.050955143 12:-0.035451718 13:-0.15332504 14:-0.036282476 15:-0.010127709 16:-0.056017976 17:-0.05245081 18:0.012704358 19:0.041671623 20:0.025123052 21:-0.014758741 22:0.13629705 23:0.035042878 24:-0.0029696368 25:0.11142758 26:-0.054184791 27:0.02624934 
1 1:-0.12083612 2:0.07875181 3:-0.022403592 4:-0.17360455 5:-0.012913977 6:0.0024954367 7:-0.079566844 8:-0.054833092 9:0.016962133 10:-0.035523482 11:-0.059248086 12:0.013925995 13:0.037133742 14:0.053425223 15:-0.018570278 16:0.11674564 17:0.06870795 18:-0.015728334 19:0.11213529 20:0.039847545 21:0.013655728 22:0.11719759 23:-0.0035275936 24:0.026638921 25:0.057071026 26:-0.019598329 27:0.029792931 
1 1:-0.024503488 2:-0.010133394 3:-0.010010081 4:-0.13107724 5:-0.044080034 6:-0.045958664 7:-0.12309937 8:-0.03669503 9:0.0087841507 10:-0.05727344 11:-0.0029448373 12:0.045068525 13:0.03124034 14:0.0098534739 15:-0.014171687 16:0.1987951 17:0.045020059 18:-0.018341299 19:0.2293983 20:0.0050659226 21:0.045185667 22:0.13008273 23:0.0047988761 24:0.026032291 25:-0.013526029 26:-0.00093541294 27:-0.010720553 
1 1:-0.16250004 2:-0.0077571282 3:-0.0054309405 4:0.057210833 5:0.007862566 6:0.0033437787 7:0.1635951 8:-0.0082836077 9:0.0074748159 10:-0.073872879 11:0.0017455516 12:-0.016682835 13:-0.1628809 14:-0.0099937692 15:0.0079298038 16:0.025154565 17:0.011018572 18:0.0042681247 19:0.16110027 20:0.0094687277 21:0.0075470181 22:0.0061040223 23:0.0011295248 24:-0.0023399133 25:-0.17884374 26:-0.012643517 27:-0.018964916 
1 1:0.10358824 2:0.0037395454 3:-0.0084830457 4:0.16084237 5:-3.9950373e-005 6:0.024575183 7:0.080000006 8:-0.0064917766 9:0.015784018 10:-0.13771583 11:0.016460037 12:-0.021461669 13:-0.15454516 14:-0.0037487168 15:-0.022610513 16:-0.069617398 17:0.002994474 18:0.010389587 19:0.072130941 20:0.0031984306 21:-0.0084998133 22:0.11582403 23:-0.0050007706 24:0.010547712 25:0.093532167 26:-0.0051165055 27:0.017773686 
1 1:0.082672261 2:0.012502644 3:-0.010822526 4:-0.05062066 5:0.01286159 6:-0.011655183 7:-0.13664888 8:0.0044409558 9:-0.025848815 10:-0.15070993 11:-0.00244703 12:-0.0047903531 13:-0.10608259 14:-0.0010031061 15:0.019065952 16:0.030157987 17:0.0010071982 18:-0.0082705813 19:0.10737226 20:-0.0079047428 21:-0.016650118 22:0.16707696 23:-0.0023542247 24:0.0089527993 25:0.1548208 26:0.0099382456 27:0.023283042 
1 1:-0.038055491 2:0.0070663681 3:0.019926842 4:-0.1491292 5:0.026068745 6:0.027508384 7:-0.10683485 8:-0.026779758 9:0.011625922 10:0.069346495 11:0.019063728 12:-0.016967142 13:0.1760245 14:-0.012341667 15:-0.0031128449 16:0.086192317 17:-0.046721894 18:0.010163848 19:-0.12191084 20:0.056489564 21:0.0072278972 22:-0.17798299 23:-0.016686635 24:-0.0025114918 25:0.021911234 26:0.0077337329 27:-0.018276071 
1 1:-0.075283326 2:-0.0096498439 3:0.0097206766 4:0.1620336 5:0.0026736653 6:-0.00088718976 7:-0.07941924 8:0.0045488831 9:-0.0099823065 10:-0.073005378 11:-0.0042897458 12:-0.0022212078 13:0.14490721 14:-0.00078505621 15:0.0090313843 16:-0.055141136 17:0.010792324 18:-0.00052972714 19:-0.069344327 20:-0.0090000927 21:-0.0086866999 22:0.16102962 23:-0.022353118 24:0.013390668 25:-0.17133814 26:0.023177112 27:-0.008680311 
1 1:0.065547757 2:-0.0078161405 3:-0.1363156 4:-0.099546447 5:0.011877784 6:0.11516029 7:0.078116968 8:0.03103623 9:-0.1174956 10:-0.091290407 11:-0.05329911 12:0.052428816 13:0.05305177 14:0.029809045 15:-0.035624407 16:-0.037808523 17:0.012573682 18:0.10989493 19:0.0060671717 20:-0.00016936322 21:-0.11026049 22:0.011332803 23:-0.024644025 24:0.026969556 25:-0.0050138221 26:-0.0090662427 27:-0.096752793 
1 1:0.08684437 2:0.014693457 3:0.0093280915 4:0.14306384 5:-0.020417742 6:-0.010299041 7:0.099332817 8:-0.051559947 9:-0.0090160128 10:-0.07595364 11:0.041503645 12:0.007611603 13:-0.12718791 14:0.023476256 15:0.0094407964 16:-0.11244503 17:-0.013032447 18:0.0046640458 19:0.049639106 20:0.0070792874 21:-0.00091898837 22:0.13246138 23:0.0030862412 24:-0.00026001318 25:0.13359532 26:-0.045954678 27:-0.011677417 
1 1:0.00068024459 2:0.0026978829 3:0.0021183409 4:0.034298614 5:0.027159944 6:-0.00019577287 7:-0.15481532 8:-0.024342509 9:-0.00039854372 10:-0.01914948 11:-0.019751415 12:-0.013695653 13:0.1377576 14:0.078252025 15:-0.00020976884 16:0.12162515 17:-0.013120303 18:0.059417922 19:-0.22508636 20:-0.016180331 21:-0.057935715 22:0.011966414 23:-0.0015324625 24:-0.0067464835 25:0.21662953 26:0.021936845 27:0.052881122 
1 1:0.076509476 2:0.050762985 3:-0.012826868 4:0.16343458 5:0.015680574 6:0.011392817 7:0.066354811 8:-0.035255138 9:0.030217111 10:-0.093760155 11:0.02884648 12:-0.038424995 13:-0.14164563 14:-0.013583438 15:-0.021264445 16:-0.068098769 17:-0.031830154 18:0.011582954 19:0.094876625 20:0.038491547 21:-0.0044604726 22:0.18300439 23:-0.0076445951 24:0.03296626 25:0.041103639 26:-0.023920156 27:0.0052289492 
1 1:-0.00039709825 2:-0.0023606874 3:-0.0058745807 4:0.0099898605 5:0.0089078853 6:0.0028554595 7:-0.14202079 8:0.04015521 9:-0.026538057 10:-0.079780519 11:-0.045869838 12:-0.0083922222 13:0.12036125 14:0.069078222 15:0.016487729 16:0.23893619 17:-0.059875995 18:0.099346027 19:-0.0059124664 20:-0.0016955462 21:-0.016723102 22:-0.16681789 23:0.077855416 24:-0.046894327 25:-0.11557592 26:-0.038175352 27:-0.025995601 
1 1:-0.0031272657 2:-0.0071061514 3:-0.009247167 4:-0.057657838 5:0.02960298 6:-0.033717144 7:-0.1096354 8:-0.016020749 9:-0.045615695 10:0.047869943 11:0.014439811 12:0.016024349 13:0.22257394 14:0.010378541 15:0.091787435 16:0.076359384 17:-0.058389738 18:0.072051398 19:-0.083223045 20:0.041534107 21:-0.055186354 22:-0.21681738 23:0.039761759 24:-0.072969608 25:-0.022225834 26:-0.030955026 27:-0.015338848 
1 1:-0.0045180419 2:-0.002579856 3:-0.003978109 4:-0.0095707625 5:-0.00089211314 6:-0.0028432349 7:0.0040836674 8:0.00013302288 9:-0.0059345243 10:-0.016073918 11:0.00084908569 12:-0.00062602753 13:0.22771636 14:-0.036088053 15:0.046419177 16:-0.28804308 17:0.010976817 18:-0.0085690301 19:0.16954818 20:0.015313514 21:0.0071604685 22:0.012854978 23:-0.020338889 24:0.027350653 25:-0.22515476 26:-0.039323986 27:-0.023150919 
1 1:0.12437267 2:-0.058416091 3:0.020553805 4:-0.047819387 5:0.026718007 6:-0.0191471 7:-0.12468636 8:0.031717326 9:-0.025340704 10:-0.12781452 11:-0.0093620876 12:-0.0011435732 13:-0.072211795 14:-0.03596672 15:0.0093105417 16:0.0419477 17:0.015702298 18:0.0052319989 19:0.16372155 20:0.042150099 21:0.018378088 22:0.1584844 23:-0.03652538 24:0.052199297 25:0.060358111 26:-0.046095904 27:0.009786156 
1 1:-0.012561196 2:0.0023193851 3:-0.0014673213 4:-0.017102215 5:0.0023076879 6:-0.0041281409 7:-0.19685742 8:-0.039991762 9:0.010842726 10:0.036712326 11:-0.0047320193 12:-0.000335752 13:0.1957994 14:0.0402545 15:0.0062794127 16:0.18467884 17:-0.040246043 18:0.031421654 19:-0.033519305 20:0.017276051 21:-0.010034613 22:-0.20150378 23:0.031590488 24:-0.03607209 25:-0.091985665 26:-0.016179092 27:0.0033449219 
1 1:0.0052236365 2:0.0067906301 3:-0.0011325645 4:0.12595679 5:0.0096628461 6:0.0029573156 7:0.16429041 8:-0.076469772 9:0.0026217836 10:-0.045773201 11:0.024873491 12:-0.010938009 13:-0.16490391 14:0.051899146 15:-0.0095223999 16:-0.16156994 17:-0.058098722 18:0.017062588 19:0.0080375494 20:-0.012992028 21:-0.0044465349 22:0.14911625 23:0.069873095 24:-0.0088197161 25:0.099741042 26:-0.026336553 27:0.013392092 
1 1:0.0097932341 2:0.0045076068 3:0.010208995 4:-0.0089002224 5:-0.0016284966 6:0.0041708564 7:0.080040209 8:0.018234985 9:-0.012647373 10:0.12698525 11:-0.030692561 12:-0.032564763 13:-0.22488295 14:-0.012163628 15:0.067420334 16:0.04565759 17:0.012338934 18:-0.0032533119 19:0.1936392 20:-0.031757031 21:-0.078104079 22:-0.1993489 23:0.027020413 24:0.070776254 25:-0.041096859 26:-0.026382592 27:0.013006668 
1 1:0.0039073895 2:0.0092203766 3:-0.0024475618 4:0.11252867 5:0.031807758 6:-0.025748689 7:0.10954273 8:-0.025597258 9:-0.034151398 10:-0.20907378 11:0.014454509 12:0.050451599 13:-0.060934488 14:-0.051745843 15:0.017168196 16:0.20282464 17:0.055105776 18:-0.061650403 19:-0.0095630987 20:-0.0073446156 21:-0.01718244 22:-0.18650796 23:-0.045594677 24:0.058185462 25:0.012481409 26:0.0051326738 27:-0.0050729089 
1 1:0.00053218968 2:-6.4443273e-005 3:0.00068844785 4:-0.0011854732 5:-0.0029270581 6:0.00034175051 7:-0.062549092 8:-0.012277509 9:-0.031120989 10:0.098150268 11:0.0023240629 12:0.039777637 13:0.054014996 14:-0.01833277 15:0.030862264 16:-0.20051022 17:-0.020224743 18:-0.062432405 19:0.22783506 20:-0.017153164 21:0.080043525 22:-0.17952332 23:0.046529159 24:-0.078979172 25:0.09479747 26:-0.0038923216 27:0.030266555 
1 1:0.0028692251 2:0.0017554947 3:0.0027535064 4:0.10686812 5:-0.070873305 6:0.035688668 7:-0.21215908 8:0.020149078 9:-0.065334201 10:0.21567008 11:0.0097248014 12:0.059916649 13:-0.13031983 14:0.040637258 15:-0.056486547 16:0.06634067 17:7.9580925e-005 18:0.020551009 19:-0.034940928 20:0.0061167828 21:-0.01215012 22:0.052970413 23:-0.010009936 24:0.017201688 25:-0.1036972 26:0.003244577 27:-0.010971323 
1 1:-1.#IND 2:-1.#IND 3:-1.#IND 4:-1.#IND 5:-1.#IND 6:-1.#IND 7:-1.#IND 8:-1.#IND 9:-1.#IND 10:-1.#IND 11:-1.#IND 12:-1.#IND 13:-1.#IND 14:-1.#IND 15:-1.#IND 16:-1.#IND 17:-1.#IND 18:-1.#IND 19:-1.#IND 20:-1.#IND 21:-1.#IND 22:-1.#IND 23:-1.#IND 24:-1.#IND 25:-1.#IND 26:-1.#IND 27:-1.#IND 
1 1:-0.0031001568 2:-0.001573136 3:0.00036881966 4:-0.0048484439 5:-0.0014507503 6:-0.0057327156 7:-0.0011289283 8:0.008207567 9:0.0013828947 10:0.11367226 11:0.12328532 12:0.078094721 13:-0.23207411 14:0.030524647 15:-0.094848447 16:0.1926932 17:0.01367872 18:0.099550202 19:-0.041740168 20:-0.0019242947 21:-0.035912804 22:-0.11147491 23:-0.0030255616 24:-0.053496342 25:0.11763415 26:-0.075688481 27:0.044578888 
1 1:0.0020493413 2:0.0021673522 3:-0.001362431 4:0.071000613 5:0.069243878 6:0.042915232 7:-0.20893693 8:0.024880866 9:-0.1065062 10:-0.0085064871 11:-0.015058227 12:0.011589975 13:0.18253747 14:0.01956467 15:0.10670764 16:0.027330281 17:-0.017570974 18:0.026297858 19:-0.17258789 20:0.017569056 21:-0.10044254 22:0.021226497 23:-0.0051175929 24:0.01320175 25:0.13862115 26:-0.033973377 27:0.051962696 
1 1:0.0017615689 2:-0.0023774384 3:-0.002700055 4:-0.0040439414 5:0.0026888989 6:0.0012842945 7:-0.14149493 8:-0.0065326169 9:-0.046274349 10:0.11120727 11:0.035889912 12:0.065781087 13:0.14261921 14:-0.073295683 15:0.032288946 16:-0.1996855 17:0.065608248 18:-0.064102516 19:0.0093428446 20:0.0028132673 21:0.012721354 22:0.14598058 23:-0.023128072 24:0.055557586 25:-0.14309046 26:0.016686462 27:-0.043948449 
1 1:-0.002731181 2:-0.0025365276 3:-0.0026886899 4:0.15296613 5:0.017231302 6:0.065718383 7:0.023266634 8:-0.028679099 9:-0.012116851 10:-0.26468867 11:0.0092519224 12:-0.055767037 13:0.1506341 14:0.032663312 15:0.054136746 16:0.08749228 17:-0.043067303 18:0.0048541953 19:-0.19655289 20:0.01611571 21:-0.038285132 22:0.046004061 23:0.0017555007 24:-0.01795638 25:-0.0042907842 26:-0.005765276 27:0.00023122288 
1 1:-0.0067812675 2:-0.0024371753 3:0.0031676588 4:0.012494125 5:0.0049973456 6:0.0069313957 7:-0.13094081 8:-0.01262071 9:-0.10004646 10:0.18316333 11:0.039088156 12:0.1074499 13:0.065622941 14:-0.019996852 15:0.06940145 16:-0.21270421 17:-0.0069289696 18:-0.1739445 19:0.11459506 20:0.012973488 21:0.07232058 22:0.052070796 23:-0.011698995 24:0.051079068 25:-0.0015918756 26:0.00090183126 27:-0.013229411 
1 1:-0.00063506968 2:-0.0013995384 3:0.0045179455 4:-0.18671896 5:-0.0040119402 6:-0.12101375 7:0.0047409264 8:-0.067477509 9:-0.021206977 10:0.1976531 11:0.086673513 12:0.16395502 13:0.028771358 14:-0.011200634 15:0.029045574 16:-0.18415032 17:0.0053345165 18:-0.15936591 19:0.071126722 20:0.0032081343 21:0.040889066 22:0.039601877 23:-0.0014793709 24:0.037226204 25:-0.00021221225 26:0.0080666346 27:-0.0019525164 
1 1:0.0023443699 2:-0.0042489255 3:0.00026929047 4:0.0025885561 5:-0.00050155492 6:0.0035931463 7:-0.013905684 8:0.00022775219 9:-5.564883e-005 10:0.19620933 11:0.058801774 12:0.06977389 13:-0.21936111 14:-0.027991574 15:-0.087349735 16:0.093347371 17:0.047801998 18:0.010538029 19:0.11158452 20:-0.029221693 21:0.032245494 22:-0.23432991 23:-0.074571162 24:-0.056088354 25:0.03002082 26:0.032573726 27:0.009098867 
1 1:0.0006594102 2:0.00030312376 3:-0.00022392937 4:-0.002336975 5:0.0024823395 6:0.00028371677 7:-0.0060768379 8:0.000555181 9:-0.0024563875 10:0.19954725 11:0.023494065 12:0.047977392 13:-0.22495659 14:-0.020996863 15:-0.067949302 16:0.10611214 17:0.056481682 18:0.014768037 19:0.14081952 20:-0.053010747 21:0.037405316 22:-0.22952737 23:-0.027270058 24:-0.055450998 25:0.020419054 26:0.025315871 27:0.004808147 
1 1:-0.0021083516 2:-0.001647364 3:0.0006779969 4:-0.00078832655 5:-0.0023620832 6:-0.003409018 7:-0.0070610833 8:0.013852919 9:-0.00010651704 10:0.12945384 11:0.0095926514 12:0.095432527 13:0.0026710241 14:0.0036162592 15:-0.029867448 16:-0.14408058 17:0.0086600063 18:-0.083268657 19:0.18542148 20:-0.028209459 21:0.10239585 22:-0.19310915 23:0.016124947 24:-0.099015914 25:0.17229876 26:-0.016882285 27:0.073845506 
1 1:-0.010238875 2:0.024341159 3:0.019767201 4:-0.017471462 5:-0.011633896 6:-0.0044269934 7:0.22565694 8:-0.050759453 9:0.16403314 10:-0.30111271 11:0.086688161 12:-0.091038018 13:0.076356642 14:0.016382782 15:0.038016215 16:0.073996373 17:-0.018480418 18:0.022675693 19:-0.076902278 20:-0.0076521942 21:-0.043292474 22:0.0214816 23:-0.032706257 24:-0.044142056 25:-0.015600281 26:0.013932383 27:-0.0058169873 
1 1:0.00018467553 2:0.00080599735 3:-0.0024721979 4:0.0025843971 5:-0.00085216627 6:-0.0024423832 7:-0.013470073 8:0.0027178437 9:-0.0061060791 10:0.17224041 11:-0.046218075 12:-0.045393277 13:-0.24537307 14:0.024686035 15:0.065528393 16:0.19632803 17:0.001988292 18:-0.07144589 19:-0.16351914 20:-0.0004908673 21:0.057883464 22:0.10920803 23:-0.00099712296 24:-0.042871509 25:0.023908922 26:0.010432914 27:-0.030043786 
1 1:-0.0004994772 2:0.00078584155 3:0.00019843715 4:0.0019745212 5:0.00065745035 6:0.00069425488 7:0.12721582 8:-0.022582455 9:-0.027255667 10:-0.14407405 11:0.035271127 12:0.024956526 13:0.12567136 14:-0.024915364 15:-0.049795728 16:-0.1404442 17:0.0081476411 18:0.045278672 19:0.13003695 20:-0.016999887 21:-0.041077152 22:-0.14845228 23:0.013443949 24:0.056097955 25:0.12566869 26:-0.011068123 27:-0.040373981 
1 1:0.054722298 2:-0.013384732 3:-0.013879278 4:-0.096193239 5:0.021824958 6:-0.024301775 7:-0.1368757 8:-0.0087185847 9:-0.025764806 10:0.021665728 11:-0.0080738356 12:0.02838015 13:0.15440999 14:0.0022204467 15:0.039605204 16:0.080634683 17:-0.018267108 18:0.0062535615 19:-0.12540585 20:0.025446285 21:-0.040278479 22:-0.17724741 23:-0.016664244 24:-0.026684001 25:0.095777653 26:0.022832245 27:0.043709341 
1 1:-0.00072428817 2:0.005731219 3:-0.00086982839 4:0.0017627623 5:-0.0013287284 6:-0.0017485414 7:-0.046421349 8:-0.0033755284 9:-0.027178237 10:0.01867505 11:0.016854592 12:0.0067989202 13:0.19607389 14:-0.02621875 15:0.05128542 16:-0.16317065 17:0.036427002 18:-0.054755848 19:-0.085372686 20:-0.0061102249 21:-0.0092843454 22:0.24519442 23:-0.014663104 24:0.050087184 25:-0.1848129 26:0.019537793 27:-0.056770712 
1 1:-0.01121427 2:-0.0008539884 3:-0.0051532313 4:0.14748329 5:0.059349149 6:0.023097087 7:0.1475296 8:0.0007155271 9:0.05392205 10:-0.02927064 11:-0.0080096582 12:-0.012592756 13:-0.17855862 14:-0.022235924 15:-0.062826276 16:-0.11960943 17:-0.054540481 18:-0.037825096 19:0.052028053 20:0.0084245242 21:0.021842647 22:0.15198173 23:0.053995099 24:0.046522114 25:0.078451686 26:0.0018327469 27:0.03201491 
1 1:-0.068041466 2:0.0055511128 3:-0.00426869 4:-0.12050459 5:-0.060444068 6:-0.04286157 7:0.0078482442 8:-0.012717476 9:-0.011200071 10:0.1124534 11:0.037234005 12:0.027876727 13:0.13327876 14:0.014704346 15:0.050660323 16:0.099018961 17:-0.023137717 18:0.031200981 19:-0.050419319 20:0.0085236235 21:-0.046593636 22:-0.17796195 23:0.014927263 24:-0.043184459 25:-0.14355542 26:-0.029776352 27:0.012582632 
1 1:0.040875725 2:0.014026621 3:0.01114421 4:0.14050773 5:0.027590934 6:0.037918281 7:0.15308133 8:-0.021885514 9:0.039209303 10:0.031102402 11:-0.022087188 12:-0.015617848 13:-0.10685328 14:0.028566539 15:-0.041242838 16:-0.14964774 17:-0.01434799 18:-0.034306455 19:-0.038258314 20:-0.036183547 21:-0.017842244 22:0.11821911 23:0.024892369 24:0.0079233786 25:0.15174815 26:-0.012333628 27:0.040636912 
1 1:0.02152843 2:0.0082438067 3:-0.00074406527 4:0.13188621 5:0.0080118058 6:0.0054298211 7:0.11234015 8:-0.023181619 9:0.0031640634 10:-0.037384421 11:0.0043092808 12:-0.02934403 13:-0.14752777 14:0.008470743 15:-0.033204973 16:-0.14292222 17:-0.015415715 18:-0.0059298151 19:-0.0097320434 20:-0.0063502695 21:0.011777941 22:0.16367543 23:0.01692906 24:0.015209613 25:0.19689333 26:-0.033002902 27:0.047002774 
1 1:0.028041886 2:0.012688017 3:0.011129308 4:0.28914455 5:0.030934826 6:0.0085295206 7:-0.065334462 8:-0.10155101 9:-0.078966863 10:-0.0056499257 11:0.021078821 12:0.028517297 13:-0.049499903 14:-0.01765806 15:0.033087593 16:0.084737539 17:-0.038021188 18:0.027046859 19:-0.024302399 20:-0.032986186 21:0.0041818009 22:-0.14327358 23:-0.084044427 24:-0.070669457 25:0.10483205 26:-0.0063205762 27:0.048368059 
1 1:-0.0038358762 2:-0.00064752524 3:0.0047763847 4:0.0072125122 5:-0.00056227291 6:0.0087729935 7:0.029335093 8:-0.0038232955 9:0.010508263 10:0.1904079 11:-0.012303313 12:0.039026264 13:0.039687499 14:-0.035697754 15:-0.043551035 16:-0.18596628 17:0.0090699131 18:-0.041259557 19:-0.13125488 20:-0.059251439 21:0.015242066 22:0.16260815 23:0.019211095 24:-0.01800663 25:0.18424557 26:-0.01915287 27:0.026915805 
1 1:0.065020472 2:0.020206936 3:0.022026584 4:0.1130292 5:-0.0072474317 6:0.020732882 7:-0.060139608 8:-0.013506818 9:-0.036354318 10:-0.12547335 11:-0.049962547 12:-0.015263612 13:0.19830263 14:0.033349901 15:0.010362645 16:-0.021926105 17:-0.023697579 18:-0.016185066 19:-0.14435819 20:-0.049699683 21:-0.0078011109 22:0.083529674 23:-0.00046588801 24:-0.0094612809 25:0.12762108 26:-0.030726967 27:0.006158228 
1 1:-0.052868605 2:-0.023046175 3:-0.02682193 4:-0.19747214 5:-0.1350414 6:-0.022322498 7:-0.051064212 8:-0.065673821 9:0.0014990413 10:0.10274396 11:0.088653736 12:-0.031608276 13:0.19135003 14:0.11207709 15:0.04738982 16:0.14747928 17:0.0014986251 18:0.054704901 19:-0.016236847 20:-0.0037537999 21:0.0045405626 22:-0.024672057 23:-0.0091347937 24:-0.0053295344 25:-0.045285117 26:-0.0011826417 27:-0.0029791219 
1 1:0.069493376 2:0.0052387365 3:0.0055315956 4:0.20322199 5:-0.039665647 6:0.025480628 7:0.026474722 8:-0.033901807 9:-0.020202154 10:-0.12934969 11:0.050581008 12:-0.033570621 13:-0.20260376 14:-0.028345222 15:-0.0035545721 16:-0.032286752 17:-0.025965994 18:0.016406681 19:0.16319345 20:-0.01597124 21:-0.030337291 22:0.06601505 23:-0.028016703 24:0.0096045723 25:-0.040463261 26:0.0043226019 27:0.013199719 
1 1:0.05988935 2:0.012618793 3:0.0025629946 4:0.13222703 5:-0.0012872397 6:0.021138955 7:-0.0071072965 8:-0.0015066138 9:-0.01029757 10:-0.15085103 11:-6.947061e-005 12:-0.018653508 13:-0.16049767 14:-0.040063098 15:-0.027965546 16:-0.098945029 17:-0.066269994 18:-0.014310718 19:0.090469211 20:0.034803189 21:-0.01117185 22:0.18323781 23:0.059975859 24:0.043327559 25:0.048439268 26:0.0094649382 27:0.029162727 
1 1:-0.0035695489 2:-0.0009601324 3:-0.0051713497 4:0.069607601 5:0.020934895 6:0.017083017 7:0.19233857 8:-0.015538157 9:0.043184191 10:0.15112247 11:-0.098190248 12:0.014712401 13:-0.0042789113 14:-0.0053178375 15:-0.0022545746 16:-0.17332929 17:0.093013972 18:-0.025682688 19:-0.22383508 20:-0.0027328278 21:-0.035386451 22:-0.068680465 23:-0.053095825 24:-0.017559523 25:0.018172322 26:0.0056095277 27:0.0049389838 
1 1:0.074069344 2:0.040633366 3:0.015900882 4:0.15541245 5:0.0044394177 6:0.042481832 7:0.1581677 8:-0.070314415 9:0.045421354 10:0.073674031 11:-0.071042061 12:0.020156866 13:-0.080181934 14:0.061094087 15:-0.026728362 16:-0.20018719 17:0.021057013 18:-0.091160528 19:-0.098539099 20:-0.06926582 21:-0.058314547 22:-0.0001098656 23:0.0034003428 24:0.0049258512 25:-0.004479188 26:6.0163438e-005 27:0.0006355088 
1 1:0.046491317 2:0.078533694 3:0.017409045 4:0.10842893 5:0.06305524 6:0.042126235 7:0.13148859 8:0.00023670578 9:0.046557456 10:0.084887974 11:-0.049375877 12:0.016555965 13:-0.025376111 14:0.00016909608 15:-0.016032994 16:-0.11865492 17:0.011612996 18:-0.056782842 19:-0.16462672 20:-0.049881771 21:-0.089798339 22:-0.092176594 23:-0.072850749 24:-0.063182294 25:-0.020463012 26:-0.037944857 27:-0.016555965 
1 1:0.0026176153 2:0.0067485697 3:0.0025823289 4:0.075454555 5:0.022286642 6:0.02472974 7:0.18349686 8:-0.034418169 9:0.039292164 10:0.15174834 11:-0.13927293 12:0.0080819018 13:-0.021663452 14:0.010306584 15:-0.010242025 16:-0.14246593 17:0.082436509 18:-0.027808681 19:-0.21466677 20:-0.0097727468 21:-0.057007637 22:-0.068399467 23:-0.034613095 24:-0.031197837 25:0.01469687 26:-3.9723764e-005 27:-0.0019367466 
1 1:0.0022443919 2:-0.0046861367 3:0.01396029 4:0.058064085 5:0.027264602 6:0.041505337 7:0.14897957 8:0.017513745 9:0.07131511 10:0.10419384 11:-0.043717496 12:0.032459483 13:0.0033904929 14:-0.0082966238 15:-0.011039803 16:-0.084368199 17:0.021978706 18:-0.035338983 19:-0.1694591 20:-0.012184418 21:-0.056997485 22:-0.10336335 23:-0.032742284 24:-0.048549179 25:0.12772912 26:-0.17523909 27:0.028757088 
1 1:0.0051724985 2:-0.0033751093 3:-0.00021422582 4:0.04294917 5:-0.00080110849 6:0.015432599 7:0.15676177 8:-0.008765311 9:0.047477182 10:0.18897197 11:-0.10239995 12:0.031776391 13:0.047714222 14:-0.057737455 15:0.0015942652 16:-0.072031468 17:0.059059687 18:-0.019116793 19:-0.19250865 20:0.056731369 21:-0.081222817 22:-0.14316194 23:-0.030955222 24:-0.07027784 25:-0.0085788341 26:-0.015689956 27:0.00091086852 
1 1:-0.0040902537 2:0.00088863011 3:0.005793767 4:0.011634324 5:0.0099996841 6:0.01725526 7:0.14048854 8:0.0051109376 9:0.071166679 10:0.19833298 11:-0.093561843 12:0.034472462 13:0.054613277 14:-0.085047811 15:-0.0090126125 16:-0.10989053 17:0.095639497 18:-0.016800707 19:-0.22929616 20:0.084988527 21:-0.032452863 22:-0.078097403 23:-0.023001049 24:-0.01879519 25:0.008602988 26:0.0021761488 27:-0.0078514246 
1 1:0.019181542 2:0.0092843547 3:0.0066798916 4:0.088130973 5:0.022884414 6:0.017813146 7:0.16631249 8:-0.021564677 9:0.016124429 10:0.14925022 11:-0.10358152 12:-0.016312098 13:0.012848275 14:-0.021997489 15:-0.0023642648 16:-0.065325774 17:0.074937843 18:0.006117037 19:-0.21281995 20:0.059550237 21:-0.019614404 22:-0.15646634 23:-0.04749383 24:-0.043194447 25:-0.012095313 26:-0.0025156103 27:-0.012859536 
1 1:0.024322374 2:0.017286284 3:0.012029382 4:0.10886778 5:0.078639686 6:0.03960374 7:0.19550236 8:-0.012706715 9:0.029154208 10:0.096211709 11:-0.06036979 12:-0.026896827 13:0.0021004719 14:0.0033411891 15:-0.010191276 16:-0.14707142 17:0.097967416 18:0.01867318 19:-0.20766565 20:-0.0219626 21:-0.029831735 22:-0.053557482 23:-0.046434339 24:-0.060502015 25:-0.0022543035 26:-0.015141596 27:-0.013254918 
1 1:0.049902048 2:0.030168926 3:0.017657788 4:0.18627031 5:-0.0047248788 6:0.065017097 7:0.14379252 8:-0.089797385 9:0.0090846159 10:0.017793288 11:-0.024907539 12:-0.0055033318 13:-0.035274033 14:0.046074729 15:-0.013122317 16:-0.12633528 17:0.080508046 18:-0.028360287 19:-0.17997769 20:-0.0049336548 21:-0.062818564 22:-0.095046461 23:-0.052743744 24:-0.034195468 25:-0.022704536 26:-0.0080241309 27:-0.0028622255 
1 1:0.032007862 2:0.020205684 3:0.016119573 4:0.04581118 5:0.016436663 6:0.023353562 7:0.050866831 8:0.01200211 9:0.021219935 10:0.093009554 11:0.00091923383 12:0.047233213 13:0.095669337 14:-0.038353082 15:0.044354249 16:0.092343152 17:-0.083801091 18:0.036301777 19:-0.018209402 20:0.0029666934 21:-0.026130307 22:-0.23674956 23:0.073617868 24:-0.1218828 25:-0.15845294 26:-0.061803702 27:-0.092917591 
1 1:0.069463074 2:0.070025347 3:0.04350936 4:0.29491842 5:-0.026090695 6:0.11319705 7:0.0328293 8:-0.04415996 9:0.0063547064 10:-0.023549704 11:0.038376484 12:-0.019254021 13:-0.054370228 14:0.040790047 15:-0.032235947 16:-0.10824033 17:0.023054775 18:-0.052826937 19:-0.11729608 20:-0.021401219 21:-0.048015419 22:-0.081159361 23:-0.055075936 24:-0.026351612 25:-0.024244677 26:-0.035373658 27:0.0013700125 
1 1:0.017994085 2:0.010490056 3:-0.00088138727 4:0.14004847 5:0.040188435 6:0.023980467 7:0.17954209 8:-0.04976657 9:0.025359325 10:0.099758975 11:-0.085226275 12:0.006998688 13:-0.0027366255 14:-0.0042707575 15:-0.018125003 16:-0.096013553 17:0.082900129 18:-0.035150457 19:-0.16669972 20:0.055082418 21:-0.055596638 22:-0.12106689 23:-0.033012711 24:-0.041468449 25:-0.023041513 26:-0.036952354 27:-0.012470234 
1 1:0.015922224 2:0.0071617747 3:0.0068956111 4:0.048687715 5:0.022767883 6:0.019705737 7:0.1116958 8:0.034891576 9:0.046855219 10:0.1644192 11:-0.023516679 12:0.061463881 13:0.11341626 14:-0.10474166 15:-0.0012983053 16:-0.052373633 17:0.027222583 18:-0.051154219 19:-0.2019815 20:0.025543518 21:-0.080823295 22:-0.12627478 23:-0.052612238 24:-0.025447326 25:-0.022626696 26:-0.018780567 27:0.0066359267 
1 1:0.0072021685 2:0.0081373239 3:0.0030904829 4:0.032183141 5:0.0024474713 6:0.0099964598 7:0.097744726 8:0.003456051 9:0.019227879 10:0.22227864 11:-0.10557161 12:0.019178268 13:0.070776582 14:-0.11223831 15:-0.0042729159 16:-0.019248772 17:0.052146867 18:-0.016226916 19:-0.1533224 20:0.15169872 21:-0.0243653 22:-0.18325028 23:0.014317092 24:-0.028608376 25:-0.0063608093 26:-0.01303821 27:0.0021762445 
1 1:0.013379484 2:0.048905827 3:0.015779702 4:0.11219806 5:0.048147157 6:0.080330528 7:0.15294825 8:-0.049142603 9:0.062812753 10:0.06604673 11:-0.0540783 12:0.00064175704 13:-0.050647184 14:0.037084915 15:-0.03113474 16:-0.14208364 17:0.042632006 18:-0.072865218 19:-0.13199016 20:-0.055267535 21:-0.10866089 22:-0.028425023 23:-0.087825112 24:-0.06282258 25:0.015310969 26:-0.0052197454 27:-0.0011454953 
1 1:-0.0097954031 2:0.0094336988 3:-0.0056782584 4:0.030821981 5:0.056072675 6:0.01158434 7:0.16245951 8:-0.002345647 9:0.057466157 10:0.11892737 11:-0.14609392 12:-0.0056698131 13:0.011543013 14:-0.083353356 15:-0.022932515 16:-0.054594122 17:0.12395177 18:0.013043969 19:-0.15567003 20:0.11236748 21:-0.017026329 22:-0.11324387 23:-0.033445377 24:-0.062840685 25:0.0041520568 26:-0.00028939993 27:-0.008698863 
1 1:0.00057931454 2:0.0015095652 3:-0.0037478351 4:0.050631538 5:0.050462827 6:0.02287152 7:0.20300686 8:0.060610656 9:0.087617099 10:0.1651471 11:-0.055465512 12:0.044039309 13:0.020711804 14:-0.02128288 15:-0.0005165264 16:-0.12700528 17:0.059248727 18:-0.040049713 19:-0.20448343 20:-0.0033795019 21:-0.078747742 22:-0.087394401 23:-0.047400404 24:-0.040863141 25:0.003021755 26:-0.009187378 27:-0.00163759 
1 1:0.003742134 2:0.0029741288 3:0.0036051942 4:0.049316555 5:0.02637214 6:0.015426318 7:0.1626239 8:0.05481502 9:0.041978762 10:0.16160631 11:-0.032901242 12:0.014228157 13:0.066974327 14:-0.053670611 15:-0.0098206177 16:-0.11738293 17:0.060816821 18:-0.015394324 19:-0.23863393 20:-0.010437747 21:-0.059116721 22:-0.09028542 23:-0.048412908 24:-0.041657772 25:0.014138368 26:0.0041277921 27:-0.009724373 
1 1:0.032142844 2:0.018270485 3:0.0076839281 4:0.091725297 5:0.042627025 6:0.032681607 7:0.10634588 8:0.012664015 9:0.033831049 10:0.11010294 11:-0.012297468 12:0.037279259 13:0.097769715 14:-0.062772237 15:0.011358514 16:-0.096701749 17:0.046346899 18:-0.040293172 19:-0.18865341 20:0.040316597 21:-0.029930199 22:-0.14433166 23:-0.03371945 24:-0.017666737 25:-0.024593128 26:-0.038188171 27:-0.023088021 
1 1:0.02994697 2:0.0080067124 3:0.0062972917 4:0.04965343 5:0.023624962 6:0.010860973 7:0.087810419 8:0.025254732 9:0.025523167 10:0.18543421 11:-0.0098817926 12:0.032447152 13:0.14703739 14:-0.08620856 15:-0.010182139 16:0.0029042654 17:0.0011293277 18:-0.02400895 19:-0.30694816 20:0.029962955 21:-0.068643257 22:-0.099407434 23:-0.020846548 24:-0.020573217 25:0.014270035 26:-0.00055025052 27:0.0017962031 
1 1:0.10229052 2:0.047711696 3:0.043203514 4:0.14288993 5:0.021003775 6:0.058081564 7:0.14620854 8:-0.033521898 9:0.037613165 10:0.050647996 11:-0.054027081 12:-0.015219118 13:-0.043267325 14:0.019467227 15:-0.043621689 16:-0.16187888 17:0.035147272 18:-0.061448861 19:-0.16730344 20:-0.044313911 21:-0.043511674 22:-0.034666244 23:-0.046981283 24:-0.018256359 25:0.011691683 26:0.0010359624 27:0.0041926289 
1 1:0.0056521459 2:-0.00062666583 3:0.0033372922 4:0.02086024 5:0.0036808059 6:0.02842515 7:0.11941979 8:0.022122733 9:0.061403047 10:0.22772115 11:-0.08935035 12:0.034009911 13:0.084869474 14:-0.087597199 15:-0.020168694 16:-0.048477132 17:0.05400205 18:-0.030788241 19:-0.19388826 20:0.086898483 21:-0.033517983 22:-0.1427107 23:-0.021557515 24:-0.036103018 25:-0.0064086099 26:-0.0056051668 27:0.00088742492 
1 1:0.023735091 2:0.01577824 3:-0.0070663588 4:0.21344316 5:-0.0024600183 6:-0.055628236 7:-0.032761414 8:-0.0084999846 9:-0.0025825785 10:-0.19694084 11:-0.018649407 12:0.058123682 13:0.0075282659 14:-0.0075014969 15:0.0022101712 16:0.21579835 17:0.023869289 18:-0.044315603 19:-0.013062579 20:-0.0059538572 21:-0.0020914187 22:-0.17578356 23:-0.003322168 24:0.047302209 25:-0.069074258 26:-0.037745696 27:0.018680129 
1 1:0.0054603261 2:0.0081584929 3:0.00070371182 4:0.027955327 5:0.013449558 6:-0.010951262 7:0.10907846 8:0.033046953 9:-0.029655691 10:0.25296065 11:-0.021974841 12:-0.051302403 13:0.050052371 14:-0.025168 15:-0.02085367 16:-0.25201765 17:0.029261703 18:-0.0047335788 19:-0.21236905 20:-0.044716403 21:0.044022907 22:-0.012028538 23:-0.025294662 24:0.019638183 25:0.00059361046 26:0.0066936272 27:0.0090322178 
1 1:0.024715882 2:0.010073207 3:-0.010445371 4:0.024258189 5:0.0064659156 6:-0.0029510101 7:0.17055123 8:-0.025649754 9:-0.00012247732 10:0.18816 11:-0.10333607 12:0.007627985 13:-0.048218757 14:0.029481316 15:-0.011781611 16:-0.20011126 17:0.056021351 18:-0.012004408 19:-0.19981493 20:-0.049960364 21:0.011881931 22:-0.063918307 23:-0.047555599 24:0.0058128471 25:0.004992174 26:0.0042950832 27:0.0013139464 
1 1:0.054516666 2:0.051443309 3:-0.0073675532 4:0.079745382 5:0.053221185 6:-0.0017721782 7:0.22694278 8:0.012696972 9:0.014595771 10:0.1171915 11:-0.06541805 12:-0.010242147 13:-0.10911078 14:0.021363739 15:-0.007130445 16:-0.22705859 17:-0.030543342 18:0.000390581 19:-0.095675223 20:-0.04233906 21:0.0043815589 22:0.0056834389 23:-0.0051903049 24:-0.0023022646 25:0.012610162 26:-0.0015467968 27:0.0034186481 
1 1:0.0092991227 2:0.0043898085 3:-0.0060364329 4:-0.0013903087 5:-0.015505311 6:-0.00031687031 7:0.031967971 8:0.014269076 9:-0.0016717862 10:0.22678329 11:0.012149381 12:-0.014466043 13:0.10280959 14:-0.054131411 15:-0.039192237 16:-0.25204265 17:-0.002822116 18:-0.050543282 19:-0.27769622 20:-0.07749673 21:-0.0013022833 22:0.0059571615 23:-0.020416558 24:0.007127326 25:0.01249151 26:0.0081073549 27:0.012512618 
1 1:0.026057431 2:0.0079847807 3:0.002381824 4:0.074690528 5:0.021602219 6:0.0029645828 7:0.16434383 8:0.0052397056 9:0.0043139127 10:0.10033812 11:-0.057889618 12:-0.0026066916 13:-0.12250688 14:0.007654734 15:-0.038467698 16:-0.20227587 17:-0.12479415 18:-0.07393001 19:-0.096734539 20:-0.11883993 21:-0.01447513 22:0.026091186 23:0.031041985 24:0.026926329 25:0.02198882 26:0.019073356 27:0.018237107 
1 1:-0.0032153281 2:0.00051035016 3:0.0018633979 4:0.016370568 5:0.003484356 6:-0.0094408281 7:0.15255222 8:0.015049066 9:-0.022774246 10:0.17992274 11:-0.023338065 12:0.005548493 13:-0.1236745 14:-0.011304098 15:-0.0071634548 16:-0.32054335 17:-0.039750375 18:-0.0040993239 19:-0.13872622 20:-0.078817114 21:-0.011242307 22:0.010844695 23:-0.0015455392 24:-0.0017805016 25:0.020857079 26:-0.0017385005 27:0.0070186388 
1 1:0.017009452 2:0.0036571804 3:-0.0023990057 4:0.022366684 5:0.0069137779 6:-0.00091045437 7:0.13699339 8:-0.0030113987 9:-0.005954029 10:0.16858363 11:-0.030021479 12:0.00031789162 13:0.049499575 14:-0.038106557 15:-0.0089454213 16:-0.089198545 17:0.031830393 18:-0.013598952 19:-0.21936867 20:0.0053392691 21:-0.0071246889 22:-0.19066499 23:-0.060222626 24:-0.003526092 25:-0.058465157 26:-0.04212394 27:0.0059106322 
1 1:0.0074331881 2:0.0072599822 3:0.0055585797 4:0.01440991 5:0.0041000587 6:0.00020693346 7:0.021318946 8:0.015031547 9:-0.0048965272 10:0.22122002 11:0.053411324 12:-0.0086622452 13:0.21464501 14:-0.049448363 15:-0.0047311825 16:-0.15666617 17:0.021827104 18:-0.017089942 19:-0.26235861 20:-0.01886954 21:0.014538213 22:-0.040675096 23:-0.035617106 24:0.018924393 25:0.0086966781 26:0.0094844224 27:0.013724454 
1 1:0.0041508605 2:0.0020361808 3:0.0026299525 4:0.025898682 5:0.018214805 6:0.0039659254 7:0.18591076 8:0.033486344 9:0.012154073 10:0.21598633 11:-0.065802068 12:0.0099648759 13:-0.048939411 14:0.0028875403 15:-0.0063826153 16:-0.2609739 17:-0.0052529424 18:-0.0044778255 19:-0.17037784 20:-0.093181275 21:0.0043214792 22:0.00044635098 23:-0.0073478292 24:0.010789296 25:0.028021028 26:0.0090565132 27:0.0035680314 
1 1:0.0064349128 2:0.0044926894 3:-0.0017835419 4:0.020913025 5:0.015443158 6:-0.0051070265 7:0.1809974 8:0.030725006 9:0.0090096407 10:0.20302206 11:-0.06477312 12:0.02673973 13:-0.02663997 14:0.0016129153 15:0.0020732931 16:-0.19020167 17:0.037946254 18:-0.0096499966 19:-0.25497514 20:-0.081853271 21:0.0067381556 22:-0.042187355 23:-0.051610313 24:0.014894362 25:4.7221802e-005 26:-0.0047640516 27:0.0084915506 
1 1:0.0036054316 2:0.0013461782 3:0.011813983 4:0.056709338 5:0.022141472 6:0.016772738 7:0.15607104 8:0.037112962 9:0.0019397394 10:0.12726715 11:-0.010448688 12:-0.0013126846 13:0.091966957 14:-0.013224212 15:2.9198463e-005 16:-0.035304714 17:-0.022287307 18:-0.010544918 19:-0.19292687 20:0.024556754 21:0.013068093 22:-0.14883545 23:-0.040887576 24:0.015183023 25:-0.12944324 26:-0.073845252 27:0.019529322 
1 1:0.0043091993 2:0.011333288 3:0.001523621 4:0.082126208 5:0.035498027 6:-0.012255277 7:0.1467827 8:0.030217277 9:-0.022401474 10:0.15076011 11:-0.015646867 12:-0.00058518909 13:0.056079578 14:-0.044119727 15:-0.0072868303 16:-0.15566166 17:0.043098461 18:0.011460245 19:-0.20853332 20:-0.029908137 21:0.030328751 22:-0.1134663 23:-0.07281559 24:0.017466316 25:-0.0067999591 26:-0.0092443563 27:0.0033012913 
1 1:0.0082733966 2:0.0069093411 3:-0.0012792135 4:0.11868177 5:0.081243351 6:-0.0023650469 7:0.2566146 8:0.044191625 9:-0.04743585 10:0.076818071 11:-0.028892882 12:-0.029243963 13:-0.12941994 14:0.0114328 15:0.0046558282 16:-0.25312644 17:-0.015004225 18:0.041485917 19:-0.070976734 20:-0.042727951 21:0.0094158826 22:0.00041204473 23:-0.0068944748 24:0.0078388816 25:0.0028485423 26:0.0086199604 27:0.0089101894 
1 1:0.052604299 2:0.024320927 3:0.014157217 4:0.09978085 5:0.025069239 6:0.016590416 7:0.12631761 8:-0.010221854 9:0.012651782 10:0.10402811 11:-0.041939098 12:0.0023266491 13:0.039532524 14:-0.031226074 15:0.0036039487 16:-0.13703702 17:0.048971683 18:-0.0051550483 19:-0.27730814 20:-0.054669276 21:-0.071516342 22:-0.078964815 23:-0.030966502 24:-0.029105389 25:0.01844907 26:-0.0002341801 27:-0.0054288483 
1 1:0.0013889571 2:0.00086088461 3:0.0010716396 4:0.05456553 5:0.029414125 6:0.016321247 7:0.20015177 8:0.033221375 9:0.081596047 10:0.0024935273 11:-0.022867734 12:-0.010149257 13:-0.24561675 14:-0.053663004 15:-0.11417678 16:-0.017310761 17:-0.021500301 18:-0.030386139 19:0.25647113 20:0.060044389 21:0.10735577 22:0.036384914 23:-0.013295664 24:0.035713144 25:-0.032575581 26:0.0083681615 27:-0.01230285 
1 1:0.026121387 2:0.025702409 3:0.012602774 4:0.16705804 5:0.063383967 6:0.073681101 7:0.086327665 8:-0.02677146 9:0.029638911 10:-0.17500043 11:-0.0080024078 12:-0.071152158 13:-0.10914463 14:-0.096187904 15:-0.055604208 16:0.10405052 17:0.051782582 18:0.010386157 19:0.15413547 20:0.054832648 21:0.08919774 22:0.0021334076 23:-0.010553247 24:0.013289668 25:-0.0077760569 26:0.00072494458 27:0.0012072392 
1 1:-0.055073984 2:-0.0050659585 3:-0.01448559 4:-0.10974184 5:-0.060022153 6:-0.052331109 7:0.036005687 8:0.02155189 9:0.0042694183 10:0.15126966 11:0.043703213 12:0.069873929 13:0.061556123 14:-0.024089573 15:0.03210463 16:-0.1470985 17:0.0097243283 18:-0.063706145 19:-0.074160352 20:-0.041195035 21:-0.041581202 22:0.10260471 23:0.042544484 24:0.048412364 25:0.12514901 26:-0.017032539 27:0.067205437 
1 1:-0.0081796898 2:-0.010367051 3:-0.0027288066 4:0.062320657 5:0.047300372 6:0.029138455 7:0.14997369 8:0.02150701 9:0.090373933 10:0.15252499 11:-0.049833294 12:0.070671886 13:0.020363778 14:-0.034344673 15:-0.0013388742 16:-0.16945975 17:0.038630452 18:-0.081268936 19:-0.19582094 20:-0.035448939 21:-0.095908441 22:-0.067493789 23:-0.02763693 24:-0.038179632 25:0.011447917 26:-0.0043238471 27:-0.010660714 
1 1:0.0011325901 2:-0.0017951995 3:0.0021838986 4:0.0224202 5:0.012882963 6:0.013613091 7:0.12775354 8:0.059841592 9:0.065175191 10:0.24497141 11:-0.047788098 12:0.10832894 13:0.026395727 14:-0.032044664 15:0.011206987 16:-0.19497126 17:0.077161752 18:-0.057734516 19:-0.20553085 20:-0.045420729 21:-0.092845947 22:-0.015896924 23:-0.01511715 24:-0.0042107212 25:0.02090642 26:0.012791814 27:0.012161415 
1 1:-0.0037995193 2:-0.00063388934 3:-0.0038923956 4:0.0086917989 5:0.0043001855 6:0.0027137182 7:0.14874174 8:0.071082108 9:0.086743951 10:0.22571684 11:-0.044125982 12:0.10217651 13:0.012210477 14:-0.025921751 15:-0.0035909084 16:-0.2136485 17:0.062987477 18:-0.10283437 19:-0.20207492 20:-0.064126149 21:-0.11659519 22:0.0016555229 23:-0.00021106814 24:-0.012335205 25:0.017157173 26:-0.0049047489 27:-0.0013568591 
1 1:0.0020339643 2:0.0035206883 3:0.00088832097 4:-0.0084023224 5:-0.0029827645 6:0.0033276321 7:-0.14985014 8:0.055560172 9:0.049590465 10:-0.12392826 11:-0.052672021 12:0.022440474 13:0.085114591 14:0.10382036 15:-0.041236099 16:0.20372145 17:0.062831372 18:-0.011026385 19:0.062009469 20:-0.036327608 21:-0.0041384124 22:-0.088428356 23:0.024096368 24:0.014093253 25:-0.15761866 26:-0.032303967 27:0.03092178 
1 1:0.0037333707 2:-0.0010180288 3:-0.0045622457 4:0.11477029 5:0.046894055 6:-0.013459563 7:0.12873353 8:0.020361662 9:-0.000154725 10:0.107208 11:-0.070755087 12:-0.022903962 13:-0.12956898 14:0.040526886 15:0.0032307033 16:-0.17174308 17:-0.026547048 18:0.0097643072 19:-0.0040977243 20:-0.00031047373 21:-0.0013417481 22:0.16854852 23:0.041985039 24:-0.0094857262 25:0.11585273 26:-0.032524772 27:0.0026734162 
1 1:-0.009969647 2:0.001061174 3:0.00020391571 4:0.041895572 5:0.010619706 6:-0.016953899 7:0.20999855 8:-0.10682029 9:-0.047962498 10:-0.061055943 11:0.046483554 12:-0.0029898882 13:-0.20578188 14:0.0025591766 15:0.021574559 16:-0.066667356 17:-0.032899234 18:0.0077691195 19:0.1330391 20:0.052443933 21:-0.012559687 22:0.17165171 23:-0.022456883 24:-0.022265522 25:0.0092761908 26:-0.023634255 27:-0.0077464469 
1 1:-0.00072073773 2:0.0003420237 3:-0.0019523929 4:-0.0017384946 5:0.0016685633 6:-0.0025132378 7:0.0064741736 8:0.010153335 9:-0.0024578802 10:0.10492261 11:0.14020108 12:0.087236233 13:0.11509062 14:-0.035680316 15:0.13043202 16:-0.0063883164 17:-0.0021705062 18:-0.050264671 19:-0.13703857 20:0.048046391 21:-0.096943013 22:-0.11784355 23:-0.1548651 24:-0.06137694 25:0.12297069 26:0.12049054 27:0.050929386 
1 1:0.0032233053 2:0.00089251401 3:-0.00048989872 4:-0.0043791295 5:0.024696447 6:-0.01171141 7:-0.16504356 8:0.038698807 9:-0.067680955 10:-0.042241622 11:-0.091401517 12:-0.02102696 13:0.16806623 14:0.1118949 15:0.10234062 16:0.080472827 17:-0.094458729 18:0.04312538 19:-0.051703036 20:0.063208506 21:-0.059016112 22:-0.16337097 23:-0.037322551 24:-0.08224757 25:-0.0071458472 26:-0.037703723 27:0.00071190886 
1 1:-0.009501473 2:0.011970844 3:0.00078203302 4:-0.006795791 5:0.0049653864 6:-0.00064898585 7:0.0018520473 8:0.01275577 9:-0.013511703 10:0.11217881 11:0.032074325 12:-0.028005112 13:0.18478696 14:-0.024046702 15:-0.021815065 16:0.069135867 17:-0.042939436 18:-0.0014478783 19:-0.17882118 20:0.039975747 21:-0.0029120068 22:-0.28426862 23:-0.038113892 24:0.033263624 25:-0.073951662 26:-0.052681696 27:0.032930497 
1 1:0.0038707796 2:0.00034653893 3:-0.0018167133 4:0.0022446821 5:0.010372415 6:-0.0021321455 7:0.16315064 8:0.042396851 9:-0.0071620145 10:0.22935905 11:-0.04341935 12:0.0024624236 13:-0.0067971284 14:-0.0049549802 15:-0.028858101 16:-0.24262747 17:0.039189272 18:-0.0070718387 19:-0.25070101 20:-0.094542108 21:0.030044317 22:0.017082136 23:-0.0078233844 24:0.012597308 25:0.011809003 26:0.0084730694 27:-0.00069079828 
1 1:0.015107 2:0.01665936 3:-0.004163608 4:0.13580093 5:0.051586278 6:-0.019777231 7:0.21921358 8:-0.022919377 9:-0.036171742 10:0.050430406 11:-0.022875441 12:-0.0010256729 13:-0.17217776 14:0.023285685 15:-0.021920511 16:-0.24137096 17:-0.020285718 18:0.030324342 19:-0.076295845 20:-0.035758894 21:0.050928239 22:0.019165032 23:0.0061397078 24:0.012414399 25:0.0086411405 26:-0.0019093092 27:0.0055413246 
1 1:0.00032922925 2:0.010341558 3:0.003661487 4:0.026596198 5:0.012119619 6:0.0001771629 7:0.17303614 8:0.049096793 9:-0.017923551 10:0.21963204 11:-0.010111837 12:-0.011619399 13:-0.066431999 14:0.018262843 15:-0.0059647849 16:-0.23321596 17:-0.0030195671 18:0.0021850693 19:-0.21114841 20:-0.079855151 21:0.021230893 22:-0.0058037974 23:-0.015230277 24:0.0063780448 25:0.010616933 26:0.0060471036 27:0.00039866159 
1 1:-0.00061340892 2:0.010571551 3:0.00094976323 4:0.032210145 5:0.044286232 6:-0.0011212617 7:0.19158295 8:0.073157512 9:-0.019827154 10:0.23291925 11:-0.029794047 12:-0.031884219 13:-0.051547725 14:0.029251551 15:-0.022069676 16:-0.26003361 17:0.0074998471 18:-0.0083372397 19:-0.12720487 20:-0.041354243 21:0.024417836 22:-0.015096574 23:-0.018517973 24:0.0081919897 25:0.00097882946 26:-0.0042663259 27:0.0052636336 
1 1:0.0052145179 2:0.0044492586 3:-0.0060804994 4:0.040387399 5:0.022613516 6:-0.0074235559 7:0.19554 8:0.033047847 9:-0.018853003 10:0.19979784 11:-0.043976411 12:-0.015626682 13:-0.0070910617 14:0.0039383611 15:-0.018073361 16:-0.19664767 17:0.044727646 18:-0.0061404496 19:-0.20966886 20:-0.060062651 21:0.025796814 22:-0.062609136 23:-0.052308738 24:0.024237674 25:0.0047659907 26:0.0092132092 27:0.008275154 
1 1:0.002850004 2:0.011053586 3:-0.0030073414 4:0.05663963 5:0.029668188 6:-0.015151022 7:0.19340166 8:0.047062956 9:-0.015163569 10:0.18653384 11:-0.054353051 12:-0.02056927 13:-0.041588318 14:0.0087394519 15:-0.013425227 16:-0.1937483 17:0.028590867 18:-0.0010024214 19:-0.20625328 20:-0.045607377 21:0.014579914 22:-0.039028291 23:-0.039485838 24:0.026824974 25:0.011609399 26:-0.0016001139 27:0.0070425849 
1 1:0.0013314196 2:0.0014932199 3:0.0011420742 4:0.010545566 5:0.012455776 6:0.0029611054 7:0.1830989 8:0.052880298 9:0.0054672919 10:0.19992591 11:-0.036260854 12:-0.002622627 13:0.0012907032 14:-0.077482097 15:-0.044394638 16:-0.018887613 17:0.082807235 18:0.0036590397 19:-0.28179818 20:0.010522954 21:-0.0092321225 22:-0.098194897 23:-0.067865141 24:0.02544391 25:0.0068516713 26:0.0032666735 27:0.0043146322 
1 1:-0.00036418519 2:0.0045940285 3:0.001253385 4:0.012653087 5:0.015940445 6:0.0022994387 7:0.17068374 8:0.041097369 9:-0.0029705851 10:0.18685777 11:-0.079444446 12:-0.00084872142 13:-0.0010400959 14:0.070740461 15:0.0014605959 16:-0.20087288 17:0.040022437 18:-0.042022251 19:-0.22682466 20:-0.075914398 21:0.010569683 22:-0.034896877 23:-0.022833949 24:0.032222379 25:0.01339227 26:-0.0061918264 27:0.019096533 
1 1:0.0003144205 2:0.0010608326 3:-0.00039580397 4:0.024321029 5:0.022162037 6:-0.0028386889 7:0.12200657 8:0.061848689 9:-0.023670789 10:0.27162418 11:0.016013309 12:-0.037886739 13:0.065679997 14:-0.016214959 15:0.0038339281 16:-0.17866504 17:0.0083856396 18:-0.02499391 19:-0.22920796 20:-0.043720953 21:0.011513036 22:-0.045605466 23:-0.040149987 24:0.02248317 25:0.0034844417 26:-0.0031248082 27:0.0028613301 
1 1:0.0040986044 2:0.00053717173 3:-0.001210873 4:0.072213218 5:0.045622122 6:-0.0088493293 7:0.20326431 8:0.048437428 9:-0.021238288 10:0.16564555 11:-0.042078789 12:0.005257898 13:-0.036100607 14:0.022348313 15:-0.015835602 16:-0.18783219 17:0.015461708 18:-0.019195193 19:-0.19877756 20:-0.049194742 21:0.024680698 22:-0.053461045 23:-0.05433365 24:0.017108573 25:-0.0051646568 26:-0.0074416609 27:0.0033637609 
1 1:0.016852088 2:0.019465674 3:-0.0027550089 4:0.071993724 5:0.051628415 6:-0.01087237 7:0.20111679 8:0.031711701 9:-0.0076632821 10:0.17192756 11:-0.039571863 12:0.010735012 13:0.010124873 14:-0.02362597 15:-0.010545082 16:-0.17805922 17:0.055745441 18:-0.044444539 19:-0.23708831 20:-0.035697728 21:0.020588797 22:-0.021353025 23:-0.022634897 24:0.01626629 25:0.0024172526 26:-0.0031128582 27:0.0081066657 
1 1:0.028832773 2:0.024044091 3:-0.0050867787 4:0.099108733 5:0.035752364 6:-0.014174 7:0.24464849 8:-0.022993937 9:-0.024702784 10:0.063652672 11:-0.068402201 12:0.011688116 13:-0.064701989 14:0.060588814 15:-0.025206234 16:-0.19573015 17:0.010027653 18:-0.010808592 19:-0.16953404 20:-0.060966205 21:0.024044672 22:-0.014793447 23:-0.031971525 24:0.0067058266 25:0.0060926592 26:-0.0041091247 27:0.0044913981 
1 1:0.011077753 2:0.0069523943 3:-0.0022230484 4:0.036510687 5:0.021705173 6:-0.0055120187 7:0.092035837 8:0.040516857 9:-0.0015240443 10:0.15630794 11:0.032916546 12:0.002727333 13:0.15857425 14:-0.046473198 15:0.0079756686 16:0.0041005029 17:-0.030015271 18:-0.014450234 19:-0.097084366 20:0.054087829 21:-0.02769725 22:-0.18000636 23:-0.0034400981 24:-0.010905905 25:-0.17940199 26:-0.054668814 27:0.028289732 
1 1:0.0095553622 2:0.010802574 3:-0.0015457579 4:0.019080414 5:0.016227014 6:-0.0013859117 7:0.089435928 8:0.054917172 9:-0.0026117603 10:0.17950259 11:0.041748136 12:0.00081723242 13:0.1966819 14:0.010432673 15:0.014533637 16:0.17477715 17:-0.064449042 18:0.02309766 19:-0.005690732 20:-0.0062416992 21:-0.01663029 22:-0.10117983 23:0.048374146 24:-0.02817912 25:-0.14604063 26:0.032901902 27:-0.024181448 
1 1:0.0028555125 2:0.0099767949 3:-0.0031025452 4:0.024140272 5:0.02096661 6:-0.0080091925 7:0.12063953 8:0.046386164 9:-0.011175114 10:0.21654059 11:0.027278287 12:-0.006141521 13:0.17236458 14:-0.01621186 15:0.020688143 16:-0.040082395 17:0.011850746 18:-0.020783015 19:-0.27329957 20:-0.0054722768 21:-0.02796928 22:-0.072821267 23:-0.01661912 24:0.0072021093 25:0.031669963 26:-0.013537926 27:-0.014261622 
1 1:0.0038578839 2:0.0039523174 3:-0.0042399131 4:0.0062244027 5:0.01110204 6:-0.0048063206 7:0.079987645 8:0.028928328 9:-0.012810646 10:0.20439067 11:0.017527141 12:-0.0019371401 13:0.15719967 14:-0.049548138 15:0.017690249 16:-0.058265105 17:0.032828752 18:-0.013066634 19:-0.19819495 20:0.027119294 21:-0.032054331 22:-0.21745726 23:-0.030874614 24:0.0028691804 25:-0.019903287 26:-0.016716465 27:0.018841468 
1 1:-0.012894255 2:0.0062903808 3:-0.0025371248 4:0.10908404 5:0.065599985 6:0.0010111469 7:0.20916526 8:0.05071152 9:-0.0086960206 10:0.075309783 11:-0.10573467 12:-0.076011464 13:-0.050781664 14:0.048266605 15:-0.017048279 16:-0.19496836 17:0.059774723 18:0.0033350119 19:-0.14010672 20:-0.068894275 21:0.026150677 22:-0.022933319 23:-0.036674295 24:0.014127892 25:0.0044151414 26:0.0051183631 27:0.010445357 
1 1:0.00042126127 2:0.0020021775 3:-0.0068212845 4:0.087880708 5:0.052360971 6:-0.016634773 7:0.29704702 8:-0.0090822782 9:0.018061968 10:0.057926726 11:-0.030028278 12:-0.016093358 13:-0.15028255 14:0.047278516 15:-0.02998681 16:-0.19184503 17:-0.0045815469 18:0.017555036 19:-0.10393961 20:-0.057389785 21:0.033367954 22:-0.024599748 23:-0.030214809 24:0.0092524886 25:0.0049667917 26:-0.00028348173 27:0.0060730833 
1 1:-0.0023444761 2:-3.3027436e-006 3:-0.0013914661 4:0.027021835 5:0.024230089 6:-0.0051241056 7:0.16676041 8:0.053896807 9:0.0053559714 10:0.22389995 11:-0.048057109 12:0.024427766 13:-0.050943166 14:0.011910199 15:-0.012975872 16:-0.18416132 17:0.0077421195 18:-0.014775936 19:-0.18754496 20:-0.053484552 21:0.024129575 22:-0.06866613 23:-0.069708601 24:-0.0014244935 25:0.005857382 26:-0.011481718 27:-0.017580975 
1 1:0.040270187 2:0.028414601 3:-0.02005622 4:0.19527209 5:0.051298264 6:-0.033145141 7:0.19660069 8:-0.040062744 9:-0.00078911433 10:0.014986214 11:-0.014150937 12:-0.029762987 13:-0.14127484 14:0.032448389 15:-0.020489035 16:-0.18043841 17:-0.029589346 18:0.034265716 19:-0.091855921 20:-0.071358941 21:0.03811688 22:-0.024864465 23:-0.025830645 24:0.0041825539 25:0.0085658608 26:0.0097654108 27:0.0062570409 
1 1:0.0079557961 2:0.0067534759 3:0.012588882 4:0.026151046 5:0.010083918 6:0.017539514 7:0.12474261 8:0.026358107 9:0.03069411 10:0.20808554 11:-0.01465139 12:0.026887937 13:0.099504568 14:-0.014377499 15:0.007278163 16:-0.085364692 17:0.0079197716 18:0.013193053 19:-0.24476185 20:0.0028546702 21:0.0098499367 22:-0.1425547 23:-0.049554221 24:0.020612802 25:-0.01149324 26:-0.02132385 27:-0.0016073585 
1 1:0.01412071 2:0.0037222749 3:-0.0066662389 4:0.061375689 5:0.014883746 6:-0.013737617 7:0.19095434 8:-0.0014897869 9:-0.026106818 10:0.16973741 11:-0.088887297 12:-0.0013025416 13:-0.045988332 14:0.024782348 15:-0.0016311166 16:-0.19385006 17:0.056461163 18:0.022166189 19:-0.20492941 20:-0.016368931 21:0.029292218 22:-0.044197753 23:-0.036919896 24:0.0086804479 25:0.013084075 26:0.0034192842 27:0.0021235114 
1 1:0.0032783793 2:0.0068974439 3:-0.0027569979 4:0.027321197 5:0.015109465 6:-0.0065034265 7:0.20411283 8:0.038590159 9:-0.025624773 10:0.24564146 11:-0.070885979 12:-0.029749142 13:-0.059958395 14:0.031672157 15:-0.010483269 16:-0.20751353 17:0.038151033 18:0.024701973 19:-0.14594083 20:-0.048785906 21:0.031038618 22:-0.041741051 23:-0.021055179 24:0.012306611 25:-0.0037230873 26:0.0043865526 27:0.0038575716 
1 1:0.011497495 2:0.003103856 3:-0.0010156132 4:0.056760825 5:0.014072823 6:-0.0045703608 7:0.1680439 8:0.004070627 9:-0.020762248 10:0.16133304 11:-0.061171658 12:-0.038835671 13:0.027415719 14:-0.030764768 15:-0.021128595 16:-0.093464665 17:0.058836631 18:-0.0014735232 19:-0.19687864 20:0.014394499 21:0.024575116 22:-0.160703 23:-0.077188537 24:0.022535454 25:-0.018677745 26:-0.038135029 27:0.021894522 
1 1:0.017283672 2:0.014694851 3:0.0024339315 4:0.068538398 5:0.041683726 6:-0.0032920204 7:0.17320982 8:0.045637593 9:-0.017880708 10:0.17357467 11:-0.038961526 12:-0.0092843752 13:0.032955334 14:-0.0014098879 15:-0.019663533 16:-0.1145052 17:0.063444003 18:-0.023508994 19:-0.19229227 20:0.0029021858 21:-0.001807297 22:-0.12593929 23:-0.055117756 24:0.01964213 25:-0.020995187 26:-0.025875047 27:0.014033756 
1 1:-0.0109847 2:0.00031743219 3:0.0022374364 4:0.035694927 5:0.014466034 6:-0.023288013 7:0.23493826 8:0.004778903 9:-0.037541587 10:0.20198517 11:-0.10941528 12:-0.010289647 13:-0.0019503325 14:0.0020268278 15:-0.020881936 16:-0.1720283 17:0.068240687 18:-0.042928655 19:-0.19206497 20:-0.022324916 21:0.022949876 22:-0.045800295 23:-0.021975564 24:0.035397984 25:-0.0024093171 26:0.0022921986 27:0.007472279 
1 1:-0.0035391282 2:-0.0024122198 3:-0.0013276538 4:0.033798091 5:0.022968384 6:-0.0015418517 7:0.14026876 8:0.045907594 9:0.0046147327 10:0.24514811 11:-0.040711515 12:0.0087082814 13:0.036357906 14:-0.031903584 15:-0.014268089 16:-0.22271761 17:0.084191829 18:-0.04140646 19:-0.19772683 20:-0.040127236 21:0.037851125 22:-0.042358756 23:-0.032723736 24:0.01494315 25:0.0048838397 26:-4.8694463e-005 27:-0.0021772489 
1 1:0.0008524165 2:0.0030136565 3:0.0014075359 4:0.011421918 5:0.0055489 6:0.0030297388 7:0.09483213 8:0.029617434 9:0.0015818205 10:0.22519031 11:-0.054885983 12:-0.011661489 13:0.047676831 14:-0.056614809 15:-0.016956121 16:-0.14405647 17:0.077193998 18:-0.034530886 19:-0.24185278 20:-0.028319627 21:0.026521204 22:-0.10589226 23:-0.093552656 24:0.032917708 25:-0.007661968 26:-0.016686831 27:0.005147622 
1 1:0.005812089 2:0.008689044 3:-0.0024319869 4:0.021872589 5:0.017636264 6:-0.0030555716 7:0.10054749 8:0.046915185 9:-0.0018767964 10:0.23503262 11:0.016708899 12:0.0025105344 13:0.11222063 14:-0.042825092 15:-0.0013868859 16:-0.095118515 17:0.053031489 18:-0.027426517 19:-0.20281522 20:-0.0018949695 21:-0.043947309 22:-0.12062797 23:-0.06706132 24:-0.02067142 25:-0.019818235 26:-0.028648101 27:-0.0018369931 
1 1:0.001161852 2:0.0018565938 3:-0.0022105195 4:0.042886738 5:0.024185782 6:-0.0045276438 7:0.20250572 8:0.055432498 9:0.012542007 10:0.21987285 11:-0.05380784 12:0.046062015 13:0.040698998 14:-0.042312872 15:0.020561885 16:-0.18407993 17:0.09973295 18:-0.03283605 19:-0.18245919 20:-0.016426101 21:0.030046251 22:-0.021410154 23:-0.010093546 24:0.021345936 25:0.013849841 26:0.0041335085 27:-0.0006783756 
1 1:0.0015000524 2:-0.0024851181 3:-0.0020400067 4:0.01949501 5:-0.0097564245 6:-0.010635132 7:-0.071204446 8:0.017808788 9:0.020535639 10:-0.16787063 11:-0.04411431 12:0.013902068 13:0.20227557 14:0.04430332 15:-0.037733205 16:0.08009778 17:-0.031708702 18:0.0062984307 19:-0.20335974 20:0.011109522 21:0.0092728054 22:-0.0031434903 23:-0.020288181 24:-0.01452263 25:0.19439295 26:0.022907389 27:0.0096579241 
1 1:0.0038584049 2:-0.0010096056 3:0.0011934941 4:-0.0042908085 5:-0.0016422386 6:0.0011413469 7:-0.17156073 8:-0.04605107 9:0.03616444 10:0.034731507 11:0.013270287 12:-0.032309923 13:0.21742523 14:0.031501822 15:-0.0052566761 16:-0.080425106 17:0.010357568 18:0.013370063 19:-0.17745073 20:-0.061275326 21:0.021783357 22:0.11040348 23:0.056617327 24:-0.022787767 25:0.14246546 26:-0.014006617 27:0.0097438032 
1 1:-0.036965787 2:-2.217745e-005 3:-0.0014366767 4:-0.18767068 5:-0.021009391 6:-0.0089471005 7:-0.028001314 8:-0.0080880104 9:0.0074698161 10:0.16902004 11:0.028697738 12:-0.0077488264 13:0.1257517 14:-0.02040327 15:-0.0052330047 16:-0.098265588 17:0.01485498 18:-0.013744925 19:-0.16380596 20:0.003844365 21:0.01982333 22:0.023829425 23:-0.0021646563 24:0.0014689149 25:0.15479486 26:0.0023948906 27:-0.013482653 
1 1:-0.0065852082 2:0.0016226659 3:0.0030557071 4:-0.18731612 5:0.0037198744 6:0.022621494 7:-0.022987107 8:-0.0025117544 9:-0.017639222 10:0.24191867 11:0.0038872745 12:-0.018992446 13:-0.023293551 14:-0.0057850196 15:-0.018800778 16:-0.21291037 17:-0.019094421 18:0.024754377 19:0.11238844 20:0.018006865 21:-0.021184996 22:0.13740924 23:-0.0075498023 24:-0.011545191 25:-0.031925127 26:0.0013521888 27:0.0059970957 
1 1:-0.073527098 2:0.0014909633 3:0.0047334344 4:-0.15529996 5:-0.018895388 6:0.0091249356 7:0.10690735 8:0.019359561 9:-0.022921363 10:0.17074983 11:-0.0050655096 12:-0.017273718 13:-0.073096924 14:0.0094290683 15:0.0075511765 16:-0.16880754 17:-0.018765215 18:0.030082984 19:0.024181928 20:0.0079862317 21:-0.017458601 22:0.18803321 23:0.0075172577 24:-0.019400839 25:-0.019954344 26:-0.0022928237 27:0.0023639477 
1 1:-0.057116389 2:0.004606131 3:0.012241964 4:-0.23692898 5:-0.034153026 6:0.017843362 7:0.028058825 8:0.0015847966 9:-0.0096608838 10:0.24031158 11:0.030866781 12:0.0038962562 13:-0.0025397395 14:-0.0031732051 15:-0.01323835 16:-0.19838323 17:-0.00899076 18:0.021387137 19:-0.0091672186 20:-0.0044511496 21:0.0050818119 22:0.19564472 23:0.017689072 24:-0.027815206 25:0.0054622381 26:-0.0015647768 27:-0.00178296 
1 1:-0.011802847 2:0.00082793564 3:0.00019606543 4:-0.16177635 5:-0.0045003151 6:0.0014464527 7:-0.045684185 8:-0.019158922 9:-0.015151816 10:0.20511556 11:0.028488098 12:-0.010479619 13:0.085152559 14:-0.014332891 15:-0.0020011393 16:-0.18636413 17:0.0095354458 18:0.0010465258 19:-0.075422123 20:-0.02453357 21:0.014173746 22:0.13278031 23:0.029533381 24:-0.030768733 25:0.07287588 26:-0.0030366268 27:-0.013361446 
1 1:0.0063966843 2:0.0040750257 3:-7.1461829e-005 4:0.0004496031 5:-0.0023473771 6:-0.0029092557 7:-0.0015804059 8:0.0046168463 9:-0.0044102157 10:-0.16277263 11:0.014067837 12:-0.078269809 13:-0.20669806 14:-0.070383504 15:0.017247954 16:0.16576846 17:0.072591498 18:-0.032337219 19:0.30358952 20:0.00043387539 21:0.063323468 22:-0.0054538506 23:0.0071515054 24:0.011701155 25:-0.064222723 26:0.011849837 27:-0.032987706 
1 1:-0.017196337 2:0.0041611199 3:-0.011590887 4:-0.13066466 5:-0.00073534512 6:-0.031526256 7:-0.058921643 8:-0.02909266 9:0.03254649 10:0.17979206 11:0.03869101 12:-0.0040679337 13:0.055343326 14:-0.017874639 15:0.021288045 16:-0.09380421 17:0.014696264 18:-0.040757243 19:-0.1524664 20:-0.05083245 21:0.025724268 22:0.082794115 23:0.047183082 24:-0.019801676 25:0.15823548 26:-0.0042080614 27:0.03349825 
1 1:-0.00198006 2:0.0085563958 3:-0.0044860137 4:-0.0069834683 5:0.0083839316 6:-0.095987275 7:-0.013441992 8:0.020067323 9:-0.13023543 10:-0.0084904255 11:0.012346892 12:-0.15636934 13:-0.0043672528 14:0.0031156994 15:-0.10333834 16:0.0049591023 17:-0.017747991 18:0.17927994 19:0.02544865 20:-0.022832448 21:0.20719495 22:0.018710231 23:0.005620704 24:0.099662811 25:-0.0067450404 26:0.0030855292 27:-0.0046084202 
1 1:0.0011398235 2:-0.00090350979 3:-0.00069247116 4:0.0053429697 5:-0.0050890706 6:-0.0040669432 7:-0.0056452467 8:-0.0041075307 9:-0.01866358 10:-0.017029159 11:0.026101565 12:-0.16335596 13:0.0017322596 14:-0.013425048 15:-0.24533068 16:0.0015157366 17:0.0025687246 18:0.097560741 19:0.042738322 20:-0.021066349 21:0.24838635 22:0.016748887 23:-0.015548717 24:0.1576623 25:0.0087690316 26:0.001430989 27:0.047373425 
1 1:-0.0028478035 2:-0.00092235673 3:-0.057653625 4:-0.0018918634 5:0.0099831456 6:-0.13834696 7:-0.0019616224 8:0.0017284498 9:-0.1082476 10:-0.0053984951 11:-0.026791405 12:-0.10835744 13:-0.0022490462 14:-0.019827353 15:-0.022503432 16:0.0019532254 17:0.017109374 18:0.12376235 19:0.0033206143 20:0.013968975 21:0.15482397 22:0.018048586 23:0.013812603 24:0.14372733 25:0.0086080059 26:0.01156368 27:0.1266689 
1 1:0.0011901092 2:-0.016553959 3:0.028889613 4:-0.0095495824 5:0.008134339 6:-0.0063767079 7:-0.0056073698 8:0.025145805 9:-0.13471603 10:-0.012872097 11:-0.029238382 12:-0.089617729 13:-0.001627982 14:-0.001596652 15:0.052368883 16:0.019745737 17:-0.0073057981 18:0.19230592 19:0.029102214 20:-0.011266533 21:0.2184891 22:0.0068686265 23:-0.021664428 24:0.15204981 25:0.0089666396 26:0.0016930004 27:0.099575214 
1 1:0.0023117005 2:0.0026932473 3:-0.029870542 4:-0.0060335593 5:-0.0016450627 6:-0.12896776 7:-0.021730127 8:0.019780725 9:-0.1458118 10:-0.037390754 11:0.019127587 12:-0.090325311 13:-0.00090377498 14:-0.0038305328 15:-0.035222597 16:0.0013644337 17:0.0077998466 18:0.10537533 19:0.02062601 20:0.0054794289 21:0.17864923 22:0.019976813 23:-0.018624824 24:0.16025269 25:0.038167983 26:-0.0014560985 27:0.10192575 
1 1:-0.0006649124 2:0.002903447 3:0.0013376368 4:-0.011623753 5:-0.013413331 6:-0.066869229 7:-0.010889937 8:0.016150182 9:-0.18411419 10:-0.026389044 11:0.035295412 12:-0.1462802 13:-0.010545813 14:0.0004345715 15:-0.06721887 16:0.010113916 17:-0.0030544575 18:0.069242723 19:0.023798678 20:-0.0076267272 21:0.16549143 22:0.029360753 23:-0.024794385 24:0.16876441 25:0.03494589 26:-0.0052195629 27:0.1053266 
1 1:-0.00056465657 2:0.016591899 3:0.055703543 4:-0.0076216455 5:0.013284904 6:0.1006703 7:-0.004337064 8:-0.03727971 9:-0.17033727 10:0.014154472 11:-0.055081639 12:-0.015037135 13:-0.0092266034 14:0.046825856 15:0.037912689 16:0.011698298 17:0.048025541 18:0.16287711 19:-0.018913057 20:-0.010178291 21:-0.12223847 22:0.0093906634 23:-0.072189905 24:-0.083736122 25:-0.0019918238 26:0.070035316 27:0.12186021 
1 1:0.002338778 2:0.021683315 3:0.036128376 4:0.00078320294 5:0.055812031 6:0.13453981 7:0.0092215706 8:0.046868071 9:0.15696515 10:-0.0028151909 11:0.012528824 12:0.099458255 13:-0.01015636 14:0.012888896 15:0.011898429 16:-0.021164736 17:0.0091241198 18:-0.18856995 19:0.0096883643 20:-0.1376376 21:-0.25422183 22:-0.0083169788 23:-0.024579961 24:0.018094294 25:0.007234687 26:0.011771246 27:0.0092997458 
1 1:-0.017250298 2:0.007882406 3:-0.12073333 4:-0.0074613327 5:-0.0037616547 6:-0.059922185 7:-0.023724882 8:-0.11366411 9:-0.21593282 10:0.0095133958 11:-0.064748734 12:-0.025218159 13:0.022579307 14:0.060025256 15:0.032785892 16:0.019706612 17:0.051610414 18:0.14294535 19:0.0040961839 20:0.039365601 21:0.17844497 22:0.0012807903 23:-0.00088438287 24:0.032411516 25:-0.016685354 26:0.014815508 27:-0.057278719 
1 1:-0.0017621511 2:-0.0085800271 3:-0.009604862 4:0.0014627279 5:-0.0012019505 6:-0.046929911 7:0.048718918 8:0.012262089 9:-0.15019089 10:0.068696074 11:-0.052350529 12:-0.23261063 13:-0.0076914676 14:-0.025616692 15:-0.044107456 16:-0.0087871421 17:0.027392795 18:0.079232447 19:-0.046516761 20:0.021446317 21:0.22089164 22:-0.037624422 23:-0.018829931 24:0.14275372 25:-0.0077354521 26:-0.0023137548 27:0.020551192 
1 1:-0.00087376422 2:0.0036145134 3:0.0021083292 4:-0.00027758858 5:-0.0069772098 6:-0.0015694514 7:-0.0098268893 8:-0.0040244446 9:-0.019103356 10:0.016306309 11:0.027832706 12:-0.1667057 13:0.037325781 14:-0.020672789 15:-0.26708296 16:0.017378025 17:-0.045585524 18:-0.060765091 19:0.00040524857 20:0.05287664 21:0.10761558 22:-0.02592002 23:0.016665895 24:0.20717287 25:-0.0050411136 26:-0.037754476 27:0.11290971 
1 1:0.00101737 2:0.0033006023 3:0.0055482187 4:-0.011834812 5:-0.0071343118 6:-0.014190827 7:-0.021995308 8:0.016472783 9:-0.17253819 10:0.0033061379 11:-0.0092652915 12:-0.2691707 13:-0.025317766 14:-0.0073419092 15:-0.046742029 16:0.0084016193 17:0.0037491289 18:0.081757799 19:0.012031302 20:0.0098507665 21:0.10852168 22:0.0020640311 23:-0.016917545 24:0.14326601 25:-0.0050281519 26:-0.010282584 27:0.13928135 
1 1:-0.0032061278 2:-0.0035148163 3:-0.0023203108 4:-0.01298931 5:-0.0015008157 6:-0.043196481 7:-0.002649907 8:0.017338565 9:-0.20966141 10:0.0016025179 11:-0.024604235 12:-0.20664716 13:-0.019698652 14:-0.025406905 15:-0.026347326 16:0.011567869 17:0.018552825 18:0.092302203 19:0.011436673 20:0.053726967 21:0.20194155 22:0.0050276597 23:-0.010360116 24:0.14976744 25:0.0079226214 26:-0.0043963073 27:0.033969503 
1 1:0.0034918692 2:0.0037692683 3:0.0054895044 4:-0.0034196295 5:-0.0060116863 6:0.0050117481 7:-0.015981473 8:0.035268296 9:-0.060198598 10:0.04762505 11:0.16420165 12:-0.37783483 13:-0.021204108 14:-0.012993077 15:-0.029837159 16:-0.018884756 17:-0.014325297 18:0.1126582 19:-0.016438352 20:-0.13637394 21:0.20910411 22:0.019594561 23:-0.028902311 24:0.063695125 25:0.0066387593 26:-0.0075198631 27:0.018286778 
1 1:0.02263 2:0.13125424 3:-0.25052315 4:0.015705366 5:0.052254919 6:-0.18077466 7:-0.029197985 8:0.01176369 9:0.034277756 10:-0.014321961 11:-0.020967985 12:0.10292239 13:-0.00053395703 14:-0.085464731 15:0.1853005 16:-0.0091663646 17:-0.064973921 18:0.12315479 19:0.008668093 20:-0.0035849554 21:0.023587456 22:0.0015048839 23:0.00063206686 24:0.0031212808 25:-0.0020421748 26:-0.00099878816 27:0.00071343954 
1 1:-0.0034206242 2:-0.0017043583 3:-0.0029037523 4:0.00052557845 5:0.00098974642 6:-0.022010315 7:0.014216782 8:-0.017835572 9:-0.1567881 10:0.025934851 11:-0.028207198 12:-0.18016344 13:0.025735976 14:-0.019022044 15:-0.086299434 16:0.0023607388 17:0.0088998545 18:0.058307394 19:-0.022329861 20:0.04533251 21:0.16192761 22:-0.017203279 23:0.013949917 24:0.19638078 25:1.8875098e-005 26:-0.026347483 27:0.10906493 
1 1:0.0032248534 2:0.0075253779 3:-0.00010101563 4:-0.0029288142 5:0.0019854673 6:-0.0068743513 7:-0.01684645 8:0.028921321 9:-0.09754055 10:-0.0059240684 11:0.014873405 12:-0.25947723 13:-0.0074967742 14:0.0012698793 15:-0.11348445 16:0.0049347808 17:0.0041085747 18:0.058374163 19:0.0009676257 20:-0.017157253 21:0.18914533 22:0.0095446324 23:-0.01134107 24:0.20095886 25:0.012386799 26:-0.013334046 27:0.054113701 
1 1:0.042649787 2:0.025684109 3:-0.084259525 4:0.0016785751 5:0.052695688 6:-0.17956308 7:0.015628494 8:0.028891528 9:-0.10409439 10:-0.0026169401 11:-0.004777337 12:0.027879257 13:-0.030951437 14:-0.051456947 15:0.15110323 16:-0.027387818 17:-0.070983164 18:0.20871386 19:0.029979464 20:-0.060688745 21:0.12601623 22:0.0017874483 23:-0.0035509004 24:-0.0065655024 25:0.00022434618 26:0.015773796 27:-0.038881604 
1 1:0.0011297881 2:0.0024611575 3:0.0009333379 4:0.0031020928 5:0.012167841 6:-0.019606866 7:0.020354673 8:0.044114541 9:-0.15136248 10:0.038136661 11:0.037571386 12:-0.21728301 13:0.02274476 14:-0.018141456 15:-0.087818675 16:-0.028158033 17:-0.00090438779 18:0.14458168 19:-0.02106482 20:-0.048135515 21:0.22447367 22:0.001096396 23:-0.043716576 24:0.10481083 25:0.006856089 26:0.0003618284 27:-0.0021033746 
1 1:-0.0081901383 2:-0.014347631 3:-0.02534321 4:0.0080335531 5:-0.012910841 6:-0.13467585 7:0.10680408 8:-0.05837645 9:-0.25301194 10:-0.033659536 11:-0.0071143713 12:0.0017687648 13:-0.019762814 14:0.019984618 15:0.088324435 16:-0.055236068 17:0.0096936505 18:0.20529759 19:-0.034161195 20:-0.0008467072 21:0.1555391 22:0.009989433 23:6.5240238e-005 24:0.026604565 25:-0.0052890386 26:-0.01687762 27:-0.01881892 
1 1:0.0023124865 2:-0.002636357 3:0.0025396224 4:-0.0074548405 5:-0.00048775331 6:-0.040190265 7:0.0010830259 8:0.014670571 9:-0.17039517 10:0.031057024 11:-0.0069106827 12:-0.26675236 13:-0.0034143347 14:-0.011838038 15:0.12765199 16:-0.025084285 17:-0.071009442 18:0.27411583 19:0.012606626 20:-0.014983657 21:0.078606747 22:0.010416421 23:0.0012711541 24:-0.015183933 25:0.0017548786 26:-0.00015453347 27:-0.0025932591 
1 1:-0.00048708977 2:-0.0015924876 3:0.0069880765 4:-0.009114447 5:-0.00034391906 6:0.0085489238 7:0.0043857493 8:0.023363138 9:-0.050120026 10:0.034707252 11:0.12909324 12:-0.25926796 13:0.017580751 14:-0.0091601638 15:-0.10718845 16:-0.0050775916 17:-0.015789486 18:0.0016700567 19:-0.0085031008 20:-0.0047276965 21:0.077575549 22:-0.047424126 23:-0.092683204 24:0.35315603 25:-0.0045775943 26:-0.039050255 27:0.046770081 
1 1:0.0025744063 2:-0.0057565812 3:-0.0058636633 4:0.0019508169 5:0.0013672413 6:-0.002373301 7:0.012557453 8:0.058553353 9:-0.11505721 10:0.037499227 11:0.092785694 12:-0.27766564 13:-0.0036335739 14:-0.022606576 15:-0.039183836 16:-0.0022458676 17:-0.0012434579 18:0.0443215 19:-0.024646742 20:-0.026040982 21:0.20987098 22:-0.024799371 23:-0.11557096 24:0.21060629 25:-0.0036354484 26:0.0088615054 27:-0.016371561 
1 1:0.038871493 2:0.074136548 3:-0.15594926 4:0.035429247 5:0.091825642 6:-0.21056515 7:-0.043811366 8:0.0265765 9:-0.078239173 10:-0.023805574 11:-0.024471384 12:0.0021706691 13:-0.04713136 14:-0.0066090119 15:0.11993994 16:0.022446541 17:-0.074439391 18:0.15737218 19:0.0004633381 20:-0.032390162 21:0.10312103 22:0.0073550958 23:-0.017809486 24:0.025684396 25:0.014681021 26:0.0092559066 27:-0.0050347587 
1 1:-0.012230447 2:-0.0044663129 3:-0.0010011112 4:0.0038291328 5:0.008899902 6:-0.0001156213 7:-0.00085285393 8:-0.00089324499 9:-0.011319841 10:0.035959721 11:0.089956068 12:-0.24857427 13:-0.022651227 14:0.048086207 15:-0.19794296 16:-0.010341849 17:0.0025508066 18:0.0091058817 19:-0.017135687 20:-0.035258971 21:0.17043284 22:0.031181529 23:-0.064919621 24:0.19582534 25:-0.0014862154 26:-0.031146867 27:0.091405682 
1 1:0.00074981997 2:-0.0035438528 3:0.0037938997 4:0.0024345994 5:-0.0032120838 6:-0.0035556906 7:-0.00026868854 8:0.0061893854 9:-0.0019565539 10:0.10424188 11:0.045613971 12:-0.39858416 13:0.043734852 14:-0.033187561 15:-0.051617842 16:-0.080783032 17:-0.033228371 18:0.40037042 19:-0.0014405014 20:-0.010973478 21:0.046888344 22:-0.00076678727 23:0.004129095 24:-0.011228639 25:-0.014041295 26:-0.017673263 27:-0.0047467356 
1 1:-0.0055882707 2:0.011210102 3:0.0022330147 4:-0.00010814661 5:-0.0088414215 6:-0.0030650059 7:-0.0033828763 8:-0.0057896436 9:0.0039406456 10:0.0043202913 11:0.0092325192 12:-0.025321573 13:0.022022063 14:0.061517645 15:-0.41723007 16:0.0039517744 17:0.0052102786 18:0.19437061 19:-0.0075905002 20:-0.046463326 21:0.27633387 22:-0.016454959 23:-0.010754778 24:-0.032458346 25:-0.0063518528 26:-0.0042338911 27:-0.0015323248 
1 1:-0.0066652871 2:0.0068182019 3:-0.0031807502 4:0.074933656 5:0.044627365 6:0.029413434 7:-0.1246281 8:-0.067831598 9:-0.048071504 10:0.083783813 11:0.05726726 12:0.0095203687 13:-0.060746264 14:-0.037850268 15:-0.0068751918 16:0.017075727 17:-0.019309215 18:0.018865682 19:0.23050079 20:0.062185775 21:0.06161401 22:-0.22485355 23:0.0050594094 24:-0.087737419 25:-0.041098416 26:-0.03551643 27:-0.0012896989 
1 1:0.0022558835 2:-0.0051941611 3:-0.00057858275 4:-0.003618777 5:-0.0032126815 6:0.0018545383 7:0.0091479179 8:0.021862214 9:-0.026386779 10:0.099114522 11:0.081685156 12:-0.39879575 13:-0.010245052 14:0.0098934202 15:0.10190637 16:-0.03698571 17:-0.11100066 18:0.35265699 19:0.016953191 20:0.01797856 21:-0.014596858 22:-0.0041817194 23:-0.0067828107 24:0.019292392 25:-0.0070041534 26:-0.0014209128 27:0.0079109669 
1 1:0.0064718942 2:0.002036571 3:-0.00042137704 4:-0.0021526185 5:-0.0018337725 6:-0.0035994945 7:-0.01038209 8:-0.0032045206 9:-0.00054440374 10:0.0032552504 11:0.021813296 12:-0.022702493 13:0.099736989 14:0.08695399 15:-0.41617951 16:0.01005025 17:-0.0022481368 18:-0.019507015 19:-0.036501493 20:-0.057428122 21:0.25274864 22:-0.018927621 23:-0.084594019 24:0.18353479 25:0.0017452533 26:0.020311028 27:-0.0097621875 
1 1:0.11045207 2:0.040485416 3:-0.29351571 4:0.012484924 5:-0.0027240787 6:-0.068649292 7:-0.018456962 8:0.0016560091 9:0.066476032 10:-0.067215689 11:-0.0067773447 12:0.23462057 13:-0.029998437 14:-0.045017064 15:0.22264276 16:0.01187169 17:0.011999704 18:0.033002142 19:-0.013408116 20:-0.0097793527 21:-0.017419174 22:-0.004381733 23:-0.0037331795 24:-0.0054750969 25:0.00037900405 26:0.0013274909 27:0.0022067782 
1 1:0.0009266783 2:-0.0018210205 3:0.0081653856 4:-0.0067449152 5:-0.010267406 6:-0.0098932218 7:-0.0030818963 8:0.0066366647 9:-0.071664669 10:0.075363733 11:0.022771681 12:-0.3837119 13:-0.024167348 14:0.019416317 15:0.073601589 16:-0.023838887 17:-0.018075645 18:0.28686774 19:0.0083836829 20:-0.017169945 21:0.10666136 22:-0.022040583 23:-0.016414102 24:0.0081463782 25:-0.0024420125 26:-0.0022464313 27:-0.0058865598 
1 1:-0.0097791012 2:0.0097944858 3:0.048491627 4:-0.050211523 5:0.0029020449 6:0.15414402 7:-0.020789275 8:-0.0069271154 9:0.061185498 10:0.01254695 11:0.017972814 12:-0.13785022 13:0.0109705 14:-0.011147571 15:-0.10986506 16:0.0071818251 17:0.0089534735 18:0.10076421 19:-0.0078321798 20:-0.036892854 21:0.14186095 22:0.0010249808 23:0.011493175 24:-0.084651396 25:0.0035428666 26:0.0006510574 27:-0.1381983 
1 1:-0.0011778213 2:0.0019662504 3:0.0029207219 4:-0.00098602893 5:0.0029142404 6:0.0029285906 7:0.034653503 8:0.0013720877 9:-0.065003134 10:0.037272584 11:-0.0063000894 12:-0.19444449 13:-0.051612597 14:0.015145312 15:0.23103662 16:-0.016581859 17:-0.011452752 18:0.0023954485 19:-0.0029740068 20:-0.01473769 21:-0.19639432 22:0.013803628 23:0.0096049998 24:0.1988534 25:-0.0008555121 26:-0.0064316383 27:-0.065918356 
1 1:-0.00078864512 2:0.00013356884 3:-0.0058730128 4:-0.0076280651 5:0.001791378 6:-0.063758776 7:-0.0049803061 8:0.022341093 9:-0.13962685 10:0.012998273 11:0.030245123 12:-0.15687279 13:0.026407037 14:-0.0055381241 15:-0.055067107 16:-0.021030955 17:-0.014226887 18:0.13738771 19:-0.024948616 20:-0.034934718 21:0.19781712 22:-0.036966693 23:-0.042333852 24:0.16282433 25:-0.027068004 26:-0.018212194 27:0.040934496 
1 1:-0.0018162645 2:-0.00060102495 3:-0.0018529198 4:-0.0060921572 5:-0.0019479454 6:-0.016789373 7:0.0067768982 8:0.034523133 9:-0.18518187 10:0.039418865 11:0.025501071 12:-0.23606735 13:-0.014291209 14:-0.0013121165 15:0.074936129 16:-0.040410239 17:-0.049327906 18:0.27882633 19:-0.030461704 20:-0.055056896 21:0.16146983 22:-0.0054139895 23:0.0062335259 24:-0.0010253175 25:-0.0049023209 26:0.00033089597 27:-0.0038563649 
1 1:-0.0025028272 2:0.0024026826 3:0.00073960639 4:0.0024155537 5:0.00066120602 6:-0.0011982491 7:0.015036199 8:0.017854838 9:-0.084344745 10:0.033961691 11:0.0085321013 12:-0.24991888 13:0.016415117 14:-0.0077812551 15:-0.10916733 16:0.007343547 17:-0.0022050622 18:0.11486822 19:0.0047278674 20:-0.010455365 21:0.23692557 22:-0.009102189 23:-0.029407637 24:0.15935557 25:-0.016274003 26:-0.02134135 27:0.0096000768 
1 1:-2.2321716e-005 2:-0.001288887 3:-0.0050707674 4:0.0057075038 5:0.00034339289 6:-0.053615853 7:0.01389984 8:0.039687671 9:-0.20448564 10:-0.0047675073 11:-0.010996179 12:-0.20996162 13:0.023763489 14:0.0070908214 15:0.10774235 16:0.0070393225 17:-0.0070409207 18:0.24309607 19:-0.029305715 20:-0.031830829 21:0.11463777 22:-0.0033411444 23:-0.027004832 24:-0.010107301 25:-0.0024925 26:0.015396832 27:0.0049448716 
1 1:-0.0023162425 2:0.023516398 3:-0.022840461 4:0.010970781 5:0.018872837 6:-0.066545971 7:0.046088338 8:0.021534227 9:-0.19360058 10:-0.018618679 11:0.004722375 12:-0.17422268 13:0.011204921 14:-0.0010543532 15:0.034948856 16:0.044558991 17:-0.0314673 18:0.15273619 19:0.030358572 20:-0.062136617 21:0.16292459 22:-0.013497896 23:-0.043141697 24:0.10123958 25:-0.0032373948 26:-0.015552207 27:0.031053305 
1 1:0.013768089 2:-0.0029732671 3:-0.0080061313 4:0.032054197 5:0.051022843 6:-0.12506899 7:0.055531263 8:0.035176892 9:-0.25729308 10:0.048632469 11:0.015990367 12:0.024803407 13:0.014956608 14:-0.024787717 15:0.19374621 16:-0.014596188 17:-0.070393071 18:0.19288588 19:-0.027227961 20:-0.033434398 21:0.095854156 22:-0.009925059 23:-0.006076843 24:-0.0078334715 25:0.00057911186 26:-0.00033123331 27:-0.0015069823 
1 1:0.006119302 2:-0.00019438421 3:0.0025704065 4:-0.0006730514 5:0.001138919 6:0.005201898 7:0.0059685735 8:0.0067053442 9:-0.01368903 10:0.012603038 11:0.024305331 12:-0.1749306 13:0.018594263 14:-0.0019175293 15:-0.21668366 16:0.0065342267 17:-0.019497741 18:-0.02447447 19:-0.021350328 20:0.018155614 21:0.26874915 22:-0.0076886723 23:-0.061168216 24:0.24371034 25:-0.0067273923 26:-0.014107761 27:0.017567663 
1 1:0.00067162287 2:-0.0066738534 3:-0.00051569485 4:-0.0070469682 5:-0.0090752821 6:-0.02981521 7:0.032642469 8:0.043558765 9:-0.19824533 10:0.037849873 11:0.061095342 12:-0.22429466 13:-0.012338544 14:-0.0049794395 15:0.0037954377 16:-0.046795331 17:-0.097604737 18:0.2427638 19:-0.032317985 20:-0.097951509 21:0.19308905 22:-0.0019763713 23:0.0092741614 24:-0.012099046 25:-0.0048229075 26:-0.0021601748 27:-0.003407093 
1 1:-0.0096122036 2:0.015001429 3:-0.0051504066 4:-0.0033208032 5:0.0063298438 6:0.00084121636 7:-0.0025769193 8:0.0079625295 9:-0.0025580185 10:0.0071097868 11:0.072322026 12:-0.15404864 13:0.018144883 14:0.061590269 15:-0.26567346 16:-0.0035331766 17:-0.00019742858 18:0.019061597 19:-0.018351415 20:-0.052278351 21:0.28223553 22:-0.019539785 23:-0.0460326 24:0.1804015 25:-0.0063717384 26:-0.022145037 27:0.015262397 
1 1:-0.005991539 2:0.0059068967 3:-0.0035331536 4:-0.00048216438 5:0.01761844 6:-0.058169939 7:0.025689149 8:0.030647948 9:-0.17879453 10:0.03644238 11:-0.01579712 12:-0.16414748 13:0.011849112 14:-0.0093162013 15:-0.032158013 16:-0.01454502 17:0.040077806 18:0.12721592 19:-0.038764358 20:-0.01163036 21:0.24159946 22:-0.030296428 23:-0.037958488 24:0.13800497 25:-0.0013886207 26:-0.0033237564 27:0.016658735 
1 1:-0.0039978391 2:0.0028833563 3:0.0032228327 4:-0.0045615649 5:0.0031671335 6:-0.014407311 7:-0.021478578 8:0.033263799 9:-0.12141676 10:-0.010168223 11:0.020007087 12:-0.23611771 13:0.022396531 14:-0.024804084 15:-0.12710743 16:0.001607056 17:0.01428379 18:0.14241868 19:-0.034080725 20:-0.045684345 21:0.2529121 22:0.029214902 23:-0.031717647 24:0.047728196 25:0.015079265 26:-0.0014844213 27:-0.0038374597 
1 1:-0.012455565 2:0.0040394221 3:-0.020004196 4:0.012423886 5:0.011813833 6:-0.0479251 7:0.021323269 8:0.017382562 9:-0.15449998 10:-0.028529223 11:-0.036869086 12:-0.19259499 13:-0.037968293 14:-0.042965919 15:-0.053851958 16:0.0364745 17:0.051211342 18:0.13268526 19:0.034805879 20:0.00085220853 21:0.22847326 22:-0.0086901048 23:-0.053765237 24:0.087465607 25:-0.0046465653 26:-0.0079645617 27:-0.0049563027 
1 1:5.0978331e-005 2:0.00097317068 3:0.0037395593 4:-0.0045841471 5:-0.0026438013 6:0.0030692508 7:-0.0062498418 8:0.0038125953 9:-0.0072321403 10:0.011411502 11:0.031925503 12:-0.16060737 13:0.04129177 14:0.0007592027 15:-0.23322733 16:-0.0092858998 17:0.016173244 18:0.098659277 19:-0.019168742 20:-0.011179509 21:0.29249418 22:-0.0046199532 23:-0.040217645 24:0.16411771 25:0.0045352834 26:-0.0035517081 27:-0.01487017 
1 1:-0.001872621 2:-0.0011153599 3:-0.0021497593 4:0.01052062 5:0.028253645 6:-0.079244822 7:0.04358948 8:0.041289259 9:-0.15644903 10:0.071366459 11:0.030459478 12:-0.19885206 13:0.0099179866 14:0.011987213 15:-0.0094557079 16:-0.040145837 17:-0.040518161 18:0.19740324 19:-0.035053097 20:-0.053597342 21:0.20252843 22:-0.015097179 23:-0.026270585 24:0.080958351 25:-0.0013315957 26:0.00077575789 27:-0.008443296 
1 1:0.00022151867 2:-0.0014576525 3:-0.0010223204 4:-0.0020239102 5:0.0094782561 6:-0.035146043 7:0.017884154 8:0.0074380809 9:-0.14615728 10:0.083160676 11:-0.010697849 12:-0.23949729 13:-0.0016199379 14:-0.022077614 15:-0.080212913 16:-0.038805049 17:0.035616543 18:0.16744789 19:-0.048148964 20:-0.0092822015 21:0.21321489 22:-0.010301064 23:-0.013428316 24:0.067015566 25:-0.0045446255 26:0.002841101 27:-0.012840281 
1 1:0.037348509 2:0.035847116 3:-0.16873777 4:-0.018589931 5:0.005623512 6:0.02686223 7:-0.032806944 8:-0.040211204 9:0.12752625 10:0.0030782614 11:-0.0017526214 12:0.0055089649 13:0.062337406 14:-0.011973422 15:0.038911987 16:-0.0049986709 17:0.0082032913 18:-0.0056308638 19:-0.004840231 20:0.0034792437 21:-0.0070283888 22:0.024155814 23:0.036566198 24:-0.26791328 25:-0.047051284 26:-0.04519444 27:0.27213034 
1 1:-0.0010303158 2:0.0022892719 3:-0.0016776108 4:0.001294991 5:-0.0021675332 6:-0.0061165649 7:0.0072414279 8:0.023556232 9:-0.027390888 10:0.021686692 11:0.029744064 12:-0.13042268 13:0.02100746 14:0.01399535 15:-0.32926896 16:-0.012272042 17:0.02041778 18:0.079024039 19:-0.018751601 20:0.0089788968 21:0.20977457 22:-0.020927614 23:-0.060028523 24:0.14286368 25:0.0063440138 26:-0.025504028 27:0.027524451 
1 1:-0.0019788786 2:-0.0025885114 3:0.0042075631 4:0.014405468 5:0.024609767 6:-0.074395828 7:0.010775599 8:0.027594121 9:-0.1557963 10:0.011628121 11:0.021150123 12:-0.16355458 13:0.0054902625 14:-0.0034311959 15:-0.027397338 16:0.01685171 17:-0.045285795 18:0.20385891 19:-0.0200346 20:-0.022566443 21:0.18174063 22:-0.073959649 23:-0.036551956 24:0.13000591 25:0.012929367 26:-0.0033648245 27:-0.0073128147 
1 1:-0.0029852032 2:0.0040784217 3:-0.010517779 4:0.019225087 5:0.018627631 6:-0.072715566 7:0.063114025 8:-0.0057052737 9:-0.22799888 10:0.013037218 11:-0.059283346 12:-0.12115757 13:0.0058933725 14:0.020508721 15:0.045188118 16:-0.012658882 17:0.030407414 18:0.14335825 19:-0.035591893 20:-0.0061956015 21:0.17618217 22:-0.044779889 23:-0.062574804 24:0.13014668 25:-0.0089784553 26:-0.0033051523 27:-0.0045248526 
1 1:-0.00053813902 2:-0.0041924166 3:-0.0027370497 4:0.005926609 5:0.026017683 6:-0.025270553 7:0.095067717 8:0.05497805 9:-0.25095206 10:0.032634936 11:-0.082923271 12:-0.16271578 13:0.00545335 14:0.045065396 15:0.086223692 16:-0.063331507 17:0.043940183 18:0.21185185 19:-0.055907644 20:-0.05551824 21:0.108844 22:-0.0075055407 23:0.004034576 24:-0.017537411 25:0.001348676 26:0.0094753308 27:-0.019825269 
1 1:-0.0042318958 2:0.00093962945 3:0.0038404474 4:0.0051925979 5:0.0064581246 6:-0.0048659323 7:0.046111956 8:0.050102588 9:-0.063164264 10:0.14424102 11:0.062836148 12:-0.31587708 13:0.0080256676 14:-0.015436835 15:0.013907995 16:-0.091988951 17:-0.029699147 18:0.25347728 19:-0.1057025 20:-0.097190544 21:0.15617682 22:-0.00087866589 23:-0.0094727622 24:-0.010757349 25:0.0098478813 26:0.011637267 27:-0.010925077 
1 1:-0.004524509 2:0.00029213651 3:0.0026194123 4:0.0068014408 5:0.0094813593 6:-0.010002431 7:0.026576104 8:0.036160912 9:-0.068620168 10:0.094542272 11:0.075037599 12:-0.25385758 13:0.027625412 14:-0.013695279 15:-0.11968255 16:-0.051309485 17:-0.00084048265 18:0.13679446 19:-0.050134964 20:-0.018775595 21:0.19650599 22:-0.023514962 23:-0.043571271 24:0.11051495 25:0.0073080296 26:-0.0049435915 27:0.01999028 
1 1:0.003252547 2:-0.0039737998 3:-0.0026908931 4:0.0057504126 5:0.010463635 6:-0.011442856 7:0.045789324 8:0.037248224 9:-0.085329063 10:0.06395267 11:0.02326853 12:-0.22645754 13:0.032314628 14:0.0031651603 15:-0.12265633 16:-0.01333488 17:-1.2465677e-005 18:0.093304381 19:-0.051379535 20:-0.023931539 21:0.21493426 22:-0.034467962 23:-0.033650324 24:0.15075453 25:0.0047428883 26:-0.017025575 27:0.031096721 
1 1:-0.0026759736 2:-0.00057119125 3:0.0010384975 4:0.0030097479 5:0.006379792 6:-0.010457519 7:0.02721378 8:0.028672364 9:-0.12218704 10:0.083769128 11:0.03952077 12:-0.25383651 13:0.035223451 14:-0.0051710727 15:-0.086943097 16:-0.0044658682 17:-0.0060812328 18:0.16075152 19:-0.032061238 20:-0.045436118 21:0.2182088 22:-0.00021085232 23:-0.036732562 24:0.089790426 25:-0.00041770955 26:-0.0021838294 27:0.0084669776 
1 1:-0.0018614214 2:0.0089400932 3:-0.016287385 4:-0.0035032385 5:0.011161332 6:-0.016275378 7:0.034031507 8:0.050439492 9:-0.16993873 10:0.037999861 11:0.00615515 12:-0.26482075 13:-0.0057881572 14:-0.0097796489 15:0.031616606 16:0.002234305 17:-0.0074720667 18:0.19250949 19:-0.012462888 20:-0.048402965 21:0.1973563 22:-0.0059136227 23:-0.038024802 24:0.06609723 25:0.0058213905 26:-0.0012173592 27:0.0033823038 
1 1:0.0091451565 2:-0.0068619242 3:0.00088290113 4:0.02228087 5:0.02540894 6:-0.021310994 7:0.097723708 8:0.053022336 9:-0.25225589 10:0.014369967 11:-0.052955769 12:-0.17855519 13:0.027090194 14:0.016546292 15:0.13050008 16:0.01468018 17:-0.038297452 18:0.25080237 19:-0.010292597 20:-0.029976774 21:0.076537833 22:-0.0035752081 23:0.0011436678 24:-0.0085297367 25:-0.0021388486 26:0.0038764749 27:-0.0032870451 
1 1:-0.0035271787 2:0.0046351063 3:0.0070469063 4:-0.00039820379 5:-0.0013805632 6:-0.011812841 7:0.018987527 8:0.066707969 9:-0.19264357 10:0.011027829 11:0.019177914 12:-0.27611777 13:-0.0080055809 14:-0.0043025776 15:0.026235646 16:-0.0064238533 17:-0.0080949403 18:0.19942524 19:-0.030895488 20:-0.035726756 21:0.18781756 22:-0.029602434 23:-0.021236779 24:0.059124433 25:-0.0044277911 26:-0.0039436342 27:-0.0029772068 
1 1:0.00050088117 2:0.007590997 3:-0.0039874958 4:0.020997001 5:0.018301534 6:-0.021050772 7:0.052860871 8:0.091913223 9:-0.21959558 10:-0.0048355358 11:0.011473957 12:-0.22110438 13:-0.0027682914 14:-0.011598921 15:0.088558495 16:0.021167625 17:-0.054304775 18:0.21511288 19:0.00058309338 20:-0.066751175 21:0.1252934 22:0.0032708279 23:-0.024601992 24:0.012803143 25:0.0007683686 26:0.0089280959 27:-0.0013974402 
1 1:-0.0098360162 2:-0.0025665737 3:0.0065608006 4:-0.010157927 5:0.012207413 6:-0.0070083961 7:-0.007327863 8:0.076469488 9:-0.14543122 10:0.0094837127 11:0.050771959 12:-0.25234747 13:0.0037177016 14:-0.0061237197 15:-0.064005263 16:0.0079257516 17:-0.0073392936 18:0.12129789 19:-0.014265738 20:-0.040974468 21:0.21258152 22:-0.040541597 23:-0.044782516 24:0.11121427 25:-0.01832938 26:-0.0039375946 27:-0.0011426405 
1 1:-0.0035804296 2:0.0080456892 3:0.0086465999 4:-0.00034352345 5:-0.00064440817 6:0.0053427685 7:0.021567399 8:0.028192127 9:-0.055653121 10:0.048898116 11:0.076688826 12:-0.24855271 13:0.021708351 14:0.0018687746 15:-0.11827633 16:0.0072388905 17:-0.0096145263 18:0.17808884 19:0.0010206191 20:-0.087817103 21:0.21857023 22:-0.0033552388 23:-0.068037398 24:0.068635039 25:0.0065286383 26:0.0024112253 27:-0.019355593 
1 1:0.00094916357 2:0.0036853307 3:-0.0017697965 4:-0.0005125429 5:0.021891812 6:-0.023425067 7:0.038100932 8:0.086375721 9:-0.19108889 10:0.010298675 11:-0.0001972304 12:-0.25240907 13:-0.0011819291 14:0.0024816645 15:0.089173533 16:-0.018751951 17:-0.0422206 18:0.26899967 19:-0.018633436 20:-0.050187014 21:0.10654779 22:-0.0017321613 23:-0.00071871188 24:-0.0011753018 25:0.0010774467 26:0.0019561634 27:-0.01419828 
1 1:-0.00019425008 2:0.010661384 3:-0.0092484662 4:0.04753615 5:0.034533881 6:-0.069320656 7:0.046585258 8:0.064943247 9:-0.19162141 10:0.0031790473 11:0.033723876 12:-0.18636197 13:-0.013673997 14:0.0093064895 15:-0.021796165 16:0.02954082 17:-0.044162907 18:0.15176326 19:0.0088036265 20:-0.05583344 21:0.17948365 22:-0.025215829 23:-0.031127719 24:0.090682499 25:-0.018027309 26:0.011723664 27:0.0066523012 
1 1:0.0029514388 2:0.0089580556 3:-0.010744006 4:0.031083686 5:0.049549814 6:-0.092833996 7:0.010107316 8:0.048568901 9:-0.2185397 10:-0.011223661 11:0.025840392 12:-0.17770447 13:-0.012225174 14:-0.0030805292 15:-0.020969596 16:0.026906971 17:-0.039692 18:0.19854486 19:-0.030409338 20:-0.017417992 21:0.11725564 22:0.0022357656 23:-0.045106456 24:0.094758943 25:-0.00099236146 26:-0.010677604 27:0.011715752 
1 1:-0.0030473769 2:0.011070581 3:-0.010045853 4:-0.00014818719 5:0.016930996 6:-0.018248567 7:0.012401289 8:0.018398585 9:-0.059261441 10:0.04421005 11:0.048160702 12:-0.13707113 13:0.025770167 14:-0.02048352 15:-0.19903344 16:-0.0094109271 17:-0.0076438072 18:0.054274011 19:-0.04848095 20:-0.010877672 21:0.1968327 22:-0.046506483 23:-0.056194648 24:0.17429726 25:-0.012533908 26:-0.058072366 27:0.0746518 
1 1:0.001114593 2:0.0070907036 3:-0.015684409 4:0.0067556379 5:0.0090342062 6:-0.034252126 7:0.031270307 8:0.024244772 9:-0.074644499 10:0.054175157 11:0.040635284 12:-0.16333142 13:0.019082118 14:-0.04457042 15:-0.1573647 16:-0.012886846 17:0.0050163558 18:0.050617319 19:-0.062077824 20:0.0021864742 21:0.2164048 22:-0.066913165 23:-0.093989015 24:0.18183231 25:0.0025081881 26:-0.021645784 27:0.017206151 
1 1:0.023092076 2:0.0060334546 3:-0.080610096 4:0.0045719282 5:0.04277876 6:-0.072607771 7:-0.018650986 8:0.045460436 9:-0.12986213 10:-0.030946193 11:0.031473964 12:-0.14243698 13:-0.013383685 14:-0.0028261929 15:0.0038424246 16:0.035288598 17:-0.023165265 18:0.095106065 19:0.05655184 20:-0.043518633 21:0.14672403 22:-0.0002468988 23:-0.08045131 24:0.13888045 25:-0.023408512 26:-0.053006999 27:0.083515801 
1 1:-0.0023913155 2:0.0003014229 3:-0.00039636693 4:0.011120684 5:0.011948282 6:-0.027591038 7:0.013599905 8:0.040555902 9:-0.12471756 10:0.012120049 11:0.043202568 12:-0.16310726 13:-0.014279791 14:-0.029336037 15:-0.082847789 16:0.010559694 17:-0.01044625 18:0.067838609 19:0.014946033 20:0.0028653741 21:0.20435783 22:-0.020803595 23:-0.070772916 24:0.19644456 25:-0.010874221 26:-0.049991738 27:0.07554131 
1 1:0.0030256163 2:0.0042935493 3:0.0093892757 4:-0.0026282435 5:-0.012622991 6:0.13317753 7:-0.0082987566 8:-0.028902052 9:0.1021634 10:-0.0064514112 11:0.0097689722 12:-0.08022438 13:0.019450333 14:0.04007636 15:-0.17879298 16:-0.0029877403 17:-0.023105118 18:-0.10154431 19:0.027989374 20:0.0067401128 21:0.06002273 22:0.004801821 23:-0.016473413 24:0.1823325 25:-0.024108915 26:-0.020659108 27:0.12577519 
1 1:-0.0031622308 2:0.00075911795 3:-0.001201576 4:0.0029295923 5:0.0016041199 6:0.00074144773 7:0.0064727473 8:-0.0081498399 9:-0.01089017 10:-0.0048980098 11:0.073387183 12:-0.19368356 13:-0.040196389 14:-0.0049157776 15:-0.2049315 16:0.030967886 17:0.019121788 18:0.069878481 19:0.016791521 20:-0.0084615946 21:0.29844365 22:-0.041052774 23:-0.050735161 24:0.1517462 25:-0.0033986922 26:-0.012396616 27:-0.013945052 
1 1:0.0017029323 2:0.0021045895 3:0.0041565374 4:0.0049346406 5:-0.0033113738 6:-0.0028126307 7:0.0070327241 8:0.01004357 9:-0.062292583 10:0.052939735 11:0.054382756 12:-0.24088517 13:-0.0094195437 14:0.033151139 15:-0.14646254 16:0.0029259266 17:0.0010973572 18:-0.002396994 19:-0.0080985967 20:-0.072142266 21:0.19877942 22:-0.0057254923 23:-0.039176751 24:0.21651405 25:0.0015197699 26:-0.0083504729 27:0.085874036 
1 1:0.0070366184 2:0.0026042061 3:-0.0036968673 4:-0.0014192448 5:0.0036946645 6:-0.057859197 7:0.047694992 8:0.0416083 9:-0.24330378 10:-0.0093887169 11:0.026981615 12:-0.18960962 13:0.012821985 14:-0.009666509 15:-0.0051001655 16:-0.019674312 17:-0.020713368 18:0.11214289 19:-0.019028006 20:-0.038393784 21:0.20298831 22:0.0090001076 23:-0.038545791 24:0.13852298 25:-0.003476586 26:0.00059171708 27:0.0053265383 
1 1:-6.5650427e-005 2:-0.00099556195 3:-0.0077378424 4:0.0045719161 5:0.0071053742 6:-0.016961055 7:0.019102879 8:0.024456523 9:-0.048741873 10:0.015885111 11:0.03262879 12:-0.19491488 13:0.027939253 14:0.0054270583 15:-0.20231612 16:-0.017365316 17:-0.0066521596 18:0.003171145 19:-0.054137491 20:-0.022074357 21:0.18591453 22:-0.048729617 23:-0.059490114 24:0.19735031 25:-0.017797144 26:-0.026264735 27:0.081368789 
1 1:0.0006154622 2:0.0028571968 3:-0.0063354699 4:0.011483103 5:0.014774019 6:-0.017613674 7:0.018676201 8:0.023525227 9:-0.053844016 10:0.030824864 11:0.042703807 12:-0.10327408 13:0.05246966 14:0.017115332 15:-0.21288337 16:0.0091480305 17:-0.00027791192 18:-0.071952052 19:-0.038740631 20:-0.054684967 21:0.23358557 22:-0.033211436 23:-0.073233701 24:0.15971753 25:-0.025568556 26:-0.041464232 27:0.057631291 
1 1:0.019077146 2:-0.0058633741 3:-0.026553875 4:0.028552432 5:0.0050927759 6:-0.090871029 7:0.025764847 8:0.032959849 9:-0.12760058 10:0.028106594 11:0.02503041 12:-0.13662441 13:0.027517572 14:0.011095747 15:-0.097153716 16:-0.0049196412 17:-0.01191436 18:0.10517474 19:-0.040514756 20:-0.047463167 21:0.20734376 22:-0.043109238 23:-0.051700573 24:0.11762182 25:-0.023773305 26:-0.01291337 27:0.023445664 
1 1:-0.00024174571 2:0.019213911 3:-0.017767664 4:0.0059265508 5:0.01899258 6:-0.049152762 7:0.037728131 8:0.078386486 9:-0.1732555 10:0.031080399 11:0.069264881 12:-0.17614424 13:0.018209772 14:0.01288757 15:-0.033184879 16:-0.020739926 17:-0.030009398 18:0.14085367 19:-0.043211486 20:-0.089388117 21:0.21591906 22:-0.047141027 23:-0.046009164 24:0.074011192 25:-0.0090005966 26:-0.0088172834 27:0.0027933237 
1 1:0.0068931165 2:0.019860595 3:-0.025129158 4:0.017978854 5:0.086264364 6:-0.10859374 7:0.0069734636 8:0.087113351 9:-0.17402469 10:0.0090483744 11:0.01128588 12:-0.098276988 13:0.00442706 14:-0.0062258979 15:0.04978282 16:-0.07379207 17:-0.047833107 18:0.21209745 19:-0.04875268 20:-0.063799232 21:0.13220941 22:0.051465172 23:-0.027939741 24:0.04866422 25:0.021766985 26:-0.0057840841 27:0.000227775 
1 1:0.010697704 2:0.030830298 3:-0.040455475 4:0.012995824 5:0.037981734 6:-0.067662507 7:0.011688423 8:0.052216902 9:-0.092493415 10:0.011014366 11:0.044298459 12:-0.16204311 13:0.01985869 14:0.013944612 15:-0.1270849 16:0.016384766 17:0.0019278995 18:-0.024813499 19:-0.0073518399 20:-0.018659579 21:0.095280528 22:-0.019941347 23:-0.060740262 24:0.16552636 25:-0.019299885 26:-0.077332117 27:0.13891073 
1 1:0.0023137992 2:0.00074062287 3:-0.0020104551 4:0.0071812081 5:0.015560356 6:-0.028791195 7:0.017705407 8:0.073158748 9:-0.1287038 10:0.028884362 11:0.070772178 12:-0.20600478 13:0.027988901 14:0.0010457822 15:-0.080460474 16:-0.025885355 17:-0.015062555 18:0.1345017 19:-0.052280691 20:-0.063537486 21:0.21799435 22:-0.012187856 23:-0.053629782 24:0.1159488 25:0.0051615783 26:4.841376e-005 27:-0.0087794038 
1 1:-0.0045025735 2:0.0039193113 3:-6.0357303e-005 4:0.010491919 5:0.0051399232 6:-0.046481434 7:0.01280997 8:0.04622693 9:-0.16088739 10:0.017836273 11:-0.010230394 12:-0.21391901 13:0.01291248 14:-0.0056522186 15:-0.069042549 16:-0.036105834 17:0.0019692597 18:0.17555285 19:-0.035694078 20:-0.022288967 21:0.20225811 22:-0.0080214227 23:-0.020871866 24:0.081172846 25:0.0091636376 26:-0.0035044565 27:0.020604869 
1 1:0.0088510886 2:0.0040075635 3:0.0032668673 4:0.022037551 5:0.045652613 6:-0.046132803 7:0.02621554 8:0.06436836 9:-0.14989339 10:0.019672103 11:-0.0043785176 12:-0.18960828 13:0.0043481514 14:-0.013575723 15:-0.073253892 16:-0.0262022 17:0.011763723 18:0.13287498 19:-0.032883771 20:-0.034157317 21:0.19938518 22:-0.019711111 23:-0.057780847 24:0.12478768 25:0.0062375446 26:-0.0075412835 27:0.0047301669 
1 1:-0.00072165014 2:0.00043886478 3:0.0030861357 4:0.026559489 5:0.024058904 6:-0.025698151 7:0.067447782 8:0.030481929 9:-0.18025346 10:0.027225185 11:-0.0025456503 12:-0.21691625 13:-0.00071966712 14:-0.018805204 15:0.14812371 16:-0.013954236 17:-0.053446971 18:0.27308965 19:-0.0039916676 20:-0.049703117 21:0.081401005 22:-0.0085564442 23:-0.00049753109 24:-0.0049870922 25:-0.0055180704 26:-0.0016991295 27:0.0012204166 
1 1:0.0031566566 2:-0.0085162558 3:0.0079552876 4:-0.00050130673 5:-0.0018652327 6:0.0058805309 7:0.025157087 8:0.034786519 9:-0.044574447 10:0.052873034 11:0.040257774 12:-0.28853831 13:-0.0085891224 14:0.0041237213 15:-0.14120442 16:-0.0091728605 17:-0.00027960323 18:0.22192383 19:0.0014411416 20:-0.069811158 21:0.19948488 22:-0.0077885455 23:-0.021646872 24:0.021448469 25:-0.012429455 26:0.00027960323 27:-0.012050189 
1 1:-0.00016285121 2:-0.00060194626 3:0.0024305617 4:0.010950995 5:0.010074261 6:-0.017614853 7:0.032813385 8:0.028678592 9:-0.16889176 10:-0.038363375 11:0.054544806 12:-0.27493876 13:-0.0073151984 14:-0.0080096535 15:-0.037597612 16:-0.012488296 17:-0.0065040784 18:0.22436017 19:-0.018748464 20:-0.034306224 21:0.17572756 22:-0.0042157182 23:-0.029882463 24:0.063039094 25:5.5043689e-005 26:-0.0030483033 27:-0.0011295846 
1 1:-0.00025113617 2:-0.0022587776 3:0.0054048039 4:0.0024821474 5:0.0082812533 6:-0.00017013319 7:0.019959938 8:0.044948809 9:-0.022064118 10:0.026008457 11:0.1051546 12:-0.1662544 13:0.0073749991 14:0.051650628 15:-0.24314526 16:-0.008175903 17:-0.011719122 18:0.046058569 19:-0.0092592146 20:-0.03511731 21:0.24439761 22:-0.01098038 23:-0.070426084 24:0.14639929 25:-0.016675828 26:-0.01820487 27:0.0091868732 
1 1:-0.00021154949 2:-0.00065294775 3:0.0041200728 4:0.0079633305 5:-9.5163727e-005 6:-0.0024455441 7:0.024100065 8:0.030448385 9:-0.07225693 10:0.031429365 11:0.068570271 12:-0.17896067 13:0.014714976 14:0.002415756 15:-0.19828142 16:-0.0015506683 17:-0.010909628 18:0.047111649 19:-0.013034682 20:-0.041164055 21:0.25455219 22:-0.033821266 23:-0.06283392 24:0.17745835 25:-0.0052427868 26:-0.0021901075 27:-0.013420199 
1 1:0.0059499531 2:-0.00099932379 3:0.0011090144 4:0.0092078941 5:0.0081276326 6:-0.032924473 7:0.03547924 8:0.049884569 9:-0.1727934 10:0.011530849 11:0.029016329 12:-0.22559816 13:-0.0030062112 14:-0.014799148 15:-0.031373162 16:-0.029795943 17:-0.013226487 18:0.25541633 19:-0.027507612 20:-0.05779656 21:0.22013701 22:-0.004896536 23:-0.0051518478 24:0.0095619205 25:-0.0093728863 26:0.00016141476 27:-0.010646267 
1 1:0.024105232 2:0.004362335 3:-0.012965741 4:0.04105084 5:0.028450694 6:-0.064501472 7:0.052249342 8:0.066500224 9:-0.13478634 10:-0.024602873 11:-0.0039625079 12:-0.16685554 13:-0.021481169 14:0.0025211915 15:-0.05125827 16:-0.00020920284 17:-0.022234537 18:0.12830868 19:-0.0263958 20:-0.042090107 21:0.22300901 22:-0.021374945 23:-0.044073876 24:0.1073125 25:-0.027505005 26:-0.0029054116 27:-0.013050092 
1 1:0.0037150076 2:-0.001550365 3:0.0053453776 4:0.0057177669 5:0.016730232 6:-0.0015319304 7:0.013806484 8:0.0670451 9:-0.10504008 10:0.009940899 11:0.057996612 12:-0.21418472 13:0.0045631952 14:-0.009075541 15:-0.1373772 16:-0.0060057789 17:-0.024642842 18:0.15041889 19:-0.035606738 20:-0.049319029 21:0.22361296 22:-0.019791299 23:-0.054837432 24:0.071336284 25:-0.011916176 26:-0.0015807855 27:-0.0069859261 
1 1:0.0041472358 2:0.0027489669 3:-0.00068971369 4:0.016395142 5:0.0012876978 6:-0.0065038027 7:0.032661036 8:0.054872416 9:-0.10812779 10:0.027532518 11:0.040618658 12:-0.22394599 13:0.0081034014 14:-0.007389639 15:-0.11779561 16:-0.012533024 17:-0.0056950818 18:0.13316344 19:-0.045938376 20:-0.038105357 21:0.2292335 22:-0.014539939 23:-0.056220748 24:0.10417797 25:-0.0011366869 26:-0.01398978 27:-0.0016527293 
1 1:0.0022594505 2:-0.0038677838 3:0.0011463469 4:0.0082266433 5:0.0076931324 6:-0.0032098272 7:0.041509449 8:0.055029243 9:-0.1033099 10:0.024333276 11:0.047707751 12:-0.26125479 13:0.0098468931 14:-0.0022446611 15:-0.10436228 16:-0.027417984 17:-0.0093465159 18:0.20155303 19:-0.02871117 20:-0.051306818 21:0.20004901 22:-0.00053592451 23:-0.028975066 24:0.055804089 25:-0.012094646 26:-0.0033014847 27:-0.00311803 
1 1:0.0033017176 2:0.003942823 3:0.0040809829 4:0.017538052 5:0.015999395 6:-0.041314609 7:0.036565457 8:0.053557325 9:-0.16860452 10:0.029329667 11:0.034415647 12:-0.20497142 13:0.00040858178 14:-0.006386817 15:-0.043433964 16:-0.036255009 17:-0.031990148 18:0.17034529 19:-0.048031826 20:-0.051774547 21:0.21405423 22:-0.0090310145 23:-0.034314174 24:0.087351337 25:-0.0041228319 26:-0.0024781483 27:-0.013759246 
1 1:0.0048288996 2:0.0043360218 3:0.0033414743 4:-0.0037519964 5:0.00029102585 6:0.0012346768 7:0.010623998 8:-0.0027201886 9:-0.03558984 10:0.0087955473 11:0.0014022291 12:-0.20858036 13:0.018176047 14:-0.059281655 15:-0.18426912 16:0.011411864 17:-0.014532826 18:0.0023712686 19:-0.010889561 20:0.016474972 21:0.14897342 22:-0.040353041 23:0.040402055 24:0.25916252 25:0.0035766095 26:-0.018743446 27:0.11241349 
1 1:0.00072191138 2:0.0022464909 3:0.00073365663 4:-0.0017085453 5:-0.00026368423 6:-0.0022221245 7:0.0093197953 8:0.0019998406 9:-0.054062307 10:0.018149404 11:0.0076335724 12:-0.2843242 13:0.021967277 14:-0.017494492 15:-0.14791922 16:-0.0066437586 17:0.016969297 18:0.063577652 19:-0.014653714 20:0.021837544 21:0.24440214 22:-0.036938861 23:-0.032875422 24:0.17282942 25:-0.0049894946 26:0.0024899617 27:0.011227036 
1 1:0.00074968452 2:-0.036641654 3:-0.07753399 4:0.0078609856 5:0.021193538 6:0.088770501 7:-0.010077802 8:-0.017908297 9:0.17059088 10:-0.0054520029 11:-0.01219912 12:0.039601296 13:0.00088833325 14:0.020190133 15:-0.11580044 16:0.017911749 17:-0.020743851 18:-0.18882948 19:-0.0017553859 20:-0.01134438 21:0.018451471 22:0.0008400217 23:0.029264424 24:0.15604605 25:-0.012479323 26:-0.025616711 27:0.1167325 
1 1:0.0044126352 2:0.0038296185 3:0.0026276554 4:-0.0072444002 5:-0.0037495967 6:-0.00032314981 7:0.00044050312 8:0.00202221 9:0.0051108119 10:-0.007469777 11:0.0087277377 12:-0.025885722 13:-0.0082844375 14:0.041000377 15:-0.25127125 16:0.0075386525 17:-0.044173408 18:-0.18078296 19:0.010591513 20:0.0083871549 21:0.082912371 22:0.013526202 23:0.039226908 24:0.28748903 25:-0.019097902 26:-0.044574291 27:0.12720892 
1 1:0.00024529934 2:-0.0018826878 3:-0.0024305978 4:0.019791836 5:0.012786351 6:-0.048047364 7:0.095808953 8:0.063458793 9:-0.17485876 10:0.056819212 11:-0.00022279551 12:-0.18208182 13:-0.0086542713 14:0.0057536862 15:-0.017428068 16:-0.012966157 17:-0.010285962 18:0.026349973 19:-0.057680789 20:-0.019829964 21:0.15861048 22:-0.052456595 23:-0.045173783 24:0.21586551 25:-0.0018650637 26:-0.034674149 27:0.088837333 
1 1:7.5371994e-005 2:0.0010222156 3:-0.0036460322 4:0.027012687 5:0.025591595 6:-0.05842898 7:0.070518315 8:0.05469206 9:-0.16583909 10:0.085611202 11:0.019803725 12:-0.18769826 13:-0.0046333866 14:0.003730831 15:-0.037694622 16:-0.018725721 17:-0.0034321751 18:0.072421461 19:-0.064241864 20:-0.038266804 21:0.14235178 22:-0.055594973 23:-0.05866237 24:0.16422613 25:-0.016006781 26:-0.023002259 27:0.069018491 
1 1:0.003075636 2:0.0023589914 3:-0.0061273412 4:0.030787911 5:0.03149661 6:-0.077129707 7:0.091616541 8:0.066378117 9:-0.23157412 10:0.048781253 11:-0.01624674 12:-0.15031464 13:-0.016793042 14:0.001744413 15:0.010423569 16:-0.040739831 17:0.026258582 18:0.12865368 19:-0.067592114 20:-0.04995567 21:0.19161856 22:-0.023132997 23:-0.054520883 24:0.099654265 25:0.000651018 26:-0.00043683875 27:0.0047789672 
1 1:-0.0063000326 2:0.00038921981 3:-0.004919494 4:0.017017236 5:0.029856166 6:-0.063676327 7:0.064103104 8:0.076985471 9:-0.17494829 10:0.040695183 11:0.022982273 12:-0.14471543 13:-0.00093859981 14:-0.0066151922 15:-0.040595163 16:-0.016184391 17:-0.0021672756 18:0.058826681 19:-0.040606428 20:-0.031634774 21:0.15486412 22:-0.042100228 23:-0.062128294 24:0.18768629 25:-0.022021752 26:-0.034499977 27:0.089529715 
1 1:-0.00056866097 2:-0.0025863531 3:-0.0057312683 4:0.022608701 5:0.046889417 6:-0.071676634 7:0.073477767 8:0.06705112 9:-0.20202266 10:0.045626912 11:0.0060681873 12:-0.16250353 13:0.013921562 14:0.018746335 15:-0.047431927 16:-0.012172875 17:-0.0023091172 18:0.033916026 19:-0.039691865 20:-0.020221246 21:0.11803912 22:-0.05723305 23:-0.037113857 24:0.17941399 25:-0.016399983 26:-0.027153924 27:0.098976381 
