svm_type c_svc
kernel_type rbf
gamma 0.0027248
nr_class 3
total_sv 367
rho -0.169157 -0.169157 0.00299241
label 1 2 3
probA 1.17019 1.86565 1.28282
probB -0.383045 -0.479529 0.00212542
nr_sv 137 115 115
SV
0.8308652756388426 0.8310479982805302 1:-1.3769989 2:-2.5119934 3:-0.19995117 4:3.9179993 5:-3.1549988 6:0.7199707 7:0.49900818 8:-1.7710114 9:0.57995605 10:-4.0840073 11:-5.3259888 12:-0.27001953 13:-57.079094 14:2.8139954 15:-9.8199463 16:-101.7237 17:-29.298996 18:-9.5 19:-113.0552 20:-62.142006 21:-0.64001465 22:-40.542007 23:-46.782997 24:13.609985 25:-3.42099 26:-2.905201 27:1.4500732 28:36.399994 29:40.487598 30:-24.780029 31:85.849602 32:61.728607 33:-25.180054 34:124.0803 35:62.707001 36:-17.23999 37:160.25211 38:18.478989 39:21.160034 40:136.32001 41:-26.17099 42:32.630005 43:85.666992 44:-50.333008 45:18.199951 46:44.859985 47:-38.309998 48:14.859985 49:-2.2469788 50:2.0329971 51:-5.8898926 52:-26.203003 53:30.233009 54:-20.780029 55:-71.144012 56:46.625 57:-30.040039 58:-106.961 59:41.427994 60:-30.530029 61:-151.50299 62:1.3280029 63:-27.75 64:-142.06 65:-40.130997 66:-9.5599365 67:-127.41 68:-75.369003 69:16.449951 70:-71.585999 71:-78.617706 72:30.97998 
0.8307626597578729 0.8309827702783125 1:0.77500916 2:-2.7738953 3:0.42004395 4:0.98899841 5:5.7504959 6:-0.61999512 7:51.390999 8:42.150497 9:-12.630005 10:117.1349 11:58.865997 12:-11.359985 13:120.8811 14:34.937012 15:10.459961 16:111.11099 17:0.62399292 18:24.26001 19:105.02602 20:-34.334991 21:17.060059 22:63.423981 23:-57.326004 24:3.1500244 25:7.927002 26:-20.126999 27:-11.420044 28:-55.46698 29:58.746002 30:-24.599976 31:-130.742 32:35.042999 33:-32.72998 34:-147.30911 35:6.177002 36:-25.77002 37:-127.206 38:-34.104004 39:-6.7900391 40:-98.451904 41:-61.371002 42:6.9499512 43:-52.041992 44:-58.0452 45:10.310059 46:-22.518005 47:-24.144699 48:11.189941 49:-2.2149963 50:-2.9340019 51:4.3500977 52:36.052994 53:23.110001 54:-17.890015 55:63.362 56:37.006798 57:-15.960083 58:89.655807 59:39.779106 60:-5.4299316 61:115.5616 62:24.394989 63:-3.8699951 64:130.6066 65:-8.4629974 66:14.140015 67:112.90498 68:-55.626495 69:33.390015 70:34.31601 71:-46.299198 72:10.059937 
0.8313348125493743 0.8310566136397442 1:-13.78302 2:13.334103 3:-6.2199707 4:-78.665985 5:68.571091 6:-15.170044 7:-94.497009 8:31.330002 9:-10.640015 10:-81.158592 11:6.154007 12:-13.429932 13:-105.7083 14:-13.990005 15:8.2800293 16:-68.758102 17:-8.9100037 18:8.3299561 19:-47.499001 20:-33.631996 21:8.9499512 22:-38.731003 23:-34.586197 24:10.630005 25:-32.847992 26:-35.6171 27:11.050049 28:-21.966995 29:-40.802101 30:7.7800293 31:-7.4320068 32:-21.310791 33:5.4199219 34:1.5189819 35:16.337639 36:-8.3599854 37:23.48201 38:39.140751 39:-5.7600098 40:55.334 41:37.392101 42:-15.359985 43:62.399002 44:39.061699 45:-12.01001 46:74.585907 47:38.384995 48:-7.5599365 49:51.632961 50:27.240997 51:6.5599365 52:69.829041 53:28.919006 54:6.8699951 55:61.9991 56:11.759003 57:7.8599854 58:73.221001 59:4.1730042 60:11.910034 61:60.417007 62:-15.504013 63:18.109985 64:39.692993 65:-8.7369995 66:21.050049 67:40.359985 68:-11.425995 69:20.669922 70:20.940002 71:-6.5650024 72:8.5100098 
0.8308486202704766 0.8310496333484543 1:1.7030029 2:-2.0410004 3:0.26000977 4:-4.1070099 5:1.32901 6:-4.3800049 7:-45.950798 8:-16.661011 9:-12.530029 10:-54.441799 11:-6.0909882 12:-23.339966 13:-75.229599 14:-30.138 15:-27.540039 16:-70.5718 17:-40.922005 18:-14.800049 19:-56.720993 20:-20.329796 21:-6.25 22:-59.984009 23:-4.0980072 24:35.450073 25:-44.201981 26:-9.1805954 27:43.679932 28:-21.195007 29:7.191597 30:9.0400391 31:-13.311005 32:0.19730377 33:2.1700439 34:9.6910095 35:4.7913971 36:-5.8800049 37:34.046982 38:4.5953979 39:-14.619995 40:65.182999 41:22.451706 42:-17.210083 43:110.1488 44:19.790993 45:-2.3699951 46:103.19681 47:16.912003 48:-5.3299561 49:108.70239 50:-7.1580048 51:11.150024 52:117.978 53:8.9029999 54:27.539917 55:92.731995 56:8.9930115 57:29.01001 58:77.567017 59:1.4879913 60:21.380005 61:50.566986 62:1.2750092 63:2.5200195 64:-1.5709839 65:-0.5 66:-6.4499512 67:-15.960022 68:0.41499329 69:-7.3800049 70:-0.85198975 71:0.30000305 72:-0.98999023 
0.8308631963216984 0.8303593707380796 1:-71.009003 2:0.64899445 3:-10.339966 4:-107.5194 5:-4.6879959 6:-3.0899658 7:-76.949295 8:-21.787003 9:16.069946 10:17.285719 11:12.417 12:4.210083 13:61.630482 14:13.816002 15:-7.6400146 16:96.892494 17:3.1969986 18:-3.6900635 19:94.673996 20:-8.3079987 21:3.9400635 22:65.729004 23:-6.6200027 24:8 25:4.2050171 26:-3.9599991 27:2.0699463 28:-47.02301 29:5.6310043 30:-14.179932 31:-94.611008 32:-0.019004822 33:-15.910034 34:-96.909698 35:-1.2749939 36:-3.3499756 37:-73.839493 38:-5.5430069 39:11.51001 40:-45.6105 41:-10.067993 42:21.679932 43:6.6242008 44:9.8969955 45:4.3599854 46:54.170998 47:9.1730042 48:-12.390015 49:74.514496 50:10.087997 51:-0.4699707 52:95.870995 53:3.9680023 54:5.6199951 55:73.63501 56:-3.0940094 57:9.0300293 58:27.837982 59:-6.4479904 60:6.9100342 61:-21.452972 62:6.4769974 63:-8.2200928 64:-65.461014 65:1.2310028 66:-19.719971 67:-87.781998 68:-4.2160034 69:-17.280029 70:-113.27921 71:-10.837997 72:5.0800781 
0.8308993029602478 0.8307340654315769 1:31.2705 2:2.151001 3:-5.7099609 4:52.236202 5:3.970993 6:-5.6300049 7:68.383698 8:-3.8710022 9:1.5500488 10:67.868996 11:-3.072998 12:8.6999512 13:73.139999 14:3.5220032 15:13.25 16:57.636002 17:1.1990051 18:17.72998 19:49.451996 20:-5.4130096 21:13.440063 22:15.542999 23:-2.2389984 24:-4.1600342 25:-40.756989 26:3.5420074 27:-9.1199951 28:-57.453003 29:8.769989 30:-10.02002 31:-69.011993 32:7.8590088 33:-7.5200195 34:-77.775009 35:-2.9909973 36:-15.559937 37:-70.059196 38:-7.7109985 39:-10.480103 40:-47.72377 41:5.8179932 42:0.58007813 43:-35.800232 44:1.5800018 45:5.4799805 46:-30.867897 47:5.8410034 48:4.0999756 49:-3.5363998 50:-4.8420105 51:-0.78991699 52:24.256298 53:4.3379974 54:-0.79003906 55:41.11488 56:-5.9459991 57:-4.8000488 58:51.314621 59:4.473999 60:-0.19995117 61:60.585701 62:-5.1759949 63:3 64:66.161003 65:1.0400085 66:12.169922 67:50.098999 68:-1.5490112 69:9.0100098 70:41.090012 71:-4.0930023 72:7.4100342 
0.8305986519793329 0.8310566136385842 1:31.944 2:3.5899963 3:-4.4399414 4:22.695999 5:6.0090027 6:-3.6000977 7:5.923996 8:-0.00099945068 9:-0.79992676 10:-8.3880005 11:1.5319977 12:-2.7000732 13:-19.322998 14:4.9089966 15:-3.3099365 16:-28.893005 17:4.2200012 18:-3.7600098 19:-30.847992 20:0.056999207 21:-8.4599609 22:-37.018997 23:-0.60699463 24:-6.8400879 25:-49.234207 26:2.4729996 27:-3.789917 28:-41.975098 29:-2.5699997 30:-2.6600342 31:-31.953579 32:0.43399811 33:1.4399414 34:-36.456718 35:0.9469986 36:6.4801025 37:-27.376701 38:-3.5199966 39:4.3399658 40:-14.820698 41:1.8040009 42:3.1999512 43:2.2375946 44:-0.71400452 45:-1.9499512 46:11.605804 47:0.20300293 48:-3.4599609 49:20.334198 50:-1.0169983 51:-2.8100586 52:20.631802 53:2.2039948 54:-2.7800293 55:38.944397 56:-8.836998 57:-6.2199707 58:35.568901 59:2.9469986 60:-0.32995605 61:60.778301 62:-1.3560028 63:1.789917 64:59.925003 65:3.5 66:8 67:49.48999 68:-0.3319931 69:8.960083 70:38.043015 71:3.9389954 72:4.1099854 
0.8307837337331269 0.8310287218081515 1:11.182007 2:-6.3040009 3:5.9000244 4:-5.9920044 5:8.3380127 6:2.8299561 7:-37.464996 8:3.9589996 9:8.1700439 10:-38.645996 11:9.7339935 12:5.0500488 13:-40.529999 14:14.876999 15:8.3898926 16:-47.300995 17:-2.5019989 18:9.8900146 19:-39.796005 20:-5.9909973 21:3.4799805 22:-28.581009 23:-7.6920013 24:5.3400879 25:-22.229996 26:-9.029007 27:1.039917 28:-0.71399689 29:-2.8889923 30:-2.7099609 31:19.695 32:7.3079987 33:-4.4599609 34:39.832001 35:11.749008 36:-7.2199707 37:42.011002 38:5.6809998 39:-0.43005371 40:63.766983 41:-3.3320007 42:-2.3900146 43:65.104004 44:-22.455002 45:2.2399902 46:45.973022 47:-27.624008 48:5.0100098 49:5.5319824 50:-2.3619995 51:1.5500488 52:-26.080994 53:19.455002 54:3.2600098 55:-54.269989 56:21.165009 57:3.6199951 58:-68.589005 59:8.1559906 60:2.7299805 61:-68.147003 62:-3.3889923 63:-2.3800049 64:-50.472 65:-17.160004 66:-5.3800049 67:-7.6940002 68:-3.9669952 69:-5 70:39.494995 71:16.056 72:-8.3499756 
0.8308141545699328 0.8302565803003461 1:-81.251007 2:-7.9689941 3:1.2000732 4:-44.112 5:-11.05101 6:9.9099121 7:25.098999 8:11.304001 9:4.7600098 10:94.263 11:18.923004 12:-2.7999268 13:116.117 14:-16.626999 15:0.039916992 16:43.638 17:-16.182999 18:2.7700195 19:-55.990997 20:10.488998 21:-5.2099609 22:-86.277008 23:7.3110046 24:-12.469971 25:-89.587997 26:-4.677002 27:-4.9000244 28:-45.483002 29:-13.914001 30:3.8699951 31:44.343002 32:16.86499 33:-3.0900879 34:85.072998 35:8.4730072 36:4.1800537 37:94.221008 38:-7.0270081 39:9.4300537 40:57.358002 41:-20.518997 42:3.5299072 43:-9.2340088 44:8.8010101 45:5.7000732 46:-75.252991 47:16.506989 48:-5.4500732 49:-104.09801 50:-1.5919952 51:-7.8599854 52:-74.747009 53:-19.529999 54:-6.2299805 55:13.524002 56:2.6539917 57:0.16003418 58:89.863007 59:21.491013 60:-4.4000244 61:145.48099 62:-24.313004 63:6.1600342 64:31.246002 65:-16.292007 66:20.409912 67:-113.19 68:38.343002 69:-6.6398926 70:-148.05299 71:-9.121994 72:-11.26001 
0.8308631963211617 0.83098277027424 1:2.3520508 2:4.7470093 3:-23.959961 4:10.607971 5:-4.6359863 6:-1.7700195 7:1.3549805 8:-1.8179932 9:-4.0400391 10:-21.191956 11:-7.2960205 12:21.899902 13:9.3549805 14:8.0209961 15:-3.2099609 16:1.2000122 17:-4.1879883 18:-10.589844 19:4.0549927 20:5.1539917 21:-8.7299805 22:1.9019775 23:7.6810303 24:0.11987305 25:-9.6439819 26:-14.504028 27:2.1599121 28:0.66900635 29:10.298035 30:2.0900879 31:-3.5620117 32:-7.3280029 33:-2.7299805 34:6.6329956 35:3.0079956 36:0.31005859 37:-2.4469604 38:3.3959961 39:1.8398438 40:-15.564026 41:2.085022 42:2.3300781 43:12.065002 44:-16.064026 45:-2.7299805 46:-8.0480347 47:9.835022 48:5.2399902 49:2.144043 50:1.7469482 51:0.63012695 52:1.8029785 53:1.4330444 54:-10.640137 55:-1.2019653 56:-4.4219971 57:3.1000977 58:9.5959473 59:7.6209717 60:-4.8300781 61:-15.542969 62:-0.78997803 63:11.459961 64:10.948975 65:-2.4349976 66:-0.70996094 67:-7.1739502 68:4.9119873 69:-1.8100586 70:5.4219971 71:-8.5750122 72:-17.359863 
0.8307966082084058 0.8302682765642909 1:20.510498 2:4.0379944 3:6.7700195 4:39.933006 5:11.236008 6:1.7199707 7:53.618988 8:0.17298889 9:3.5200195 10:55.106018 11:-7.0469971 12:-1.8099365 13:64.743988 14:-11.080002 15:-7.7301025 16:58.576996 17:-19.28299 18:-6.6499023 19:46.791992 20:-23.564003 21:-7.0400391 22:33.781006 23:-16.373001 24:-3.1099854 25:5.7359924 26:-3.1135025 27:5.8800049 28:-25.355988 29:17.017502 30:3.9899902 31:-40.893005 32:18.061005 33:0.54992676 34:-39.737 35:22.529999 36:1.3800049 37:-47.652985 38:6.6409912 39:4.6800537 40:-52.015015 41:8.7080078 42:3.6300049 43:-63.806 44:2.7509918 45:3.6600342 46:-56.029999 47:-5.0339966 48:3.0799561 49:-43.506996 50:-15.612 51:0.80004883 52:0.72900391 53:-2.2409973 54:-2.3900146 55:47.28199 56:10.690994 57:0.27990723 58:65.391006 59:6.1500092 60:6.8200684 61:61.806992 62:4.3339996 63:-3.6099854 64:66.899994 65:-4.8090057 66:-3.9699707 67:71.255005 68:-18.964996 69:-6.5600586 70:56.742004 71:-32.648003 72:-5.1899414 
0.8311743116205995 0.8307340654315769 1:0.39300537 2:-0.06300354 3:1.6799316 4:0.32899475 5:-1.151001 6:1.0300293 7:0.25100708 8:5.072998 9:0.32006836 10:7.1860046 11:6.951004 12:-0.56005859 13:23.115997 14:10.287994 15:-3.5500488 16:18.757996 17:21.610001 18:3.8300781 19:-32.382004 20:7.1260071 21:1.3099365 22:-89.993988 23:-7.977005 24:-3.039917 25:-99.068504 26:-33.968002 27:1.1599121 28:-40.871101 29:-43.258995 30:-0.15991211 31:0.63210011 32:-11.790001 33:-7.8800049 34:12.848 35:26.796997 36:-11.550049 37:41.654102 38:36.124008 39:-14.349976 40:70.044403 41:44.414993 42:-1.8499756 43:122.091 44:38.528992 45:27.23999 46:92.776978 47:-1.6769867 48:43.609985 49:44.449005 50:-24.227997 51:30.040039 52:-47.018005 53:10.567993 54:-18.170044 55:-217.57199 56:-9.3939972 57:-56.97998 58:-113.91489 59:-79.546005 60:-14.690063 61:17.228199 62:11.672012 63:-2.5299072 64:99.209702 65:61.495987 66:3.6199951 67:146.479 68:41.719009 69:31.199951 70:120.608 71:-30.473007 72:40.670044 
0.8307974124236668 0.8303423792744287 1:3.349205 2:2.2659912 3:1.5699463 4:27.523994 5:38.852005 6:-5.7700195 7:98.310005 8:32.737 9:-14.829956 10:82.905991 11:15.078018 12:-2.5400391 13:71.391022 14:-4.5890198 15:13.100098 16:49.503998 17:-12.955994 18:21.419922 19:33.03299 20:-18.837006 21:12.930054 22:19.359009 23:-13.67099 24:8.4499512 25:-8.980011 26:2.0619965 27:-3.1099854 28:-36.945007 29:15.701004 30:-14.670044 31:-50.071991 32:15.477997 33:-20.779907 34:-64.712006 35:4.7549896 36:-16.340088 37:-64.047989 38:-6.2369995 39:-13.339966 40:-53.638 41:-6.9409943 42:-6.4000244 43:-45.720001 44:-11.498001 45:4.3699951 46:-31.238007 47:-13.035004 48:6.1000977 49:-23.703995 50:-17.070999 51:5.4899902 52:6.6705933 53:-0.48300171 54:2.1999512 55:63.288406 56:26.638 57:-6.9000244 58:95.906998 59:32.575012 60:4.3499756 61:126.28 62:-2.381012 63:22.240112 64:72.290985 65:-29.796997 66:16.829956 67:41.438019 68:-22.182999 69:6.4200439 70:-6.0450134 71:0.73500061 72:-2.6000977 
0.8306113566710212 0.8302565803003461 1:0.35400391 2:2.8681984 3:0.91003418 4:-0.70401001 5:-5.7583008 6:-3.9499512 7:0.10900879 8:-0.74939728 9:-3.2800293 10:2.2309875 11:3.0366974 12:1.2999268 13:5.9949951 14:3.594101 15:2.1500244 16:-17.973999 17:12.695801 18:-5.1899414 19:-40.857986 20:25.6931 21:-6.8599854 22:-57.388 23:9.6272602 24:-10.320068 25:-56.328506 26:-19.78396 27:-9.5400391 28:-37.126202 29:-22.318802 30:-2.0599365 31:-9.6237984 32:-12.389297 33:0.020019531 34:15.6679 35:18.195198 36:-0.9699707 37:32.0158 38:16.446901 39:2.5 40:53.859802 41:28.5984 42:8.4099121 43:75.664993 44:25.996201 45:22.25 46:85.380005 47:-19.936001 48:31.190063 49:75.777008 50:-39.920601 51:40.369995 52:35.371979 53:-50.587299 54:16.119995 55:-11.224976 56:17.116299 57:-13.170044 58:-33.26001 59:36.600601 60:-19.51001 61:-73.826996 62:34.14975 63:-26.179932 64:-90.951004 65:20.183651 66:-14.920044 67:-72.514999 68:-19.00424 69:-16.800049 70:-18.628006 71:-17.435089 72:-3.9299316 
0.8308631963216984 0.8309653491469539 1:-1.4889984 2:-6.0597706 3:-2.6599121 4:0.33500671 5:1.1309004 6:-2.6300049 7:-2.5780029 8:1.1997004 9:-2.2301025 10:-3.246994 11:-1.1367006 12:-5.6699219 13:-30.227005 14:21.059799 15:-9.8200684 16:-46.833008 17:3.0815001 18:-24.529907 19:-31.647995 20:-14.48532 21:-16.580078 22:-16.082001 23:0.21718991 24:-4.3699951 25:-5.3509979 26:-2.0053301 27:-1.5300293 28:14.301003 29:2.814189 30:7.0100098 31:44.803993 32:17.330671 33:11.070068 34:66.246002 35:11.722799 36:26.829956 37:68.466003 38:-7.2320995 39:29.089966 40:52.962006 41:-13.777121 42:35.780029 43:28.600006 44:-24.999279 45:28.869995 46:-1.8800049 47:-9.8112011 48:1.9500732 49:-9.8399963 50:-1.4606991 51:-13.530029 52:-26.548004 53:18.907299 54:-17.540039 55:-49.188995 56:20.1119 57:-21.26001 58:-61.769012 59:25.304401 60:-16.76001 61:-46.953003 62:0.80410004 63:-19.380005 64:-45.682999 65:-9.1816025 66:-14.779907 67:-22.146996 68:-17.317719 69:-7.5500488 70:12.952995 71:1.7558203 72:-0.15002441 
0.8308137974408081 0.8310287218081515 1:-2.7920227 2:0.17001343 3:0.56994629 4:0.71002197 5:-1.3800049 6:-1.1999512 7:-1.382019 8:-0.76800537 9:-2.4200439 10:-4.8429871 11:-1.0440063 12:-0.82995605 13:-4.3049927 14:-0.81500244 15:-1.8499756 16:4.3919983 17:3.1100159 18:1.7700195 19:-1.1790161 20:-2.0899963 21:-2.3100586 22:1.7279968 23:0.25698853 24:-3.5100098 25:-2.9199829 26:1.7130127 27:-1.8900146 28:-2.6000061 29:-3.2880249 30:-0.82995605 31:-17.149994 32:-6.2179871 33:1.2700195 34:26.355988 35:2.5090027 36:4.0300293 37:122.50299 38:-8.0750122 39:25.22998 40:77.729034 41:-30.246979 42:21.880005 43:-108.82101 44:25.451996 45:0.7199707 46:-153.67401 47:-0.44799805 48:-21.869995 49:-70.179993 50:-27.421021 51:-3.0300293 52:73.178986 53:31.485016 54:2.9100342 55:185.591 56:-2.8710022 57:18.339966 58:84.228027 59:-42.110016 60:29.77002 61:-54.605011 62:29.512024 63:-2.0400391 64:-171.53702 65:10.787994 66:-35.27002 67:-74.062988 68:-35.86499 69:-5.8599854 70:-5.3910065 71:2.4789734 72:3.8900146 
0.8307868169442868 0.8309653491469733 1:47.996002 2:-17.242981 3:6.1899414 4:40.257996 5:-25.782013 6:9.2000732 7:34.643005 8:-14.697998 9:4.9199219 10:5.5930176 11:-6.9869995 12:-3 13:-17.354004 14:12.880005 15:-3.6199951 16:-35.491028 17:20.507996 18:-12.299927 19:-39.252991 20:14.200012 21:-12.650024 22:-41.479004 23:12.087006 24:-8.5400391 25:-42.474976 26:5.0539856 27:-3.8499756 28:-44.035004 29:6.2869873 30:-2.6500244 31:-43.988007 32:-3.3039856 33:-2.3900146 34:-38.274994 35:-12.234009 36:3.9100342 37:-30.295013 38:-11.718994 39:2.9699707 40:-25.498001 41:-13.455994 42:2.9700928 43:-16.824997 44:-13.286011 45:2.3399658 46:3.9199982 47:-2.7070007 48:0.81994629 49:38.792999 50:21.144012 51:5.2700195 52:65.047012 53:25.606995 54:5.2800293 55:76.71698 56:17.899994 57:8.0500488 58:80.729004 59:-7.0700073 60:20.139893 61:74.087036 62:-20.825989 63:27.200073 64:40.584961 65:-27.761993 66:13.089966 67:29.596985 68:-18.977997 69:6.4799805 70:11.263 71:-8.8619995 72:-0.82995605 
0.8311743116205995 0.8310287218081515 1:1.3289948 2:-0.14779663 3:0.5300293 4:-5.598999 5:-1.6809044 6:0.2199707 7:-5.8320007 8:3.6940041 9:-1.9300537 10:-5.5670013 11:3.1577988 12:-1.7600098 13:-6.7089996 14:-1.7649002 15:-0.069946289 16:-25.747986 17:4.4888992 18:-5.0600586 19:-69.94381 20:-9.5127029 21:3.5100098 22:-64.1035 23:-26.675499 24:8.7800293 25:-16.347698 26:-8.4447002 27:3.4300537 28:17.627499 29:-1.4370995 30:1.039917 31:46.7733 32:16.216299 33:-10.319946 34:54.587196 35:22.096798 36:2.0200195 37:64.352005 38:3.2460022 39:3.2999268 40:57.692001 41:-7.8922005 42:14.119995 43:69.749008 44:-12.097298 45:8.25 46:41.080994 47:-15.486599 48:8.210083 49:13.283997 50:-9.9601021 51:3.6699219 52:-16.322998 53:17.1693 54:-7.3999023 55:-41.574005 56:10.024899 57:-7.8000488 58:-62.372986 59:20.024799 60:-9.9499512 61:-61.629013 62:-0.04309845 63:-12.090088 64:-51.957993 65:2.8570023 66:-4.2799072 67:-35.467003 68:-4.0527039 69:6.7399902 70:-6.947998 71:-9.7320976 72:-3.2800293 
0.8313286908883801 0.8310462448120654 1:0.93699646 2:7.2897987 3:0.030029297 4:1.2789993 5:-3.226799 6:-1.0200195 7:6.3880005 8:7.5752983 9:0.079956055 10:26.600998 11:-2.1257973 12:2.8900146 13:66.535004 14:6.3147011 15:-0.34997559 16:76.915985 17:-18.593601 18:-0.97998047 19:70.187012 20:-31.072701 21:0.83996582 22:41.653992 23:-27.48501 24:4.1800537 25:2.1560059 26:0.016570091 27:-0.27001953 28:-32.967987 29:17.35524 30:-8.8800049 31:-44.531006 32:20.935999 33:-4.1099854 34:-58.518005 35:27.092201 36:1.1799316 37:-59.660004 38:11.984898 39:-4.7299805 40:-69.511993 41:-2.4664001 42:-3.3099365 43:-57.945602 44:-23.671997 45:5.6199951 46:-42.728298 47:-29.344402 48:9.8299561 49:-17.639599 50:-20.23177 51:3.7600098 52:1.8321991 53:-0.80581999 54:-2.1799316 55:35.285599 56:16.026871 57:-8.1400146 58:45.182701 59:36.327122 60:-3.6800537 61:59.621002 62:8.2084999 63:-0.83996582 64:50.800003 65:14.023602 66:2.4299316 67:38.690002 68:-14.718704 69:5.7399902 70:31.189987 71:-9.7040977 72:3.0300293 
0.8308141545699328 0.8302565803003461 1:12.8705 2:10.960903 3:14.5 4:5.6238022 5:-6.851902 6:1.4100342 7:-8.4356022 8:2.5640984 9:2.1999512 10:-11.034699 11:0.83780289 12:4.5400391 13:0.64849949 14:0.57550049 15:1.0200195 16:6.3075008 17:0.66600037 18:0.22998047 19:12.966198 20:7.0986977 21:-0.40002441 22:107.18281 23:17.053801 24:-20.800049 25:170.44099 26:-30.702002 27:-40.019897 28:69.585999 29:-42.336201 30:-26.51001 31:-78.897003 32:39.165501 33:28.409912 34:-133.36099 35:28.781801 36:43.210083 37:-144.5802 38:-39.963203 39:41.289917 40:-87.531097 41:-63.665199 42:28.77002 43:17.559101 44:4.2430038 45:-2.1599121 46:105.3705 47:56.917198 48:-23.740112 49:122.5817 50:21.353397 51:-41.779907 52:119.142 53:-33.955097 54:-51.180054 55:56.112 56:-38.148499 57:-30 58:-102.29999 59:43.726295 60:37.609985 61:-147.60901 62:16.592602 63:53.349976 64:-98.844261 65:-36.734798 66:33.470093 67:-22.957041 68:-23.922104 69:7.5799561 70:0.9296999 71:2.5910034 72:-0.19995117 
0.8308652765163125 0.8303733726074861 1:-1.6893997 2:1.2699966 3:-1.5999756 4:3.0447493 5:7.8468018 6:0.39990234 7:5.4539404 8:5.4458008 9:-2.8699951 10:26.60141 11:14.573395 12:-7.5699463 13:86.4039 14:21.831203 15:-16.98999 16:117.26001 17:5.9617996 18:-25.030029 19:79.268997 20:-35.873501 21:-30.630005 22:1.2709961 23:0.63269806 24:-3.3399658 25:-86.281006 26:35.807705 27:16.910034 28:-131.9836 29:5.1665001 30:32.589966 31:-117.1423 32:-43.772102 33:35.27002 34:-64.517105 35:-65.164299 36:16.969971 37:8.7268066 38:4.2969971 39:-2.9000244 40:83.70182 41:55.264099 42:-24.109985 43:121.10038 44:49.772903 45:-31.219971 46:108.773 47:-24.848701 48:-44.710083 49:66.956985 50:-46.700302 51:-47.119995 52:-27.151978 53:5.3370056 54:6.8699951 55:-128.59901 56:47.9655 57:45.350098 58:-133.79745 59:-18.028999 60:42.899902 61:-59.378651 62:-44.767502 63:16.140015 64:-15.498695 65:-11.238998 66:6.5900879 67:12.098297 68:3.4189911 69:-5.6199951 70:10.529099 71:5.3370056 72:-5.0200195 
0.8311743116205995 0.8310469071324085 1:-0.51901245 2:-0.61898804 3:1.25 4:-0.069000244 5:1.5240021 6:1.8699951 7:0.016021729 8:-1.7090149 9:-2.1300049 10:0.056976318 11:-3.4229889 12:-0.059936523 13:1.4240112 14:-1.2060089 15:2.1799316 16:-2.25 17:-1.7669983 18:-1.0699463 19:-3.9899902 20:6.6269989 21:-4.8499756 22:-118.746 23:-25.835999 24:-48.160034 25:44.027985 26:10.455002 27:5.9899902 28:179.28302 29:-13.212997 30:88.22998 31:-1.4920044 32:-3.753006 33:-10.169922 34:-283.07401 35:-28.809998 36:-77.840088 37:63.460999 38:28.839005 39:18.810059 40:370.65201 41:-122.7791 42:158.14001 43:-42.376038 44:40.782089 45:-42.920044 46:-420.94995 47:30.932007 48:-126.81006 49:24.699997 50:7.0209961 51:-10.789917 52:363.54398 53:5.753006 54:124.93994 55:62.485046 56:-60.933998 57:40.040039 58:-220.58401 59:113.117 60:-100.41003 61:-172.77802 62:-41.233994 63:-62.069946 64:113.737 65:32.444 66:26.579956 67:117.72702 68:-19.255005 69:40.459961 70:-9.6430054 71:-6.2460022 72:-1.8599854 
0.8305986519785049 0.8310549071310194 1:5.09198 2:2.8150024 3:2.8200684 4:0.98501587 5:1.3249969 6:-0.20007324 7:-0.057006836 8:0.14100647 9:3.5400391 10:10.602997 11:-1.1190033 12:9.8000488 13:225.517 14:-138.46001 15:73.689941 16:-29.612976 17:51.033005 18:-26.52002 19:-365.64102 20:53.729004 21:-94.079956 22:-87.552994 23:-84.529007 24:-32.23999 25:275.883 26:137.883 27:41.059937 28:246.90598 29:-138.76999 30:108.72009 31:-62.934998 32:66.575005 33:-33.190063 34:-334.16699 35:33.285004 36:-101.87 37:-33.19101 38:-22.279999 39:-22.829956 40:314.45901 41:31.132996 42:75.919922 43:121.37799 44:-120.1661 45:61.780029 46:-125.95898 47:115.37811 48:-59.669922 49:-313.40402 50:-23.645004 51:-62.73999 52:-37.35199 53:-32.69101 54:-16.990112 55:276.69699 56:78.5 57:55.440063 58:161.57404 59:-97.914993 60:63.449951 61:-29.677002 62:37.694992 63:-15.839966 64:-142.53903 65:63.936005 66:-41.189941 67:-166.50299 68:-6.7630005 69:-4.75 70:3.9689941 71:-5.1529999 72:-4.8601074 
1 1 1:0 2:0 3:0 4:0 5:0 6:0 7:0 8:0 9:0 10:0 11:0 12:0 13:0 14:0 15:0 16:0 17:0 18:0 19:0 20:0 21:0 22:0 23:0 24:0 25:0 26:0 27:0 28:0 29:0 30:0 31:0 32:0 33:0 34:0 35:0 36:0 37:0 38:0 39:0 40:0 41:0 42:0 43:0 44:0 45:0 46:0 47:0 48:0 49:0 50:0 51:0 52:0 53:0 54:0 55:0 56:0 57:0 58:0 59:0 60:0 61:0 62:0 63:0 64:0 65:0 66:0 67:0 68:0 69:0 70:0 71:0 72:0 
0.8307966082084075 0.8310469071324085 1:0.90800476 2:-2.3580017 3:0.97998047 4:-2.4560089 5:-0.18099976 6:-0.61999512 7:-1.2610016 8:2.303009 9:-0.030029297 10:0.21099854 11:-1.6360168 12:-1.1999512 13:-5.8669891 14:-1.2380066 15:-5.4899902 16:-3.82901 17:3.6700134 18:0.64001465 19:3.0220032 20:-0.21899414 21:0.29992676 22:-1.5590057 23:5.8439941 24:0.67004395 25:61.391006 26:36.299988 27:33.890015 28:76.056015 29:58.57901 30:51.040039 31:-1.8170166 32:52.220993 33:8.25 34:-85.584991 35:51.63501 36:-36.950073 37:-116.384 38:5.9319916 39:-56.539917 40:-74.934204 41:-21.145996 42:-19.680054 43:27.298302 44:2.3690033 45:20.089966 46:101.6339 47:25.679001 48:39.47998 49:100.98299 50:-11.727005 51:59.210083 52:36.068024 53:-37.263 54:7.0499268 55:-49.893005 56:17.731995 57:-25.189941 58:-82.321014 59:34.88501 60:-48.940063 61:-85.366798 62:-12.074997 63:-41.23999 64:10.854805 65:-6.0950012 66:8.8499756 67:79.011002 68:-23.279999 69:28.860107 70:49.192993 71:-70.119019 72:17.119995 
0.8308665577567581 0.8310471391826753 1:1.7399902 2:0.99298096 3:0.38989258 4:-0.24499512 5:-0.013977051 6:-0.9699707 7:0.64100647 8:1.2799988 9:-0.83996582 10:28.382996 11:7.7219849 12:12.72998 13:32.016006 14:23.382004 15:16.869995 16:13.604004 17:41.067993 18:15.130005 19:-37.983017 20:23.41301 21:-19.26001 22:-76.26799 23:10.789001 24:-44.049927 25:-103.52121 26:-8.2690125 27:-47.700073 28:-62.523987 29:-44.511993 30:-20.569946 31:15.48387 32:7.8930054 33:13.049927 34:38.17392 35:20.923996 36:19.600098 37:64.573402 38:15.024994 39:28.109985 40:68.433998 41:13.021011 42:40.72998 43:57.248993 44:-7.654007 45:42.380005 46:52.067017 47:-26.302002 48:36.630005 49:-23.581024 50:7.9880066 51:-9.2200928 52:-63.47998 53:20.694 54:-44.849976 55:-87.077003 56:2.868988 57:-46.529907 58:-63.754601 59:-21.676987 60:-26.430054 61:13.450302 62:1.1489868 63:8.4200439 64:71.367294 65:13.098007 66:29.809937 67:84.557999 68:-13.261993 69:36.180054 70:31.656998 71:-25.303009 72:6.6300049 
0.830817935519669 0.8310437702479923 1:-3.3570099 2:-2.7970123 3:-0.56005859 4:7.279007 5:0.82501221 6:0.5 7:0.55700684 8:4.7889862 9:0.98999023 10:-0.094009399 11:-4.0899963 12:-0.54992676 13:2.9700012 14:0.14900208 15:-0.14001465 16:-30.824005 17:13.944 18:-9.7900391 19:-76.341995 20:-7.1080017 21:-16.430054 22:-42.368202 23:-11.863998 24:-21.179932 25:5.8952026 26:0.73699951 27:5.3800049 28:37.216003 29:20.595001 30:30.400024 31:93.215004 32:14.292007 33:45.159912 34:82.776001 35:-26.798004 36:31.190063 37:41.095001 38:-38.90799 39:-5.5600586 40:-26.563995 41:19.546997 42:-12.779907 43:-70.929016 44:31.127991 45:-27.77002 46:-89.490997 47:14.195999 48:-25.390015 49:-57.261002 50:-20.634003 51:-21.119995 52:-14.793098 53:-5.3309937 54:-5.6900635 55:61.619102 56:21.847 57:32.349976 58:94.093994 59:6.6409912 60:45.490112 61:47.125 62:-27.513992 63:14.289917 64:-0.42599487 65:-1.8639984 66:-6.1099854 67:-59.456009 68:12.557999 69:-20.599976 70:-78.478989 71:3.8089905 72:-21.589966 
0.8305941839138644 0.8309827625482186 1:-3.1460114 2:0.85800171 3:-2.7900391 4:0.73699951 5:-0.055999756 6:-1.1900635 7:0.16400146 8:-2.8870087 9:1.7700195 10:0.27799988 11:5.6100006 12:4.1600342 13:35.046005 14:3.3659973 15:12.01001 16:90.41301 17:5.1880035 18:37.849976 19:58.885986 20:-39.411987 21:6.8100586 22:-13.329987 23:-9.0380249 24:-7.3400879 25:-26.431 26:24.876007 27:-9.4299316 28:-87.725006 29:36.31601 30:-14.51001 31:-105.672 32:-13.766006 33:-17.570068 34:-29.550201 35:-17.955002 36:-19.659912 37:26.895203 38:9.9130096 39:13.72998 40:102.3 41:19.945999 42:36.669922 43:72.40799 44:-29.052002 45:13.990112 46:8.0340271 47:-15.755005 48:-6.9300537 49:-35.479019 50:22.925003 51:-5.8399658 52:-87.612991 53:11.942993 54:-15.380005 55:-46.997002 56:-12.214996 57:-13.320068 58:25.959999 59:2.4389954 60:-12.719971 61:14.018005 62:0.64201355 63:-3.4100342 64:-3.6410065 65:-2.006012 66:1.4899902 67:2.1940002 68:-10.378998 69:-2.5098877 70:-4.2429962 71:6.0079956 72:2.5799561 
0.8307901664961309 0.8310437725919107 1:-6.9520988 2:3.4309998 3:0.82006836 4:-0.77220154 5:-2.6849976 6:1.789917 7:3.0806007 8:-2.9519958 9:0.20007324 10:0.62380219 11:5.1380005 12:0.73999023 13:4.0471973 14:-4.9250031 15:1.1799316 16:6.6773014 17:2.9230042 18:5.5700684 19:-9.2665997 20:1.7419891 21:-14.47998 22:-58.003403 23:-2.8669891 24:-43.070068 25:-37.350403 26:-17.403 27:-32.300049 28:-8.6919937 29:7.9899902 30:-6.8898926 31:60.930695 32:32.412003 33:38.019897 34:108.4922 35:-1.7480011 36:79.100098 37:49.132599 38:-11.58699 39:64.5 40:5.1684036 41:-2.3480072 42:-1.460083 43:-53.479202 44:7.4029999 45:-68.73999 46:-80.562401 47:-4.2420044 48:-65.959961 49:-56.700302 50:-5.4850006 51:-37.199951 52:1.8130035 53:-6.1899872 54:5.6398926 55:76.854294 56:9.1499939 57:50.690063 58:57.981201 59:0.27099609 60:44.589966 61:1.9468002 62:-5.6230011 63:9.6099854 64:-3.5764999 65:-0.58699036 66:-8.4899902 67:-2.9792004 68:-5.128006 69:-6.3299561 70:2.7102985 71:6.7539978 72:1.0899658 
0.8307955076719591 0.8303254407640131 1:0.89679909 2:-3.5650024 3:-2.4899902 4:0.87220001 5:4.8249969 6:3.2700195 7:0.30459976 8:-0.27799988 9:4.1099854 10:-7.9310989 11:1.0230103 12:-8.5699463 13:-38.4622 14:3.8589935 15:-25.900024 16:-70.043106 17:-7.6990051 18:-42.969971 19:-36.202301 20:-14.431992 21:-27.77002 22:-26.305 23:13.849991 24:-1.6300049 25:34.967003 26:0.83700562 27:16.309937 28:76.8974 29:14.710007 30:39.320068 31:66.953201 32:1.625 33:55.319946 34:43.506302 35:-16.652008 36:41.810059 37:7.7867966 38:-4.6519928 39:13.319946 40:-30.967899 41:11.156998 42:-38.059937 43:-57.831528 44:11.959 45:-55.430054 46:-49.18457 47:-9.0709991 48:-39.660034 49:-28.631405 50:-1.0429993 51:-15.279907 52:40.464405 53:-5.1990051 54:16.369995 55:34.008839 56:7.826004 57:29.630005 58:19.189859 59:-1.151001 60:20.159912 61:-0.34539986 62:-2.1230011 63:0.90002441 64:0.8178997 65:3.1940002 66:2.3800049 67:-0.06139946 68:3.1849976 69:-4.4000244 70:-1.6246004 71:0.2440033 72:-0.31994629 
0.8308137974408081 0.8310471404248204 1:3.8410034 2:1.8427963 3:3.5100098 4:-2.2200012 5:-5.3303986 6:-2.7299805 7:1.4169998 8:0.16069794 9:-0.69995117 10:1.4379959 11:-1.3226013 12:0.88000488 13:0.83700562 14:-0.46699524 15:3.1999512 16:-3.8540039 17:0.11100006 18:-1.9299316 19:-4.7028961 20:-1.7596054 21:-0.15002441 22:-6.4202042 23:1.8939056 24:2.0200195 25:2.9729996 26:16.849098 27:9.7700195 28:76.338104 29:58.212402 30:24.839966 31:132.01599 32:-11.729101 33:40.539917 34:10.21701 35:-16.576801 36:-2.6398926 37:-107.819 38:28.962301 39:-51.130005 40:-138.66071 41:-42.533798 42:-40.310059 43:-67.459511 44:-63.096901 45:8.4200439 46:64.91951 47:63.287903 48:-4.0500488 49:103.0797 50:51.294098 51:6.9799805 52:132.28601 53:-36.817101 54:31.300049 55:35.845001 56:-33.653 57:19.929932 58:-47.949005 59:38.996902 60:-16.5 61:-184.379 62:-11.1143 63:-53.529907 64:-68.005798 65:-69.202499 66:-6.8800049 67:19.8978 68:25.780106 69:3.8299561 70:12.436096 71:9.3033981 72:5.9699707 
0.8307955076726715 0.8309827625482186 1:-0.0086975098 2:0.60700226 3:-0.25 4:1.3529968 5:0.8585968 6:-0.42993164 7:-0.054100037 8:-1.2195969 9:0.25 10:-1.040802 11:-0.1000061 12:-0.73010254 13:-2.4962959 14:3.5848007 15:1.2401123 16:-3.6053009 17:2.7781982 18:-1.4300537 19:-1.0938988 20:-0.29489899 21:0.55004883 22:-3.4400024 23:-1.7397003 24:-2.4100342 25:36.568901 26:36.682003 27:14.069946 28:119.2579 29:44.206001 30:23.540039 31:111.44299 32:-49.420498 33:26.650024 34:-9.0039978 35:20.354698 36:-2.8900146 37:-137.42 38:35.679688 39:-60.849976 40:-154.8786 41:-84.157188 42:-27.27002 43:-45.500603 44:-36.716103 45:18.75 46:74.152199 47:50.119904 48:-13.670044 49:113.47301 50:62.246696 51:14.700073 52:150.33598 53:-50.058899 54:36.659912 55:78.347015 56:-45.563698 57:29.76001 58:-40.071991 59:24.621002 60:-16.319946 61:-190.37001 62:53.665798 63:-68.369995 64:-117.0546 65:-90.190796 66:-5.9000244 67:4.9968987 68:10.429001 69:-2.0300293 70:22.351997 71:23.4786 72:8.4699707 
0.8313287572351592 0.8310480478525995 1:-0.19699097 2:1.2299957 3:1.5400391 4:2.4720001 5:0.51199341 6:0.90002441 7:-4.4520111 8:-3.4429932 9:-1.7399902 10:2.6210022 11:-4.7579956 12:-1.6300049 13:-2.2070007 14:5.6429901 15:1.0200195 16:-1.2279968 17:-3.3239899 18:-2.9100342 19:-0.49299622 20:6.1559906 21:0.93994141 22:-0.19300842 23:4.6630096 24:1.8699951 25:-6.6049957 26:3.4849854 27:-2.9199219 28:8.7740021 29:6.4660034 30:13.859985 31:54.492996 32:20.358002 33:47.420044 34:70.402008 35:-16.919006 36:37.259888 37:47.052002 38:-18.839996 39:22.830078 40:-4.0930176 41:-3.7449951 42:-18.390015 43:-78.945984 44:41.77301 45:-65.530029 46:-122.707 47:-3.0810242 48:-75.549927 49:12.679993 50:-3.4309998 51:19.819946 52:123.371 53:11.008026 54:76.959961 55:72.816986 56:-36.105011 57:33.320068 58:-43.731995 59:16.93399 60:-30.140015 61:-124.65599 62:11.919006 63:-65.040039 64:-17.117996 65:-11.705994 66:2.1500244 67:117.32599 68:-5.2170105 69:61.780029 70:41.963013 71:-16.742996 72:0.70996094 
0.8311722000524368 0.8309827549692486 1:-1.1109924 2:0.68200684 3:2 4:2.1150208 5:0.053009033 6:3.3199463 7:-7.3510132 8:3.992981 9:-2.1600342 10:-1.9979858 11:-8.9909821 12:-1.8898926 13:-2.4240112 14:5.2129974 15:1.0098877 16:-8.0500183 17:11.09201 18:6.3900146 19:41.859009 20:0.15197754 21:38.200073 22:53.865997 23:-26.977997 24:22.819946 25:-46.789978 26:32.506012 27:-20.569946 28:-92.87001 29:-13.076019 30:-43.550049 31:60.401993 32:20.292023 33:55.47998 34:85.438995 35:-38.113007 36:24.599976 37:-56.975006 38:28.763 39:-23.279907 40:-74.641983 41:-3.0039978 42:-40.560059 43:71.328995 44:1.9069824 45:31.950073 46:25.352997 47:-5.1940002 48:10.069946 49:-82.957993 50:13.473999 51:-28.300049 52:46.763992 53:-12.671997 54:4.5500488 55:-4.3479919 56:-1.7590027 57:-1.3199463 58:-46.248001 59:0.17800903 60:-19.660034 61:59.257004 62:-17.981003 63:0.2199707 64:-34.32901 65:11.707016 66:-0.59997559 67:-3.2210083 68:2.8559875 69:0.98999023 70:7.6710205 71:2.7139893 72:1.9599609 
0.8307955076719591 0.8309827566178415 1:-0.88000488 2:-1.0454025 3:-2.2099609 4:0.92700195 5:-1.401001 6:-0.41003418 7:0.68899536 8:4.7098007 9:-0.2800293 10:2.1459961 11:1.8843002 12:-1.3099365 13:0.125 14:-3.2090988 15:-0.83007813 16:0.15701294 17:-2.3778 18:0.10009766 19:-2.2359924 20:0.9937973 21:-0.15002441 22:-11.706024 23:3.1363068 24:-6.0100098 25:41.223022 26:4.5632935 27:-11.920044 28:102.55598 29:-28.773396 30:-28.969971 31:31.027008 32:-23.175301 33:-3.1300049 34:-71.720993 35:39.715603 36:13.77002 37:-128.41101 38:2.845993 39:33.51001 40:-52.57901 41:-17.585796 42:18.069946 43:69.554016 44:9.2137985 45:-38.779907 46:106.185 47:2.530201 48:-41 49:12.415009 50:-4.1228981 51:20.629883 52:-110.10602 53:-1.4274025 54:38.240112 55:-72.466003 56:-15.216297 57:24.659912 58:104.431 59:19.261997 60:-63.069946 61:108.636 62:-24.568501 63:-34.23999 64:-109.722 65:15.122902 66:47.890015 67:-64.80899 68:4.6339989 69:27.449951 70:127.24799 71:6.3067017 72:-69.930054 
0.8308141751895097 0.8302565785968161 1:-0.10900879 2:-0.20209885 3:0.43005371 4:-0.94998169 5:0.84519958 6:-0.2800293 7:-0.13500977 8:0.65570068 9:1.0300293 10:-0.0010070801 11:-0.248703 12:0.61999512 13:2.8310242 14:0.55070114 15:-0.80993652 16:23.997986 17:-0.4659996 18:-4.4100342 19:57.138 20:-3.7151985 21:-12.040039 22:59.962997 23:-20.8657 24:-13.780029 25:-0.3769989 26:-3.1444016 27:5.0800781 28:-68.592987 29:31.4604 30:13.72998 31:-90.826996 32:10.804298 33:8.8699951 34:-22.488007 35:-4.2465973 36:-2.3800049 37:68.651001 38:-0.33670044 39:-27.810059 40:93.222992 41:-23.051102 42:-25.039917 43:8.7460022 44:-17.176098 45:9.4699707 46:-76.761017 47:20.8853 48:19.089966 49:-87.755981 50:5.3275986 51:21.660034 52:-2.6140137 53:4.4988022 54:2.7900391 55:72.664001 56:0.22340012 57:-26.920044 58:74.178009 59:-23.577301 60:-21.429932 61:-47.524994 62:9.2573013 63:24.359985 64:-117.12802 65:5.6537971 66:37.859985 67:38.626007 68:1.7672997 69:-9.8200684 70:100.75702 71:-14.043297 72:-34.959961 
0.8308438961536875 0.8310566886829865 1:28.268982 2:-1.0050049 3:-0.019897461 4:13.118011 5:-2.4809875 6:-2.2600098 7:5.6210022 8:-9.852005 9:-5.4899902 10:-4.7420044 11:3 12:-2.9500732 13:-8.9030151 14:6.0709991 15:-2.25 16:-16.031982 17:7.0279999 18:-4.2099609 19:-20.820007 20:4.2030029 21:-7.2700195 22:-55.958008 23:1.0950012 24:-10.699951 25:-56.119995 26:-5.8350067 27:-13 28:-33.910995 29:-10.257004 30:-1.0500488 31:8.5690002 32:-0.49598694 33:11.949951 34:39.345016 35:6.595993 36:16.350098 37:49.324982 38:0.44500732 39:14.869995 40:50.485016 41:-3.2480011 42:9.1499023 43:46.307983 44:-3.7799988 45:9.1400146 46:15.735992 47:-9.9220123 48:-1.8199463 49:-6.9459839 50:2.9609985 51:-6.0500488 52:-35.29599 53:10.920013 54:-13.390015 55:-54.382019 56:5.3659973 57:-14.159912 58:-65.713989 59:1.2819977 60:-16.619995 61:-56.730011 62:-15.104996 63:-7.1500244 64:-16.369995 65:0.48399353 66:8.9100342 67:24.567001 68:8.9250031 69:13.809937 70:51.322006 71:9.1779938 72:14.199951 
0.8307885446939238 0.8309827549692486 1:-1.5370178 2:1.727005 3:0.73999023 4:1.3670044 5:2.845993 6:-0.82995605 7:-0.20898438 8:1.4580078 9:-0.22998047 10:0.47900391 11:-0.7519989 12:-1.6800537 13:-1.5660095 14:0.772995 15:-0.23999023 16:2.6359863 17:-1.0919952 18:-0.70996094 19:0.14501953 20:-1.4669952 21:-1.1700439 22:-26.877014 23:-1.3370056 24:-19.949951 25:-76.628998 26:-13.373001 27:-25.540039 28:16.21701 29:9.746994 30:7.1500244 31:95.753998 32:23.841003 33:24.280029 34:102.754 35:-4.4499969 36:22.849976 37:70.686005 38:-22.160004 39:25.780029 40:3.8760071 41:2.7819977 42:2.4799805 43:-69.298004 44:19.179001 45:-30.5 46:-110.81802 47:13.925003 48:-32.25 49:-96.218979 50:-14.634995 51:-23.97998 52:-31.962006 53:-8.0590057 54:5.6899414 55:65.871002 56:28.337997 57:16.670044 58:112.334 59:9.8860016 60:18.559937 61:110.98099 62:-26.251999 63:21.430054 64:25.759003 65:-14.977005 66:11.689941 67:-77.492004 68:18.964005 69:-28.780029 70:-137.42798 71:5.3430023 72:-39.269897 
0.8308188785227313 0.830342335625304 1:-15.370098 2:0.58339882 3:-6.6069946 4:-4.4700012 5:-5.5403004 6:-0.90698242 7:25.828403 8:14.3395 9:5.3859863 10:52.517296 11:28.777401 12:7.4290161 13:72.388 14:18.027699 15:11.934998 16:70.545013 17:8.4832001 18:19.223999 19:56.319977 20:-1.5928993 21:24.176025 22:25.933014 23:-10.8281 24:14.586975 25:-2.8479919 26:-4.9022999 27:0.74902344 28:-36.356018 29:1.8337002 30:-19.037048 31:-59.252991 32:-0.36709976 33:-26.529968 34:-74.833008 35:-11.92521 36:-24.638 37:-71.078995 38:-20.259892 39:-16.827026 40:-48.926498 41:-21.299099 42:-12.156006 43:-31.200701 44:-18.732203 45:-9.4969482 46:3.0361996 47:-7.1512985 48:-10.637024 49:0.68939972 50:-6.3213997 51:9.710022 52:26.8811 53:12.911701 54:9.4400024 55:40.866501 56:17.1353 57:10.91095 58:48.900002 59:18.025299 60:14.057007 61:49.362991 62:19.397699 63:16.726013 64:47.009003 65:7.2855997 66:16.598022 67:33.240997 68:4.1085997 69:14.219971 70:20.218994 71:-4.8379993 72:8.3619995 
0.8307867855305537 0.8309658512989026 1:-9.9049988 2:2.5292606 3:-0.25 4:-18.875 5:5.3645 6:-0.43701172 7:-40.956009 8:-2.2044001 9:-3.6879883 10:-46.93 11:-13.17028 12:-11.485046 13:-43.128799 14:-24.992722 15:-15.418945 16:-33.446899 17:-23.7864 18:-17.025024 19:-14.009699 20:-15.354599 21:-12.419983 22:2.3579006 23:-8.1219025 24:-3.8320313 25:11.877899 26:4.5229034 27:2.4169922 28:17.072399 29:11.0611 30:5.0100098 31:30.116798 32:10.163898 33:6.7219849 34:56.575401 35:17.802299 36:13.532043 37:60.716003 38:14.2356 39:18.698975 40:57.780991 41:6.3078103 42:23.221985 43:55.113007 44:-2.5963702 45:22.875 46:49.536987 47:-9.559639 48:18.489014 49:34.243011 50:-11.977402 51:6.2780151 52:0.39300537 53:-4.9216995 54:-11.437012 55:-33.194 56:9.9383011 57:-25.723999 58:-65.196014 59:9.618 60:-31.046997 61:-79.628983 62:8.2215595 63:-19.919006 64:-83.083008 65:-3.6059599 66:-5.3759766 67:-71.809601 68:-11.7466 69:2.8949585 70:-48.681 71:-13.986599 72:11.490051 
0.830817935519669 0.8310496333484543 1:4.2299957 2:3.2192221 3:0.86700439 4:9.3720016 5:7.1352396 6:3.0440063 7:29.041405 8:8.3157005 9:6.8789673 10:37.576099 11:7.7653008 12:12.26001 13:51.843258 14:17.139898 15:15.210999 16:100.98384 17:14.5686 18:26.367004 19:105.5764 20:0.00020217896 21:25.421021 22:101.40099 23:-13.977901 24:26.544983 25:81.684021 26:-24.134699 27:19.216003 28:40.733002 29:-25.639 30:-3.8729858 31:-16.494995 32:2.0902102 33:-23.434021 34:-54.354004 35:23.28809 36:-28.198975 37:-77.186005 38:13.9792 39:-26.26001 40:-84.391006 41:10.616199 42:-19.676025 43:-85.171997 44:-2.3876991 45:-17.960999 46:-81.961205 47:-24.261501 48:-20.730957 49:-69.094002 50:-49.712601 51:-23.828003 52:-4.4457016 53:-13.814198 54:-4.3810425 55:29.859501 56:12.261097 57:3.3099976 58:57.551601 59:18.426903 60:0.57104492 61:78.064804 62:13.906144 63:5.2699585 64:86.295006 65:3.686295 66:16.493042 67:87.579987 68:-5.3132801 69:25.440979 70:80.227997 71:-14.722159 72:22.999023 
0.8313287572351575 0.8310318014814989 1:0.63819885 2:-1.6632996 3:-3.0800171 4:7.1991043 5:5.6602001 6:0.98303223 7:28.7724 8:7.7761002 9:1.2620239 10:47.723999 11:6.5054698 12:0.4329834 13:62.406998 14:0.5725503 15:3.697998 16:68.171997 17:-6.5272198 18:4.8889771 19:50.265015 20:-10.553101 21:2.0690308 22:27.700989 23:-9.4036007 24:-1.6030273 25:4.2999878 26:-5.5967999 27:-9.1820068 28:-18.302979 29:7.9000015 30:-12.161987 31:-44.332001 32:3.8583984 33:-17.013 34:-60.30101 35:3.9376011 36:-16.602966 37:-62.94899 38:2.6821003 39:-11.421021 40:-65.506004 41:3.0220995 42:-6.9680176 43:-60.455704 44:-4.7871008 45:-3.1040039 46:-53.747696 47:-13.921 48:0.98498535 49:-27.262001 50:-8.5415001 51:3.8660278 52:3.9401007 53:-1.714901 54:5.2630005 55:24.6269 56:5.1807022 57:4.5889893 58:53.3596 59:12.748999 60:1.0109863 61:64.392799 62:2.7996998 63:6.5440063 64:78.578003 65:0.20100021 66:13.682007 67:107.32501 68:-10.561901 69:28.127991 70:81.68399 71:-24.824898 72:18.459045 
0.8308188785227487 0.8307315839244799 1:-0.89289856 2:1.0193005 3:0.39697266 4:-0.39300156 5:-0.30760002 6:1.2930298 7:13.128101 8:4.6464996 9:3.0099487 10:36.908897 11:4.3326998 12:-0.10198975 13:61.307007 14:8.4398994 15:1.8970337 16:70.548996 17:-1.0606995 18:8.9419556 19:15.626999 20:-10.7024 21:-0.043945313 22:-89.876007 23:-30.830999 24:-40.439026 25:-62.669495 26:-17.782299 27:-15.169006 28:6.1624985 29:4.4663982 30:9.5090332 31:86.928001 32:29.915581 33:26.086975 34:3.651001 35:-1.05516 36:-10.483032 37:-70.324997 38:-16.24452 39:-7.5629883 40:65.619995 41:-5.4343004 42:48.569031 43:-65.141998 44:-10.721001 45:-54.967041 46:48.270004 47:2.2434006 48:41.455017 49:27.526001 50:-8.9966011 51:-0.73999023 52:-70.815002 53:-13.4701 54:-38.002014 55:60.018005 56:2.6476021 57:53.559998 58:-25.514999 59:-4.7671013 60:-25.197998 61:-65.38401 62:-25.235001 63:-30.704956 64:46.564003 65:17.497402 66:50.701965 67:50.651993 68:-3.4049034 69:23.786987 70:-49.542999 71:-16.362999 72:-41.055969 
0.8306107965194776 0.8302565803003461 1:-2.2930984 2:-0.57649994 3:1.9799805 4:-1.3963013 5:-0.046298981 6:2.6140137 7:0.95079803 8:-0.73050308 9:2.617981 10:1.2680969 11:-0.5121994 12:2.8859863 13:4.7182007 14:0.70190048 15:2.934021 16:6.1019058 17:-1.1288986 18:3.3129883 19:10.172997 20:-2.0259018 21:3.2980347 22:11.940002 23:-0.52249908 24:3.4959717 25:62.982002 26:-5.3528004 27:13.061035 28:59.742996 29:-1.5828991 30:12.033997 31:60.411987 32:-4.8978004 33:12.440979 34:53.876007 35:-22.860439 36:2.9860229 37:5.8760071 38:-14.311759 39:-16.090027 40:-21.580017 41:2.8375988 42:-28.783997 43:-56.036987 44:7.8333502 45:-26.015991 46:-47.087006 47:4.4835901 48:-9.8710327 49:-75.740997 50:-3.59337 51:-3.7969971 52:-64.444992 53:-12.779169 54:3.6430054 55:-45.821404 56:-22.667402 57:6.802002 58:-15.976398 59:-21.542297 60:4.2150269 61:26.427601 62:-3.9693031 63:-3.7269897 64:56.669197 65:10.717201 66:-9.6900024 67:145.59299 68:13.035301 69:4.0999756 70:104.91901 71:-19.7272 72:17.885986 
0.8305941839138644 0.8310549978195967 1:-4.0979996 2:1.3590012 3:2.1940308 4:19.150002 5:12.694099 6:7.7019653 7:33.619003 8:5.2652969 9:8.6560059 10:58.639999 11:1.831604 12:14.091003 13:54.085007 14:-4.2931023 15:9.2369995 16:30.451996 17:-7.219101 18:0.51300049 19:-10.557007 20:3.4359016 21:-10.198975 22:-58.063004 23:-13.645699 24:-25.5 25:-74.643997 26:-17.771202 27:-13.737 28:-52.767998 29:-25.18392 30:-3.0460205 31:7.8590012 32:0.27289999 33:4.0219727 34:64.761002 35:27.701521 36:4.4920044 37:104.02998 38:-0.40999985 39:0.18701172 40:60.75 41:-9.6399002 42:8.53302 43:-7.2219849 44:-8.7149 45:-4.9819946 46:-49.567017 47:-8.3827801 48:-17.506042 49:-67.070984 50:-14.97412 51:-13.237976 52:-63.994003 53:-21.679501 54:1.3150024 55:-22.054993 56:-24.587498 57:4.9819946 58:16.530991 59:-1.9064026 60:0.81903076 61:48.326996 62:10.3606 63:-8.0090332 64:75.794006 65:-1.1753998 66:-9.0849609 67:62.589996 68:-13.459995 69:2.8839722 70:19.683014 71:-17.118607 72:8.7269897 
0.8307941002568359 0.831030604626431 1:-3.526001 2:0.30220032 3:0.41699219 4:-7.9869995 5:-3.3072014 6:-6.4759521 7:-52.817596 8:-25.037619 9:-26.578003 10:-88.689102 11:-45.702179 12:-26.231018 13:-99.889297 14:-69.587402 15:-8.2039795 16:-51.705994 17:-49.028992 18:7.2729492 19:-31.170013 20:-42.694 21:5.7440186 22:-19.054993 23:-19.689011 24:2.0280151 25:-11.910004 26:-17.528992 27:-5.947998 28:15.880005 29:13.800003 30:-12.509033 31:38.944992 32:35.139999 33:-15.575989 34:70.194008 35:58.933998 36:-10.375977 37:89.862801 38:74.007896 39:9.9920044 40:81.227997 41:43.39323 42:27.289978 43:61.744202 44:18.974442 45:20.382019 46:87.822998 47:8.9210291 48:29.731995 49:61.28299 50:-3.0588989 51:21.737 52:30.347015 53:-4.0386009 54:15.096008 55:4.552002 56:-3.0753593 57:6.7659912 58:-24.309021 59:-1.49227 60:-1.2410278 61:-20.524994 62:-8.3115406 63:-5.6350098 64:-9.4960022 65:-2.80369 66:-0.84997559 67:-8.6849823 68:-1.8934603 69:-2.625 70:-46.418015 71:0.45442009 72:-1 
0.8308141751895097 0.8303423855973711 1:3.4530029 2:0.13209915 3:-1.1879883 4:14.116997 5:1.5428009 6:1.7600098 7:30.060005 8:4.5284004 9:3.6010132 10:46.042999 11:-3.9948997 12:2.7009888 13:89.528992 14:-8.4766998 15:11.414001 16:85.097015 17:-27.601099 18:12.221985 19:36.841003 20:-29.6731 21:-0.69299316 22:-5.3700256 23:-8.2995005 24:-14.867004 25:-23.228973 26:23.809441 27:-12.972961 28:-55.83902 29:22.480059 30:-15.257996 31:-82.516998 32:10.2292 33:-12.630005 34:-85.690994 35:-8.856699 36:-5.1890259 37:-65.587799 38:-15.633901 39:2.2589722 40:-47.091503 41:-20.09487 42:8.1830444 43:-7.9296989 44:-13.663831 45:5.6380005 46:4.1183014 47:2.6806011 48:5.2719727 49:48.383202 50:-6.1573009 51:-10.802979 52:62.485504 53:-2.0951996 54:-11.971985 55:72.488998 56:-15.350901 57:-8.9800415 58:44.496994 59:-15.577301 60:0.066040039 61:1.5039978 62:-6.4716988 63:8.0449829 64:-12.45401 65:7.1192017 66:9.2879639 67:-15.618988 68:-3.705101 69:3.7680054 70:-15.597 71:3.2153015 72:3.177002 
0.830780417285316 0.8309653491469539 1:0.91300201 2:2.8893003 3:0.24395752 4:18.099998 5:4.9542999 6:0.90802002 7:52.021996 8:7.1236 9:1.8880005 10:67.95401 11:2.6371994 12:7.4429932 13:61.141006 14:-1.0405006 15:12.427979 16:43.423981 17:-7.4482994 18:6.401001 19:3.0800171 20:-6.7997999 21:-4.3299561 22:-27.194 23:9.3375998 24:-9.0830078 25:-60.821014 26:3.2214012 27:-13.207031 28:-76.752991 29:2.9428997 30:-5.3439941 31:-81.501999 32:-10.1595 33:-7.651001 34:-82.008102 35:-21.8279 36:-11.72699 37:-68.207802 38:-21.778301 39:-17.366028 40:-53.277199 41:-29.0404 42:-12.877991 43:-40.924896 44:-28.924999 45:-5.8609619 46:-27.617996 47:-25.5177 48:2.3629761 49:8.5059967 50:2.6640015 51:-2.7780151 52:57.984993 53:26.804497 54:-9.75 55:90.100304 56:30.2943 57:2.4219971 58:91.225403 59:28.903202 60:16.688049 61:67.765289 62:24.470869 63:25.362 64:49.802002 65:15.19453 66:19.234985 67:20.749008 68:1.5583 69:11.320007 70:0.42700195 71:-1.3654995 72:9.6329956 
0.8308665575305204 0.8303584717237982 1:0.44729996 2:0.45950317 3:-1.4899902 4:-3.4213982 5:-1.0545044 6:-1.9699707 7:-0.097501755 8:-0.23119354 9:-0.98999023 10:7.9511013 11:3.9037971 12:0.22998047 13:19.457689 14:8.2699013 15:6.5599365 16:32.488609 17:5.8407974 18:7.9100342 19:50.817299 20:5.5587997 21:12.98999 22:55.368195 23:-2.0758972 24:12.310059 25:59.322006 26:-16.8535 27:11.859985 28:53.699005 29:-28.882004 30:8 31:42.566986 32:-31.378799 33:2.0899658 34:33.775024 35:-24.231995 36:2.5700684 37:13.792999 38:-20.445999 39:0.7199707 40:-3.3619995 41:0.20599365 42:-0.31005859 43:-14.113007 44:15.664001 45:-2.3499756 46:-57.557007 47:39.376999 48:-9.4699707 49:-91.593002 50:40.661606 51:-12.630005 52:-95.8694 53:10.814095 54:-13.959961 55:-76.128738 56:-6.4947968 57:-11.670044 58:-49.969666 59:-21.2948 60:-12.410034 61:-32.6031 62:-25.062103 63:-6.6500244 64:4.7786026 65:-5.3969955 66:-0.18994141 67:6.8393021 68:6.7919998 69:3.9000244 70:6.880394 71:-2.5709991 72:-0.33007813 
0.8306107965194776 0.8309827702750453 1:15.637501 2:13.4916 3:2.0600586 4:32.889301 5:13.061798 6:7.7800293 7:39.5196 8:13.108398 9:9.75 10:57.588898 11:4.273201 12:13.789917 13:56.557404 14:-4.2220993 15:18.060059 16:59.483994 17:-17.456902 18:20.140015 19:53.128998 20:-30.939995 21:14.529907 22:51.009018 23:-26.833008 24:11.430054 25:32.627991 26:-27.731003 27:7.2199707 28:10.229004 29:-16.929993 30:4.4200439 31:-2.4169922 32:-1.6399994 33:-0.82006836 34:-10.512024 35:15.938004 36:-3.6799316 37:-33.022003 38:23.317993 39:-10.119995 40:-55.877991 41:24.287003 42:-19.810059 43:-64.927002 44:16.751999 45:-28.819946 46:-55.730995 47:-5.723999 48:-27.530029 49:-63.963699 50:-32.658997 51:-31.059937 52:-41.666599 53:-25.806 54:-29.040039 55:-7.3243999 56:-4.8040009 57:-4.4500732 58:-0.70790005 59:-2.4990082 60:0.43005371 61:0.45529938 62:2.6470032 63:2.0799561 64:-0.45940018 65:-0.11700439 66:1.9500732 67:-1.7934999 68:0.43099976 69:0.82995605 70:-2.1530399 71:-0.37799072 72:-0.27001953 
0.830843895770776 0.8310318010988534 1:2.7873001 2:12.237003 3:0.97998047 4:7.5661898 5:16.344799 6:2.3699951 7:10.56789 8:15.557699 9:3.1699219 10:12.860519 11:12.925291 12:6.1300049 13:16.118999 14:13.065479 15:5.8500977 16:18.441402 17:14.610231 18:7.3299561 19:44.2271 20:18.142 21:17.430054 22:49.262299 23:6.9972 24:19.089966 25:46.281006 26:-6.8252029 27:14.73999 28:36.582001 29:-14.591999 30:8.5400391 31:20.588989 32:-16.602089 33:2.8499756 34:6.4270172 35:-8.7648697 36:0.73999023 37:-7.155014 38:0.77059996 39:-3.8000488 40:-13.199997 41:3.4333301 42:-7.9499512 43:-28.975006 44:5.4493103 45:-13.130005 46:-35.649002 47:5.68082 48:-17.859985 49:-43.069 50:-2.1625004 51:-23.390015 52:-50.932091 53:-14.29355 54:-26.98999 55:-47.215302 56:-22.481251 57:-25.140015 58:-33.271023 59:-19.0895 60:-20.719971 61:-25.755281 62:-22.628601 63:-18.700073 64:-15.6273 65:-24.9506 66:-9.9099121 67:-5.7705994 68:-11.739502 69:-5.4100342 70:-1.4229012 71:-2.098999 72:-3.2000732 
0.8307901664948495 0.8310496333471734 1:-2.2610016 2:0.69799805 3:-1.1099854 4:-1.2036972 5:2.256012 6:-0.29992676 7:0.81240082 8:1.4109955 9:0.54992676 10:4.7607994 11:1.0709991 12:2.9400635 13:7.5702991 14:4.9929962 15:3.5299072 16:11.551199 17:7.2900085 18:3.3300781 19:16.427809 20:4.2440033 21:5.7399902 22:25.229692 23:1.4249878 24:7.3199463 25:29.1651 26:0.80101013 27:7.8200684 28:73.253502 29:-2.9130096 30:16.039917 31:87.513 32:-55.651993 33:13.440063 34:67.341995 35:-60.043015 36:0.81994629 37:17.743011 38:-33.666992 39:0.60009766 40:-5.9880066 41:7.855011 42:-3.5700684 43:-32.627991 44:29.105988 45:-7.75 46:-54.803009 47:39.835007 48:-9.7700195 49:-83.273003 50:17.024994 51:-19.719971 52:-77.399704 53:4.9869995 54:-20.380005 55:-56.005402 56:-20.409988 57:-15.939941 58:-37.8246 59:-16.177002 60:-13.480103 61:-13.991699 62:-9.9840088 63:-9.1499023 64:-1.7082024 65:0.44200134 66:-3.8000488 67:7.3008041 68:1.4840088 69:-0.020019531 70:2.9659996 71:-3.678009 72:-0.23999023 
0.8311719621516049 0.8307315839267588 1:-1.2330017 2:-3.0931015 3:3.2439575 4:0.64100647 5:0.047800064 6:1.6370239 7:0.50099945 8:-1.0028992 9:3.4689941 10:2.0629959 11:-0.069200516 12:3.9160156 13:4.3940048 14:3.5669003 15:4.6459961 16:7.3199997 17:5.5131006 18:8.0020142 19:14.460701 20:5.9905996 21:9.539978 22:24.8424 23:8.8850203 24:14.280029 25:28.009796 26:9.92278 27:14.22998 28:69.410698 29:7.0867996 30:33.319946 31:62.533699 32:-9.95403 33:26.02002 34:46.326706 35:-21.63117 36:14.97998 37:23.848999 38:-13.901099 39:3.6600342 40:-2.2900085 41:-5.4400005 42:-6.4399414 43:-11.415985 44:8.7432995 45:-9.1300049 46:-38.986008 47:10.7993 48:-16.440063 49:-53.681599 50:4.4576406 51:-20.699951 52:-62.564201 53:-0.93957043 54:-20.890015 55:-58.787601 56:-10.851569 57:-18.26001 58:-45.668602 59:-10.259201 60:-18.039978 61:-32.766991 62:-11.392 63:-15.557007 64:-37.820999 65:-54.612297 66:-30.05603 67:128.01559 68:-98.6091 69:37.973022 70:9.6495972 71:-7.8670044 72:8.289978 
0.8306096729482108 0.8309810746929824 1:-0.35513997 2:0.33679962 3:-0.059936523 4:2.1699603 5:-2.6401978 6:-0.96008301 7:2.0462699 8:-0.21600342 9:0.86010742 10:5.8754597 11:-0.88800049 12:3.1199951 13:15.567101 14:1.5540009 15:4.4199219 16:27.920601 17:-1.8990021 18:10.02002 19:43.136101 20:-0.25899506 21:13.790039 22:56.577995 23:-5.6490021 24:15.609985 25:63.328003 26:-26.073006 27:12.73999 28:57.137985 29:-32.480988 30:9.3100586 31:37.554016 32:-33.237 33:2.6999512 34:15.350006 35:-22.024002 36:0.65002441 37:3.3079834 38:-5.7220001 39:-0.48999023 40:-9.618988 41:10.843002 42:-3.4400635 43:-24.63501 44:21.824997 45:-6.2999268 46:-42.179993 47:22.145996 48:-12.290039 49:-43.828003 50:22.235001 51:-16.700073 52:-51.981003 53:8.6569977 54:-22.869995 55:-50.226997 56:-0.78799438 57:-27.22998 58:-43.162796 59:-8.3890076 60:-22.409912 61:-30.057701 62:-8.0149994 63:-12.630005 64:-11.6073 65:-11.018997 66:-4.2200928 67:-4.4152012 68:-3.7810059 69:-1.7399902 70:0.97380066 71:-2.098999 72:3.1500244 
0.8309984795328289 0.8303411499765576 1:-0.41580009 2:1.3690033 3:-0.08996582 4:-1.1093006 5:-0.25900269 6:2.1499023 7:-3.8099995 8:0.59100342 9:2.7800293 10:1.9843998 11:3.4929962 12:3.9500732 13:9.3272991 14:3.4319916 15:9.4699707 16:32.322098 17:2.4810028 18:19.48999 19:49.3946 20:3.3710022 21:25.419922 22:64.732109 23:-8.6089935 24:23.180054 25:63.535995 26:-26.332001 27:14.140015 28:58.438004 29:-40.984009 30:1.4599609 31:31.721985 32:-28.39798 33:-0.66992188 34:15.407013 35:-34.513 36:-4.5800781 37:-11.072998 38:-2.2750244 39:-4.3800049 40:-18.640015 41:18.437012 42:-6.0799561 43:-30.348984 44:34.915009 45:-4.1600342 46:-61.410004 47:38.54599 48:-3 49:-64.656006 50:35.324997 51:-9.4199219 52:-61.981697 53:14.559006 54:-9.7401123 55:-44.983902 56:-3.5039978 57:-7.3099365 58:-29.7314 59:-9.654007 60:-6.1300049 61:-11.3827 62:-3.9989929 63:-3.6999512 64:0.83909988 65:-2.1970062 66:-3.2301025 67:3.0888004 68:0.013000488 69:-1.8399658 70:2.6494999 71:1.9680023 72:-3.0300293 
0.8308645406343538 0.8303726371062447 1:0.090099335 2:1.1909943 3:-0.099975586 4:2.0865974 5:2.506012 6:2.0799561 7:13.157202 8:3.7249908 9:3.3599854 10:20.686581 11:7.7050018 12:6.0899658 13:30.28952 14:7.951004 15:4.8699951 16:40.177902 17:2.3159943 18:6 19:51.930397 20:-1.2870026 21:6.0200195 22:60.320007 23:-15.62999 24:4.1500244 25:61.293991 26:-31.31601 27:-1.6899414 28:43.565994 29:-35.283997 30:-7.6800537 31:24.902008 32:-30.244003 33:-5.2800293 34:2.9720154 35:-12.091003 36:-1.3099365 37:-3.151001 38:8.5460205 39:1.0299072 40:-10.993011 41:19.304993 42:-0.18994141 43:-26.695007 44:24.445999 45:2.7600098 46:-46.584 47:29.121994 48:3.6700439 49:-68.679993 50:20.115997 51:-5.8300781 52:-69.4002 53:14.522003 54:-11.199951 55:-58.753502 56:-6.0309906 57:-15.150024 58:-42.3573 59:-19.907013 60:-11.540039 61:-23.969799 62:-12.028992 63:-7.8399658 64:-11.0336 65:-2.951004 66:-4.9499512 67:-0.8187027 68:1.8240051 69:-3.8599854 70:2.1832008 71:-0.88400269 72:-1.4700928 
0.8308188785227296 0.8307341006542824 1:1.8951988 2:1.197998 3:0.41992188 4:-0.0084991455 5:0.70500183 6:0.55004883 7:3.9627991 8:1.0329895 9:3.0500488 10:1.6921997 11:2.4240112 12:-0.29003906 13:4.3854027 14:5.7259979 15:1.2800293 16:7.4750977 17:6.1549988 18:4.4799805 19:10.507801 20:7.4049988 21:3.4599609 22:11.388599 23:5.0980072 24:3.0600586 25:31.373901 26:0.66499329 27:7.1500244 28:29.245998 29:-4.6049957 30:1.8898926 31:19.635502 32:-9.3700104 33:-4.3499756 34:10.197102 35:-9.348999 36:-3.9899902 37:4.8709946 38:-2.4129944 39:-1.8499756 40:-4.219696 41:3.4490051 42:-1.3100586 43:-10.927502 44:12.123993 45:1.6500244 46:-21.7104 47:11.656998 48:4.0100098 49:-26.7995 50:8.9490051 51:0.44006348 52:-27.277201 53:-2.7190094 54:-1.9899902 55:-23.2796 56:-6.443985 57:-7.5700684 58:-14.309799 59:-10.197006 60:-9.6099854 61:-2.6725006 62:-3.522995 63:-7.2800293 64:0.44990158 65:-1.9210052 66:-3.4799805 67:0.056098938 68:-3.1840057 69:-2.2099609 70:-0.82939911 71:-0.26799011 72:-0.29003906 
0.8308141545699277 0.8310462448120601 1:3.7505999 2:3.625 3:0.47998047 4:7.3603001 5:4.3760071 6:2.3299561 7:11.16669 8:5.7489929 9:5.3300781 10:35.589813 11:12.996002 12:12.359985 13:51.384602 14:3.8789978 15:20.119995 16:61.546593 17:-12.223999 18:19.170044 19:52.743011 20:-30.072998 21:5.4799805 22:37.94899 23:-24.268997 24:0.70996094 25:22.103989 26:-19.100998 27:-0.23999023 28:4.1080017 29:-10.128006 30:-1.5500488 31:-0.04598999 32:0.61700439 33:-1.8099365 34:-6.0960083 35:9.2649994 36:-3.5700684 37:-10.685974 38:14.951004 39:-2.8099365 40:-21.767014 41:20.021988 42:-6.0600586 43:-35.179001 44:24.394012 45:-5.3898926 46:-43.147003 47:22.911987 48:-12.170044 49:-51.440994 50:10.465004 51:-18.52002 52:-55.363403 53:-6.5979996 54:-18.949951 55:-45.000122 56:-16.462006 57:-15.340088 58:-30.050381 59:-14.001999 60:-11.089966 61:-17.041098 62:-15.11499 63:-6.2600098 64:-7.0256004 65:-8.1630096 66:-0.89001465 67:-8.2209015 68:-0.62399292 69:-1.2999268 70:-1.1732979 71:2.9839935 72:0.11999512 
1 1 1:0 2:0 3:0 4:0 5:0 6:0 7:0 8:0 9:0 10:0 11:0 12:0 13:0 14:0 15:0 16:0 17:0 18:0 19:0 20:0 21:0 22:0 23:0 24:0 25:0 26:0 27:0 28:0 29:0 30:0 31:0 32:0 33:0 34:0 35:0 36:0 37:0 38:0 39:0 40:0 41:0 42:0 43:0 44:0 45:0 46:0 47:0 48:0 49:0 50:0 51:0 52:0 53:0 54:0 55:0 56:0 57:0 58:0 59:0 60:0 61:0 62:0 63:0 64:0 65:0 66:0 67:0 68:0 69:0 70:0 71:0 72:0 
0.8307641438416296 0.8310465586538259 1:0.79399872 2:2.6859894 3:1.5200195 4:9.3513031 5:20.029007 6:6.75 7:20.4254 8:23.491997 9:11.669922 10:53.597191 11:38.6422 12:32.780029 13:77.31501 14:27.8074 15:44.440063 16:89.985497 17:9.6694012 18:43.869995 19:101.069 20:-20.441099 21:33.389893 22:88.980988 23:-48.649605 24:15.460083 25:50.497009 26:-69.369293 27:15.27002 28:-10.717987 29:15.860992 30:-7.5700684 31:-8.6350098 32:22.325005 33:-9.7299805 34:-19.899994 35:24.175499 36:-13.599976 37:-26.703003 38:28.074501 39:-17.089966 40:-39.177002 41:21.350498 42:-21.970093 43:-48.764999 44:14.021801 45:-23.209961 46:-53.979996 47:10.0975 48:-26.369995 49:-56.904007 50:2.9375 51:-27.130005 52:-58.376801 53:-11.0714 54:-23.589966 55:-55.254997 56:-13.9818 57:-21.890015 58:-46.279099 59:-24.936497 60:-17.130005 61:-36.475601 62:-27.751205 63:-10.98999 64:-28.197502 65:-28.391396 66:-5.3400879 67:-12.702095 68:-19.759003 69:0.58007813 70:-4.0630035 71:-8.7590027 72:2.6099854 
0.8308632078337213 0.8309827702783125 1:1.4779968 2:-1.3959999 3:-1.9799805 4:9.1030045 5:5.1317997 6:0.19995117 7:24.728996 8:18.132854 9:2.4400635 10:44.697399 11:17.235546 12:6.789917 13:63.970802 14:14.572199 15:10.980103 16:72.829803 17:2.4954987 18:13.890015 19:76.594002 20:-9.7928982 21:12.72998 22:65.149994 23:-29.226761 24:7.539917 25:56.662003 26:-32.565441 27:5.3599854 28:48.608002 29:-34.9604 30:5.3100586 31:26.414001 32:-31.869904 33:0.57995605 34:18.777985 35:-23.709999 36:-3.1099854 37:-0.63397217 38:-10.295998 39:-5.8399658 40:-2.381012 41:5.8809967 42:-8.2800293 43:-16.868011 44:21.141006 45:-9.9799805 46:-29.477997 47:32.184593 48:-12.119995 49:-45.618988 50:34.553402 51:-14.589966 52:-54.235001 53:33.925903 54:-15.680054 55:-63.756012 56:30.894001 57:-21.099976 58:-99.064491 59:14.275698 60:-34.349976 61:-84.785828 62:-8.898798 63:-28.349976 64:-53.94857 65:-28.93152 66:-19.170044 67:-26.383099 68:-35.376579 69:-12.670044 70:-0.020904541 71:-6.9682999 72:-1.6199951 
0.8308137973828609 0.8309827624903656 1:2.699295 2:-0.030593872 3:0.90002441 4:2.7826996 5:1.6403961 6:1.6300049 7:5.7903061 8:2.947998 9:2.6600342 10:5.2835999 11:2.8889999 12:1.9799805 13:15.012096 14:10.093502 15:5.8200684 16:21.311401 17:8.1100998 18:8.75 19:32.663158 20:14.392601 21:12.929932 22:41.946041 23:14.911699 24:17.310059 25:55.833797 26:12.446301 27:24.399902 28:60.802803 29:5.1832504 30:26.130005 31:73.164001 32:-14.037149 33:27.109985 34:71.693985 35:-36.663799 36:16.450073 37:55.39801 38:-49.848103 39:1 40:27.834015 41:-37.996994 42:-8.1300049 43:-1.2279968 44:-7.2200012 45:-15.140015 46:-30.478027 47:17.261002 48:-25.780029 49:-60.73999 50:33.483994 51:-28.799927 52:-85.324997 53:14.855301 54:-32.47998 55:-86.707001 56:-3.5141983 57:-35.030029 58:-68.428802 59:-20.028099 60:-21.5 61:-47.090912 62:-25.615997 63:-5.6199951 64:-24.169088 65:-15.947998 66:1.8900146 67:-10.067701 68:-7.5600128 69:2.8499756 70:-5.0709991 71:-5.0820007 72:2.8199463 
0.8308665577568011 0.8310566886829865 1:2.2237015 2:2.5890045 3:0.89001465 4:2.7461014 5:2.8389893 6:1.1400146 7:0.85600281 8:2.0680084 9:0.040039063 10:1.4220963 11:0.69299316 12:1.0400391 13:3.1433029 14:0.50801086 15:1.0599365 16:6.2559967 17:-0.67700195 18:1.3800049 19:9.9790001 20:1.4409943 21:2.5999756 22:13.009201 23:1.1910095 24:5.0200195 25:20.0173 26:3.6369934 27:5.3399658 28:49.893097 29:3.4049988 30:10.850098 31:108.17611 32:-29.727997 33:11.819946 34:96.592987 35:-40.352997 36:10.449951 37:82.660019 38:-75.722 39:3 40:36.260986 41:-61.144012 42:-3.1400146 43:3.3989868 44:-15.166992 45:-4.6899414 46:-8.8299866 47:25.937988 48:-9.4499512 49:-31.613007 50:52.130005 51:-11.950073 52:-47.324982 53:62.867004 54:-10.630005 55:-89.617004 56:63.561996 57:-8.0999756 58:-103.3718 59:18.124008 60:-15.829956 61:-64.761627 62:-0.82000732 63:-10.950073 64:-29.48048 65:-9.1959991 66:-2.6999512 67:-4.9692993 68:-4.0370026 69:0.35998535 70:11.768099 71:-2.7839966 72:2.5200195 
0.8307885446939222 0.8302682765632552 1:3.3438988 2:9.9263 3:2.8300781 4:0.75090027 5:11.6717 6:1.539917 7:1.5446014 8:13.320202 9:4.0999756 10:17.868797 11:30.310459 12:18.060059 13:44.925701 14:24.43074 15:31.939941 16:58.737499 17:8.6254005 18:38.860107 19:65.8265 20:-11.152102 21:33.409912 22:59.222 23:-23.69689 24:21.590088 25:56.380005 26:-31.180109 27:11.909912 28:29.498993 29:-25.195299 30:2.3499756 31:10.847015 32:-13.306602 33:-5 34:-8.3250122 35:4.6984024 36:-9.9699707 37:-23.303986 38:19.766399 39:-12.23999 40:-44.21402 41:26.286301 42:-19.26001 43:-54.485992 44:25.1987 45:-26.419922 46:-64.848 47:4.7788992 48:-37.430054 49:-61.625103 50:-12.294519 51:-40.689941 52:-52.436321 53:-25.969879 54:-47.050049 55:-33.603977 56:-31.239502 57:-44.380005 58:-16.565403 59:-40.598701 60:-31.670044 61:1.7796021 62:-34.806198 63:-9.8699341 64:3.8446999 65:-12.539993 66:-3.9800415 67:10.0765 68:1.7689972 69:3.2300415 70:1.5840988 71:5.4850006 72:-0.41003418 
0.8307941002568359 0.8310318014819095 1:-3.3763008 2:-0.041000366 3:-1.4899902 4:-6.2473984 5:2.9179993 6:-3.7700195 7:-1.9860001 8:8.3040009 9:-1.4699707 10:14.659901 11:12.535004 12:6.4399414 13:-12.273701 14:27.392998 15:-9.2199707 16:34.1446 17:26.530403 18:16.51001 19:55.2267 20:14.818893 21:23.640015 22:66.775406 23:-0.032798767 24:24.380005 25:70.548004 26:-17.5662 27:20.089966 28:67.860001 29:-49.770294 30:6.7399902 31:55.216995 32:-55.942001 33:-2.1600342 34:17.877991 35:-67.44101 36:-11.299927 37:7.8080139 38:-58.561981 39:-14.470093 40:4.3859863 41:-42.307007 42:-11.549927 43:1.4869995 44:2.0769958 45:-1.1600342 46:-4.0749817 47:39.122009 48:5.4400635 49:-41.009003 50:77.194992 51:7.3599854 52:-71.966003 53:88.848999 54:5.7299805 55:-102.178 56:65.650597 57:-14.420044 58:-87.553299 59:8.3041 60:-30.549927 61:-62.675301 62:-21.394699 63:-36.970093 64:-18.6283 65:-21.416 66:-21.5 67:3.8633995 68:0.55599976 69:-4.5099487 70:5.7146988 71:3.2409973 72:-0.090026855 
0.8306113566451183 0.8302682765384055 1:-1.1227951 2:-0.090698242 3:-1.5400391 4:1.3715973 5:-0.69589996 6:-0.11999512 7:-1.9869003 8:1.3955002 9:-2 10:2.2651978 11:0.76460266 12:0.25 13:3.1220016 14:10.005394 15:-0.15002441 16:21.583801 17:22.521004 18:10.600098 19:50.3004 20:29.107498 21:23.589966 22:73.265503 23:24.98534 24:31.099976 25:82.505692 26:14.44294 27:35.390015 28:70.874008 29:-12.89183 30:24.069946 31:56.424011 32:-26.900349 33:11.910034 34:38.812988 35:-22.144299 36:5.6600342 37:12.128998 38:-15.2271 39:2.4299316 40:-9.1329956 41:7.332695 42:-4.4699707 43:-25.338013 44:19.620903 45:-10.609985 46:-61.535995 47:17.8444 48:-17.359985 49:-59.849991 50:28.632607 51:-19.719971 52:-79.794106 53:-0.818744 54:-29.180054 55:-75.092758 56:-14.445561 57:-31.219971 58:-46.880341 59:-17.566399 60:-22.550049 61:-24.374699 62:-16.707703 63:-11.529907 64:-11.7117 65:-13.345398 66:-5.8500977 67:0.37809753 68:-3.2612991 69:0.2800293 70:5.8207016 71:-0.6065979 72:0.97998047 
0.8305986507798973 0.8310566124397169 1:-0.54000092 2:0.21710014 3:0.48999023 4:0.27999878 5:0.21629906 6:1.0599365 7:1.6340027 8:0.99770164 9:1.0600586 10:2.1240005 11:1.348999 12:0.76000977 13:3.4459991 14:1.6529007 15:2.6300049 16:10.468002 17:4.9308987 18:2.4599609 19:12.147095 20:7.3553009 21:4.1500244 22:50.173103 23:25.149399 24:14.300049 25:75.614899 26:33.322201 27:20.73999 28:87.284897 29:3.3512993 30:17.339966 31:74.279007 32:-15.747997 33:5.9399414 34:62.71701 35:-29.274141 36:-3.4099121 37:33.449982 38:-29.828861 39:-3.3300781 40:2.2019958 41:-5.9443989 42:-3.039917 43:-21.584991 44:14.889099 45:-5.8900146 46:-53.240997 47:28.9016 48:-5.0200195 49:-77.548004 50:23.9394 51:-10.47998 52:-95.993401 53:-2.174099 54:-22.170044 55:-84.423294 56:-18.4636 57:-26.089966 58:-58.027401 59:-27.0828 60:-22.640015 61:-20.613899 62:-16.862101 63:-11.890015 64:-6.0019989 65:-0.73600006 66:-7.5300293 67:4.9580002 68:2.1613007 69:-3.9299316 70:8.5059967 71:1.1236 72:-2.0400391 
0.830999694297162 0.8310306045684639 1:1.2519989 2:2.4128017 3:1.0599365 4:7.677002 5:1.7845001 6:0.95007324 7:13.735001 8:8.3306999 9:2.4599609 10:24.002197 11:15.6369 12:6.9200439 13:28.6026 14:16.1961 15:9.7799072 16:30.540199 17:12.6829 18:12.030029 19:31.0532 20:10.241899 21:11.400024 22:31.2314 23:4.5578995 24:9.4100342 25:52.516098 26:7.3268013 27:18.609985 28:52.823311 29:1.3125992 30:16.299927 31:47.290985 32:-2.013401 33:16.340088 34:55.293015 35:-10.7789 36:17.909912 37:53.895981 38:-26.802158 39:11.220093 40:44.529022 41:-29.86344 42:3.6899414 43:0.25 44:-19.146299 45:-18.540039 46:-50.861023 47:28.770199 48:-17.76001 49:-74.822983 50:43.4431 51:-13.51001 52:-91.138 53:23.114498 54:-15.589966 55:-89.116608 56:6.8816032 57:-14.549927 58:-76.270004 59:-5.9134026 60:-8.6400146 61:-64.518501 62:-22.1707 63:-6.8900146 64:-38.142899 65:-31.303608 66:-10.070068 67:-8.3889923 68:-18.043491 69:-12.22998 70:0.67498779 71:-2.0196991 72:-7.1999512 
1 1 1:0 2:0 3:0 4:0 5:0 6:0 7:0 8:0 9:0 10:0 11:0 12:0 13:0 14:0 15:0 16:0 17:0 18:0 19:0 20:0 21:0 22:0 23:0 24:0 25:0 26:0 27:0 28:0 29:0 30:0 31:0 32:0 33:0 34:0 35:0 36:0 37:0 38:0 39:0 40:0 41:0 42:0 43:0 44:0 45:0 46:0 47:0 48:0 49:0 50:0 51:0 52:0 53:0 54:0 55:0 56:0 57:0 58:0 59:0 60:0 61:0 62:0 63:0 64:0 65:0 66:0 67:0 68:0 69:0 70:0 71:0 72:0 
0.8308438961539024 0.8310550169374305 1:17.940804 2:12.320101 3:8.1400146 4:21.9561 5:13.040501 6:8.9899902 7:22.901497 8:9.7896004 9:9.4599609 10:30.1553 11:8.2064972 12:12.670044 13:29.899601 14:6.6711006 15:11.650024 16:31.227001 17:7.3460999 18:13.72998 19:32.577198 20:3.698204 21:13.660034 22:36.143501 23:1.3712006 24:13.73999 25:70.264999 26:-8.3718033 27:22.829956 28:62.598007 29:-22.090302 30:11.349976 31:40.18898 32:-29.287098 33:-1.7999268 34:5.8359985 35:-19.808529 36:-12.030029 37:-10.97699 38:0.43296003 39:-16.369995 40:-28.341003 41:17.257349 42:-23.27002 43:-45.745987 44:16.629421 45:-22.079956 46:-64.095001 47:13.2906 48:-22.160034 49:-76.919502 50:-0.27080154 51:-22.170044 52:-68.518005 53:-15.697699 54:-15.530029 55:-43.856899 56:-22.28145 57:-13.439941 58:-23.972603 59:-21.066851 60:-9.6999512 61:-7.4624023 62:-15.695101 63:-3.9700928 64:2.1141052 65:-8.641098 66:-1.9699707 67:2.7253952 68:1.9333 69:-0.069946289 70:5.7180023 71:1.7182007 72:2.9299316 
0.8307867855305312 0.8310318014814779 1:1.5789032 2:-0.1359024 3:1.4699707 4:0.87399292 5:0.18310165 6:0.23999023 7:2.196907 8:-0.71409988 9:1.5900879 10:1.2100983 11:0.01720047 12:0.15991211 13:4.9712982 14:-2.8393021 15:6.0100098 16:10.048 17:1.663002 18:16.290039 19:20.104599 20:8.8899994 21:18.380005 22:42.512291 23:13.1609 24:23.51001 25:67.80011 26:5.8773994 27:28.939941 28:89.919502 29:-14.845501 30:27.630005 31:91.334015 32:-41.619495 33:13.040039 34:90.133972 35:-64.239609 36:-10.530029 37:43.01001 38:-38.96199 39:-7.6099854 40:9.6830139 41:-23.785004 42:-8.1800537 43:-14.088013 44:7.548996 45:-12.47998 46:-20.441986 47:28.151001 48:-13.569946 49:-39.201019 50:45.656006 51:-11.930054 52:-77.270996 53:41.397095 54:-10.459961 55:-100.27199 56:23.326504 57:-18.22998 58:-79.45031 59:-0.070701599 60:-19.460083 61:-56.729897 62:-15.195797 63:-15.139893 64:-17.87322 65:-13.315201 66:-3.6500244 67:-2.3264904 68:-0.51480103 69:-0.31005859 70:1.7794304 71:0.93540192 72:2.0500488 
0.830790657175146 0.8310462448120654 1:2.0030212 2:-2.5238991 3:-2.5499268 4:-0.78500366 5:6.2302971 6:-1.2399902 7:28.742981 8:16.210602 9:-5.1300049 10:76.506012 11:17.497 12:-20.060059 13:103.623 14:3.6438999 15:-30.359985 16:89.302002 17:-24.246201 18:-19.799927 19:42.145393 20:-30.437798 21:-6.4100342 22:-17.611099 23:-0.97450256 24:-2.8100586 25:-65.88929 26:20.682701 27:5.960083 28:-87.266006 29:6.6590996 30:19.769897 31:-116.411 32:-13.410099 33:38.730103 34:-75.951996 35:-41.779099 36:22.849976 37:-15.864014 38:-30.259903 39:0.65002441 40:56.395996 41:45.779503 42:-5.8400879 43:105.75 44:37.834999 45:-18.75 46:117.53401 47:9.5028 48:-27.799927 49:75.790298 50:-32.269402 51:-14.73999 52:3.7896957 53:-3.8114014 54:-6.0200195 55:-46.948997 56:11.3578 57:8.7299805 58:-86.820007 59:16.976101 60:20.51001 61:-88.013 62:-14.357201 63:26.780029 64:-79.617004 65:-20.995499 66:21.23999 67:-37.478973 68:-20.218903 69:10.339966 70:-17.157013 71:-13.244797 72:4.4200439 
0.830597975500153 0.8303900765102626 1:2.7349854 2:0.87059784 3:0.51000977 4:-0.60897827 5:3.5435028 6:0.090087891 7:5.4889832 8:2.6937027 9:-0.89001465 10:8.9850159 11:2.823494 12:-3.6600342 13:9.5189819 14:6.9584045 15:-4.0599365 16:21.136993 17:7.8234978 18:-6.6101074 19:36.296021 20:13.1306 21:-9.0098877 22:59.937988 23:10.413799 24:-15.190063 25:72.197006 26:-0.95149994 27:-15.079956 28:67.602997 29:-14.847099 30:-12.540039 31:50.224998 32:-16.358498 33:-7.8800049 34:24.449501 35:-14.236404 36:-4.5 37:-0.72800064 38:-1.4464951 39:-5.5300293 40:-24.262501 41:9.3705978 42:-6.0699463 43:-77.215996 44:10.657097 45:-5.7399902 46:-68.153 47:11.871704 48:1.4000244 49:-74.164993 50:-10.182701 51:7.3699951 52:-66.855011 53:-10.015297 54:10.849976 55:-45.399994 56:-11.756805 57:14.679932 58:-26.095001 59:-12.622299 60:9.2700195 61:-5.9400024 62:-8.8603973 63:6.4100342 64:6.6910095 65:-4.8590012 66:4.6500244 67:1.6419983 68:4.2249985 69:3.2799072 70:-1.178009 71:1.0070038 72:3.7800293 
1 1 1:0 2:0 3:0 4:0 5:0 6:0 7:0 8:0 9:0 10:0 11:0 12:0 13:0 14:0 15:0 16:0 17:0 18:0 19:0 20:0 21:0 22:0 23:0 24:0 25:0 26:0 27:0 28:0 29:0 30:0 31:0 32:0 33:0 34:0 35:0 36:0 37:0 38:0 39:0 40:0 41:0 42:0 43:0 44:0 45:0 46:0 47:0 48:0 49:0 50:0 51:0 52:0 53:0 54:0 55:0 56:0 57:0 58:0 59:0 60:0 61:0 62:0 63:0 64:0 65:0 66:0 67:0 68:0 69:0 70:0 71:0 72:0 
0.8307804168185256 0.8303423351579427 1:9.322998 2:10.6054 3:-2.5100098 4:4.9700012 5:10.190399 6:0.060058594 7:15.916992 8:10.3421 9:-1.7900391 10:16.38501 11:13.2506 12:-1.0100098 13:18.337982 14:15.110785 15:-1.4299316 16:31.285004 17:15.507815 18:0.13000488 19:50.124008 20:12.252899 21:5.3099365 22:75.065002 23:2.5509014 24:4.2200928 25:70.466393 26:-16.738501 27:0.61999512 28:42.299103 29:-24.4072 30:-2.5100098 31:8.6669998 32:-11.4403 33:-4.5200195 34:-12.5047 35:-0.085300446 36:-4.2600098 37:-39.474701 38:8.2489004 39:-1.7199707 40:-58.198105 41:2.6448002 42:-1.1800537 43:-67.889999 44:-2.6854 45:0.7800293 46:-62.845993 47:-14.701501 48:1.5499268 49:-44.527008 50:-16.415201 51:0.73010254 52:-20.403992 53:-11.1441 54:1.4699707 55:-2.8470154 56:-4.8530998 57:0.85998535 58:0.51602173 59:-2.1923981 60:-0.94995117 61:2.769989 62:0.54320145 63:-0.61999512 64:5.6059875 65:-2.1827011 66:0.51989746 67:4.0670166 68:1.347599 69:0.93005371 70:-0.63601685 71:-0.27339935 72:1 
0.8307714810186431 0.8310271932895077 1:1.9179993 2:2.00738 3:-0.68005371 4:1.8450012 5:0.48445988 6:-1.1199951 7:1.5050049 8:-0.30067968 9:-1.0300293 10:0.015991211 11:0.30323982 12:-0.59997559 13:-0.39300537 14:0.38461018 15:0.19995117 16:-1.8309937 17:-2.25348 18:0.17004395 19:1.4339905 20:-6.9416399 21:-0.55004883 22:2.4860229 23:0.37860012 24:-0.61999512 25:15.678986 26:7.7294497 27:-0.32995605 28:41.113007 29:10.880199 30:-1.9899902 31:55.968994 32:1.4920599 33:-3.8499756 34:58.337006 35:-14.09835 36:-6.5600586 37:30.671997 38:-17.215061 39:-8.4799805 40:1.1920013 41:-4.9141006 42:-9.6099854 43:-38.656006 44:-3.8789005 45:-10.900024 46:-66.013992 47:2.698101 48:-13.849976 49:-82.022003 50:-6.4793015 51:-7.1800537 52:-76.230988 53:-16.914799 54:-0.4699707 55:-38.088013 56:-21.064297 57:2.9400635 58:-6.3479919 59:-11.869102 60:3.8099365 61:7.0849915 62:-2.1445999 63:-0.70996094 64:7.57901 65:3.5301971 66:2.3299561 67:2.4499817 68:2.4209061 69:2.9799805 70:-0.2829895 71:1.0681992 72:2.75 
0.8307906569241184 0.8303584719507773 1:7.2659912 2:2.4793987 3:0.5 4:8.0390015 5:0.77260017 6:0.89001465 7:4.6090088 8:1.7529011 9:0.020019531 10:5.5759888 11:2.8059998 12:0.91992188 13:9.3529968 14:4.1174011 15:1.8500977 16:13.622009 17:8.2450981 18:1.1398926 19:25.733002 20:1.169899 21:-0.67993164 22:55.458008 23:17.481503 24:1.9299316 25:83.459991 26:4.2780991 27:1.5100098 28:88.274406 29:-24.834599 30:1.8601074 31:51.963898 32:-36.125343 33:-1.1500244 34:-0.11419868 35:-3.9818699 36:-4.2800293 37:-43.6269 38:14.117411 39:-12.089966 40:-71.980209 41:-7.35114 42:-23.150024 43:-83.901993 44:-28.946461 45:-31.070068 46:-78.444992 47:-60.340302 48:-31.25 49:-67.583008 50:-63.869804 51:-18.029907 52:-47.808014 53:-55.740997 54:-9.3500977 55:-14.760986 56:-29.431 57:3.2200928 58:4.4899902 59:6.9109955 60:10.589966 61:14.861023 62:16.912003 63:10.969971 64:11.891998 65:13.969009 66:9.4400635 67:7.6169739 68:8.5189972 69:9.1799316 70:8.1730042 71:2.7129974 72:4 
0.8308332064699306 0.8307186752246317 1:0.34597778 2:-0.6729002 3:0.91003418 4:-0.28997803 5:0.94471073 6:0.32006836 7:-0.18200684 8:0.31816959 9:-0.26000977 10:-1.427002 11:-0.34348011 12:-0.070068359 13:-0.37799072 14:0.40361023 15:-0.28991699 16:0.73599243 17:0.095319748 18:-0.95007324 19:1.9530029 20:0.49371004 21:-1 22:5.5960083 23:0.69031 24:-2.3199463 25:11.509003 26:0.50126028 27:-2.5700684 28:15.084991 29:4.65834 30:-3.0699463 31:21.117996 32:2.6048319 33:-2.3699951 34:54.921005 35:-0.36313799 36:-3.25 37:52.619995 38:-7.6115141 39:2.1799316 40:3.1679993 41:-5.2361798 42:1.3900146 43:-34.035995 44:-1.4569998 45:-2.0300293 46:-56.422012 47:-3.5641012 48:-3.2399902 49:-77.289001 50:-9.037899 51:-1.0699463 52:-82.02298 53:-19.449499 54:1.4899902 55:-26.370026 56:-22.3405 57:-5.6600342 58:-1.2279968 59:-7.915802 60:-1.6599121 61:4.1220093 62:0.23699951 63:-1.1101074 64:0.71899414 65:3.1050034 66:2.960083 67:4.8500061 68:-1.5682983 69:0.35998535 70:3.5910034 71:-0.88050079 72:0.98999023 
0.8308992908314475 0.8303770565514991 1:2.8569946 2:0.64685595 3:-1.2700195 4:4.4179993 5:0.33431703 6:-0.88000488 7:4.4949951 8:1.549477 9:0.48999023 10:4.3460083 11:0.50785995 12:-0.14001465 13:3.9630127 14:1.2564499 15:-0.80004883 16:7.1679993 17:3.0198002 18:0.31005859 19:10.964996 20:3.4651899 21:0.15002441 22:18.281982 23:2.7170296 24:-0.68005371 25:65.548004 26:-8.2660103 27:-3.5899658 28:38.955002 29:-2.5990896 30:0.39001465 31:38.230011 32:-7.6767702 33:-0.08996582 34:39.469391 35:-10.49803 36:-0.080078125 37:25.149399 38:-13.672701 39:-1.0100098 40:11.182903 41:-8.6096001 42:-1.9799805 43:-2.0802002 44:-4.0862007 45:-3.1999512 46:-11.0312 47:7.0172005 48:-4.1199951 49:-19.447403 50:8.2056007 51:-3.8200684 52:-31.243896 53:6.8027992 54:-1.4699707 55:-67.727005 56:2.5458012 57:-3.4000244 58:-84.069 59:1.1487999 60:-1.5300293 61:-83.085999 62:-15.870901 63:-2.2600098 64:-48.847992 65:-25.801201 66:-0.17993164 67:-30.287018 68:-20.250298 69:2.2900391 70:-10.168976 71:-8.8981018 72:1.7999268 
0.8313046028654204 0.8310239369136185 1:-3.0290222 2:0.25379944 3:2.0499268 4:3.5220032 5:0.26580048 6:0.59997559 7:3.0010071 8:2.4328003 9:0.34008789 10:2.7950134 11:3.1606064 12:1.2399902 13:5.8169861 14:0.43969727 15:0.58996582 16:3.730011 17:1.683197 18:-0.64001465 19:2.8739929 20:3.726799 21:-0.16992188 22:4.7120056 23:4.7802048 24:-1.9000244 25:19.946991 26:11.963398 27:-2.2000732 28:65.261017 29:14.5597 30:-2.1499023 31:83.043991 32:14.5902 33:-3.4100342 34:91.242996 35:-11.3204 36:-3.5300293 37:54.999496 38:-22.908998 39:0.25 40:3.5681 41:-1.4109001 42:-1.6300049 43:-39.634598 44:5.2286987 45:-5.6600342 46:-68.141998 47:10.386501 48:-5.25 49:-82.949997 50:4.5124969 51:1.1300049 52:-85.015015 53:-11.111298 54:5.9400635 55:-38.651978 56:-16.8237 57:6.9299316 58:-18.825012 59:-10.233501 60:7.0700684 61:5.7460022 62:-5.846199 63:3.1899414 64:-1.4660034 65:4.2115021 66:4.1000977 67:5.1279907 68:2.2570953 69:4.0198975 70:2.6430054 71:0.40750122 72:1.8300781 
0.8308179160385619 0.8310566124414934 1:0.40600586 2:1.6791 3:0.7800293 4:-0.89700317 5:2.2654953 6:0.58007813 7:2.3380127 8:-3.2872009 9:-0.080078125 10:1.072998 11:0.77500153 12:0.57006836 13:-0.063995361 14:1.5223999 15:1.0599365 16:3.9699707 17:2.2720032 18:-0.41003418 19:4.9370117 20:2.6516991 21:0.36010742 22:9.3760071 23:6.3675003 24:1.7799072 25:47.121002 26:16.076 27:3.2200928 28:83.661987 29:7.4806995 30:5.3299561 31:91.779007 32:-14.356298 33:5.3299561 34:60.161301 35:-31.933605 36:1.6800537 37:3.4917984 38:-5.7898941 39:-0.5 40:-37.919296 41:7.8211975 42:-3.9899902 43:-65.83181 44:11.885399 45:-3.710083 46:-77.090988 47:-4.1464996 48:0.020019531 49:-81.314011 50:-24.652199 51:-0.4699707 52:-53.763 53:-29.470398 54:1.2700195 55:-25.444 56:-22.862007 57:2.7800293 58:-3.9079895 59:-9.9429932 60:2.5100098 61:-0.34500122 62:3.8209991 63:4.1899414 64:8.3009949 65:2.223999 66:0.30004883 67:11.01001 68:2.8800049 69:1.1699219 70:4.9679871 71:2.2200012 72:1.9300537 
0.8307633967868972 0.8310316224300829 1:0.61300659 2:0.9260025 3:0.090087891 4:0.54598999 5:-0.60299683 6:-0.39001465 7:2.8359985 8:1.371994 9:-0.42004395 10:0.22601318 11:1.2519989 12:-0.44995117 13:1.1489868 14:1.7710037 15:-0.95007324 16:0.16101074 17:1.7959976 18:-0.79992676 19:4.2739868 20:2.5790024 21:-0.77001953 22:8.1340027 23:3.9840012 24:-0.82995605 25:15.658997 26:7.772995 27:-0.090087891 28:64.740005 29:10.974106 30:2.6700439 31:81.544006 32:-2.4354019 33:7.9899902 34:73.237801 35:-25.090698 36:10.099976 37:25.649799 38:-21.768005 39:5.2800293 40:-10.819698 41:1.9759979 42:0.26000977 43:-37.200699 44:16.525002 45:-3.3900146 46:-64.021194 47:11.697006 48:-4.1300049 49:-75.123001 50:0.23799896 51:0.94995117 52:-72.651001 53:-20.638 54:0.58007813 55:-58.606018 56:-29.328003 57:2.6799316 58:-21.259979 59:-21.80899 60:4.1500244 61:-4.4570007 62:-10.215012 63:2.2900391 64:-2.3800049 65:-3.0469971 66:4.0499268 67:-1.3389893 68:-1.6309967 69:2.4200439 70:1.7939758 71:-0.27700806 72:2.4300537 
0.8307941002649958 0.830992073686575 1:-0.62399292 2:0.56799316 3:1.4300537 4:-1.3900146 5:0.21699524 6:2.7700195 7:4.6470032 8:0.71800232 9:5.4599609 10:5.1480103 11:5.0059967 12:4.0699463 13:22.233002 14:7.8680115 15:5.3601074 16:34.953003 17:11.641998 18:3.9799805 19:37.871979 20:10.078995 21:-1.9899902 22:45.52301 23:5.4519958 24:-0.15002441 25:37.506012 26:0.23100281 27:-2.8599854 28:34.563995 29:-5.8349915 30:1.5100098 31:22.832001 32:-4.3370056 33:0.13000488 34:19.190994 35:-1.4400024 36:1.4799805 37:29.312599 38:-4.8349915 39:0.059936523 40:18.535702 41:-6.9820099 42:-3.8599854 43:-2.6415977 44:-5.3880005 45:-2.1500244 46:-33.191002 47:-2.9259949 48:-2.4199219 49:-48.804703 50:8.322998 51:1.3900146 52:-51.261993 53:9.1309967 54:4.7199707 55:-45.671997 56:-1.2399902 57:4.5699463 58:-37.985001 59:-1.730011 60:4.6900635 61:-27.597015 62:-13.25 63:3.539917 64:-33.128998 65:-19.643997 66:2.2200928 67:-58.451996 68:-21.735992 69:6.7199707 70:-20.174011 71:-21.682007 72:4.9100342 
0.8306113566014397 0.8310437701788219 1:1.0930176 2:2.428009 3:1.4099121 4:2.1399841 5:4.6699982 6:1.1300049 7:3.1880188 8:3.5310059 9:-2.2399902 10:19.458984 11:11.530991 12:-2.0299072 13:38.001007 14:12.535004 15:-5.3100586 16:44.804016 17:21.509995 18:-8.2099609 19:50.17598 20:10.785004 21:-8.2600098 22:52.374008 23:2.7960052 24:-6.5 25:49.309998 26:-3.7620087 27:-0.89001465 28:55.949501 29:-9.9369965 30:1.4200439 31:46.592602 32:-8.3959961 33:-3.0600586 34:37.396038 35:-21.119995 36:-4.7800293 37:2.4772201 38:-11.364014 39:-0.049926758 40:-23.81706 41:8.9850006 42:1.6099854 43:-52.8269 44:21.394012 45:4.2199707 46:-68.727394 47:9.1029968 48:4.7800293 49:-68.075012 50:6.8159943 51:7.75 52:-62.695984 53:-10.214996 54:10.329956 55:-58.106018 56:-23.690002 57:9.3900146 58:-50.880981 59:-25.906006 60:6.3800049 61:-30.332001 62:-23.066986 63:5.3900146 64:-25.201019 65:-20.41301 66:5.9899902 67:-9.414978 68:-8.0599976 69:-0.52001953 70:6.8989868 71:3.1210022 72:1.5700684 
0.8308631961290485 0.8309920734946915 1:-2.3120117 2:2.1429901 3:1.0500488 4:-2.0780029 5:1.1040039 6:-0.16003418 7:9.9520264 8:1.397995 9:-1.75 10:0.98498535 11:9.3860016 12:-0.049926758 13:20.957001 14:16.782013 15:-0.98999023 16:57.845001 17:28.449997 18:-0.55004883 19:65.484009 20:23.580002 21:-11.079956 22:60.862991 23:9.7659912 24:-12.73999 25:46.169006 26:-3.6369934 27:-8.0700684 28:30.750992 29:-4.5059967 30:-5.2999268 31:19.823006 32:-10.655014 33:-8.0200195 34:1.0690002 35:-4.2630005 36:-6.3400879 37:-11.551003 38:-5.1599884 39:-2.9699707 40:-29.438004 41:3.9059906 42:0.13000488 43:-73.153 44:11.685013 45:10.109985 46:-80.397003 47:-5.9100037 48:13.76001 49:-62.638 50:-6.9219971 51:9.9899902 52:-32.928986 53:-13.201004 54:4.6400146 55:-14.537994 56:-11.718002 57:2.2099609 58:1.4619751 59:-6.7350006 60:1.5900879 61:-3.8629761 62:-2.5350037 63:0.65991211 64:2.9759827 65:1.2860107 66:1.6700439 67:0.95501709 68:2.3320007 69:2.4699707 70:0.41299438 71:3.0059967 72:4.3500977 
1 1 1:0 2:0 3:0 4:0 5:0 6:0 7:0 8:0 9:0 10:0 11:0 12:0 13:0 14:0 15:0 16:0 17:0 18:0 19:0 20:0 21:0 22:0 23:0 24:0 25:0 26:0 27:0 28:0 29:0 30:0 31:0 32:0 33:0 34:0 35:0 36:0 37:0 38:0 39:0 40:0 41:0 42:0 43:0 44:0 45:0 46:0 47:0 48:0 49:0 50:0 51:0 52:0 53:0 54:0 55:0 56:0 57:0 58:0 59:0 60:0 61:0 62:0 63:0 64:0 65:0 66:0 67:0 68:0 69:0 70:0 71:0 72:0 
0.8308141751895097 0.8309827702750453 1:0.30690002 2:1.2517986 3:0.55993652 4:0.23960114 5:0.92890167 6:-0.18994141 7:0.80149841 8:-1.3452015 9:0.67004395 10:2.3141022 11:3.6573009 12:-0.010009766 13:16.012501 14:10.6391 15:4.0100098 16:34.629898 17:14.250359 18:11.839966 19:54.414101 20:21.872341 21:19.280029 22:71.264603 23:17.2293 24:30.409912 25:68.570992 26:-6.8598995 27:29.5 28:34.973999 29:-25.981239 30:10.900024 31:-0.64299011 32:-5.4048629 33:-4.7299805 34:-31.911011 35:9.1926937 36:-16.02002 37:-76.87899 38:9.9712105 39:-29.670044 40:-91.871201 41:-26.55875 42:-43.339966 43:-69.623802 44:-35.49305 45:-37.799927 46:-38.368797 47:-25.840202 48:-22.600098 49:-0.51530457 50:-12.040596 51:-5.9399414 52:75.025505 53:28.562199 54:13.069946 55:134.6376 56:45.903511 57:57.369995 58:80.478996 59:-5.4107099 60:46.160034 61:18.855011 62:-10.1823 63:18.680054 64:-5.1880035 65:6.2511997 66:0.83996582 67:-14.397003 68:3.4561996 69:-5.8599854 70:-14.722992 71:1.9260006 72:-4.3000488 
0.8308652756388426 0.8302565785968161 1:1.0639954 2:1.9831009 3:-0.14001465 4:5.6960983 5:6.2471008 6:4.5400391 7:18.339905 8:16.467201 9:7.7099609 10:37.6647 11:30.874199 12:19.030029 13:57.8792 14:23.864319 15:28.23999 16:64.981895 17:6.1670313 18:23.530029 19:51.374107 20:-5.4236012 21:20.109985 22:27.003998 23:-11.57715 24:11.27002 25:4.5740051 26:-8.7238998 27:-2.9000244 28:-29.906006 29:3.470499 30:-15.189941 31:-60.941498 32:1.0115013 33:-23.290039 34:-77.310112 35:-12.171501 36:-29.890015 37:-67.968491 38:-29.782799 39:-29.780029 40:-36.943802 41:-43.163998 42:-17.339966 43:0.035400391 44:-19.480003 45:-6.3099976 46:32.431202 47:14.292 48:-3.6099854 49:67.550781 50:35.465797 51:13.590027 52:79.032219 53:33.883102 54:38.76001 55:58.461304 56:19.4762 57:38.399902 58:17.281998 59:-9.884201 60:17.280029 61:-0.0090026855 62:-1.1834984 63:3.2900391 64:-6.019989 65:2.2872009 66:-0.70996094 67:-2.7160034 68:4.7008991 69:0.52990723 70:-3.3440094 71:-6.0351009 72:2.0900879 
0.830817935519669 0.8309653317471948 1:-5.5 2:1.9243803 3:0 4:-22.164993 5:-0.71836996 6:-6.6101074 7:-44.572704 8:-7.8507662 9:-12.389893 10:-55.607048 11:-18.654154 12:-23.590088 13:-55.015053 14:-31.535301 15:-26.719971 16:-33.320599 17:-28.538502 18:-18.329956 19:-4.4449005 20:-15.779297 21:-4.1099854 22:12.985504 23:13.123802 24:-2.1199951 25:38.686195 26:30.923996 27:11.829956 28:57.4832 29:28.704601 30:21.869995 31:74.723404 32:23.320139 33:34.619995 34:66.206001 35:5.2985101 36:35.160034 37:49.263 38:-11.561069 39:27.939941 40:35.822998 41:-21.49448 42:16.440063 43:-16.653 44:9.6457005 45:-6.0400391 46:-76.628998 47:19.618441 48:-30.560059 49:-104.00551 50:-15.05074 51:-49.22998 52:-77.7407 53:-29.684002 54:-37.73999 55:-22.367901 56:-23.914898 57:-15.339966 58:21.193199 59:13.694199 60:3.5 61:59.508102 62:26.8771 63:27.77002 64:89.040802 65:17.71594 66:47.030029 67:86.702995 68:-4.4863405 69:46.159912 70:45.124008 71:-20.772701 72:25.72998 
0.8308631963216983 0.8307315839244798 1:-4.8290997 2:-1.1310997 3:-1.1199951 4:-0.49110031 5:-2.0871992 6:0.090087891 7:-1.5031013 8:-3.4983006 9:-1.4000244 10:0.40890121 11:-1.4130993 12:0.29003906 13:5.0902004 14:1.9313984 15:-0.63000488 16:10.5446 17:11.733911 18:4.1499023 19:13.89395 20:12.55505 21:7.7600098 22:19.342249 23:10.871941 24:11.570068 25:25.220602 26:11.8945 27:14.900024 28:28.756699 29:5.9678993 30:18.069946 31:31.306 32:0.71250153 33:18.900024 34:64.764 35:-5.2625008 36:37.319946 37:56.854996 38:-20.019741 39:26.960083 40:52.341995 41:-30.744961 42:17.98999 43:1.3860168 44:-18.6448 45:-3.4400635 46:-30.767014 47:15.628901 48:-16.47998 49:-70.50499 50:18.44356 51:-33.150024 52:-81.681602 53:1.3455596 54:-41.27002 55:-79.033699 56:-18.32962 57:-38.099976 58:-53.2537 59:-14.1019 60:-26.069946 61:-26.612797 62:-10.929401 63:-15.210083 64:-4.9490051 65:-8.0918999 66:-6.7099609 67:2.9788055 68:0.9559021 69:-3.0699463 70:5.979496 71:-0.53800201 72:-2.6400146 
0.8270205529124688 0.8266028569761641 1:0.064498901 2:-0.46520233 3:0.2800293 4:-0.0057983398 5:-0.1114006 6:0.56005859 7:-0.037200928 8:0.22370148 9:-0.22009277 10:0.84460068 11:-1.0199013 12:1.0500488 13:1.8256989 14:0.031101227 15:1.9599609 16:2.3728981 17:0.93519974 18:2.0100098 19:12.946301 20:8.8853989 21:6.4400635 22:35.742241 23:21.591101 24:17.299927 25:61.951859 26:24.170219 27:32.540039 28:82.202499 29:9.9334106 30:42.810059 31:74.391006 32:-29.030329 33:29.429932 34:50.781006 35:-33.3302 36:16.390015 37:12.390991 38:-15.8466 39:4.6600342 40:-12.248993 41:7.2249985 42:-1.8800049 43:-43.026001 44:27.009899 45:-8.25 46:-65.979004 47:22.879601 48:-18.910034 49:-79.321205 50:5.105401 51:-33.27002 52:-74.836861 53:-19.8452 54:-34.189941 55:-43.103943 56:-10.877098 57:-20.530029 58:-17.3372 59:-11.052303 60:-7.1099854 61:2.7476997 62:-1.4279976 63:2.7199707 64:5.1076012 65:1.4814987 66:2.7600098 67:5.9491005 68:6.1651001 69:3.6999512 70:7.3635998 71:3.0555 72:4.0100098 
0.8270257646327399 0.8266133095438603 1:-0.11410141 2:2.7701988 3:-1.5200195 4:-1.6713982 5:-1.3141975 6:0.11010742 7:0.48500061 8:-2.6682014 9:-0.020019531 10:-1.4717026 11:0.74970245 12:-1.4100342 13:-0.10609818 14:-0.61460114 15:-0.33996582 16:1.4857979 17:1.0709991 18:0.27001953 19:13.3493 20:8.9826012 21:7.0098877 22:37.261711 23:22.454599 24:21.830078 25:62.875793 26:23.106756 27:36.5 28:75.964294 29:6.283493 30:39.97998 31:65.824997 32:-20.44685 33:28.640015 34:37.92601 35:-31.261898 36:11.219971 37:10.908981 38:-11.450302 39:1.8599854 40:-17.027985 41:5.7673988 42:-9.7700195 43:-41.240997 44:24.097301 45:-16.189941 46:-72.143005 47:19.98805 48:-34.219971 49:-86.504799 50:-5.0812502 51:-48.080078 52:-68.755402 53:-23.946198 54:-40.76001 55:-34.675499 56:-15.888702 57:-20.849976 58:-7.0972977 59:-1.8642998 60:-6.9000244 61:4.2213974 62:1.607502 63:-1.8599854 64:9.0349998 65:-1.1249008 66:0.45007324 67:7.4723015 68:-2.8955994 69:-0.16003418 70:0.09469986 71:0.54470062 72:-1.5200195 
0.8308179172350526 0.8310471391826753 1:0.41799927 2:2.8797989 3:0.79992676 4:0.2480011 5:0.55290222 6:0.26000977 7:0.78199768 8:1.2705002 9:1.7099609 10:-0.2539978 11:-2.9861984 12:0.93005371 13:-3.5540009 14:-1.8136978 15:0.7199707 16:-19.310989 17:5.5144958 18:8.1099854 19:-57.587006 20:38.659801 21:14.600098 22:-142.32501 23:35.492897 24:49.189941 25:-113.24698 26:-14.0366 27:25.430054 28:-46.485992 29:-39.726902 30:6.0299072 31:-16.463989 32:-27.854698 33:-3.2099609 34:31.041962 35:36.434303 36:-28.179932 37:61.675018 38:85.264496 39:-21.920044 40:102.215 41:82.059204 42:-12.719971 43:121.562 44:43.025002 45:-5.6400146 46:93.611 47:-3.4940033 48:-2.0900879 49:62.066601 50:-27.312004 51:-1.1298828 52:28.438999 53:-20.741394 54:-2.8400879 55:-7.1926003 56:-0.86170197 57:-1.75 58:-35.141003 59:5.8834 60:0.46008301 61:-61.006996 62:18.8367 63:12.849976 64:-83.468994 65:14.599998 66:18.030029 67:-89.168015 68:-18.450996 69:17.389893 70:-75.570007 71:-35.123505 72:14.970093 
0.8308179172350412 0.8303584719507773 1:1.1660156 2:0.68450165 3:-0.46008301 4:-0.35501099 5:-0.1180954 6:-0.58996582 7:5.2359924 8:-1.4054031 9:-4.8399658 10:18.072021 11:14.215797 12:-4.9699707 13:72.483978 14:23.9123 15:-6.7700195 16:53.003021 17:13.477005 18:1.1300049 19:33.507996 20:15.532997 21:5.1999512 22:56.416992 23:-2.1259918 24:-6.3099365 25:79.6465 26:-33.522011 27:-4.1700439 28:25.780302 29:-33.565697 30:-15.030029 31:-7.9323025 32:3.0082016 33:-2.8499756 34:-44.695301 35:13.497597 36:-4.5100098 37:-53.873192 38:16.915901 39:5.1099854 40:-62.381012 41:11.403999 42:7.0500488 43:-72.693008 44:-9.5149994 45:2.0899658 46:-51.905975 47:-23.2286 48:2.7099609 49:-24.984009 50:-20.236801 51:0.040039063 52:4.5809937 53:3.9496994 54:-1.7199707 55:27.583008 56:22.542999 57:-1.4300537 58:58.656982 59:23.785706 60:-4.6899414 61:69.974014 62:11.506996 63:-2.8100586 64:67.212997 65:-4.1849976 66:2.4100342 67:45.904007 68:-16.359001 69:1.9599609 70:22.638695 71:-12.139999 72:-1.6599121 
0.8309997058893486 0.8309827625483149 1:-1.7290039 2:1.2610016 3:0.33007813 4:-5.9420013 5:1.8449936 6:0.30993652 7:-1.1320038 8:-2.1689987 9:-0.45996094 10:-16.761002 11:1.5690002 12:-2.2399902 13:29.233002 14:5.5480042 15:-9.4500732 16:83.888 17:-10.912003 18:-16.879883 19:82.119301 20:-34.193802 21:-11.870117 22:43.938442 23:-46.954498 24:-16.879883 25:-3.938499 26:-1.8873997 27:-6.0800781 28:-21.65144 29:22.934 30:0.18005371 31:-47.008705 32:27.343597 33:3.2399902 34:-66.362099 35:11.710007 36:6.5499268 37:-72.860001 38:-7.4232025 39:9.7200928 40:-66.378983 41:-28.493401 42:7.0599365 43:-24.240021 44:-23.099501 45:-3.6899414 46:7.9609985 47:13.170301 48:6.289917 49:31.175995 50:20.764397 51:-0.90991211 52:47.622009 53:19.253601 54:-6.2301025 55:55.822998 56:7.8794022 57:-7.6899414 58:65.031403 59:-3.7070999 60:-7.9100342 61:56.680904 62:-8.2649994 63:-3.6500244 64:31.516689 65:-21.733601 66:-7.7999268 67:4.33325 68:-10.951 69:-3.8900146 70:-14.95634 71:2.3686981 72:0.48999023 
0.8307906569241184 0.8310465586538259 1:-1.0490112 2:-1.1620026 3:-1.6500244 4:-1.2779999 5:-2.1849976 6:-1.4299316 7:1.3899994 8:5.9090042 9:0.28991699 10:-0.79699707 11:4.4379959 12:-1.25 13:-0.50299072 14:-3.2419968 15:-1.7600098 16:-2.3240051 17:-2.7220001 18:-2.1799316 19:0.95399475 20:-4.7000046 21:-1.7099609 22:9.4060059 23:21.233009 24:-0.31005859 25:30.25 26:68.960999 27:18.579956 28:70.5186 29:87.012985 30:54.150024 31:74.420303 32:58.725006 33:82.430054 34:62.138103 35:-0.9289856 36:81.709961 37:60.256996 38:-43.865997 39:62.079956 40:36.755997 41:-54.943008 42:15.040039 43:8.276001 44:-3.82901 45:-23.390015 46:-34.065994 47:36.698013 48:-48.809937 49:-52.679001 50:53.320984 51:-49.540039 52:-88.560898 53:26.666016 54:-55.449951 55:-85.651199 56:-27.075012 57:-53.670044 58:-79.009903 59:-65.807007 60:-49.599976 61:-44.768997 62:-105.56699 63:-19.080078 64:-17.939011 65:-40.040001 66:-2.2099609 67:64.067001 68:77.038002 69:11.209961 70:114.01521 71:101.21098 72:63.230103 
0.8308665577568011 0.8310550107468137 1:0.71099854 2:0.27198792 3:-0.5300293 4:2.6080017 5:-1.2519989 6:-0.9699707 7:1.9600067 8:2.9550018 9:0.36999512 10:2.1060028 11:1.0559998 12:-0.47998047 13:0.20098877 14:6.4850006 15:-5.8500977 16:-21.283997 17:42.030014 18:-15.079956 19:-63.855797 20:50.285004 21:-24.790039 22:-81.127197 23:7.5389709 24:-30.199951 25:-84.431 26:-44.061981 27:-39.339966 28:-51.084 29:-107.373 30:-17.820068 31:5.9219971 32:-11.143997 33:1.7000732 34:24.936005 35:35.493988 36:2.8399658 37:69.624298 38:55.21701 39:30.400024 40:83.845901 41:63.106995 42:58.279907 43:76.218498 44:6.0870056 45:58.080078 46:44.757301 47:-24.089996 48:31.949951 49:45.214005 50:-77.19101 51:15.430054 52:-7.4080048 53:-27.584991 54:-15.080078 55:-27.612991 56:58.992996 57:-30.669922 58:-84.486107 59:54.054001 60:-69.640015 61:-103.4586 62:-19.524017 63:-46.920044 64:-75.600296 65:-70.834991 66:-35.799927 67:-26.144005 68:-68.843994 69:-0.88000488 70:30.460007 71:40.244003 72:9.5899658 
0.8307868169127569 0.8309651252331528 1:-1.7690125 2:4.8834991 3:0.9699707 4:-1.9449921 5:2.6739998 6:0.42004395 7:-1.2409973 8:-0.65329933 9:-0.61999512 10:-0.75500488 11:0.28980064 12:-0.30004883 13:-0.54200745 14:1.280899 15:-0.11999512 16:-0.32798767 17:-0.6303997 18:0.40002441 19:-1.1870117 20:0.22319984 21:-0.090087891 22:-2.0269928 23:2.1103001 24:-0.57995605 25:-1.522995 26:-1.4237003 27:-0.89001465 28:-0.67500305 29:7.2509403 30:-3.8900146 31:11.371002 32:9.5878849 33:-7.6699219 34:36.11499 35:11.048075 36:-7.3300781 37:50.331108 38:1.165 39:-9.5100098 40:60.324898 41:-8.3508091 42:-6.0499268 43:43.21357 44:-14.70619 45:-4.3400879 46:22.932732 47:-14.9302 48:0.010009766 49:-9.4919014 50:-0.0076999664 51:1.6600342 52:-36.305901 53:13.524699 54:-1.3099365 55:-62.631397 56:7.55093 57:-1.3601074 58:-73.765106 59:8.7526503 60:7.2200928 61:-74.651001 62:-9.7214699 63:10.179932 64:-43.257004 65:-36.53751 66:6.7700195 67:-20.171997 68:-9.4247017 69:10.109985 70:-3.4309998 71:-7.6334991 72:5.5 
0.8307905786641018 0.8310548285454403 1:2.2430115 2:-1.454998 3:-0.56994629 4:0.25799561 5:2.146801 6:-0.57006836 7:0.07699585 8:-0.46100235 9:-0.069946289 10:1.053009 11:0.0027008057 12:-1.0200195 13:-1.4020081 14:6.0503998 15:0.25 16:10.312988 17:0.91300201 18:-2.4000244 19:35.448013 20:13.799698 21:-3.0300293 22:64.744003 23:14.3794 24:0.010009766 25:70.087692 26:-0.091799736 27:1.0300293 28:61.672001 29:-18.255001 30:1.6099854 31:38.122341 32:-21.839001 33:-3.7199707 34:5.7960596 35:-11.1124 36:-8.4499512 37:-27.4482 38:19.080101 39:-8.0500488 40:-55.3908 41:19.393 42:-4.9799805 43:-69.476105 44:8.1868992 45:-0.9699707 46:-73.75 47:-8.6845989 48:3.5799561 49:-76.167007 50:-23.132399 51:6.0600586 52:-44.447998 53:-21.848305 54:8.1799316 55:-11.367004 56:-18.444099 57:6.0600586 58:3.0810242 59:-0.63779449 60:5.0299072 61:7.1609802 62:2.7205963 63:1.5300293 64:7.2490234 65:0.57749939 66:-0.44995117 67:1.6879883 68:5.0034027 69:0.40002441 70:2.0969849 71:0.43260193 72:-1.210083 
0.8307940991864707 0.8309827691960647 1:-0.45401001 2:1.4776001 3:0.11999512 4:2.7400208 5:1.5074997 6:-1.1899414 7:7.5829773 8:7.8980026 9:-1.6500244 10:20.442993 11:11.548298 12:-3.4599609 13:42.797012 14:16.887302 15:-4.8300781 16:52.475998 17:7.5292988 18:-10.029907 19:61.315002 20:-1.0591984 21:-11.97998 22:54.890205 23:-16.178402 24:-6.25 25:33.601097 26:-7.9650993 27:0.80993652 28:6.8880997 29:-10.253502 30:-0.30004883 31:-20.980301 32:6.755703 33:-4.539917 34:-41.559799 35:5.303299 36:-7.5700684 37:-57.483299 38:6.4276009 39:-3.3900146 40:-65.119995 41:1.5117989 42:3.0800781 43:-66.581009 44:-9.8880005 45:9.8399658 46:-46.329987 47:-11.596096 48:14.119995 49:-29.016998 50:-11.669106 51:13.140015 52:-4.9200134 53:-4.7140961 54:10.300049 55:7.6100159 56:-1.2985992 57:4.2799072 58:7.3269958 59:1.0780945 60:2.4700928 61:3.1999817 62:1.6884003 63:3.1300049 64:0.38299561 65:3.0001068 66:2.0100098 67:2.1430054 68:-0.39500427 69:1.1999512 70:1.9470215 71:-1.5662994 72:1.2399902 
0.8307432844267957 0.8310112440137308 1:0.51199341 2:0.51359558 3:-0.2199707 4:-1.2940063 5:1.8502045 6:0.72998047 7:-0.54498291 8:2.933197 9:1.2099609 10:1.5499878 11:1.7074966 12:0.76000977 13:3.928009 14:0.41650391 15:0.010009766 16:6.7799988 17:4.1802979 18:0.18005371 19:16.174011 20:11.219299 21:-0.11999512 22:44.768982 23:14.223801 24:-3.8800049 25:63.563004 26:11.422901 27:-8.2099609 28:69.522003 29:5.8945999 30:-7.9000244 31:61.242599 32:-13.0158 33:-2.4699707 34:23.494499 35:-2.5396004 36:4.9099121 37:-15.337399 38:3.6294022 39:-1.9000244 40:-35.157001 41:11.552198 42:-4.5499268 43:-54.425697 44:3.4862003 45:-2.4899902 46:-66.488007 47:-2.6732998 48:1.2600098 49:-78.575989 50:-8.711401 51:6.4799805 52:-67.908997 53:-16.884201 54:7.6600342 55:-33.576019 56:-31.349598 57:2.9499512 58:-13.138 59:-8.5048981 60:4.2299805 61:5.684021 62:-2.7480011 63:0.16003418 64:2.9599915 65:1.9122009 66:0.65002441 67:5.1180115 68:1.6368942 69:0.069946289 70:2.6359863 71:1.483902 72:-0.52001953 
0.8306067753163389 0.8310526715191908 1:-0.26000977 2:0.67489624 3:0.030029297 4:0.47601318 5:0.9552002 6:0.25 7:0.058990479 8:3.7547989 9:0.5300293 10:-0.73999023 11:2.6288986 12:-0.090087891 13:1.7929993 14:4.3635025 15:0.46008301 16:12.136993 17:16.063599 18:-0.83007813 19:30.286011 20:25.532001 21:-1.1400146 22:48.622986 23:21.7358 24:-5.9099121 25:76.807999 26:21.33366 27:-8.460083 28:80.665009 29:1.3461399 30:-12.279907 31:71.029793 32:-14.079479 33:-10.320068 34:35.564899 35:-14.70582 36:-3.8199463 37:-6.7087002 38:6.3132992 39:-4.5500488 40:-43.061798 41:20.714621 42:-9.9299316 43:-85.781197 44:-0.71557999 45:-10.700073 46:-72.762009 47:9.0805607 48:1.7199707 49:-71.531006 50:-6.0971003 51:6.7301025 52:-42.462006 53:-15.36459 54:7.6799316 55:-21.010986 56:-12.56671 57:6.7600098 58:-8.427002 59:-9.4934006 60:3.8699951 61:-2.446991 62:-4.7428017 63:1.5400391 64:0.43499756 65:-2.0834999 66:1.9599609 67:-0.69400024 68:-1.1657982 69:1.5899658 70:0.43099976 71:0.21379852 72:1.2401123 
0.8299353481076239 0.8302172855711072 1:-0.25500488 2:0.22329712 3:-1.8000488 4:-0.04598999 5:0.57320023 6:-1.3900146 7:2.6569824 8:2.4946022 9:-0.94995117 10:7.9810181 11:0.68959808 12:-2.3599854 13:10.092987 14:6.6906013 15:-2.4400635 16:17.593994 17:11.8943 18:-2.3199463 19:43.386017 20:12.17544 21:-2.8200684 22:77.371994 23:13.38249 24:-8.5899658 25:79.834 26:3.6370797 27:-8.9300537 28:76.8255 29:-17.88801 30:-6.2598877 31:52.224796 32:-20.4195 33:-2.1500244 34:23.39617 35:-17.752998 36:-4.710022 37:-11.85511 38:8.9048004 39:-7.0800171 40:-43.499161 41:24.8573 42:-7.7600098 43:-65.494202 44:17.922359 45:-3.5199585 46:-72.43 47:6.64744 48:2.8799438 49:-82.162994 50:-12.904278 51:7.8000488 52:-69.653015 53:-20.776823 54:8.9199219 55:-41.098999 56:-32.5653 57:9.6101074 58:-27.014008 59:-19.9459 60:8.0799561 61:-7.1029968 62:-7.5056992 63:7.3099365 64:0.30999756 65:-1.245903 66:2.5700684 67:1.3430176 68:7.5419006 69:2.8800049 70:2.3209839 71:1.3862 72:1.4499512 
