svm_type one_class
kernel_type rbf
gamma 1.90735e-006
nr_class 2
total_sv 301
rho 182.185
SV
1 1:183.17682 2:58.380951 3:29.290039 4:407.5881 5:288.13202 6:87.939941 7:461.23706 8:177.66902 9:113.5199 10:670.66388 11:297.44269 12:145.32996 
1 1:512.40796 2:194.70969 3:89.530273 4:516.06494 5:219.166 6:110.62988 7:255.07809 8:203.29233 9:65.089966 10:529.97888 11:202.22403 12:80.659912 
1 1:466.15396 2:188.601 3:79.929688 4:155.2 5:177.5285 6:72.689575 7:339.84238 8:207.27971 9:69.229492 10:292.98361 11:72.200043 12:90.559937 
1 1:259.34604 2:108.17204 3:84.750244 4:211.87897 5:90.265892 6:123.31995 7:512.76007 8:110.22412 9:94.059692 10:278.52805 11:67.408005 12:92.479858 
1 1:472.59973 2:60.98201 3:50.610107 4:407.56573 5:25.830002 6:55.060181 7:362.45093 8:53.939598 9:61.240112 10:362.34216 11:39.75502 12:64.8302 
1 1:359.12439 2:41.348999 3:61.190063 4:331.81213 5:61.784058 6:61.290039 7:213.67473 8:47.794968 9:30.700195 10:287.29202 11:39.224991 12:39.47998 
1 1:127.24501 2:27.222015 3:22.07019 4:234.65408 5:33.432976 6:31.610107 7:114.89021 8:34.577972 9:22.820313 10:252.82791 11:41.692986 12:29.369873 
1 1:220.912 2:57.038986 3:43.709961 4:199.403 5:47.872986 6:27.139893 7:184.896 8:89.562012 9:17.680054 10:285.19 11:72.164017 12:30.309814 
1 1:424.259 2:92.878006 3:32.599731 4:454.63699 5:70.438995 6:37.120117 7:392.19 8:99.117004 9:37.099976 10:542.23901 11:133.16502 12:53.129883 
1 1:319.24652 2:76.302002 3:35.640015 4:215.207 5:99.866409 6:26.289795 7:250.31282 8:53.750015 9:16.700195 10:351.56699 11:78.08297 12:30.590088 
1 1:84.443024 2:54.703995 3:17.34021 4:361.49042 5:211.64 6:43.469971 7:456.15399 8:90.297989 9:163.31006 10:570.92444 11:265.97601 12:109.48022 
1 1:375.0452 2:113.89601 3:68.630127 4:244.73798 5:69.318008 6:85.249878 7:216.4324 8:79.957001 9:34.170166 10:394.785 11:127.923 12:61.740112 
1 1:40.882904 2:35.462158 3:19.960327 4:102.75702 5:48.957001 6:31.750366 7:588.677 8:137.125 9:85.650024 10:582.84106 11:174.38098 12:102.58997 
0.9871771791881371 1:210.91595 2:108.27701 3:49.82019 4:260.495 5:60.774017 6:35.869995 7:180.66998 8:93.699951 9:24.890137 10:276.86298 11:97.09201 12:80.379883 
1 1:52.591396 2:67.386215 3:38.480103 4:575.76477 5:186.8804 6:165.78992 7:607.73389 8:244.63487 9:196.15991 10:439.01385 11:182.93451 12:171.48999 
1 1:267.36749 2:77.936089 3:71.600098 4:492.8035 5:212.60231 6:139.41003 7:454.32352 8:234.52112 9:176.05994 10:345.57037 11:126.29374 12:115.66968 
1 1:49.418091 2:65.128098 3:33.679688 4:747.52509 5:189.65396 6:296.21008 7:1386.9181 8:718.10413 9:507.34009 10:709.36993 11:318.26996 12:295.76001 
1 1:329.00497 2:272.64618 3:131.41003 4:1396.6069 5:718.09509 6:425.46008 7:1059.963 8:543.435 9:306.19019 10:805.22302 11:328.03397 12:197.10986 
1 1:0 2:0 3:0 4:0 5:0 6:0 7:0 8:0 9:0 10:71.253899 11:62.76001 12:131.18005 
1 1:25.252991 2:20.538055 3:14.919922 4:324.57205 5:218.34302 6:182.53003 7:413.78143 8:133.11 9:180.85999 10:348.31522 11:177.94102 12:157.76013 
1 1:116.51003 2:100.12 3:66.369751 4:428.97839 5:120.655 6:213.80994 7:283.45401 8:77.088974 9:179.60999 10:272.29761 11:80.10498 12:114.67004 
1 1:46.331108 2:40.652023 3:39.759888 4:398.76501 5:220.61697 6:292.30005 7:231.90294 8:57.701035 9:216.53992 10:159.71445 11:54.955994 12:127.14001 
1 1:15.908005 2:20.918388 3:15.429932 4:370.94321 5:150.25909 6:139.02991 7:553.50146 8:308.9584 9:112.55005 10:321.41669 11:179.30139 12:93.150146 
1 1:11.839283 2:12.516312 3:6.2103271 4:437.11743 5:201.02139 6:140.25989 7:618.20447 8:331.71649 9:141.71997 10:382.68713 11:220.89522 12:101.85999 
1 1:18.534012 2:31.891968 3:14.760132 4:192.68002 5:91.102036 6:144.54993 7:436.38 8:145.267 9:277.51001 10:391.96399 11:147.43202 12:192.88989 
1 1:34.095093 2:46.523987 3:44.480103 4:395.24597 5:158.6041 6:202.44983 7:400.42294 8:140.48395 9:134.20996 10:157.59799 11:58.944 12:57.529785 
1 1:14.987976 2:16.957092 3:13.010132 4:349.56799 5:106.86341 6:87.899902 7:490.827 8:68.144989 9:199.58997 10:542.91602 11:82.848709 12:255.83997 
1 1:56.954987 2:10.491898 3:13.450317 4:368.05405 5:84.899994 6:84.200073 7:431.40997 8:89.571594 9:120.32996 10:368.05606 11:71.404495 12:127.82996 
1 1:20.601013 2:13.592987 3:6.9598389 4:382.12802 5:79.62001 6:117.79993 7:352.75201 8:88.643982 9:111.7998 10:519.953 11:109.02199 12:132.54993 
1 1:207.46651 2:94.763458 3:64.098022 4:220.43329 5:66.81881 6:62.763 7:183.70001 8:35.554508 9:81.996033 10:364.3476 11:53.278141 12:81.242981 
1 1:338.62302 2:75.2071 3:90.049011 4:317.55203 5:99.467697 6:112.78693 7:386.91098 8:107.64351 9:103.61102 10:427.125 11:68.695183 12:75.49408 
1 1:216.62289 2:30.690458 3:15.452942 4:205.20198 5:41.2495 6:58.632019 7:278.26328 8:37.746296 9:31.844971 10:409.96631 11:59.875401 12:72.413025 
1 1:200.31169 2:22.496401 3:20.64093 4:312.72784 5:114.8566 6:115.15302 7:375.68399 8:69.999008 9:246.17004 10:324.25198 11:108.80002 12:234.27393 
1 1:16.728401 2:3.6963005 3:16.344971 4:259.12598 5:37.24234 6:47.31604 7:270.76599 8:45.838837 9:88.20105 10:395.40659 11:91.658707 12:54.22406 
1 1:219.63197 2:40.5009 3:52.367981 4:312.00482 5:105.09229 6:57.125916 7:318.63098 8:65.982597 9:50.859985 10:244.98 11:79.956108 12:36.245972 
1 1:335.785 2:235.65959 3:80.922913 4:327.0748 5:262.49313 6:83.718994 7:270.05823 8:40.67408 9:97.770081 10:85.123993 11:17.27515 12:10.109985 
1 1:305.14001 2:76.730698 3:36.177002 4:298.629 5:87.034393 6:61.647949 7:220.1572 8:53.567696 9:47.823975 10:141.34599 11:49.5424 12:32.03595 
1 1:248.94701 2:36.071098 3:30.778992 4:332.02911 5:51.533401 6:50.732971 7:242.03888 8:134.6982 9:48.406921 10:344.26904 11:115.87718 12:89.891052 
1 1:261.6767 2:65.613998 3:71.580078 4:159.92403 5:126.04401 6:42.17981 7:315.18826 8:128.54599 9:146.38 10:13.364939 11:14.998016 12:11.430054 
1 1:83.464905 2:38.0914 3:62.963989 4:203.93208 5:57.656197 6:80.959961 7:170.7498 8:26.814791 9:70.619995 10:319.32339 11:322.66095 12:132.05603 
1 1:72.689499 2:30.894989 3:23.740112 4:68.169289 5:31.638 6:13.790039 7:109.9942 8:42.30098 9:15.660156 10:20.220699 11:20.835007 12:23.009888 
1 1:492.01541 2:260.78601 3:205.15002 4:105.133 5:117.3485 6:71.160034 7:273.28082 8:53.867001 9:122.18994 10:127.7173 11:109.59711 12:37.830078 
1 1:59.652702 2:15.643005 3:18.51001 4:359.17523 5:180.80598 6:37.75 7:106.21295 8:187.97202 9:38.22998 10:303.96832 11:98.52301 12:40.73999 
1 1:293.06598 2:70.815109 3:114.87 4:155.18701 5:93.536583 6:67.559937 7:299.13541 8:72.208168 9:95.380005 10:42.126495 11:49.516548 12:21.659912 
1 1:347.80545 2:108.4017 3:85.549927 4:378.99341 5:135.67401 6:94.930298 7:373.21075 8:143.5354 9:75.150024 10:348.035 11:94.877007 12:90.099854 
1 1:197.13501 2:37.88586 3:15.260132 4:212.26952 5:127.3828 6:17.429932 7:359.13605 8:95.172203 9:21.450073 10:61.882019 11:53.264214 12:6.3999023 
1 1:120.315 2:81.491394 3:9.8599854 4:235.02917 5:61.177402 6:20.829956 7:284.5708 8:60.649059 9:9.2998047 10:26.785004 11:15.588799 12:6.2296143 
1 1:22.416962 2:4.4634709 3:8.6901855 4:160.49298 5:22.494043 6:14.869873 7:266.88901 8:54.689899 9:11.900024 10:20.39801 11:16.523407 12:7.1401367 
1 1:23.393036 2:10.108704 3:5.9598389 4:265.582 5:59.067902 6:14.059814 7:306.5864 8:50.801895 9:17.039917 10:113.67401 11:45.114292 12:31.26001 
1 1:70.182007 2:36.8964 3:8.840332 4:284.65277 5:70.580696 6:17.789917 7:303.44382 8:99.159103 9:12.150269 10:30.073975 11:21.087997 12:11.279907 
1 1:162.22308 2:85.083023 3:18.990112 4:199.66399 5:43.552948 6:45.409912 7:260.57703 8:44.503021 9:40.400024 10:16.596954 11:26.767014 12:14.189941 
1 1:225.40271 2:106.29549 3:92.129883 4:332.73932 5:129.7912 6:148.37988 7:291.54449 8:100.10937 9:132.55017 10:309.85168 11:101.75425 12:161.06982 
1 1:45.752945 2:33.544395 3:22.4198 4:408.77695 5:217.8631 6:135.22998 7:457.58679 8:245.90967 9:42.339844 10:350.96143 11:100.8194 12:68.3302 
1 1:14.555023 2:20.288002 3:9.079834 4:247.79701 5:262.21698 6:240.1698 7:280.59488 8:231.63303 9:258.56995 10:405.45132 11:420.24399 12:199.10022 
1 1:73.90979 2:95.02803 3:41.90979 4:375.55551 5:307.72891 6:151.37 7:255.54169 8:246.82402 9:190.32007 10:320.14905 11:253.50101 12:171.95007 
1 1:11.317001 2:14.169098 3:4.3901367 4:129.20599 5:31.315403 6:31.869995 7:141.59309 8:55.152504 9:11.199829 10:277.90753 11:79.620758 12:41.140137 
1 1:31.307022 2:15.647903 3:8.3897705 4:275.87546 5:86.944107 6:19.589966 7:346.31772 8:102.60461 9:31.5 10:23.422028 11:22.641487 12:12.610107 
1 1:157.17601 2:46.880699 3:27.689941 4:216.53979 5:52.031204 6:27.299805 7:248.28299 8:42.521305 9:54.450195 10:20.509003 11:11.193779 12:11.72998 
1 1:45.981018 2:38.614998 3:4.0899658 4:349.04541 5:176.01291 6:24.380005 7:457.70978 8:141.48651 9:86.300049 10:28.912018 11:7.2120056 12:32.309937 
1 1:79.288025 2:57.457611 3:13.73999 4:367.83682 5:77.875694 6:49.690063 7:337.20084 8:49.615501 9:31.440002 10:89.982971 11:54.686798 12:26.299988 
1 1:245.29901 2:63.025703 3:33.319946 4:179.56876 5:128.7897 6:26.750061 7:348.66208 8:69.189491 9:48.503052 10:76.006012 11:72.952095 12:21.19104 
1 1:63.181 2:35.554001 3:7.9499512 4:246.0441 5:55.158604 6:5.7800293 7:131.49098 8:145.3846 9:24.460022 10:388.9668 11:90.4702 12:52.67804 
1 1:216.00699 2:108.62202 3:8.8498535 4:284.72632 5:199.73778 6:119.12616 7:547.84851 8:440.82407 9:102.72302 10:35.569 11:49.87809 12:26.731995 
1 1:242.24742 2:65.042603 3:33.270142 4:302.13452 5:94.084991 6:65.160034 7:368.1261 8:88.944099 9:56.73999 10:42.128021 11:43.614395 12:20.98999 
1 1:249.16501 2:71.373993 3:49.040039 4:194.35654 5:67.161987 6:43.02002 7:312.60483 8:82.727997 9:60.567993 10:54.773987 11:58.771988 12:21.259888 
1 1:70.613007 2:38.949303 3:15.429932 4:392.32599 5:98.871094 6:49.76001 7:356.39661 8:83.599098 9:50.319946 10:53.737 11:40.809704 12:17.780029 
1 1:141.34898 2:32.2598 3:14.260254 4:407.81085 5:142.48221 6:89.959961 7:283.71289 8:122.82349 9:23.02002 10:332.73499 11:148.4371 12:67.599976 
1 1:180.461 2:101.9824 3:15.989868 4:450.43198 5:108.4241 6:42.849976 7:337.49597 8:118.6044 9:54.470032 10:281.63 11:120.4671 12:48.771973 
1 1:119.31396 2:36.618401 3:47.55896 4:495.22302 5:180.96178 6:55.585022 7:437.896 8:132.66029 9:94.447998 10:83.414993 11:36.798409 12:61.675964 
1 1:100.64102 2:54.861294 3:7.9069214 4:434.84802 5:132.97519 6:27.760071 7:461.64502 8:151.05362 9:89.585999 10:76.513 11:48.209507 12:27.133972 
1 1:40.536011 2:22.584595 3:6.881958 4:433.71298 5:192.97121 6:26.843994 7:430.77798 8:125.48759 9:78.532959 10:189.20404 11:150.65201 12:57.97699 
1 1:64.050995 2:46.167999 3:6.4000244 4:382.54578 5:80.882401 6:8.3380127 7:229.7482 8:76.242096 9:53.024048 10:226.67099 11:105.2151 12:40.607971 
1 1:100.15701 2:46.092323 3:8.1679077 4:379.31201 5:122.0985 6:72.231995 7:331.01602 8:115.15251 9:54.560913 10:45.695984 11:27.920898 12:26.825073 
1 1:59.499985 2:26.390015 3:27.160034 4:508.93298 5:160.43799 6:111.63013 7:546.84698 8:140.56799 9:46.899902 10:439.99408 11:170.96503 12:66.589844 
1 1:43.804001 2:20.652039 3:22.299805 4:511.71304 5:237.5 6:125.89001 7:591.31921 8:124.77701 9:58.100098 10:465.71173 11:209.40103 12:65.5 
1 1:218.76501 2:23.93103 3:14.002991 4:244.98289 5:51.943989 6:13.372131 7:230.35153 8:33.810921 9:27.522034 10:218.25708 11:22.64188 12:36.493042 
1 1:208.62219 2:24.690321 3:25.05304 4:304.49292 5:76.7183 6:43.796021 7:323.1008 8:44.287571 9:37.928894 10:178.95888 11:24.7873 12:19.612061 
1 1:209.38268 2:25.311567 3:14.621948 4:270.12589 5:38.53133 6:37.734985 7:262.68491 8:46.46463 9:45.429077 10:253.81616 11:38.397209 12:35.252991 
1 1:246.63841 2:45.511948 3:25.768005 4:285.69217 5:70.670441 6:25.921021 7:234.58099 8:42.560017 9:24.82196 10:203.88037 11:30.059198 12:29.060974 
1 1:210.51511 2:30.363932 3:8.117981 4:287.85309 5:47.482849 6:23.20697 7:250.48651 8:46.852776 9:31.920044 10:188.87244 11:41.170425 12:42.025024 
1 1:36.527893 2:31.380035 3:30.280029 4:446.9838 5:93.015015 6:147.98999 7:634.36426 8:168.06799 9:157.46008 10:259.11404 11:53.815002 12:147.01001 
1 1:592.88702 2:124.12302 3:152.11975 4:843.78308 5:260.25403 6:248.92004 7:759.02087 8:194.37097 9:246.36011 10:765.89587 11:260.40799 12:201.08008 
1 1:47.297943 2:32.319023 3:149.71008 4:48.590004 5:60.237961 6:342.16003 7:64.850945 8:77.584 9:377.84985 10:67.123047 11:46.880981 12:204.44995 
1 1:17.477997 2:25.133011 3:10.229614 4:30.335999 5:55.19101 6:306.63 7:40.17804 8:27.963005 9:295.42004 10:56.490997 11:28.945007 12:302.02991 
1 1:76.200958 2:65.18399 3:365.33997 4:71.244019 5:97.12278 6:319.55994 7:53.764114 8:112.30011 9:405.27002 10:70.398972 11:78.497093 12:459.80994 
1 1:16.153502 2:49.543396 3:95.439941 4:19.959797 5:39.986404 6:132.57501 7:34.670399 8:23.622101 9:297.039 10:17.175098 11:32.698101 12:201.82996 
1 1:16.270596 2:21.412998 3:184.33008 4:53.868099 5:43.905605 6:211.89294 7:19.557497 8:25.96698 9:187.31506 10:65.966805 11:33.295715 12:337.05994 
1 1:24.872902 2:33.646397 3:142.79016 4:45.78352 5:54.833714 6:348.52197 7:37.715988 8:32.613495 9:231.328 10:77.2798 11:57.751896 12:339.42993 
1 1:48.150581 2:80.749504 3:332.72009 4:48.573212 5:224.93008 6:330.36023 7:64.674507 8:148.63248 9:420.22998 10:53.974091 11:296.34622 12:543.91016 
1 1:11.92202 2:84.813896 3:197.76001 4:19.477005 5:37.155701 6:174.93994 7:32.876305 8:107.2748 9:366.95996 10:19.128296 11:59.3703 12:31.710083 
1 1:36.118904 2:26.813011 3:213.41992 4:41.621498 5:176.22034 6:167.75012 7:36.622009 8:94.193047 9:266.64001 10:26.803032 11:34.445396 12:121.13 
1 1:22.361023 2:18.437988 3:83.329956 4:106.802 5:74.050003 6:362.23999 7:42.426071 8:55.419006 9:207.47009 10:64.748001 11:31.608017 12:229.32996 
1 1:8.3880463 2:16.82399 3:9.0699463 4:52.221985 5:42.356964 6:340.58008 7:34.43602 8:85.811005 9:171.03992 10:35.010025 11:58.546005 12:294.30005 
1 1:34.452087 2:31.230797 3:40.950195 4:47.714966 5:46.759323 6:435.04993 7:36.192001 8:24.295544 9:163.95007 10:30.336014 11:41.189835 12:281.07996 
1 1:27.447052 2:37.596199 3:95.809937 4:44.597961 5:53.263 6:374.02002 7:28.68103 8:88.357201 9:246.22009 10:44.495987 11:33.052692 12:208.61023 
1 1:19.200958 2:17.964966 3:15.390137 4:68.875916 5:180.35797 6:405.52991 7:37.920044 8:134.104 9:248.20996 10:30.520996 11:59.809998 12:103.16003 
1 1:65.03302 2:171.06001 3:396.43005 4:26.156006 5:78.655975 6:192.3999 7:19.80896 8:110.77399 9:215.20007 10:12.919037 11:10.613007 12:15.72998 
1 1:18.467957 2:18.724007 3:37.359985 4:45.29599 5:45.4128 6:270.78003 7:21.469009 8:39.663342 9:130.88 10:35.320023 11:34.111591 12:233.30994 
1 1:20.716003 2:25.89991 3:20.939575 4:34.562988 5:34.663296 6:295.13 7:16.164993 8:16.015007 9:133.8302 10:37.124008 11:40.833405 12:242.68994 
1 1:51.28233 2:66.449799 3:225.63 4:35.50679 5:35.449001 6:141.16992 7:52.327362 8:113.29881 9:285.68005 10:24.223051 11:25.660995 12:63.039917 
1 1:23.264534 2:33.288048 3:68.190063 4:109.545 5:130.77856 6:621.23193 7:68.575714 8:51.353302 9:416.62402 10:34.042793 11:116.5538 12:328.64014 
1 1:28.705017 2:19.202988 3:156.14001 4:93.162994 5:70.485992 6:172.47009 7:68.576996 8:25.58699 9:272.56006 10:13.304047 11:18.160004 12:50.359863 
1 1:19.045929 2:15.79599 3:64.370117 4:85.595001 5:43.611969 6:321.56006 7:30.799988 8:73.459007 9:334.54993 10:26.391968 11:12.130989 12:24.540283 
1 1:18.360977 2:13.792023 3:19.679932 4:64.600037 5:177.56201 6:416.55994 7:24.071991 8:38.959 9:70.809814 10:58.575989 11:144.42297 12:451.61011 
1 1:16.392006 2:19.678009 3:31.050049 4:77.833977 5:197.01402 6:454.92993 7:40.061981 8:63.769989 9:277.98999 10:36.957001 11:156.58299 12:250.97009 
1 1:50.328995 2:98.261993 3:221.44995 4:52.408981 5:34.325012 6:79.660034 7:37.188004 8:71.302002 9:168.21997 10:36.029984 11:39.792999 12:21.499878 
1 1:17.891247 2:25.008957 3:22.249878 4:105.85299 5:58.137009 6:330.11011 7:77.124207 8:57.400986 9:330.34998 10:39.90369 11:37.965973 12:29.619751 
1 1:21.631203 2:22.041016 3:10.910034 4:11.076 5:32.35701 6:88.609741 7:44.538502 8:56.176041 9:505.46997 10:27.361795 11:48.74704 12:121.61975 
1 1:241.4128 2:122.77921 3:113.08008 4:788.35077 5:406.97696 6:278.67957 7:99.461319 8:148.82758 9:54.569824 10:1212.3333 11:572.4325 12:380.13013 
1 1:15.419983 2:23.414787 3:10.6698 4:89.15799 5:77.471794 6:313.28003 7:53.859024 8:81.951202 9:256.79993 10:24.805984 11:18.961006 12:21.200195 
1 1:85.793976 2:36.45401 3:221.63 4:65.920013 5:40.059967 6:289.62 7:22.692017 8:24.319977 9:50.450073 10:19.360992 11:17.468994 12:15.359741 
1 1:22.358032 2:22.355072 3:28.789917 4:59.46405 5:24.981079 6:260.56995 7:31.197998 8:32.244019 9:232.48999 10:27.659973 11:23.962006 12:18.059937 
1 1:110.338 2:39.859898 3:366.2301 4:37.571991 5:43.163498 6:363.2301 7:26.100983 8:70.972206 9:362.6499 10:11.681 11:24.292965 12:332.61987 
1 1:19.700012 2:20.147804 3:14.129761 4:112.96498 5:59.362305 6:420.0199 7:82.121017 8:63.999111 9:555.59998 10:44.181015 11:123.09734 12:527.53003 
1 1:12.628998 2:16.987 3:135.15002 4:38.759033 5:45.858994 6:295.19995 7:49.193024 8:57.459991 9:342.79004 10:73.438995 11:63.274986 12:220.10986 
1 1:15.832977 2:12.429977 3:57.029907 4:68.394012 5:88.096985 6:453.45996 7:86.196014 8:113.08688 9:530.43005 10:25.923996 11:14.41169 12:11.470093 
1 1:7.4724989 2:14.909889 3:11.760498 4:39.0126 5:24.418903 6:267.008 7:14.730492 8:21.386707 9:186.20197 10:20.796795 11:38.233101 12:209.44006 
1 1:16.812603 2:22.893021 3:82.579956 4:28.501884 5:58.993805 6:355.78296 7:53.139809 8:41.128998 9:380.80505 10:14.886703 11:52.686996 12:26.099731 
1 1:41.957916 2:48.733002 3:153.71997 4:45.255981 5:20.151001 6:277.62994 7:77.153015 8:78.800995 9:291.50995 10:22.713989 11:62.080017 12:141.54004 
1 1:39.676895 2:49.111023 3:147.36005 4:65.237907 5:30.591003 6:206.28296 7:25.494062 8:75.022003 9:231.78497 10:13.495239 11:14.337021 12:9.8500977 
1 1:8.4432831 2:3.9160995 3:5.7098389 4:20.3489 5:24.390797 6:243.88599 7:24.072998 8:32.830605 9:218.51404 10:12.462593 11:52.368092 12:220.02588 
1 1:8.7421112 2:19.169037 3:6.6300049 4:12.440514 5:67.908997 6:168.78607 7:19.823708 8:36.0672 9:196.89606 10:24.403194 11:59.212997 12:211.698 
1 1:12.811396 2:20.562302 3:32.659912 4:39.872265 5:49.207798 6:320.98499 7:36.565971 8:37.278496 9:240.953 10:41.774933 11:61.531796 12:103.49023 
1 1:10.022102 2:4.9560089 3:5.039917 4:24.367317 5:26.001583 6:185.99298 7:21.185221 8:20.558352 9:212.57709 10:14.7545 11:33.946178 12:176.03992 
1 1:134.9976 2:77.837006 3:579.09204 4:66.353104 5:48.011993 6:94.579834 7:49.564907 8:40.937988 9:43.920166 10:112.36457 11:132.49702 12:718.80798 
1 1:3.8218803 2:7.8760223 3:16.290039 4:32.237564 5:55.777008 6:317.04895 7:27.416203 8:40.248001 9:242.6051 10:13.9123 11:43.34201 12:70.919922 
1 1:16.679651 2:29.864029 3:92.720093 4:18.068398 5:37.436996 6:261.19202 7:20.376907 8:50.410004 9:241.08801 10:88.675194 11:46.075012 12:222.52002 
0.8551140449306468 1:37.945236 2:32.782013 3:114.72986 4:31.91326 5:65.814026 6:201.65002 7:48.126198 8:49.292984 9:256.57007 10:21.1021 11:29.124969 12:50.470093 
1 1:19.374901 2:24.817001 3:30.929932 4:90.950905 5:39.445007 6:293.32196 7:51.204201 8:19.951019 9:223.56 10:29.60379 11:36.535995 12:131.10999 
1 1:10.777199 2:18.638016 3:33.570068 4:98.132103 5:45.367996 6:302.87604 7:30.016352 8:34.940033 9:243.61603 10:16.156183 11:38.787003 12:89.859985 
1 1:16.950901 2:32.703995 3:64.349976 4:56.397392 5:46.639999 6:353.54291 7:18.0275 8:46.368973 9:334.21503 10:19.36512 11:41.663986 12:84.940063 
1 1:46.636902 2:43.287003 3:68.160034 4:65.763702 5:72.774002 6:280.74103 7:37.050121 8:60.287994 9:306.42694 10:16.026638 11:22.322998 12:29.710083 
1 1:11.965403 2:33.365982 3:65.079956 4:30.663311 5:65.507004 6:368.79803 7:30.365849 8:35.845001 9:336.03802 10:36.677608 11:29.00499 12:71.819946 
1 1:46.931614 2:44.255005 3:53.130127 4:47.136902 5:75.981995 6:377.3891 7:23.899391 8:97.253006 9:342.49493 10:15.34247 11:52.114014 12:50.160034 
1 1:21.040401 2:32.496017 3:45.599976 4:11.955597 5:94.222 6:372.271 7:24.8587 8:43.992981 9:287.64099 10:49.980999 11:43.701004 12:109.70996 
1 1:8.9805145 2:14.041 3:12.429932 4:71.8293 5:94.811005 6:336.34698 7:17.210001 8:41.228989 9:309.90106 10:17.752399 11:109.55699 12:141.37988 
1 1:16.996452 2:55.266998 3:66.940063 4:24.807249 5:60.046982 6:295.69299 7:25.111959 8:75.742004 9:316.45898 10:13.08309 11:13.952988 12:37.870117 
1 1:116.55349 2:110.10101 3:221.12 4:74.4879 5:134.633 6:577.44897 7:79.121498 8:111.25299 9:394.625 10:76.815598 11:129.75098 12:354.8501 
1 1:82.806099 2:136.06299 3:302.98999 4:43.848026 5:83.526993 6:579.31598 7:67.786026 8:82.891006 9:468.07599 10:81.671684 11:119.01199 12:249 
1 1:10.914398 2:32.470001 3:61.27002 4:46.007401 5:38.893997 6:187.32996 7:9.549099 8:14.490997 9:86.869995 10:75.241508 11:93.600006 12:311.95007 
1 1:29.322197 2:30.243011 3:93.330078 4:57.9431 5:50.254974 6:221.52991 7:12.716499 8:17.335022 9:56.640137 10:98.512817 11:104.81799 12:311.22998 
1 1:17.96701 2:26.019703 3:49.209961 4:20.920013 5:65.379005 6:258.78003 7:26.227005 8:32.856209 9:175.14001 10:33.055008 11:103.73569 12:279.70007 
1 1:29.163055 2:46.577488 3:212.50989 4:28.276001 5:52.054302 6:251.1499 7:50.052994 8:56.224602 9:232.34985 10:51.834 11:50.507202 12:361.44006 
1 1:22.04599 2:25.832394 3:13.27002 4:32.519012 5:79.23909 6:263.81995 7:66.056984 8:54.507195 9:243.71008 10:52.486031 11:77.593292 12:257.96997 
1 1:8.4436989 2:8.3609924 3:9.3999023 4:51.779404 5:67.831985 6:298.98999 7:15.888588 8:60.138992 9:166.7561 10:20.310097 11:42.728012 12:244.41992 
1 1:26.864784 2:22.270004 3:97.539917 4:54.2323 5:67.029968 6:366.55707 7:40.754509 8:48.572006 9:237.06097 10:30.021889 11:54.957993 12:193.35999 
0.1588822387077813 1:14.212997 2:19.176598 3:42.52002 4:25.373001 5:26.490601 6:229.98492 7:42.218002 8:16.631798 9:147.21301 10:38.517014 11:52.683502 12:161.37006 
1 1:11.016998 2:20.076498 3:22.97998 4:51.751007 5:46.822803 6:157.45398 7:41.371017 8:14.740204 9:215.01605 10:63.651993 11:117.96809 12:293.90802 
1 1:25.602005 2:82.227402 3:127.47095 4:24.246994 5:68.406693 6:258.56104 7:23.862991 8:15.522026 9:100.27496 10:40.001007 11:130.34488 12:306.26904 
1 1:20.004013 2:61.074493 3:88.820129 4:68.128403 5:122.2037 6:391.41504 7:84.395599 8:78.194397 9:357.25201 10:36.285019 11:76.003204 12:176.66699 
1 1:25.505997 2:31.539707 3:94.679932 4:43.629005 5:96.237305 6:459.07703 7:76.498009 8:167.19305 9:374.52002 10:34.560959 11:54.615803 12:206.177 
1 1:41.749001 2:67.660904 3:76.92981 4:46.803299 5:84.600304 6:396.90002 7:49.688301 8:29.396095 9:292.75702 10:48.748032 11:109.4137 12:259.00299 
1 1:50.877991 2:36.116013 3:70.406006 4:67.406601 5:42.267593 6:322.61298 7:26.437492 8:107.0304 9:393.81097 10:15.925499 11:22.125 12:21.599976 
1 1:10.560181 2:10.528 3:8.6699219 4:43.290703 5:46.082993 6:259.06494 7:13.610504 8:46.479004 9:237.28296 10:13.533005 11:27.830002 12:33.990112 
1 1:14.420597 2:11.272034 3:25.280029 4:50.331001 5:59.048996 6:336.56604 7:17.435307 8:28.785034 9:264.29303 10:12.460365 11:36.593033 12:85.134949 
1 1:6.354393 2:18.058014 3:8.670166 4:39.730106 5:144.2249 6:280.11401 7:13.2299 8:22.848785 9:246.09296 10:22.7117 11:89.080734 12:188.69293 
1 1:13.575996 2:14.832001 3:19.330078 4:55.086304 5:83.003708 6:342.49097 7:20.355 8:44.939713 9:285.112 10:36.237812 11:66.219986 12:181.18695 
1 1:19.930099 2:21.958984 3:70.410095 4:34.658604 5:60.847595 6:341.448 7:55.504902 8:138.14601 9:404.61993 10:12.25679 11:9.7180023 12:35.880005 
1 1:89.851204 2:57.117996 3:117.17603 4:63.905399 5:75.663208 6:299.83398 7:29.473398 8:66.204803 9:340.84998 10:46.3326 11:59.175003 12:118.06995 
1 1:18.645615 2:30.806976 3:19.569702 4:18.265697 5:109.83881 6:366.01105 7:27.450703 8:54.653805 9:330.13702 10:42.502792 11:77.287209 12:131.64209 
1 1:30.608803 2:21.783966 3:35.989746 4:43.328701 5:72.157196 6:334.60498 7:45.086597 8:35.821602 9:291.19104 10:27.68631 11:65.441002 12:125.36206 
1 1:21.435211 2:28.363998 3:23.099976 4:53.323597 5:78.965691 6:388.57092 7:50.5117 8:65.082703 9:339.16901 10:16.361702 11:40.875023 12:75.139954 
1 1:28.744102 2:32.363022 3:80.059998 4:46.795097 5:61.028793 6:310.60797 7:62.690598 8:50.7276 9:275.50598 10:24.542404 11:60.273026 12:135.52209 
1 1:26.677948 2:14.271027 3:11.489746 4:39.626984 5:52.937073 6:394.19006 7:34.764008 8:74.475006 9:227.81006 10:49.717041 11:69.449066 12:382.15991 
1 1:21.313965 2:25.444977 3:12.080078 4:41.261002 5:43.485046 6:415.14001 7:17.181992 8:35.944 9:216.20996 10:56.144958 11:58.53598 12:311.14001 
1 1:34.225952 2:119.735 3:429.1001 4:59.524017 5:73.889 6:326.58008 7:53.312073 8:107.24529 9:469.58997 10:46.982956 11:96.854111 12:501.95996 
1 1:24.563995 2:17.951187 3:14.030029 4:22.658051 5:48.483391 6:187.21008 7:28.275986 8:95.049217 9:414.62 10:49.027985 11:152.0755 12:533.63 
1 1:37.397003 2:51.260609 3:110.94098 4:45.112991 5:39.554302 6:142.43301 7:21.149994 8:16.710121 9:62.870026 10:44.537003 11:34.536102 12:159.76202 
1 1:15.222305 2:15.525299 3:33.865051 4:157.63638 5:255.0972 6:172.18195 7:8.6909943 8:29.772301 9:87.122009 10:7.2469711 11:17.661011 12:58.470032 
1 1:9.9806061 2:34.927017 3:88.736938 4:20.794296 5:63.337898 6:160.42499 7:8.7024994 8:17.803291 9:70.189026 10:27.278801 11:77.222778 12:162.66998 
1 1:17.682991 2:36.511002 3:84.051025 4:18.507202 5:36.364601 6:163.70898 7:9.9958038 8:10.915894 9:72.090942 10:22.476997 11:50.5411 12:164.43201 
1 1:11.792984 2:47.97271 3:121.74396 4:19.48201 5:34.124199 6:157.953 7:9.4390182 8:13.519203 9:88.875977 10:17.833 11:56.885094 12:150.89496 
1 1:14.25898 2:45.044502 3:113.78107 4:19.154999 5:34.732483 6:185.14496 7:10.970985 8:17.965691 9:136.93103 10:24.625 11:54.034317 12:149.41803 
1 1:9.1679993 2:34.162033 3:86.703003 4:9.2299805 5:25.451401 6:205.01703 7:9.8120041 8:10.4272 9:108.56995 10:16.931999 11:38.362808 12:193.43298 
1 1:9.326004 2:47.509399 3:105.81897 4:16.44902 5:25.090202 6:193.19 7:12.356995 8:19.707184 9:151.12097 10:13.411011 11:51.575005 12:153.53699 
1 1:5.2780304 2:13.925995 3:45.367004 4:32.596001 5:50.204102 6:185.25 7:12.176498 8:26.3563 9:93.94397 10:14.1576 11:23.78801 12:105.32104 
1 1:14.609299 2:48.947525 3:80.44397 4:17.7999 5:32.6287 6:172.30701 7:4.5597916 8:7.6675034 9:32.538025 10:10.744503 11:46.298302 12:181.43799 
1 1:16.056297 2:71.150497 3:129.46399 4:10.755005 5:41.212097 6:179.30902 7:11.146606 8:23.43129 9:157.20703 10:15.13921 11:76.849899 12:160.74603 
1 1:106.49675 2:163.86493 3:89.43042 4:181.90781 5:367.68823 6:92.140503 7:296.82901 8:111.35255 9:104.82007 10:292.90524 11:152.34012 12:137.51013 
1 1:70.683998 2:199.38997 3:45.329834 4:57.774498 5:316.74948 6:47.320068 7:250.00829 8:99.481506 9:85.710205 10:188.84903 11:44.043976 12:41.759766 
1 1:59.965305 2:209.78998 3:49.570068 4:68.261292 5:375.53809 6:85.400024 7:222.92381 8:134.00597 9:76.599854 10:259.19904 11:97.48201 12:93.550415 
1 1:12.582219 2:38.837036 3:8.7197266 4:25.954727 5:261.3457 6:39.030029 7:38.789246 8:249.22128 9:27.489868 10:316.88312 11:50.113968 12:21.559937 
1 1:14.805801 2:51.787994 3:11.739868 4:22.449697 5:248.38727 6:23.390259 7:45.686203 8:150.84996 9:21.440063 10:206.57361 11:20.470993 12:29.290039 
1 1:7.4123077 2:17.185989 3:3.0100098 4:42.382301 5:317.94879 6:28.829956 7:243.10889 8:89.023209 9:23.609985 10:91.539063 11:17.415009 12:16.270264 
1 1:21.374481 2:22.634979 3:13.379883 4:47.058105 5:340.88919 6:21.609985 7:227.15311 8:154.61111 9:68.820068 10:273.35544 11:42.988228 12:65.260132 
1 1:159.14751 2:443.5907 3:60.480225 4:79.155762 5:468.07843 6:60.490234 7:67.367897 8:117.59131 9:44.740112 10:716.87177 11:124.36488 12:147.33997 
1 1:17.047501 2:22.485962 3:10.610352 4:29.303499 5:338.30249 6:18.040161 7:97.293594 8:59.329517 9:43.070068 10:408.11621 11:101.4579 12:119.04004 
1 1:21.899986 2:34.2229 3:9.6199951 4:39.53302 5:340.36041 6:41.349976 7:109.01799 8:98.885605 9:29.180298 10:232.036 11:31.401001 12:52.169922 
1 1:9.0039978 2:32.590012 3:25.26001 4:43.855995 5:305.185 6:64.380005 7:53.817993 8:188.21204 9:25.01001 10:298.38699 11:48.839981 12:137.69006 
1 1:20.201996 2:44.682007 3:29.540039 4:46.678993 5:474.26526 6:146.08997 7:208.98898 8:196.9978 9:120.66992 10:185.61597 11:47.034012 12:144.48999 
1 1:14.808701 2:37.708008 3:33.210205 4:27.043995 5:572.86798 6:220.28992 7:235.51889 8:175.92998 9:78.960205 10:217.319 11:53.564987 12:175.37012 
1 1:24.466003 2:38.619019 3:14.190186 4:30.622025 5:269.76602 6:47.199951 7:148.192 8:41.454407 9:17.319824 10:54.865021 11:29.5783 12:26.539917 
1 1:22.095978 2:22.046021 3:11.959839 4:30.150055 5:217.48099 6:51.589966 7:101.71001 8:30.588095 9:25.849731 10:31.865967 11:16.327805 12:16.240112 
0.4988265371734349 1:26.111183 2:25.494091 3:8.3100586 4:40.483971 5:302.03802 6:53.130249 7:314.80203 8:120.16698 9:146.03003 10:51.877975 11:32.858994 12:24.799927 
1 1:14.213501 2:22.363594 3:9.630249 4:29.715206 5:292.14301 6:27.699951 7:309.18683 8:52.858032 9:155.51001 10:18.340027 11:24.978943 12:31.099854 
1 1:19.873001 2:97.896973 3:16.02002 4:29.661011 5:406.49524 6:27.280029 7:205.66721 8:204.87494 9:104.81018 10:137.45401 11:36.141998 12:55.719971 
1 1:25.991974 2:27.508911 3:13.119995 4:22.621017 5:331.40109 6:88.599854 7:110.627 8:375.02225 9:83.920166 10:292.33594 11:67.029053 12:133.91968 
1 1:106.38311 2:346.34174 3:105.64954 4:330.72647 5:124.59213 6:131.18982 7:281.85953 8:150.31516 9:119.25964 10:122.522 11:288.10486 12:98.359253 
1 1:11.91629 2:13.764999 3:17.559937 4:27.030399 5:395.07401 6:70.22998 7:239.0657 8:245.483 9:105.86011 10:78.921997 11:27.24292 12:89.769653 
1 1:20.952583 2:24.566025 3:26.700195 4:37.374916 5:181.11569 6:59.360107 7:234.8898 8:477.91629 9:152.04004 10:53.202003 11:34.562012 12:72.47998 
1 1:18.168701 2:25.142014 3:17.309937 4:160.84659 5:396.392 6:48.010132 7:345.41998 8:58.538033 9:72.76001 10:45.828003 11:30.120026 12:27.8302 
1 1:14.69352 2:18.377991 3:11.060181 4:51.681389 5:452.802 6:55.419678 7:377.32001 8:84.216995 9:27.120361 10:51.176025 11:32.718979 12:19.719971 
1 1:20.427002 2:21.69101 3:13.969971 4:16.36499 5:17.399002 6:15.849854 7:12.416016 8:173.83263 9:60.329956 10:353.21707 11:125.00516 12:95.859985 
1 1:11.028 2:18.28299 3:12.799561 4:38.951035 5:498.25397 6:150.83008 7:381.48199 8:206.12399 9:137.57996 10:68.387085 11:60.675995 12:49.900024 
1 1:14.491596 2:19.255898 3:5.5200195 4:15.244099 5:74.6259 6:12.47998 7:17.819607 8:103.29321 9:16.589966 10:131.63669 11:78.487991 12:38.100098 
1 1:16.805191 2:38.248703 3:10.450073 4:21.513 5:154.3717 6:14.189941 7:47.972103 8:43.545006 9:13.249878 10:180.7757 11:34.108002 12:51.819946 
1 1:5.4613953 2:11.664001 3:2.7099609 4:6.0539932 5:46.2612 6:20.02002 7:13.173996 8:114.0881 9:38.01001 10:217.332 11:162.2317 12:119.52002 
1 1:9.379303 2:37.876198 3:8.2601318 4:61.768204 5:294.41418 6:52.989929 7:198.71529 8:31.206055 9:42.910095 10:25.450989 11:11.030975 12:27.380005 
1 1:4.1538801 2:10.345501 3:0.66992188 4:2.78281 5:54.157898 6:7.5 7:14.76783 8:191.17999 9:36.800049 10:251.84769 11:55.602997 12:59.630005 
1 1:50.005981 2:125.198 3:95.510254 4:99.911011 5:484.51193 6:115.91992 7:278.86203 8:46.20697 9:53.34021 10:163.104 11:33.725098 12:41.020142 
1 1:10.792038 2:9.5639648 3:9.84021 4:45.727982 5:435.17102 6:161.17004 7:171.82587 8:189.71696 9:53.490112 10:229.61711 11:64.073013 12:63.120239 
1 1:20.261993 2:56.049042 3:37.650024 4:66.70401 5:399.40103 6:169.56995 7:190.22035 8:132.76398 9:53.750122 10:213.35268 11:44.479004 12:61.660156 
1 1:5.3529816 2:18.975998 3:6.7801514 4:8.1570129 5:163.6826 6:10.410034 7:132.1936 8:77.282104 9:42.359985 10:54.541901 11:13.877899 12:21.869934 
1 1:12.334991 2:77.134003 3:2.7600098 4:21.592987 5:218.16574 6:9.4400635 7:58.219986 8:41.774963 9:38.23999 10:187.53651 11:5.4299984 12:32.969971 
1 1:8.1950073 2:9.6940002 3:5.3789673 4:13.164993 5:167.44719 6:15.469971 7:72.335007 8:80.674423 9:43.27002 10:129.6898 11:18.234894 12:12.851074 
1 1:17.508011 2:56.799011 3:16.819946 4:50.702972 5:266.487 6:58.264038 7:148.30121 8:17.936005 9:5.6769409 10:57.70705 11:9.1240234 12:9.6289063 
1 1:117.9266 2:315.039 3:40.010132 4:23.792007 5:36.439987 6:20.310181 7:48.04599 8:244.79999 9:78.889893 10:209.08632 11:39.228996 12:24.809937 
1 1:4.4759979 2:16.921997 3:9.2199707 4:4.318985 5:190.4216 6:20.920044 7:33.41301 8:153.72841 9:23.200073 10:153.41199 11:22.361008 12:27.910034 
1 1:5.006012 2:69.543999 3:5.460083 4:10.180038 5:231.414 6:16.609985 7:145.18721 8:92.72599 9:35.430054 10:47.947701 11:15.617004 12:15.960083 
1 1:12.218002 2:61.190994 3:14.739868 4:9.0090179 5:273.92603 6:32.800049 7:116.09428 8:60.65097 9:16.309998 10:89.953209 11:12.62999 12:14.509949 
1 1:16.867996 2:114.66401 3:5.3499756 4:6.8190308 5:253.27499 6:48.673035 7:146.17859 8:16.950989 9:10.304016 10:19.086498 11:14.613998 12:4.8719482 
1 1:6.0669861 2:60.803986 3:5.4899902 4:6.9829712 5:290.56702 6:38.880005 7:103.51001 8:30.649994 9:12.700012 10:95.222595 11:15.761002 12:8.6570435 
1 1:11.60498 2:22.313904 3:15.659912 4:25.395935 5:59.253113 6:32.9198 7:76.320038 8:578.21887 9:100.32007 10:460.90613 11:205.4028 12:141.8501 
1 1:12.661011 2:40.211014 3:22.369995 4:44.102005 5:513.93896 6:152.68005 7:370.06601 8:140.70999 9:110.77991 10:173.76895 11:30.372009 12:146.91016 
1 1:10.780991 2:11.773041 3:21.560059 4:36.137009 5:305.8519 6:135.46008 7:133.23903 8:342.44806 9:87.559937 10:429.74701 11:120.89702 12:180.23999 
1 1:16.19915 2:92.369507 3:6.085022 4:18.271851 5:155.69652 6:11.802917 7:19.115301 8:22.530991 9:6.5797729 10:80.668892 11:16.003998 12:11.381042 
1 1:12.384731 2:66.996399 3:27.471008 4:29.765709 5:171.98459 6:14.400879 7:37.788696 8:44.445007 9:13.744934 10:64.879997 11:13.491013 12:16.487122 
1 1:15.322227 2:62.693897 3:3.4300537 4:15.721068 5:207.6351 6:18.13501 7:64.092697 8:32.450989 9:23.810974 10:35.056103 11:10.633987 12:19.260986 
1 1:10.847939 2:39.061508 3:27.085022 4:15.850683 5:216.1795 6:28.995056 7:23.12673 8:21.684021 9:11.641968 10:50.84531 11:15.593964 12:16.749023 
1 1:7.1745176 2:34.859406 3:8.1948853 4:25.131159 5:225.8636 6:24.386047 7:19.534542 8:51.278015 9:16.121033 10:84.183395 11:20.524002 12:30.949036 
1 1:14.652222 2:58.7216 3:9.2139893 4:13.970241 5:203.5054 6:41.541016 7:23.938721 8:54.557999 9:23.778992 10:59.282692 11:21.574982 12:28.856018 
1 1:13.399189 2:46.043697 3:9.4581299 4:19.41984 5:213.62372 6:37.986938 7:17.8353 8:26.664032 9:8.5340576 10:68.652397 11:10.493958 12:29.583984 
1 1:18.178221 2:88.502594 3:22.013 4:20.056103 5:257.79639 6:50.300964 7:68.051208 8:22.646011 9:34.109985 10:26.951096 11:12.669006 12:20.455872 
1 1:7.5538092 2:45.771896 3:12.979004 4:21.978197 5:182.4921 6:28.367981 7:13.459999 8:119.466 9:28.700012 10:67.61129 11:14.306015 12:32.263977 
1 1:12.536329 2:79.310303 3:14.992004 4:15.263123 5:205.7177 6:19.779053 7:31.70332 8:60.412979 9:31.538025 10:72.644302 11:18.843994 12:28.742981 
1 1:55.742004 2:59.244995 3:22.540161 4:104.27239 5:19.939011 6:28.970093 7:437.68262 8:255.69566 9:49.170044 10:247.12347 11:94.117348 12:55.089966 
1 1:164.58302 2:23.955109 3:46.039917 4:696.57574 5:297.91751 6:140.76013 7:549.6333 8:223.59047 9:181.43982 10:170.27901 11:36.078979 12:52.900146 
1 1:274.29401 2:51.309998 3:117.13 4:524.69202 5:213.24701 6:75.329834 7:542.8006 8:296.40198 9:200.79993 10:369.67032 11:93.432007 12:148.47009 
1 1:128.05798 2:24.641006 3:31.72998 4:219.10202 5:68.735977 6:185.36987 7:349.14447 8:452.46509 9:267 10:435.6225 11:78.146027 12:196.80017 
1 1:194.03104 2:24.852966 3:22.349731 4:377.46704 5:166.04503 6:171.20996 7:326.78699 8:289.54431 9:62.380127 10:305.44 11:122.44509 12:163.15002 
1 1:20.925404 2:16.558998 3:16.509766 4:427.39941 5:148.24577 6:115.98999 7:403.69443 8:160.91551 9:191.64001 10:77.307922 11:22.702988 12:37.909912 
1 1:184.12891 2:28.069099 3:66.790161 4:431.2775 5:293.15198 6:161.52991 7:341.17899 8:104.45998 9:142.65015 10:20.847015 11:18.292023 12:21.450195 
1 1:230.86401 2:64.238007 3:76.770142 4:260.58398 5:361.22107 6:98.789795 7:272.60202 8:29.602982 9:98.109863 10:114.96002 11:63.039993 12:83.940063 
1 1:109.29599 2:188.94012 3:26.400269 4:529.69397 5:315.81488 6:146.56982 7:421.26093 8:425.31201 9:140.77991 10:325.79703 11:81.13298 12:142.1698 
1 1:30.319031 2:109.39001 3:69.179932 4:316.61258 5:257.10794 6:200.70007 7:371.62335 8:265.35507 9:85.520142 10:299.5238 11:64.78299 12:99.119995 
1 1:164.3452 2:305.08752 3:146.94019 4:457.47992 5:207.22832 6:94.799927 7:331.24948 8:63.870941 9:89.019653 10:418.60278 11:336.80402 12:243.04004 
1 1:44.404949 2:41.262806 3:58.40918 4:208.76559 5:127.61449 6:349.40015 7:248.17586 8:377.14029 9:403.95996 10:209.82895 11:120.05508 12:391.38013 
1 1:133.64923 2:28.581688 3:92.770142 4:276.02979 5:169.95061 6:462.16016 7:312.22058 8:419.75198 9:435.71973 10:159.82802 11:81.225952 12:381.33008 
1 1:12.154305 2:9.7489319 3:8.9398193 4:365.96301 5:114.82399 6:35.569824 7:377.29105 8:342.57806 9:108.0802 10:395.63495 11:115.98199 12:127.6897 
1 1:41.205009 2:36.59198 3:17.48999 4:473.8287 5:243.88261 6:98.499756 7:532.90796 8:331.02838 9:108.27991 10:141.32201 11:27.496033 12:65.429932 
1 1:21.828018 2:33.664001 3:18.700439 4:33.500992 5:27.637985 6:25.089478 7:387.73599 8:140.40099 9:189.09009 10:324.37402 11:49.539001 12:162.19995 
1 1:15.527985 2:10.324005 3:11.89978 4:193.53003 5:53.112 6:93.859863 7:451.24298 8:268.677 9:276.6001 10:375.71899 11:106.5918 12:160.32007 
1 1:9.9989777 2:12.391953 3:11.209961 4:267.74799 5:57.53299 6:93.449829 7:414.21301 8:256.4317 9:201.92004 10:294.63199 11:38.776997 12:93.48999 
1 1:50.989014 2:27.397003 3:18.730103 4:334.06903 5:156.804 6:86.950073 7:560.31299 8:329.82993 9:190.6499 10:70.186951 11:39.306992 12:64.439941 
1 1:32.712982 2:21.950012 3:21.939819 4:496.68698 5:201.11903 6:128.05005 7:775.88892 8:445.58203 9:280.75 10:210.065 11:53.188049 12:157.75989 
1 1:8.1730042 2:14.527039 3:7.4700928 4:222.224 5:66.765991 6:31.489868 7:536.33301 8:293.008 9:138.96997 10:41.937988 11:23.886377 12:46.26001 
1 1:234.81099 2:45.677193 3:67.869995 4:157.8558 5:80.026901 6:32.27002 7:227.56699 8:217.26788 9:21.949951 10:268.81702 11:65.800995 12:35.280029 
1 1:225.54149 2:74.41111 3:82.109863 4:326.2052 5:311.20001 6:238.22009 7:314.13733 8:119.37903 9:130.91003 10:66.042969 11:38.027985 12:62.309937 
1 1:27.1884 2:16.966003 3:13.089966 4:274.33917 5:85.600006 6:208.33008 7:278.77655 8:325.8952 9:181.45007 10:233.82965 11:63.773716 12:283.90002 
1 1:37.061005 2:19.54007 3:23.060059 4:287.95862 5:89.839081 6:92.789795 7:436.23141 8:332.71606 9:97.470093 10:410.79776 11:87.523994 12:101.58997 
1 1:20.190002 2:29.039001 3:27.329834 4:409.47632 5:104.875 6:75.849731 7:399.83249 8:380.46304 9:112.84985 10:385.03625 11:32.034752 12:99.179932 
1 1:36.151978 2:25.572937 3:23.460083 4:340.07291 5:91.875946 6:96.109985 7:361.41016 8:297.51767 9:73.769897 10:369.1394 11:51.687714 12:76.930054 
1 1:334.18903 2:59.372986 3:74.329956 4:464.87009 5:301.01532 6:187.13989 7:456.76593 8:197.48271 9:86.660156 10:198.46599 11:36.97197 12:100.18982 
1 1:63.816399 2:22.69397 3:23.660034 4:368.11697 5:137.41399 6:87.780029 7:502.05258 8:449.01498 9:156.75 10:330.64307 11:87.431046 12:107.61987 
1 1:18.534988 2:16.326965 3:12.499756 4:416.52405 5:83.408966 6:123.54993 7:604.45032 8:535.44397 9:162.38037 10:351.233 11:65.937988 12:146.53003 
1 1:115.63037 2:29.134003 3:32.630005 4:408.67084 5:496.01697 6:107.23999 7:414.79663 8:536.67798 9:129.93982 10:236.26791 11:81.982941 12:94.490234 
1 1:143.3354 2:86.673996 3:29.339966 4:331.10599 5:432.11099 6:101.72009 7:281.70547 8:299.81091 9:123.28003 10:124.39269 11:156.69612 12:107.55005 
1 1:151.82895 2:64.015076 3:77.189819 4:441.81693 5:766.76013 6:309.5199 7:600.78534 8:616.92609 9:108.28003 10:231.323 11:96.208038 12:43.009766 
1 1:162.85991 2:66.048004 3:54.14978 4:362.7287 5:652.17285 6:255.03992 7:284.85901 8:613.32117 9:140.65002 10:220.71698 11:98.563049 12:61.099976 
1 1:32.338943 2:17.307999 3:16.47998 4:121.33101 5:102.45586 6:21.5 7:245.03461 8:348.14014 9:51.829834 10:129.70601 11:211.05399 12:54.449951 
1 1:167.65161 2:44.713982 3:44.22998 4:496.27158 5:381.85699 6:138.52002 7:312.27139 8:361.14899 9:54.419922 10:57.67601 11:20.819 12:20.550049 
1 1:179.14302 2:63.26503 3:20.839966 4:501.65347 5:340.13599 6:98 7:343.13068 8:305.8573 9:95.309937 10:38.636993 11:30.864227 12:24.690063 
1 1:28.397995 2:30.299957 3:18.159546 4:287.86096 5:475.92303 6:161.79028 7:284.84998 8:464.30701 9:113.24976 10:207.44402 11:51.730972 12:46.059814 
1 1:30.839966 2:28.973999 3:13.580078 4:490.93219 5:620.64307 6:179.34009 7:411.35397 8:579.349 9:85.519897 10:66.797028 11:34.573944 12:27.249878 
1 1:40.109055 2:47.638 3:46.470215 4:320.30002 5:338.65738 6:125.46021 7:400.73999 8:432.2688 9:80.939941 10:135.63802 11:86.569092 12:134.44006 
1 1:52.285004 2:20.916077 3:30.840332 4:277.79498 5:359.29224 6:87.569946 7:306.36932 8:328.4324 9:59.930176 10:164.81601 11:77.055023 12:112.17017 
1 1:90.154785 2:83.786011 3:71.650513 4:382.17654 5:752.8457 6:369.27014 7:389.13171 8:754.75452 9:305.26001 10:232.90231 11:75.869102 12:223.82996 
1 1:145.78529 2:72.270187 3:138.83997 4:213.61551 5:513.67529 6:294.25012 7:214.43097 8:448.28934 9:315.71997 10:191.51669 11:214.55421 12:172.58057 
1 1:43.943802 2:21.974991 3:24.230103 4:399.37323 5:396.02603 6:98 7:397.79999 8:414.08295 9:96.200073 10:92.712593 11:34.041992 12:21.579956 
1 1:34.800049 2:25.488998 3:48.030029 4:223.40802 5:274.211 6:157.7301 7:306.81497 8:356.33099 9:241.20996 10:141.57497 11:131.41101 12:88.640137 
1 1:8.3620148 2:8.8450089 3:4.8399658 4:113.222 5:63.552994 6:56.810059 7:382.91602 8:290.9256 9:134.12988 10:215.21503 11:144.19879 12:57.32019 
1 1:29.85199 2:125.30501 3:28.749878 4:270.22214 5:413.828 6:199.92004 7:413.8765 8:498.38104 9:204.47986 10:289.12881 11:106.25902 12:56.359985 
1 1:51.296021 2:36.277008 3:23.670044 4:203.5872 5:334.83807 6:100.29004 7:495.44324 8:500.28192 9:166.77991 10:289.49362 11:152.98798 12:64.929932 
1 1:173.99698 2:73.633202 3:21.52002 4:339.73776 5:324.5014 6:97.780029 7:349.966 8:353.44272 9:91.630127 10:138.37 11:33.637306 12:29.900024 
1 1:217.76602 2:114.6013 3:48.809692 4:316.922 5:204.45158 6:86.480103 7:223.82599 8:224.47722 9:45.559937 10:55.802002 11:13.920454 12:9.4498291 
1 1:115.944 2:68.641701 3:9.880127 4:269.55518 5:278.86023 6:165.52002 7:295.06601 8:259.21301 9:111.12988 10:287.96899 11:297.74988 12:78.359985 
1 1:176.16841 2:47.230488 3:44.760132 4:232.68741 5:426.05521 6:69.999878 7:257.82098 8:307.79816 9:167.04004 10:219.04996 11:88.879211 12:37.510132 
1 1:88.355194 2:28.26001 3:43 4:238.34882 5:351.75882 6:175.11993 7:246.45169 8:295.30508 9:133.59503 10:76.953697 11:195.94189 12:150.98096 
1 1:169.3689 2:181.85239 3:99.289917 4:288.259 5:285.29361 6:265.99603 7:100.80601 8:384.00598 9:137.922 10:114.45822 11:50.998032 12:132.81012 
1 1:153.6626 2:115.20781 3:56.279907 4:247.43152 5:268.0112 6:304.30896 7:91.43959 8:330.65997 9:167.28296 10:152.5049 11:84.878998 12:109.2699 
1 1:249.0262 2:68.900009 3:28.139893 4:365.72363 5:561.75305 6:115.87988 7:207.8591 8:344.35669 9:31.639893 10:228.47992 11:282.81628 12:98.699951 
1 1:38.185974 2:26.026001 3:12.759521 4:304.354 5:565.39197 6:144.39001 7:284.41962 8:484.20798 9:56.530273 10:250.36641 11:188.077 12:91.069824 
1 1:50.373032 2:22.19899 3:11.730347 4:354.79407 5:561.19507 6:101.81006 7:279.461 8:439.88382 9:45.049927 10:330.70703 11:226.24019 12:78.610107 
1 1:35.691372 2:33.738983 3:20.500366 4:337.34232 5:563.80103 6:280.32983 7:340.30997 8:592.54993 9:178.93018 10:64.14859 11:170.076 12:78.030273 
1 1:26.560196 2:16.748001 3:15.029907 4:270.67419 5:439.43497 6:122.3501 7:421.63721 8:570.48901 9:272.46997 10:129.46301 11:71.998001 12:69.430054 
1 1:89.687042 2:31.338104 3:53.379883 4:428.98004 5:522.091 6:296.8999 7:302.87598 8:462.84207 9:129.31995 10:193.21397 11:136.53998 12:101.19995 
1 1:100.31702 2:57.038025 3:87.860107 4:432.75345 5:445.85101 6:237.06982 7:309.34491 8:465.62601 9:169.33008 10:120.332 11:50.74408 12:93.34021 
1 1:106.80701 2:53.47403 3:72.139893 4:375.97784 5:445.078 6:230.35999 7:258.28491 8:457.349 9:155.41992 10:96.036026 11:49.838959 12:67.900146 
1 1:260.03497 2:431.42398 3:163.58008 4:458.108 5:613.48486 6:164.3999 7:455.79556 8:434.66406 9:46.300171 10:126.67888 11:168.64799 12:37.539917 
1 1:48.417984 2:18.280991 3:11.769897 4:68.641998 5:34.347 6:29.080078 7:347.99759 8:563.51996 9:160.70996 10:642.67743 11:636.87103 12:307.90002 
1 1:19.77095 2:14.167023 3:13.879761 4:270.7746 5:373.69296 6:133.35999 7:377.6402 8:537.453 9:78.659912 10:283.79019 11:470.54297 12:99.440063 
