svm_type c_svc
kernel_type rbf
gamma 0.0625
nr_class 2
total_sv 16
rho -0.111035
label 1 2
probA -1.08829
probB -0.0278906
nr_sv 8 8
SV
0.888671875 1:-34.660583 2:-3.023262 3:-33.710205 4:-59.963013 5:-3.2035217 6:-35.704651 7:-70.374725 8:-9.9133911 9:-24.592163 10:-61.751049 11:-13.086853 12:-14.874878 13:-43.861301 14:-17.343525 15:-8.6040649 16:-11.755177 17:1.6223946 18:-6.0339355 19:-2.955204 20:1.1335526 21:-1.918396 22:-0.9251442 23:-2.3200493 24:1.7943115 25:0.21227646 26:0.61644745 27:1.7145996 28:1.1821556 29:-1.1282883 30:1.1699219 31:-0.42121506 32:-1.3239784 33:1.9880371 34:0.57065201 35:1.1614113 36:-1.1852417 37:1.2332878 38:0.46116638 39:-2.1036987 40:0.75869751 41:0.056152344 42:-0.49481201 43:-0.89151382 44:-2.3289223 45:0.69628906 46:-0.35283279 47:2.2732773 48:-0.094665527 49:-0.92707443 50:-0.81106949 51:0.99829102 52:-0.54698563 53:-1.9173737 54:1.8973999 55:1.4433098 56:0.9134407 57:-1.1361084 58:-0.13180542 59:-2.5841331 60:0.96136475 61:0.96314621 62:3.4290733 63:-0.42999268 64:-1.5034485 65:-2.9028778 66:2.3528442 67:-0.61354828 68:-0.27560806 69:-1.6328125 70:-1.5955925 71:0.98434448 72:-1.3265381 
0.8896484375 1:-78.634445 2:-4.6035004 3:-61.791748 4:-119.03344 5:-16.725563 6:-40.794434 7:-77.924866 8:-24.393703 9:-16.106873 10:-9.7283058 11:1.9081612 12:-6.7452393 13:-1.3818893 14:-1.6440048 15:3.3881836 16:2.5963135 17:0.2496109 18:1.5249023 19:0.2534523 20:-1.9728737 21:-0.19873047 22:1.1428337 23:0.89012909 24:-1.8312378 25:-2.7899323 26:-0.49206924 27:1.2108154 28:-0.63698196 29:-3.3349419 30:1.9124146 31:0.02570343 32:1.9914932 33:-0.25762939 34:2.1836739 35:-2.3799019 36:0.65704346 37:0.78829956 38:0.61378098 39:0.30236816 40:-2.1315155 41:-0.60255432 42:-0.21240234 43:634.35699 44:99.583603 45:324.93915 46:-4.4364014 47:-2.7132263 48:-5.1759033 49:6.8742065 50:2.071991 51:-5.1251221 52:9.9886475 53:-2.1615601 54:11.220093 55:15.930908 56:9.1243896 57:6.7774658 58:3.7272949 59:-4.9221191 60:14.348389 61:1.7303467 62:-6.3569794 63:-4.8673096 64:1.911377 65:-5.4831543 66:1.5844727 67:-1.9707642 68:3.1893921 69:-1.5795898 70:-2.8661499 71:1.5103149 72:-2.4969482 
0.888671875 1:-127.37617 2:-11.686668 3:-83.053589 4:-143.2345 5:-34.883884 6:-34.432373 7:-16.782574 8:1.3716545 9:-6.586792 10:2.541481 11:-1.4475975 12:3.3132935 13:1.5077477 14:-0.55787277 15:-0.77215576 16:-0.2578392 17:-1.4162979 18:-0.32727051 19:-2.5354004 20:-1.4980888 21:2.4269409 22:2.0220947 23:0.10251999 24:-0.23480225 25:1.3700638 26:0.20401001 27:0.44805908 28:-3.8281708 29:1.2676125 30:-0.4486084 31:631.22278 32:94.919052 33:320.48798 34:12.447021 35:3.9335022 36:-0.18981934 37:17.5495 38:2.6804504 39:15.485718 40:8.5301514 41:-1.8058929 42:11.016479 43:0.10437012 44:-16.108871 45:-4.3364258 46:-1.0599976 47:8.445755 48:-0.5201416 49:-398.39886 50:-50.717316 51:-253.21259 52:101.49681 53:-3.75 54:54.517334 55:23.628143 56:-4.5223007 57:10.214966 58:-39.355103 59:-3.6096039 60:-21.485229 61:-74.985687 62:-12.303841 63:-42.181396 64:-70.577759 65:-17.337013 66:-40.265564 67:-61.453087 68:-15.594666 69:-33.049683 70:-24.332466 71:-2.9273682 72:-8.0845947 
0.888671875 1:-181.05833 2:-18.580498 3:-99.060303 4:-105.68245 5:-27.40107 6:-25.076111 7:1.889019 8:-0.66492844 9:3.3769531 10:0.33499146 11:-1.1950455 12:-0.79571533 13:-0.36499023 14:0.68308258 15:0.59991455 16:0.058727264 17:-3.5176163 18:1.6898193 19:-0.46107483 20:0.2767868 21:0.92242432 22:630.15845 23:98.599838 24:321.23083 25:13.102173 26:-0.11782837 27:-0.44128418 28:21.035889 29:2.3182831 30:20.544922 31:6.3829346 32:-9.2809601 33:3.6669922 34:-2.7456665 35:0.91668701 36:-4.5294189 37:-371.76639 38:-47.048477 39:-240.09857 40:97.233856 41:-9.5433807 42:49.93988 43:-24.350769 44:-5.1569824 45:-10.855957 46:-89.160492 47:-11.67157 48:-50.984802 49:-86.703751 50:-24.079449 51:-51.119141 52:-66.777641 53:-13.900955 54:-31.336304 55:193.49106 56:22.04314 57:88.339233 58:-105.77731 59:-1.6918869 60:-48.026306 61:-75.98658 62:-10.979877 63:-37.548645 64:-55.717667 65:-17.392744 66:-21.968872 67:-13.165845 68:-0.6678524 69:-9.3317261 70:3.1524973 71:0.38353729 72:-0.25024414 
0.888671875 1:-239.44264 2:-31.61982 3:-111.41736 4:-46.938728 5:-13.30088 6:-11.102173 7:3.5474281 8:-2.169426 9:0.74432373 10:-2.0478172 11:-0.068332672 12:0.81994629 13:1.3407059 14:-1.6071053 15:1.8636475 16:626.02917 17:87.886917 18:325.69965 19:13.795227 20:13.513641 21:-5.9481201 22:24.746033 23:-1.4691315 24:25.059448 25:3.6776123 26:-10.938583 27:-1.3631592 28:-435.00577 29:-52.082947 30:-271.65643 31:158.41586 32:-2.6994629 33:79.270569 34:-44.518219 35:-7.132164 36:-23.672241 37:-122.79041 38:-19.324432 39:-66.163208 40:-92.670364 41:-28.980949 42:-52.279114 43:169.87512 44:20.198463 45:79.561951 46:-122.20123 47:-5.079834 48:-58.559814 49:-87.010803 50:-16.479824 51:-35.51532 52:-24.833099 53:-6.6994362 54:-16.204773 55:168.64502 56:61.830017 57:68.952087 58:100.40533 59:12.198593 60:56.166077 61:-60.966873 62:-13.94416 63:-35.080383 64:-130.76733 65:-27.826366 66:-67.83197 67:-79.423508 68:-21.296181 69:-45.308594 70:-12.610827 71:4.099205 72:-5.2030029 
0.888671875 1:-275.59274 2:-45.722767 3:-118.69305 4:-8.9406204 5:-3.2352142 6:-0.33361816 7:0.6797142 8:1.011013 9:-2.4798584 10:-0.24599838 11:0.36881638 12:2.2618408 13:629.31818 14:94.991974 15:322.758 16:28.634705 17:5.9223022 18:6.9986572 19:11.5224 20:-14.535828 21:14.899658 22:-451.6449 23:-57.381866 24:-281.06952 25:177.21056 26:3.3884125 27:90.820862 28:-95.180618 29:-13.553932 30:-54.571533 31:-134.59639 32:-33.895847 33:-75.950867 34:163.62646 35:14.091919 36:75.655396 37:-154.09531 38:-6.6422234 39:-72.036438 40:-97.045319 41:-23.225502 42:-41.397644 43:-7.8567295 44:1.1007957 45:-8.3917236 46:259.23767 47:75.351944 48:119.25055 49:-46.073532 50:-16.612816 51:-24.090942 52:-152.88412 53:-31.073303 54:-80.905273 55:-75.395569 56:-16.158279 57:-42.447083 58:317.20352 59:49.897636 60:129.97577 61:96.643127 62:-1.3330841 63:49.297302 64:-73.040924 65:-16.992767 66:-25.556519 67:-157.98413 68:-23.493736 69:-69.135803 70:-84.884293 71:-12.546078 72:-17.409912 
0.888671875 1:-284.70697 2:-45.864498 3:-124.09351 4:1.3629646 5:-1.3398705 6:2.5618896 7:-2.8255005 8:-1.0756531 9:2.4559937 10:-0.40375137 11:-0.26459122 12:-0.5916748 13:650.80084 14:95.324661 15:328.23407 16:21.148071 17:-7.9797516 18:16.844849 19:-387.60181 20:-43.828125 21:-249.61609 22:96.786209 23:-10.133324 24:51.616577 25:-159.36208 26:-29.779518 27:-88.913025 28:166.8037 29:-4.4260216 30:72.57196 31:-199.99059 32:-4.5675011 33:-97.395996 34:-114.10783 35:-24.044594 36:-49.792542 37:147.81769 38:47.780716 39:55.003845 40:116.23849 41:23.858818 42:65.512207 43:-158.99142 44:-29.279549 45:-85.534607 46:-118.8333 47:-30.949348 48:-65.59198 49:313.7467 50:50.65538 51:126.9812 52:91.234863 53:-2.4350281 54:48.538757 55:-122.68433 56:-21.566475 57:-50.320618 58:-162.60309 59:-23.961979 60:-58.462708 61:271.0239 62:48.277622 63:140.28937 64:-37.552765 65:-20.969452 66:-26.8573 67:-190.01672 68:-14.646805 69:-104.66309 70:-102.40552 71:-6.6889191 72:-31.823059 
0.888671875 1:-287.53897 2:-43.422935 3:-124.95502 4:3.1665726 5:-5.1612816 6:3.2699585 7:0.2727356 8:1.0060654 9:2.4403687 10:631.83325 11:97.078064 12:316.81244 13:35.442566 14:1.6825867 15:29.565308 16:-464.32901 17:-84.227692 18:-290.74548 19:180.78091 20:18.93058 21:92.728577 22:-169.6658 23:-33.345432 24:-95.035889 25:132.98587 26:-1.5233383 27:55.315979 28:-200.17784 29:-10.224674 30:-94.840576 31:-79.028908 32:-18.38405 33:-35.77301 34:246.97032 35:75.195259 36:111.23297 37:-61.723862 38:-18.696312 39:-34.28595 40:-170.98979 41:-46.585739 42:-92.002014 43:258.75723 44:57.022583 45:99.583862 46:122.73135 47:-6.7958984 48:65.050537 49:-135.2597 50:-20.982933 51:-55.994568 52:-167.20668 53:-27.173637 54:-54.337952 55:286.25006 56:27.396469 57:140.01556 58:-92.57077 59:-9.8001213 60:-60.797546 61:-221.16989 62:-9.1091919 63:-100.89032 64:142.1687 65:25.904171 66:93.496033 67:-184.88058 68:-39.392742 69:-82.902832 70:-1.9520493 71:-1.466198 72:2.8955688 
-1 1:-286.24619 2:-46.134655 3:-123.64398 4:2.2915077 5:-0.21273422 6:1.6904297 7:-1.329422 8:-4.051899 9:3.6105347 10:651.20514 11:96.860214 12:327.69165 13:18.144104 14:-8.9632111 15:15.00647 16:-282.14459 17:-51.526611 18:-195.70233 19:-122.22202 20:-18.723091 21:-65.684753 22:122.46753 23:-20.721191 24:51.095459 25:-227.31604 26:-2.7885246 27:-114.55127 28:-90.881866 29:-21.791599 30:-40.37439 31:263.75635 32:76.456032 33:120.57776 34:-133.73111 35:-29.686951 36:-69.246887 37:-142.85715 38:-34.377403 39:-79.735779 40:384.44781 41:50.288536 42:157.85876 43:-37.92392 44:-18.427094 45:-1.519165 46:-214.67677 47:-29.461643 48:-84.741028 49:265.12622 50:38.009533 51:138.91541 52:-104.30664 53:-23.315643 54:-68.697388 55:-224.25974 56:-8.2461967 57:-96.307861 58:79.393944 59:8.4131165 60:59.832153 61:-112.66371 62:-21.276482 63:-47.927856 64:114.87982 65:-5.1043892 66:-315.08234 67:-85.690414 68:-4.4629765 69:302.40887 70:-1.934845 71:-7.8827801 72:-10.494507 
-1 1:-286.70294 2:-45.458611 3:-122.05011 4:0.56568527 5:-4.6601448 6:2.6181641 7:635.22321 8:99.206421 9:325.42853 10:31.943481 11:2.0782013 12:19.722778 13:-447.29865 14:-69.747437 15:-281.37726 16:140.0172 17:1.1925278 18:70.480713 19:-217.21001 20:-46.649323 21:-120.98608 22:60.138901 23:12.200165 24:28.463562 25:-132.75368 26:-26.274855 27:-62.247803 28:256.90845 29:76.597992 30:115.67688 31:-134.47467 32:-31.378792 33:-68.915894 34:-136.33012 35:-32.500305 36:-76.952454 37:411.05487 38:44.741486 39:175.08191 40:-117.89157 41:-20.581139 42:-42.866394 43:-192.41589 44:-28.136864 45:-64.522766 46:281.70639 47:39.449867 48:132.68433 49:-215.19739 50:-21.294075 51:-121.46051 52:131.27261 53:29.569893 54:99.087341 55:-255.91321 56:-46.835369 57:-118.5509 58:-7.7769012 59:-3.596035 60:0.53198242 61:58.936279 62:-4.8894806 63:-102.27979 64:-29.989685 65:-10.153931 66:78.47937 67:69.618416 68:-6.6126432 69:-148.4129 70:-55.771935 71:7.4185839 72:180.06 
-1 1:-285.33975 2:-44.583168 3:-121.53326 4:0.74477386 5:-3.7081833 6:1.8537598 7:632.02045 8:97.288452 9:317.98492 10:37.969849 11:-7.8770599 12:28.353027 13:-292.39371 14:-53.132294 15:-200.47595 16:-140.00365 17:-26.320198 18:-76.782227 19:65.015289 20:-11.461761 21:20.017456 22:-215.48703 23:-26.911476 24:-97.169556 25:196.28049 26:70.844589 27:78.937439 28:-70.824829 29:-21.756699 30:-33.535828 31:-157.89746 32:-37.455215 33:-87.846802 34:415.99371 35:47.98056 36:180.02472 37:-191.48462 38:-41.71452 39:-77.428711 40:151.85095 41:47.147625 42:98.41095 43:-55.232239 44:-31.114876 45:-42.755798 46:-253.70987 47:-13.407528 48:-112.16443 49:18.608871 50:-1.9032669 51:31.909607 52:-50.713966 53:-14.117508 54:-18.033447 55:78.062325 56:-5.4044838 57:-165.39532 58:-49.647232 59:-9.5128021 60:141.67505 61:51.720428 62:-2.9871101 63:-91.578491 64:48.780006 65:-32.490009 66:-179.08215 67:-59.073074 68:8.44699 69:173.90906 70:-27.308594 71:6.2424307 72:78.006714 
-1 1:-284.10663 2:-45.209 3:-120.52521 4:1.062458 5:-4.062603 6:0.99761963 7:648.96515 8:95.732529 9:328.87622 10:15.214783 11:-2.1316376 12:11.264526 13:-330.65179 14:-67.883751 15:-220.04413 16:51.51767 17:-25.812229 18:10.502014 19:-284.76871 20:-18.775578 21:-132.51477 22:181.57373 23:62.281174 24:72.629333 25:-97.636826 26:-27.115318 27:-48.435486 28:104.87086 29:-2.8116913 30:19.535278 31:158.63577 32:11.360764 33:82.676392 34:-261.69318 35:-38.834484 36:-102.63031 37:253.15993 38:33.867634 39:130.10156 40:-262.73553 41:-25.293861 42:-146.65833 43:57.030464 44:12.357979 45:64.548401 46:-144.89917 47:-26.906494 48:-61.480042 49:96.073128 50:-13.81032 51:-228.45715 52:-67.114212 53:-4.556921 54:205.61053 55:30.928772 56:5.1132317 57:-17.174683 58:56.659195 59:-34.31892 60:-219.33923 61:-62.391975 62:3.3590579 63:185.79041 64:83.168068 65:-4.9949813 66:-252.90784 67:-37.364014 68:6.4977493 69:78.333862 70:-45.956673 71:9.267849 72:225.03687 
-1 1:-282.61456 2:-45.674137 3:-120.46765 4:-1.6478424 5:-4.9163322 6:2.9643555 7:665.43298 8:101.07761 9:345.5448 10:-299.2944 11:-59.355011 12:-205.36951 13:-168.63959 14:-43.875675 15:-100.27423 16:-7.4732819 17:-0.30593109 18:-6.2836914 19:-119.96988 20:-24.268471 21:-57.643921 22:191.32312 23:57.933407 24:81.502441 25:-208.66049 26:-43.503429 27:-109.86462 28:401.92517 29:38.889553 30:176.16064 31:-276.5524 32:-39.877834 33:-106.26001 34:250.23254 35:34.768322 36:124.99475 37:-298.65384 38:-28.470421 39:-148.80487 40:-5.6793823 41:-2.6377525 42:24.65448 43:53.566833 44:-16.626179 45:-228.26111 46:-57.126572 47:-5.520071 48:198.33331 49:106.80371 50:-8.574297 51:-314.30548 52:-6.074707 53:-31.57342 54:33.750183 55:-69.439064 56:7.048461 57:204.59882 58:75.970451 59:-1.2512107 60:-231.27216 61:-49.300552 62:3.212203 63:102.61658 64:25.321411 65:0.50451469 66:53.151245 67:29.175598 68:-8.1221066 69:-135.36621 70:-97.900948 71:32.258686 72:281.29541 
-1 1:-283.34402 2:-47.204369 3:-121.53162 4:-2.9932556 5:-2.303257 6:2.4155884 7:670.05554 8:91.616119 9:342.22076 10:-274.77161 11:-57.578728 12:-189.30853 13:-267.82217 14:-53.893848 15:-146.12207 16:-23.891499 17:1.2218132 18:-9.1178589 19:223.59866 20:66.627205 21:97.173096 22:-220.94897 23:-55.479088 24:-118.20422 25:340.991 26:40.970604 27:133.97467 28:-173.24637 29:-42.128258 30:-62.474915 31:179.57623 32:33.203072 33:111.12091 34:-267.26404 35:-29.294975 36:-151.58484 37:-6.1040802 38:0.34601974 39:35.8479 40:-88.969643 41:-18.178707 42:-34.562866 43:31.49823 44:-8.3847656 45:-17.507141 46:106.60816 47:-10.475487 48:-315.71918 49:-8.6593628 50:-31.660278 51:38.765259 52:-72.886856 53:8.0052357 54:212.97937 55:79.825623 56:-2.1024246 57:-248.66211 58:-57.929657 59:11.086847 60:160.64038 61:57.001862 62:-4.0328708 63:-70.518799 64:-27.086426 65:-10.274063 66:30.480591 67:-98.447464 68:-33.75103 69:-147.27383 70:-81.796471 71:26.555212 72:285.55569 
-0.5166015625 1:-283.46906 2:-46.347897 3:-122.06036 4:625.95715 5:85.469254 6:328.6684 7:40.792419 8:-4.0477295 9:16.188599 10:-303.96344 11:-53.373238 12:-204.96722 13:-26.21225 14:-30.785732 15:-33.47522 16:-269.1817 17:-29.027712 18:-124.3017 19:245.67302 20:67.47831 21:111.85577 22:-259.51181 23:-54.438263 24:-142.10529 25:385.42859 26:38.437782 27:171.73193 28:-286.89783 29:-43.643208 30:-104.08667 31:202.0844 32:22.265999 33:79.799316 34:-17.554352 35:23.983761 36:23.334412 37:-247.77515 38:-45.587067 39:-111.75751 40:42.466297 41:-6.5263786 42:-51.454773 43:106.91418 44:-50.745846 45:-316.02063 46:-17.578156 47:-5.8007774 48:65.831055 49:-72.284607 50:15.959503 51:214.87903 52:75.960464 53:1.0555401 54:-242.12988 55:-62.353615 56:11.034657 57:188.54376 58:69.311958 59:-6.4580112 60:-138.5094 61:-58.258049 62:3.2493751 63:145.7818 64:-82.68808 65:-35.106091 66:-211.22827 67:26.398876 68:3.6368008 69:29.159302 70:-77.935715 71:8.2501526 72:258.19537 
-0.59375 1:-283.46906 2:-46.347897 3:-122.06036 4:625.95715 5:85.469254 6:328.6684 7:40.792419 8:-4.0477295 9:16.188599 10:-303.96344 11:-53.373238 12:-204.96722 13:-26.21225 14:-30.785732 15:-33.47522 16:-269.1817 17:-29.027712 18:-124.3017 19:245.67302 20:67.47831 21:111.85577 22:-259.51181 23:-54.438263 24:-142.10529 25:385.42859 26:38.437782 27:171.73193 28:-286.89783 29:-43.643208 30:-104.08667 31:202.0844 32:22.265999 33:79.799316 34:-17.554352 35:23.983761 36:23.334412 37:-247.77515 38:-45.587067 39:-111.75751 40:42.466297 41:-6.5263786 42:-51.454773 43:106.91418 44:-50.745846 45:-316.02063 46:-17.578156 47:-5.8007774 48:65.831055 49:-72.284607 50:15.959503 51:214.87903 52:75.960464 53:1.0555401 54:-242.12988 55:-62.353615 56:11.034657 57:188.54376 58:69.311958 59:-6.4580112 60:-138.5094 61:-58.258049 62:3.2493751 63:145.7818 64:-82.68808 65:-35.106091 66:-211.22827 67:26.398876 68:3.6368008 69:29.159302 70:-77.935715 71:8.2501526 72:258.19537 
