svm_type one_class
kernel_type rbf
gamma 0.25
nr_class 2
total_sv 4
rho 0.5
SV
0.5 1:-0.076828003 2:-0.45649338 3:-0.2935791 4:1.1219788 5:0.3066864 6:-0.30432129 7:-0.35662842 8:0.40057564 9:-0.38378906 10:0.14738464 11:0.10355377 12:-0.24615479 13:-1.4414825 14:-0.086610794 15:-0.041320801 16:-0.24705505 17:1.2225876 18:0.21063232 19:-1.0968475 20:1.4526997 21:0.43170166 22:-1.686554 23:0.61667824 24:0.10565186 25:-0.0094451904 26:0.83547974 27:0.10693359 28:-2.5273285 29:-1.2525711 30:-0.18658447 31:-2.6951523 32:0.20201492 33:0.15692139 34:0.71121979 35:1.4930248 36:-0.62219238 37:0.38878632 38:0.66821098 39:0.34423828 40:-0.061218262 41:0.3040638 42:0.26116943 43:0.552742 44:0.56697464 45:0.28588867 46:1.9907608 47:-0.28621292 48:0.35357666 49:1.2976685 50:-1.1676579 51:0.62976074 52:0.52346039 53:0.4675293 54:-0.3404541 55:-0.12747192 56:0.060569763 57:-0.18286133 58:-0.42298889 59:0.26280785 60:0.029296875 61:0.98365784 62:-0.23710251 63:0.14434814 64:-1.0291901 65:-0.6356411 66:-0.31005859 67:0.8094635 68:0.33438301 69:0.21765137 70:0.42739868 71:0.94815445 72:-0.94049072 73:-0.66455078 74:-0.76546478 75:0.083251953 76:-0.28337097 77:1.0906162 78:-0.57049561 79:0.8422699 80:1.2960377 81:0.024780273 82:0.29060364 83:-0.089643478 84:0.35888672 85:2.732666 86:-7.3251591 87:1.0403442 
0.5 1:0.075622559 2:-0.24504852 3:0.2789917 4:0.54855347 5:0.67492294 6:0.03729248 7:0.38803101 8:0.0054149628 9:0.14447021 10:1.0546341 11:-0.072834015 12:0.42333984 13:-0.55743408 14:0.086658478 15:-0.2399292 16:-0.64526367 17:-0.50845909 18:-0.064941406 19:0.6445694 20:-0.13699722 21:-0.39764404 22:-0.059494019 23:-1.0995884 24:-0.001159668 25:0.052383423 26:-0.051267624 27:-0.70898438 28:-1.588768 29:-0.0016269684 30:-0.60662842 31:0.7250824 32:-0.21007729 33:-0.10906982 34:0.51626587 35:0.26044846 36:0.34295654 37:-0.07371521 38:0.51713181 39:0.13934326 40:-4.241684 41:3.9631233 42:-0.17321777 43:-0.6736908 44:-0.21764183 45:-0.2043457 46:0.61896515 47:-0.79786682 48:0.23138428 49:-0.0012512207 50:-1.2950916 51:0.05871582 52:0.73204803 53:-0.63614845 54:-0.28991699 55:0.28036499 56:0.50255203 57:-0.56518555 58:0.7970047 59:-0.20853233 60:-0.12023926 61:-0.22855377 62:-0.094423294 63:0.31646729 64:1.3382187 65:-0.72381401 66:0.47625732 67:-1.3684082 68:-0.12162781 69:0.12988281 70:0.1517868 71:-0.089799881 72:-0.077941895 73:0.276474 74:-0.010511398 75:0.37609863 76:1.0844498 77:0.37652588 78:-0.078369141 79:-0.318367 80:0.25269508 81:0.17254639 82:0.22299957 83:0.33514214 84:0.073608398 85:0.34760284 86:0.14811707 87:-0.0051269531 
0.5 1:0.31333923 2:-0.035596371 3:-0.095275879 4:11.206802 5:-11.093678 6:-5.8042603 7:-0.76333618 8:1.5269656 9:0.73339844 10:-0.9772644 11:0.71054029 12:0.69396973 13:1.2502747 14:0.25812221 15:1.7175903 16:-2.1250153 17:-0.34201956 18:0.94177246 19:-2.3671722 20:0.76734698 21:0.85009766 22:-0.38725281 23:2.2272263 24:0.36322021 25:1.0986633 26:0.54771799 27:0.72039795 28:-0.74536133 29:0.99597305 30:0.45111084 31:-2.006958 32:0.92168939 33:-0.19012451 34:-2.0731812 35:0.87923527 36:0.47076416 37:-1.0895844 38:1.2105806 39:-0.1975708 40:-0.86787415 41:0.96192646 42:-0.26776123 43:-0.20375061 44:0.40616417 45:-0.47802734 46:0.43952942 47:0.56652546 48:-0.54656982 49:0.50538635 50:0.50099373 51:-0.40710449 52:-0.8099823 53:0.20508671 54:-0.82946777 55:-0.60031128 56:-0.21926498 57:0.054321289 58:0.46485901 59:-0.68944407 60:0.29174805 61:-0.59629822 62:0.2199769 63:0.29754639 64:0.82749939 65:0.43375635 66:-0.22900391 67:-1.2819672 68:-1.0095325 69:0.75372314 70:-0.054107666 71:0.29868698 72:0.20495605 73:0.71879578 74:0.5582509 75:-0.045043945 76:0.55055237 77:0.21282005 78:0.24688721 79:-0.75970459 80:-0.63469076 81:0.15802002 82:0.4924469 83:-0.3966589 84:0.26062012 85:-0.10443115 86:0.33902025 87:-0.47460938 
0.5 1:0.092498779 2:1.2523232 3:0.26428223 4:0.30839539 5:1.0120201 6:-0.10552979 7:0.34925079 8:0.43833733 9:0.34796143 10:0.89446259 11:0.3603611 12:0.56079102 13:-0.093276978 14:1.536562 15:0.16320801 16:1.2996445 17:1.4063778 18:0.61419678 19:-0.5094223 20:-0.036724091 21:0.26928711 22:0.98284912 23:1.4649792 24:0.1585083 25:-0.97293091 26:-0.20887566 27:0.44219971 28:2.4395218 29:1.8054543 30:0.40472412 31:-0.61293793 32:-0.39064789 33:0.40887451 34:1.1688232 35:1.3370056 36:-0.067687988 37:0.74234009 38:0.80118179 39:0.67346191 40:-0.084274292 41:1.3207798 42:0.15698242 43:0.91885376 44:0.44680595 45:0.36071777 46:0.64296722 47:0.66467667 48:0.23956299 49:-0.88806915 50:-1.0294647 51:0.34881592 52:0.20491791 53:0.72448349 54:0.043029785 55:-8.0611877 56:-19.182886 57:-6.7723389 58:-2.7742538 59:-2.2103844 60:0.99523926 61:0.1224823 62:2.0003395 63:0.35717773 64:-0.62516022 65:1.4277802 66:0.24102783 67:0.2824707 68:0.26140594 69:0.74481201 70:0.33833313 71:0.82484818 72:-0.047546387 73:0.98193359 74:1.8083839 75:-0.26971436 76:1.4657135 77:0.080217361 78:-0.12011719 79:0.28620148 80:0.27710915 81:-0.27478027 82:0.63800049 83:-0.61221695 84:-0.070556641 85:-0.2026062 86:1.8581638 87:-0.28491211 
